{"model_data": {"model": "SimpleRNN", "input_size": 2, "skip": 1, "output_size": 1, "unit_type": "LSTM", "num_layers": 1, "hidden_size": 40, "bias_fl": true}, "state_dict": {"rec.weight_ih_l0": [[0.006148290354758501, 0.024577219039201736], [0.020925156772136688, 0.014019344002008438], [0.0011486484436318278, 0.0373908095061779], [0.010398183949291706, 0.05328166112303734], [0.002573915058746934, 0.047146424651145935], [0.015404239296913147, 0.0424918569624424], [0.0018593978602439165, 0.035394880920648575], [-0.02070438489317894, 0.11791481077671051], [0.033380720764398575, 0.010173498652875423], [0.2039192020893097, -0.03296066075563431], [-0.012140534818172455, -0.0051435986533761024], [0.014072433114051819, 0.04246560111641884], [0.014259237796068192, 0.041982922703027725], [0.04420057684183121, 0.016445094719529152], [-0.015227163210511208, -0.008337568491697311], [-0.01240743137896061, 0.1448236107826233], [-0.03467649221420288, -0.21345730125904083], [-0.02877761423587799, 0.021746963262557983], [-0.0034181256778538227, 0.00243266555480659], [-0.15635138750076294, -0.21978814899921417], [0.0016732726944610476, 0.020241467282176018], [0.017356563359498978, 0.05583766847848892], [-0.0010812237160280347, 0.04173311963677406], [-0.19734874367713928, -0.12573130428791046], [-0.22670063376426697, -0.5233346819877625], [-0.07431502640247345, -0.5042678713798523], [-0.020021818578243256, 0.007130319252610207], [-0.031474124640226364, 0.010920297354459763], [0.0024876571260392666, 0.06488709151744843], [0.02238483913242817, -0.16582106053829193], [-0.021543903276324272, 0.2338886559009552], [-0.042212340980768204, 0.5658047795295715], [-0.0011178350541740656, 0.07999689131975174], [0.01138799823820591, -0.003030455205589533], [-0.0392562672495842, -0.10188242048025131], [-0.013205389492213726, -0.03697700798511505], [0.0016667252639308572, 0.0765833929181099], [0.1088038757443428, 0.689041793346405], [0.023989373818039894, 0.035828787833452225], [-0.0029036863707005978, 0.06505169719457626], [0.007970839738845825, 0.15148338675498962], [-0.003111404599621892, 0.024026958271861076], [-0.003692370606586337, 0.07812952995300293], [0.0004733579989988357, 0.14129190146923065], [0.01584456115961075, 0.037235651165246964], [0.023229647427797318, 0.04759065806865692], [0.0159707423299551, 0.04673456773161888], [-0.06002958491444588, -0.012570899911224842], [-0.04102999344468117, 0.027157194912433624], [0.19943022727966309, 0.043294474482536316], [0.03467804193496704, 0.06052633747458458], [-0.0037484706845134497, 0.04098835214972496], [-0.03485899791121483, 0.2873457670211792], [0.012396103702485561, 0.046021874994039536], [0.02267402410507202, 0.08032313734292984], [-0.06046981364488602, -0.13326120376586914], [-0.011450338177382946, 0.33983248472213745], [-0.03073756769299507, 0.03301910683512688], [0.008406530134379864, 0.10990426689386368], [-0.009019624441862106, 0.19960704445838928], [0.04496371001005173, 0.00024360595853067935], [0.023748556151986122, 0.04722456634044647], [0.0005242079496383667, 0.11648374795913696], [-0.10965357720851898, 0.07766599208116531], [-0.057454537600278854, 0.7395975589752197], [-0.08264972269535065, 0.3225094974040985], [0.005204541143029928, 0.028373364359140396], [-0.038166578859090805, 0.04368972405791283], [0.037586625665426254, 0.05094949156045914], [0.022280242294073105, 0.013954860158264637], [-0.03901967033743858, 0.03604504093527794], [-0.02270052395761013, 0.6009278893470764], [0.05870784819126129, 0.13265998661518097], [0.011666116304695606, 0.14824232459068298], [-0.029605399817228317, -0.04431676119565964], [-0.06728586554527283, -0.002084595151245594], [0.003697091480717063, -0.024455398321151733], [0.049556806683540344, -0.005147756077349186], [0.05828726664185524, 0.11320749670267105], [-0.006541932933032513, 0.1302550584077835], [0.04181228578090668, -0.08272115886211395], [0.1275600641965866, -0.006312784738838673], [-0.7518439292907715, 0.039658669382333755], [-0.06336773186922073, 0.1043425053358078], [0.1377505660057068, 0.12300840020179749], [0.005951111204922199, 0.02055314928293228], [0.04272148385643959, -0.08208824694156647], [-0.7049275636672974, -0.06625659763813019], [-0.05639004334807396, 0.012598227709531784], [0.3287743926048279, -0.07752015441656113], [0.10385984927415848, 0.031146368011832237], [-0.11944680660963058, -0.030363203957676888], [-0.009504412300884724, 0.08861073851585388], [0.020535076037049294, 0.02828633226454258], [0.01328310091048479, -0.027100279927253723], [-0.5240488648414612, -0.05718699097633362], [0.00821421667933464, -0.41590678691864014], [0.05574100464582443, -0.049983616918325424], [-0.14858128130435944, -0.01027713157236576], [-0.3062490224838257, 0.027721164748072624], [0.06689370423555374, 0.02791319228708744], [-0.057982634752988815, -0.06925131380558014], [-0.09345326572656631, -0.039914220571517944], [0.18037018179893494, -0.15623122453689575], [0.5191561579704285, 0.04424081742763519], [0.028551658615469933, 0.046570438891649246], [-0.00957820937037468, 0.039712559431791306], [-0.13070055842399597, 0.2876526713371277], [0.1373322308063507, 0.04510803148150444], [0.043237172067165375, 0.07617131620645523], [-0.01860918290913105, 0.041269756853580475], [1.3431859016418457, -0.11678633093833923], [0.01407354511320591, -0.7266098260879517], [-0.010397212579846382, 0.033000506460666656], [-0.26418453454971313, -0.013393985107541084], [0.0683295801281929, 0.008292428217828274], [-0.1290641576051712, -0.07438613474369049], [0.0750579684972763, 0.016184737905859947], [-0.03849620744585991, 0.1366422176361084], [0.04830251261591911, 0.00787272583693266], [0.0033873349893838167, 0.0471000149846077], [0.025979606434702873, 0.07633852958679199], [0.014207090251147747, 0.04367312788963318], [0.007679001893848181, 0.07280851900577545], [0.018389230594038963, 0.05996381491422653], [-0.0005072135245427489, -0.061942026019096375], [0.011000346392393112, 0.0946328341960907], [-0.01607351191341877, 0.13311363756656647], [0.015697412192821503, 0.052530646324157715], [0.10993906855583191, 0.1380658894777298], [0.015808330848813057, 0.024287184700369835], [0.01781182736158371, 0.06214168295264244], [0.01975732110440731, 0.10014025866985321], [0.02083602175116539, 0.049460720270872116], [0.021120870485901833, 0.030159197747707367], [-0.013872473500669003, 0.158657506108284], [-0.02339000627398491, 0.10712968558073044], [-0.00019550597062334418, 0.04132326692342758], [0.002721785567700863, 0.030246378853917122], [-0.060582518577575684, 0.10785594582557678], [0.01658676378428936, 0.08527923375368118], [0.015056026168167591, 0.058294862508773804], [-0.07629455626010895, 0.015681976452469826], [0.0002391197340330109, 0.20291578769683838], [-0.07749699056148529, 0.1174268126487732], [-0.010421034879982471, 0.16513516008853912], [-0.02797374315559864, 0.026799749583005905], [-0.002886159112676978, 0.16459617018699646], [-0.022625571116805077, 0.07828769087791443], [-0.025941096246242523, 0.062154266983270645], [0.009800449013710022, -0.060836758464574814], [-0.007401372771710157, 0.032605480402708054], [-0.0185951329767704, -0.059720464050769806], [0.010053612291812897, 0.05098383128643036], [-0.007808244321495295, 0.11334307491779327], [-0.025637904182076454, 0.02220829576253891], [-0.014578302390873432, 0.07771879434585571], [0.010365716181695461, 0.014011434279382229], [0.06388503313064575, 0.20114675164222717], [-0.08744823932647705, 0.06870590895414352]], "rec.weight_hh_l0": [[0.09068194776773453, -0.013877843506634235, -0.00173413404263556, 0.007493209559470415, -0.04656493291258812, -0.08801822364330292, -0.02738812379539013, -0.033392827957868576, 0.020855072885751724, 0.04557971656322479, 0.05240536108613014, 0.0009289691806770861, 0.05739934369921684, -0.08163709938526154, 0.05123971775174141, -0.006038903724402189, 0.05100194737315178, 0.05657912418246269, -0.06541625410318375, -0.01836441457271576, -0.05540892854332924, -0.012297777459025383, 0.02269183099269867, 0.012805291451513767, -0.0409168116748333, 0.04692399874329567, 0.03639870136976242, 0.12739615142345428, 0.012972652912139893, 0.009216630831360817, 0.012700076214969158, -0.05017055198550224, -0.007823331281542778, -0.048506129533052444, 0.025387920439243317, 0.027752332389354706, 0.006071488372981548, 0.030886223539710045, 0.14978231489658356, -0.028090685606002808], [-0.0004380787431728095, 0.05414286628365517, -0.009174204431474209, -0.11845793575048447, 0.007790250238031149, -0.07623516023159027, -0.009280040860176086, -0.04255449026823044, -0.02960675209760666, 0.003624547040089965, -0.025374263525009155, -0.01139655988663435, 0.006254643201828003, 0.09265098720788956, 0.01656368188560009, -0.04271075502038002, -0.043700795620679855, -0.04817298799753189, 0.006159212905913591, 0.10569469630718231, 0.006756919901818037, 0.05313181132078171, 0.02594427764415741, -0.006141974125057459, -0.038240380585193634, -0.17078998684883118, 0.0467669814825058, 0.09825113415718079, 0.07296069711446762, -0.012950284406542778, 0.05143849551677704, 0.0001808801753213629, 0.12499520182609558, 0.0038872805889695883, -0.03396444395184517, -0.045174598693847656, -0.05759987235069275, 0.004287820775061846, 0.10845369100570679, 0.015264991670846939], [0.039525460451841354, -0.0019516050815582275, -0.015833621844649315, -0.1131691038608551, -0.01959552988409996, 0.05665120482444763, -0.010092901065945625, -0.02925967238843441, -0.01961388997733593, -0.08438772708177567, 0.006495201028883457, -0.008880320936441422, -0.04827919602394104, 0.011037826538085938, 0.2151026427745819, -0.012853667140007019, 0.06553947180509567, 0.03328992426395416, -0.016893165186047554, 0.10299418866634369, -0.0144517095759511, 0.014471991918981075, -0.21268220245838165, 0.035451389849185944, -0.053595442324876785, 0.14911435544490814, -0.01102851890027523, -0.2521829903125763, 0.015983041375875473, -0.0025737907271832228, -0.03290543705224991, 0.0441419817507267, 0.062587209045887, -0.016475288197398186, -0.035203613340854645, -0.027092326432466507, -0.003384652314707637, 0.00633658841252327, -0.2558310627937317, -0.18930192291736603], [-0.04709061607718468, 0.03503080829977989, 0.002926561748608947, -0.08630765974521637, 0.0344507060945034, -0.06603909283876419, 0.01394934207201004, -0.08792321383953094, 0.00262356735765934, 0.02132871188223362, -0.052522480487823486, 0.005941107403486967, 0.035713184624910355, -0.015618703328073025, 0.04219133406877518, -0.01002872921526432, -0.04810011014342308, 0.049975860863924026, 0.08426175266504288, -0.07509869337081909, 0.007373386528342962, 0.0023232523817569017, -0.047397613525390625, -0.15058940649032593, -0.03173431009054184, 0.017316410318017006, 0.03437241166830063, -0.05240060016512871, 0.05275367200374603, 0.015480099245905876, 0.0035153236240148544, -0.03027886524796486, 0.08073076605796814, -0.0028970763087272644, -0.0623277872800827, -0.03709740191698074, -0.04792053624987602, 0.08404744416475296, -0.05756339430809021, -0.03583512082695961], [0.025659868493676186, 0.008852300234138966, 0.007932610809803009, -0.09348896145820618, -0.01585037261247635, 0.045797768980264664, 0.01080374326556921, -0.008437927812337875, -0.015635862946510315, -0.05206763744354248, -0.00965831521898508, 0.0013291178038343787, -0.020230242982506752, -0.011237770318984985, 0.05800475925207138, -0.012585587799549103, 0.04690944403409958, 0.03281207010149956, 0.004900738596916199, 0.001857710420154035, 0.010587356053292751, -0.0026938249357044697, -0.15099960565567017, 0.004201856907457113, -0.03750860318541527, 0.11601866781711578, -0.029247691854834557, -0.1807803511619568, 0.019226213917136192, -0.020046070218086243, 0.004929527640342712, 0.019967619329690933, -0.012728349305689335, -0.00485581299290061, -0.032762978225946426, -0.008628582581877708, -0.004603949375450611, -0.008163915015757084, -0.1838635355234146, -0.13187626004219055], [0.015372106805443764, -0.028385823592543602, -0.0027318063657730818, -0.032688867300748825, -0.005874068010598421, 0.07159407436847687, -0.017463218420743942, 0.008250357583165169, 0.00555729866027832, -0.057527948170900345, 0.04244210943579674, -0.017298802733421326, -0.06455536931753159, 0.011211516335606575, 0.14857308566570282, 0.006195915397256613, 0.03520829230546951, 0.010711505077779293, -0.004078984260559082, 0.08638142794370651, -0.020220912992954254, 0.016177400946617126, -0.13973531126976013, 0.1138591393828392, -0.03166342154145241, 0.11855454742908478, -0.013807864859700203, -0.1591726541519165, -0.0011932651977986097, 0.03226488083600998, 0.045209452509880066, 0.046525273472070694, -0.0929381400346756, -0.00010314920655218884, -0.014885191805660725, -0.02480025216937065, 0.003962228074669838, -0.0010540279326960444, -0.16475540399551392, -0.14129604399204254], [0.02535283751785755, 0.0016522797523066401, 0.010479230433702469, -0.012869220227003098, -0.052267886698246, -0.08254250138998032, 0.003444409230723977, -0.0276488084346056, -0.0230588149279356, 0.02491731382906437, 0.011782911606132984, 0.0021399192046374083, -0.052052371203899384, 0.009311385452747345, 0.09019087255001068, -0.024282988160848618, -0.0037360633723437786, 0.1306506097316742, -0.00966516975313425, 0.047897856682538986, 0.014149855822324753, 0.00787950400263071, -0.07355613261461258, 0.0014498847303912044, -0.044522661715745926, 0.036945462226867676, 0.02581639029085636, -0.06383387744426727, -0.05645037442445755, 0.03978179395198822, 0.12477267533540726, 0.012008323334157467, -0.050923578441143036, 0.005762492772191763, 0.033505916595458984, -0.02178218588232994, -0.04301275312900543, 0.010856455191969872, -0.06481612473726273, -0.10417796671390533], [0.033031146973371506, 0.0021844319999217987, -0.0015539837768301368, -0.040648143738508224, -0.01800115965306759, 0.1166021078824997, -0.006496645510196686, 0.014686280861496925, -0.014897751621901989, -0.1109621599316597, 0.010153762996196747, 0.008188008330762386, -0.07257656753063202, -0.002308283932507038, 0.1938682645559311, -0.00627794349566102, 0.03135748952627182, 0.04127636179327965, -0.025272203609347343, 0.07112825661897659, -0.05759119242429733, -0.0010989380534738302, -0.23465929925441742, 0.19784052670001984, -0.08138170838356018, 0.23264583945274353, -0.03137914091348648, -0.2533932626247406, -0.027084022760391235, -0.022488178685307503, -0.024930469691753387, 0.04461619257926941, -0.23086810111999512, -0.015935305505990982, -0.017200373113155365, -0.05701586231589317, 0.01713569089770317, -0.03297445923089981, -0.2726461589336395, -0.2813837230205536], [0.007768092676997185, 0.02550845965743065, 0.03217928856611252, -0.11245331913232803, -0.0006036757258698344, 0.1165405735373497, -0.004952672403305769, -0.05736784636974335, -0.021453021094202995, -0.01044915895909071, -0.0355306938290596, 0.010240363888442516, 0.019818836823105812, -0.023065811023116112, 0.01787356473505497, -0.05315253883600235, 0.005832294002175331, -0.00963552761822939, 0.08897166699171066, 0.03408556059002876, 0.017703348770737648, 0.002027767011895776, -0.08150855451822281, -0.015150186605751514, 0.008881968446075916, -0.02054619789123535, -0.0017539160326123238, -0.05119689926505089, -0.0030127456411719322, -0.024036845192313194, -0.0263175331056118, 0.020237699151039124, 0.1360020488500595, -0.024889184162020683, -0.028321824967861176, -0.04295822232961655, -0.02714737504720688, -0.007633720524609089, -0.048082385212183, -0.08446625620126724], [-0.017715251073241234, -0.03374726325273514, -0.01838645525276661, -0.05330634489655495, 0.022028611972928047, 0.045549001544713974, -0.003183415625244379, -0.0986235961318016, -0.0031370935030281544, 0.15414001047611237, 0.006323714274913073, 0.008213041350245476, -0.06652271002531052, -0.006426095962524414, 0.0804552435874939, 0.041930489242076874, 0.046350348740816116, 0.03131765127182007, 0.025701241567730904, 0.0090766791254282, 0.04602643474936485, 0.005261524580419064, -0.04045041650533676, 0.12913954257965088, -0.09523673355579376, -0.08196423947811127, 0.014948122203350067, 0.027937747538089752, 0.044232409447431564, 0.022716064006090164, -0.0026729812379926443, 0.2218523770570755, -0.004943865351378918, -0.051693640649318695, -0.0014369102427735925, 0.12762795388698578, -0.02089875191450119, -0.0032611084170639515, -0.004958011209964752, 0.005191032309085131], [0.06527487188577652, -0.02195284143090248, -0.06782782822847366, 0.05114004388451576, -0.0029098144732415676, -0.11932272464036942, -0.020597126334905624, 0.04530707374215126, 0.023344995453953743, -0.03760050982236862, 0.049367569386959076, -0.06681405752897263, -0.017439110204577446, 0.039053309708833694, -0.04292674362659454, -0.01752590201795101, 0.1077781692147255, -0.06776508688926697, -0.12775245308876038, -0.003398196306079626, 0.03901064395904541, -0.007847891189157963, 0.04953787475824356, -0.031723927706480026, 0.003040748881176114, 0.21091033518314362, -0.028122834861278534, 0.10079113394021988, 0.025622328743338585, -0.03663031756877899, 0.05045246332883835, -0.04499124735593796, -0.032031282782554626, 0.02079084888100624, 0.026691747829318047, -0.039693351835012436, 0.04058988764882088, -0.03093677945435047, 0.102903351187706, 0.0016008560778573155], [0.026905054226517677, -0.028127016499638557, -0.0012146036606281996, -0.09191888570785522, -0.008993830531835556, 0.014854039065539837, -0.010708908550441265, -0.05256342887878418, -0.02161446399986744, -0.014853408560156822, 0.030071308836340904, 0.004244441632181406, -0.039099983870983124, 0.024827104061841965, 0.083732008934021, -0.04575014114379883, 0.04660874977707863, 0.03547247499227524, 0.010676980018615723, 0.08879383653402328, -0.005412030499428511, 0.007030989043414593, -0.14011406898498535, 0.03767175227403641, -0.02883250080049038, 0.05433128401637077, 0.0021340721286833286, -0.1577083021402359, -0.024059422314167023, 0.007013315800577402, 0.016661586239933968, -0.009755697101354599, -0.012261399067938328, -0.00939156860113144, 0.01460697129368782, -0.009387915022671223, 0.00484911072999239, -0.021291937679052353, -0.15574923157691956, -0.15544450283050537], [0.027094099670648575, -0.03498247265815735, -0.0732882171869278, 0.03320647031068802, -0.020050784572958946, -0.141386941075325, 0.03542172908782959, 0.004851811099797487, 0.05566415935754776, 0.05611154064536095, 0.07198943197727203, 0.026903463527560234, -0.11092133820056915, 0.09046223759651184, 0.14786043763160706, 0.026784410700201988, 0.0596160925924778, 0.01184772327542305, -0.11228791624307632, 0.01996922679245472, -0.02119329944252968, 0.0013992906315252185, 0.2139994502067566, 0.012198996730148792, -0.0547211579978466, -0.03743854537606239, -0.03295055031776428, 0.4486675262451172, -0.09762321412563324, 0.0955488309264183, -0.053838856518268585, -0.032838381826877594, -0.0642080307006836, -0.028241585940122604, 0.0846317708492279, -0.08252950012683868, 0.0350373350083828, -0.012931889854371548, 0.514371931552887, 0.11222297698259354], [-0.012841637246310711, -0.01202464196830988, -0.02124679833650589, -0.0749673992395401, -0.00884922780096531, 0.06783794611692429, -0.01062062755227089, -0.017037637531757355, 0.04257138445973396, -0.005233655218034983, 0.03526424244046211, -0.03511932119727135, -0.01587466150522232, -0.010124379768967628, 0.013264196924865246, -0.05779121816158295, 0.024971775710582733, 0.0011646590428426862, -0.004988213535398245, 0.05456216633319855, 0.023750200867652893, -0.007522966247051954, -0.08888871967792511, -0.030439728870987892, -0.007526978384703398, 0.02491862140595913, -0.03828529268503189, -0.06034507229924202, 0.00995790958404541, 0.01587902382016182, 0.06798750162124634, -0.004166076425462961, 0.03953694552183151, -0.03703508526086807, -0.012220233678817749, -0.02724016085267067, 0.0058468715287745, -0.0016003793571144342, -0.05945615842938423, -0.15866906940937042], [0.014401381835341454, 0.002822796581313014, 0.032698921859264374, -0.06912779808044434, 0.015566298738121986, 0.04939117655158043, -0.027228571474552155, 0.1331484317779541, -0.017836110666394234, -0.012012990191578865, -0.01302826963365078, 0.0017010316951200366, -0.014061055146157742, 0.004417970776557922, 0.13633501529693604, -0.14884817600250244, 0.0691174641251564, 0.021502012386918068, 0.04045306518673897, 0.02486410178244114, 0.0055867405608296394, 0.009277194738388062, -0.07069800049066544, 0.03590608760714531, -0.02316146157681942, -0.12771281599998474, -0.0164288692176342, -0.08707546442747116, -0.02589772269129753, 0.01935845986008644, -0.02050717920064926, -0.03460100665688515, -0.008873182348906994, -0.001852229586802423, -0.00991448201239109, 0.010921679437160492, -0.0063296216540038586, 0.15025737881660461, -0.09882184863090515, -0.0710810199379921], [0.047643136233091354, 0.0013233901700004935, -0.013124596327543259, -0.02038998156785965, -0.02750784158706665, 0.09974030405282974, -0.004554067272692919, 0.04932234808802605, -0.013228635303676128, -0.11159732192754745, 0.020570937544107437, 0.007500005885958672, -0.09290345013141632, -0.008053850382566452, 0.12426876276731491, -0.03233468905091286, 0.07680570334196091, 0.02857651188969612, -0.029547687619924545, 0.05951673164963722, -0.008329779841005802, -0.009014680981636047, -0.26397770643234253, 0.12289121747016907, -0.0582665279507637, 0.28934305906295776, -0.037301842123270035, -0.3096935749053955, -0.017112301662564278, -0.039558038115501404, -0.01107733603566885, 0.03604041785001755, -0.26241642236709595, -0.024820169433951378, -0.012809856794774532, -0.03028716892004013, 0.03075697086751461, 0.008653435856103897, -0.3013612926006317, -0.293900728225708], [-0.05625433474779129, 0.018953891471028328, 0.08253315836191177, -0.021789634600281715, 0.07726503908634186, -0.14432479441165924, 0.008021325804293156, 0.013878235593438148, 0.001147042028605938, 0.22061964869499207, -0.07252247631549835, -0.018399961292743683, 0.14584557712078094, 0.023918762803077698, -0.19464996457099915, -0.199580579996109, 0.06870921701192856, -0.11970812827348709, 0.04341502487659454, -0.14474165439605713, 0.07153316587209702, 0.026147695258259773, 0.19671477377414703, -0.3060258626937866, 0.11220379173755646, -0.2117658406496048, 0.04939854145050049, 0.20515424013137817, 0.06807026267051697, -0.02818254567682743, -0.03826500475406647, -0.060568667948246, 0.25197625160217285, 0.027597397565841675, 0.0036205907817929983, 0.12110204994678497, -0.0397285632789135, 0.04825238138437271, 0.20336399972438812, 0.22548486292362213], [0.023326369002461433, -0.03141161426901817, 0.02882745862007141, -0.09783119708299637, 0.042169343680143356, -0.04070587828755379, -0.043884046375751495, 0.011818962171673775, -0.01551138050854206, -0.019938549026846886, 0.014141255989670753, -0.04683356359601021, 0.016544152051210403, 0.009033957496285439, 0.08099305629730225, 0.009289706125855446, -0.02149951085448265, 0.038866348564624786, -0.04309781640768051, 0.057420264929533005, -0.001186982961371541, -0.017093036323785782, -0.10513635724782944, 0.01496892236173153, -0.051090627908706665, 0.10551447421312332, -0.03893177583813667, -0.123077392578125, 0.043250225484371185, -0.052510619163513184, -0.022965921089053154, 0.016409557312726974, -0.04850596934556961, 0.013674159534275532, -0.0572800450026989, -0.0011624039616435766, -0.04665008932352066, -0.05649193748831749, -0.12283197790384293, -0.10708875209093094], [-0.004618336912244558, -0.014097219333052635, -0.02441389486193657, -0.09942962974309921, -0.019122706726193428, 0.027912700548768044, -0.014611112885177135, -0.04332016035914421, -0.0011961200507357717, -0.007289832457900047, 0.012833894230425358, -0.027223549783229828, -0.029553478583693504, 0.012427928857505322, 0.012389152310788631, -0.04039406403899193, 0.025344746187329292, 0.03747393935918808, -0.005121992900967598, 0.011838603764772415, -0.02092784084379673, -0.002008856274187565, -0.11026132851839066, 0.033929865807294846, -0.0336073637008667, 0.07721097767353058, -0.020160019397735596, -0.12047292292118073, -0.011188143864274025, -0.04838060215115547, 0.04757871851325035, -0.012946669943630695, 0.0369989238679409, 0.0007797160069458187, -0.030529867857694626, -0.02535877749323845, 0.012006119824945927, -0.04352805018424988, -0.11722175031900406, -0.1111338883638382], [0.09951227903366089, 0.08283066004514694, -0.13956931233406067, 0.0015706876292824745, -0.0666012093424797, -0.08658147603273392, -0.012505761347711086, -0.015331431291997433, 0.06373784691095352, 0.07235706597566605, 0.012823433615267277, -0.035328492522239685, 0.09172345697879791, 0.07787101715803146, -0.3405197560787201, 0.27945855259895325, -0.10384727269411087, -0.0940462201833725, -0.07016986608505249, 0.24414171278476715, 0.1558731347322464, 0.14258572459220886, 0.3561711013317108, -0.07805835455656052, 0.06621218472719193, -0.21473833918571472, 0.011599644087255001, 0.6173965334892273, -0.002599666826426983, 0.15275602042675018, 0.020838730037212372, -0.022510604932904243, 0.2812097370624542, 0.054033976048231125, -0.10407578200101852, 0.06708872318267822, 0.022691231220960617, -0.08047003298997879, 0.597044825553894, 0.46561965346336365], [-0.03444154933094978, -0.013757546432316303, 0.04269924387335777, -0.03697484731674194, 0.048468030989170074, 0.015879901126027107, 0.01788175292313099, -0.04810456931591034, -0.005990635138005018, 0.08322376012802124, 0.0037920537870377302, 0.03217143937945366, 0.015702348202466965, 0.03780493140220642, -0.021342003718018532, -0.05500878021121025, -0.010492580942809582, 0.033910274505615234, 0.026132341474294662, -0.03164728730916977, -0.02779293805360794, 0.023938512429594994, -0.05926232412457466, -0.09781598299741745, -0.06389191001653671, -0.0147571275010705, 0.017778340727090836, -0.05457518622279167, 0.01554443221539259, -0.030001070350408554, -0.030731651932001114, 0.016702964901924133, -0.0016860761679708958, 0.02077794261276722, 0.0008258724119514227, -0.007326983381062746, 0.01342039369046688, -0.029274173080921173, -0.04630139470100403, -0.054841894656419754], [0.01644737645983696, -0.00454661576077342, 0.0024630334228277206, -0.0399673655629158, -0.00022460815671365708, 0.04567733407020569, 0.0005666929646395147, -0.02428979054093361, -0.001565663842484355, -0.06134480983018875, 0.012414393946528435, 0.01507600862532854, -0.03604786843061447, -0.0030732033774256706, 0.053992222994565964, -0.0015097656287252903, 0.01912226527929306, 0.002633659401908517, 0.003986981697380543, 0.03586388751864433, 0.011873763985931873, 0.009040900506079197, -0.10879039019346237, 0.013428793288767338, -0.022301284596323967, 0.09800095111131668, -0.023566382005810738, -0.12320797145366669, 0.004942867439240217, -0.005308603402227163, -0.00029166601598262787, 0.017998987808823586, -0.0534125454723835, -0.016073979437351227, -0.020202867686748505, -0.0038309695664793253, 0.006030777934938669, 0.004228489473462105, -0.12247274816036224, -0.09167951345443726], [0.005506530404090881, -0.006732066161930561, -0.0006379594560712576, -0.023131227120757103, -0.003358203684911132, 0.022422073408961296, -0.0019824018236249685, -0.010155358351767063, -0.00022843324404675514, -0.028268923982977867, 0.015051514841616154, 0.0016029310645535588, -0.017427826300263405, -0.0032619095873087645, 0.06661037355661392, -0.017221976071596146, 0.02125491201877594, 0.006671176757663488, 0.00322193605825305, 0.028487922623753548, -0.0006990041001699865, 0.006945278495550156, -0.0860704630613327, 0.00931069627404213, -0.02284693717956543, 0.06006471440196037, -0.00511682266369462, -0.10794056951999664, 0.009456918574869633, -0.013684812933206558, -0.011534905061125755, 0.011169851757586002, -0.0040566325187683105, -0.009035657159984112, -0.00633326917886734, 0.003013993613421917, 0.004001302178949118, -0.003930896520614624, -0.10472121834754944, -0.07260940223932266], [-0.06858278065919876, 0.03442133218050003, 0.02544553391635418, -0.009998069144785404, 0.034115616232156754, 0.09598883986473083, -0.011924359016120434, -0.42186498641967773, 0.03662480413913727, -0.23273712396621704, -0.0005444296984933317, -0.040000781416893005, 0.03491458296775818, 0.016752513125538826, 0.1357870250940323, 0.22254908084869385, -0.07767759263515472, -0.08450724184513092, 0.06541985273361206, -0.10676657408475876, -0.1358949840068817, 0.037973999977111816, -0.021542605012655258, 0.22060313820838928, 0.04427303001284599, -0.3898216187953949, 0.0021593584679067135, 0.0021472175139933825, 0.021115800365805626, -0.09159964323043823, -0.001372401718981564, -0.39499109983444214, -0.23256556689739227, 0.05184515193104744, -0.045280005782842636, -0.07456771284341812, -0.045900169759988785, -0.012607456184923649, 0.0230021420866251, -0.13721171021461487], [0.025415757670998573, 0.019404618069529533, 0.032273102551698685, -0.06046967953443527, 0.03251567482948303, 0.04929761216044426, 0.034800831228494644, 0.23378300666809082, 0.02258208952844143, 0.9950981736183167, 0.027337945997714996, -0.0150243965908885, -0.05759027227759361, 0.02755722403526306, -0.6083378195762634, -0.6030896902084351, 0.2045300304889679, 0.018813269212841988, -0.08267553895711899, 0.06322652101516724, -0.2668081223964691, 0.04490041732788086, 0.2466706931591034, -1.2283207178115845, -0.21474258601665497, 0.3869778513908386, 0.037073273211717606, 0.5013802647590637, -0.07854755222797394, -0.14255960285663605, 0.027914350852370262, 0.006132546346634626, 0.18184447288513184, 0.012258190661668777, -0.021673990413546562, -0.0960775762796402, 0.014625308103859425, -0.3303952217102051, 0.5935086011886597, 0.49302247166633606], [0.11080396920442581, 0.0737876296043396, 0.0012123123742640018, -0.03311912715435028, -0.12816546857357025, -0.038909826427698135, -0.04593180865049362, -0.3700971007347107, -0.03415368124842644, 0.014082943089306355, 0.0968375951051712, -0.0019080671481788158, 0.039188046008348465, 0.007036176044493914, -0.43283194303512573, 0.8986661434173584, -0.10516863316297531, -0.03291471675038338, -0.12040285766124725, 0.25375300645828247, -0.029163561761379242, -0.013387029990553856, 0.37504854798316956, 0.0063364747911691666, -0.10472702234983444, 0.01956501044332981, -0.07470772415399551, 0.8645797371864319, 0.004328574985265732, 0.1666930913925171, 0.0619867667555809, 0.1678408831357956, 0.08989530056715012, 0.07740965485572815, -0.05649035796523094, -0.14855653047561646, -0.09078852087259293, 0.3999483287334442, 0.8117589950561523, 0.43689078092575073], [-0.007328230421990156, -0.015371653251349926, 0.0194870438426733, -0.10315317660570145, -0.04307303950190544, 0.0641891211271286, 0.007147496100515127, -0.01958940550684929, -0.0275815948843956, -0.04602234438061714, 0.005307251587510109, 0.016292832791805267, -0.022859862074255943, -0.018732314929366112, 0.09007592499256134, -0.033773038536310196, 0.013404647819697857, 0.07212711870670319, 0.03371268883347511, 0.029454082250595093, -0.0029619934502989054, 0.02499454841017723, -0.13585051894187927, 0.023802006617188454, -0.04397443309426308, 0.07022629678249359, -0.02954312600195408, -0.16569051146507263, -0.029507478699088097, -0.014837240800261497, 0.029955532401800156, 0.026910219341516495, 0.009221279993653297, 0.006379090715199709, -0.03184087947010994, -0.025991544127464294, 0.008191811852157116, -0.017420990392565727, -0.16372892260551453, -0.12343274801969528], [0.027739470824599266, -0.010891101323068142, 0.005811659153550863, -0.04741304740309715, -0.016860609874129295, 0.0067590754479169846, -0.009051879867911339, -0.008152722381055355, -0.006830093450844288, -0.04163399338722229, 0.013976738788187504, 0.00016607370343990624, -0.031086495146155357, 0.0023378825280815363, 0.058597590774297714, 0.022746287286281586, 0.032409150153398514, 0.014640752226114273, -0.014120426960289478, 0.0475444495677948, -0.00785937812179327, 0.011745798401534557, -0.08005212992429733, 0.03273490071296692, -0.0203306432813406, 0.06462881714105606, -0.01158677227795124, -0.10105746984481812, -0.01417673472315073, 0.029924685135483742, 0.046212468296289444, 0.018149809911847115, 0.003135968931019306, -0.011410919949412346, -0.0124367605894804, -0.009574279189109802, -0.003834977513179183, 0.037094999104738235, -0.10311001539230347, -0.05784112215042114], [0.008724499493837357, 0.010526233352720737, -0.0013930877903476357, -0.07983215898275375, -0.014472565613687038, 0.03767051547765732, -0.013774470426142216, -0.02053796872496605, 0.010112643241882324, -0.029614700004458427, -0.007465120870620012, -0.010241152718663216, -0.000387260050047189, -0.03296895697712898, 0.1323067545890808, -0.04427327215671539, 0.049704231321811676, 0.02163102850317955, 0.0066127777099609375, 0.04161927476525307, -0.0023428311105817556, 0.006800842937082052, -0.14533017575740814, -0.0036573263350874186, -0.02267761342227459, 0.07879926264286041, -0.02539796382188797, -0.17156846821308136, 0.002320573665201664, -0.012813971377909184, -0.03681212291121483, 0.007259661331772804, 0.01432111207395792, -0.02352982945740223, -0.00882036704570055, -0.03642427921295166, -0.00213021133095026, -0.004092826973646879, -0.17462395131587982, -0.12377355247735977], [0.006950016599148512, -0.03964387625455856, 0.01808144338428974, 0.021652361378073692, 0.04353102296590805, -0.022534197196364403, 0.01433473639190197, -0.007030470296740532, -0.04896866902709007, 0.10781245678663254, 0.015824323520064354, 0.0034199408255517483, 0.032088931649923325, -0.06954760104417801, -0.09526922553777695, 0.17854730784893036, -0.087160125374794, 0.018568987026810646, -0.01741555519402027, -0.08038195967674255, -0.09035363793373108, -0.06623904407024384, 0.24582915008068085, 0.1089603379368782, 0.04643488675355911, 0.013011837378144264, 0.08420642465353012, 0.5144636034965515, 0.033315788954496384, -0.06206473708152771, 0.008150706067681313, -0.010438849218189716, 0.26078975200653076, -0.023455455899238586, 0.01899969018995762, -0.051104653626680374, 0.014810118824243546, 0.08636291325092316, 0.5377052426338196, 0.24509359896183014], [0.04453285411000252, -0.0016566610429435968, 0.007069752085953951, -0.011813066899776459, 0.004356776364147663, 0.09199011325836182, -0.019480343908071518, -0.0367349311709404, -0.002110759960487485, -0.056839026510715485, 0.029545778408646584, 0.03487585857510567, -0.04878892004489899, -0.026544375345110893, 0.1439228057861328, -0.025779906660318375, 0.0066205463372170925, 0.018328137695789337, -0.005967216566205025, 0.026230033487081528, -0.044424984604120255, -0.01378796249628067, -0.17315593361854553, -0.00910559855401516, -0.056431178003549576, 0.21970878541469574, -0.031116889789700508, -0.21631410717964172, 0.011682916432619095, -0.026111163198947906, -0.11720174551010132, -0.016869399696588516, -0.1621977537870407, -0.06239982694387436, 0.0005410021985881031, 0.0019915401935577393, 0.03448200225830078, 0.003214055672287941, -0.22398579120635986, -0.18948149681091309], [-0.022233782336115837, -0.010694279335439205, 0.025389522314071655, 0.08662797510623932, 0.02543698623776436, -0.06738738715648651, -0.01567232236266136, 0.10871261358261108, 0.014604439027607441, -0.06695891916751862, -0.03064178302884102, -0.016726722940802574, -0.008307979442179203, -0.015869339928030968, 0.22592659294605255, -0.03069682978093624, -0.137075737118721, -0.10898613184690475, -0.02119295299053192, -0.05252692848443985, -0.005647727753967047, -0.019538024440407753, -0.07534384727478027, 0.25621163845062256, -0.10349448770284653, 0.028814928606152534, 0.0510617233812809, -0.09701381623744965, 0.04658956453204155, -0.07672053575515747, -0.01643349602818489, -0.054627206176519394, -0.30911991000175476, -0.0026581978891044855, -0.05213647335767746, -0.009954143315553665, -0.03576426953077316, 0.04450016841292381, -0.07867524772882462, -0.12993457913398743], [-0.007794907782226801, -0.004152628127485514, 0.018262963742017746, 0.008066540583968163, 0.004448932595551014, 0.02091200463473797, -0.01709914207458496, -0.04431741684675217, 0.013147317804396152, -0.04938826709985733, 0.01071492675691843, -0.016985327005386353, -0.014911474660038948, -0.006805719342082739, 0.09800530970096588, 0.024192648008465767, 0.03936414420604706, -0.026489751413464546, 0.0029661415610462427, -0.03942151367664337, -0.02711612358689308, 0.001971661811694503, -0.10313715040683746, 0.059343621134757996, -0.032380081713199615, 0.03786700591444969, 0.014627092517912388, -0.1293392777442932, 0.02349124848842621, -0.02282235585153103, -0.012036516331136227, 0.02180689387023449, -0.0042299372144043446, -0.011101972311735153, -0.0026112489867955446, 0.02586856484413147, -0.011344852857291698, 0.023784978315234184, -0.12473203241825104, -0.07232637703418732], [-0.0321919284760952, 0.0025965566746890545, 0.03264584019780159, -0.12308666855096817, 0.014984147623181343, -0.01702921651303768, -0.04445622116327286, -0.07064081728458405, -0.03746665269136429, 0.02094859443604946, -0.05479567497968674, -0.00551480520516634, -0.00910076592117548, -0.0067919478751719, 0.06393023580312729, -0.011887462809681892, 0.017925767228007317, 0.022603599354624748, 0.00247919000685215, -0.021067379042506218, -0.03190276399254799, 0.0006896064151078463, -0.07185690104961395, 0.011106440797448158, -0.023026056587696075, 0.023166803643107414, -0.02404310554265976, -0.04618454724550247, 0.01586238294839859, -0.05362164229154587, -0.04826737195253372, -0.014533890411257744, 0.03197067603468895, -0.029745541512966156, -0.03626706451177597, -0.019461587071418762, -0.05450525879859924, -0.0018676272593438625, -0.046610139310359955, -0.09003107249736786], [-0.08365889638662338, -0.12724362313747406, -0.023443929851055145, -0.07101575285196304, 0.05989549309015274, 0.15850819647312164, -0.027830954641103745, -0.07303117960691452, 0.070366270840168, 0.007122858427464962, -0.1253715455532074, -0.10222594439983368, -0.12859904766082764, 0.10417845100164413, -0.04311027750372887, 0.06739357858896255, -0.25569307804107666, 0.01256723701953888, 0.10912667959928513, 0.24135145545005798, -0.08249633014202118, 0.14468692243099213, 0.3699552118778229, 0.03314835578203201, -0.06604707986116409, -0.5463371872901917, 0.17135542631149292, 0.6038110256195068, 0.05324672907590866, 0.08106275647878647, 0.1637384444475174, 0.0821286216378212, 0.07259712368249893, 0.0626487284898758, -0.29520314931869507, -0.00286932778544724, -0.14581608772277832, 0.02771158143877983, 0.6790053844451904, 0.3539714217185974], [-0.043529484421014786, 0.00317427609115839, -0.0055595990270376205, -0.034119971096515656, -0.03256487846374512, -0.049136996269226074, 9.305993444286287e-05, 0.009668972343206406, -0.02921639196574688, 0.04247470572590828, -0.011281214654445648, -0.00872788392007351, 0.08738850802183151, -0.008396491408348083, -0.042734865099191666, 0.01051060575991869, 0.04483520984649658, 0.07505379617214203, -0.015237616375088692, -0.02913849987089634, -0.005691267549991608, -0.059116292744874954, -0.030153553932905197, 0.05128752067685127, -0.03653695434331894, 0.019758053123950958, 0.005380676127970219, -0.018876638263463974, 0.013902728445827961, -0.0679524689912796, -0.006594321224838495, -0.025373492389917374, 0.0175558440387249, 0.012563287280499935, 0.04469096660614014, -0.08105231076478958, 0.016475053504109383, 0.12002377957105637, -0.026529548689723015, -0.01846395432949066], [0.035341743379831314, -0.004836179781705141, -0.03340480104088783, -0.007951049134135246, -0.014087393879890442, 0.02667449414730072, -0.024568963795900345, -0.017750317230820656, -0.013660368509590626, -0.07622421532869339, 0.03827512636780739, -0.026003031060099602, -0.02921581082046032, 0.009125085547566414, 0.11430350691080093, -0.040570348501205444, 0.06886717677116394, 0.040388304740190506, -0.026910467073321342, 0.04608533903956413, 0.009066738188266754, -0.010134450159966946, -0.14896151423454285, 0.01368685718625784, -0.02178058959543705, 0.15960946679115295, -0.03677009791135788, -0.17040716111660004, -0.013874536380171776, 0.0013551025185734034, -0.01842247135937214, 0.01037917286157608, -0.05315534397959709, -0.019375484436750412, -0.00942201353609562, -0.034484393894672394, 0.005681995768100023, 0.003193992655724287, -0.17624413967132568, -0.14048637449741364], [0.052931416779756546, -0.04444293677806854, -0.06804202497005463, 0.3005710542201996, -0.0006933427648618817, -0.10165441781282425, -0.010955724865198135, -0.10655548423528671, 0.01351647824048996, -0.16533802449703217, -0.015594914555549622, -0.05862439051270485, 0.06623492389917374, -0.04126840457320213, -0.09948482364416122, 0.021049657836556435, -0.12446607649326324, -0.09976384788751602, -0.10980517417192459, -0.03385653719305992, 0.10967782884836197, -0.05791386961936951, 0.022852852940559387, -0.06929226219654083, 0.09177647531032562, 0.5794417262077332, 0.029861561954021454, -0.020945589989423752, 0.08424866199493408, -0.1404176950454712, -0.05818819999694824, -0.16114675998687744, -0.4693790674209595, -0.03848181664943695, 0.06261175125837326, 0.11585262417793274, -0.023812267929315567, -0.13098818063735962, -0.02206280454993248, -0.07730726152658463], [0.018834572285413742, -0.011788522824645042, -0.02477942407131195, -0.027977189049124718, -0.009956403635442257, 0.03203825280070305, -0.004827622324228287, -0.023742832243442535, 0.005994757171720266, -0.05461244285106659, 0.014147790148854256, 0.00439105462282896, -0.0018835712689906359, -0.008988331072032452, 0.061334848403930664, 0.003072338178753853, -0.0017186676850542426, 0.015861690044403076, -0.003121541813015938, 0.03037293814122677, 0.0037598884664475918, 0.005894959904253483, -0.08514611423015594, 0.0008427636348642409, -0.005739205051213503, 0.08252821862697601, -0.005866967141628265, -0.08267102390527725, 0.012572970241308212, 0.006558531895279884, -0.015749366953969002, -0.0019162807147949934, -0.02149021252989769, -0.015493554063141346, -0.013355555944144726, -0.005157980602234602, 0.01987355202436447, 0.022186318412423134, -0.1142420694231987, -0.08412501215934753], [0.01612447202205658, -0.0178401879966259, -0.005736584775149822, -0.01126129925251007, 0.00030173378763720393, 0.007116419728845358, -0.008487476967275143, -0.00474929204210639, 0.002743995515629649, -0.019343320280313492, 0.017771398648619652, 0.0013769345823675394, -0.009352926164865494, -0.00983396265655756, 0.05736610293388367, -0.01277072262018919, 0.004376201890408993, 0.01519443653523922, -0.009554501622915268, 0.041284266859292984, -0.007235391531139612, 0.0021732726600021124, -0.07925955206155777, 0.012851010076701641, -0.030621729791164398, 0.08935253322124481, -0.006111751310527325, -0.08053924143314362, 0.0006118756718933582, 0.00803449284285307, -0.004649604205042124, -0.0008366119582206011, -0.03835359215736389, -0.010796017944812775, -0.002366057364270091, 0.0004760025185532868, -0.0019204590935260057, 0.009298110380768776, -0.09833218157291412, -0.10114992409944534], [-0.03325793519616127, -0.030907612293958664, 0.0012241712538525462, -0.06771432608366013, -0.014294530265033245, 0.03592560812830925, 0.015760207548737526, -0.05998106673359871, 0.03698175773024559, 0.020026138052344322, -0.006923708599060774, 0.011949588544666767, 0.01726045086979866, 0.004030118230730295, 0.20084819197654724, 0.0024898299016058445, 0.09625240415334702, 0.14682038128376007, 0.011703423224389553, -0.033584706485271454, -0.058555666357278824, -0.04552914947271347, -0.21885500848293304, 0.05175870284438133, -0.026945343241095543, 0.11446108669042587, 0.011005035601556301, -0.3367495834827423, -0.01822686567902565, 0.031671661883592606, 0.007487187162041664, -0.019451433792710304, -0.013490837067365646, -0.039617929607629776, 0.04009402543306351, -0.07420847564935684, 8.49956413730979e-05, -0.010669219307601452, -0.34244251251220703, -0.1465592235326767], [-0.015833187848329544, 0.08219436556100845, 0.03174228221178055, -0.08289285004138947, 0.035152412950992584, 0.03554398566484451, 0.00442082155495882, -0.023509230464696884, -0.057197172194719315, -0.0001705401809886098, 0.0014991513453423977, 0.033176619559526443, -0.045243918895721436, 0.01338606420904398, 0.10452482849359512, -0.07614001631736755, -0.02124982886016369, 0.04156111553311348, 0.04562191292643547, 0.10613857209682465, -0.04292232543230057, 0.013317881152033806, -0.24773932993412018, 0.01256262045353651, -0.049487821757793427, -0.3165453374385834, -0.005302936304360628, -0.4209553301334381, 0.034754786640405655, 0.03904695436358452, 0.03017316572368145, 0.01496234443038702, 0.16998746991157532, 0.009828239679336548, -0.06706616282463074, -0.0012441675644367933, -0.028768381103873253, 0.012892724946141243, -0.43287041783332825, -0.06870504468679428], [0.0026544786524027586, 0.013413488864898682, 0.0007718413253314793, -0.029382171109318733, 0.010497314855456352, -0.014588269405066967, 0.037803828716278076, -0.0014185395557433367, -0.037541117519140244, -0.0003613264416344464, -0.007637306582182646, -0.025201328098773956, 0.017345119267702103, 0.028252657502889633, 0.03285441920161247, -0.012218184769153595, -0.04116865620017052, 0.032138094305992126, -0.03837190568447113, 0.010860392823815346, -0.03429244086146355, 0.003335508517920971, -0.034985341131687164, 0.05486151576042175, -0.02931101806461811, -0.03693106025457382, 0.05217326432466507, -0.032924834638834, 0.07005204260349274, 0.033967144787311554, -0.025615215301513672, 0.0013126266421750188, -0.02412969432771206, -0.019104620441794395, -0.031876932829618454, -0.046371057629585266, -0.019918549805879593, 0.037548817694187164, -0.03489533066749573, -0.06052044779062271], [-0.003254749346524477, 0.03646821156144142, 0.0006594466394744813, -0.12907174229621887, 0.05505896732211113, -0.01605754718184471, -0.027384433895349503, -0.12264051288366318, -0.004065779037773609, -0.039781488478183746, -0.053013332188129425, -0.0011658945586532354, -0.020260876044631004, -0.016512595117092133, 0.1434294730424881, 0.0048481435514986515, -0.015562260523438454, 0.07402054220438004, 0.09816373139619827, -0.02762886881828308, -0.013521847315132618, 0.01965077593922615, -0.15900833904743195, -0.17291134595870972, -0.1190604493021965, 0.13064897060394287, -0.01884358935058117, -0.17172537744045258, 0.08791676163673401, 0.042848605662584305, 0.006049858871847391, -0.018802231177687645, 0.06653009355068207, -0.03795023635029793, -0.11059027910232544, -0.10313767194747925, -0.07184162735939026, 0.1824641078710556, -0.17716141045093536, -0.15128128230571747], [0.025831693783402443, 0.008621526882052422, -0.01399780809879303, -0.0440252423286438, 0.0167812742292881, 0.014260726049542427, 0.03625769168138504, -0.023252232000231743, 0.01328691840171814, -0.02134069800376892, -0.025865687057375908, -0.04458276554942131, -0.024106105789542198, 0.03842395544052124, 0.006792495492845774, -0.05387694388628006, 0.05445804446935654, -0.057027995586395264, -0.026699980720877647, -0.03677354380488396, -0.004859259817749262, -0.017094580456614494, -0.10037817060947418, -0.0021753308828920126, -0.00845776405185461, 0.12295364588499069, -0.001537667354568839, -0.13142293691635132, 0.06864126026630402, -0.02574809454381466, -0.026947513222694397, -0.043603453785181046, 0.06792019307613373, 0.01567642018198967, -0.023373505100607872, -0.02121777832508087, 0.003932155668735504, -0.025056421756744385, -0.1338757574558258, -0.028380999341607094], [0.05171865597367287, -0.12291932851076126, 0.07345199584960938, -0.006051237694919109, -0.012940119951963425, 0.1568470001220703, -0.08750510960817337, -0.01661563105881214, 0.01927747204899788, -4.569744487525895e-05, 0.08839211612939835, -0.039760008454322815, -0.006511177401989698, 0.02275836654007435, 0.0979607030749321, -0.011743659153580666, 0.04310576990246773, -0.029137277975678444, -0.014420325867831707, 0.09612258523702621, -0.014519019052386284, 0.033118702471256256, -0.0968366339802742, 0.022120386362075806, -0.02772623300552368, 0.011015365831553936, 0.004412740934640169, -0.12498725950717926, 0.00010817973088705912, 0.08372177183628082, -0.03471268713474274, 0.0037401518784463406, -0.0725802481174469, 0.013701504096388817, 0.04680243134498596, -0.03365010768175125, 0.007853680290281773, 0.007617011200636625, -0.12794239819049835, -0.06642495840787888], [0.038822662085294724, -0.008443729020655155, 0.010864932090044022, 0.003749281167984009, -0.029101932421326637, -0.03413360193371773, -0.002027340466156602, -0.025323109701275826, -0.05854398012161255, -0.025980232283473015, 0.030182739719748497, 0.04390835016965866, -0.09155220538377762, 0.01794743724167347, 0.14866365492343903, -0.0067219361662864685, 0.06868205219507217, 0.07803843915462494, -0.034179504960775375, 0.018627457320690155, 0.0062470282427966595, -0.034356407821178436, -0.15308189392089844, 0.024913959205150604, -0.05416204407811165, 0.13175751268863678, 0.011060958728194237, -0.22514277696609497, -0.09606365114450455, -0.0028464102651923895, -0.16583776473999023, -0.0004178999224677682, -0.00856065098196268, 0.03611262887716293, 0.06157185137271881, -0.021896839141845703, -0.010484776459634304, 0.0022405325435101986, -0.23056869208812714, -0.10829516500234604], [-0.0449116975069046, 0.03300795704126358, 0.046768512576818466, 0.12205427139997482, -0.043748803436756134, -0.03398986533284187, 0.019635777920484543, -0.0879683718085289, 0.02254832349717617, -0.1274947226047516, -0.0002508463803678751, 0.03197745978832245, -0.0033318742644041777, 0.010010519064962864, 0.3150668442249298, 0.3454012870788574, -0.16401635110378265, -0.09278010576963425, -0.0433732308447361, 0.06179158017039299, -0.09831749647855759, 0.00934754591435194, 0.004854221828281879, 0.573157012462616, -0.1323942393064499, -0.17677439749240875, 0.04551560431718826, 0.10434119403362274, 0.014548952691257, 0.059128548949956894, -0.009689291007816792, 0.09617535024881363, -0.07472378760576248, 0.042137011885643005, -0.029008960351347923, -0.04909486696124077, -0.1292031705379486, 0.029748855158686638, 0.03969227522611618, -0.0433475524187088], [0.020268402993679047, 0.10110930353403091, 0.0015622348291799426, -0.09548699110746384, -0.0683022141456604, 0.06162162497639656, -0.009112055413424969, -0.011935476213693619, -0.04675058647990227, -0.0014032910112291574, -0.026216693222522736, -0.02508915401995182, 0.02275928668677807, -0.016013968735933304, 0.027645669877529144, -0.010790019296109676, -0.02650603838264942, 0.05801857262849808, 0.027533262968063354, 0.03981272131204605, -0.01500649657100439, -0.022702403366565704, -0.13768605887889862, 0.023123616352677345, -0.038451556116342545, -0.03385353833436966, -0.00014028887380845845, -0.23818637430667877, 0.04929465427994728, -0.007845963351428509, 0.030444206669926643, 0.012069068849086761, 0.2288256585597992, -0.026907267048954964, 0.004853513091802597, -0.0366392619907856, -0.035894982516765594, 0.022676587104797363, -0.2467530518770218, -0.0005939991096965969], [-0.04823074862360954, -0.026447780430316925, -0.026819715276360512, -0.06164862588047981, 0.07416877895593643, 0.028676055371761322, -0.01852353662252426, -0.11937171965837479, -0.003930726088583469, 0.31985533237457275, 0.015260851010680199, -0.025524670258164406, -0.0816628560423851, 0.010546455159783363, 0.09490018337965012, 0.03337178751826286, -0.005266145337373018, 0.08612524718046188, 0.04315286502242088, 0.012303094379603863, 0.0045668333768844604, 0.0007341162418015301, -0.06505630910396576, 0.025516266003251076, -0.031450409442186356, -0.03346731513738632, 0.04804953187704086, -0.0834844782948494, 0.04292018711566925, 0.024064207449555397, 0.06569217145442963, 0.18285323679447174, 0.1489143669605255, -0.043075039982795715, -0.003139774315059185, 0.1499837040901184, -0.043084971606731415, -0.09571155160665512, -0.1106400340795517, 0.0600542388856411], [-0.0013317567063495517, -0.034670572727918625, -0.015023997984826565, -0.10595481842756271, -0.002280542626976967, -0.06207163631916046, -0.011616293340921402, 0.003416439052671194, -0.021160513162612915, -0.030420588329434395, 0.09262038767337799, -0.0009959355229511857, -0.05575403943657875, 0.03241746500134468, 0.15170343220233917, -0.0805240049958229, 0.06569112092256546, 0.053700633347034454, -0.02987588755786419, 0.0034153952728956938, 0.03260831534862518, -0.0033478776458650827, -0.17935404181480408, -0.013197902590036392, 0.015272855758666992, 0.20122700929641724, -0.028974881395697594, -0.3002983629703522, -0.01136474683880806, -0.022270765155553818, 0.09227623045444489, 0.005068003199994564, 0.009297492913901806, 0.02195275016129017, -0.0074448720552027225, -0.02807440608739853, 0.02468154765665531, -0.03279201313853264, -0.3077295422554016, -0.11591582745313644], [-0.0010029708500951529, 0.07389900833368301, 0.023481091484427452, -0.13262784481048584, -0.01770922541618347, 0.050857726484537125, 0.019523972645401955, 0.024216527119278908, 0.010497805662453175, -0.0060704671777784824, -0.006044379435479641, 0.05701532959938049, 0.07251712679862976, -0.028826240450143814, -0.06667027622461319, -0.010261035524308681, 0.03851388394832611, 0.02257869578897953, 0.01182310376316309, -0.004861148074269295, 0.0612640306353569, -0.08587205410003662, -0.12100978195667267, -0.05169498547911644, -0.033013466745615005, 0.08541739732027054, -0.04210329055786133, -0.1988697350025177, -0.03483596816658974, -0.04122854769229889, -0.02724582888185978, 0.01451781764626503, 0.10923806577920914, -0.02919500134885311, 0.03584245592355728, 0.049898359924554825, 0.006334211677312851, 0.03011571429669857, -0.20165976881980896, -0.038855019956827164], [0.07067839056253433, -0.05128219723701477, -0.001519596204161644, -0.02794177085161209, -0.0024137650616467, 0.06699308753013611, -0.07769705355167389, -0.06546543538570404, -0.008150573819875717, 0.02394896000623703, 0.06639573723077774, -0.03611108660697937, -0.08494636416435242, 0.004664416890591383, 0.41365188360214233, -0.08084190636873245, 0.12173614650964737, -0.03472184017300606, -0.058391861617565155, 0.07847359031438828, -0.04834777116775513, 0.031923823058605194, -0.32266151905059814, 0.19914741814136505, -0.10468392819166183, 0.04372698441147804, -0.02298714406788349, -0.5443745255470276, 0.02084233984351158, 0.031335778534412384, 0.05102076008915901, 0.000198395544430241, -0.2695418894290924, -0.0460328608751297, -0.03404179587960243, -0.05994682386517525, 0.023271722719073296, 0.011987663805484772, -0.5403982996940613, -0.4406682252883911], [0.00039596838178113103, -0.005274743773043156, -0.014509889297187328, -0.1096482053399086, -0.021328981965780258, 0.0816127359867096, -0.019927168264985085, -0.027071593329310417, -0.024309054017066956, -0.006307103671133518, -0.04068451747298241, -0.014610801823437214, -0.014934412203729153, 0.03261057659983635, -0.021844858303666115, -0.017334651201963425, 0.03270438686013222, -0.014470226131379604, 0.04637321084737778, -0.013466749340295792, 0.03452552855014801, -0.035485006868839264, -0.15230193734169006, -0.020671846345067024, -0.017933610826730728, 0.03374343365430832, -0.07390506565570831, -0.2388593554496765, 0.011879474855959415, 0.02473941445350647, -0.021247602999210358, -0.0025711664929986, 0.18493898212909698, -0.02592328190803528, -0.015376530587673187, 0.010821031406521797, -0.009454671293497086, -0.02252737618982792, -0.2466687262058258, -0.029013212770223618], [0.018498798832297325, -0.04504292830824852, 0.006202853284776211, -0.11003924906253815, -0.005189788993448019, 0.1075282022356987, -0.06616352498531342, -0.2176789790391922, -0.01696201041340828, -0.07396319508552551, 0.024889880791306496, -0.0046032629907131195, -0.04465513303875923, -0.004084437154233456, 0.2794710695743561, 0.024135051295161247, 0.1420956552028656, 0.02074260450899601, 0.01632010191679001, 0.0376393124461174, -0.05490856617689133, 0.015092712827026844, -0.19418418407440186, 0.17109142243862152, -0.07139100134372711, -0.13524505496025085, -0.04058859869837761, -0.25526654720306396, -0.018974894657731056, 0.04939569532871246, 0.008750424720346928, -0.010424732230603695, -0.07353512942790985, -0.013317642733454704, -0.030609820038080215, -0.07186627388000488, -0.0032876073382794857, 0.063454270362854, -0.2701207399368286, -0.20481495559215546], [-0.01351463608443737, -0.006585436873137951, 0.03114902414381504, -0.08867132663726807, -0.01729489304125309, -0.004691684618592262, -0.010671806521713734, 0.11860440671443939, -0.018029361963272095, 0.015433919616043568, -0.03949360176920891, 0.0023945497814565897, -0.009202122688293457, -0.004437771160155535, 0.0564112588763237, -0.04483386501669884, -0.014785055071115494, 0.05609004572033882, 0.046379148960113525, -0.007113615050911903, -0.002433324931189418, 0.025554034858942032, -0.016769707202911377, 0.039915233850479126, -0.014750395901501179, -0.04938957840204239, 0.025438793003559113, -0.01387936994433403, -0.037013664841651917, -0.0327623225748539, 0.02971315011382103, 0.009552737697958946, -0.0014549785992130637, 0.011121817864477634, -0.027715852484107018, -0.035544902086257935, 0.01855544000864029, 0.13498546183109283, -0.00610355893149972, -0.0430912971496582], [0.04472235590219498, -0.06738457083702087, 0.053976207971572876, -0.07839633524417877, -0.010818676091730595, 0.07891659438610077, 0.0006610067212022841, 0.005126868840306997, 0.0019766376353800297, -0.08141140639781952, 0.006902292836457491, -0.009960245341062546, -0.12950977683067322, 0.027330275624990463, 0.2944088876247406, -0.10612767189741135, 0.16822439432144165, 0.025010425597429276, 0.022094490006566048, 0.09679316729307175, -0.09630685299634933, 0.08678355813026428, -0.3130386769771576, 0.13351479172706604, -0.12487346678972244, 0.2569931149482727, -0.018624981865286827, -0.34897536039352417, 0.060179609805345535, -0.03043019399046898, -0.020286280661821365, 0.15882979333400726, -0.23402522504329681, -0.05469006672501564, -0.08776644617319107, -0.04000753164291382, -0.041580673307180405, -0.02640121430158615, -0.3599644899368286, -0.30095553398132324], [0.026055073365569115, 0.023569751530885696, -0.023562705144286156, -0.13771437108516693, 0.05013236403465271, -0.017052877694368362, -0.030625110492110252, -0.015148143284022808, -0.0247978325933218, -0.002825205447152257, 0.014601820148527622, -0.04995596408843994, 0.040188733488321304, 0.0022247713059186935, 0.1118929460644722, -0.03267354890704155, -0.04656881093978882, 0.07324986159801483, -0.0254399124532938, 0.1115000769495964, -0.035617075860500336, 0.010041054338216782, -0.10649894177913666, 0.03954077884554863, -0.07545724511146545, 0.11230100691318512, -0.020851554349064827, -0.12231332808732986, 0.020458359271287918, -0.08008512854576111, -0.0979752168059349, 0.01747828908264637, -0.07230396568775177, 0.03349466621875763, -0.11563032865524292, -0.07351856678724289, -0.050035376101732254, -0.07100027054548264, -0.12002105265855789, -0.11072742193937302], [-0.011024637147784233, -0.04137713834643364, 0.016791855916380882, -0.050622716546058655, -0.004052209202200174, -0.006407800130546093, -0.046000149101018906, -0.007156922481954098, -0.002703096019104123, 0.02074528858065605, 0.04527030512690544, 0.006570554804056883, -0.002197396708652377, -0.008588600903749466, 0.11115056276321411, -0.06982982903718948, 0.0041567482985556126, 0.03161123767495155, -0.00886277575045824, 0.030161164700984955, -0.02980649285018444, -0.01346301008015871, -0.14299452304840088, 0.02728600613772869, -0.010834254324436188, 0.06913397461175919, 0.02368220128118992, -0.21794094145298004, -0.05368617922067642, -0.022452929988503456, 0.02744702436029911, -0.015206453390419483, 0.06356137990951538, 0.02043798193335533, -0.02893242985010147, -0.03259371221065521, 0.007273545954376459, 0.0017568786861374974, -0.22006355226039886, -0.056802649050951004], [0.06668047606945038, 0.0861874669790268, -0.1904447078704834, -0.052141278982162476, -0.05113547295331955, 0.15210311114788055, 0.010924356989562511, -0.008455243892967701, -0.0053783501498401165, -0.06524748355150223, 0.07722322642803192, -0.07928959280252457, -0.1447906196117401, -0.012490835972130299, 0.506298840045929, -0.020443063229322433, 0.14873436093330383, 0.040582310408353806, -0.11914100497961044, 0.07668093591928482, 0.03977017477154732, -0.008180035278201103, -0.48669666051864624, 0.1521022766828537, -0.03967680037021637, 0.29073798656463623, -0.0011021244572475553, -0.8258745074272156, -0.032590072602033615, 0.09544705599546432, 0.13033047318458557, 0.07542412728071213, -0.20778632164001465, -0.020515892654657364, -0.08784302324056625, -0.04751676321029663, 0.06877083331346512, 0.09925702959299088, -0.8433582186698914, -0.4908945560455322], [0.040511228144168854, 0.0029380260966718197, 0.03400048241019249, -0.07191286236047745, -0.014334743842482567, -0.0006506773643195629, -0.017990779131650925, -0.016756834462285042, -0.03828801214694977, -0.022216657176613808, -0.04150447994470596, -0.016172775998711586, -0.0043540652841329575, 0.03594716638326645, 0.06270700693130493, -0.10267671197652817, 0.06870555132627487, 0.05596546083688736, -0.009116456843912601, -0.016634829342365265, 0.012805324979126453, -0.0244524534791708, -0.16008056700229645, -0.024226276203989983, 0.01778402365744114, 0.040276214480400085, -0.0007240170962177217, -0.23526395857334137, 0.03315035626292229, -0.01117310393601656, 0.029366491362452507, 0.014969621784985065, 0.11155536770820618, -0.003512021154165268, 0.030014416202902794, -0.04261934012174606, 0.0034621211234480143, -0.017195800319314003, -0.23852160573005676, -0.07037173211574554], [0.016221337020397186, -0.015887606889009476, 0.0060819340869784355, -0.02605411596596241, 0.01752281002700329, 0.007986942306160927, 0.0023580819834023714, -0.04657073691487312, 0.0004040451312903315, -0.0620257705450058, 0.012471799738705158, 0.025688402354717255, -0.026780661195516586, -0.007884474471211433, 0.10150863230228424, 0.03706987574696541, -0.065349280834198, 0.04350742697715759, 0.008188383653759956, 0.06863443553447723, -0.00933830812573433, 0.01945808157324791, -0.08055023103952408, 0.0404551662504673, -0.011221937835216522, 0.06559155881404877, -0.0054767439141869545, -0.09088104218244553, -0.009144775569438934, 0.02596261166036129, -0.009310958907008171, 0.006886445917189121, -0.06091740354895592, -0.02222517691552639, -0.012950679287314415, -0.030570412054657936, -0.006540682632476091, 0.012221038341522217, -0.08987483382225037, -0.06704913824796677], [0.005862157791852951, -0.016126113012433052, 0.0045145368203520775, -0.04791342467069626, -0.0026465978007763624, 0.04234614968299866, -0.003365469165146351, -0.03507161885499954, -0.0035895362962037325, -0.05467470735311508, 0.029839111492037773, -3.059229129576124e-05, -0.03861066699028015, -0.0036977885756641626, 0.1418689340353012, -0.0350114181637764, 0.04651404172182083, 0.019387952983379364, 0.00906431209295988, 0.04931319132447243, -0.0014294260181486607, 0.01357672456651926, -0.18318620324134827, 0.02467089146375656, -0.04307638108730316, 0.12378313392400742, -0.009570269845426083, -0.22275632619857788, 0.014459311030805111, -0.02996067702770233, -0.008602607995271683, 0.019889384508132935, -0.04321018606424332, -0.012728335335850716, -0.012706155888736248, 0.002940535079687834, 0.0026771582197397947, -0.006989591289311647, -0.22602367401123047, -0.15991398692131042], [-0.045822855085134506, 0.0780947282910347, 0.01164031121879816, 0.021810276433825493, 0.02167925052344799, -0.04306842014193535, -0.02963043563067913, 0.009752807207405567, -0.0016886246157810092, -0.1785808950662613, -0.00605027237907052, -0.0607394278049469, -0.0033553573302924633, 0.031570915132761, 0.26129409670829773, 0.07101993262767792, -0.0888928696513176, -0.016131561249494553, 0.04340865835547447, -0.11749093234539032, -0.15454360842704773, 0.01921928860247135, -0.12686309218406677, 0.3221653997898102, 0.03615541756153107, -0.2661057412624359, 0.05840035527944565, -0.20000530779361725, -0.0063930777832865715, -0.10602492094039917, -0.01692495122551918, -0.19221799075603485, -0.3519536554813385, 0.07111845165491104, -0.08283639699220657, -0.10808851569890976, -0.11644112318754196, -0.14736774563789368, -0.17751988768577576, -0.2264014035463333], [-0.12895885109901428, 0.06251881271600723, -0.04271292686462402, 0.09774714708328247, 0.04899216070771217, 0.09349699318408966, 0.023356590420007706, 0.020631955936551094, 0.022005045786499977, 0.03495194762945175, -0.04865868389606476, -0.028006035834550858, -0.0794924795627594, 0.04308117926120758, 0.8131604194641113, 0.11736351251602173, -0.07595840096473694, 0.038807857781648636, 0.12805533409118652, -0.12203284353017807, -0.11629106104373932, 0.042367007583379745, -0.4052015542984009, 0.8848353028297424, -0.19937387108802795, -0.9195106029510498, 0.15537410974502563, -0.7337688207626343, 0.022708797827363014, 0.16935256123542786, -0.030391663312911987, 0.1382077932357788, -0.5355299711227417, 0.05773624777793884, -0.2269938737154007, -0.10068537294864655, -0.07041747868061066, 0.05789288505911827, -0.7147597074508667, -0.5701557397842407], [0.15447330474853516, -0.15977045893669128, 0.0788334533572197, 0.03137043118476868, -0.08715690672397614, -0.1636548787355423, 0.010461494326591492, 0.22714729607105255, 0.0062208035960793495, -0.08959490060806274, 0.09210477024316788, -0.005140028428286314, -0.11164065450429916, 0.02323087863624096, 0.4683518409729004, -0.08007330447435379, -0.018732856959104538, 0.08592349290847778, -0.14785590767860413, 0.42917779088020325, -0.015674222260713577, 0.0011536963284015656, -0.46173837780952454, 0.32011091709136963, -0.00463082455098629, 1.0301481485366821, 0.03433183580636978, -0.9026651382446289, -0.04010342061519623, 0.11677217483520508, 0.025083843618631363, 0.12806978821754456, -0.24124224483966827, 0.006639046128839254, 0.11157738417387009, -0.13215325772762299, 0.008597303181886673, -0.06945052742958069, -0.9201241135597229, -0.5158562064170837], [-0.024201052263379097, -0.046810299158096313, -0.00495857372879982, -0.004028793424367905, -0.06551511585712433, 0.04893982410430908, 0.0070672971196472645, -0.021470144391059875, -0.021088894456624985, -0.014183800667524338, 0.0055497875437140465, 0.05328252166509628, -0.03186090663075447, -0.032589349895715714, 0.07082823663949966, -0.032487981021404266, 0.05698906630277634, 0.02325129136443138, 0.010533345863223076, -0.001095999381504953, 0.021741226315498352, 0.007606137543916702, -0.11446051299571991, 0.03679654374718666, -0.00911930575966835, 0.09482122212648392, -0.022528907284140587, -0.1494511514902115, -0.047828104346990585, -0.058256179094314575, 0.03920035436749458, 0.012585243210196495, 0.02318403869867325, 0.0081564886495471, 0.0009872060036286712, 0.018893830478191376, 0.024974411353468895, 0.013150632381439209, -0.14861524105072021, -0.05185559764504433], [0.028708092868328094, -0.021592075005173683, 0.0009152349084615707, -0.07670444250106812, -0.026799116283655167, -0.012264616787433624, -0.00018418001127429307, -0.0012827783357352018, -0.01121176965534687, -0.06179360672831535, 0.0467565692961216, -0.00914189126342535, -0.09254968166351318, 0.014964963309466839, 0.1303945928812027, 0.006714407820254564, 0.08500666916370392, 0.04784879460930824, -0.01636112853884697, 0.06249811127781868, 0.0002364178653806448, 0.022329147905111313, -0.1796088069677353, 0.1127757653594017, -0.03695114329457283, 0.12549178302288055, -0.009766493923962116, -0.2530724108219147, -0.033888816833496094, 0.029461629688739777, 0.14167743921279907, 0.043052397668361664, -0.04791687801480293, 0.005494215525686741, -0.02419806271791458, -0.029520034790039062, -0.011634956113994122, 0.031076589599251747, -0.23341305553913116, -0.1464705616235733], [-0.007109364960342646, 0.008521230891346931, 0.020214660093188286, -0.0935574322938919, -0.049072831869125366, 0.08377910405397415, 0.04104940965771675, -0.038050927221775055, -0.005960334558039904, -0.015865067020058632, -0.054825589060783386, 0.03499196842312813, 0.03803957626223564, -0.04668455570936203, -0.0030755873303860426, -0.028550924733281136, 0.09303944557905197, -0.021526388823986053, 0.054063234478235245, -0.12282063812017441, 0.044498976320028305, -0.03127015754580498, -0.11171183735132217, -0.02892976813018322, 0.0036315324250608683, 0.1362156867980957, -0.02286401204764843, -0.17525474727153778, -0.024398142471909523, -0.04668981209397316, 0.025752926245331764, -0.0004179533279966563, 0.08209122717380524, -0.038460347801446915, 0.027253026142716408, 0.027118412777781487, -0.03028970956802368, -0.03188794478774071, -0.1809070110321045, -0.01655026152729988], [0.006282853428274393, -0.009388533420860767, -0.023902159184217453, 0.0028928862884640694, -0.03905131667852402, -0.07022888213396072, 0.03936038911342621, -0.057306043803691864, -0.028172288089990616, -0.0044618891552090645, -0.027796607464551926, 0.031489789485931396, -0.05262359604239464, -0.061410170048475266, 0.28980380296707153, 0.0019186140270903707, -0.07711194455623627, 0.15072090923786163, -0.010666479356586933, 0.04032247141003609, -0.0275875311344862, -0.0422094464302063, -0.30591922998428345, 0.12394053488969803, 0.04854918271303177, 0.10464179515838623, 0.1136392131447792, -0.5196100473403931, 0.031454551964998245, 0.04489075019955635, -0.0036531295627355576, 1.897128277050797e-05, -0.03318748623132706, -0.05645504966378212, 0.04047463834285736, -0.059698209166526794, 0.0023796274326741695, -0.025270868092775345, -0.5290427803993225, -0.2830061912536621], [-0.019766023382544518, 0.0026172951329499483, 0.00794252846390009, -0.0067719751968979836, 0.054659705609083176, 0.24179919064044952, 0.05999988317489624, -0.007058012764900923, 0.08495638519525528, 0.011249358765780926, 0.18318189680576324, 0.13705959916114807, -0.09638139605522156, -0.025601891800761223, 0.046248357743024826, 0.028815705329179764, -0.12097139656543732, 0.08959054201841354, 0.0368216335773468, 0.1254817098379135, -0.02323264628648758, 0.001631234074011445, -0.001786419888958335, 0.060639865696430206, 0.0231910590082407, -0.11250004172325134, -0.021884778514504433, -0.10504332929849625, -0.12388177961111069, 0.00823830347508192, 0.013499656692147255, 0.008232914842665195, 0.05639403685927391, 0.0035205907188355923, -0.015281024388968945, -0.02849021553993225, 0.07697539031505585, -0.017595533281564713, -0.12106146663427353, 0.04107147082686424], [-0.02518097497522831, -0.004503131844103336, -0.0566285103559494, 0.04309095814824104, 0.09827739745378494, 0.013409625738859177, -0.022279974073171616, -0.12791699171066284, -0.026005154475569725, -0.11285924911499023, -0.027105113491415977, -0.03176693245768547, -0.07856244593858719, 0.0204915814101696, 0.3730740249156952, 0.09544213116168976, -0.010125537402927876, 0.08316785842180252, 0.02575315162539482, 0.12007518112659454, -0.11937406659126282, 0.016909975558519363, 0.030326541513204575, 0.8637383580207825, -0.14145390689373016, -0.48548758029937744, 0.06778517365455627, 0.04603451117873192, -0.06423220783472061, 0.0698128193616867, -0.02505270391702652, -0.19082067906856537, -0.574985682964325, 0.04441005736589432, 0.009608603082597256, -0.11141437292098999, -0.01402232889086008, 0.21485298871994019, 0.07811064273118973, -0.16626814007759094], [-0.013625637628138065, -0.029900051653385162, 0.051015160977840424, -0.03073604591190815, 0.029751859605312347, 0.050924547016620636, -0.04874558001756668, -0.16030599176883698, 0.021025173366069794, -0.12231197208166122, -0.0019084204686805606, -0.034739986062049866, -0.04620561748743057, -0.015383735299110413, 0.21079246699810028, 0.08695344626903534, 0.0696488469839096, -0.05165610462427139, 0.014223664999008179, -0.13697974383831024, -0.06501114368438721, -0.011472049169242382, -0.20721924304962158, -0.03383028134703636, -0.061241354793310165, 0.03683032467961311, 0.0064880093559622765, -0.27699434757232666, 0.05689335614442825, -0.049765925854444504, -0.03989918529987335, 0.07447712868452072, 0.15564468502998352, -0.03683679923415184, 0.010446103289723396, 0.08776066452264786, -0.047865141183137894, 0.026899049058556557, -0.2798427939414978, -0.0868871808052063], [-0.023546209558844566, -0.004670188296586275, -0.00951043888926506, 0.035452164709568024, 0.005947581026703119, -0.06853636354207993, -0.06257856637239456, 0.006482262164354324, -0.012577292509377003, 0.029894180595874786, 0.004604534711688757, -0.020400214940309525, -0.027495617046952248, 0.002736594993621111, 0.1294025331735611, -0.07213113456964493, -0.0009358066017739475, 0.008168012835085392, -0.04523267224431038, 0.02128552459180355, -0.04609805718064308, -0.027141116559505463, -0.13453005254268646, 0.01542544737458229, 0.01992577500641346, 0.09000498801469803, 0.05107070878148079, -0.2212638258934021, 0.009717528708279133, -0.03755907341837883, 0.021938642486929893, -0.01614086888730526, -0.008385799825191498, -0.0422208271920681, -0.050641484558582306, -0.05842498689889908, -0.012264303863048553, 0.000307868787785992, -0.2288402020931244, -0.06487081199884415], [-0.09058510512113571, -0.07895426452159882, 0.0886981412768364, -0.1328447461128235, -0.04778563976287842, 0.32803013920783997, 0.06217825785279274, -0.02414439246058464, 0.01621718518435955, 0.07476834207773209, 0.008718605153262615, 0.009404502809047699, -0.09847885370254517, 0.011156877502799034, 0.10830120742321014, -0.08455483615398407, 0.06062215939164162, -0.06940624862909317, 0.04482688382267952, 0.021640872582793236, 0.11400140821933746, -0.004098358564078808, -0.4617098569869995, -0.031030621379613876, -0.05383141338825226, -0.014718473888933659, -0.027366699650883675, -0.7578057050704956, -0.0010663592256605625, -0.07036752253770828, 0.13864381611347198, 0.11354035139083862, -0.02815563604235649, 0.06509866565465927, -0.0955088809132576, 0.03390289098024368, -0.010658747516572475, 0.02644580602645874, -0.6713792085647583, -0.4095640480518341], [-0.016669707372784615, 0.00799760315567255, 0.026428362354636192, -0.08231077343225479, -0.01717672124505043, -0.014771812595427036, 0.026975534856319427, 0.04480844363570213, -0.03854574263095856, 0.04482584074139595, -0.000914422154892236, 0.004643755964934826, -0.020549248903989792, -0.011548414826393127, 0.11261800676584244, -0.05913480743765831, 0.08114485442638397, 0.05116036534309387, -0.017635095864534378, 0.009117077104747295, -0.03303604945540428, -0.02987559698522091, -0.15716581046581268, 0.043667327612638474, -0.051633071154356, 0.01033285167068243, 0.0026359849143773317, -0.22515200078487396, -0.022783899679780006, 0.010839711874723434, 0.013895256444811821, 0.04248944669961929, 0.10227745771408081, -0.021800676360726357, 0.015723364427685738, -0.07283172756433487, 0.02942819707095623, 0.06039895862340927, -0.2397884577512741, -0.030573485419154167], [0.004135312046855688, -0.022641751915216446, -0.006055063102394342, -0.009281043894588947, 0.008201188407838345, -0.027829615399241447, -0.012902324087917805, -0.028120828792452812, -0.014681822620332241, -0.03770512714982033, 0.06918301433324814, -0.05741168186068535, 0.013894885778427124, 0.01184561662375927, 0.042479049414396286, -0.043370798230171204, 0.04521114379167557, 0.01862148381769657, -0.012714101932942867, 0.03569851070642471, 0.03990704193711281, -0.01793818362057209, -0.01204201765358448, -0.0723753497004509, 0.012906566262245178, 0.010345536284148693, -0.03715193644165993, -0.012687484733760357, -0.017877476289868355, 0.04035891965031624, -0.0038432294968515635, 0.0013787827920168638, 0.15912476181983948, -0.013753000646829605, 0.0083357784897089, 0.014874127693474293, -0.030230361968278885, -0.02160857804119587, -0.01871977001428604, 0.036520496010780334], [-0.032323919236660004, -0.027550170198082924, -0.0532032810151577, 0.03159956634044647, 0.03506072983145714, -0.0017821639776229858, -0.009047606028616428, 0.024599628522992134, -0.008638884872198105, -0.1235952079296112, 0.057991769164800644, -0.00486768689006567, 0.04431617632508278, -0.01786006987094879, 0.033795520663261414, 0.02068265900015831, 0.00810152292251587, 0.02863468788564205, 0.02107396349310875, 0.05245181545615196, 0.032655928283929825, -0.03438131511211395, 0.045299507677555084, 0.06537120044231415, 0.0824359729886055, 0.020548764616250992, -0.10764581710100174, 0.005929637234658003, -0.005528796464204788, -0.07495046406984329, 0.008216704241931438, 0.0017710475949570537, -0.23105241358280182, 0.026225946843624115, -0.020931079983711243, 0.1333923488855362, 0.003638319671154022, -0.10231170058250427, -0.008140452206134796, -0.04138118028640747], [0.025990527123212814, -0.03082343190908432, -0.03651924058794975, -0.06977164000272751, -0.013006080873310566, 0.06097214296460152, -0.007675656583160162, -0.053380172699689865, 0.0017781466012820601, -0.10249970853328705, 0.0174146369099617, 0.0014061495894566178, -0.01317080669105053, -0.007210289128124714, 0.14304034411907196, 0.012493041343986988, 0.009607312269508839, 0.05202845111489296, 0.004810057580471039, 0.04960652068257332, 0.010217834264039993, 0.008364187553524971, -0.18957553803920746, 0.030308933928608894, 0.002654495183378458, 0.15519331395626068, -0.008795983158051968, -0.20406591892242432, 0.007622042670845985, 0.0086922412738204, -0.0031190512236207724, 0.014830120839178562, -0.06965754181146622, -0.015611043199896812, -0.022215409204363823, -0.026065068319439888, 0.030221877619624138, 0.039841216057538986, -0.24581488966941833, -0.17534378170967102], [0.029381999745965004, -0.028523214161396027, -0.014575481414794922, -0.025421030819416046, -0.0003012871602550149, 0.014176235534250736, -0.012594860978424549, -0.02065165713429451, 0.00372335291467607, -0.04226316884160042, 0.03375264257192612, -0.0017961431294679642, -0.027961866930127144, -0.019452324137091637, 0.13787753880023956, -0.015004027634859085, 0.03395768254995346, 0.04561712220311165, -0.021433699876070023, 0.07458657026290894, -0.010782604105770588, 0.0017745121149346232, -0.17358875274658203, 0.05745123326778412, -0.050422631204128265, 0.18926022946834564, -0.008138256147503853, -0.2035188525915146, -0.006328996736556292, 0.007279116194695234, 0.007221943698823452, 0.013609951362013817, -0.0782223716378212, -0.01742788963019848, 0.0012537469156086445, -0.008362280204892159, -0.009559022262692451, 0.013886433094739914, -0.22338823974132538, -0.22613391280174255], [0.3377346396446228, -0.012930076569318771, -0.01407688483595848, 0.01155281811952591, -0.010388463735580444, -0.03255554661154747, 0.1721387356519699, -0.018217314034700394, 0.5118963122367859, -0.02962527610361576, 0.07929752767086029, 0.10526244342327118, 0.41770297288894653, -0.10969624668359756, -0.07480602711439133, 0.046043116599321365, -0.0542725995182991, -0.0019637010991573334, -0.0025576709304004908, 0.028116701170802116, -0.16465146839618683, 0.004522700794041157, -0.010894259437918663, -0.02053498849272728, 0.026776229962706566, 0.03981294482946396, -0.02825130708515644, -0.051805902272462845, 0.0012401624117046595, 0.10509578138589859, 0.017400644719600677, 0.03589969128370285, -0.004477345384657383, -0.37572965025901794, -0.04718777909874916, -0.06835147738456726, 0.02196061797440052, -0.017071105539798737, -0.07453197985887527, -0.0014673288678750396], [-0.1007997915148735, 0.3412722945213318, 0.23487286269664764, 0.005513525567948818, 0.14588405191898346, -0.05755513533949852, -0.09060756862163544, 0.043227262794971466, 0.07188887149095535, 0.02729027159512043, 0.5048589110374451, 0.15070518851280212, -0.050052840262651443, -0.35578060150146484, -0.03901799023151398, -0.02458779700100422, -0.028411034494638443, -0.03736560791730881, 0.05658956989645958, -0.047818463295698166, 0.11883731931447983, -0.053393956273794174, -0.09797322750091553, 0.0008630328811705112, 0.02692963182926178, -0.012248101644217968, 0.05845465883612633, 0.02402273751795292, -0.32213130593299866, -0.06724458187818527, -0.17849358916282654, -0.05898374691605568, 0.01343650184571743, -0.1882116049528122, -0.42215362191200256, -0.048470210283994675, -0.14945191144943237, 0.009650099091231823, 0.12399601191282272, -0.06438897550106049], [0.0209369920194149, -0.5391384363174438, -0.29124510288238525, 0.03105207346379757, 0.4298307001590729, 0.12361463904380798, -0.23725757002830505, -0.08825334906578064, -0.24912256002426147, -0.029361963272094727, -0.018905717879533768, 0.29395484924316406, 0.07983192801475525, -0.23694109916687012, -0.11892512440681458, -0.0715448260307312, 0.031934335827827454, 0.010850705206394196, 0.16461600363254547, 0.009572509676218033, 0.1290781944990158, 0.08820812404155731, 0.028277559205889702, 0.0038886384572833776, 0.05287632346153259, -0.02969321981072426, 0.033664241433143616, -0.0701131597161293, 0.0600498728454113, -0.02716798521578312, 0.08482226729393005, 0.3417876362800598, -0.01728791743516922, -0.06279676407575607, 0.3073427081108093, -0.1522834151983261, -0.49703365564346313, -0.005589901469647884, -0.09187202155590057, 0.1294303983449936], [0.030208880081772804, -0.01061754859983921, -0.04584503546357155, 0.25972074270248413, -0.06362000107765198, -0.046111878007650375, 0.0019384876359254122, 0.004685860127210617, 0.05475548282265663, -0.05424289032816887, 0.04955185577273369, 0.024580489844083786, -0.01603960432112217, -0.020248617976903915, 0.08908567577600479, -0.047472067177295685, 0.14440320432186127, -0.056633539497852325, -0.02152816392481327, -0.027382731437683105, 0.0584540069103241, 0.0771515741944313, 0.057101309299468994, 0.023136325180530548, 0.013346811756491661, 0.06902984529733658, 0.14523589611053467, 0.05501212179660797, 0.013774457387626171, -0.012121421284973621, -0.055659182369709015, -0.044975876808166504, -0.14383326470851898, -0.01458708569407463, 0.06324730813503265, -0.021435966715216637, 0.016999050974845886, -0.03623447194695473, 0.06390073895454407, -0.01230661477893591], [0.013465245254337788, -0.029083233326673508, -0.08460243046283722, 0.051320381462574005, 0.22780966758728027, -0.09703709930181503, 0.017518263310194016, 0.05402893200516701, -0.043317582458257675, 0.021338041871786118, -0.018080510199069977, 0.11726043373346329, 0.14061543345451355, 0.0003100901667494327, 0.1735651046037674, 0.0024352578911930323, 0.10082823038101196, -0.010936361737549305, 0.06145186722278595, 0.0026407220866531134, -0.015408501029014587, -0.17198839783668518, 0.014214200899004936, 0.0031450209207832813, 0.07884643226861954, -0.16709013283252716, -0.7754523754119873, -0.03154165297746658, -0.08315357565879822, -0.057505566626787186, 0.11323684453964233, -0.10477739572525024, -0.012698022648692131, 0.029650375247001648, 0.08740203082561493, -0.12566505372524261, 0.07001331448554993, 0.01203420665115118, -0.01703106239438057, 0.0810130387544632], [0.03011508472263813, 0.08669035136699677, -0.0016439410392194986, -0.03923669084906578, 0.0681171789765358, 0.21751528978347778, -0.002280231099575758, -0.057322826236486435, 0.012998356483876705, 0.05811060220003128, -0.04887910559773445, 0.38453274965286255, 0.15387773513793945, 0.09759008139371872, -0.13935159146785736, -0.07421351224184036, -0.1459779441356659, -0.049517035484313965, 0.11573067307472229, -0.07644771784543991, 0.04428071156144142, 0.022206518799066544, -0.2674567997455597, 0.007234473247081041, -0.04514084383845329, -0.2242555320262909, -0.16831490397453308, -0.35094332695007324, -0.13704903423786163, 0.024795809760689735, -1.2655357122421265, -0.02760845050215721, 0.13799148797988892, -0.0928567573428154, -0.019823281094431877, 0.0699603259563446, 0.020152166485786438, 0.0011031964095309377, -0.2082403600215912, 0.03899363428354263], [-0.29291754961013794, -0.004653767682611942, 0.16219471395015717, -0.018409833312034607, 0.17018575966358185, 0.006880493834614754, 0.3141109347343445, 0.04288051649928093, 0.4111515283584595, 0.019047070294618607, 0.12923073768615723, -0.007586257066577673, -0.3423203229904175, -0.0314708836376667, -0.06359797716140747, 0.04343600198626518, -0.04185495525598526, -0.012265507131814957, -0.055130042135715485, 0.04090101271867752, 0.16255950927734375, 0.07615108788013458, 0.0037714859936386347, 0.015364143997430801, -0.07979494333267212, 0.14612683653831482, -0.021352102980017662, 0.05177268758416176, 0.360664039850235, -0.07249800860881805, -0.196067675948143, -0.08470401167869568, 0.04194965586066246, -0.13789407908916473, -0.09151391685009003, -0.24077610671520233, 0.0018903894815593958, -0.052796222269535065, 0.05733759328722954, -0.005991113372147083], [0.08852902054786682, -0.007554974872618914, 0.1963508278131485, 0.017876112833619118, -0.0030674240551888943, -0.030856385827064514, -0.09693092107772827, 0.5322926640510559, 0.11501284688711166, 0.23575210571289062, -0.003789318259805441, 0.04161377623677254, 0.007049938198179007, -0.08214015513658524, 0.09220966696739197, 0.969910204410553, -0.04477553442120552, 0.061463430523872375, 0.07405103743076324, -0.06462889909744263, 0.40991970896720886, -0.06431648135185242, -0.07730815559625626, -0.3295131027698517, 0.3048804700374603, 0.1586618572473526, 0.0387154258787632, -0.3668953478336334, 0.11891958117485046, -0.06958898901939392, 0.029972290620207787, 0.6117579936981201, -0.24070428311824799, -0.028804250061511993, -0.034830283373594284, 0.15850339829921722, 0.3756757378578186, -0.01642543077468872, -0.15267910063266754, 0.0985276997089386], [-0.44517648220062256, -0.006423301063477993, -0.04881182312965393, -0.005323274061083794, -0.00455929571762681, 0.06244984269142151, -0.06326150894165039, -0.033553414046764374, 0.3042466938495636, -0.025797324255108833, -0.057862378656864166, -0.3148950934410095, -0.06398230791091919, -0.671488344669342, 0.0005946895689703524, 0.010831999592483044, 0.0037639527581632137, -0.010898043401539326, -0.060255520045757294, 0.08986233919858932, -0.052806612104177475, -0.08034771680831909, 0.04140421003103256, -0.025464048609137535, -0.028491295874118805, 0.11845944821834564, -0.016801301389932632, -0.005414077080786228, -0.18721608817577362, 0.08884237706661224, -0.02382527105510235, 0.08340900391340256, 0.009090484119951725, -0.07020040601491928, -0.04938604682683945, 0.02645929716527462, -0.10605604946613312, 0.0150423189625144, -0.008522232063114643, 0.014993849210441113], [0.012441753409802914, -0.09360264241695404, -0.10541470348834991, -0.05458779260516167, 0.019905071705579758, -0.01810169592499733, -0.0065782200545072556, 0.37148112058639526, 0.019213197752833366, 0.2008180022239685, 0.018151257187128067, 0.020823337137699127, 0.03923904895782471, -0.07700520753860474, 0.043699122965335846, 0.016166890040040016, -0.15128357708454132, -0.07113887369632721, 0.005129072815179825, -0.0749318078160286, 0.16699345409870148, 0.01244293712079525, 0.03352545201778412, 0.017458094283938408, -0.23512513935565948, -0.017434436827898026, -0.09568128734827042, 0.020761242136359215, 0.04809867963194847, -0.07447904348373413, -0.02928934432566166, 0.5921667814254761, 0.04464450478553772, -0.050472285598516464, 0.04604987055063248, 0.2290370613336563, -0.13832585513591766, 0.07851018756628036, 0.06569641828536987, 0.12710154056549072], [-0.02593330480158329, -0.40026187896728516, 0.10811534523963928, 0.03180137649178505, -0.09414511173963547, 0.1186223104596138, 0.004993114620447159, -0.011424257420003414, -0.06329434365034103, 0.014434189535677433, 0.09088707715272903, 0.10175322741270065, 0.01339405495673418, 0.053838249295949936, 0.04899384826421738, -0.03898055478930473, 0.14160335063934326, 0.09230244159698486, -0.058399882167577744, 0.08299174904823303, 0.037183038890361786, 0.10289978981018066, 0.023963650688529015, 0.047773923724889755, -0.06553801894187927, 0.20299896597862244, 0.050267141312360764, 0.05964665487408638, -0.05348029360175133, 0.02668207325041294, 0.08854358643293381, -0.04966043680906296, 0.018292788416147232, -0.0382402129471302, -0.4881424903869629, 0.022062214091420174, -0.0005971337668597698, 0.028615666553378105, 0.08637790381908417, 0.0023644561879336834], [-0.13157427310943604, -0.36341428756713867, -0.24486033618450165, -0.018883343786001205, -0.09717261046171188, -0.16775168478488922, 0.07254408299922943, -0.06705387681722641, 0.29372280836105347, 0.014934124425053596, 0.06639415770769119, 0.06303740292787552, -0.15433256328105927, -0.33533918857574463, -0.06709378957748413, 0.07099425047636032, -0.010945749469101429, -0.1378965675830841, 0.30305957794189453, -0.10328511148691177, -0.21390293538570404, 0.05243467167019844, 0.00036064928281120956, -0.017216617241501808, -0.035579077899456024, 0.1858539581298828, -0.036389462649822235, 0.0024722914677113295, -0.30640077590942383, 0.07834208756685257, -0.294556587934494, 0.0946912094950676, 0.041602469980716705, 0.3805384635925293, -0.1032104641199112, 0.11855208873748779, 0.2771221101284027, -0.050753455609083176, -0.010984379798173904, 0.01570088416337967], [-0.2536097466945648, 0.06259094178676605, -0.061462610960006714, 0.04955907538533211, 0.0036413136404007673, -0.018621250987052917, 0.32304903864860535, 0.02371450886130333, 0.057331833988428116, -0.027688633650541306, 0.04357084259390831, 0.08482775092124939, 0.47913968563079834, -0.022247960790991783, -0.0004581819521263242, -2.3137479729484767e-05, 0.044827792793512344, 0.05657176673412323, 0.13702525198459625, 0.07456934452056885, 0.11368916183710098, 0.08053513616323471, 0.16978147625923157, 0.03517598286271095, 0.0037835140246897936, -0.08027802407741547, 0.19600966572761536, 0.16867320239543915, -0.07773125171661377, -0.420884370803833, 0.17864716053009033, -0.030159933492541313, -0.07508569955825806, 0.16759759187698364, -0.011388653889298439, -0.15543797612190247, 0.00848731491714716, 0.004025792237371206, 0.008719468489289284, -0.02871384285390377], [0.007902542129158974, 0.03169916570186615, 0.04903305321931839, -0.003922769334167242, 0.08971426635980606, 0.005040145944803953, -0.2175111621618271, -0.014005115255713463, 0.6926170587539673, 0.022149208933115005, -0.0053167203441262245, 0.19400173425674438, -0.049636367708444595, 0.23852303624153137, 0.0015193003928288817, -0.09228000044822693, 0.008327888324856758, 0.030666247010231018, -0.2613755762577057, -0.04658539220690727, 0.20248180627822876, 0.009948193095624447, -0.027985909953713417, 0.044949814677238464, 0.05692395940423012, -0.2040865421295166, -0.059542544186115265, -0.006063526030629873, -0.22726194560527802, -0.037143513560295105, -0.05130954831838608, -0.022175142541527748, 0.022126290947198868, 0.11056438833475113, 0.015003039501607418, -0.11408599466085434, -0.1589026153087616, 0.002536894055083394, -0.01456722803413868, -0.038953933864831924], [-0.12105775624513626, 0.032096195966005325, 0.0003196111065335572, 0.07315274327993393, 0.07786582410335541, 0.03453971445560455, -0.06336723268032074, -0.16600239276885986, 0.06075398623943329, 0.01249820739030838, -0.029801439493894577, 0.0766916498541832, 0.051796805113554, 0.030878374353051186, 0.1666872650384903, 0.027798118069767952, 0.0051722899079322815, 0.10684015601873398, 0.11806639283895493, 0.06461144238710403, -0.14699624478816986, 0.013076062314212322, -0.07081455737352371, 0.022757526487112045, -0.09760963916778564, -0.3826175034046173, 0.11481382697820663, -0.09786553680896759, 0.05960194393992424, 0.13662874698638916, -0.005194725934416056, 0.0506710410118103, 0.06302761286497116, 0.0491243377327919, -0.08762428909540176, 0.07806535810232162, -0.10859373211860657, -0.030776366591453552, -0.12765386700630188, -0.060659609735012054], [0.04159505292773247, 0.06002959609031677, -0.08243373036384583, -0.020976915955543518, 0.02101750485599041, -0.07265881448984146, 0.08061110228300095, -1.4338926076889038, -0.08814918994903564, -0.0723414495587349, 0.026650946587324142, -0.07100135833024979, 0.07981593906879425, 0.07710332423448563, -0.07455294579267502, -0.5465738773345947, -0.035015005618333817, 0.008152613416314125, -0.1476845145225525, -0.06933844089508057, -0.06453776359558105, -0.12021820992231369, 0.16212378442287445, 0.3841429054737091, 0.05780099332332611, 0.3184065818786621, -0.06614742428064346, 0.2588045001029968, -0.11306001991033554, 0.039668552577495575, -0.017233332619071007, 1.0856704711914062, -0.11532104015350342, -0.043793532997369766, 0.07928448915481567, -0.1728305220603943, 0.24535413086414337, 0.029032770544290543, 0.16694913804531097, 0.2121107131242752], [-0.05201330408453941, -0.023269783705472946, 0.12459312379360199, 0.20836040377616882, 0.02660282887518406, -0.04041946679353714, -0.022260300815105438, 0.10163895040750504, 0.14160369336605072, 0.07129017263650894, -0.0752132460474968, -0.06957828998565674, 0.013353992253541946, 0.03240262344479561, 0.003552019130438566, -0.18033520877361298, 0.171195387840271, -0.32767120003700256, -0.016154149547219276, -0.020380066707730293, 0.11031170934438705, 0.016273807734251022, -0.03240768611431122, -0.09984322637319565, -0.06076184660196304, 0.16122116148471832, 0.12299299985170364, -0.08566450327634811, 0.32066747546195984, 0.016241278499364853, -0.03847063332796097, 0.11944257467985153, 0.020601142197847366, -0.03983161598443985, -0.12975488603115082, 0.12248428165912628, -0.02800310216844082, 0.031057318672537804, -0.017993401736021042, -0.07091835886240005], [0.05964729189872742, 0.05731245502829552, -0.10353514552116394, -0.10167310386896133, -0.14242637157440186, -0.10968510806560516, 0.15526551008224487, -0.024951813742518425, 0.028771521523594856, 0.1604566127061844, -0.019755426794290543, 0.16522862017154694, 0.004944635555148125, -0.09714703261852264, 0.05484864488244057, -0.06548289209604263, -0.09051921218633652, 0.19267123937606812, 0.07544154673814774, -0.056204963475465775, 0.16217602789402008, 0.13158611953258514, -0.018122918903827667, 0.0007612980552949011, -0.07038753479719162, -0.0018081809394061565, 0.1133662611246109, -0.022178201004862785, -0.17011110484600067, 0.030855966731905937, -0.01590673066675663, -0.07364901155233383, -0.049449991434812546, 0.040124859660863876, 0.11500254273414612, -0.10939233005046844, -0.13404065370559692, -0.07561378180980682, -0.019581496715545654, 0.006588425952941179], [-0.14146950840950012, -0.2800944745540619, -0.18785373866558075, -0.043171778321266174, -0.07643850892782211, -0.04232022166252136, 0.16240791976451874, -0.02849186211824417, -0.06429500877857208, -0.030429258942604065, 0.09508340060710907, -0.5219851732254028, -0.02955758571624756, 0.31748315691947937, -0.02609493024647236, 0.029100200161337852, -0.040557123720645905, -0.07169808447360992, 0.25793707370758057, -0.07412383705377579, 0.032630257308483124, -0.12759655714035034, -0.0064927381463348866, -0.058038219809532166, 0.05837315693497658, -0.1438256800174713, 0.08206085115671158, -0.09673326462507248, -0.39193370938301086, -0.08099748194217682, -0.16321229934692383, 0.13427706062793732, -0.05204493924975395, -0.44643476605415344, -0.06807999312877655, 0.04943107068538666, -0.07819710671901703, 0.03831379860639572, -0.0433766171336174, -0.002594135468825698], [0.06871302425861359, 0.1816963404417038, -0.33269786834716797, -0.017108434811234474, -0.03452914208173752, 0.06414999812841415, 0.0015620639314875007, 0.054120056331157684, -0.058556318283081055, 0.07959846407175064, -0.049738816916942596, -0.15295438468456268, 0.0032614003866910934, 0.04825243353843689, 0.06856588274240494, -0.17485733330249786, 0.050035346299409866, 0.001925415825098753, -0.14372092485427856, 0.38385671377182007, 0.03056970052421093, -0.08025571703910828, 0.2335452139377594, 0.09023585170507431, 0.10388355702161789, 0.06496734917163849, -0.10311144590377808, 0.13288773596286774, 0.11670160293579102, -0.05867931991815567, -0.026423653587698936, 0.03214135020971298, 0.01617015339434147, 0.001531129819341004, -0.4129602015018463, 0.08124624937772751, 0.009487705305218697, 0.11405906081199646, 0.06187682971358299, 0.1637650579214096], [-0.035399794578552246, -0.06890372186899185, -0.04943687096238136, -0.031234990805387497, 0.0034580158535391092, -0.008807565085589886, 0.0505605973303318, -0.11753243952989578, 0.032948341220617294, -0.14840051531791687, 0.021735122427344322, 0.08258288353681564, -0.20785541832447052, -0.07209835201501846, -0.13582800328731537, 0.21980175375938416, 0.02998383156955242, -0.151521235704422, -0.14339004456996918, 0.06064898520708084, 0.11630713939666748, 0.009689814411103725, -0.008480559103190899, -0.2187940925359726, 0.05529627203941345, -0.07571448385715485, 0.13364523649215698, -0.018751751631498337, -0.008191069588065147, -0.3011331856250763, -0.043885789811611176, 0.33093157410621643, -0.05114809051156044, 0.026473065838217735, -0.11553981155157089, -0.37999922037124634, -0.03203060105443001, 0.0006216249312274158, 0.004839605186134577, -0.01660572737455368], [-0.009831655770540237, -0.04894978553056717, -0.05215420946478844, -0.1254138946533203, 0.11250375211238861, -0.015071027912199497, 0.024703163653612137, 0.019026802852749825, 0.01821238547563553, -0.010732071474194527, 0.03207257390022278, 0.010309111326932907, -0.029369881376624107, 0.04044460505247116, 0.11357676237821579, 0.03641752153635025, -0.09426750987768173, -0.15154249966144562, -0.04614226520061493, 0.005199352744966745, -0.03976202383637428, 0.14266616106033325, -0.0066957916133105755, -0.07696117460727692, -0.10723172128200531, -0.08928795158863068, 0.16080330312252045, 0.0036281347274780273, 0.12617352604866028, -0.010577740147709846, -0.006642849184572697, 0.003581306431442499, -0.06807219982147217, 0.05106250196695328, 0.06752000749111176, 0.021713940426707268, 0.2553267776966095, -0.01600569114089012, -0.004553637001663446, 0.0010733550880104303], [-0.002201397204771638, 0.007832982577383518, 0.04266679659485817, 0.00021207112877164036, -0.005741438828408718, -0.020605960860848427, -0.009674170054495335, -0.007387176156044006, -0.01310363132506609, 0.01361776702105999, -0.04410999268293381, -0.012767983600497246, 0.043405767530202866, 0.01229072641581297, -0.098187156021595, 0.06280860304832458, -0.025774184614419937, 0.005223473068326712, -0.014773767441511154, -0.01367146149277687, -0.028096001595258713, -0.008449489250779152, 0.12787087261676788, -0.04307916387915611, 0.02145986445248127, -0.0799521878361702, -0.016054922714829445, 0.19706067442893982, -0.05284729599952698, 0.039379045367240906, 0.0929112583398819, -0.05891672894358635, -0.004751112312078476, 0.018563618883490562, -0.010245866142213345, -0.012300381436944008, -0.03730768710374832, 0.01787533611059189, 0.15970270335674286, 0.1108313724398613], [0.021380728110671043, -0.001257793279364705, -0.039568766951560974, -0.0296018123626709, 0.0087848249822855, -0.008399796672165394, -0.044276922941207886, 0.6530627608299255, 0.04134475439786911, -0.12011266499757767, -0.007292658090591431, 0.028461141511797905, 0.007918388582766056, -0.008524389006197453, 0.1886177510023117, -0.3439875841140747, -0.0807301476597786, -0.1029118150472641, 0.06811946630477905, -0.03234529495239258, 0.13367873430252075, 0.07229196280241013, 0.011586868204176426, 0.04451910778880119, -0.2511642277240753, -0.264011949300766, -0.014095877297222614, -0.03966750577092171, 0.0004754633700940758, -0.05479052662849426, -0.01086393278092146, 0.3558250963687897, -0.35302144289016724, -0.034011345356702805, 0.010448887012898922, 0.13131041824817657, -0.09447688609361649, 0.009162459522485733, -0.07700754702091217, -0.06827964633703232], [0.003053649328649044, -0.005525432527065277, -0.047641996294260025, -0.02151898480951786, 0.05876436084508896, 0.004891295917332172, -0.02983749285340309, 0.4216075539588928, 0.04045191779732704, 0.38073089718818665, -0.010738195851445198, -0.00018199572514276952, -0.07624389231204987, -0.017939534038305283, 0.10519476979970932, -0.45464372634887695, 0.04900501295924187, -0.0011127071920782328, 0.05721128731966019, -0.043251123279333115, 0.025848891586065292, 0.032955240458250046, 0.06585554778575897, 0.2031855434179306, 0.22994177043437958, -0.011720871552824974, -0.003055142005905509, 0.05112295597791672, 0.017951572313904762, -0.00794866681098938, 0.0238879956305027, 0.31131845712661743, 0.12933756411075592, -0.02717689611017704, 0.04923449829220772, 0.07441696524620056, 0.03664657846093178, -0.14731600880622864, 0.18229112029075623, 0.07805141061544418], [-0.14155492186546326, 0.013012032955884933, 0.030645983293652534, -0.07387968897819519, -0.024299539625644684, -0.1915448009967804, 0.062360845506191254, -0.2596629858016968, 0.006459667347371578, -0.026903776451945305, -0.15670859813690186, 0.1823662370443344, 