{"model_data": {"model": "SimpleRNN", "input_size": 1, "skip": 1, "output_size": 1, "unit_type": "LSTM", "num_layers": 1, "hidden_size": 40, "bias_fl": true}, "state_dict": {"rec.weight_ih_l0": [[0.08854041248559952], [0.07811569422483444], [-0.037459082901477814], [-0.02706817165017128], [0.038072627037763596], [-0.06691571325063705], [0.024919418618083], [-0.10052347183227539], [-0.16385367512702942], [0.0015939795412123203], [-0.10674276947975159], [-0.01814034953713417], [-0.06054561585187912], [-0.06520164757966995], [-0.035981014370918274], [0.028050227090716362], [0.011113367043435574], [-0.04146801307797432], [0.011974512599408627], [-0.009404472075402737], [-0.06287597119808197], [-0.06427080929279327], [-0.03327060863375664], [-0.04374024644494057], [-0.04956137761473656], [0.0036065103486180305], [-0.03083215467631817], [-0.06193161755800247], [0.024775946512818336], [-0.07310361415147781], [0.03320152685046196], [-0.040148936212062836], [-0.06473194062709808], [0.06345359236001968], [0.010883677750825882], [-0.015912320464849472], [0.09060870856046677], [-0.07467027008533478], [0.031637098640203476], [-0.001884636003524065], [0.32504022121429443], [0.06529366970062256], [0.03177056461572647], [-0.011172612197697163], [-0.07630182057619095], [-0.018787303939461708], [0.009563195519149303], [0.026045367121696472], [0.010535839013755322], [0.0076257274486124516], [0.036736708134412766], [-0.05300955846905708], [0.10812567174434662], [0.10929394513368607], [0.16624805331230164], [0.11473783850669861], [-0.04346553981304169], [0.06583840399980545], [0.015721093863248825], [0.040764786303043365], [0.021510442718863487], [-0.023895733058452606], [0.018098769709467888], [-0.03541040048003197], [-0.20411179959774017], [-0.029765771701931953], [0.01750955358147621], [-0.03044525720179081], [-0.06113842874765396], [-0.08059424161911011], [0.010690153576433659], [0.031267255544662476], [0.01992003060877323], [0.10023146122694016], [0.0626608207821846], [-0.032841503620147705], [0.03555485978722572], [-0.050266508013010025], [0.003550914814695716], [0.06862590461969376], [-0.021962322294712067], [-0.4483237564563751], [0.37110400199890137], [0.04264211654663086], [-1.3024203777313232], [0.2288941740989685], [0.06723953038454056], [-0.20298416912555695], [0.14966875314712524], [-0.13087087869644165], [-0.1824914515018463], [-0.22648251056671143], [0.0010099412174895406], [-0.4705987572669983], [-0.3091283440589905], [-1.299069881439209], [0.11856263875961304], [-0.0445265956223011], [-0.35077542066574097], [0.45806142687797546], [-0.01320467609912157], [0.08204503357410431], [-0.07577104866504669], [-0.0755111426115036], [0.13797754049301147], [-0.037561219185590744], [0.02384825609624386], [0.23400484025478363], [0.06352288275957108], [-0.0009720490197651088], [-0.046543657779693604], [-0.23423974215984344], [-0.004127758555114269], [0.5464709997177124], [0.09607653319835663], [4.952568531036377], [-0.15083053708076477], [-0.128177210688591], [-0.18795494735240936], [0.27746447920799255], [0.21801143884658813], [-0.05812738090753555], [0.0198034830391407], [-0.107839435338974], [0.028490761294960976], [0.013607865199446678], [-0.002086989814415574], [0.29594191908836365], [-0.09128984063863754], [-0.024966418743133545], [-0.00999489612877369], [-0.005377110559493303], [-0.031614791601896286], [-0.09995047003030777], [-0.03329014778137207], [-0.0875239372253418], [0.08730718493461609], [-0.01136829238384962], [-0.01603919267654419], [0.015165608376264572], [-0.0029273054096847773], [-0.07348333299160004], [-0.03488658741116524], [-0.00957050547003746], [-0.10049864649772644], [-0.012849615886807442], [-0.027900224551558495], [-0.05003546178340912], [-0.013576292432844639], [-0.09437698870897293], [-0.002700258046388626], [0.014484445564448833], [0.07505328953266144], [0.03537822887301445], [0.023501629009842873], [-0.007653967943042517], [-0.06949279457330704], [-0.06720408797264099], [-0.010089978575706482], [0.46835392713546753]], "rec.weight_hh_l0": [[-0.10302340239286423, 0.12186818569898605, 0.01574024371802807, 0.0002711299457587302, 0.09456115961074829, 0.08704803138971329, 0.0593964122235775, 0.16433143615722656, -0.09332457184791565, -0.0005306577659212053, -0.07652333378791809, -0.06396882981061935, -0.02451261878013611, -0.04105023294687271, 0.24214699864387512, 0.1129051074385643, -1.3947746753692627, 0.02758578397333622, 0.06410323828458786, 0.021650437265634537, 0.013696247711777687, 0.20251652598381042, -0.0007501643267460167, 0.025437233969569206, -0.03927365317940712, 0.024822328239679337, -0.04787689447402954, 0.033798277378082275, 0.00234927493147552, -0.033322058618068695, 0.09138858318328857, 0.04127053916454315, -0.17881913483142853, -0.12350571900606155, 0.12021718174219131, -0.033437103033065796, -0.00405537337064743, -0.5587752461433411, -0.1669396013021469, -0.03062470071017742], [-0.016804266721010208, -0.04470818117260933, 0.004058958496898413, -0.03110678866505623, -0.026728451251983643, -0.025222130119800568, -0.1616465300321579, 0.09775810688734055, 0.02490662783384323, 0.02842061221599579, 0.04379811882972717, 0.12174768000841141, -0.10463578999042511, -0.2024923712015152, 0.0812501385807991, 0.025994908064603806, 0.13353987038135529, -0.0035293155815452337, -0.15973694622516632, -0.005077841226011515, 0.05622182413935661, 0.021106382831931114, 0.04965246096253395, -0.0803055539727211, -0.05824309214949608, -0.17186889052391052, -0.02338613197207451, 0.016909286379814148, 0.07745282351970673, -0.011539364233613014, -0.03447640314698219, -0.0699990838766098, 0.056660428643226624, 0.0005082566640339792, -0.10825388133525848, 0.03232250362634659, 0.034030746668577194, 0.12582926452159882, 0.05747725069522858, 0.13542868196964264], [-0.1351904720067978, 0.05647178739309311, 0.033854156732559204, -0.0079179173335433, 0.1328621208667755, 0.036091964691877365, -0.051248759031295776, -0.0975288599729538, 0.005059808026999235, 0.003718729829415679, -0.019915305078029633, -0.003077326575294137, -0.006039149593561888, 0.041740573942661285, -0.09839873015880585, 0.07023216038942337, 0.08663371205329895, 0.011706885881721973, 0.0045764553360641, 0.006770242005586624, -0.019520228728652, -0.05579651519656181, 0.005300348158925772, 0.026235762983560562, -0.007363924290984869, -0.006567111238837242, 0.0019342390587553382, -0.08684419095516205, 0.0037103614304214716, 0.033516086637973785, 0.016261551529169083, -0.02798333391547203, -0.07843997329473495, 0.21783997118473053, -0.021042155101895332, -0.09603946655988693, -0.0005350333522073925, 0.03940518572926521, 0.06819126754999161, -0.052552931010723114], [-0.19481387734413147, 0.03866860643029213, 0.0541718564927578, 0.018874846398830414, -0.025386884808540344, -0.04256930202245712, 0.020974894985556602, -0.06893021613359451, 0.16809570789337158, -0.02715705707669258, -0.022240785881876945, -0.028137855231761932, -0.015895901247859, 0.06421095132827759, -0.42942965030670166, 0.0050696153193712234, 0.565757691860199, 0.02332961931824684, 0.0038051072042435408, 0.04395198076963425, -0.05383093282580376, -0.29017651081085205, -0.05787237361073494, 0.0470125637948513, -0.27096986770629883, 0.13931824266910553, -0.03999441862106323, -0.16998344659805298, 0.008963861502707005, 0.04042262211441994, -0.036635637283325195, -0.006266897544264793, 0.022472810000181198, 0.15602613985538483, -0.013872942887246609, -0.010266858153045177, -0.02171669341623783, 0.11079788953065872, -0.028900615870952606, 0.09417762607336044], [-0.16041839122772217, 0.042157430201768875, 0.10857202112674713, -0.13109435141086578, -0.04127930477261543, -0.02962338551878929, 0.0441606268286705, -0.07594628632068634, 0.18596898019313812, -0.06421179324388504, -0.05957488343119621, -0.02574908919632435, -0.062190186232328415, 0.024812836199998856, -0.321932315826416, -0.0787849947810173, 0.605422854423523, -0.016566919162869453, -0.023242594674229622, 0.04202742129564285, -0.0862705409526825, -0.4297550618648529, -0.014993869699537754, 0.06654950976371765, -0.2659436762332916, 0.06813310831785202, -0.07769296318292618, -0.21486613154411316, -0.0024553288239985704, 0.05245012044906616, -0.03664039820432663, -0.030462289229035378, 0.03503550589084625, 0.15275061130523682, -0.04757950082421303, -0.17847447097301483, 0.003785555250942707, 0.18651904165744781, -0.022912142798304558, 0.07983830571174622], [-0.06182875111699104, 0.002380835823714733, 0.04082459211349487, -0.01328663807362318, 0.05062117800116539, -0.06881754845380783, -0.030336031690239906, 0.06772096455097198, 0.0757737010717392, -0.027040038257837296, 0.07344983518123627, -0.009513628669083118, 0.03908463194966316, -0.01959185115993023, 0.11516878753900528, -0.03601500019431114, -1.1141376495361328, 0.03554786369204521, -0.0006707733846269548, 0.013880082406103611, 0.006076119840145111, 0.1387382447719574, -0.06213217228651047, 0.007434783969074488, 0.010147323831915855, -0.031538430601358414, -0.01937493123114109, 0.023193111643195152, -0.024482160806655884, -0.019882965832948685, 0.04134383797645569, -0.01729119010269642, -0.10983778536319733, -0.17019207775592804, 0.043594732880592346, 0.03429218381643295, -0.020374218001961708, -0.26572439074516296, -0.05167792737483978, -0.0495167151093483], [-0.009931988082826138, -0.2662844657897949, 0.013293026946485043, 0.07084723562002182, -0.047244880348443985, -0.030843468382954597, -0.05456698313355446, -0.3074837028980255, 0.021959587931632996, 0.07146686315536499, 0.1112372875213623, 0.23015332221984863, -0.11427740007638931, 0.04473252221941948, -0.05299787595868111, 0.04529786854982376, 0.2114080786705017, 0.08799299597740173, 0.02777782641351223, 0.054400134831666946, -0.028582721948623657, -0.02005406655371189, -0.11248151957988739, -0.012468370608985424, -0.0595380961894989, 0.20742161571979523, 0.046901483088731766, 0.010656154714524746, 0.05145452544093132, 0.0187568049877882, -0.11240924894809723, 0.06282022595405579, -0.03933962807059288, 0.09475994110107422, -0.07450086623430252, -0.014477770775556564, 0.014811897650361061, 0.057732176035642624, 0.047801580280065536, 0.08148183673620224], [0.017366040498018265, -0.24967753887176514, 0.08021818846464157, -0.02102113887667656, 0.0779569074511528, -0.00976369809359312, 0.09055124968290329, 0.012230105698108673, 0.06940492242574692, 0.04505641385912895, 0.09178878366947174, -0.014034230262041092, 0.17756105959415436, 0.0918290987610817, 0.22451159358024597, -0.05167383328080177, 0.3420993983745575, 0.009719585999846458, -0.03665105998516083, -0.036881979554891586, -0.013809182681143284, 0.04770781472325325, -0.06014236435294151, 0.08186569809913635, -0.023355411365628242, 0.370216429233551, -0.05476318299770355, 0.01780693233013153, -0.01347240898758173, 0.015691911801695824, 0.05491263419389725, 0.019802751019597054, 0.009907837957143784, 0.15072302520275116, 0.1306009292602539, -0.11104462295770645, -0.021298326551914215, 0.2173098623752594, 0.11037569493055344, 0.029924990609288216], [0.05083851143717766, -0.013364439830183983, 0.02304900623857975, -0.4522525668144226, -0.009113555774092674, -0.04228818416595459, -0.0035512957256287336, -0.10309711843729019, -0.1782691776752472, -0.014961834996938705, -0.016821743920445442, 0.029448509216308594, -0.05135626345872879, 0.12856683135032654, 0.1554470956325531, 0.9400420784950256, -0.10059517621994019, -0.058962512761354446, -0.0067018670961260796, 0.08146709948778152, 0.19297818839550018, 0.037481918931007385, -0.05453106760978699, 0.16882750391960144, 0.0830724909901619, 0.03723054751753807, -0.021378014236688614, 0.023898540064692497, 0.11791515350341797, -0.03185153007507324, -0.007309866603463888, -0.007963304407894611, 0.008850734680891037, 0.14657866954803467, 0.04300932586193085, 0.03321738913655281, 0.016672274097800255, -0.0016921599162742496, 0.014276164583861828, -0.013176444917917252], [-0.06894339621067047, 0.09752385318279266, -0.05679246783256531, 0.044401299208402634, -0.060549695044755936, 0.042765989899635315, -0.03324514999985695, -0.021353891119360924, 0.018448950722813606, 0.015985721722245216, -0.006381720304489136, 0.057895176112651825, -0.0047767371870577335, 0.08939874917268753, -0.05007420852780342, 0.01567973755300045, 0.016606008633971214, 0.029113339260220528, -0.024158187210559845, 0.033885132521390915, 0.10498345643281937, -0.03151741996407509, -0.10464897006750107, -0.11497928947210312, -0.03017227165400982, -0.061552535742521286, 0.011014589108526707, 0.03721009939908981, -0.05905500799417496, 0.07471900433301926, -0.07126520574092865, 0.025047946721315384, -0.05175985395908356, -0.13810394704341888, 0.12762801349163055, 0.02921932563185692, 0.049428943544626236, -0.07532655447721481, -0.0459984689950943, -0.04720349982380867], [0.061227742582559586, -0.0836700052022934, 0.03863174840807915, -0.06605718284845352, 0.06619048863649368, -0.03912816569209099, -0.007406882010400295, 0.011851504445075989, -0.05243261530995369, 0.07761625200510025, -0.05407598614692688, 0.09277547895908356, -0.10394158959388733, -0.024818552657961845, 0.21459227800369263, 0.0009480461594648659, -0.35126516222953796, -0.015747051686048508, -0.012036644853651524, 0.06980428099632263, -0.024334952235221863, -0.0071412366814911366, 0.006845600437372923, -0.011079362593591213, -0.024062473326921463, 0.036064375191926956, -0.012228522449731827, 0.05287790670990944, -0.004347676876932383, -0.09266066551208496, -0.027747705578804016, 0.010344743728637695, 0.00363079272210598, -0.1261613965034485, 0.047741930931806564, 0.0362718440592289, 0.02616373635828495, 0.010073767974972725, 0.052462026476860046, -0.09550422430038452], [-0.08335335552692413, 0.016841311007738113, 0.04784894362092018, 0.005471603479236364, -0.09481486678123474, -0.06816954910755157, 0.07364606112241745, -0.2634197771549225, -0.04935332015156746, 0.02083495818078518, 0.04229248687624931, -0.19512827694416046, 0.09106917679309845, 0.061171989887952805, 0.05182228237390518, 0.0738435611128807, 0.4400273859500885, 0.06608638167381287, 0.06413297355175018, -0.10438065975904465, 0.058486953377723694, 0.009299909695982933, 0.007028130814433098, 0.03875268995761871, -0.08705679327249527, 0.32683712244033813, -0.006213726010173559, -0.06626211106777191, -0.0317210778594017, -0.032106488943099976, 0.06350058317184448, -0.016475515440106392, -0.016205163672566414, 0.13022106885910034, 0.05874524638056755, 0.014006786979734898, -0.017870431765913963, 0.19722026586532593, 0.024286607280373573, -0.05278465151786804], [-0.031447507441043854, -0.052886076271533966, 0.017329007387161255, 0.06269033998250961, -0.023972954601049423, -0.03531170263886452, -0.23809756338596344, -0.09521539509296417, -0.003939919639378786, 0.0007316869450733066, 0.10278896987438202, 0.05239786207675934, -0.10386920720338821, 0.026685774326324463, -0.09801942110061646, 0.02692161500453949, 0.30222731828689575, 0.11095185577869415, 0.025805030018091202, -0.01609913446009159, 0.0664815679192543, -0.0997440293431282, -0.08059514313936234, -0.04380950704216957, -0.029053499922156334, 0.08553046733140945, -0.03415359929203987, -0.00718048308044672, -0.08233167976140976, -0.007197597064077854, 0.03565776348114014, 0.004993389826267958, -0.11496909707784653, -0.03176749497652054, 0.025485869497060776, 0.00523378187790513, -0.045720480382442474, 0.11019179224967957, 0.013051329180598259, -0.026892801746726036], [-0.04655729979276657, -0.15613716840744019, -0.006948875728994608, -0.06390534341335297, -0.04966764897108078, -0.062031831592321396, 0.2048373818397522, -0.14723250269889832, -0.022405298426747322, -0.03790973871946335, 0.06703800708055496, 0.37369993329048157, 0.019550275057554245, 0.14989973604679108, -0.13860668241977692, -0.05293576791882515, 0.41699960827827454, 0.08949436992406845, -0.020062051713466644, 0.038618654012680054, -0.0002167341735912487, -0.12310230731964111, -0.018360024318099022, 0.006719413213431835, 0.00835284125059843, -0.2669315040111542, 0.0903206542134285, -0.1484806090593338, 0.021187646314501762, 0.07759153842926025, 0.0003898745635524392, 0.010790313594043255, -0.007605487946420908, 0.09495457261800766, 0.005613558925688267, -0.00728375930339098, 0.03512829914689064, 0.14633502066135406, 0.020063897594809532, -0.15999892354011536], [0.0013619203818961978, 0.04579520225524902, 0.06665720045566559, -0.02859613485634327, 0.21492882072925568, 0.0734490156173706, 0.12030671536922455, -0.032918643206357956, -0.015415703877806664, -0.11431398242712021, 0.03653474897146225, -0.18438765406608582, -0.020208436995744705, 0.08243077248334885, -0.03253442049026489, -0.5142185688018799, -0.9906386733055115, 0.17487812042236328, 0.0073122745379805565, 0.02276342734694481, 0.1956316977739334, -0.06800147891044617, -0.02178923413157463, 0.16146081686019897, -0.09768697619438171, -0.01350193191319704, -0.25812748074531555, 0.045494195073843, -0.06995376199483871, 0.05325466766953468, -0.14483742415905, -0.026468820869922638, -0.09495264291763306, -0.5859577059745789, -0.1717246174812317, 0.08183006197214127, -0.2308041900396347, -0.3394790291786194, 0.03927283361554146, 0.0019342487212270498], [-0.16838675737380981, 0.02630625292658806, -0.013706951402127743, -0.017708199098706245, 0.13375148177146912, -0.05941437929868698, 0.04286066070199013, -0.14249259233474731, 0.1695442944765091, -0.06578323990106583, 0.014480405487120152, -0.0791822075843811, -0.04718314856290817, 0.047761742025613785, -0.43268486857414246, -0.11865020543336868, 0.702201783657074, 0.035401783883571625, -0.026642685756087303, -0.024323081597685814, -0.04331906884908676, -0.31080034375190735, -0.0974191427230835, 0.03056098148226738, -0.08092295378446579, 0.03615119680762291, 0.022148704156279564, -0.20523777604103088, 0.029865391552448273, 0.08392545580863953, -0.007033313624560833, -0.019158726558089256, 0.030526990070939064, 0.04521912708878517, -0.01493944600224495, -0.023979714140295982, 0.027431325986981392, 0.15359178185462952, 0.009662328287959099, 0.1442628651857376], [0.003248253371566534, 0.020025912672281265, 0.014037367887794971, -0.029192382469773293, -0.010081012733280659, -0.04620175436139107, -0.015199367888271809, -0.026592504233121872, -0.07486757636070251, -0.026868658140301704, 0.04454682022333145, -0.02691078931093216, -0.023764552548527718, 0.010223079472780228, -0.027132423594594002, 0.014026225544512272, 0.2510329484939575, 0.04829544574022293, 0.009343823418021202, -0.03158460929989815, 0.03258180245757103, -0.06688270717859268, -0.029533736407756805, -0.0004204068682156503, -0.05161263048648834, 0.043318893760442734, -0.02181205339729786, 0.002562018111348152, -0.02559971809387207, 0.07906137406826019, -0.008242328651249409, 0.005819124635308981, 0.026750436052680016, 0.06559333205223083, -0.014127288945019245, -0.03105475753545761, 0.0008076742524281144, 0.08845608681440353, -0.0034444385673850775, 0.05023447051644325], [-0.020169127732515335, -0.010888636112213135, -0.014561685733497143, -0.038877200335264206, -0.0012378492392599583, -0.0148201584815979, 0.01937231235206127, -0.10641349852085114, -0.0737864077091217, -0.01634409837424755, 0.05942165479063988, 0.04796449467539787, -0.06837098300457001, 0.033600710332393646, -0.01870066300034523, -0.016393451020121574, 0.21043390035629272, 0.09839221835136414, -0.019757652655243874, -0.025175493210554123, 0.020001627504825592, -0.02280578203499317, -0.031877558678388596, -0.06370730698108673, -0.016480781137943268, -0.004379036370664835, 0.01590651087462902, -0.014180648140609264, -0.0244594793766737, 0.05484730005264282, -0.013624959625303745, 0.017214568331837654, -0.04388526454567909, 0.026579413563013077, 0.03383910655975342, 0.018678834661841393, -0.05460077151656151, 0.09021798521280289, -0.060319624841213226, 0.014380666427314281], [0.00311750709079206, -0.2076420933008194, -0.007720973342657089, 0.022321783006191254, -0.014301245100796223, 0.0035389235708862543, -0.02881624363362789, 0.0062850359827280045, 0.034514110535383224, 0.0007401543552987278, 0.09243708848953247, -0.06582807004451752, 0.004725013859570026, 0.02486051246523857, -0.07291395217180252, 0.010266018100082874, 0.039204418659210205, 0.0061125000938773155, 0.06760628521442413, -0.03664223104715347, 0.018212882801890373, 0.031900204718112946, -0.0032986635342240334, 0.04620138555765152, -0.020211225375533104, -0.02445431612432003, 0.027666429057717323, -0.04453054070472717, -0.06102580577135086, 0.015444581396877766, 0.0391237735748291, 0.038571011275053024, -0.01332773081958294, 0.006226332392543554, 0.03993458300828934, 0.04267885535955429, -0.044323284178972244, 0.13313870131969452, 0.03638157621026039, -0.027591386809945107], [-0.08140521496534348, 0.055938590317964554, -0.06485689431428909, -0.02012743055820465, 0.11842162162065506, -0.033919576555490494, 0.062156639993190765, -0.07094863802194595, -0.1343430131673813, -0.033654484897851944, -0.02417239174246788, 0.020458808168768883, -0.017819810658693314, 0.00964209996163845, -0.1641543209552765, 0.1659090369939804, 0.30877742171287537, 0.01036564540117979, 0.013652931898832321, 0.032671939581632614, -0.015061899088323116, -0.121687151491642, 0.0049223946407437325, -0.020881809294223785, 0.23546680808067322, 0.04795537889003754, -0.05330815538764, -0.06555791944265366, -0.15225206315517426, 0.08363508433103561, 0.012845857068896294, -0.0265936478972435, -0.04376378282904625, 0.033956412225961685, 0.03347831591963768, 0.05402953550219536, -0.13497579097747803, 0.12469988316297531, 0.023302895948290825, 0.09385792911052704], [-0.05364709347486496, 0.005282527767121792, -0.004187951795756817, -0.17116527259349823, -0.025351399555802345, -0.03037111461162567, -0.031305525451898575, 0.026654576882719994, 0.22446198761463165, 0.014849896542727947, 0.021558549255132675, 0.012433023191988468, -0.03992367908358574, 0.022517427802085876, -0.08592147380113602, 0.16397732496261597, -0.299253910779953, -0.09133254736661911, 0.003629865823313594, 0.007675284054130316, -0.09256815910339355, -0.04586973786354065, -0.017583712935447693, -0.08361922949552536, -0.06657370179891586, -0.044562336057424545, 0.0662071704864502, -0.04591773822903633, 0.0772075355052948, 0.012338811531662941, -0.03391857445240021, -0.05203703045845032, 0.0216691754758358, 0.02990316040813923, 0.002053868491202593, -0.1059008538722992, 0.15818257629871368, -0.004280888009816408, 0.039215050637722015, -0.013016361743211746], [-0.053256239742040634, -0.11077077686786652, 0.0414867028594017, 0.039796002209186554, 0.007744612172245979, 0.03240353986620903, 0.011407425627112389, -0.07440993189811707, 0.1075124740600586, -0.081088587641716, -0.03272756561636925, 0.015123780816793442, -0.043623123317956924, -0.0154131343588233, 0.05610937997698784, 0.05486159026622772, 0.033151958137750626, 0.0059751286171376705, -0.05285245180130005, -0.02880263142287731, 0.01666211523115635, -0.0050169420428574085, -0.03341019153594971, 0.00477425055578351, -0.03726750984787941, 0.014169489964842796, -0.059697140008211136, -0.011550350114703178, 0.027903759852051735, -0.008663373999297619, 0.014713305048644543, -0.15567009150981903, -0.14140380918979645, -0.022388316690921783, 0.027945775538682938, -0.019687656313180923, 0.029246794059872627, -0.03293321281671524, 0.0635543167591095, 0.005648490507155657], [-0.043027881532907486, 0.03880978003144264, -0.07687131315469742, 0.03597193583846092, 0.03955041989684105, 0.0615716390311718, 0.0776459276676178, -0.054246965795755386, -0.0942268967628479, -0.1256105601787567, 0.15889501571655273, 0.04263670742511749, -0.03568807989358902, 0.02106119878590107, -0.160584956407547, -0.0004101934318896383, -0.23770976066589355, 0.11355524510145187, 0.049969255924224854, 0.0028464850038290024, -0.0844302773475647, -0.02484629675745964, -0.18306989967823029, 0.07481417059898376, 0.010466661304235458, -0.03421112895011902, -0.038644999265670776, -0.05662465840578079, 0.014249896630644798, -0.004682483151555061, 0.010404950007796288, -0.02498007006943226, -0.03944505378603935, -0.022132745012640953, -0.010654761455953121, -0.010713035240769386, 0.1075257733464241, -0.061278603971004486, -0.0510450042784214, -0.03263314068317413], [-0.018151631578803062, -0.01512073539197445, -0.012146101333200932, 0.04826715588569641, -0.09515885263681412, -0.0005293725407682359, 0.09020775556564331, -0.08907342702150345, -0.09239818155765533, -0.002318545011803508, 0.050374388694763184, 0.033831141889095306, 0.01079774834215641, 0.11487706750631332, -0.18168647587299347, 0.03196556493639946, 0.24793504178524017, 0.08648374676704407, -0.03750108927488327, -0.07006782293319702, 0.0316941998898983, -0.05873079597949982, -0.06503899395465851, 0.009500068612396717, -0.03233037516474724, 0.12499260902404785, 0.08456861227750778, -0.007454819977283478, -0.07655321061611176, 0.06445886939764023, -0.02591039054095745, 0.016740359365940094, 0.035611022263765335, 0.01771833747625351, -0.06853435188531876, -0.008954218588769436, -0.049989547580480576, 0.07335072010755539, -0.06941971927881241, 0.012056633830070496], [-0.08557193726301193, 0.033073581755161285, -0.04964755102992058, 0.6004900336265564, -0.44736388325691223, -0.03044642135500908, 0.11289077997207642, 0.029436741024255753, 0.07087569683790207, -0.05513976141810417, 0.021733541041612625, 0.024614468216896057, 0.0049691833555698395, 0.01898808591067791, 0.05644753947854042, -0.5974536538124084, -0.0749536007642746, 0.19653558731079102, 0.039255429059267044, 0.042329996824264526, -0.02496214210987091, -0.0071870433166623116, -0.053235530853271484, -0.07000421732664108, 0.22536759078502655, 0.0870995819568634, -0.055196613073349, -0.01836295984685421, -0.05428804084658623, 0.10307685285806656, -0.03060373105108738, -0.04861297830939293, 0.011941113509237766, -0.05755402520298958, 0.013143687509000301, 0.030530784279108047, -0.21535922586917877, 0.12982498109340668, -0.07128769159317017, 0.032453492283821106], [0.00968089234083891, -0.353633850812912, -0.007031193934381008, -0.07610819488763809, 0.003208060981705785, -0.060794949531555176, 0.4300898611545563, -0.046865250915288925, -0.02913433499634266, 0.004125135950744152, 0.15077601373195648, 0.4169330894947052, 0.12925201654434204, 0.11101902276277542, 0.1674279272556305, -0.0600375160574913, 0.379383385181427, -0.029255392029881477, 0.0930178165435791, -0.2116914689540863, 0.05064237117767334, 0.12254153192043304, 0.03998827561736107, -0.21678538620471954, 0.014181125909090042, -0.05396631360054016, 0.045524951070547104, 0.12479439377784729, 0.06447310745716095, 0.0007159352535381913, 0.003388063982129097, 0.020253928378224373, 0.07201697677373886, 0.04272591322660446, 0.04227598384022713, -0.07283496111631393, 0.088920958340168, 0.22258083522319794, 0.08779562264680862, 0.1296086460351944], [0.023177215829491615, 0.03975243866443634, 0.035894040018320084, -0.028675060719251633, -0.034649208188056946, -0.05161147192120552, 0.05662361904978752, -0.11864184588193893, 0.0019448488019406796, 0.03846932202577591, 0.05472436919808388, 0.15061303973197937, 0.012842424213886261, 0.11456327885389328, 0.043296169489622116, 0.02365460805594921, 0.38988226652145386, 0.056455135345458984, 0.013283120468258858, -0.0024956625420600176, -0.005252399481832981, -0.052267540246248245, -0.02779219299554825, -0.00231547630392015, -0.09052178263664246, 0.21398717164993286, -0.012683238834142685, -0.00982853677123785, 0.029967881739139557, 0.062282051891088486, -0.021682657301425934, 0.008138027973473072, 0.05539918318390846, 0.10080202668905258, -0.04372420907020569, 0.04585806280374527, -0.03304466977715492, 0.1952470988035202, 0.03364899381995201, 0.0025611717719584703], [-0.03899344801902771, -0.0072135720402002335, 0.019992049783468246, 0.1282634735107422, -0.0175123643130064, -0.026262538507580757, 0.016585754230618477, -0.2096681445837021, 0.0810881108045578, 0.0517117939889431, 0.00047771315439604223, 0.08096811920404434, 0.012190221808850765, 0.0825054794549942, 0.09032346308231354, 0.019679857417941093, 0.1034352108836174, 0.030808372423052788, 0.02846224419772625, -0.12316911667585373, -0.01447154488414526, -0.009938626550137997, 0.02960178442299366, -0.09025537967681885, -0.1029837355017662, 0.09552102535963058, 0.04841170459985733, -0.005292011424899101, 0.026690496131777763, 0.02457893081009388, -0.017309926450252533, 0.009014610201120377, -0.03313080593943596, 0.0011700954055413604, -0.012237492017447948, -0.060061078518629074, -0.03622318431735039, 0.04187002778053284, 0.0465388223528862, 0.10049367696046829], [-0.03871955722570419, 0.01401751022785902, -0.15974782407283783, 0.046051010489463806, -0.022508056834340096, -0.026400581002235413, -0.07874569296836853, -0.02335824817419052, -0.07919993251562119, -0.028837809339165688, 0.029923295602202415, 0.035417988896369934, -0.006398317404091358, 0.08418036252260208, -0.09177563339471817, -0.005867276806384325, 0.2623024582862854, 0.13849584758281708, 0.012098382227122784, 0.07102645933628082, 0.12324699759483337, 0.03910164535045624, -0.0020299407187849283, -0.07147543132305145, -0.021942954510450363, -0.031458981335163116, 0.09314417093992233, -0.0459478422999382, -0.05887233465909958, 0.10514787584543228, 0.08277925103902817, 0.011940525844693184, -0.04439672455191612, 0.03537832573056221, 0.07254436612129211, -0.06161165609955788, -0.07526371628046036, 0.04066573455929756, -0.07976508885622025, -0.026485688984394073], [0.07033282518386841, 0.07053567469120026, 0.004752396605908871, -0.004220812581479549, 0.14998120069503784, 0.015492359176278114, -0.05202813446521759, -0.028725886717438698, -0.06042060628533363, 0.08978047221899033, -0.03792170435190201, 0.012475800700485706, 0.06602256000041962, 0.10441985726356506, 0.16867192089557648, -0.1559182107448578, -0.12304355949163437, -0.005897532682865858, 0.09838033467531204, -0.01568199135363102, -0.03174199163913727, 0.029178008437156677, 0.08538239449262619, 0.010673930868506432, 0.06264027953147888, 0.04517878592014313, 0.0324675589799881, -0.011343712918460369, -0.03160713240504265, 0.029536206275224686, -0.00596364913508296, -0.0047309743240475655, 0.024197492748498917, -0.04306403920054436, 0.04557521268725395, 0.008625665679574013, 0.055235605686903, 0.05886257812380791, 0.032330069690942764, -0.06606734544038773], [-0.03275689855217934, 0.016016170382499695, -0.12193918973207474, 0.05594063550233841, -0.08587723970413208, -0.000512157566845417, -0.006226030178368092, -0.011954431422054768, 0.08563461899757385, 0.06599907577037811, 0.061695002019405365, 0.0199594609439373, -0.008249655365943909, 0.048290882259607315, -0.09198352694511414, 0.017261067405343056, 0.14523977041244507, 0.01167057454586029, 0.008449067361652851, -0.0003296416543889791, 0.05723678320646286, -0.025394529104232788, -0.021639563143253326, -0.13186313211917877, -0.05828193947672844, 0.01720288209617138, 0.0924466997385025, -0.0036150410305708647, -0.0232585147023201, 0.03220519423484802, 0.035559702664613724, -0.011283010244369507, -0.004992600996047258, -0.05125739052891731, 0.06398223340511322, 0.020974958315491676, 0.07040591537952423, 0.04844750091433525, -0.0630113035440445, 0.0022873792331665754], [0.041403092443943024, -0.17843180894851685, -0.05934210121631622, -0.03264915943145752, 0.005231881979852915, -0.04416876658797264, 0.017021480947732925, 0.1941114217042923, 0.04313614219427109, 0.02829442359507084, -0.12500151991844177, 0.009513981640338898, 0.03418777510523796, -0.10418598353862762, 0.12681475281715393, -0.006964629981666803, -0.7837836742401123, -0.0051643927581608295, -0.004642351530492306, -0.018822098150849342, 0.03864236921072006, 0.16030588746070862, -0.01418998558074236, -0.011877408251166344, 0.010472406633198261, -0.10652727633714676, -0.019276496022939682, 0.040340449661016464, 0.0009164685616269708, -0.09946808964014053, 0.016440659761428833, -0.056387849152088165, -0.0316292978823185, -0.1859080195426941, -0.003507832530885935, 0.03570287674665451, 0.019281012937426567, -0.12465839833021164, -0.017015404999256134, -0.11613299697637558], [-0.2221047729253769, -0.0003024475881829858, 0.054198186844587326, 0.012127905152738094, -0.0030064955353736877, 0.009050433523952961, 0.011536593548953533, 0.06315026432275772, -0.01947905123233795, 0.07329300045967102, 0.06851740181446075, -0.02943228930234909, 0.02062426134943962, 0.014995821751654148, 0.0433175265789032, -0.0634029433131218, -0.1285150647163391, -0.01633584313094616, 0.03482913225889206, -0.04408292472362518, 0.03898495435714722, 0.1669415831565857, -0.09837448596954346, 0.03858979418873787, 0.05046361684799194, -0.055590301752090454, -0.06750061362981796, 0.05021511763334274, -0.0033528751228004694, -0.002479246584698558, -0.02168290875852108, 0.013262294232845306, -0.19902564585208893, 0.24455809593200684, -0.0036542117595672607, -0.10087355971336365, -0.015038424171507359, -0.035204194486141205, 0.13658984005451202, 0.0055544679053127766], [-0.22274120151996613, -0.06585116684436798, -0.10277823358774185, -0.057305507361888885, -0.07277297973632812, 0.06612708419561386, -0.13607418537139893, 0.011628778651356697, 0.09793408215045929, -0.004530889913439751, 0.010350755415856838, 0.16235169768333435, -0.03141174837946892, 0.17283400893211365, 0.14001202583312988, 0.39708858728408813, -1.31525719165802, 0.021401137113571167, 0.09695564210414886, 0.08063186705112457, -0.1375167965888977, 0.419756144285202, -0.06951263546943665, -0.011529115028679371, 0.4715030789375305, -0.04362193122506142, 0.17244179546833038, 0.2365960031747818, -0.06271493434906006, 0.11933533847332001, -0.009694665670394897, -0.05954037234187126, -0.41028010845184326, -0.04259263724088669, 0.055180151015520096, 0.04057587683200836, 0.07189293205738068, -0.3876170516014099, 0.0668763592839241, 0.029215147718787193], [-0.033404745161533356, -0.015533535741269588, 0.0014849702129140496, -0.05273062735795975, 0.006703904829919338, 0.0200950987637043, 0.011167947202920914, -0.05343320220708847, 0.09794379770755768, 0.03994186222553253, 0.11126650124788284, -0.002799460431560874, -0.009244868531823158, 0.05325811356306076, 0.01036433968693018, -0.01062545645982027, 0.2947198152542114, 0.06094461306929588, 0.10285412520170212, -0.014132589101791382, -0.0021893763914704323, -0.043840594589710236, -0.03528214991092682, -0.0213636364787817, -0.1064276173710823, -0.07712098956108093, -0.029654938727617264, -0.040819648653268814, -0.06934072077274323, 0.01196217443794012, 0.08942899852991104, 0.03778654336929321, 0.025961879640817642, 0.05621064081788063, -0.046569667756557465, -0.034356389194726944, 0.06359997391700745, 0.16552403569221497, 0.012957961298525333, -0.019424809142947197], [-0.1760527342557907, 0.06524600833654404, -0.03566639870405197, 0.05013228952884674, 0.07775508612394333, -0.08995255082845688, 0.06414613127708435, -0.044797737151384354, 0.04479667544364929, -0.06730488687753677, -0.03504765406250954, -0.018489966168999672, -0.03501954674720764, 0.07640377432107925, -0.6456694006919861, 0.030034620314836502, 0.710408627986908, 0.06961548328399658, -0.008345700800418854, 0.019812751561403275, -0.13835981488227844, -0.4400739371776581, -0.0972963348031044, 0.01977095566689968, -0.09722127765417099, 0.09793712198734283, -0.007752409670501947, -0.2448752075433731, -0.03469104692339897, 0.1009693443775177, -0.04340970516204834, 0.00818389281630516, 0.06227591633796692, 0.02442776970565319, -0.00756762083619833, -0.10587432980537415, -0.08686667680740356, 0.2024221122264862, -0.01185335498303175, 0.08914682269096375], [-0.09363333135843277, 0.05070870742201805, 0.014218525029718876, 0.13431517779827118, 0.08067047595977783, -0.02563294768333435, 0.05998652055859566, 0.0356830470263958, 0.09673554450273514, -0.017746547237038612, -0.01619870588183403, 0.024922026321291924, -0.015481601469218731, -0.03126804903149605, -0.3275323510169983, 0.018450872972607613, 0.28594791889190674, 0.0611112155020237, -0.00900926161557436, -0.08889573812484741, -0.010157965123653412, -0.21259506046772003, -0.06694231927394867, 0.014255216345191002, -0.1860189139842987, 0.04627026617527008, -0.06462778151035309, -0.12281060218811035, -0.07647593319416046, 0.0119963763281703, -0.007699106819927692, 0.010678738355636597, 0.027517173439264297, -0.0038998122327029705, -0.04852189123630524, -0.054065294563770294, 0.04481706768274307, 0.013141760602593422, -0.08538790792226791, 0.061113473027944565], [-0.02451343648135662, 0.07335039228200912, 0.039754901081323624, -0.187345489859581, -0.06954004615545273, 0.02747376076877117, 0.023392481729388237, 0.011120273731648922, 0.0720510333776474, -0.006479746662080288, 0.002889898605644703, 0.1101103127002716, 0.006605737376958132, -0.06719663739204407, 0.020733702927827835, -0.019404882565140724, -0.04861999675631523, 0.02410563826560974, 0.10944874584674835, 0.01785084791481495, 0.03713886812329292, -0.0753464475274086, -0.041952043771743774, 0.024580903351306915, 0.014897378161549568, -0.19240398705005646, -0.09859414398670197, -0.0021846068557351828, 0.027647579088807106, 0.04946419596672058, -0.019014233723282814, -0.02003099024295807, 0.03784051164984703, -0.035417065024375916, -0.033215247094631195, -0.04119401425123215, -0.03703710809350014, 0.03598381206393242, 0.033442769199609756, 0.030904121696949005], [0.048543039709329605, 0.09943454712629318, -0.04780159518122673, 0.048572786152362823, -0.05820662900805473, -0.04690198972821236, -0.01575557328760624, -0.04933370277285576, -0.03447051718831062, 0.00199099606834352, 0.05355896055698395, -0.02158699743449688, 0.003938459325581789, 0.0731072798371315, 0.16898322105407715, -0.3651157319545746, 0.023370329290628433, 0.002343124011531472, -0.0546453520655632, -0.03066619113087654, -0.04924537613987923, 0.07850518077611923, 0.03179480507969856, -0.03317928686738014, 0.01538261491805315, 0.02433704026043415, 0.0723734050989151, 0.05128028616309166, -0.06072663143277168, 0.04634677991271019, 0.01293736882507801, 0.03956526517868042, 0.01789902336895466, 0.055124472826719284, 0.024345045909285545, 0.1230308786034584, -0.015833836048841476, 0.056991174817085266, -0.017786936834454536, -0.03505610674619675], [-0.024066807702183723, 0.014927736483514309, -0.05072369426488876, -0.035708848387002945, 0.003356578527018428, -0.08112213015556335, 0.017835354432463646, -0.24611712992191315, -0.00961579941213131, 0.05119914188981056, 0.13073021173477173, -0.02365429699420929, 0.020027147606015205, 0.088316909968853, 0.12765023112297058, -0.001516764983534813, 0.5180848836898804, 0.04670403525233269, 0.10718245059251785, 0.05407051742076874, 0.0020584380254149437, -0.037340905517339706, -0.06958989053964615, -0.008396284654736519, -0.043891917914152145, -0.05992097780108452, -0.05146829038858414, -0.004884582012891769, -0.007771782577037811, 0.031248027458786964, -0.05575651302933693, 0.02359817922115326, 0.012470817193388939, 0.16394540667533875, 0.07101882994174957, 0.001345098833553493, 0.03777196258306503, 0.23897795379161835, 0.055226363241672516, 0.09499990940093994], [-0.16037598252296448, 0.02198893576860428, 0.09436595439910889, -0.15788747370243073, -0.029467429965734482, 0.02363932691514492, 0.09854203462600708, -0.15423478186130524, -0.03845696896314621, -0.08597616851329803, -0.0018894128734245896, -0.13340631127357483, 0.004385566338896751, -0.054608386009931564, -0.1761116087436676, 0.10654701292514801, 1.3908965587615967, 0.16002388298511505, 0.10590772330760956, 0.10770812630653381, -0.009729301556944847, -0.05861833319067955, -0.14736928045749664, -0.027003679424524307, -0.2227689027786255, 0.08056365698575974, -0.13612546026706696, -0.10118594020605087, -0.12141475081443787, 0.1400068998336792, -0.08583923429250717, 0.09160856902599335, -0.33167916536331177, 0.047782428562641144, 0.10086148977279663, -0.03261669725179672, -0.0964292362332344, 0.30459386110305786, 0.07170800864696503, 0.19357433915138245], [0.01860428787767887, 0.15066182613372803, -0.04143156483769417, -0.019310643896460533, -0.007675125729292631, -0.013042950071394444, 0.029885979369282722, -0.04117365553975105, 0.006706856191158295, -0.019676052033901215, -0.014734629541635513, 0.17397084832191467, -0.04860660061240196, 0.034780289977788925, -0.13857689499855042, -0.03716138377785683, 0.29384753108024597, -0.006856295745819807, -0.012596521526575089, 0.014616956003010273, -0.017253924161195755, -0.08076033741235733, 0.025484738871455193, -0.06368642300367355, -0.01622222550213337, -0.05102301016449928, 0.01488040667027235, -0.08955301344394684, -0.010939333587884903, 0.07790536433458328, -0.014702948741614819, 0.012571469880640507, -0.004542558453977108, -0.012917428277432919, -0.03935399651527405, 0.05521012842655182, 0.020569253712892532, 0.008847564458847046, 0.02841043472290039, -0.09470535814762115], [-0.10802007466554642, 0.0418267659842968, 0.11064596474170685, -0.0960853099822998, -0.03797308728098869, 0.06425359845161438, 0.04971430078148842, 0.019339904189109802, -0.04406200721859932, -0.00021168867533560842, -0.022856563329696655, 0.02520284242928028, 0.07299061864614487, 0.025127748027443886, 0.059242088347673416, 0.028050730004906654, -0.0354326032102108, -0.07319144159555435, 0.028516313061118126, -0.034647151827812195, -0.05680661275982857, 0.04603099077939987, 0.02094424143433571, 0.05956631153821945, 0.09231442958116531, -0.004212442319840193, -0.028397660702466965, 0.001744682202115655, 0.010643092915415764, -0.017591377720236778, 0.025448480620980263, -0.028830355033278465, -0.08437768369913101, 0.1842920184135437, 0.027808256447315216, -0.09632802754640579, 0.0030426455195993185, 0.02207283489406109, 0.11163179576396942, 0.02150607667863369], [-0.0028232824988663197, -0.0019557480700314045, -0.13628186285495758, -0.2171478122472763, 0.04950350150465965, 0.0857468694448471, -0.025751108303666115, 0.08290990442037582, 0.3482699394226074, 0.015227902680635452, -0.03640183433890343, 0.02911231853067875, 0.03466020151972771, -0.03752807900309563, -0.28894248604774475, 0.2909632921218872, -0.36168697476387024, -0.18446308374404907, 0.03615621477365494, 0.006718592252582312, 0.08100419491529465, -0.008826124481856823, 0.023631291463971138, 0.11565425992012024, -0.23844660818576813, -0.08534600585699081, -0.0889386385679245, -0.03365018591284752, 0.030298054218292236, -0.07759370654821396, -0.008749783970415592, -0.02561972290277481, 0.091385118663311, -0.34307682514190674, 0.0036358253564685583, 0.08257565647363663, 0.05133822187781334, -0.2671913504600525, -0.04343491420149803, -0.09442538022994995], [0.1501246988773346, 0.08465664088726044, -0.04893439635634422, 0.08552161604166031, -0.08222372084856033, 0.007873435504734516, 0.006760673131793737, 0.12114634364843369, 0.06486944854259491, 0.009939857758581638, -0.003042936557903886, 0.02303045243024826, 0.019242577254772186, 0.006134438794106245, 0.13901659846305847, -0.1711447536945343, -0.4471062421798706, -0.03461601212620735, 0.03254721686244011, -0.004959405865520239, -0.012377343140542507, 0.1198631152510643, -0.047275662422180176, 0.01085073035210371, 0.10004108399152756, -0.06364735960960388, -0.007894148118793964, 0.08155480027198792, 0.04095674306154251, 0.01308112870901823, -0.003915231209248304, 0.011019213125109673, -0.03301413729786873, -0.222855344414711, 0.02662470191717148, -0.14877913892269135, 0.022613288834691048, -0.14297649264335632, 0.03749508038163185, 0.02979539893567562], [-0.10260611027479172, 0.07484602183103561, 0.07993641495704651, -0.23456698656082153, -0.029754241928458214, -0.03135481849312782, 0.19041863083839417, -0.20648996531963348, -0.08401133865118027, -0.03990305960178375, 0.08387591689825058, 0.09419701248407364, 0.017668869346380234, 0.11361552029848099, -0.20466652512550354, 0.10628673434257507, 1.116461992263794, 0.1886289119720459, -0.03301993012428284, -0.007306436076760292, 0.03489953652024269, -0.13467822968959808, -0.16473381221294403, 0.034691791981458664, -0.05460379645228386, 0.04802081733942032, -0.022202689200639725, -0.029129574075341225, -0.059255246073007584, 0.1388782560825348, -0.0401628315448761, -0.06267230212688446, -0.0614716075360775, -0.028629356995224953, 0.029232384636998177, -0.04096176102757454, -0.10757749527692795, 0.14576011896133423, 0.034665048122406006, 0.18480974435806274], [-0.03879086300730705, 0.09621593356132507, 0.009714767336845398, 0.03251025453209877, -0.008064761757850647, 0.014055433683097363, -0.017456702888011932, -0.2720133066177368, -0.030269751325249672, 0.08199968934059143, 0.022535817697644234, 0.42177245020866394, 0.06591447442770004, 0.028972158208489418, 0.11870473623275757, -0.014531015418469906, 0.23341085016727448, 0.07128695398569107, -0.07048151642084122, 0.03304021432995796, -0.06225801631808281, 0.03453965112566948, -0.01153093297034502, -0.0743870660662651, -0.02937356010079384, -0.2459074854850769, -0.023907819762825966, -0.050628356635570526, 0.06445520371198654, -0.007148361764848232, -0.15034222602844238, -0.046590257436037064, -0.06259240955114365, 0.04363907128572464, -0.05186599865555763, 0.0017613597447052598, 0.00365459150634706, 0.05683671310544014, -0.03535802289843559, -0.18828295171260834], [0.05009038373827934, -0.32976803183555603, -0.02727510966360569, -0.038545992225408554, -0.10246046632528305, 0.0075482092797756195, 0.3802807033061981, -0.09269583225250244, 0.015645723789930344, -0.008425758220255375, 0.03474751487374306, -0.25554582476615906, -0.3049239218235016, 0.1637953221797943, 0.1064281091094017, 0.015661220997571945, -0.052325207740068436, -0.10433560609817505, 0.10838145017623901, -0.0973701998591423, 0.04842587187886238, 0.09239904582500458, 0.18311117589473724, 0.04201318323612213, 0.0009675263427197933, 0.300077348947525, 0.23111379146575928, 0.025193683803081512, -0.016089757904410362, 0.08173831552267075, -0.07423318177461624, 0.007483407389372587, 0.10570519417524338, 0.11666613817214966, -0.1834232360124588, -0.0647253543138504, -0.02732820250093937, -0.014977377839386463, 0.08151128143072128, 0.18840406835079193], [0.015585783869028091, -0.07061395049095154, -0.023456137627363205, -0.27927762269973755, -0.000696045346558094, 0.026419801637530327, -0.015275356359779835, -0.007658003363758326, 0.18815383315086365, -0.06222030147910118, -0.036805085837841034, 0.026123061776161194, 0.003703709691762924, -0.0027427501045167446, 0.08240973204374313, 0.5303449630737305, -0.05272047221660614, -0.06307760626077652, 0.016279757022857666, 0.12098345160484314, 0.18394587934017181, 0.08939124643802643, -0.11118002980947495, 0.16267621517181396, 0.008003439754247665, 0.005519731901586056, -0.11762616038322449, -0.012771775014698505, 0.10131730139255524, -0.01599537767469883, -0.02533891424536705, -0.06680230796337128, -0.047774720937013626, 0.07180367410182953, 0.06496693193912506, -0.049924131482839584, 0.08526399731636047, -0.15028876066207886, 0.06982050836086273, -0.026086559519171715], [0.0033609529491513968, -0.0011099983239546418, 0.09055178612470627, -0.023547716438770294, 0.049794066697359085, -0.006694204173982143, 0.02713017351925373, -0.07384301722049713, -0.024710481986403465, -0.008734283037483692, -0.002129500964656472, 0.08425837010145187, -0.04105736315250397, -0.04163603112101555, 0.057291179895401, -0.011715185828506947, 0.2612886428833008, -0.004923692438751459, 0.04151776060461998, -0.005811910144984722, -0.02810700424015522, -0.07753382623195648, 0.06564365327358246, 0.07332365959882736, -0.025927221402525902, 0.11109108477830887, -0.01127899531275034, -0.07294824719429016, 0.01160924881696701, 0.036720167845487595, 0.011052287183701992, 0.03336941450834274, 0.0001841397606767714, 0.05227266252040863, 0.08588337153196335, -0.07280783355236053, -0.011439351364970207, 0.09550663083791733, 0.01828201301395893, 0.07209580391645432], [0.013002259656786919, 0.0189665500074625, 0.10138305276632309, -0.026783492416143417, 0.037011027336120605, -0.07274871319532394, -0.050009213387966156, -0.09765537083148956, 0.04939373582601547, -0.015606130473315716, -0.06223473325371742, -0.04398634657263756, -0.05209379643201828, -0.04969366267323494, 0.16843846440315247, -0.041692279279232025, 0.6127249002456665, 0.0014139172853901982, -0.03273512423038483, -0.03593732416629791, -0.003740966087207198, 0.010926141403615475, 0.1045265644788742, 0.004128274042159319, -0.13758066296577454, 0.11122319102287292, -0.044965486973524094, -0.017372524365782738, -0.014327588491141796, -0.0784820020198822, 0.04700850695371628, -0.021768683567643166, 0.04774707183241844, 0.05441303178668022, 0.002065961016342044, 0.002625968074426055, -0.09042789041996002, 0.18849702179431915, 0.041703250259160995, 0.03140762448310852], [-0.03042210079729557, -0.01272856630384922, 0.04099501669406891, -0.04073965176939964, -0.002221177564933896, -0.03717006742954254, -0.26253318786621094, 0.5426365733146667, 0.024815326556563377, -0.04858817160129547, -0.041250117123126984, -0.3569461405277252, -0.04475242272019386, -0.15150649845600128, -0.03759196773171425, -0.031697843223810196, -0.05173930898308754, -0.011183337308466434, -0.13042086362838745, -0.016533736139535904, -0.012137074023485184, -0.02145250514149666, -0.008008543401956558, 0.037639591842889786, 0.051248665899038315, -0.14550471305847168, 0.03159693256020546, -0.03650801628828049, -0.05560851842164993, -0.05502409115433693, 0.144235759973526, 0.05512344837188721, 0.0012114354176446795, 0.05782187357544899, -0.05166076868772507, -0.01977398619055748, 0.03448021039366722, -0.04180558770895004, -0.00506995664909482, -0.135816752910614], [-0.03966178745031357, 0.0771668404340744, 0.02819519117474556, -0.01874704286456108, 0.009763778187334538, -0.03623507171869278, -0.024161433801054955, -0.08109912276268005, -0.0583617128431797, -0.05148634314537048, -0.010442712344229221, 0.016598815098404884, 0.07247386127710342, 0.011043027974665165, 0.08009669184684753, -0.013140035793185234, 0.130824014544487, -0.05988968536257744, 0.05620299652218819, -0.05376627668738365, -0.09313280135393143, -0.03375441953539848, -0.008270963095128536, 0.014277608133852482, -0.025020858272910118, -0.008655683137476444, 0.06708700954914093, -0.020858461037278175, -0.07085245847702026, 0.04251183941960335, 0.029846597462892532, 0.019935738295316696, -0.0225389264523983, 0.13149969279766083, -0.009466760791838169, -0.026342913508415222, 0.06372644752264023, 0.07722878456115723, 0.07459794729948044, 0.004165949299931526], [0.013160440139472485, 0.21248508989810944, 0.0676824226975441, -0.009997030720114708, 0.004653812851756811, -0.0004568553704302758, -0.0656728520989418, -0.13110189139842987, 0.06714987754821777, -0.02955070696771145, -0.014861547388136387, 0.44197461009025574, 0.019994238391518593, 0.01636693812906742, 0.0021538736764341593, -0.0020531013142317533, -0.15121978521347046, -0.02933100424706936, 0.019610222429037094, -0.11661942303180695, 0.0021960455924272537, 0.057334184646606445, 0.04256540909409523, -0.026687929406762123, -0.11098915338516235, 0.5590157508850098, -0.11529099941253662, 0.07869309186935425, 0.07564099133014679, -0.016383033245801926, -0.0634441077709198, -0.044690731912851334, 0.06776776164770126, -0.0706641897559166, -0.10714172571897507, 0.08580083400011063, 0.004708010237663984, -0.02354382537305355, 0.013168873265385628, -0.11744382977485657], [-0.12401048094034195, -0.06343468278646469, 0.019252844154834747, -0.19602805376052856, 0.02883562259376049, 0.19734345376491547, -0.04178887978196144, -0.09465619921684265, -0.22918738424777985, -0.10316035896539688, 0.068692646920681, -0.10661184042692184, -0.021583782508969307, 0.027165070176124573, -0.018191561102867126, 0.20840482413768768, 1.2191731929779053, 0.07783858478069305, 0.0261013675481081, -0.055967025458812714, 0.0161833968013525, -0.2870602011680603, 0.009598505683243275, -0.054528046399354935, -0.2508091628551483, -0.0035029943101108074, 0.032555148005485535, -0.13525336980819702, -0.1399082988500595, 0.18081986904144287, 0.015915097668766975, -0.1481710970401764, -0.08640680462121964, -0.23831047117710114, -0.07231445610523224, 0.3064954876899719, 0.01612575724720955, 0.2960275709629059, 0.045548055320978165, 0.09839986264705658], [-0.029778463765978813, 0.04418008029460907, 0.1028733178973198, 0.09856996685266495, -0.48974692821502686, 0.026711847633123398, 0.0268917977809906, -0.023421457037329674, 0.39775386452674866, -0.01672596111893654, 0.01803465560078621, -0.00804439838975668, -0.028484366834163666, 0.004260333254933357, -0.05346786975860596, -0.06464915722608566, -0.1749894917011261, 0.04144496098160744, -0.09065957367420197, 0.22425182163715363, -0.020244063809514046, 0.0013154142070561647, -0.030505364760756493, -0.0035281204618513584, -0.348602294921875, 0.0023083239793777466, -0.16184242069721222, 0.06008676812052727, 0.017429513856768608, -0.0840609222650528, -0.034889452159404755, -0.026186807081103325, -0.07528389990329742, -0.0464065745472908, 0.04218529909849167, -0.06181395798921585, -0.16240893304347992, -0.006421538535505533, -0.14923489093780518, -0.027677295729517937], [0.024488462135195732, 0.04116576910018921, 0.01722084917128086, -0.022295815870165825, -0.06684402376413345, -0.09514439105987549, 0.012872091494500637, -0.04722552374005318, -0.07980336248874664, -0.03402360901236534, 0.08449019491672516, -0.029609262943267822, -0.023640044033527374, 0.03560420125722885, -0.08197043836116791, 0.014925861731171608, 0.6162163019180298, 0.11451627314090729, 0.03497672453522682, -0.02386653982102871, 0.045866187661886215, -0.15259967744350433, -0.06444920599460602, -0.025506028905510902, -0.02751784212887287, 0.08550430089235306, -0.06165899336338043, -0.018106097355484962, -0.03621735796332359, 0.17625845968723297, -0.017770446836948395, 0.020383909344673157, 0.08757467567920685, 0.07171837240457535, -0.013218669220805168, -0.05793992429971695, -0.009900959208607674, 0.20624889433383942, 0.026257485151290894, 0.1295582503080368], [0.05069746822118759, -0.06814901530742645, 0.0005398637149482965, 0.04850699007511139, -0.003382878378033638, -0.02321714162826538, -0.06986474245786667, -0.01664670743048191, -0.05940714105963707, -0.07923445850610733, 0.07172107696533203, -0.017496012151241302, -0.0575120709836483, -0.0701047033071518, 0.11930987238883972, 0.04874516278505325, -0.00362853123806417, 0.04857794940471649, -0.030226850882172585, -0.04197832569479942, -0.00799503456801176, 0.010617888532578945, -0.0697588175535202, -0.02502240240573883, -0.07524586468935013, 0.0037462450563907623, -0.03581667318940163, 0.07358790189027786, 0.033475361764431, 0.05071200057864189, -0.021264055743813515, 0.06325438618659973, -0.05175350233912468, -0.019894491881132126, -0.0074190404266119, -0.05379626899957657, -0.0343022458255291, 0.05391993001103401, -0.03923999145627022, 0.053213220089673996], [0.03668114170432091, -0.09213617444038391, -0.0030521468725055456, -0.013158037327229977, -0.06380832195281982, 0.0308104008436203, -0.08790997415781021, -0.06568950414657593, -0.005648291204124689, 0.00717465253546834, 0.04253252223134041, -0.006759996525943279, -0.028786953538656235, 0.01687532477080822, -0.034139398485422134, -0.010387043468654156, 0.3230914771556854, 0.003968529868870974, 0.1306839883327484, -0.03892655298113823, 0.04386363923549652, 0.08426782488822937, 0.030274804681539536, -0.026019031181931496, 0.006063118111342192, -0.04485872760415077, -0.02672104723751545, -0.014026056043803692, -0.00956051331013441, 0.0035285847261548042, 0.03390468657016754, 0.038418591022491455, -0.09582655876874924, 0.023227468132972717, -0.03091156855225563, -0.013484436087310314, 0.00021164763893466443, 0.06501933187246323, 0.03825393319129944, 0.03118012845516205], [0.04162789136171341, 0.009908405132591724, 0.027790524065494537, -0.04755337908864021, 0.04951434209942818, -0.02111688256263733, 0.019938096404075623, -0.023120051249861717, -0.13383248448371887, 0.01747831515967846, 0.040124837309122086, -0.04896233603358269, 0.04350804537534714, 0.026177339255809784, 0.30681681632995605, 0.03826046735048294, -0.26427382230758667, -0.027183348312973976, 0.03116004168987274, 0.0007096020854078233, -0.06041790544986725, 0.1396484524011612, -0.03557160124182701, 0.01984623819589615, 0.09535730630159378, 0.01724938489496708, 0.01805095560848713, 0.11770617216825485, 0.008945220150053501, -0.04346608370542526, 0.030473167076706886, 0.015115692280232906, -0.03620313107967377, 0.06096369028091431, 0.0026420464273542166, -0.07112299650907516, -0.021047206595540047, 0.003381329355761409, 0.05882826820015907, 0.047462522983551025], [0.03065706230700016, -0.04517392814159393, -0.02357468381524086, -0.03621917590498924, 0.05249186232686043, -0.013946661725640297, 0.02125195786356926, 0.008986554108560085, 0.13042058050632477, -0.026033643633127213, 0.034210655838251114, -0.06596711277961731, 0.01811138167977333, -0.04164999723434448, -0.08846276998519897, -0.18759199976921082, 0.3393585681915283, -0.023610161617398262, -0.053983405232429504, -0.007866961881518364, -0.06861674785614014, -0.05228117108345032, -0.014422047883272171, 0.019978119060397148, -0.06722739338874817, 0.014561896212399006, -0.06531769037246704, -0.05361412838101387, -0.05422944203019142, -0.01895751804113388, -0.012083140201866627, -0.007959128357470036, 0.03530096635222435, -0.059673767536878586, -0.004534247796982527, 0.09375065565109253, 0.01832864060997963, 0.10452219843864441, -0.030919579789042473, 0.009952721185982227], [-0.14930947124958038, -0.1313742995262146, 0.11155654489994049, -0.10460829734802246, -0.007723958697170019, 0.043923236429691315, -0.040836598724126816, -0.12771770358085632, 0.03572189062833786, -0.06505368649959564, -0.02268429659307003, 0.013240430504083633, -0.06432412564754486, 0.03894331678748131, 0.13295692205429077, 0.0658063292503357, 0.307395339012146, 0.07487162947654724, -0.07326432317495346, -0.02875879593193531, 0.05315970629453659, 0.09838879108428955, -0.018710192292928696, 0.07161462306976318, -0.0892268642783165, 0.09155836701393127, -0.04492175951600075, -0.02648935467004776, 0.01945625990629196, -0.022158291190862656, -0.0179685577750206, -0.19015534222126007, -0.2659537196159363, 0.1541578471660614, -0.04921052232384682, -0.06708195060491562, -0.028885018080472946, 0.030001582577824593, 0.0970822349190712, 0.11655422300100327], [-0.0005975235835649073, 0.027910545468330383, 0.01756516844034195, -0.02866652049124241, 0.0003872883680742234, 0.0415373221039772, -0.06690799444913864, -0.0024294548202306032, -0.07019085437059402, -0.06283774971961975, 0.11355007439851761, 0.10170812904834747, -0.08672473579645157, -0.0025516413152217865, -0.3142136037349701, -0.05595755577087402, 0.3484855592250824, -0.01864861324429512, 0.04648901894688606, -0.02280781976878643, -0.07328569889068604, -0.0700724720954895, -0.09446839988231659, 0.10527987033128738, -0.06804455816745758, 0.10275104641914368, 0.03102107159793377, -0.034365709871053696, -0.08261014521121979, 0.02669370360672474, -0.11271047592163086, -0.058855488896369934, 0.03374102711677551, 0.11626661568880081, -0.07350710779428482, 0.07080421596765518, 0.1382981389760971, 0.10893744975328445, 0.02483111433684826, 0.11426379531621933], [0.043957099318504333, -0.03121895343065262, 0.09112881869077682, 0.016914766281843185, 0.10739477723836899, -0.01611035317182541, -0.013845674693584442, 0.0020263404585421085, -0.0427425242960453, -0.01061946526169777, 0.012701332569122314, -0.025438325479626656, 0.0011208285577595234, -0.011630270630121231, 0.22116713225841522, 0.07778926193714142, -0.10028395056724548, -0.09216669201850891, 0.03022395260632038, -0.011961461044847965, 0.006435826886445284, 0.05145619437098503, 0.046875208616256714, -0.035314250737428665, 0.04495454207062721, 0.020867669954895973, -0.05528832972049713, 0.084629587829113, 0.01839195005595684, -0.04137079045176506, 0.04808434844017029, 0.0519351027905941, -0.0029500413220375776, 0.030219297856092453, -0.03390449285507202, -0.02471204474568367, 0.07375361025333405, 0.02739996649324894, 0.07949462532997131, 0.013675902970135212], [-0.0180270504206419, -0.029899826273322105, -0.03182744234800339, 0.20643261075019836, -0.07879224419593811, -0.0013564502587541938, 0.005219888873398304, 0.03402972221374512, 0.07664815336465836, 0.039634983986616135, 0.03768007829785347, -0.06147235631942749, 0.022590037435293198, -0.007625673431903124, 0.018788829445838928, -0.4593706429004669, -0.008757531642913818, 0.15396663546562195, 0.01825336180627346, -0.20988903939723969, 0.006955188699066639, -0.06144255772233009, -0.07197606563568115, -0.08840891718864441, -0.2604564428329468, -0.06682417541742325, 0.05292006582021713, -0.007978660985827446, -0.003589651780202985, 0.005006886553019285, 0.06507659703493118, 0.007559760939329863, 0.04120716452598572, -0.16536805033683777, -0.11515693366527557, 0.1587749868631363, -0.027964865788817406, -0.006674210540950298, -0.19298681616783142, -0.026042409241199493], [0.04428604617714882, -0.19740386307239532, -0.11601950228214264, 0.01881670393049717, 0.01738554798066616, -0.0466793030500412, 0.034749262034893036, 0.42821961641311646, 0.03447909653186798, 0.0010686113964766264, 0.00976560264825821, -0.036119863390922546, 0.13204941153526306, -0.43024319410324097, 0.11204340308904648, -0.01015785988420248, -0.21935191750526428, 0.008609475567936897, -0.04773674160242081, 0.025876684114336967, 0.030086208134889603, 0.01795579493045807, 0.03362486883997917, -0.33028215169906616, 0.08072292059659958, -0.17119914293289185, -0.27492228150367737, 0.17518925666809082, 0.025381725281476974, -0.06642167270183563, 0.05915413796901703, 0.007333571556955576, 0.05174591392278671, -0.05548805743455887, -0.04600082337856293, 0.04335486516356468, -0.03155793994665146, -0.09717971831560135, -0.002817111322656274, -0.29188746213912964], [0.003494108095765114, 0.10321380943059921, -0.0003299028903711587, 0.0021622299682348967, -6.911325181135908e-05, 0.016251511871814728, 0.001203277613967657, 0.09523748606443405, 0.008832263760268688, -0.006438588723540306, 0.019697783514857292, 0.023820647969841957, -0.02696540579199791, -0.06745027005672455, 0.04791279137134552, 0.043206192553043365, -0.17393551766872406, -0.033355165272951126, 0.11767344176769257, 0.03205835074186325, 0.02755426988005638, 0.04414837062358856, -0.051510266959667206, 0.016348185017704964, 0.000643053266685456, 0.027447720989584923, -0.12606006860733032, 0.09971808642148972, 0.015728911384940147, -0.04239235445857048, -0.014237013645470142, 0.023250926285982132, -0.06121273338794708, -0.05196844041347504, -0.10945922136306763, -0.02751981094479561, 0.009943884797394276, -0.07043860852718353, 0.028995521366596222, 0.06787653267383575], [0.009102122858166695, 0.0073994058184325695, 0.02795056439936161, 0.034497976303100586, -0.010842607356607914, -0.03149973973631859, -0.05557716265320778, -0.018629174679517746, 0.06998008489608765, -0.008112003095448017, -0.021315181627869606, 0.03712625801563263, -0.01763993315398693, -0.05753760039806366, 0.10542667657136917, 0.010883460752665997, -0.13969586789608002, -0.10431373864412308, 0.011063851416110992, -0.06961081176996231, -0.00546555919572711, -0.010456422343850136, 0.07192178070545197, -0.04606045037508011, -0.020805712789297104, 0.009119508787989616, -0.02282600849866867, 0.08293627947568893, -0.011792919598519802, -0.018633652478456497, -0.04081506282091141, 0.007460425607860088, 0.02045157179236412, -0.005458608735352755, -0.05718739703297615, 0.027522418648004532, -0.05307546630501747, -0.007425906602293253, 0.05415558069944382, 0.07536494731903076], [0.04372299835085869, -0.022905586287379265, 0.07025326788425446, -0.08031674474477768, -0.03790321201086044, -0.026524541899561882, -0.003976005595177412, -0.019582103937864304, -0.028831016272306442, 0.060296088457107544, 0.02744658663868904, -0.0196014866232872, 0.017863744869828224, -0.06605031341314316, 0.23135235905647278, -0.06081193685531616, -0.20010904967784882, -0.08190911263227463, -0.010946080088615417, 0.03503415361046791, -0.012389217503368855, 0.1025342047214508, -0.00013048635446466506, 0.09063230454921722, 0.01704835332930088, -0.05332833155989647, -0.06605009734630585, 0.05856892466545105, -0.0030665637459605932, -0.04933762550354004, -0.027320295572280884, 0.03207714855670929, -0.007056065369397402, 0.0743810385465622, 0.006056486163288355, -0.025076311081647873, 0.08825123310089111, -0.03992553800344467, 0.08802516758441925, -0.11438127607107162], [0.06155211478471756, -0.010581174865365028, 0.02894008718430996, -0.0653403103351593, 0.029908819124102592, -0.011545432731509209, -0.010891536250710487, -0.02986389584839344, -0.056620027869939804, 0.039393350481987, 0.013701737858355045, -0.0546487458050251, 0.01741042733192444, 0.047100719064474106, 0.16842633485794067, -0.06988915801048279, 0.33524730801582336, -0.001286873477511108, 0.1157904639840126, -0.031223978847265244, -0.01839396543800831, 0.03766860067844391, 0.07217288017272949, -0.004937037359923124, 0.0371759757399559, 0.025829525664448738, -0.030841877683997154, 0.029443807899951935, -0.045836497098207474, 0.02977820299565792, 0.027050698176026344, 0.023666610941290855, 0.015709679573774338, 0.05589668080210686, 0.028995197266340256, 0.01316148042678833, -0.0399782694876194, 0.1673533171415329, 0.030891258269548416, 0.01269796397536993], [0.02216457575559616, -0.029885005205869675, -0.000703254365362227, 0.029125245288014412, -0.05879418924450874, 0.02954145334661007, 0.05082889646291733, 0.0035110029857605696, 0.0316183939576149, 0.044541340321302414, 0.013333496637642384, -0.0125148119404912, 0.03463587909936905, 0.01506879087537527, 0.03885788843035698, 0.017847491428256035, 0.022559458389878273, -0.030291689559817314, 0.06671860069036484, -0.052812863141298294, -0.04369933158159256, 0.04071299359202385, 0.04872584715485573, -0.022955436259508133, 0.02625720016658306, 0.03674468770623207, 0.028209064155817032, -0.01915997453033924, 0.13438963890075684, 0.022330090403556824, -0.007452069781720638, -0.02471977472305298, 0.034052323549985886, -0.03507361561059952, 0.0481717512011528, 0.02214466966688633, -0.03135751187801361, 0.034548066556453705, 0.017145955935120583, -0.03413475304841995], [-0.05235641822218895, -0.10357268154621124, -0.0239296592772007, -0.08784978091716766, -0.012011845596134663, -0.023831648752093315, 0.14414477348327637, -0.028888652101159096, -0.02210143767297268, 0.017088185995817184, -0.049675412476062775, -0.015112523920834064, 0.03445807844400406, -0.01145199779421091, -0.03489525988698006, 0.025152035057544708, 0.9742138385772705, 0.12142026424407959, -0.009191636927425861, 0.011415655724704266, 0.04605962336063385, -0.0349997840821743, -0.1662767380475998, 0.04907935857772827, -0.04910775646567345, 0.06391800940036774, -0.023001305758953094, -0.008485331200063229, -0.029240859672427177, 0.07496798038482666, -0.0660448744893074, -0.0393877811729908, -0.041550081223249435, 0.07241293787956238, 0.02446344494819641, -0.0030383537523448467, 0.02211909182369709, 0.1710369884967804, 0.0418863482773304, 0.048351939767599106], [-0.404583215713501, 0.02416286990046501, 0.23008476197719574, -0.03671072795987129, -0.02345181629061699, -0.012936856597661972, 0.032290127128362656, -0.02030043490231037, -0.055845536291599274, 0.04803058132529259, -0.06224769353866577, -0.02156699262559414, 0.015389714390039444, 0.03920254483819008, -0.06471846252679825, 0.11326451599597931, 0.08838608860969543, 0.041990429162979126, 0.0012645147508010268, -0.0942573994398117, 0.05522177368402481, 0.26401278376579285, -0.015548807568848133, -0.05160944163799286, -0.048770006746053696, 0.04914208874106407, -0.06913112103939056, 0.027659201994538307, -0.008369144052267075, -0.03106875903904438, 0.000513838545884937, -0.16402311623096466, -0.4439886212348938, 0.4312381446361542, -0.010288906283676624, -0.06159312650561333, -0.07677572220563889, -0.025223204866051674, 0.1200694739818573, 0.07716769725084305], [0.0017495739739388227, -0.11614391207695007, 0.2863953411579132, 0.025367315858602524, -0.0214367788285017, -0.11505436152219772, -0.14311820268630981, -0.07679122686386108, -0.4007489085197449, -0.22328583896160126, -0.10673560947179794, -0.14001703262329102, 0.08633895218372345, -0.037641048431396484, -0.10738825052976608, 0.25721582770347595, 1.4752012491226196, 0.17712713778018951, 0.1939244568347931, 0.11765879392623901, 0.17935246229171753, -0.5211209058761597, -0.16877467930316925, -0.059185098856687546, -0.05645744502544403, -0.12915919721126556, -0.1602909117937088, 0.04530396685004234, -0.2041349560022354, 0.26046159863471985, -0.11905208230018616, -0.02767826057970524, -0.307356595993042, -0.14506563544273376, 0.08694544434547424, -0.12726923823356628, -0.05637737363576889, 0.5121350884437561, 0.013727713376283646, 0.11328178644180298], [0.050193339586257935, 0.049409907311201096, 0.06836754083633423, -0.0008097862009890378, 0.009265739470720291, -0.03616490960121155, -0.0642753466963768, -0.0490930937230587, -0.03167078271508217, 0.00326269562356174, -0.04764694720506668, 0.005214118864387274, -0.0988413468003273, -0.008773823268711567, 0.29675981402397156, 0.007279679644852877, -0.20492614805698395, -0.036448389291763306, 0.04406183585524559, 0.0584569126367569, -0.030226046219468117, -0.004288911819458008, -0.007502340245991945, 0.020700419321656227, -0.010122247971594334, 0.028493981808423996, -0.007721178233623505, 0.09903473407030106, 0.013631943613290787, -0.012107230722904205, 0.07751806825399399, 0.058785393834114075, -0.03797061741352081, 0.1915677785873413, 0.03995871543884277, -0.022190561518073082, -0.032930921763181686, -0.008873837999999523, 0.01711450330913067, -0.04660126194357872], [-0.15049217641353607, 4.634997821995057e-05, -0.024277564138174057, -0.08177077025175095, -0.19523629546165466, 0.01235759723931551, 0.04556522145867348, -0.017711477354168892, -0.12667733430862427, -0.03978978097438812, -0.10932930558919907, 0.03261283040046692, -0.010389760136604309, -0.008106820285320282, -0.5283306837081909, -0.04579806700348854, -0.46310245990753174, -0.06485455483198166, -0.025018535554409027, 0.027822677046060562, -0.16403548419475555, -0.18883484601974487, -0.049018144607543945, -0.0028306245803833008, 0.19423741102218628, 0.053912896662950516, -0.0825309306383133, -0.0991111472249031, 0.06295724213123322, -0.0798928514122963, -0.06429777294397354, -0.01258496381342411, 0.11928384006023407, -0.1690157651901245, -0.06058989465236664, 0.2470431625843048, -0.028936492279171944, -0.022114694118499756, 0.03267979621887207, 0.021082501858472824], [0.07836288958787918, -0.02025558613240719, -0.05490902438759804, -0.09095975011587143, -0.00692365225404501, -0.00963082630187273, 0.036203719675540924, -0.08249185234308243, 0.15895617008209229, 0.0063995071686804295, 0.0372784323990345, -0.03125891461968422, 0.010817199945449829, -0.06519224494695663, -0.0640660747885704, -0.028008896857500076, -0.0003329524479340762, -0.08248715102672577, 0.019373694434762, 0.04838278517127037, 0.011073073372244835, 0.01481487788259983, -0.011077160015702248, 0.03828415647149086, 0.13837364315986633, -0.02865852229297161, 0.011668781749904156, 0.015755293890833855, 0.04992273822426796, -0.030967827886343002, -0.03457941487431526, -0.03524249419569969, 0.13391488790512085, -0.10215619951486588, 0.026356074959039688, 0.29476290941238403, 0.11360452324151993, -0.052246998995542526, 0.029215481132268906, -0.021125225350260735], [-0.0648617073893547, 0.014641533605754375, 0.06100674346089363, -0.024344999343156815, -0.008194612339138985, -0.02263008989393711, -0.1373085379600525, -0.04050416126847267, 0.08837110549211502, -0.00013540960208047181, 0.03746797516942024, 0.045686617493629456, -0.02821061760187149, -0.037439893931150436, 0.03877640143036842, -0.023640144616365433, 0.4383481740951538, 0.04811553657054901, 0.10334037989377975, -0.019670860841870308, 0.04250067472457886, -0.12158651649951935, -0.004960740450769663, -0.035948317497968674, -0.016653528437018394, 0.12547019124031067, -0.021003026515245438, -0.03916698694229126, -0.0022352554369717836, 0.07783138751983643, 0.012119320221245289, 0.0022766725160181522, 0.07725725322961807, 0.06385750323534012, -0.024575691670179367, -0.04508648067712784, -0.04632457345724106, 0.16244401037693024, 0.07290243357419968, 0.034967031329870224], [0.08827197551727295, 0.06553433835506439, -0.041801586747169495, -0.0055262185633182526, 0.10965903103351593, -0.06802350282669067, 0.049746301025152206, 0.024474279955029488, 0.052762843668460846, 0.007469539530575275, 0.021358029916882515, 0.023997686803340912, 0.009823441505432129, 0.01939784176647663, 0.09074615687131882, -0.10404772311449051, 0.09886720776557922, -0.07810546457767487, -0.07561197876930237, -0.012569495476782322, -0.05780161917209625, 0.05687864497303963, 0.10826330631971359, 0.043997857719659805, -0.0013852118281647563, -0.04950033500790596, 0.004003696143627167, -0.022055786103010178, -0.02828795835375786, 0.006224246695637703, 0.049798887223005295, 0.06507588922977448, 0.0486304946243763, -0.023901747539639473, 0.04108795151114464, 0.11233311146497726, 0.0058136796578764915, 0.03687311336398125, -0.009855738840997219, -0.008426816202700138], [-0.11777325719594955, 0.015282982960343361, -0.024312550202012062, -0.023966822773218155, -0.03772188723087311, -0.04546539485454559, 0.031263887882232666, -0.08329152315855026, -0.022878097370266914, 0.02382025122642517, 0.02179679647088051, -0.34131234884262085, 0.0007005731458775699, -0.16634616255760193, 0.016217008233070374, 0.004691507201641798, -0.08277185261249542, 0.0369882732629776, 0.0741620659828186, -0.18105587363243103, -0.0009634150192141533, -0.05501479282975197, 0.03210211545228958, 0.14043284952640533, -0.03242248669266701, 0.12620426714420319, -0.047475386410951614, -0.1416654884815216, -0.13114379346370697, -0.029251499101519585, -0.005370013881474733, 0.08247659355401993, 0.014822820201516151, 0.2062237709760666, -0.02200106903910637, -0.03779951483011246, 0.045717883855104446, 0.05961332097649574, 0.04965878650546074, -0.210370272397995], [0.3951987326145172, -0.2973754405975342, -0.09800045192241669, -0.02113470248878002, 0.04507904499769211, -0.21140673756599426, -0.04380592703819275, 0.07520738989114761, 0.20153194665908813, -0.14258307218551636, -0.08265117555856705, 0.2534771263599396, 0.09486749023199081, -0.09694336354732513, 0.3485172986984253, -0.1422739177942276, 0.05317726358771324, 0.0576847642660141, 0.28161177039146423, 0.05150751397013664, 0.06673109531402588, 0.027691170573234558, -0.1668877899646759, -0.04992660880088806, 0.10572508722543716, -0.007859521545469761, 0.04105930030345917, 0.05706389620900154, -0.0740460455417633, 0.19951021671295166, -0.08773863315582275, 0.11915424466133118, -0.11875560879707336, -0.6912586092948914, 0.20210625231266022, -0.077078677713871, -0.043835561722517014, 0.2398005574941635, -0.04216337203979492, 0.08181703090667725], [0.10186555236577988, -0.09001843631267548, -0.04114498198032379, -0.021235303953289986, 0.0328584723174572, -0.2704968750476837, -0.11756651103496552, -0.7360782623291016, -0.018892083317041397, -0.05977664515376091, -0.21960210800170898, -0.16384920477867126, -0.2199423909187317, -0.43314486742019653, -0.10871873050928116, -0.003308340907096863, -0.05916031077504158, 0.02884732000529766, 0.10413048416376114, 0.14752233028411865, -0.058667317032814026, -0.010208767838776112, 0.03978941962122917, 0.0982760488986969, 0.0018572438275441527, -0.20096631348133087, -0.03491107374429703, 0.10874436795711517, -0.10230328887701035, 0.02852010913193226, 0.18731066584587097, -0.014315289445221424, -0.012859520502388477, 0.13500700891017914, -0.05314159765839577, 0.006590200588107109, 0.03952904790639877, -0.1612090915441513, -0.08214760571718216, 0.43523165583610535], [-0.05014316365122795, 0.05370622128248215, -0.02085145376622677, -0.031143788248300552, 0.20397217571735382, -0.04407914727926254, -0.04877240210771561, -0.171303391456604, -0.027288103476166725, 0.012261760421097279, 0.14310461282730103, 0.05657398700714111, 0.5267614126205444, 0.07251172512769699, 0.19808170199394226, 0.06639853864908218, 0.05595935508608818, 0.08356150984764099, 0.02801397256553173, -0.11352182924747467, 0.034724198281764984, -0.12435094267129898, -0.05575151368975639, 0.173319011926651, -0.6454811096191406, 0.002829782199114561, 0.0013850044924765825, -0.07690386474132538, -0.19368182122707367, -0.015011289156973362, 0.37588217854499817, -0.02223723754286766, -0.15069393813610077, 0.3366871774196625, -0.23745813965797424, -0.4187495708465576, -0.3135375380516052, -0.11648699641227722, 0.025179918855428696, -0.032472386956214905], [-0.04515448212623596, -0.05946455895900726, 0.31547093391418457, 1.828862190246582, 1.9131441116333008, -0.04722263291478157, 0.027556484565138817, -0.20980378985404968, -0.29770663380622864, 0.18611791729927063, -0.3195543885231018, -0.07968010753393173, -0.06716053932905197, 0.019003551453351974, 0.015441306866705418, -3.2165236473083496, -0.12871982157230377, 0.28874075412750244, -0.15221551060676575, -0.1501912623643875, -0.2640934884548187, -0.12857097387313843, -0.06703116744756699, 0.2081102877855301, 0.14677971601486206, -0.15412156283855438, -0.2410951852798462, -0.4165961444377899, -0.5588476061820984, -0.24537500739097595, -0.025430072098970413, 0.06224778667092323, -0.13778838515281677, -0.10448482632637024, -0.36372894048690796, 0.6026702523231506, -0.1805197298526764, 0.0007228300091810524, -0.29745882749557495, -0.13339732587337494], [-0.10727806389331818, 0.09084152430295944, 0.555033802986145, -0.1938091367483139, -1.4472695589065552, 0.039578478783369064, -0.1533653736114502, 0.03832661733031273, -0.18704067170619965, -0.10708419233560562, 0.027399012818932533, -0.11142663657665253, 0.014673305675387383, -0.009349667467176914, 0.19003677368164062, -0.428078830242157, -0.0028292033821344376, -0.17824774980545044, -0.09664983302354813, 0.3835011422634125, 0.09197665005922318, -0.07423343509435654, -0.18846836686134338, -0.1442413032054901, -0.3373526632785797, -0.05453044921159744, 0.1632685661315918, 0.32618656754493713, 0.594480574131012, 0.21429376304149628, -0.29453882575035095, 0.027085810899734497, 0.14109742641448975, 0.1930680274963379, 0.1788468360900879, 1.8659240007400513, 0.1522160917520523, -0.14579981565475464, 0.11840333789587021, 0.09991176426410675], [-0.06009766831994057, 0.31725040078163147, 0.016046758741140366, -0.02405824139714241, 0.042974840849637985, 0.5870105028152466, 0.013442205265164375, 0.1590181589126587, -0.01981099508702755, 0.008207843638956547, -0.05521590635180473, -0.046259842813014984, 0.0007167431758716702, 0.15382777154445648, -0.01793324202299118, 0.051866576075553894, 0.03347254544496536, -0.018310746178030968, 0.24722176790237427, -0.03943077102303505, -0.032323721796274185, 0.08889670670032501, -0.08195566385984421, 0.03440261259675026, 0.018442317843437195, 0.11692254990339279, 0.02050660364329815, -0.03952783718705177, 0.03584345802664757, 0.038825035095214844, -0.03726067394018173, 0.5334212183952332, 0.09572654217481613, -0.02306201122701168, -0.0898873582482338, -0.03102562576532364, 0.05237423628568649, 0.03669416904449463, 0.03211050108075142, -0.1547025591135025], [-0.06702908873558044, -0.2316722273826599, 0.12173886597156525, 0.02386448159813881, 0.0577508807182312, -0.036360401660203934, 0.6174521446228027, 0.2566549479961395, -0.03560822457075119, 0.17638523876667023, 0.16443422436714172, 0.4318145215511322, 1.2323445081710815, 0.4196949303150177, 0.004683038219809532, -0.025228871032595634, -0.1580488383769989, -0.1339029222726822, -0.05239732563495636, 0.02907479926943779, -0.03007863648235798, -0.038695063441991806, -0.48351630568504333, 0.0022691763006150723, 0.03325654938817024, 0.3914679288864136, -0.10374902188777924, 0.20911192893981934, 0.31674957275390625, 0.03615346923470497, -0.3032331168651581, 0.005515700671821833, 0.12545575201511383, 0.09945976734161377, 0.13941273093223572, 0.024364963173866272, -0.048607245087623596, 0.17303484678268433, -0.1263958215713501, 0.3206426203250885], [0.0879519060254097, 0.2876725196838379, 0.14112746715545654, -0.048002008348703384, -0.017000313848257065, -0.15065516531467438, -1.051589846611023, -0.4940166771411896, 0.04563182592391968, -0.18082208931446075, -0.01588796265423298, -0.12989826500415802, 0.488972544670105, 0.28627869486808777, -0.1720300167798996, -0.009163744747638702, -0.16701573133468628, 0.16535204648971558, -0.022137613967061043, -0.2717423141002655, 0.04587108641862869, 0.10460595786571503, -0.23322694003582, 0.3679582178592682, 0.08040445297956467, 0.5856934785842896, 0.21982987225055695, -0.06296287477016449, -0.062305010855197906, -0.05702086538076401, 0.4371091425418854, 0.04092107713222504, 0.10615259408950806, -0.21507127583026886, 0.5391470193862915, -0.05267256125807762, 0.08915899693965912, -0.1807946115732193, -0.10150022059679031, 1.1711156368255615], [0.04012105613946915, 0.051468946039676666, 0.2236541211605072, 0.25628435611724854, -0.36714860796928406, 0.00924424733966589, 0.1379760205745697, -0.06432141363620758, 0.8331461548805237, 0.03714817389845848, 0.0833519771695137, -0.004368388559669256, 0.006148329470306635, 0.05353901535272598, -0.42135852575302124, -0.5293277502059937, -0.030574314296245575, 0.2087797224521637, -0.08714231848716736, 0.2166740596294403, 0.12897470593452454, -0.10572662204504013, 0.09305504709482193, 0.004317734390497208, -0.21977534890174866, 0.0828113779425621, -0.18208745121955872, -0.07571586966514587, -0.29133862257003784, 0.012344351038336754, -0.16308632493019104, 0.03256544843316078, 0.09199397265911102, 0.005824359133839607, 0.02313174493610859, -0.33225491642951965, -0.24389581382274628, 0.01801844872534275, -0.17896611988544464, -0.060441624373197556], [0.16293860971927643, -0.0054091536439955235, 0.10942238569259644, 0.008646958507597446, -0.05580803379416466, 0.035149987787008286, 0.03212381899356842, 0.10057352483272552, -0.09921592473983765, 0.18535390496253967, -0.019521893933415413, 0.008933125995099545, -0.5196368098258972, 0.05147111415863037, 0.01225745677947998, -0.038622770458459854, -0.16315679252147675, 0.21289288997650146, 0.014039064757525921, 0.33851614594459534, 0.18901200592517853, -0.039713915437459946, -0.7534337639808655, -0.09514682739973068, -0.13211090862751007, 0.06824743002653122, -0.06484706699848175, -0.07377957552671432, 0.06880375742912292, -0.2503725588321686, 0.4943234622478485, 0.08696231245994568, 0.02297915704548359, 0.21537481248378754, 0.17805178463459015, 0.1277531534433365, -0.07506414502859116, 0.28277888894081116, 0.09324490278959274, 0.09340741485357285], [0.003967191092669964, 0.06611424684524536, -0.2700958549976349, 0.08531211316585541, 0.15385770797729492, -0.008077478967607021, -0.2005086988210678, 0.12516139447689056, 0.1534251868724823, -0.09816387295722961, 0.34061726927757263, 0.1126643642783165, -0.3307882249355316, -0.12499000877141953, 0.009704316034913063, -0.08175375312566757, 0.03147662803530693, -0.1526731252670288, -0.14371484518051147, 0.07688410580158234, 0.06686537712812424, -0.026406006887555122, -0.059184711426496506, -0.16193833947181702, 0.19197148084640503, 0.03767120838165283, 0.0785018727183342, 0.1270642727613449, -0.2935570776462555, 0.11114680767059326, -0.1872563362121582, -0.1688053160905838, -0.002248558681458235, 0.11637099087238312, 0.2828615605831146, 0.16161850094795227, 0.39159998297691345, 0.08850295096635818, 0.035016920417547226, 0.11787274479866028], [-0.10507125407457352, -0.28640735149383545, 0.2998998761177063, -0.03355203941464424, 0.04343288764357567, -0.0946776270866394, 0.8281351923942566, 0.37642398476600647, 0.117767833173275, 0.04259927570819855, 0.13192443549633026, -0.003513790899887681, 0.2474873811006546, 0.4235513508319855, -0.1152462586760521, -0.006925073452293873, -0.060628898441791534, -0.06340837478637695, -0.002166166203096509, -0.104926697909832, 0.07403883337974548, 0.31807658076286316, -0.11514589190483093, 0.04153651371598244, 0.0640287697315216, 0.9792072176933289, 0.2627358138561249, 0.3183915317058563, 0.2572949230670929, -0.048945460468530655, -0.23246169090270996, -0.012174061499536037, 0.41217923164367676, -0.16965118050575256, -0.24485470354557037, 0.03972728177905083, -0.01955653354525566, 0.05250541865825653, -0.06368778645992279, 1.0360842943191528], [-0.11547119915485382, 0.08557859063148499, -0.32265663146972656, 0.022068016231060028, 0.026503251865506172, -0.024588875472545624, -0.3835974335670471, -0.09423535317182541, -0.06585373729467392, 0.7686758637428284, 0.2780395448207855, -0.03137781843543053, 0.030236907303333282, -0.1329474300146103, -0.005154857877641916, 0.005044219084084034, 0.18283973634243011, 0.4048049747943878, -0.20025423169136047, 0.4859641194343567, -0.1031123623251915, 0.10680834203958511, 0.26483067870140076, 0.210126131772995, -0.0967496708035469, -0.2818197011947632, -0.06877774000167847, -0.14084595441818237, 0.357570081949234, -0.036924734711647034, -0.5414698123931885, 0.024239400401711464, -0.22230017185211182, -0.1618940383195877, -0.34972646832466125, 0.011447220109403133, -0.028001856058835983, -0.05687767639756203, 0.06687195599079132, -0.12550976872444153], [-0.020060406997799873, -0.07292485237121582, -0.21561241149902344, -0.07535230368375778, -0.03772402182221413, -0.135545015335083, 0.2184905707836151, -0.9694567918777466, -0.04216287285089493, 0.1043502539396286, 0.12808853387832642, 0.10913855582475662, 0.6891130208969116, -0.5840706825256348, -0.26086175441741943, -0.02742675319314003, -0.034531496465206146, 0.2668399512767792, 0.24696746468544006, -0.05323315039277077, -0.01675467938184738, 0.013652323745191097, -0.027573255822062492, -0.06455696374177933, 0.11286027729511261, 0.5178685784339905, -0.2507345676422119, 0.1298777312040329, 0.17892581224441528, -0.07691322267055511, 0.32833972573280334, -0.0021136694122105837, -0.03500303626060486, 0.05118291452527046, 0.02097426913678646, -0.011140989139676094, 0.16327396035194397, -0.020784499123692513, -0.0033125400077551603, 0.08901272714138031], [0.3987947106361389, 0.054207976907491684, 0.35334867238998413, 0.022502126172184944, 0.31075355410575867, -0.0392577238380909, 0.009955372661352158, -0.21178686618804932, 0.14798550307750702, 0.04289664700627327, 0.2227676808834076, -0.007704960647970438, -0.04024115949869156, -0.04787034913897514, 0.37888988852500916, -0.5878297686576843, -0.1255139708518982, -0.056397393345832825, 0.03117179498076439, -0.07127635180950165, 0.2034904807806015, 0.0616753026843071, 0.17061647772789001, 0.34946054220199585, 0.1878531575202942, 0.03882681950926781, -0.06264515966176987, 0.15182064473628998, 0.055981315672397614, -0.24850334227085114, -0.026707392185926437, 0.021877402439713478, 0.0016202146653085947, 0.12267821282148361, -0.14393463730812073, 0.21330921351909637, 0.07260366529226303, 0.13637088239192963, -0.1084986999630928, -0.11694947630167007], [-0.4174860715866089, -0.08209902793169022, -0.39708074927330017, 0.34577950835227966, 1.8575917482376099, 0.051706042140722275, 0.031585920602083206, -0.16053305566310883, 0.13723301887512207, 0.08873893320560455, -0.08430040627717972, 0.005610048770904541, -0.0408608615398407, -0.012645009905099869, 0.2494666874408722, 0.2527756094932556, 0.10691380500793457, 0.09821160137653351, 0.06862412393093109, -0.5547818541526794, 0.4410649240016937, -0.09376087039709091, -0.056521475315093994, 0.2981017231941223, 0.2365996390581131, -0.08371083438396454, -0.017667658627033234, -0.24961113929748535, -0.34194517135620117, -0.022703522816300392, 0.0736333355307579, -0.09245389699935913, 0.2757954001426697, -0.4111885726451874, -0.29497575759887695, 3.0488228797912598, -0.07753191143274307, -0.14603224396705627, 0.13195805251598358, -0.04060935601592064], [-0.05494343116879463, 0.03466895967721939, 0.3302575647830963, 0.009911063127219677, -0.0885751023888588, -0.13903029263019562, -0.014916320331394672, 0.20220263302326202, -0.04729941114783287, 0.14197562634944916, -0.12881383299827576, -0.004728031810373068, 0.0298241525888443, -0.08962580561637878, -0.09124945104122162, -0.09790106862783432, 0.3633982837200165, 0.09884203970432281, 0.09297087788581848, 0.11927508562803268, 0.059860046952962875, -0.017649399116635323, 0.08108781278133392, -0.24931098520755768, 0.09649546444416046, -0.025668900460004807, 0.09350142627954483, 0.07959446310997009, 0.11747906357049942, 0.034520864486694336, 0.09996797889471054, 0.10548480600118637, -0.12177316844463348, 0.15791907906532288, 0.05046917125582695, -0.120877705514431, -0.11545246839523315, -0.03431430459022522, 0.0021584578789770603, 0.056078631430864334], [0.010510668158531189, -0.05373212695121765, 0.03694728761911392, -0.01936466060578823, -0.05535845458507538, 0.04467541351914406, -0.04363158345222473, -0.09667136520147324, -0.4210394322872162, -0.16448207199573517, 0.10098842531442642, 0.03303450718522072, -0.27412816882133484, -0.20765486359596252, -0.07197695970535278, -0.1801866590976715, 0.1417170614004135, 0.09179497510194778, -0.11337561160326004, -0.33467626571655273, 0.20575203001499176, 0.04318946972489357, -0.1801501214504242, -0.025528432801365852, -0.1819601207971573, -0.005909154657274485, -0.2676660418510437, -0.006124674808233976, 0.25331974029541016, 0.21066030859947205, -0.6409382224082947, -0.015674419701099396, -0.12712286412715912, -0.16153429448604584, 0.5830854177474976, 0.03935430943965912, -0.40002235770225525, -0.06403883546590805, -0.2982070744037628, 0.09597446769475937], [-0.027696607634425163, -0.7136240005493164, 0.03656923398375511, 0.06341231614351273, -0.06600823253393173, 0.01968582347035408, -0.07698933035135269, -0.2013382762670517, -0.06814762204885483, -0.05977535620331764, 0.34275364875793457, 0.13635338842868805, 0.08253569900989532, -0.20023797452449799, 0.04088990017771721, -0.008767224848270416, 0.07699379324913025, -0.1278778612613678, -0.0604325607419014, 0.05283580720424652, 0.13468341529369354, -0.3268465995788574, 0.06384694576263428, -0.17334769666194916, -0.022211499512195587, -0.21703287959098816, -0.11194586753845215, 0.06833083927631378, -0.12098792940378189, -0.1811859905719757, -0.10707315802574158, 0.12291878461837769, -0.32065144181251526, 0.15058478713035583, -0.09861891716718674, 0.039273396134376526, -0.2139030247926712, -0.11716771125793457, -0.0335296094417572, 0.32375290989875793], [-0.10953409224748611, 0.03314303979277611, 0.06630434840917587, -0.14253725111484528, 0.48661288619041443, -0.061934079974889755, 0.002902404870837927, -0.046660564839839935, 0.32747331261634827, 0.06593062728643417, -0.08866064995527267, -0.11987035721540451, -0.3328704535961151, -0.02278124913573265, 0.007678194437175989, 0.07358718663454056, 0.03816522657871246, 0.39057400822639465, 0.007938247174024582, -0.3086714446544647, -0.19388002157211304, -0.14679720997810364, 0.11061616241931915, -0.30390700697898865, 0.5871444344520569, -0.020592762157320976, 0.4272392690181732, -0.11063889414072037, 0.7474976181983948, 0.036666370928287506, 0.027727490290999413, 0.06422361731529236, -0.023287508636713028, -0.25316205620765686, 0.06072103604674339, -0.4444758892059326, 0.6068985462188721, -0.11218030750751495, -0.2562814950942993, 0.035090312361717224], [0.07449635863304138, -0.0544721856713295, 0.21907098591327667, -0.16898009181022644, -0.45074495673179626, -0.04708121716976166, -0.051414165645837784, 0.009612206369638443, -0.3086405396461487, -0.18670570850372314, 0.14804625511169434, 0.031556159257888794, 0.031222911551594734, -0.0835467278957367, -0.07456148415803909, 0.596369743347168, 0.07279568910598755, -0.12337978184223175, 0.03397209942340851, 0.20938967168331146, 0.32344016432762146, 0.0564393550157547, -0.23439164459705353, -0.22302401065826416, 0.10483501851558685, -0.07510241121053696, -0.2569507956504822, 0.014119494706392288, 0.042842328548431396, 0.053749699145555496, -0.10449343174695969, 0.06225750222802162, 0.04034166410565376, -0.05608876422047615, 0.057834625244140625, -0.29838207364082336, 0.0019044458167627454, -0.15360519289970398, 0.12176702916622162, -0.10964888334274292], [0.16021019220352173, 0.12237586826086044, 0.01975064165890217, 0.07615899294614792, 0.09319890290498734, 0.08138585835695267, -0.05827055498957634, -0.07708079367876053, 0.04475158080458641, 0.25102299451828003, 0.06822708249092102, 0.03310646116733551, 0.19841288030147552, -0.1546267867088318, -0.07598535716533661, 0.006363503634929657, -0.08014828711748123, -0.020810764282941818, 0.26391589641571045, -0.11918402463197708, 0.00943603552877903, 0.3069172203540802, -0.04083044081926346, -0.07955627143383026, 0.24233892560005188, -0.05302295461297035, -0.17998050153255463, 0.097965769469738, 0.07565444707870483, -0.17298993468284607, 0.14553068578243256, 0.01789657585322857, 0.021030085161328316, 0.4729706048965454, 0.40948349237442017, 0.015892760828137398, 0.15962545573711395, 0.19687990844249725, -0.05714533105492592, -0.1706186830997467], [-0.04011912643909454, -0.06643825024366379, 0.04365188628435135, -0.06999467313289642, 0.023103788495063782, -0.07544728368520737, 0.18422624468803406, 0.21573176980018616, -0.0697113424539566, 0.5504112839698792, -0.4862748384475708, 0.10826708376407623, 0.10732118040323257, 0.10510595142841339, 0.06624799966812134, -0.11386366188526154, -0.0005447592120617628, -0.3977150321006775, 0.1687871217727661, 0.046153631061315536, 0.171285480260849, 0.0386541448533535, 0.35594069957733154, -0.19585810601711273, -0.11597928404808044, 0.2099030762910843, 0.03815513849258423, -0.0996781513094902, -0.0640861988067627, -0.21875494718551636, -0.0151290912181139, -0.0839313417673111, 0.25855734944343567, -0.004557788372039795, 0.7062702775001526, 0.09819799661636353, 0.07044588029384613, -0.029487406834959984, -0.009527991525828838, 0.18445175886154175], [0.08727703988552094, 0.022386547178030014, -0.1676308810710907, -0.1686941534280777, -0.048388563096523285, -0.04976443946361542, 0.012536668218672276, -0.22752827405929565, -0.01054470520466566, -0.013203813694417477, -0.03711434453725815, 0.21014364063739777, -0.07162553071975708, -0.12607422471046448, -0.016512416303157806, 0.07467588037252426, -0.04322398826479912, -0.20600466430187225, 0.19426672160625458, 0.446494996547699, -0.11244704574346542, 0.059929024428129196, -0.28010937571525574, -0.04747023433446884, -0.24933992326259613, -0.002566184848546982, -0.6323205828666687, -0.07424051314592361, 0.2704937756061554, 0.020823711529374123, -0.2941226363182068, -0.07971940189599991, 0.03050137683749199, 0.02269434742629528, 1.0490232706069946, 0.08789455890655518, 0.2717246115207672, -0.009421870112419128, 0.27451521158218384, -0.22841960191726685], [0.09062116593122482, 0.0071535613387823105, 0.08498524874448776, 0.40365058183670044, 0.14562088251113892, 0.002812896389514208, 0.04577288776636124, -0.007305625360459089, -0.3681359887123108, -0.05014009773731232, -0.009697002358734608, 0.03954508900642395, -0.002957382472231984, 0.09706706553697586, 0.15731583535671234, -1.1528555154800415, -0.08915535360574722, 0.05165748670697212, -0.09106479585170746, -0.002670104382559657, 0.23308581113815308, -0.008178217336535454, 0.12100294232368469, 0.1641121357679367, 0.4746389091014862, -0.06434386223554611, -0.2541956603527069, 0.059636037796735764, -0.21450360119342804, -0.20460157096385956, -0.0626240223646164, 0.041268765926361084, -0.08451052010059357, -0.007107253186404705, -0.07219858467578888, 0.06697169691324234, -0.34019285440444946, 0.1413009613752365, 0.027195435017347336, -0.134817436337471], [-0.009851277805864811, 0.22793607413768768, 0.042001839727163315, -0.01650388352572918, 0.03517627343535423, -0.010357152670621872, -0.8178253173828125, 0.10330834984779358, -0.021082336083054543, -0.19110138714313507, 0.10379301756620407, -1.3442782163619995, 0.7188092470169067, 0.09615237265825272, -0.04011043533682823, 0.004500001668930054, 0.07412683963775635, 0.06761549413204193, 0.018274346366524696, -0.023513589054346085, 0.03510605916380882, -0.16473165154457092, -0.28234022855758667, -0.14216087758541107, -0.01809929497539997, 0.10220076143741608, -0.2095818817615509, -0.15860174596309662, -0.07109151035547256, -0.14707349240779877, 0.4078158140182495, 0.06965433061122894, -0.12058845907449722, 0.12178021669387817, 0.7726078033447266, 0.004331439733505249, 0.056668709963560104, 0.07655268162488937, 0.07373868674039841, -0.04935195669531822], [0.03239207714796066, 0.05121160298585892, -0.171610027551651, 0.237794890999794, -0.05898762866854668, -0.039600715041160583, 0.37752044200897217, -0.18912039697170258, -0.24650032818317413, 0.053126510232686996, 0.00510794622823596, 0.2383376508951187, 0.020195048302412033, -0.13246411085128784, -0.0389704704284668, 0.006300782319158316, -0.029028059914708138, 0.4377600848674774, 0.21245510876178741, 0.1679762452840805, 0.02254430204629898, -0.10700929164886475, 0.06074387580156326, 0.3685676157474518, 0.19933252036571503, 0.3603922724723816, -0.3144037425518036, -0.40558871626853943, -0.47609975934028625, -0.22277866303920746, 0.3410816192626953, 0.030644090846180916, -0.0096001410856843, 0.22759544849395752, 0.37364792823791504, 0.16662846505641937, -0.13992060720920563, 0.2211298942565918, 0.08842062205076218, -0.21670624613761902], [0.24020886421203613, -0.015546760521829128, 0.3019710183143616, -0.12680481374263763, -0.004349021706730127, 0.018642066046595573, -0.03450924903154373, 0.2095448076725006, -0.047075096517801285, 0.09165095537900925, 0.18261870741844177, -0.41993436217308044, 0.09725788235664368, 0.2788258492946625, 0.31641101837158203, 0.04086173698306084, -0.1022576168179512, 0.12259875982999802, -0.009044364094734192, -0.12870696187019348, 0.09493164718151093, 0.24561601877212524, -0.11899803578853607, 0.2444997876882553, 0.3683217763900757, -0.14093150198459625, 0.43070530891418457, -0.19261690974235535, -0.37338122725486755, 0.034004077315330505, 0.4192306697368622, 0.08970010280609131, -0.04382944479584694, 0.1359175741672516, -0.7986143231391907, -0.11917167156934738, 0.21487456560134888, 0.09392955899238586, 0.04468151181936264, 0.15826067328453064], [0.2760958671569824, 0.13682150840759277, 0.2950374186038971, 0.1871875822544098, -0.07428552210330963, -0.10018875449895859, 0.07095492631196976, -0.03811704367399216, 0.4224202334880829, 0.31586453318595886, 0.12568385899066925, -0.13373659551143646, 0.057472698390483856, -0.16047883033752441, 0.05748402699828148, 0.18030063807964325, -0.049608439207077026, 0.09733588248491287, 0.05149034783244133, -0.9449005722999573, 0.12042759358882904, -0.004800673108547926, 0.005586828570812941, 0.27254626154899597, 0.37887150049209595, 0.06865336745977402, 0.18840627372264862, -0.2202262282371521, -0.13501352071762085, 0.028746508061885834, -0.6361293792724609, 0.019132664427161217, 0.06633977591991425, 0.29527103900909424, -0.13404764235019684, -0.15840080380439758, -0.4192924499511719, -0.13010287284851074, -0.47762343287467957, 0.013671710155904293], [-0.0026341585908085108, 0.05589868500828743, -0.12839694321155548, 0.13932937383651733, 0.12668916583061218, 0.08977184444665909, 0.12634803354740143, -0.033420629799366, -0.058509521186351776, 0.15931810438632965, -0.2028699368238449, -0.019315170124173164, 0.08529578894376755, 0.013592046685516834, -0.036476004868745804, 0.0020541653502732515, 0.12668079137802124, -0.05212006717920303, 0.07198823243379593, -0.042689330875873566, -0.08084963262081146, -0.11678574979305267, 0.011828676797449589, 0.09268814325332642, 0.16814136505126953, 0.06381966173648834, 0.09308984875679016, -0.12412428110837936, -0.2965027093887329, 0.31804201006889343, -0.09029856324195862, 0.10537014901638031, 0.0869743600487709, -0.08520923554897308, 0.2397223860025406, -0.13134482502937317, 0.0499909482896328, -0.10816635191440582, 0.20337432622909546, 0.05447721481323242], [0.17894922196865082, 0.017927993088960648, 0.03492714837193489, 0.10049007833003998, 0.012498395517468452, 0.07754186540842056, -0.1440076380968094, -0.031927257776260376, 0.046545688062906265, -0.8742236495018005, 0.05949139595031738, 0.17106913030147552, 0.27958428859710693, 0.06140292063355446, 0.06684356182813644, 