{"model_data": {"model": "SimpleRNN", "input_size": 2, "skip": 1, "output_size": 1, "unit_type": "LSTM", "num_layers": 1, "hidden_size": 40, "bias_fl": true}, "state_dict": {"rec.weight_ih_l0": [[-0.0298685971647501, 0.41252315044403076], [-1.8096410713042133e-05, 7.200400432338938e-05], [-0.012637092731893063, 0.17962726950645447], [-0.029211929067969322, 0.2203340232372284], [0.016937604174017906, 0.16362759470939636], [-0.08875502645969391, -0.11659980565309525], [-0.29177746176719666, 0.06343279033899307], [-0.10312990099191666, 0.11038241535425186], [0.012097937054932117, -0.058310333639383316], [-2.7756159397540614e-05, 0.001152625773102045], [-0.0011784769594669342, -0.2019524723291397], [0.0056714992970228195, 0.049494460225105286], [0.1482309103012085, 0.06627293676137924], [0.08298631012439728, 0.08163411170244217], [-8.323134534293786e-05, 0.002349929651245475], [0.15492665767669678, -0.03854389116168022], [0.015269864350557327, 0.16975697875022888], [0.030371801927685738, 0.12975269556045532], [0.01941867545247078, 0.09879796952009201], [0.11193812638521194, -0.2206561267375946], [-0.24045157432556152, -0.18369117379188538], [0.009686640463769436, 0.3698773980140686], [0.11733642965555191, 0.11968827992677689], [0.028146060183644295, -0.6973267793655396], [0.12587469816207886, -0.12322402745485306], [0.02778245508670807, 0.11002634465694427], [-1.1964624718530104e-05, 0.00039244754589162767], [-0.09466058760881424, -0.10929172486066818], [-0.09360193461179733, 0.3105425536632538], [-2.9487264328054152e-05, 0.0012033757520839572], [0.08120060712099075, -0.10383277386426926], [-0.22198385000228882, 0.38965436816215515], [0.036495815962553024, 0.2939426302909851], [-0.021600063890218735, -0.41568708419799805], [-0.05805603414773941, 0.18556763231754303], [-2.6309829991078004e-05, 0.00028679874958470464], [-0.07712434232234955, 0.3571765422821045], [0.030385136604309082, 0.029421212151646614], [0.14621660113334656, -0.35939013957977295], [-0.07822830229997635, 0.21935081481933594], [0.11235068738460541, 0.24705632030963898], [-2.0307219529058784e-05, 0.00011371388245606795], [0.008203721605241299, -0.016996823251247406], [0.02822996862232685, 0.10271298140287399], [0.1459895670413971, -0.12177538126707077], [-0.08824985474348068, 0.18653111159801483], [0.11648807674646378, 0.12067435681819916], [-0.03998691588640213, 0.04103834182024002], [-0.19530032575130463, 0.17671020328998566], [-5.492668060469441e-05, 0.001948368502780795], [0.057511404156684875, 0.3037760257720947], [-0.002447957405820489, 0.09501415491104126], [0.23830406367778778, 0.035342879593372345], [0.12882930040359497, 0.046949271112680435], [-0.000149217652506195, 0.004130396991968155], [0.11219792068004608, 0.1889456808567047], [0.15749914944171906, -0.010761215351521969], [-0.06220003217458725, 0.12111850082874298], [0.05979768931865692, 0.21515090763568878], [0.3310394287109375, 0.3995495140552521], [0.12104932963848114, 0.37792134284973145], [0.025519641116261482, -0.00029442927916534245], [0.01867622137069702, 0.1840747594833374], [0.0896255373954773, 0.21551071107387543], [0.1708560436964035, 0.20180512964725494], [0.02862418070435524, 0.22475071251392365], [-2.3107582819648087e-05, 0.0006168944528326392], [-0.05539381876587868, 0.1433815062046051], [-0.22789266705513, 0.20757371187210083], [-5.779241109848954e-05, 0.0020380313508212566], [-0.008186680264770985, 0.2189701348543167], [0.201920285820961, 0.1649722456932068], [0.10387669503688812, 0.06604992598295212], [-0.1404261589050293, 0.5833936929702759], [-0.027398820966482162, 0.09922300279140472], [-3.302271943539381e-05, 0.00046697494690306485], [0.09679523855447769, 0.3102060556411743], [0.16551977396011353, 0.10954047739505768], [-0.21306639909744263, 0.47241127490997314], [-0.08798868954181671, -0.08888494223356247], [-0.06607642769813538, 0.7047630548477173], [0.001174112781882286, -0.00012348112068139017], [0.04355154559016228, 0.5158370733261108], [0.06634087860584259, -0.2515462636947632], [0.023871231824159622, 1.1701366901397705], [0.4488658010959625, 0.02767285518348217], [0.8197035193443298, -0.49570757150650024], [0.052781570702791214, -0.5486917495727539], [-1.0693539381027222, 0.03708842769265175], [0.005221731495112181, -0.002004948677495122], [-0.47255459427833557, 0.09546557813882828], [-0.06248421594500542, 0.21658702194690704], [-0.24584616720676422, -0.007190014701336622], [-0.0010867741657420993, 0.07984761148691177], [-0.006376645527780056, 0.0032760067842900753], [0.14785169064998627, -0.07911917567253113], [-0.3342527151107788, 0.09035123884677887], [-0.12660078704357147, -0.5593104958534241], [-0.06466524302959442, -0.21762420237064362], [0.10738370567560196, 0.15610255300998688], [-0.010876295156776905, -0.06120768561959267], [0.2623459994792938, -0.23979121446609497], [0.6918512582778931, -0.014505065977573395], [0.02387399598956108, -0.21001645922660828], [0.024063555523753166, 0.07353344559669495], [0.053765349090099335, -0.049549371004104614], [0.00395962642505765, -0.00048471969785168767], [0.15065088868141174, -0.1926012486219406], [-0.10208944976329803, 0.10973625630140305], [-0.005302734207361937, 0.002070522867143154], [0.2409009486436844, -0.09899810701608658], [2.586427927017212, -0.27824804186820984], [-0.2650600075721741, -0.0731595978140831], [0.1483580619096756, 0.38048380613327026], [-0.08713021874427795, -0.3499074876308441], [-0.0025127725675702095, 0.001074714702554047], [-0.2105816751718521, 0.38906165957450867], [-0.03316275775432587, 0.2369997799396515], [-0.32338401675224304, -0.09063313901424408], [0.023017695173621178, -0.2329246997833252], [-0.04289207607507706, 0.3535674810409546], [-2.0660219888668507e-05, 7.234491931740195e-05], [-0.09027616679668427, -0.07711800187826157], [-0.2573793828487396, 0.40319591760635376], [0.02186635695397854, 0.17690688371658325], [-0.01920294761657715, 0.19119836390018463], [0.03597715124487877, 0.18163549900054932], [0.5471474528312683, -0.11775348335504532], [-0.4959133267402649, 0.19186949729919434], [-7.402431947411969e-05, 0.0011575452517718077], [0.1440829485654831, 0.0865248441696167], [-0.8816415667533875, -0.31161990761756897], [0.38360458612442017, -0.05963945761322975], [0.08109048753976822, 0.08089753240346909], [-0.0001806435320759192, 0.0023594023659825325], [0.15188725292682648, 0.1252652108669281], [0.024672267958521843, 0.18791337311267853], [0.01642436534166336, 0.14369994401931763], [0.16778193414211273, 0.21119260787963867], [0.2550446093082428, 0.15856346487998962], [-0.18993481993675232, 0.22255012392997742], [0.05096001178026199, 0.3271790146827698], [0.12147922813892365, 0.04684623330831528], [0.04868931323289871, 0.06028718873858452], [0.4968683123588562, -0.11144393682479858], [0.1149728074669838, 0.2438010275363922], [-3.026281228812877e-05, 0.0003940774477086961], [0.053621742874383926, 0.09801210463047028], [-0.03969438374042511, 0.2882128357887268], [-7.756322884233668e-05, 0.001208498259074986], [-0.1133338212966919, 0.022285105660557747], [-0.13899949193000793, 0.2942020297050476], [0.012464882805943489, 0.3622649013996124], [0.3453078866004944, 0.06967566162347794], [0.28187862038612366, 0.2649711072444916], [-3.849553831969388e-05, 0.00028793749515898526], [0.008373417891561985, -0.3055058419704437], [0.2600424885749817, -0.24917322397232056], [-0.2038956582546234, 0.2769280672073364], [-0.1073235347867012, 0.22703176736831665]], "rec.weight_hh_l0": [[-0.23577706515789032, 0.00016836846771184355, 0.25096914172172546, 0.12395693361759186, 0.4199286997318268, 0.035432398319244385, 0.22024570405483246, -0.06255003809928894, 0.13092102110385895, 4.959608759236289e-06, -0.06217910721898079, 0.07897257059812546, -0.1770443469285965, 0.19895926117897034, 0.00010276792454533279, 0.24519769847393036, -0.07018084824085236, 0.006220596842467785, 0.2662429213523865, -0.12765175104141235, -0.0982048511505127, 0.15571901202201843, -0.027597693726420403, -0.25340306758880615, -0.21975238621234894, -0.461302787065506, 0.00021071384253446013, -0.09405412524938583, 0.10265397280454636, 6.980155262681365e-07, -0.08414950966835022, 0.045715056359767914, -0.01802758127450943, 0.28880587220191956, -0.1633424013853073, -0.0001295235997531563, -0.20088635385036469, 0.23061946034431458, -0.3742991089820862, -0.012926527298986912], [2.0881434465991333e-05, 3.862544062371853e-08, 1.2413620424922556e-05, 6.087181100156158e-05, -1.79833823494846e-05, 2.385559128015302e-06, 1.3723680240218528e-05, 6.82735480950214e-05, 5.9550569858402014e-05, 2.082337573483528e-07, -1.2798769603250548e-05, 7.187565643107519e-05, -7.318540156120434e-05, 3.194046439602971e-05, -3.3972111168623087e-07, 0.00012025877367705107, 5.076387878943933e-06, -1.1204061820535571e-06, 0.00012019742280244827, 3.478443613857962e-05, -4.9009915528586134e-05, -2.023039269261062e-05, -5.338291157386266e-05, 3.50749564859143e-06, -8.98998769116588e-05, -1.7175503671751358e-05, 1.0336245281905576e-07, -8.446370884485077e-06, -2.1981664758641273e-05, -2.1380260761816317e-07, -1.1528729373821989e-05, -1.5136973161133938e-05, -4.940536746289581e-05, 2.699551077967044e-05, 2.577513259893749e-05, -1.0201666356124406e-07, 6.834773103037151e-07, 6.624023808399215e-05, -9.959530871128663e-05, -4.4160296965856105e-06], [-0.026289407163858414, -0.0003807412285823375, -0.03217780962586403, 0.07112962007522583, -0.0005334700690582395, -0.015890561044216156, -0.03581930324435234, 0.12228803336620331, 0.11486989259719849, -0.0010195483919233084, -0.01024116575717926, 0.14107686281204224, -0.15312018990516663, 0.05003679171204567, 0.001557023380883038, 0.232406884431839, -0.021984998136758804, 0.08580373972654343, 0.24664905667304993, 0.047884464263916016, -0.12705296277999878, -0.015185855329036713, 0.03426963835954666, -0.04377135634422302, -0.16475681960582733, -0.1829005479812622, -0.0005263258935883641, -0.08773346990346909, -0.06628308445215225, 0.0010468631517142057, 0.0017755759181454778, -0.05981186404824257, -0.09822181612253189, 0.02012753300368786, 0.05249103158712387, 0.00044727406930178404, -0.1391938477754593, 0.12136346846818924, -0.19035685062408447, 0.024295197799801826], [0.04083074629306793, 0.00012861457071267068, 0.020445721223950386, 0.04249800741672516, 0.06560858339071274, -0.02451159432530403, -0.09259961545467377, -0.07586754113435745, 0.03067055530846119, 0.00043983288924209774, 0.021353110671043396, 0.13950134813785553, -0.08104909211397171, 0.11349347978830338, -0.000654617790132761, 0.17666780948638916, -0.008891263976693153, 0.05845341831445694, 0.15643887221813202, 0.09498843550682068, -0.11638560891151428, 0.04104681685566902, -0.014622500166296959, -0.05714373290538788, -0.11574334651231766, -0.16320106387138367, 0.0002678523596841842, -0.06195065379142761, -0.010817030444741249, -0.00044934111065231264, -0.021459970623254776, -0.057139430195093155, -0.01699770800769329, 0.10200231522321701, 0.048543959856033325, -0.00019754713866859674, 0.02263946272432804, 0.1294814795255661, -0.15834768116474152, 0.0042845457792282104], [-0.05540530011057854, 0.0003961352340411395, -0.030934501439332962, -0.08866436034440994, 0.0023467193823307753, 0.0029252939857542515, -0.032947298139333725, -0.037227239459753036, 0.07244522124528885, 0.0016491528367623687, 0.014199072495102882, 0.13021770119667053, -0.1004360169172287, 0.03587957099080086, -0.0023967642337083817, 0.217987522482872, 0.03754030913114548, 0.02156801149249077, 0.19252699613571167, 0.07654843479394913, -0.09715551882982254, 0.024457968771457672, -0.12463387101888657, -0.07025924324989319, -0.13617104291915894, 0.009642993099987507, 0.0008716308511793613, -0.036601364612579346, -0.14075760543346405, -0.001688935561105609, -0.02500610239803791, -0.08809059113264084, -0.06790962815284729, 0.07085886597633362, 0.10426083207130432, -0.000791946891695261, -0.033545367419719696, 0.10337920486927032, -0.19723547995090485, 0.018244989216327667], [-0.008837185800075531, 0.0010068098781630397, 0.05648886412382126, 0.12334499508142471, 0.24158284068107605, -0.014121867716312408, 0.09982909262180328, -0.06345009803771973, 0.21932366490364075, 0.003959891386330128, 0.10916111618280411, -0.18558548390865326, -0.13301779329776764, -0.15536870062351227, -0.005557406228035688, -0.22273172438144684, -0.04486097767949104, 0.019480636343359947, -0.19495396316051483, -0.1090473085641861, 0.027818754315376282, 0.2177131325006485, 0.04043072462081909, -0.12654869258403778, 0.11024245619773865, 0.026289451867341995, 0.002480581635609269, -0.025412267073988914, -0.23622789978981018, -0.004041075706481934, 0.023496577516198158, -0.23167039453983307, 0.05244045704603195, -0.10546644032001495, -0.19656242430210114, -0.0020294152200222015, -0.05162893980741501, -0.0004457607283256948, -0.29616931080818176, 0.022539420053362846], [0.06744124740362167, -6.77887728670612e-05, 0.0851171463727951, 0.04517107084393501, -0.07760115712881088, -0.06814460456371307, -0.08960007131099701, -0.000519821944180876, 0.08157330751419067, -0.0001447729446226731, -0.04762076213955879, 0.1633775234222412, -0.12968558073043823, 0.1420973390340805, 0.00030224863439798355, 0.15246351063251495, -0.0534292571246624, -0.0019866987131536007, 0.13085252046585083, 0.18782900273799896, -0.36775854229927063, 0.0818401649594307, -0.10869891941547394, 0.04306695982813835, -0.06573378294706345, -0.049636565148830414, -3.407260373933241e-05, 0.048854079097509384, 0.1095750704407692, 0.00015328686276916414, -0.02890857309103012, -0.07304339110851288, 4.356343561084941e-05, -0.041657716035842896, -0.001943884533829987, -4.0519276808481663e-05, 0.02251211553812027, 0.08649532496929169, -0.16436807811260223, 0.09896653145551682], [-0.040894173085689545, -6.714871233270969e-06, -0.030741021037101746, 0.034638404846191406, -0.02245432510972023, 0.007885110564529896, -0.0626019686460495, 0.03016415238380432, 0.03746231645345688, 0.00018865178572013974, -0.02602243609726429, 0.05635962262749672, -0.11036593466997147, 0.05406126007437706, -0.00030609554960392416, 0.10070215910673141, 0.012181815691292286, -0.042108163237571716, 0.05339957773685455, 0.07030199468135834, -0.08011308312416077, 0.09910494089126587, -0.06281768530607224, -0.06297361105680466, -0.06612323224544525, -0.03442929685115814, 3.2710937375668436e-05, 0.03178824856877327, 0.02557072415947914, -0.0001946460542967543, 0.01638004742562771, -0.04017891734838486, -0.007662277668714523, 0.04312613606452942, 0.00558121595531702, -0.00014366189134307206, 0.029302049428224564, 0.0909663513302803, -0.08751853555440903, -0.005073072854429483], [-0.12372495234012604, 0.0004646713787224144, -0.002617298159748316, 0.07654261589050293, -0.2154136300086975, -0.027438633143901825, -0.17964541912078857, 0.13265307247638702, -0.10266965627670288, 0.0024350581225007772, -0.009157773107290268, -0.002787744626402855, -0.2242264449596405, -0.17680497467517853, -0.003408549353480339, -0.0340590626001358, 0.07712284475564957, -0.04341159760951996, 0.003632075386121869, 0.08399581164121628, 0.08682837337255478, 0.08833345025777817, 0.10224661231040955, -0.020916353911161423, 0.10288883000612259, -0.049944452941417694, 0.001566886669024825, 0.008494218811392784, -0.06285001337528229, -0.0024757697246968746, 0.05613137409090996, -0.12120848149061203, 0.1246718242764473, -0.12295962870121002, 0.14427664875984192, -0.0012679682113230228, 0.09685900807380676, -0.04562883824110031, 0.02804703079164028, -0.09943775087594986], [0.000389437802368775, 6.786412427572941e-07, 0.00022509282280225307, 0.000978604075498879, -0.0002566708135418594, 0.00024852866772562265, 0.0002738961484283209, 0.0009660599171184003, 0.0008213268592953682, 2.8346728413453093e-06, -0.0001317141723120585, 0.0010982194216921926, -0.0011668684892356396, 0.0005760195199400187, -4.4140629142930266e-06, 0.0018686223775148392, 1.742798849591054e-05, -4.5871667680330575e-05, 0.0018598075257614255, 0.0006031792145222425, -0.0007224471191875637, -0.00020065471471752971, -0.0008409636793658137, 7.692970029893331e-06, -0.0013885041698813438, -0.0003196670731995255, 1.5461688462892198e-06, -6.978385499678552e-05, -0.0002821965317707509, -2.903687345678918e-06, -0.00017514394130557775, -0.000176545450813137, -0.0007204272551462054, 0.0004949146532453597, 0.0003358462417963892, -1.5375826478702947e-06, 0.00026818798505701125, 0.0011244213674217463, -0.0015620804624632, -3.907366772182286e-05], [0.07002831250429153, -0.0015077546704560518, -0.013073191978037357, 3.81964237021748e-05, 0.02981828711926937, -0.20072071254253387, -0.06739567220211029, -0.05431651696562767, -0.007111801765859127, -0.004872656427323818, 0.02379143051803112, -0.14270161092281342, -0.036045294255018234, -0.06198634207248688, 0.007170927245169878, -0.39938634634017944, 0.10662099719047546, 0.04807879403233528, -0.35721126198768616, -0.11359836161136627, 0.009699908085167408, 0.046944450587034225, 0.3829778730869293, 0.0331973060965538, 0.28489014506340027, 0.008861551992595196, -0.002641274593770504, 0.037820469588041306, 0.10762593895196915, 0.00499342568218708, 0.12934911251068115, -0.1331517994403839, 0.08815538883209229, -0.1463814079761505, -0.06609102338552475, 0.0023164721205830574, 0.0812104269862175, -0.24935263395309448, 0.3157377541065216, 0.032429005950689316], [0.034619927406311035, 0.00012275431072339416, -0.022594012320041656, 0.028133591637015343, -0.05024302378296852, 0.036470022052526474, -0.010891573503613472, 0.047501031309366226, 0.008890414610505104, 0.000708862382452935, 0.008441980928182602, 0.05902785062789917, -0.07222301512956619, 0.00572129525244236, -0.0010359702864661813, 0.08507717400789261, -0.006217916030436754, -0.010439752601087093, 0.05828052759170532, 0.03249243646860123, -0.05931598320603371, 0.043993327766656876, -0.017844993621110916, -0.007888170890510082, -0.06696746498346329, 0.05156852304935455, 0.00036159358569420874, 0.0038467624690383673, -0.04108695685863495, -0.0007260107668116689, -0.02865126170217991, -0.028284190222620964, -0.05381683632731438, 0.002352484967559576, 0.055148154497146606, -0.0003471280506346375, 0.012350773438811302, 0.06913884729146957, -0.0768754631280899, 0.013615669682621956], [0.07196464389562607, 0.00020960367692168802, 0.04563174769282341, 0.0200646985322237, -0.051609836518764496, -0.0692785307765007, 0.019010530784726143, 0.06220779940485954, -0.029841793701052666, 0.001206525368615985, -0.02451504021883011, 0.08442140370607376, -0.021804697811603546, 0.0457448773086071, -0.0017104921862483025, 0.15481755137443542, -0.0247244443744421, -0.0015393681824207306, 0.16067147254943848, 0.13751143217086792, -0.06704705953598022, -0.03809880465269089, 0.025150742381811142, 0.0007897404138930142, -0.08855035901069641, 0.02765350416302681, 0.0006701417732983828, -0.0016659728717058897, 0.07399068027734756, -0.0012320289388298988, 0.03339069336652756, 0.016332194209098816, -0.08335211873054504, 0.04055764526128769, 0.07331055402755737, -0.0005966227035969496, 0.06465914100408554, 0.08759704232215881, -0.061404284089803696, 0.05305078253149986], [-0.023880328983068466, 0.0004182265547569841, -0.047900520265102386, 0.011392966844141483, -0.004622557200491428, 0.0542696975171566, -0.1115066185593605, 0.030526969581842422, 0.01899237185716629, 0.0020788568072021008, -0.036685407161712646, 0.029776155948638916, -0.21179768443107605, 0.023939216509461403, -0.003139785723760724, 0.12851153314113617, -0.07595992088317871, -0.04382963478565216, 0.10005895793437958, 0.0768100842833519, 0.025892889127135277, 0.1100286990404129, 0.009659686125814915, -0.09584667533636093, -0.14270496368408203, 0.05970430374145508, 0.0011748402612283826, 0.049949467182159424, -0.08785324543714523, -0.0021280639339238405, -0.0009323639096692204, -0.018045127391815186, -0.11022447049617767, 0.007959232665598392, 0.15178164839744568, -0.0010034737642854452, 0.08078822493553162, 0.14501294493675232, 0.0013694538502022624, -0.02086515910923481], [0.0008386789704672992, 1.7193211760968552e-06, 0.0005005215061828494, 0.002022465458139777, -0.0005568460328504443, 0.0005092985811643302, 0.0005536652752198279, 0.0020248843356966972, 0.0017308994429185987, 6.339651463349583e-06, -0.00029311657999642193, 0.0022757158149033785, -0.002414638176560402, 0.0011483518173918128, -9.226017937180586e-06, 0.0038368813693523407, 4.658188845496625e-05, -0.00010537338675931096, 0.0038158369716256857, 0.0012488777283579111, -0.0015034882817417383, -0.00040594610618427396, -0.0017577065154910088, 2.4411188860540278e-05, -0.0028775555547326803, -0.0006051236414350569, 3.7736301692348206e-06, -0.00011159019049955532, -0.0006301034009084105, -6.47210436000023e-06, -0.00037272804183885455, -0.0003840372373815626, -0.0015138705493882298, 0.0010039928602054715, 0.000733644119463861, -3.6732544685946777e-06, 0.0006812495412304997, 0.0023557867389172316, -0.003242247272282839, -5.480570689542219e-05], [0.11914349347352982, -2.7894166123587638e-05, 0.02958441898226738, -0.04340817406773567, -0.08186712116003036, -0.0031812903471291065, 0.1413099616765976, -0.0066054267808794975, -0.10649187862873077, 0.0004757787100970745, -0.00815302599221468, -0.02340805158019066, -0.0016953737940639257, -0.0013792371610179543, -0.0006842500297352672, 0.11307751387357712, -0.004426892846822739, -0.0099941436201334, -0.003079756163060665, 0.11336184293031693, 0.10245708376169205, -0.040952008217573166, 0.027163246646523476, 0.12851502001285553, 0.04888346791267395, 0.035968225449323654, 0.0001661178976064548, -0.006503396201878786, -0.044292427599430084, -0.000488039426272735, -0.019880402833223343, 0.014291935600340366, -0.035100292414426804, -0.017744995653629303, 0.050281018018722534, -8.053645433392376e-05, 0.0660034567117691, -0.010063672438263893, 0.06208118423819542, 0.003408597083762288], [0.027864420786499977, -1.2832233551307581e-05, -0.036489591002464294, -0.04662618413567543, -0.1467830389738083, 0.06320076435804367, 0.07344459742307663, -0.04374868795275688, 0.1122409850358963, 0.0003059963637497276, -0.0006665253895334899, 0.1961650848388672, -0.13861986994743347, 0.026887180283665657, -0.00043888521031476557, 0.32906830310821533, -0.035829849541187286, 0.005338625982403755, 0.33798545598983765, 0.04798295721411705, -0.10910674184560776, -0.008932037279009819, -0.09386875480413437, 0.03663681447505951, -0.257413387298584, 0.05114461109042168, 0.00016737182158976793, 0.03247253596782684, -0.04091930761933327, -0.00031291143386624753, -0.04511300474405289, -0.004109501373022795, -0.050384461879730225, 0.02552947774529457, 0.17695137858390808, -0.00012802676064893603, -0.0460897758603096, 0.15395548939704895, -0.2911050319671631, 0.08193691819906235], [0.057132672518491745, 0.00010898390610236675, -0.0759148895740509, 0.10535386204719543, -0.14122901856899261, 0.01132188830524683, 0.020144887268543243, 0.15061789751052856, 0.09990080446004868, 0.0007883366197347641, -0.013557041995227337, 0.17285849153995514, -0.1735825091600418, 0.07234805822372437, -0.00117763492744416, 0.27618110179901123, -0.03218976780772209, -0.003941101487725973, 0.29442575573921204, 0.13744740188121796, -0.12513715028762817, -0.043502077460289, -0.09221131354570389, 0.001289390493184328, -0.20827695727348328, -0.06529736518859863, 0.0004845792427659035, -0.017920564860105515, -0.031694721430540085, -0.0008059004321694374, -0.02213633432984352, -0.03828684613108635, -0.15741680562496185, 0.01567895896732807, 0.08507061749696732, -0.00036855079815723, -0.0831540897488594, 0.1436898410320282, -0.21291883289813995, -0.003977769985795021], [0.024057511240243912, 4.146380160818808e-05, -0.005516430828720331, 0.03645753487944603, 0.003986899275332689, 0.03601096197962761, -0.0054503572173416615, 0.021540770307183266, 0.018180349841713905, 0.0004007438838016242, 0.0013615792850032449, 0.055467911064624786, -0.05821918696165085, 0.0018748139264062047, -0.0005738462787121534, 0.08511664718389511, -0.0034017169382423162, -2.1593008568743244e-05, 0.04614407196640968, 0.04226313903927803, -0.04182460531592369, 0.02090168185532093, -0.03577564284205437, -0.007970690727233887, -0.056095022708177567, -0.0049149999395012856, 0.00019941225764341652, 0.014410396106541157, -0.04985836520791054, -0.00041008697007782757, -0.008584490045905113, -0.02500382997095585, -0.041293852031230927, 0.01891086995601654, 0.013131974264979362, -0.00020601936557795852, 0.043743375688791275, 0.06465557217597961, -0.08200263977050781, 0.004986552521586418], [-0.1186094805598259, 0.0008876703795976937, -0.018082184717059135, 0.045808449387550354, -0.02101200446486473, -0.25660964846611023, 0.28919944167137146, -0.03661447763442993, -0.37359970808029175, 0.003549430286511779, 0.046048350632190704, -0.3951420187950134, 0.264294296503067, -0.08884981274604797, -0.004950439091771841, -0.6691421270370483, 0.05152161046862602, 0.11519720405340195, -0.4438970386981964, -0.10178054869174957, -0.11018580943346024, 0.04591262713074684, 0.2697029709815979, -0.03707846999168396, 0.43026623129844666, -0.014369724318385124, 0.0019668617751449347, -0.04821108281612396, 0.23878955841064453, -0.003631257452070713, -0.01286743488162756, -0.27446335554122925, 0.08182138204574585, -0.18171457946300507, -0.0003169642877765, -0.001563515979796648, 0.06014370173215866, -0.09598300606012344, 0.0029793232679367065, -0.0029325957875698805], [-0.048391539603471756, -0.0005349441198632121, -0.023117421194911003, 0.15649846196174622, 0.1652376800775528, 0.4555380940437317, -0.07776667922735214, -0.18622656166553497, -0.1743297129869461, -0.003259324934333563, -0.02110745757818222, -0.4087335467338562, 0.8199259638786316, -0.45758533477783203, 0.004890616051852703, -0.6307706832885742, -0.1066562607884407, -0.03153209015727043, -0.4986032247543335, -0.17508108913898468, -0.4500568211078644, -0.04333672672510147, 0.40196624398231506, -0.26478326320648193, 0.4971928596496582, -0.009512405842542648, -0.0016778719145804644, 0.04860342666506767, -0.07616180926561356, 0.003339193295687437, -0.06943592429161072, 0.007940840907394886, -0.16032922267913818, -0.1853821873664856, -0.018188998103141785, 0.0013403352349996567, -0.038365770131349564, -0.17677192389965057, -0.2101694494485855, 0.001665028277784586], [-0.06701052188873291, 2.3468546714866534e-05, 0.03310906141996384, 0.07776638865470886, 0.19084088504314423, 0.00940880086272955, -0.0060633085668087006, -0.06859931349754333, 0.1297742873430252, 0.0005095249507576227, 0.03832961246371269, 0.13430629670619965, -0.18504999577999115, 0.17687252163887024, -0.0007386406068690121, 0.24696467816829681, -0.014427886344492435, 0.02500426582992077, 0.2817852199077606, 0.13606803119182587, -0.11694104224443436, 0.05410616099834442, 0.0392414927482605, -0.1042831763625145, -0.16977636516094208, -0.43045368790626526, 0.00036008268943987787, 0.006756558548659086, 0.08134984970092773, -0.0005182027816772461, 0.01631900854408741, -0.006646485533565283, -0.04037563130259514, 0.15031757950782776, -0.06482779234647751, -0.00034208863507956266, 0.030363144353032112, 0.1270265132188797, -0.19072069227695465, 0.04237021505832672], [0.05401088297367096, 0.00038875066093169153, -0.016308855265378952, 0.07132360339164734, -0.05838527902960777, 0.02287592552602291, 0.00246990192681551, 0.029571009799838066, -0.09332313388586044, 0.0019425785867497325, -0.01782076060771942, 0.050276074558496475, -0.07270187139511108, 0.03407729044556618, -0.0028076302260160446, 0.1495083123445511, -0.0659625381231308, -0.03203597664833069, 0.13384543359279633, 0.12680745124816895, -0.003440474160015583, 0.04821634292602539, 0.05984826758503914, -0.016835957765579224, -0.08681093901395798, 0.0017176652327179909, 0.0010804065968841314, 0.016020920127630234, -0.002355884062126279, -0.001987422350794077, 0.018143484368920326, -0.006657498423010111, -0.0643642470240593, 0.041010141372680664, 0.045712050050497055, -0.0008825513068586588, 0.0612027682363987, 0.12872453033924103, -0.07527528703212738, 0.043635182082653046], [0.07128595560789108, -0.00018269434804096818, -0.3598473072052002, 0.17662112414836884, -0.2718537747859955, -0.11628274619579315, -0.023288188502192497, 0.18359006941318512, 0.12431135028600693, 0.0007500459905713797, 0.055867452174425125, 0.07920922338962555, 0.12331563234329224, -0.30382412672042847, -0.0011028170119971037, -0.12186909466981888, 0.0773543193936348, 0.12567324936389923, -0.05463573336601257, -0.18271195888519287, 0.10554488003253937, 0.07870686054229736, 0.2089615911245346, 0.021577486768364906, 0.07620708644390106, 0.07950802892446518, 0.0004931074217893183, 0.034734275192022324, -0.057482410222291946, -0.0007677681860513985, -0.03713062033057213, -0.10774452984333038, -0.15362173318862915, -0.22977988421916962, 0.18118047714233398, -8.785966201685369e-05, -0.034969642758369446, -0.07686561346054077, -0.11476518958806992, -0.06082213297486305], [-0.10225376486778259, -0.00019113787857349962, 0.0007999615627340972, -0.10638689994812012, -0.0031900317408144474, 0.2214290201663971, 0.2080690860748291, -0.05860722437500954, 0.09769036620855331, -0.0008647817885503173, -0.05509354919195175, -0.10510741919279099, 0.061765171587467194, -0.0366327278316021, 0.0011090852785855532, -0.10841328650712967, 0.02924400009214878, -0.05039053410291672, -0.13073822855949402, -0.23668129742145538, 0.1138998493552208, 0.03785150125622749, 0.047485336661338806, 0.013275954872369766, 0.009988710284233093, 0.053164973855018616, -0.0006376004894264042, -0.03258694335818291, 0.03954628109931946, 0.000873769517056644, -0.11153429001569748, 0.14392328262329102, 0.0294808279722929, -0.08100245147943497, -0.059535685926675797, 0.0005349246202968061, -0.007245124317705631, -0.10072609037160873, 0.1723552644252777, 0.002438418800011277], [0.060836710035800934, 9.7524760349188e-05, 0.04466938227415085, 0.007658751215785742, 0.02302420139312744, 0.021838374435901642, -0.04347824677824974, -0.004553586710244417, -0.0034987085964530706, 0.00045181220048107207, 0.029658835381269455, 0.06981248408555984, -0.04393097013235092, 0.0020105333533138037, -0.0006966091459617019, 0.09787062555551529, 0.02443409524857998, 0.018400421366095543, 0.05766696482896805, 0.03172978386282921, -0.06470707058906555, -0.015879519283771515, -0.049932826310396194, -0.030704665929079056, -0.05623049661517143, 0.012344768270850182, 0.00022946574608795345, -0.03883775696158409, -0.039448872208595276, -0.0004639004764612764, -0.020060257986187935, 0.014799358323216438, -0.02574354037642479, 0.047525424510240555, 0.013358145020902157, -0.00018359064415562898, 0.057850148528814316, 0.06468383967876434, -0.0914495587348938, 0.007117527071386576], [0.00011475288192741573, 1.8526496603499254e-07, 7.124993862817064e-05, 0.00032743383781053126, -7.854365685489029e-05, 7.17922011972405e-05, 9.490361117059365e-05, 0.0003135063743684441, 0.00026612437795847654, 8.764894801061018e-07, -4.592765981215052e-05, 0.0003655834880191833, -0.00038840173510834575, 0.00020880982629023492, -1.4515313750962378e-06, 0.0006267146673053503, 1.110111679736292e-05, -1.5542054825345986e-05, 0.0006234285538084805, 0.00020508111629169434, -0.00024306506384164095, -7.501652726205066e-05, -0.00027569601661525667, 1.443517589905241e-06, -0.00046488744555972517, -0.00012020447320537642, 4.3852980979863787e-07, -3.0460701964329928e-05, -7.92712380643934e-05, -9.00532882042171e-07, -6.04580418439582e-05, -5.5786018492653966e-05, -0.0002377089112997055, 0.00017238307918887585, 0.00010320838919142261, -4.4421599909583165e-07, 6.0515561926877126e-05, 0.0003714660124387592, -0.0005171069642528892, -2.1168547391425818e-05], [-0.04579081013798714, -0.0004900463973172009, -0.04467405751347542, -0.045869871973991394, -0.04161088913679123, -0.026080463081598282, -0.07710788398981094, -0.14350435137748718, 0.054507918655872345, -0.002127132611349225, 0.06297141313552856, -0.004464993253350258, 0.06482478976249695, 0.04281005635857582, 0.0031145885586738586, -0.10742008686065674, 0.015896989032626152, 0.017021169885993004, -0.06601881235837936, -0.0666651800274849, 0.05640783533453941, 0.015838641673326492, 0.15767641365528107, 0.09322076290845871, 0.056627850979566574, 0.027309833094477654, -0.0012631405843421817, -0.010174279101192951, 0.03972455486655235, 0.002175139496102929, -0.03228200227022171, -0.02175067737698555, 0.019342271611094475, -0.04259764403104782, -0.014668144285678864, 0.0009950866224244237, -0.09647630155086517, -0.05479959398508072, 0.04051671549677849, -0.024978334084153175], [0.024245940148830414, -0.00018167791131418198, 0.010842544957995415, 0.11982351541519165, 0.07951555401086807, 0.003213067539036274, -0.163096085190773, 0.03553476184606552, 0.09755368530750275, -0.0006764038116671145, -0.026089806109666824, 0.17581512033939362, -0.24607238173484802, 0.1899205893278122, 0.0008915323414839804, 0.28970080614089966, -0.01111531164497137, 0.00021493094391189516, 0.2971653938293457, 0.1896744668483734, -0.18282903730869293, -0.005835736636072397, -0.12506704032421112, -0.05123952776193619, -0.18341954052448273, -0.23522277176380157, -0.0004011919372715056, -0.01869720034301281, -0.0203180480748415, 0.0006892795790918171, -0.03964783623814583, -0.037460725754499435, -0.06519578397274017, 0.18324154615402222, -0.017244240269064903, 0.0003043970500584692, -0.01322760060429573, 0.21003611385822296, -0.2140352874994278, 0.026189235970377922], [0.0004078775236848742, 7.156252763707016e-07, 0.00023588212206959724, 0.001021539093926549, -0.0002689489920157939, 0.0002598491555545479, 0.00028571797884069383, 0.0010098350467160344, 0.0008587361080572009, 2.9720952170464443e-06, -0.0001378341403324157, 0.0011473923223093152, -0.0012188947293907404, 0.0006003169110044837, -4.61298168374924e-06, 0.0019518142798915505, 1.8287804778083228e-05, -4.814406202058308e-05, 0.0019426190992817283, 0.0006299468223005533, -0.0007548232097178698, -0.00020971962658222765, -0.0008789499988779426, 8.574538696848322e-06, -0.0014508012682199478, -0.0003321567492093891, 1.6278524981316878e-06, -7.204461871879175e-05, -0.0002960835990961641, -3.0439694000961026e-06, -0.0001829809625633061, -0.00018475475371815264, -0.0007531098090112209, 0.0005162270390428603, 0.00035212773946113884, -1.6171068182302406e-06, 0.0002835655177477747, 0.0011752931168302894, -0.0016323711024597287, -3.970140824094415e-05], [-0.011724972166121006, 0.00013839123130310327, 0.03033161722123623, -0.02807440049946308, 0.018498120829463005, 0.0026993693318217993, 0.07359863817691803, -0.04188241437077522, -0.05359495431184769, 0.0003012890520039946, -0.05120523273944855, -0.12165866047143936, 0.04227353632450104, 0.004696883726865053, -0.00046880621812306345, -0.11029152572154999, -0.055323101580142975, -0.06234751641750336, -0.1808604747056961, -0.11444512754678726, 0.02536497637629509, 0.002368935849517584, 0.024214256554841995, -0.006010689772665501, 0.0661717876791954, 0.008759605698287487, 0.00018171385454479605, 0.10023977607488632, -0.005135442595928907, -0.00030882543069310486, -0.033681727945804596, -0.023827457800507545, 0.008528798818588257, -0.01175242941826582, -0.005321701988577843, -0.00017670805391389877, 0.05366544425487518, -0.0414121188223362, 0.12943091988563538, 0.03598271682858467], [0.06359576433897018, -0.001157965511083603, -0.008863403461873531, 0.016884535551071167, -0.20626848936080933, 0.2428838610649109, -0.850698709487915, 0.10606610774993896, -1.1780191659927368, -0.004222549498081207, 0.14612534642219543, 0.20475605130195618, -0.01251398865133524, 0.23627951741218567, 0.005767005495727062, 0.138436958193779, -0.17131046950817108, 0.07737649977207184, 0.14994847774505615, 1.0351818799972534, -0.24268203973770142, -0.030494270846247673, 0.17438402771949768, -0.04790956526994705, -0.12761837244033813, -0.11757800728082657, -0.002169464947655797, -0.06679607182741165, 0.16776008903980255, 0.00431682076305151, 0.04830407351255417, 0.2898675799369812, -0.20546792447566986, 0.21866123378276825, 0.20666952431201935, 0.001979490276426077, 0.045269258320331573, 0.046035248786211014, 2.4810822010040283, 0.10618075728416443], [-0.00456915982067585, 7.072178414091468e-05, 0.06356930732727051, -0.014280452392995358, 0.059427909553050995, 0.049589432775974274, 0.01912987418472767, -0.12288235127925873, 0.07394818216562271, 6.571433914359659e-05, -0.04889898747205734, 0.12204626202583313, -0.07566549628973007, 0.005399899557232857, -6.441239384002984e-05, 0.20392431318759918, -0.07718511670827866, 0.05044235289096832, 0.2205001413822174, -0.004399947822093964, -0.10333746671676636, 0.02457425370812416, -0.06757944077253342, -0.11428828537464142, -0.13309864699840546, -0.154775932431221, 0.00013277393009047955, 0.03148477151989937, 0.0022444366477429867, -6.581944035133347e-05, -0.024520184844732285, 0.00752335786819458, 0.0159238763153553, 0.17280246317386627, -0.04214976727962494, -4.366644861875102e-05, -0.03544507920742035, 0.09619380533695221, -0.20746174454689026, 0.08523906022310257], [0.08863820135593414, -0.00019993398746009916, -0.06698167324066162, -0.2965351939201355, -0.12351077795028687, 0.2759266197681427, -0.2226414680480957, -0.4018092453479767, -0.2070896327495575, 0.0013641876867040992, -0.025232534855604172, -0.43656209111213684, 0.34889787435531616, -0.507764995098114, -0.0020898706279695034, -0.7958056926727295, 0.01994236931204796, 0.09563680738210678, -1.0608370304107666, -0.3044376075267792, 0.06907331198453903, 0.08259936422109604, 0.08348231762647629, 0.1561359316110611, 0.6978210806846619, -0.005340827628970146, 0.0002205793425673619, 0.15520590543746948, 0.13908423483371735, -0.0014030822785571218, -0.03575430437922478, -0.026839381083846092, 0.03279004991054535, -0.2114568054676056, -0.19383391737937927, -0.0008147780317813158, 0.14246632158756256, -0.4099433124065399, 0.5906388163566589, -0.1269110143184662], [0.018263038247823715, -0.0003456483827903867, -0.0298312921077013, -0.024772213771939278, 0.050914157181978226, 0.03300623223185539, 0.04129956662654877, -0.12080036848783493, 0.09403260797262192, -0.0016034144209697843, -0.020943505689501762, 0.14032605290412903, -0.0561312735080719, 0.030480986461043358, 0.0025823742616921663, 0.1459914892911911, 0.0018901251023635268, -0.008238023146986961, 0.16278579831123352, 0.04966762289404869, -0.09313075244426727, 0.048949532210826874, -0.07636302709579468, -0.016313917934894562, -0.07406698167324066, -0.07372063398361206, -0.0008037294028326869, 0.008243430405855179, 0.087886281311512, 0.001648766570724547, 0.0034461868926882744, 0.00793739128857851, 0.018565600737929344, 0.07550010085105896, 0.019539207220077515, 0.000683100544847548, -0.030605802312493324, 0.03770707920193672, -0.14780807495117188, 0.05488038435578346], [8.482616249239072e-05, 1.576058394903157e-07, 5.080990376882255e-05, 0.00023601479188073426, -5.3672411013394594e-05, 4.3549844122026116e-05, 6.15714889136143e-05, 0.0002277538151247427, 0.00020272984693292528, 7.315363745874492e-07, -3.830109926639125e-05, 0.00026460018125362694, -0.00028409241349436343, 0.00014135662058833987, -1.1936516557398136e-06, 0.00045548201887868345, 1.3888149624108337e-05, -7.315431048482424e-06, 0.0004533781320787966, 0.0001476481556892395, -0.0001786670763976872, -5.072329076938331e-05, -0.00020217370183672756, -3.1246856906363973e-06, -0.00033470222842879593, -9.27254804992117e-05, 3.673702053674788e-07, -2.5218065275112167e-05, -7.316397386603057e-05, -7.512774686802004e-07, -4.5552598749054596e-05, -5.4010328312870115e-05, -0.0001708238705759868, 0.00012378490646369755, 7.045709935482591e-05, -3.666249028810853e-07, 2.74408175755525e-05, 0.00026464133406989276, -0.0003786262823268771, -1.7900649254443124e-05], [-0.09806931018829346, 0.00019675769726745784, 0.29633766412734985, 0.12143276631832123, 0.37751874327659607, -0.008069055154919624, 0.17697764933109283, -0.1555890589952469, 0.28147000074386597, 0.0006776945083402097, -0.0682891458272934, 0.08481724560260773, -0.1487046480178833, 0.2264494150876999, -0.0008377080666832626, 0.23405759036540985, -0.08763900399208069, 0.0822870060801506, 0.24918070435523987, -0.1988106369972229, -0.12387896329164505, -0.011160854250192642, 0.03392023965716362, -0.5379433631896973, -0.24731385707855225, -0.41369861364364624, 0.0004832630802411586, -0.2193145900964737, 0.03870970383286476, -0.0006868719356134534, -0.06389819830656052, -0.027307622134685516, -0.032583046704530716, 0.19189202785491943, -0.08679363876581192, -0.0004994450719095767, -0.11259492486715317, 0.3301847577095032, -0.4682968556880951, -0.06466156989336014], [0.025179194286465645, -0.00020042937831021845, -0.05403628200292587, 0.061886049807071686, -0.10251512378454208, 0.014752671122550964, 0.049908045679330826, 0.13599242269992828, 0.08263689279556274, -0.0005614560795947909, -0.0015936736017465591, 0.11121679097414017, -0.06338850408792496, -0.01723676361143589, 0.0008355446625500917, 0.18319153785705566, 0.00813952274620533, -0.0073410626500844955, 0.19129686057567596, 0.03890279680490494, -0.06335242092609406, -0.016311442479491234, -0.06631556898355484, 0.06835416704416275, -0.13564912974834442, 0.062484242022037506, -0.0003027540515176952, 0.014927947893738747, -0.016587693244218826, 0.0005758407060056925, -0.03260326012969017, -0.0017462469404563308, -0.08506493270397186, -0.029646869748830795, 0.09867580235004425, 0.00026919247466139495, -0.04937950521707535, 0.051340654492378235, -0.15305818617343903, 0.015192187391221523], [-0.0027557541616261005, 0.00034381699515506625, 0.2787487506866455, -0.11173629015684128, 0.2680445909500122, -0.5762261152267456, -0.7583847045898438, -0.1170644760131836, 0.01416091714054346, 0.0008029108284972608, 0.039728522300720215, -0.4556662440299988, 0.42205876111984253, -0.4134814739227295, -0.0012533406261354685, -0.7689521908760071, -0.19130639731884003, 0.106824591755867, -0.543388307094574, -0.5526425242424011, -0.05526689067482948, 0.36642810702323914, -0.23780904710292816, 0.11613722145557404, 0.45278578996658325, -0.12848541140556335, 0.00015735553461126983, -0.0880410447716713, -0.7132399678230286, -0.0008298520697280765, 0.13940036296844482, -0.053703684359788895, 0.1040821522474289, -0.11438726633787155, 0.02774151973426342, -0.00025159423239529133, 0.071336530148983, -0.2512228190898895, -0.22627398371696472, -0.041660863906145096], [-0.016874993219971657, -0.00011302536586299539, -0.0019612014293670654, 0.06699968129396439, 0.06921127438545227, 0.013317067176103592, 0.007385157514363527, 0.006687392946332693, 0.07474753260612488, -0.0006469627842307091, -0.022391140460968018, 0.1481958031654358, -0.11600422859191895, 0.18751974403858185, 0.0009726927964948118, 0.23744270205497742, 0.02450459823012352, -0.014453508891165257, 0.2363308221101761, 0.09840413182973862, -0.12089807540178299, 0.008864597417414188, -0.08034472167491913, -0.06988947093486786, -0.1701396107673645, -0.07073952257633209, -0.000354659219738096, -0.054723337292671204, 0.021018294617533684, 0.00066210055956617, -0.020670650526881218, -0.04413110017776489, -0.024926116690039635, 0.147898867726326, 0.011300438083708286, 0.000265754759311676, -0.04186365380883217, 0.13906672596931458, -0.19230550527572632, 0.010610116645693779], [-0.10604438930749893, -0.000644044135697186, 0.21704721450805664, 0.13537955284118652, 0.6163036227226257, 0.015005778521299362, -0.15826983749866486, -0.08316603302955627, -0.19645777344703674, -0.0028955477755516768, 0.07394017279148102, -0.11182314902544022, -0.06664033979177475, 0.2924802601337433, 0.004326541908085346, -0.1405569463968277, 0.053849320858716965, 0.08477503806352615, -0.1494409739971161, -0.06786936521530151, -0.04543759673833847, 0.09752968698740005, 0.12238268554210663, -0.295419842004776, 0.07205114513635635, 0.02241772972047329, -0.0015930773224681616, -0.08674220740795135, 0.10346723347902298, 0.0029672663658857346, 0.01787012442946434, 0.008865443989634514, 0.002822779817506671, 0.14982369542121887, -0.07665637880563736, 0.0012821377022191882, 0.014999531209468842, -0.07523036748170853, 0.1036713570356369, 0.009131450206041336], [2.7818156013381667e-05, 1.4118091584691683e-08, 6.170128017402021e-06, 7.407025259453803e-05, -2.608931936265435e-05, 5.0152093535871245e-06, 1.5291801901184954e-05, 9.307196160079911e-05, 8.048301242524758e-05, 1.0387179116833067e-07, -1.0816406756930519e-05, 0.00011477555381134152, -0.00011930824257433414, 6.131795089459047e-05, -1.8644757915353694e-07, 0.00019511772552505136, 5.2468408284767065e-06, -3.5801569993054727e-06, 0.00019593467004597187, 7.217348320409656e-05, -8.527484169462696e-05, -2.6470575903658755e-05, -8.555343083571643e-05, -1.8176544926973293e-06, -0.0001451493735658005, 4.735307811642997e-06, 4.969234979057546e-08, -1.6779771613073535e-05, -2.358394704060629e-05, -1.0689007012842922e-07, -1.0115060831594747e-05, -2.3334718207479455e-05, -6.881635636091232e-05, 4.0935025026556104e-05, 5.6300952564924955e-05, -5.290253213274809e-08, -1.1627867024799343e-05, 9.836279059527442e-05, -0.00015729927690699697, -1.0589343446554267e-06], [-0.043059006333351135, -0.0012301256647333503, -0.04705537483096123, -0.11675684154033661, 0.07251372188329697, 0.01838742010295391, -0.2209063470363617, -0.05201234668493271, -0.20198066532611847, -0.004259772133082151, 0.0038420388009399176, -0.04930856078863144, -0.0707298219203949, -0.09065103530883789, 0.006348544731736183, -0.026197174564003944, -0.005298704840242863, 0.0804474726319313, 0.013616111129522324, 0.16966120898723602, -0.09548015147447586, -0.06965452432632446, 0.023716578260064125, 0.1631935089826584, 0.004773144610226154, 0.24308212101459503, -0.0024427759926766157, -0.07673895359039307, -0.06231680512428284, 0.004361115396022797, 0.07727731019258499, 0.007042196579277515, 0.11584051698446274, -0.053593866527080536, 0.1241006925702095, 0.002085993066430092, -0.0740722045302391, -0.12290624529123306, 0.1866987645626068, 0.19863077998161316], [-0.07326959818601608, 0.0008014719933271408, 0.17673860490322113, 0.07041922956705093, 0.011309422552585602, -0.05173690617084503, -0.019723858684301376, 0.07962535321712494, -0.005506423301994801, 0.003317791037261486, 0.06785678118467331, -0.06441018730401993, 0.0255049467086792, -0.07924491912126541, -0.004772791638970375, 0.01707954704761505, -0.04269637167453766, 0.011979677714407444, -0.04173470661044121, -0.08818819373846054, -0.0006068589864298701, 0.007929564453661442, 0.09823372960090637, 0.05311792343854904, -0.05172315612435341, -0.06817178428173065, 0.0018963052425533533, -0.10724546760320663, -0.1533353179693222, -0.0033897999674081802, -0.06991080939769745, -0.037298671901226044, 0.0036224089562892914, -0.008661438710987568, -0.004657040815800428, -0.001597908092662692, 0.056465186178684235, 0.12640583515167236, -0.05192749574780464, 0.03739093616604805], [0.14973676204681396, 0.001387323602102697, -0.06301569938659668, 0.015750352293252945, -0.027897370979189873, -0.11459391564130783, 0.13492853939533234, 0.19618776440620422, 0.01635461114346981, 0.0055830152705311775, 0.08201517909765244, 0.10673877596855164, 0.019864298403263092, 0.11408033967018127, -0.007923445664346218, 0.126044362783432, 0.1799468994140625, -0.08990829437971115, 0.08361376821994781, 0.0882645845413208, -0.07495445013046265, -0.020368503406643867, -0.0916471779346466, 0.009373115375638008, -0.03824426606297493, 0.3139605224132538, 0.003028054488822818, -0.1743231564760208, -0.09860759973526001, -0.005709342658519745, -0.02659982070326805, -0.2169966995716095, -0.1523035168647766, -0.06805917620658875, 0.17734405398368835, -0.002696226118132472, 0.02502637356519699, 0.06312962621450424, -0.14188773930072784, -0.09384724497795105], [-0.005041383672505617, 0.0003600489581003785, -0.042472269386053085, -0.04197235032916069, 0.020935259759426117, -0.12361970543861389, -0.08563176542520523, -0.005919507704675198, 0.0654715746641159, 0.0024185660295188427, 0.05052931606769562, 0.1806408166885376, -0.1367960274219513, 0.016396407037973404, -0.0034274181816726923, 0.2378014624118805, 0.04810235649347305, 0.053463105112314224, 0.1913759410381317, 0.5956423878669739, -0.002040025545284152, -0.04597615823149681, -0.24812357127666473, -0.08026090264320374, -0.16965104639530182, -0.031607210636138916, 0.0014769441913813353, -0.026865767315030098, -0.10675536096096039, -0.002466086531057954, -0.017780113965272903, -0.05784985050559044, -0.0509147047996521, 0.11224399507045746, 0.09305713325738907, -0.0011799127096310258, 0.013908152468502522, 0.1570599228143692, -0.021610122174024582, -0.06944688409566879], [0.0024338073562830687, -0.00025631656171754, -0.03708280622959137, -0.08694639801979065, -0.13224990665912628, 0.21019703149795532, -0.08239736407995224, 0.17359711229801178, -0.08679927885532379, -0.0017336427699774504, -0.08687509596347809, 0.21717369556427002, -0.028682583943009377, 0.06451937556266785, 0.002346772700548172, 0.27580270171165466, 0.08758029341697693, -0.25465577840805054, 0.19915138185024261, 0.22216826677322388, -0.22675739228725433, 0.013879777863621712, -0.174366295337677, 0.07002775371074677, -0.10830122232437134, 0.08149688690900803, -0.0013384559424594045, 0.03134540095925331, 0.09806905686855316, 0.001761381863616407, -0.017826054245233536, -0.15449079871177673, -0.10897146165370941, 0.043653350323438644, 0.005047576501965523, 0.0007116217166185379, -0.0372544601559639, 0.08719301968812943, 0.0748758465051651, 0.018904007971286774], [-0.04074438288807869, 0.00025742800789885223, -0.04793559014797211, 0.16242092847824097, 0.04226796329021454, -0.07098449021577835, -0.10198148339986801, 0.28940683603286743, 0.051813870668411255, 0.0012233240995556116, -0.05431709811091423, 0.12969860434532166, -0.19671650230884552, 0.08014756441116333, -0.0018060989677906036, 0.16294273734092712, -0.06413103640079498, -0.06890130043029785, 0.1823267787694931, 0.07786154747009277, -0.04710359871387482, 0.030260341241955757, -0.13031068444252014, 0.07208005338907242, -0.09086554497480392, -0.05873651057481766, 0.0005684889620169997, 0.0628967136144638, -0.04801630601286888, -0.0012525941710919142, 0.06684238463640213, -0.07038133591413498, -0.11356798559427261, 0.024846548214554787, -0.0342768132686615, -0.0007087601698003709, -0.016463138163089752, 0.079367496073246, -0.11711632460355759, 0.07240170240402222], [0.08007130771875381, 0.001468059839680791, 0.055807773023843765, -0.03121418133378029, 0.06208544224500656, -0.012941434979438782, -0.14190788567066193, -0.1265273094177246, -0.17215761542320251, 0.005782404914498329, 0.04402952641248703, 0.1514621526002884, -0.07553843408823013, -0.11862402409315109, -0.008317661471664906, 0.27153632044792175, -0.003390629542991519, -0.006923128385096788, 0.25939667224884033, 0.46223390102386475, 0.023612825199961662, 0.0046557290479540825, 0.012233689427375793, 0.054299794137477875, -0.02651354670524597, -0.013646825216710567, 0.0033953122328966856, 0.012708213180303574, -0.11495593190193176, -0.005902184173464775, -0.007336216047406197, -0.06114593520760536, 0.040151674300432205, 0.011852510273456573, 0.03251803293824196, -0.002849124139174819, -0.07721331715583801, 0.01583833433687687, -0.02313273586332798, 0.17351172864437103], [0.0006921275635249913, 1.8407439483780763e-07, 0.0003634121676441282, 0.001251565176062286, -0.00035908009158447385, 0.00029842188814654946, 0.0004848524113185704, 0.0013318519340828061, 0.001388321747072041, 9.141713235294446e-07, -0.00014027731958776712, 0.0018979960586875677, -0.001959482440724969, 0.0010938282357528806, -1.6878442465895205e-06, 0.0031490016262978315, 5.184887777431868e-05, -9.032919479068369e-05, 0.003145084483548999, 0.0011854798067361116, -0.001351573271676898, -0.000557169783860445, -0.0014611359219998121, -0.00011059893586207181, -0.00237380713224411, -0.00010869348625419661, 5.072121211924241e-07, -0.00023906411661300808, -0.00031420731102116406, -9.389000297232997e-07, -0.00018934595573227853, -0.00033448170870542526, -0.0010683905566111207, 0.0008410651935264468, 0.0007743739406578243, -5.956962354503048e-07, 0.00014406412083189934, 0.0017608435591682792, -0.0026173009537160397, 3.487218054942787e-05], [0.005306372884660959, 8.003447874216363e-05, -0.08121512830257416, 0.045196566730737686, -0.05791841819882393, -0.198642760515213, 0.16236212849617004, 0.056757815182209015, 0.17679770290851593, 0.0006733641494065523, 0.059658803045749664, 0.29078397154808044, -0.24242159724235535, 0.11474459618330002, -0.000855820020660758, 0.46182921528816223, -0.04220383241772652, -0.026678219437599182, 0.5142226219177246, 0.18905667960643768, -0.10681286454200745, -0.036700084805488586, 0.11608074605464935, 0.0006466874619945884, -0.23906151950359344, -0.024897314608097076, 0.0004410262918099761, 0.06115823984146118, 0.09214121103286743, -0.0006857583066448569, -0.05624464526772499, -0.04304637014865875, -0.03694617375731468, -0.028850477188825607, 0.06415325403213501, -0.00038728161598555744, 0.0020411727018654346, 0.19757027924060822, -0.33945122361183167, 0.10363589227199554], [0.0436633825302124, 0.00022834532137494534, -0.08331818133592606, 0.06416270136833191, -0.11397755146026611, 0.0682571530342102, -0.031862057745456696, 0.12973476946353912, 0.05323212966322899, 0.0012153955176472664, 0.029345575720071793, 0.15465842187404633, -0.18526272475719452, 0.0025904173962771893, -0.0017542100977152586, 0.21366985142230988, 0.004287689458578825, -0.027097968384623528, 0.20292770862579346, 0.0793607085943222, -0.16167426109313965, 0.07260523736476898, -0.058362871408462524, 0.00032577148522250354, -0.18112075328826904, 0.09567612409591675, 0.0006273039616644382, -0.006194529589265585, -0.08715635538101196, -0.001245069783180952, -0.07027009129524231, -0.07043702155351639, -0.11611533910036087, 0.006146692670881748, 0.12711399793624878, -0.000563770008739084, -0.02335202321410179, 0.1370680183172226, -0.18846458196640015, 0.04455229640007019], [-0.01975882425904274, 1.2537363545561675e-05, 0.09043870866298676, -0.06948012858629227, -0.030082140117883682, -0.1492844521999359, 0.12339478731155396, 0.04789619892835617, 0.016959404572844505, 0.00040510398685000837, -0.015910323709249496, 0.09888464212417603, 0.22453856468200684, -0.07003659754991531, -0.0004792411928065121, 0.16026759147644043, -0.06337760388851166, -0.014700817875564098, 0.15309816598892212, 0.02395790070295334, 0.03587714582681656, -0.10255948454141617, 0.16761714220046997, 0.034248966723680496, -0.06260661035776138, 0.011601819656789303, 0.00014663406182080507, 0.008818385191261768, 0.05741042271256447, -0.00041417666943743825, 0.021753329783678055, 0.043093256652355194, -0.038848474621772766, -0.040537238121032715, 0.0016596647910773754, -0.00017280977044720203, -0.08504088968038559, 0.0292644239962101, -0.14149650931358337, 0.09532774239778519], [-0.06905883550643921, 0.00012992924894206226, -0.10045215487480164, -0.04560311511158943, 0.07384900748729706, 0.13207826018333435, -0.1692705601453781, -0.06389302760362625, -0.0274424459785223, 0.0012204736704006791, -0.07211075723171234, -0.054239220917224884, -0.19399715960025787, -0.0966145396232605, -0.0018906237091869116, 0.009079786017537117, -0.16326004266738892, -0.03834346681833267, -0.010472811758518219, 0.011474648490548134, 0.04790491983294487, 0.14635635912418365, 0.06289017200469971, -0.10966017097234726, -0.07947075366973877, -0.03601117804646492, 0.00064846285386011, 0.10797688364982605, -0.036396369338035583, -0.0012500318698585033, 0.004747563973069191, 0.025992082431912422, -0.033802058547735214, -0.005820574704557657, 0.05920398235321045, -0.0005758646875619888, -0.032765116542577744, 0.044726233929395676, 0.085833340883255, 0.058617498725652695], [0.0015087785432115197, 6.262147280722274e-07, 0.000844732450786978, 0.00270087574608624, -0.0007600334356538951, 0.0006236619083210826, 0.0010228812461718917, 0.002881671767681837, 0.0030194155406206846, 2.2880612959852442e-06, -0.0003313155903015286, 0.00406179903075099, -0.00419399980455637, 0.0023162865545600653, -3.5915770695282845e-06, 0.006664430256932974, 0.0001389475801261142, -0.0002088504988932982, 0.006652486510574818, 0.002561090048402548, -0.002915794961154461, -0.0012203423539176583, -0.0031698783859610558, -0.00023836918990127742, -0.005072438158094883, -0.00020459237566683441, 1.5418004295497667e-06, -0.0004995802300982177, -0.0007047724211588502, -2.3304580736294156e-06, -0.0004182651173323393, -0.0007443907670676708, -0.002323314780369401, 0.0018062804592773318, 0.0016859383322298527, -1.6471666413053754e-06, 0.0004241803544573486, 0.0038017737679183483, -0.00559035362675786, 9.808415052248165e-05], [0.07797779142856598, -0.0002681409241631627, -0.011137369088828564, -0.0012493638787418604, -0.003100699745118618, -0.025156579911708832, 0.18606078624725342, 0.037113290280103683, -0.0036400354001671076, -0.00012946176866535097, 0.0073716179467737675, 0.12267353385686874, -0.10930472612380981, 0.08813994377851486, 0.00022051103587727994, 0.35700511932373047, -0.009760012850165367, -0.009103769436478615, 0.246190145611763, 0.17334814369678497, 0.031522296369075775, -0.004807148594409227, -0.05347849801182747, 0.060945942997932434, -0.0944339856505394, 0.013820146210491657, -0.00018516278942115605, -0.007813617587089539, -0.015291275456547737, 0.00013322822633199394, -0.03148237615823746, -0.0016451639821752906, -0.05846576765179634, 0.08516361564397812, 0.0567035898566246, 0.0002159598225262016, 0.005150670185685158, 0.08457428961992264, -0.14513221383094788, 0.017127227038145065], [0.03322432190179825, -0.00045977463014423847, 0.017456242814660072, -0.04644988104701042, 0.12245792150497437, 0.09208148717880249, -0.1280798316001892, -0.12551572918891907, -0.20904022455215454, -0.0018976728897541761, -0.01474699005484581, -0.036201294511556625, 0.042189788073301315, 0.05800002068281174, 0.002694724127650261, -0.08081300556659698, 0.012615188024938107, 0.0364188589155674, -0.08201118558645248, -0.05816594138741493, 0.03419113904237747, -0.016798414289951324, -0.0029863337986171246, 0.05432567372918129, 0.06424244493246078, 0.0020947689190506935, -0.0011550168273970485, -0.013262820430099964, 0.036988239735364914, 0.0019383607432246208, 0.023752985522150993, -0.011139784008264542, 0.02374570071697235, 0.031018860638141632, 0.04272904992103577, 0.0009205410606227815, -0.003094531362876296, -0.04533560574054718, 0.09481680393218994, 0.004182588774710894], [-0.04614710062742233, -0.0001535047049401328, 0.051037658005952835, -0.1715647429227829, 0.2666779160499573, 0.04832294583320618, -0.08568567782640457, -0.34186533093452454, -0.13227958977222443, -0.0008609515498392284, -0.00966233666986227, -0.07759439945220947, 0.06811224669218063, 0.01911712810397148, 0.0012460632715374231, -0.11551203578710556, -0.01915512979030609, 0.10267724096775055, -0.10688856244087219, -0.03557455912232399, 0.032457202672958374, 0.06516793370246887, 0.047981441020965576, -0.12475284934043884, 0.10252801328897476, 0.04216708615422249, -0.0005319379852153361, 0.0750824511051178, 0.009722213260829449, 0.0008782956865616143, 0.02196597121655941, 0.026324696838855743, 0.12522433698177338, 0.1107204481959343, -0.01284608244895935, 0.00042781594675034285, 0.1258942037820816, -0.0844585970044136, 0.07782751321792603, 0.10200292617082596], [0.021178297698497772, -1.0874930012505502e-05, -0.0046979933977127075, 0.08723296970129013, 0.016599752008914948, 0.0681900605559349, 0.03384331986308098, 0.05443490669131279, 0.0519457645714283, 0.000317700847517699, 0.007042477838695049, 0.13225294649600983, -0.10532133281230927, 0.03307591751217842, -0.0004654121003113687, 0.2184925675392151, -0.0010549317812547088, -0.008899332955479622, 0.20319874584674835, 0.06791272759437561, -0.08893340826034546, -0.005392571911215782, -0.09688229113817215, -0.008245701901614666, -0.13922178745269775, -0.04901443049311638, 0.0001319358852924779, 0.011306095868349075, -0.05707624554634094, -0.00032640108838677406, -0.016922960057854652, -0.0328095480799675, -0.06648387759923935, 0.06109274551272392, 0.013513017445802689, -0.00015919104043859988, 0.07832074165344238, 0.13366293907165527, -0.2048538625240326, 0.012952740304172039], [0.157369926571846, 0.0006737093208357692, 0.031244520097970963, -0.1569436490535736, 0.09626419097185135, -0.1884007751941681, -0.27502599358558655, 0.16999903321266174, 0.31685712933540344, 0.0036194308195263147, 0.00020254983974155039, 0.4498336613178253, -0.32332122325897217, -0.03626257926225662, -0.005063209217041731, 0.802875280380249, -0.16000795364379883, 0.0225326269865036, 0.6238821148872375, -0.060147590935230255, -0.22525066137313843, 0.16034482419490814, -0.18311063945293427, 0.1617187112569809, -0.46084681153297424, -0.01226535253226757, 0.0020827376283705235, 0.09796439111232758, -0.5802278518676758, -0.003692945698276162, 0.2100050151348114, -0.1591993123292923, -0.13614073395729065, 0.09592773765325546, 0.04628889262676239, -0.0017188213532790542, -0.07012171298265457, 0.22510522603988647, 0.2587600350379944, 0.2262483537197113], [-0.011346723884344101, -0.00027787164435721934, -0.16021357476711273, -0.037665121257305145, -0.012609275057911873, 0.23597045242786407, -0.054254911839962006, 0.1512794941663742, 0.3399414122104645, 0.0005761859938502312, -0.10493054986000061, 0.4364078938961029, -0.5298269391059875, 0.3720763027667999, -0.0010069111594930291, 0.7864799499511719, 0.026165524497628212, 0.15518411993980408, 0.5428152680397034, -0.18224312365055084, -2.5047116650966927e-05, 0.1711915284395218, 0.010529659688472748, -0.05931936949491501, -0.5079277753829956, -0.03478638827800751, 0.0002000516833504662, 0.13350416719913483, -0.5153680443763733, -0.0006013051024638116, -0.1566796898841858, 0.21740154922008514, -0.10212470591068268, -0.18062521517276764, 0.04636238142848015, -0.00013176791253499687, -0.027473783120512962, 0.3896965980529785, -0.28831806778907776, 0.07297853380441666], [0.060575563460588455, -0.00021040280989836901, 0.12364677339792252, -0.13836555182933807, 0.0976816937327385, 0.03834282234311104, -0.019667332991957664, -0.20543554425239563, -0.1080855205655098, -0.0004787383077200502, 0.061736203730106354, -0.11956901103258133, 0.13563017547130585, -0.0361785963177681, 0.0007549187866970897, -0.22511295974254608, 0.005028915591537952, 0.12326021492481232, -0.21336179971694946, -0.023937299847602844, 0.13580426573753357, 0.011099636554718018, 0.12447678297758102, -0.021803513169288635, 0.17446760833263397, 0.12658947706222534, -0.00032666968763805926, -0.05277913808822632, 0.11126808822154999, 0.0004917074111290276, 0.042296987026929855, 0.08720531314611435, 0.10202764719724655, -0.013309836387634277, -0.0038559904787689447, 0.00016557416529394686, 0.15103910863399506, -0.10522003471851349, 0.14969292283058167, 0.06515870988368988], [0.06903401017189026, 0.0004789562663063407, -0.06717737019062042, 0.1473722755908966, 0.031882330775260925, -0.014605885371565819, -0.08911871910095215, 0.03430845960974693, -0.2909950911998749, 0.002471981104463339, -0.07888950407505035, 0.08086108416318893, -0.07097326219081879, 0.09872801601886749, -0.0035486093256622553, 0.1593935787677765, -0.005117668304592371, 0.034138452261686325, 0.12417908757925034, 0.4031318724155426, -0.04114411026239395, -0.1074054166674614, 0.1689627319574356, -0.05925286188721657, -0.04574379324913025, -0.025076301768422127, 0.0013443933567032218, 0.018490038812160492, 0.2676461637020111, -0.0025295231025666, 0.013758435845375061, -0.09336793422698975, -0.07911977916955948, 0.09111098200082779, 0.007152193691581488, -0.0010725607862696052, 0.017804859206080437, 0.0815383568406105, 0.0033205668441951275, 0.04735054448246956], [0.1541062891483307, 0.00025104093947447836, -0.29469063878059387, -0.0041456460021436214, -0.1806844025850296, -0.14499013125896454, 0.17539557814598083, -0.22892941534519196, -0.0032188808545470238, 0.0013256575912237167, 0.046129681169986725, 0.23116619884967804, 0.0691312924027443, 0.13173356652259827, -0.0019198826048523188, 0.29356446862220764, 0.08745703846216202, 0.09278720617294312, 0.3223033845424652, 0.2674897611141205, -0.015840407460927963, 0.0834432914853096, -0.1635560691356659, -0.03389110043644905, -0.13060756027698517, -0.04976620152592659, 0.0005373050807975233, 0.09228815138339996, 0.02682165987789631, -0.0013672367203980684, -0.015451384708285332, -0.16575884819030762, 0.11140225827693939, -0.007993342354893684, 0.05632362514734268, -0.00037723040441051126, -0.02757260389626026, 0.08729574084281921, -0.26007309556007385, 0.039136022329330444], [0.07065800577402115, -0.0004746704362332821, 0.06103941425681114, 0.04502636194229126, -0.05956563353538513, 0.23506325483322144, 0.06108684465289116, 0.13901156187057495, 0.1500558853149414, -0.0020810372661799192, -0.053731173276901245, 0.20452110469341278, -0.3661462366580963, 0.17759856581687927, 0.002821443136781454, 0.3807680308818817, 0.03647566959261894, -0.0718250423669815, 0.31996700167655945, 0.12538155913352966, -0.09279531985521317, -0.09774021059274673, -0.200796440243721, 0.07184352725744247, -0.3176697790622711, -0.0015471682418137789, -0.001372160273604095, -0.003544299630448222, 0.04681834205985069, 0.002113601891323924, -0.11166311800479889, 0.04226312041282654, -0.11966389417648315, 0.11943016946315765, 0.10950741171836853, 0.0011519220424816012, 0.13145820796489716, 0.148780956864357, -0.0024261493235826492, 0.018010197207331657], [0.10178108513355255, 0.0001608465681783855, 0.10034525394439697, -0.0041152178309857845, -0.01657022349536419, 0.042404573410749435, -0.07532395422458649, -0.02254372276365757, -0.018967753276228905, 0.0008151860092766583, 0.08121275156736374, 0.11338614672422409, -0.09370554238557816, 0.016609717160463333, -0.0012490530498325825, 0.18846607208251953, 0.06254430115222931, 0.033623162657022476, 0.12894520163536072, 0.06726862490177155, -0.11749401688575745, -0.08725497126579285, -0.09391231834888458, -0.06696227192878723, -0.10921870172023773, -0.004554856102913618, 0.00037991657154634595, -0.09647496789693832, -0.029534395784139633, -0.0008386823465116322, -0.031165722757577896, 0.029918581247329712, -0.05588986724615097, 0.08660253137350082, 0.034774184226989746, -0.0002955895906779915, 0.0834449976682663, 0.1304197460412979, -0.15298962593078613, -0.01157757081091404], [0.00020566402235999703, 3.5590559832598956e-08, 0.00010264790034852922, 0.00039113336242735386, -0.0001222999271703884, 8.270641410490498e-05, 0.00015716686903033406, 0.00041602496639825404, 0.00042369042057543993, 2.583477964890335e-07, -4.088349669473246e-05, 0.0005979633424431086, -0.0006141369231045246, 0.00035242410376667976, -5.51072730559099e-07, 0.001002386910840869, 1.700568464002572e-05, -2.7909154596272856e-05, 0.0010011449921876192, 0.00036824034759774804, -0.0004220761766191572, -0.0001728920906316489, -0.00044805440120399, -2.9493498004740104e-05, -0.0007509946008212864, -3.5201468563172966e-05, 1.1108361519518439e-07, -7.756203558528796e-05, -8.970783528639004e-05, -2.6751459358820284e-07, -5.892852641409263e-05, -0.00010078611376229674, -0.0003330826584715396, 0.0002607760252431035, 0.00024276190379168838, -1.487402698785445e-07, 2.1365527572925203e-05, 0.0005482229171320796, -0.0008233084226958454, 2.2647341211268213e-06], [-0.08060836791992188, -3.0140765375108458e-05, -0.015284618362784386, 0.05296139791607857, -0.04647542163729668, -0.03771798312664032, 0.025274593383073807, 0.07181280851364136, 0.05326279252767563, -7.788143557263538e-05, 0.07022356241941452, 0.2071864902973175, 0.10321275144815445, 0.02652369625866413, 0.0001105985211324878, 0.2642761170864105, -0.0030951816588640213, 0.009735587984323502, 0.3535168468952179, -0.03341127187013626, -0.0054427762515842915, -0.00577295059338212, -0.04597722738981247, 0.055670082569122314, -0.17787976562976837, -0.03710896149277687, -0.00014278091839514673, 0.04584408923983574, 0.04559183493256569, 8.092505595413968e-05, -0.08157894015312195, -0.0269376989454031, -0.10005636513233185, 0.0501304529607296, 0.03431876003742218, -5.798200436402112e-05, -0.015168730169534683, 0.09243115782737732, -0.29680100083351135, -0.020966103300452232], [-0.06045100465416908, -0.0002834858896676451, 0.03615087270736694, -0.012617629021406174, 0.3623676002025604, -0.2982892394065857, -0.4378906488418579, -0.023239783942699432, -0.0674561858177185, -0.0018138731829822063, 0.01899331621825695, -0.025829987600445747, -0.15620644390583038, 0.19077682495117188, 0.002688952721655369, 0.053049616515636444, -0.06230385601520538, 0.02790156565606594, 0.04298817738890648, -0.10734839737415314, -0.2864425778388977, -0.03976626694202423, 0.1125989556312561, -0.16569864749908447, -0.02821585163474083, 0.00858913455158472, -0.001162036438472569, 0.033761847764253616, 0.22094418108463287, 0.0018546554492786527, -0.017400048673152924, -0.1782793551683426, 0.12524116039276123, 0.06043248251080513, -0.0328066386282444, 0.0007157675572670996, 0.04595125839114189, 0.061886001378297806, -0.0972200557589531, 0.18183530867099762], [0.0007251549977809191, 1.9778273951942538e-07, 0.0003816931275650859, 0.0013100230135023594, -0.0003757879603654146, 0.000312367599690333, 0.0005070937913842499, 0.001394839957356453, 0.0014540519332513213, 9.665662901170435e-07, -0.0001473987940698862, 0.0019862186163663864, -0.0020505578722804785, 0.001143667963333428, -1.7693760128167924e-06, 0.0032940569799393415, 5.4754189477534965e-05, -9.47958033066243e-05, 0.0032899377401918173, 0.0012411365751177073, -0.0014149214839562774, -0.0005840971134603024, -0.001530196750536561, -0.00011537398677319288, -0.0024842277634888887, -0.00011252088734181598, 5.419190642896865e-07, -0.00024987675715237856, -0.0003296182840131223, -9.922903245751513e-07, -0.00019833043916150928, -0.00035057024797424674, -0.0011190524091944098, 0.0008799518691375852, 0.0008114315569400787, -6.323512025119271e-07, 0.0001537254429422319, 0.0018436000682413578, -0.0027390315663069487, 3.7469890230568126e-05], [0.009865611791610718, -1.6353729733964428e-05, -0.009466489776968956, -0.033608607947826385, -0.06266673654317856, -0.007975613698363304, -0.07135969400405884, -0.013999998569488525, -0.013335822150111198, 1.789528687368147e-05, -0.04840189591050148, 0.2572939693927765, -0.03820382431149483, 0.05931708961725235, -5.1783787057502195e-05, 0.4152694344520569, -0.017372634261846542, -0.018748318776488304, 0.4019462764263153, 0.057268526405096054, -0.03459522873163223, -0.024861998856067657, -0.0558171421289444, 0.07793041318655014, -0.20396165549755096, 0.008304199203848839, 2.212130993939354e-06, 0.09469319134950638, -0.011357590556144714, -1.7989175830734894e-05, -0.060823943465948105, 0.013262235559523106, -0.07445807009935379, 0.08464007824659348, 0.1216413676738739, -4.5874581701355055e-05, -0.02235526405274868, 0.08655596524477005, -0.23778291046619415, 0.082307368516922], [0.027302032336592674, -0.00042858943925239146, -0.05623873323202133, -0.08675840497016907, -0.14149820804595947, -0.15132004022598267, 0.05242259427905083, -0.14935331046581268, -0.1471828669309616, -0.001539620221592486, 0.04811907187104225, 0.17624706029891968, 0.03284604847431183, 0.1164354458451271, 0.0017850549193099141, 0.34504514932632446, -0.029492734000086784, -0.0894639864563942, 0.2281639724969864, 0.240616574883461, -0.11438565701246262, -0.05249874293804169, -0.06358340382575989, 0.10366113483905792, -0.07650985568761826, 0.043673183768987656, -0.001036828733049333, -0.03368259593844414, -0.09265553206205368, 0.0015617108438163996, 0.02100210450589657, 0.12498412281274796, -0.01736191287636757, -0.12414874881505966, -0.053494080901145935, 0.000679716351442039, 0.038981642574071884, 0.014173180796205997, 0.8676862120628357, -0.008586437441408634], [-0.14911797642707825, 0.00023381364007946104, 0.09174744039773941, 0.04329439252614975, 0.02420327253639698, 0.06761021167039871, 0.09536648541688919, 0.001653091050684452, 0.04426101595163345, 0.0007369559025391936, -0.005960717331618071, -0.054096903651952744, 0.03206150606274605, -0.09817986190319061, -0.0010064893867820501, -0.05840673670172691, -0.10799381881952286, 0.004261570982635021, -0.04391806572675705, -0.0632384791970253, -0.045083366334438324, 0.0663772001862526, -0.006082850508391857, -0.06108321622014046, 0.02135443687438965, -0.01657046563923359, 0.0005102900322526693, 0.08614817261695862, 0.027202950790524483, -0.0007512315642088652, 0.021494394168257713, 0.03391803056001663, 0.01791873201727867, 0.02126885950565338, -0.08079541474580765, -0.0003893617249559611, 0.044270601123571396, -0.02487841248512268, 0.010567191988229752, 0.10292217135429382], [0.004208757542073727, -0.0007601578836329281, -0.011307931505143642, 0.09604128450155258, 0.011523228138685226, 0.24307496845722198, 0.22037620842456818, 0.27674534916877747, 0.5381271839141846, -0.002446950413286686, 0.09459610283374786, 0.6271092891693115, -0.4725630283355713, 0.13414429128170013, 0.003266875399276614, 0.9894193410873413, -0.09794947504997253, 0.08139021694660187, 0.8177488446235657, 0.037586767226457596, -0.16556169092655182, -0.07731111347675323, -0.2948639988899231, -0.05947801098227501, -0.7650695443153381, -0.1869194060564041, -0.0015473028179258108, -0.022306770086288452, 0.04429272562265396, 0.0024980774614959955, 0.029658719897270203, 0.14369699358940125, -0.14068782329559326, 0.35911253094673157, 0.1743120700120926, 0.0010779728181660175, -0.2426663041114807, 0.526770293712616, -0.6020568609237671, 0.03473084419965744], [0.06680990010499954, -0.000727417878806591, 0.04657747969031334, -0.07337331771850586, -0.007837563753128052, 0.05091971904039383, 0.0023001390509307384, -0.1347373127937317, 0.11406739056110382, -0.003125471994280815, 0.01619267836213112, 0.11201305687427521, 0.01380896009504795, -0.06367018818855286, 0.0049050347879529, 0.056636810302734375, 0.030371183529496193, -0.07831926643848419, 0.07536912709474564, 0.05300910770893097, -0.050307635217905045, 0.07278016209602356, -0.033331360667943954, 0.08062680065631866, -0.00562948128208518, -0.006261767819523811, -0.00162144482601434, 0.031420279294252396, 0.13584543764591217, 0.003211364382877946, 0.05067257955670357, 0.0362970270216465, 0.05308480188250542, -0.005143388174474239, 0.06479895859956741, 0.0013737034751102328, -0.03469538316130638, -0.029678162187337875, -0.0339890755712986, 0.036787960678339005], [0.00013995688641443849, 4.3677928829310986e-08, 6.346021837089211e-05, 0.0002915364457294345, -8.135411189869046e-05, 5.3259474952938035e-05, 0.000102214005892165, 0.0003119362227153033, 0.0003171083517372608, 2.718049074701412e-07, -3.462571476120502e-05, 0.0004446971870493144, -0.0004638196842279285, 0.00025781887234188616, -5.195255994294712e-07, 0.0007504449458792806, 1.809229979699012e-05, -1.6956193576334044e-05, 0.0007499232306145132, 0.00028095359448343515, -0.0003215980832464993, -0.00011391587759135291, -0.00033673777943477035, -2.9132390409358777e-05, -0.0005580238648690283, -3.790518894675188e-05, 1.257168662505137e-07, -6.182706420077011e-05, -7.866989471949637e-05, -2.8035614718646684e-07, -4.317534694564529e-05, -8.648916991660371e-05, -0.0002476158842910081, 0.00019704968144651502, 0.00017482071416452527, -1.4708862750012486e-07, -6.666155059065204e-06, 0.0004040860803797841, -0.0006176492897793651, -1.5767318473081104e-06], [-0.08652833849191666, 0.00046085985377430916, 0.041765205562114716, -0.06427296996116638, 0.24021689593791962, -0.021566910669207573, -0.0887194573879242, -0.11128992587327957, 0.026058679446578026, 0.002081884304061532, -0.039070867002010345, -0.0875822901725769, -0.05535938963294029, 0.1113039031624794, -0.003035707399249077, -0.015996770933270454, -0.047980792820453644, 0.06734661012887955, -0.07310334593057632, -0.02875957265496254, -0.06628704816102982, -0.0044574858620762825, -0.16403740644454956, -0.21015401184558868, -0.0013145676348358393, 0.01847551204264164, 0.0011669517261907458, 0.037159524857997894, 0.008526667952537537, -0.0021269021090120077, -0.007429631892591715, 0.13746947050094604, 0.06412533670663834, 0.15781912207603455, -0.0636679008603096, -0.0010819323360919952, -0.11444530636072159, -0.01232684776186943, -0.05566316843032837, -0.0598052442073822], [0.022812580689787865, -0.0005952889332547784, 0.06399378180503845, 0.05541084334254265, 0.03203189745545387, 0.04018151015043259, 0.12730969488620758, 0.06652159243822098, 0.03822961077094078, -0.002343525178730488, 0.025379838421940804, 0.09470770508050919, -0.07155656814575195, 0.0904822051525116, 0.0035932708997279406, 0.17318107187747955, 0.023184651508927345, -0.01281764917075634, 0.18556246161460876, 0.06611333787441254, -0.028120258823037148, -0.08093655109405518, -0.044967830181121826, -0.054793160408735275, -0.117509625852108, 0.016911715269088745, -0.0011689396342262626, 0.03669555112719536, 0.08757147192955017, 0.002406669780611992, -0.021224750205874443, 0.03346031531691551, -0.0833837166428566, 0.03728710860013962, 0.07670159637928009, 0.00103916903026402, 0.016291292384266853, 0.06406226754188538, -0.1332312971353531, -0.043393585830926895], [-0.11927832663059235, -0.0011344390222802758, -0.18437559902668, -0.0025407697539776564, 0.059632785618305206, -0.014179999008774757, -0.1090116798877716, 0.20830075442790985, 0.2993006706237793, -0.002910381183028221, -0.24383898079395294, 0.5650429129600525, -0.4857655167579651, 0.15213775634765625, 0.003932219929993153, 0.9147120118141174, -0.052255190908908844, 0.14944009482860565, 0.7144656777381897, 0.17768250405788422, -0.514167845249176, 0.0016386661445721984, -0.14851264655590057, -0.045936260372400284, -0.5118579864501953, 0.001148934941738844, -0.00194206100422889, 0.18560560047626495, -0.14531011879444122, 0.002960464684292674, -0.0071135773323476315, 0.04823630303144455, -0.1312394142150879, 0.046605970710515976, 0.14238977432250977, 0.0015806552255526185, -0.16201898455619812, 0.17212150990962982, -0.24243520200252533, 0.06290231645107269], [0.021779250353574753, -0.0002641216560732573, -0.031676821410655975, 0.05333106964826584, 0.005203716456890106, 0.023007832467556, 0.0004400162142701447, 0.07819585502147675, 0.012361912056803703, -0.001263015205040574, 0.028449319303035736, 0.026601308956742287, 0.05657879263162613, 0.1299191415309906, 0.001922135939821601, -0.023851651698350906, 0.03043207712471485, -0.040285032242536545, -0.02979901060461998, -0.07539121061563492, 0.032837435603141785, 0.10781534016132355, 0.06644932180643082, 0.07828431576490402, -0.017280006781220436, 0.044043540954589844, -0.000700640375725925, -0.05533555895090103, -0.007341885939240456, 0.0012952678371220827, 0.01995396427810192, -0.03708271682262421, 0.008026189170777798, -0.04167940840125084, 0.025599608197808266, 0.0005250574322417378, -0.0870656669139862, -0.040604621171951294, 0.06584295630455017, -0.0061750272288918495], [0.32898497581481934, 0.0002936380042228848, 0.15495286881923676, 1.2201366424560547, -0.39606332778930664, -0.024740897119045258, -0.17332440614700317, -1.264108657836914, 0.041138436645269394, 0.0009593476424925029, 0.02735116519033909, -0.8570181727409363, 0.03909430652856827, -0.02091495506465435, -0.0013007154921069741, -0.017591970041394234, 0.26907968521118164, -0.9125813245773315, 0.1451990157365799, -0.12724465131759644, 0.1541597992181778, -0.009388054721057415, 0.1349749118089676, 0.7830143570899963, -0.4475652575492859, 0.48595425486564636, 0.0006336981314234436, -0.06774482876062393, -0.12347408384084702, -0.0009850647766143084, -0.018750818446278572, -0.20055042207241058, -0.12565463781356812, -0.2748439908027649, 0.26706334948539734, -0.00030014789081178606, -0.24447320401668549, 0.025628358125686646, -0.015696831047534943, -0.7055885791778564], [-0.0011599258286878467, 0.0002113303344231099, 0.001135054393671453, -0.0019122689263895154, -0.0009736963547766209, -0.004131601192057133, 0.00038041843799874187, -0.000985336722806096, 0.00017186369223054498, 0.0008730334229767323, 0.0009743771515786648, -0.002133564557880163, 0.0010392585536465049, -0.0019093687878921628, -0.0012929002987220883, -0.000139749696245417, 0.0009469830547459424, -0.0037861517630517483, -0.0003141621418762952, -0.00040288548916578293, -0.0003762839187402278, 0.0016530441353097558, -0.001021049334667623, 4.6398708946071565e-06, -0.0004723900055978447, -0.00024964738986454904, 0.00047260543215088546, -0.0037555298767983913, -0.002336944453418255, -0.0008940724655985832, -0.0003365767188370228, -0.001535135437734425, -0.0030250255949795246, 0.0013732596999034286, 0.001492215902544558, -0.0004103387182112783, 0.001430355361662805, 0.003226624568924308, -0.0004333802789915353, 0.0004402604536153376], [-0.007836994715034962, 0.000981018180027604, 0.43429842591285706, 0.05416091904044151, 0.23563022911548615, -0.14479421079158783, -0.023276088759303093, 0.2195844054222107, 0.07392961531877518, 0.002376619493588805, -0.000538118474651128, -0.17926588654518127, 0.5652404427528381, 0.5641793012619019, -0.0035062849055975676, -0.04029744118452072, 0.04145189747214317, 0.48698365688323975, -0.13928315043449402, -0.21412867307662964, 0.13842348754405975, -1.3334389925003052, -0.0708518996834755, -0.22605763375759125, 0.11526510119438171, -0.02770964801311493, 0.0015955489361658692, -0.08640065789222717, -0.5605748295783997, -0.0024281563237309456, -0.07332263141870499, 0.07760722935199738, -0.03441658243536949, -0.09601762890815735, -0.02080085501074791, -0.0013699179980903864, -0.06583406031131744, 0.10388689488172531, 0.07975077629089355, 0.12499771267175674], [-0.19353406131267548, -0.00010595614003250375, -0.28700438141822815, 0.3817530870437622, -0.14776068925857544, 0.10351431369781494, 0.005782017018646002, 0.3397430181503296, 0.03486689180135727, -0.001423210371285677, 0.08271327614784241, 0.25150951743125916, -0.1830776035785675, -0.07073895633220673, 0.0019049437250941992, 0.06033307686448097, -0.2688460350036621, -0.17290827631950378, 0.05579245463013649, 0.09256060421466827, -0.1849285513162613, -0.0034634661860764027, -0.06785392761230469, 0.7387006282806396, 0.2689466178417206, -0.07373444736003876, -0.0009288821602240205, -0.10660374164581299, -0.07006748020648956, 0.0014469368616119027, 0.011557009071111679, 0.17142580449581146, -0.13225698471069336, -0.36979445815086365, -0.2252015918493271, 0.0005033921916037798, 0.020295647904276848, 0.16766203939914703, -0.28226304054260254, 0.5330121517181396], [0.13249173760414124, -0.0011737485183402896, -0.03177819773554802, -0.02837311662733555, 0.20986513793468475, -0.011012625880539417, -0.04809810593724251, 0.06007802113890648, 0.32343581318855286, -0.006359275430440903, -0.05761626735329628, -0.15111081302165985, 0.06028611958026886, 0.053106583654880524, 0.009558850899338722, -0.1071019098162651, 0.3569798767566681, -0.29772379994392395, -0.27907106280326843, -0.05465084686875343, 0.2516857981681824, 0.0012228811392560601, 0.02347356081008911, 0.18808716535568237, -0.006549451965838671, 0.11912503838539124, -0.0031633854378014803, 0.16072173416614532, 0.025550847873091698, 0.00651860237121582, 0.017588824033737183, -0.2213546335697174, -0.4899670481681824, -0.03323837369680405, 0.38791194558143616, 0.0028212862089276314, -0.07955771684646606, -0.15940025448799133, -0.2616608738899231, -0.05008219927549362], [0.07285165041685104, 0.001020282506942749, 0.11164341121912003, -0.1423054039478302, 0.22367551922798157, -0.2488466054201126, -0.08928985893726349, -0.01469779759645462, -0.06849074363708496, 0.0027701095677912235, 0.039631158113479614, 0.0030188628006726503, -0.15380336344242096, -0.139600470662117, -0.003520224941894412, 0.02280699647963047, -0.0792519748210907, 0.027297480031847954, -0.002903002081438899, 0.07666128873825073, 0.4414273798465729, 0.190626323223114, -0.3681842088699341, 0.13915176689624786, -0.20112591981887817, -0.06498599797487259, 0.0017380586359649897, -0.020837800577282906, -0.38025277853012085, -0.0028176039922982454, 0.09174969047307968, 0.24440208077430725, -0.03664416819810867, -0.18323975801467896, -0.05388720706105232, -0.0015450839418917894, -0.03380168601870537, 0.03244816139340401, 0.32478848099708557, 0.03203805536031723], [0.07209283858537674, -0.0017091971822082996, -0.033878982067108154, -0.06249094754457474, 0.008375040255486965, -0.020321901887655258, -0.18625840544700623, 0.016449732705950737, 0.14526782929897308, -0.006378975696861744, -0.040833838284015656, -0.2972358763217926, 0.0439368300139904, -0.030609063804149628, 0.008929839357733727, -0.16761034727096558, 0.09623678773641586, -0.056712958961725235, -0.171528160572052, 0.23942428827285767, -0.14707788825035095, 0.028308071196079254, 0.032971277832984924, 0.007223986554890871, 0.17331527173519135, -0.04219977930188179, -0.0038226530887186527, 0.07727647572755814, 0.014906059950590134, 0.006509687285870314, -0.025809232145547867, 0.5863130688667297, 0.12060637027025223, 0.13427004218101501, -0.05079787224531174, 0.0032478594221174717, -0.04137926921248436, 0.02192695252597332, -1.4617196321487427, 0.01817244477570057], [0.10347054898738861, 0.0009948157239705324, 0.21161819994449615, 0.21488521993160248, -0.22098979353904724, -0.11135336011648178, -0.00528837600722909, 0.358266681432724, 0.20633111894130707, 0.004832099657505751, 0.11430317908525467, -0.07705628871917725, 0.0043844967149198055, -0.11129102855920792, -0.006614842917770147, 0.06464465707540512, 0.12159353494644165, 0.0402112752199173, 0.26121318340301514, -0.032695621252059937, 0.017598653212189674, 0.13998164236545563, 0.15574967861175537, 0.033947885036468506, -0.1787409633398056, 0.18502575159072876, 0.003036730457097292, -0.02363451011478901, -0.011602365411818027, -0.004925957880914211, 0.01456561591476202, -0.1793297678232193, -0.02803007699549198, -0.05079105868935585, 0.388480007648468, -0.002315990626811981, -0.04045639932155609, 0.10990718007087708, -0.09351049363613129, -0.32489845156669617], [-0.010047986172139645, 0.002520317677408457, 0.016305606812238693, 0.033738359808921814, -0.002542577451094985, -0.005662157200276852, 0.1714722365140915, -0.041571103036403656, -0.12952420115470886, 0.00981354434043169, 0.07404317706823349, -0.02121634967625141, -0.07478352636098862, 0.00011361400538589805, -0.01363801583647728, 0.19730347394943237, -0.09160339087247849, 0.03873765096068382, 0.14282485842704773, -0.574852705001831, 0.21615447103977203, 0.0225165206938982, -0.07964025437831879, -0.06067108362913132, -0.23060493171215057, -0.012543406337499619, 0.006261142902076244, -0.09057341516017914, -0.07942897826433182, -0.01000248733907938, 0.02893412485718727, -0.17014670372009277, 0.020690402016043663, -0.15834693610668182, -0.10411512851715088, -0.0048197610303759575, 0.01331559382379055, 0.03671054169535637, 0.14287206530570984, 0.06702747195959091], [-0.004168739542365074, 0.0008637862047180533, 0.00418147724121809, -0.005600223317742348, -0.004126395098865032, -0.015416735783219337, 0.0006460485165007412, -0.004180388990789652, 0.00069039425579831, 0.0034173515159636736, 0.0033456163946539164, -0.010080347768962383, 0.003200298873707652, -0.008667221292853355, -0.005029031075537205, -0.0005498073878698051, 0.005612001288682222, -0.011902695521712303, -0.001433029305189848, -0.000800467561930418, 0.0001872474531410262, 0.004964369814842939, -0.0022054663859307766, -0.0003992966085206717, -0.0009761778637766838, -0.002140433993190527, 0.0018744845874607563, -0.012776682153344154, -0.008997062221169472, -0.003498428501188755, -0.0003761511470656842, -0.006797864567488432, -0.011299939826130867, 0.0037258220836520195, 0.007383171934634447, -0.0016335869440808892, 0.005686777178198099, 0.011772151105105877, -0.00028368833591230214, 0.0013792670797556639], [-0.1278235912322998, -0.0010252747451886535, 0.040188755840063095, -0.06003861501812935, 0.052635807543992996, 0.12252887338399887, 0.2015172839164734, 0.2691991627216339, -0.2570623755455017, -0.004315429832786322, 0.4483274817466736, -0.38502243161201477, 0.1008058413863182, 0.2957229018211365, 0.006251220591366291, 0.055638834834098816, -0.8642247319221497, 0.03962938115000725, 0.04988550767302513, -0.09556570649147034, -0.09824156761169434, -0.11800320446491241, 0.10203263908624649, -0.12269574403762817, -0.07318312674760818, -0.09504091739654541, -0.002463441574946046, 0.6937910914421082, 0.1043897271156311, 0.004412946756929159, 0.1331501454114914, -0.061991527676582336, -0.17831671237945557, -0.1258796900510788, 0.10932208597660065, 0.002171143190935254, -0.22118480503559113, -0.015207543037831783, 0.1067802682518959, 0.053395260125398636], [-0.04689837619662285, 0.0009397228714078665, 0.10663896054029465, -0.12926939129829407, 0.2090669870376587, -0.10407421737909317, -0.0012410065392032266, -0.1290813833475113, 0.07658173143863678, 0.0015433636726811528, -0.040012236684560776, 0.3152025640010834, -0.05461179465055466, 0.0652046799659729, -0.001738906023092568, 0.10625666379928589, 0.08951383829116821, -0.0683438777923584, 0.1837383508682251, -0.08374729752540588, -0.07326530665159225, -0.015249492600560188, 0.05041738972067833, 0.10266926884651184, -0.09898263216018677, -0.1029522567987442, 0.001348125166259706, -0.13301250338554382, 0.02776983380317688, -0.0015579634346067905, -0.06596957892179489, -0.07703553140163422, 0.06268557161092758, 0.12684713304042816, 0.038881413638591766, -0.000762315874453634, -0.01682998239994049, 0.06592831015586853, -0.11415628343820572, 0.1654369980096817], [0.006700111087411642, 0.0012736622011289, -0.15074600279331207, 0.04971214383840561, -0.2984827160835266, -0.17924560606479645, 0.5183386206626892, -0.045151349157094955, -0.14718055725097656, 0.004390714690089226, -0.04826100915670395, -0.1582714021205902, -0.2054586261510849, 0.038463570177555084, -0.006084236782044172, -0.19621463119983673, 0.0389283187687397, -0.03685856610536575, -0.12641628086566925, -0.04358347877860069, -0.2897765636444092, -0.21071262657642365, 0.00032013049349188805, 0.09208207577466965, 0.1717595010995865, 0.10143914818763733, 0.0028822238091379404, -0.010068968869745731, 0.48216626048088074, -0.004476317670196295, -0.01418977789580822, 0.194686621427536, -0.008861161768436432, 0.12098578363656998, -0.016908500343561172, -0.0022895389702171087, 0.019623007625341415, -0.06706377118825912, -0.3913610875606537, -0.0009745469433255494], [-0.12180297821760178, 0.0013692337088286877, 0.09530749171972275, 0.17896555364131927, 0.10791750252246857, 0.2031227946281433, 0.21175341308116913, -0.03710522502660751, -0.37797099351882935, 0.005304560996592045, 0.10324127227067947, -0.17803576588630676, -0.07463593780994415, -0.10142897069454193, -0.007274589966982603, 0.1591174602508545, -0.04570154845714569, -0.26647284626960754, -0.001010547741316259, 0.25556686520576477, -0.30441081523895264, -0.006004254333674908, 0.11129090934991837, -0.25108209252357483, 0.053216755390167236, 0.034821901470422745, 0.0032229649368673563, -0.06011778861284256, 0.7411798238754272, -0.005412360653281212, 0.24781613051891327, 0.393234521150589, -0.07598161697387695, 0.35188207030296326, 0.15548837184906006, -0.002170837949961424, 0.03131749853491783, -0.06778611987829208, -0.07736524194478989, -0.0140456547960639], [0.005870909430086613, -0.001256458694115281, -0.005720885004848242, 0.008256993256509304, 0.0059928069822490215, 0.021541839465498924, -0.0006039898144081235, 0.005532023962587118, -0.0009438724373467267, -0.004973529372364283, -0.00482791056856513, 0.01470198854804039, -0.004277108237147331, 0.01168972160667181, 0.007306098937988281, 0.0007326688501052558, -0.008919441141188145, 0.01680689863860607, 0.002198629081249237, 0.0011665780330076814, -0.000691562017891556, -0.006471805274486542, 0.003620817791670561, 0.0006140354089438915, 0.001122845453210175, 0.0031160758808255196, -0.002727595856413245, 0.01802644319832325, 0.012676089070737362, 0.005091194063425064, 0.0007930138963274658, 0.009187145158648491, 0.01557290367782116, -0.005144452676177025, -0.010303295217454433, 0.0023768111132085323, -0.008715718053281307, -0.01721712201833725, 0.00016467479872517288, -0.0021126368083059788], [0.018010742962360382, -0.00037657993379980326, -0.007732863537967205, 0.018866131082177162, 0.015005508437752724, 0.03315325081348419, 0.38693705201148987, -0.025763466954231262, -0.03868220001459122, 1.3535741345549468e-05, -0.05194534733891487, 0.06388157606124878, -0.06194332614541054, 0.10719679296016693, 1.4563395779987331e-05, 0.2171221822500229, -0.008055907674133778, 0.0005431896424852312, 0.1855284720659256, 0.26200732588768005, 0.1219591423869133, 0.03826124593615532, -0.050915129482746124, 0.04174395650625229, -0.09755411744117737, 0.04043126106262207, -2.626215064083226e-05, -0.0014680918538942933, 0.07304837554693222, -1.1310517948004417e-05, -0.031168963760137558, 0.02937214821577072, 0.02426915429532528, 0.1583864986896515, 0.003832196816802025, 0.00015619576151948422, 0.007583803962916136, 0.07390641421079636, -0.13166533410549164, -0.011934956535696983], [-0.2283434122800827, 0.00026226392947137356, -0.006510955281555653, -0.1376853883266449, -0.21170848608016968, 0.08919242769479752, 0.09238234162330627, 0.02227497659623623, -0.03169983997941017, 0.0008211528765968978, 0.08489972352981567, 0.275443434715271, -0.18689925968647003, -0.025364160537719727, -0.0009563526837155223, -0.1186114028096199, -0.84635990858078, -0.1021241620182991, 0.12221536785364151, 0.13800382614135742, 0.020446909591555595, -0.05882344767451286, 0.1489468216896057, -0.24670465290546417, -0.2464459240436554, 0.14309455454349518, 0.0007580265519209206, -0.7166748046875, -0.13505993783473969, -0.0008335584425367415, -0.1968231201171875, -0.2470630258321762, -0.2245713472366333, 0.11240482330322266, -0.19949252903461456, -0.000589062343351543, 0.7394131422042847, -1.5599921941757202, -0.29500412940979004, -0.2772635519504547], [0.35982176661491394, 0.003938727546483278, -0.5212863087654114, 0.24391432106494904, 0.32523512840270996, -0.09175112098455429, -0.0737457424402237, -0.44420844316482544, 0.08978105336427689, 0.015434196218848228, -0.03826764225959778, 0.03814083710312843, -0.03938322141766548, 0.2448452264070511, -0.02187427692115307, -0.09019830822944641, 0.2119974046945572, -0.7818713188171387, -0.2484482079744339, 0.06091707572340965, 0.05438939854502678, -0.5556812286376953, 0.21828803420066833, -0.24927158653736115, -0.09957803785800934, -0.15454824268817902, 0.00926685519516468, 0.040684450417757034, -0.36555007100105286, -0.015752417966723442, -0.07356524467468262, 0.24350543320178986, -0.5002462267875671, 0.12370241433382034, 0.005039389245212078, -0.007677118759602308, -0.09178242087364197, -0.017891859635710716, -0.37158164381980896, 0.39873963594436646], [-0.01491696760058403, -0.00025974231539294124, 0.08043843507766724, -0.02719201147556305, -0.15972572565078735, -0.16615715622901917, 0.09080309420824051, 0.03619864210486412, 0.17968325316905975, -0.001091799116693437, 0.016630742698907852, 0.14513878524303436, -0.05001891404390335, 0.14298877120018005, 0.0016251701163128018, 0.2715439796447754, -0.01063748262822628, 0.025905000045895576, 0.3528721332550049, 0.021048571914434433, -0.05979940667748451, -0.01826862245798111, 0.11504524946212769, -0.008212010376155376, -0.13441555202007294, -0.04629144072532654, -0.0005373758031055331, 0.025832168757915497, 0.08094364404678345, 0.0011226523201912642, 0.02025892771780491, 0.03160184994339943, -0.021821383386850357, 0.11201055347919464, 0.13648481667041779, 0.0005124122835695744, -0.20939329266548157, 0.05387219041585922, -0.17553092539310455, 0.010325547307729721], [0.17959414422512054, -2.3715550923952833e-05, 0.02257394976913929, -0.10472100228071213, 0.10549721866846085, -0.3054822087287903, -0.27199694514274597, 0.042243592441082, 0.28694072365760803, -0.0010664311703294516, -0.010633437894284725, -0.004758487455546856, 0.14636389911174774, 0.10206397622823715, 0.0014027234865352511, 0.21807004511356354, -0.027159053832292557, -0.12854209542274475, -0.05369182303547859, -0.25530409812927246, -0.6909679770469666, 0.08175862580537796, -0.3633562922477722, 0.039388276636600494, 0.17791391909122467, -0.007992250844836235, -0.0006122576305642724, 0.005979081150144339, -0.13298140466213226, 0.0010832600528374314, -0.04617694020271301, -0.3047356605529785, -0.15020395815372467, 0.06846758723258972, 0.15607886016368866, 0.000623459811322391, -0.0360894538462162, -0.05780500918626785, 0.8769140839576721, -0.06777779012918472], [0.19789962470531464, 0.0004891465068794787, -0.10801190137863159, 0.02040966786444187, -0.1822158545255661, -0.43697983026504517, 0.41808339953422546, -0.039856575429439545, 0.13302209973335266, 0.0031215788330882788, 0.03577679023146629, -0.08176811784505844, 0.30192676186561584, 0.17161421477794647, -0.004536409396678209, -0.010103030130267143, -0.047197431325912476, -0.2031557261943817, -0.2220018208026886, 0.19470848143100739, 0.17127974331378937, -0.2049238532781601, 0.1532343029975891, 0.04965987801551819, 0.11767637729644775, -0.02642439678311348, 0.0014056152431294322, -0.15554755926132202, 0.9842039942741394, -0.003187051508575678, 0.0929846316576004, 0.12464047968387604, 0.05862269923090935, 0.30844321846961975, 0.13540880382061005, -0.0014857579953968525, -0.013799455016851425, 0.03187938779592514, -0.33970907330513, -0.014684435911476612], [-0.0643877163529396, 7.056915637804195e-05, 0.1698209047317505, -0.026955170556902885, 0.29359766840934753, 0.509843111038208, -0.6527414917945862, 0.06015155091881752, 0.10858878493309021, 3.311220643809065e-05, -0.013254597783088684, -0.3158319592475891, -0.22774845361709595, -0.2389937788248062, 0.0001019895207718946, -0.28535768389701843, 0.22950473427772522, 0.38381725549697876, 0.24709217250347137, -0.15940643846988678, 0.3922460079193115, 1.468734622001648, -0.24100199341773987, -0.0340481661260128, -0.07952725887298584, 0.15072037279605865, 0.00014238344738259912, 0.014841600321233273, -2.3612072467803955, -6.384716834872961e-05, -0.2897483706474304, -0.48043450713157654, -0.21107947826385498, 0.4883333742618561, -0.17577488720417023, 0.0001640709670027718, -0.0055014509707689285, 0.03750714287161827, -0.1167411208152771, -0.0009398140828125179], [0.003109600627794862, -0.0031162213999778032, 0.05062662810087204, -0.009879637509584427, -0.09298582375049591, 0.19728733599185944, 0.14367656409740448, 0.01221256610006094, -0.18222083151340485, -0.013156195171177387, -0.12844239175319672, -0.10838141292333603, -0.0071745365858078, -0.08841170370578766, 0.01890762895345688, -0.12314163893461227, -0.13440896570682526, 0.019012901932001114, -0.004401362035423517, -0.010042029432952404, -0.09532641619443893, 0.009102482348680496, -0.130464568734169, 0.054400037974119186, -0.02880971133708954, 0.1008860245347023, -0.0074188243597745895, -0.06752350181341171, 0.05056759715080261, 0.013451261445879936, -0.010723860934376717, 0.578498899936676, -0.05015037581324577, 0.12597370147705078, -0.02638699859380722, 0.006323353387415409, -0.026471812278032303, 0.03661966696381569, 0.10096121579408646, -0.03758988529443741], [-0.41490352153778076, -0.0003168256371282041, 0.2688860595226288, -0.2135091871023178, -0.24108101427555084, 0.03564700856804848, -0.10118024051189423, 0.3372579514980316, 0.07419157028198242, -0.001876909052953124, -0.10846507549285889, -0.0019159336807206273, 0.2012314349412918, 0.39680466055870056, 0.0026278842706233263, 0.10432089120149612, 0.048899631947278976, -0.08467907458543777, 0.005382505711168051, 0.03749684616923332, -0.07464281469583511, -0.28766146302223206, 0.04068910330533981, 0.12948571145534515, -0.10230274498462677, -0.09396573901176453, -0.0008332394063472748, 0.20003868639469147, -0.15373390913009644, 0.0019257499370723963, -0.1155427098274231, 0.08931021392345428, -0.146153524518013, -0.179721862077713, -0.14128153026103973, 0.0006568863173015416, -0.1302693486213684, -0.1282806396484375, 0.06374870240688324, 0.10367467254400253], [0.044016338884830475, 0.00030398688977584243, 0.0051095630042254925, 0.040695834904909134, 0.05188853666186333, -0.14219795167446136, 0.08734346926212311, -0.007942203432321548, -0.24239341914653778, 0.0013061024947091937, -0.05785568803548813, -0.06644247472286224, 0.13217376172542572, -0.11781150102615356, -0.0017851999728009105, -0.19269567728042603, 