{"model_data": {"model": "SimpleRNN", "input_size": 1, "skip": 1, "output_size": 1, "unit_type": "LSTM", "num_layers": 1, "hidden_size": 40, "bias_fl": true}, "state_dict": {"rec.weight_ih_l0": [[-0.14635032415390015], [-0.05974220857024193], [0.007752988021820784], [0.08037322014570236], [0.03593312203884125], [-0.15352588891983032], [0.02596317231655121], [-0.06740354001522064], [0.029391847550868988], [-0.027575049549341202], [0.002954713301733136], [7.508230919484049e-05], [-0.02112032286822796], [-0.000362067628884688], [-0.08926698565483093], [0.06475638598203659], [0.07094120979309082], [0.00013895241136197], [0.002015369012951851], [0.021246759220957756], [-0.0666809156537056], [0.18813574314117432], [-0.08258626610040665], [-0.004733711946755648], [-0.0038395305164158344], [-0.005243388004601002], [0.013346808962523937], [0.009415817447006702], [-0.08657539635896683], [0.01303438376635313], [0.010864878073334694], [-0.11846527457237244], [0.09173406660556793], [-0.04433851316571236], [0.0009877396514639258], [-0.005855238996446133], [0.072357177734375], [0.03863869607448578], [0.0668146163225174], [-0.008922292850911617], [-0.1576792597770691], [-0.0532366968691349], [0.01256952527910471], [0.03431595116853714], [0.08848678320646286], [0.15726253390312195], [0.09250714629888535], [-0.004764121491461992], [0.05225444957613945], [-0.03757501766085625], [0.004705699160695076], [-0.00018498071585781872], [-0.028488969430327415], [-0.0003718451189342886], [-0.10401534289121628], [-0.09269557148218155], [0.12175169587135315], [-2.5080074919969775e-05], [0.03201618045568466], [0.02927546389400959], [-0.19368299841880798], [-0.2926499843597412], [-0.12465853989124298], [-0.002416192553937435], [-0.0036422333214432], [-0.005338537972420454], [0.05144036188721657], [0.014155480079352856], [-0.14258576929569244], [0.03349418565630913], [0.009317475371062756], [-0.11704479902982712], [0.09881347417831421], [0.16436709463596344], [0.0009268439025618136], [0.01965346932411194], [0.03700544685125351], [0.04567400738596916], [-0.0074702175334095955], [-0.006919228471815586], [0.3603312075138092], [-0.9426712393760681], [-0.36518701910972595], [-0.5744907855987549], [-0.7825437784194946], [-0.12731099128723145], [0.2612006962299347], [-0.10942206531763077], [-0.0752754658460617], [0.3003855347633362], [0.4730324149131775], [0.03284400328993797], [-0.26477310061454773], [0.008466868661344051], [0.09145795553922653], [1.8468798398971558], [0.11636892706155777], [0.015425699763000011], [0.36444929242134094], [0.1643955260515213], [0.2360321581363678], [-0.036040619015693665], [-0.1905859261751175], [-0.21543245017528534], [-0.06946943700313568], [-0.308083176612854], [0.17505663633346558], [0.003403350943699479], [-0.2530843913555145], [-0.39332687854766846], [-0.30066198110580444], [-0.08201911300420761], [-0.5298974514007568], [0.25008127093315125], [-0.173444002866745], [1.7791469097137451], [0.33843931555747986], [0.1516014188528061], [0.06436153501272202], [-0.0007984151015989482], [-0.16704757511615753], [-0.0375855527818203], [0.008369844406843185], [0.1453760862350464], [0.06669960916042328], [0.01417806651443243], [0.04562706872820854], [-0.02683698572218418], [0.032212790101766586], [-0.029293572530150414], [-0.010241365060210228], [-2.705145789150265e-06], [-0.025607004761695862], [-0.00032631083740852773], [-0.08485262095928192], [-0.03142739087343216], [0.10378170013427734], [0.00014534033834934235], [0.015139246359467506], [0.022745443508028984], [-0.14811526238918304], [-0.07360712438821793], [-0.11550319939851761], [-0.00672031007707119], [-0.003386119147762656], [-0.005637845490127802], [0.037184569984674454], [0.012225249782204628], [-0.09926216304302216], [0.01687297783792019], [0.01181547436863184], [-0.08735416829586029], [0.06595274806022644], [0.10000380128622055], [0.0020313698332756758], [0.0071841152384877205], [0.028298111632466316], [0.03853214904665947], [0.07099059969186783], [-0.007837843149900436]], "rec.weight_hh_l0": [[-0.0860646441578865, 0.11212211847305298, 0.024342291057109833, 0.053173135966062546, 0.08711226284503937, 0.07256991416215897, -0.03183399513363838, -0.03312336653470993, -0.008624638430774212, -0.008813987486064434, -0.034347258508205414, -0.002905434463173151, 0.014204002916812897, 0.0033787323627620935, 0.08960966020822525, -0.18750160932540894, -0.04788830876350403, -0.0036412468180060387, -0.1327829211950302, -0.006138250697404146, -0.09896090626716614, 0.12821745872497559, -0.02597053535282612, -0.005508328787982464, -0.004372875206172466, -0.0219542495906353, 0.0386766716837883, 0.00034454232081770897, 0.09148900210857391, 0.017584582790732384, -0.006852553226053715, 0.07966479659080505, 0.0619015134871006, -0.013885308988392353, -0.002477706875652075, -0.041404660791158676, 0.04099823907017708, -0.038254719227552414, -0.018101157620549202, -0.0040102568455040455], [0.019434068351984024, -0.1052059754729271, 0.01797967031598091, 0.111328125, 0.02382371947169304, -0.01344331819564104, 0.011634155176579952, 0.030923934653401375, -0.0036149239167571068, -0.02619478665292263, -0.013066740706562996, 0.0017830306896939874, 0.029170436784625053, -0.0003765418950933963, 0.0664166659116745, -0.11141672730445862, 0.029433026909828186, 0.0035474500618875027, 0.09231821447610855, -0.009873652830719948, 0.03774775564670563, -0.0049928827211260796, 0.0838407352566719, 0.02457127533853054, 0.00015456511755473912, 0.009622170589864254, -0.05265694484114647, -0.010334040969610214, -0.02455713413655758, 0.01978382095694542, 0.019041679799556732, -0.057380788028240204, -0.014691032469272614, -0.008286959491670132, -0.0016399379819631577, -0.07625735551118851, -0.06307485699653625, 0.016424283385276794, 0.02189948968589306, 0.0014215693809092045], [-0.0044664861634373665, -0.00846920721232891, -0.0016404032940045, 0.0011913583148270845, -0.008272139355540276, 0.010545480065047741, 0.000844764057546854, 0.003255183110013604, -0.0027115633711218834, -0.0008575003012083471, 0.0017513907514512539, 1.55234411067795e-05, 0.0018803150160238147, -0.0003925675409846008, 0.008433421142399311, 0.020221352577209473, 0.009237059392035007, 0.0001559051888762042, -0.001855903654359281, 0.000997545081190765, -0.006862981244921684, 0.006351124029606581, 0.006250191945582628, -0.0004581921675708145, 0.0008785852114669979, -0.00033649109536781907, -0.00035579470568336546, -0.0006425698520615697, -0.011717190966010094, -0.003929905593395233, -0.0019489811966195703, 0.00524267228320241, -0.0088956905528903, -0.005990922916680574, 0.0003295809729024768, 0.0027309462893754244, 0.011570584028959274, 0.0014346956741064787, -0.0020699985325336456, 0.000835831044241786], [0.06906727701425552, -0.14287129044532776, -0.037960369139909744, -0.015359816141426563, -0.05686632916331291, 0.08990604430437088, 0.025732126086950302, 0.06797746568918228, 0.01580744981765747, 0.056476060301065445, -0.025821996852755547, 0.002356895711272955, 0.0015875709941610694, -0.001405724324285984, -0.07672382891178131, -0.26016029715538025, 0.09677596390247345, 0.0061148288659751415, 0.15393821895122528, 0.015040959231555462, 0.07831266522407532, 0.04067693278193474, 0.09601101279258728, 0.01596352458000183, -0.0030098326969891787, 0.047766897827386856, 0.010230332612991333, -0.004516080487519503, 0.002255519386380911, -0.02878650091588497, 0.03921419754624367, -0.06286163628101349, 0.02345563843846321, -0.042697567492723465, 0.0029822520446032286, 0.035508375614881516, 0.027251671999692917, 0.013385657221078873, 0.24314232170581818, -0.001968714641407132], [-0.06299743056297302, -0.04375646635890007, 0.021358434110879898, 0.09714240580797195, -0.07564384490251541, 0.05304427072405815, -0.021761728450655937, -0.07513580471277237, -0.006318997126072645, -0.043121110647916794, 0.03991950675845146, 0.0034002424217760563, 0.01463280525058508, -0.0019294996745884418, 0.11722138524055481, 0.14815138280391693, 0.04856741055846214, 0.00565235735848546, -0.03942258283495903, -0.023783981800079346, -0.05540262907743454, 0.037640467286109924, 0.07108808308839798, 0.010319872759282589, 0.004443054553121328, -0.026309039443731308, -0.039879169315099716, 0.005531600676476955, -0.08028603345155716, 0.0037546625826507807, -0.014631005004048347, 0.0534345917403698, -0.11082879453897476, 0.027344118803739548, -0.00687970919534564, 0.05458414927124977, -0.029621681198477745, 0.04836704954504967, 0.01710647903382778, 0.018446194007992744], [-0.07098542898893356, -0.10729727894067764, 0.020684387534856796, 0.10270384699106216, -0.11209234595298767, 0.08774016797542572, 0.06899797916412354, 0.07430115342140198, -0.11343690752983093, -0.09265399724245071, 0.0015949798980727792, 0.00017196741828229278, 0.030102381482720375, -0.0015154859283939004, 0.22324496507644653, -0.12393879890441895, -0.3000939190387726, -0.0021336835343390703, -0.10430262237787247, -0.006652199663221836, -0.14247386157512665, 0.32542315125465393, 0.19055363535881042, 0.014435970224440098, -0.00595785491168499, -0.029977690428495407, -0.03928836062550545, 0.01053676474839449, -0.033422134816646576, -0.0318649485707283, -0.003520274069160223, 0.06757853180170059, -0.15233685076236725, 0.099416583776474, 0.002468371530994773, -0.03527599573135376, 0.027155864983797073, 0.04380270093679428, 0.24341632425785065, -0.008217650465667248], [-0.012018629349768162, -0.04176222160458565, -0.005563236773014069, -0.0678955465555191, -0.0027808710001409054, -0.06297287344932556, 0.08431889861822128, -0.036344707012176514, -0.036678846925497055, 0.019481804221868515, -0.04682200029492378, -0.0012233377201482654, -0.0072913928888738155, 0.0011814452009275556, 0.033170927315950394, 0.03213288635015488, -0.0884302407503128, -0.0030252288561314344, 0.06301049888134003, 0.01633288711309433, -0.000640968675725162, -0.005561684723943472, -0.0344269797205925, -0.00969456322491169, -0.0019663984421640635, 0.003193405456840992, -0.04776489734649658, -0.02151593193411827, 0.06462346017360687, -0.019587259739637375, -0.0024026776663959026, 0.01229196134954691, 0.04748598486185074, 0.07891017943620682, 0.0005725828814320266, -0.01550005842000246, 0.04373108595609665, -0.012009529396891594, -0.0005143883172422647, -0.0064286296255886555], [-0.03001648373901844, -0.1276790201663971, -0.007632938679307699, -0.10779043287038803, -0.14065580070018768, 0.022295773029327393, -0.01034605409950018, -0.09082327038049698, -0.02946554683148861, 0.0073029110208153725, 0.001203496940433979, -0.0022774103563278913, 0.008002949878573418, -0.002411375753581524, 0.009068338200449944, 0.4907730519771576, -0.017800001427531242, -0.005571760702878237, 0.006062070373445749, 0.01656923070549965, -0.03692924976348877, -0.1340775191783905, 0.07150828093290329, -0.008233575150370598, 0.006731824949383736, 0.012232103385031223, 0.004314718768000603, -0.01650288514792919, -0.06995216757059097, -0.008543388918042183, -0.03506816178560257, -0.00011451816681073979, -0.10661548376083374, 0.009501310996711254, 0.011414567939937115, -0.014619771391153336, 0.1279013752937317, -0.014627689495682716, -0.04416923597455025, 0.007166160736232996], [-0.018990812823176384, -0.016682371497154236, 0.0002620839804876596, -0.015858391299843788, -0.020235728472471237, -0.01620534434914589, 0.061737775802612305, -0.0595272071659565, -0.03868691995739937, 0.018335316330194473, -0.034265439957380295, -0.0007753098616376519, -0.008381071500480175, -7.194148929556832e-05, -0.009398176334798336, 0.03905240446329117, -0.031303513795137405, -0.001439720974303782, 0.03116953931748867, 0.013016045093536377, -0.009466150775551796, 0.0022177756763994694, -0.0012734554475173354, -0.00564581761136651, 0.002829100703820586, 0.009175671264529228, -0.05026169493794441, -0.021136976778507233, 0.007716611493378878, -0.0010776425478979945, -0.011618497781455517, 0.019307265058159828, -0.010016818530857563, 0.08607632666826248, 0.001947486656717956, -0.003240498946979642, 0.038786400109529495, 0.006149906665086746, 0.016673466190695763, 0.004332786425948143], [-0.055845875293016434, -0.0004044577362947166, 0.010536783374845982, 0.08467147499322891, 0.02023601531982422, -0.012676130048930645, 0.010534217581152916, -0.0011024308623746037, -0.016729598864912987, -0.018904777243733406, -0.001639644498936832, 0.000996819930151105, 0.02275642193853855, -0.001272636465728283, 0.06980787217617035, 0.008754140697419643, -0.029457833617925644, 0.0014235611306503415, -0.02633645385503769, -0.006447562947869301, -0.08830621838569641, 0.08962390571832657, 0.042678892612457275, 0.004454595036804676, 0.0008448647568002343, -0.010458188131451607, -0.0042807478457689285, 0.0024099822621792555, -0.009849435649812222, -0.007619187235832214, 0.004487393423914909, 0.021608971059322357, 0.006644023582339287, 0.005955053959041834, -0.00025524082593619823, -0.01134226843714714, 0.04278554022312164, 0.0030543897300958633, -0.04891282320022583, 0.0009485271875746548], [-0.02750563994050026, -0.034295689314603806, 0.0033727537374943495, 0.062418170273303986, -0.029200397431850433, -0.04737859219312668, 0.03897790238261223, -0.006350641138851643, -0.023590367287397385, 0.0012977600563317537, -0.022986652329564095, -0.00017979336553253233, 0.0038713193498551846, -0.0004168552113696933, 0.042291171848773956, -0.021574871614575386, -0.010807694867253304, -0.000512592785526067, 0.036130789667367935, 0.001565758022479713, -0.01625610701739788, 0.012561722658574581, 0.023181019350886345, -0.0003328122547827661, 0.0021278380881994963, 0.0015529819065704942, -0.0377865768969059, -0.009029264561831951, 0.017986342310905457, -0.006866158451884985, -0.0029949673917144537, 0.025147587060928345, -0.0005000974633730948, 0.04369473457336426, 0.0024044541642069817, -0.002740374766290188, 0.023681802675127983, 0.0070578353479504585, 0.015293166041374207, 0.0011975213419646025], [-0.0002934253716375679, -0.0001123251422541216, 9.927758219419047e-05, 0.0002435134956613183, -0.00034071484697051346, 0.000595265009906143, -0.0005253577255643904, -0.00018805707804858685, 1.1016654752893373e-05, 0.00020829220011364669, -7.04302146914415e-05, -1.4464215382758994e-05, 4.536108099273406e-05, 1.955576954060234e-05, -0.0001400740584358573, -0.00036238812026567757, 0.0007315627881325781, 1.1070713298977353e-05, 0.00010129134898306802, 1.9595168851083145e-05, 4.290309516363777e-05, -0.000508624070789665, -0.00010215852671535686, 0.00015187710232567042, 5.969398989691399e-05, 6.479347939603031e-05, 0.00011885085405083373, -0.00026307901134714484, -9.957901966117788e-06, 0.00040833852835930884, -0.00031861051684245467, 0.000463765551103279, -0.0005261769983917475, -0.00015029878704808652, -5.428445729194209e-05, -4.896405152976513e-05, -4.207079473417252e-05, -0.0003551414702087641, 0.0005407914286479354, 0.00020941710681654513], [-0.01628325693309307, -0.04422925412654877, 0.005662594921886921, 0.010451389476656914, 0.00662807235494256, -0.0034632468596100807, -0.01682193949818611, 0.01979202963411808, 5.197879363549873e-05, -0.014836849644780159, 0.0065463874489068985, 0.00021530879894271493, 0.013184262439608574, -0.00012714484182652086, 0.02863183803856373, 0.011851045303046703, 0.00697408989071846, -0.00013073718582745641, -0.021188611164689064, -0.004903169348835945, -0.031193826347589493, -0.013853647746145725, 0.03442778438329697, 0.006226110737770796, 3.2162970455829054e-05, -0.002722530160099268, 0.0027872808277606964, 0.0002451987820677459, -0.004758423659950495, 0.00363448029384017, -0.0002973657101392746, -0.021493665874004364, -0.007945826277136803, -0.016014661639928818, 0.0009144432842731476, 0.0001266667095478624, -0.007558205630630255, -0.005216472316533327, -0.030143043026328087, -0.0005923961289227009], [-0.00036672744317911565, -0.00014346539683174342, 3.12841912091244e-05, 0.0002871598117053509, 9.241867519449443e-05, 0.00042633371776901186, -0.00030477289692498744, 8.077867823885754e-05, 3.6352821553009562e-06, -0.00010980801016557962, 0.00013550215226132423, 1.1373095730959903e-05, 0.00013539998326450586, 5.178328137844801e-06, 0.00029644338064827025, -0.00045868573943153024, 0.00048669357784092426, 1.8075672414852306e-05, -0.0002688215463422239, -2.357384073548019e-05, -0.00036469640326686203, -0.00022971535508986562, 0.00016049730766098946, 3.151412238366902e-05, 2.254280298075173e-05, -3.75976633222308e-05, 8.877256186679006e-05, -5.014938142267056e-05, 0.0001398095628246665, 8.732586866244674e-05, -0.00013428427337203175, 0.00021120610472280532, -0.00013618794037029147, -0.0001415369479218498, -5.4984880989650264e-05, -2.0048508304171264e-05, -7.925638783490285e-05, -0.0001866995735326782, -8.339194755535573e-05, 8.976840763352811e-05], [-0.0659266784787178, 0.05149831622838974, 0.012792590074241161, 0.0073283882811665535, 0.09432368725538254, 0.04750152677297592, -0.05797779560089111, -0.10515707731246948, 0.0017264352645725012, -0.005804856773465872, -0.021818969398736954, -0.0016791555099189281, 0.018562419340014458, 0.003479128470644355, 0.12210344523191452, -0.06748519837856293, -0.024646781384944916, -0.0013223314890637994, -0.07764492928981781, -0.00874154269695282, -0.09344712644815445, 0.07269740849733353, 0.006162996403872967, 0.0147706875577569, -0.0030801757238805294, -0.005262711551040411, 0.042338985949754715, -0.004314939957112074, 0.04897329583764076, 0.027171149849891663, -0.02068805694580078, 0.05983959138393402, 0.0018190338741987944, -0.028075359761714935, -0.00576120475307107, 0.011294765397906303, 0.02811124548316002, -0.08534089475870132, -0.08597314357757568, 0.0017455137567594647], [-0.07292414456605911, 0.008494002744555473, 0.01779457926750183, 0.08904266357421875, -0.0160035640001297, 0.18700221180915833, 0.029060790315270424, -0.07681363075971603, 0.014305430464446545, 0.0011018256191164255, -0.002213772153481841, 0.0012595057487487793, 0.009851145558059216, 0.001961727859452367, 0.05061101168394089, -0.05260434374213219, 0.18841946125030518, 0.0008401463273912668, 0.029463058337569237, -0.0037122901994735003, -0.08030855655670166, -0.056166455149650574, 0.028174541890621185, -0.0015219089109450579, -0.006132300477474928, -0.0185441542416811, -0.017968952655792236, -0.008894534781575203, 0.03583211079239845, 0.007043719291687012, -0.0063261548057198524, 0.08596307039260864, 0.01024534646421671, 0.06377418339252472, -0.007380430120974779, 0.02987866848707199, -0.028102543205022812, 0.0745161771774292, 0.10291434824466705, -0.0003959734458476305], [-0.015365920960903168, -0.04515319690108299, 0.0053323074243962765, -0.015313959680497646, -0.016454054042696953, 0.07925819605588913, 0.07000855356454849, -0.028520947322249413, -0.01877237670123577, 0.014653659425675869, -0.03780583292245865, 0.00036794532206840813, 0.002023009117692709, 0.0012109566014260054, -0.006712454836815596, -0.0043830592185258865, 0.01759115234017372, 0.0010146815329790115, 0.05327995494008064, 0.0035407813265919685, 0.02485782839357853, 0.04643392935395241, 0.017315857112407684, 0.008836779743432999, -0.0016785988118499517, 0.00810905359685421, -0.06869004666805267, -0.021792594343423843, 0.03125109523534775, 0.007746706251055002, 0.00032916400232352316, 0.09017588198184967, -0.009867365472018719, 0.09657075256109238, -0.0024986504577100277, -0.009161539375782013, 0.009502162225544453, -0.002500576199963689, 0.06486104428768158, 0.0021895093377679586], [-0.0002604267210699618, 0.00038827903335914016, 3.220330108888447e-05, 0.00025789689971134067, -0.00040476222056895494, 0.0006720360834151506, -9.6083567768801e-05, 0.00016484217485412955, -0.0001075292457244359, 0.00034585603862069547, -0.0003403840819373727, -2.2438662199419923e-05, -1.7411477529094554e-05, 2.4009124899748713e-05, -0.00021863817528355867, -0.0007265217136591673, 0.0007941171643324196, -1.5543850167887285e-05, 0.00022603732941206545, 0.00014729653776157647, -9.37910663196817e-05, -0.0004262758302502334, -0.00020879747171420604, -6.431217479985207e-05, 1.4735409422428347e-05, 4.6222696255426854e-05, 3.8654445233987644e-05, -0.00018040058785118163, 0.0005474562640301883, 5.701926056644879e-05, -0.0001147450675489381, 0.0005105789750814438, -0.00015823013382032514, 0.00016069499542936683, -5.119460911373608e-05, -0.0001048384583555162, 0.0003148971882183105, -0.00013201117690186948, 0.0006169466068968177, 2.7339892767486162e-05], [-0.07142718136310577, 0.09713788330554962, -0.009502127766609192, -0.023606305941939354, 0.02174309268593788, -0.18069475889205933, 0.03591024875640869, -0.2558992803096771, -0.027387795969843864, 0.04872068762779236, -0.1583959311246872, -0.002476076828315854, -0.05858544260263443, 0.0028445213101804256, 0.01469284389168024, -0.12488996982574463, -0.23804815113544464, -0.0007702322327531874, 0.11718258261680603, 0.02369609847664833, -0.14440061151981354, 0.2955893278121948, 0.023389605805277824, 0.02003915049135685, -0.017227645963430405, 0.07621558010578156, -0.09407338500022888, -0.005215337499976158, 0.15834322571754456, -0.010322690941393375, -0.03083445131778717, -0.14381380379199982, -0.13473258912563324, 0.2912502884864807, 0.007057396229356527, 0.02388322725892067, 0.055634427815675735, -0.0386161208152771, -0.2464861124753952, -0.04028846696019173], [-0.01118183322250843, -0.004837709479033947, -0.0017956625670194626, -0.0026496495120227337, -0.008490882813930511, 0.020579013973474503, 0.019901612773537636, -0.005219784565269947, -0.005600053817033768, -0.001399973058141768, 0.002535578329116106, 8.96014244062826e-05, -0.00052426423644647, -0.0005855365307070315, 0.009924630634486675, 0.03231523558497429, 0.007071623578667641, 6.491183739854023e-05, 0.007154501974582672, 0.002561525907367468, -0.015977859497070312, 0.025747355073690414, 0.007273837458342314, -0.0036695722956210375, 0.0007167849107645452, -0.0010023084469139576, -0.006682187784463167, -0.0005325424717739224, -0.008852430619299412, -0.010078531689941883, 0.0015969391679391265, 0.011934849433600903, 0.0017721678595989943, 0.01493317075073719, 0.0005011272733099759, 0.0064210668206214905, 0.015253226272761822, 0.016738316044211388, 0.003120338311418891, 9.655447502154857e-05], [-0.0334118977189064, 0.028362860903143883, 0.011186842806637287, 0.07974876463413239, 0.14946536719799042, -0.06598541885614395, 0.007814555428922176, -0.006927188485860825, -0.002726612612605095, -0.009406020864844322, -0.04590728133916855, -0.002610212890431285, 0.019945399835705757, 0.003834161441773176, 0.022270604968070984, -0.21685850620269775, -0.1138264536857605, -0.0041285487823188305, -0.001347942859865725, -0.0067880526185035706, -0.10659127682447433, 0.11443871259689331, 0.0014806423569098115, 0.004462507553398609, -0.007634731475263834, -0.0012232835870236158, 0.012840787880122662, -0.0007008772226981819, 0.12776415050029755, 0.0003644361568149179, 0.01623288355767727, -0.02106240950524807, 0.1381540149450302, 0.04198840633034706, -0.0012933178804814816, -0.052806172519922256, 0.022614488378167152, -0.04318248853087425, -0.11810895055532455, -0.015314592979848385], [0.3000277578830719, -0.07480452209711075, -0.09846977144479752, -0.052500784397125244, 0.11691674590110779, -0.2794758975505829, 0.17035068571567535, 0.06826131045818329, 0.042562466114759445, 0.01919386349618435, 0.07559243589639664, 0.0025384416803717613, -0.05694051459431648, -0.0011878299992531538, -0.20272286236286163, 0.2580803632736206, -0.31934720277786255, 0.0027712928131222725, 0.1591574251651764, 0.028741182759404182, 0.224094420671463, 0.08562793582677841, 0.025721300393342972, -0.021439621224999428, 0.005882078781723976, 0.06825081259012222, 0.009110119193792343, 0.016568172723054886, -0.20028482377529144, -0.08154885470867157, -0.034036289900541306, -0.3065236806869507, -0.07397305965423584, -0.003783587832003832, -0.0023393300361931324, 0.2122555673122406, 0.04570123553276062, 0.02555972710251808, -0.07187267392873764, 0.014176547527313232], [-0.0034838446881622076, -0.15604448318481445, 0.013709824532270432, 0.1340053379535675, -0.005405821371823549, -0.10647452622652054, -0.02319413237273693, 0.040572695434093475, -0.03053346648812294, -0.011451467871665955, -0.02919684164226055, 7.734300015727058e-05, 0.0363067202270031, -0.0006446461193263531, 0.006697495002299547, -0.0935714915394783, -0.03114069439470768, 2.842758476617746e-05, 0.053414054214954376, 0.00023625722678843886, -0.024870863184332848, -0.03348071128129959, 0.11268548667430878, 0.028114138171076775, 0.003519870573654771, 0.02319490723311901, -0.03820537403225899, -0.021565748378634453, -0.026248937472701073, 0.023003827780485153, -0.010135511867702007, -0.12571096420288086, -0.06638398766517639, -0.004019831772893667, 0.003956161439418793, -0.04252033680677414, -0.012985077686607838, -0.045463647693395615, -0.06150555610656738, 0.003125259419903159], [-0.001997897634282708, -0.0037859308067709208, -0.00376598397269845, 0.013849456794559956, -0.004196160938590765, -0.0008981097489595413, 0.003892076201736927, 0.020631905645132065, -0.004381984006613493, 0.002736008958891034, -0.005513285286724567, -0.0001601098629180342, 0.0016265225131064653, -0.00021166697843000293, -0.000250188255449757, -0.013359897769987583, 0.003908099140971899, -0.0005403904360719025, 0.0034373535308986902, 0.004824630916118622, -0.004318582359701395, -0.010181845165789127, -0.00018947714124806225, -0.0015237288316711783, -0.00026548816822469234, 0.002277006395161152, 0.0019158440409228206, -0.002374842530116439, 0.007765358313918114, -0.00537243252620101, -0.0009423415758647025, -0.001876018475741148, 0.0009986290242522955, 0.0010950686410069466, 0.0008582746377214789, 0.000378145748982206, 0.012131624855101109, -0.008091388270258904, -0.006368822418153286, -0.002520818030461669], [-0.0028374141547828913, -1.594255809322931e-05, 0.0006317688385024667, 0.003532676724717021, 0.0008710044785402715, 0.0014030844904482365, -0.0017629669746384025, 0.0014754548901692033, -0.0005244007334113121, -0.0007601184188388288, -0.0006912501994520426, 6.805912562413141e-05, 0.001469686278142035, 2.219962698291056e-05, 0.0017844905378296971, -0.004740818869322538, 0.0021708132699131966, 0.00015487323980778456, -0.00158412114251405, -0.00016364063776563853, -0.0032911994494497776, -0.0011179300490766764, 0.001529662637040019, 0.0007611580658704042, -0.00016840324678923935, -0.00020903909171465784, 0.00022583740064874291, -0.00038680818397551775, 0.002381269820034504, 0.0008418680517934263, -0.00021098506113048643, 0.0007647712482139468, -0.00044095134944655, -0.0005428928998298943, -0.00025910785188898444, -0.0018555611604824662, -5.0631570047698915e-05, -0.001936122658662498, -0.0014277148293331265, -0.00017596319958101958], [-0.0010370073141530156, -0.02379560098052025, -0.0017465802375227213, 0.027501219883561134, -0.021627560257911682, -0.01901092939078808, -0.011515610851347446, -0.017389288172125816, -0.010570158250629902, 0.006939248647540808, -0.008714566938579082, -0.00045946278260089457, 0.0031126458197832108, -7.689595076953992e-05, 0.011096187867224216, 0.0008339292835444212, -0.013149457052350044, -0.0005218044971115887, 0.011227855458855629, 0.0037529701367020607, -0.010686111636459827, 0.03077346459031105, 0.015073459595441818, 0.0017503243871033192, 0.0013494921149685979, 0.006758594885468483, -0.0019185177516192198, -0.006558247376233339, -0.0016962053487077355, 0.0030429598409682512, -0.011191258206963539, -0.0019387546926736832, -0.03559946268796921, 0.0052104126662015915, 0.0009442453156225383, 0.011908238753676414, 0.02209482714533806, -0.014252657070755959, -0.02051733247935772, 0.0016368207288905978], [0.011371947824954987, -0.061950016766786575, 0.0003034238761756569, 0.039330337196588516, -0.04377174749970436, -0.11754754930734634, 0.04992993548512459, -0.028189117088913918, -0.02500634640455246, 0.01986648514866829, -0.04472949728369713, 0.0006123416242189705, -0.0006411587237380445, 0.0001656656531849876, -0.004394040443003178, -0.002807782730087638, -0.06252124905586243, 0.0006784407887607813, 0.08442613482475281, 0.01079489104449749, 0.02066597156226635, -0.005505802575498819, 0.023390157148241997, 0.005160452798008919, -0.001002833480015397, 0.014960293658077717, -0.07485805451869965, -0.022037802264094353, 0.02442242205142975, 0.0002136461844202131, -0.007385042496025562, -0.021963873878121376, -0.02795194834470749, 0.10243522375822067, 0.00088856415823102, -0.025995619595050812, 0.006122739985585213, -0.002308587310835719, 0.009563231840729713, -0.002065033419057727], [-0.009235101751983166, -0.023867255076766014, 0.0019288938492536545, 0.0009365688893012702, -0.01413815375417471, -0.017714031040668488, 0.015661587938666344, -0.012220464646816254, -0.01145427767187357, -0.0008370316936634481, -0.007305542938411236, 0.00012229266576468945, 0.0016008374514058232, -0.0002005244023166597, 0.01030652690678835, 0.017031768336892128, -0.009789306670427322, 8.096935198409483e-05, 0.01261590700596571, 0.0007974097388796508, -0.009014810435473919, 0.00940290279686451, 0.01342210453003645, 0.0007063148659653962, 0.000825326656922698, 0.0009049715590663254, -0.022582337260246277, -0.004596916027367115, -0.0015818866668269038, -0.0013151431921869516, -0.0024339465890079737, 0.0022470797412097454, -0.009003115817904472, 0.035540156066417694, 0.00034687749575823545, 0.0006360503030009568, 0.004214032553136349, 0.0056289308704435825, -0.0003795487864408642, 0.0015030516078695655], [-0.02347228303551674, 0.015629002824425697, 0.0025764922611415386, 0.1260676383972168, 0.02557249180972576, 0.008262659423053265, -0.00521230511367321, 0.061814501881599426, -0.019574007019400597, 0.007649778854101896, -0.05125657469034195, -0.0009652804001234472, 0.03510074317455292, 0.0009617027244530618, 0.005919023882597685, -0.19791841506958008, 0.026572173461318016, -0.0017020507948473096, 0.028007229790091515, 0.013602332212030888, -0.037411969155073166, -0.01819796860218048, 0.05007011443376541, 0.016477882862091064, -0.004935890436172485, 0.02062969282269478, -0.0033672114368528128, -0.0182146355509758, 0.07681736350059509, 0.006417556665837765, 0.010156195610761642, -0.0279857125133276, 0.010152391158044338, 0.0032897794153541327, 0.004394480027258396, -0.07118531316518784, 0.01867007650434971, -0.037008173763751984, -0.01844293251633644, -0.015793994069099426], [-0.00874866358935833, -0.004865891300141811, -0.004863744135946035, -0.024116860702633858, -0.02252230793237686, 0.024227334186434746, 0.01044046226888895, -0.0022132040467113256, -0.007435193285346031, 0.005605563521385193, -0.0040684835985302925, -0.0003908430808223784, -0.004134228453040123, -0.00041107015567831695, 0.010854825377464294, 0.03823758661746979, 0.025160502642393112, -0.0008387549314647913, 0.00994674302637577, 0.006095844320952892, -0.003724007634446025, -0.008457250893115997, -0.007087866310030222, -0.005420667584985495, 0.0008414963958784938, 0.0010989704169332981, -0.0012945127673447132, -0.003065332770347595, -0.0027135584969073534, -0.009277813136577606, -0.004416929092258215, 0.023247990757226944, -0.007795944344252348, 0.008449483662843704, 0.0014191697118803859, 0.001865457626990974, 0.023100566118955612, 0.002491421764716506, 0.011565479449927807, -0.0007277460535988212], [-0.02864173613488674, 0.0011027483269572258, 0.010489861480891705, -0.004514146596193314, 0.008462526835501194, 0.03764956817030907, -0.0007579877274110913, -0.013276862911880016, -0.00279574329033494, -0.017621824517846107, 0.009815358556807041, 0.00025562747032381594, 0.0026408724952489138, 0.00027109982329420745, 0.04905322194099426, 0.023006733506917953, 0.022433657199144363, 0.0006295337225310504, -0.028630724176764488, -0.011370804160833359, -0.022065918892621994, 0.027992907911539078, 0.003792332485318184, -0.0005599863361567259, 0.00017261813627555966, -0.013641525991261005, -0.004949409049004316, 0.004341032821685076, -0.0020407431293278933, 0.0011983586009591818, 0.0011587825138121843, 0.0314800962805748, 0.004003411158919334, -0.008848960511386395, -0.002397336298599839, 0.010201942175626755, -0.0060348198749125, 0.020851774141192436, 0.014062661677598953, 0.003943413961678743], [-0.030255742371082306, -0.15040791034698486, -0.022680221125483513, 0.12990307807922363, -0.03910013288259506, 0.10387624800205231, 0.04353449121117592, 0.25004714727401733, -0.005595013499259949, -0.019319746643304825, 0.012235056608915329, -0.0032031890004873276, 0.0064811380580067635, -0.002493996871635318, 0.10504312068223953, -0.18024767935276031, -0.2558853328227997, -0.005497041158378124, 0.00355353532359004, 0.016401300206780434, -0.04422803223133087, 0.24651730060577393, 0.13654133677482605, 0.006604338530451059, 0.004852681886404753, 0.024567609652876854, 0.022479014471173286, 0.01528290007263422, -0.058476582169532776, -0.04399589076638222, 0.027600808069109917, 0.06648878008127213, -0.03722530975937843, -0.02770233154296875, 0.010921529494225979, -0.015321998856961727, 0.0020160088315606117, 0.02323605678975582, 0.188850998878479, -0.010809461586177349], [-0.02193399891257286, -0.029217859730124474, 0.014910795725882053, 0.007342428434640169, -0.023252012208104134, 0.06861486285924911, 0.029551589861512184, -0.03073335625231266, -0.008231313899159431, -0.016038741916418076, 0.018280895426869392, 0.0011518693063408136, -0.014205475337803364, -0.0007493194425478578, 0.08329728245735168, 0.14746789634227753, 0.06060562655329704, 0.0024545572232455015, -0.007633374072611332, -0.016747189685702324, 0.030282028019428253, 0.05393929034471512, 0.004613785073161125, -0.009773598983883858, 0.0038175478111952543, -0.023881930857896805, -0.03787294775247574, 0.004554401617497206, -0.051663756370544434, -0.005793279968202114, -0.0017584713641554117, 0.08117783069610596, 0.011372387409210205, 0.011198938824236393, -0.0056301299482584, 0.0708656758069992, -0.013155199587345123, 0.06877970695495605, 0.11048832535743713, 0.01546579971909523], [-0.023388028144836426, 0.03587430715560913, 0.0034083968494087458, 0.15645964443683624, -0.16568957269191742, -0.035201385617256165, -0.06292490661144257, -0.15693970024585724, 0.01630409248173237, 0.014605587348341942, 0.01458330824971199, 0.004214018117636442, -0.02581040747463703, -0.0022770569194108248, 0.0912325531244278, 0.2801707088947296, -0.23002827167510986, 0.006393522024154663, -0.15821221470832825, -0.0019204389536753297, -0.08091926574707031, 0.03413104638457298, -0.025468038395047188, 0.013571185059845448, -0.005114410538226366, -0.004704185761511326, 0.012729348614811897, 0.03407461568713188, 0.009811528027057648, -0.003587342333048582, -0.017048193141818047, 0.014769691973924637, -0.12808038294315338, 0.08048396557569504, -0.0011474067578092217, -0.01813301257789135, -0.009174037724733353, 0.042093675583601, -0.1585538685321808, -0.005719471722841263], [-0.002470214618369937, -0.0008953510550782084, 0.0007483342778868973, -0.0003874801332131028, -0.0028378483839333057, 0.005588437430560589, -0.002042094711214304, -0.00447527039796114, -0.0008090515621006489, 0.00014461774844676256, -0.00014158284466248006, -0.00014106524758972228, 0.00031923686037771404, 0.00018631215789355338, 0.001377335749566555, -0.0004696901305578649, 0.00574256619438529, 8.683466876391321e-05, 0.00021651752467732877, -0.0001198487079818733, -0.0013656150549650192, -0.001666240394115448, 0.000286982482066378, 0.0005216559511609375, 0.0003155881422571838, -7.754345278954133e-05, -0.00019940889615099877, -0.0008517350652255118, 0.0001285494799958542, 0.0014706933870911598, -0.0016584544209763408, 0.002707468345761299, -0.004929880611598492, 0.0012976208236068487, -0.00024197238963097334, 0.0003224674437660724, 0.000128640589537099, -0.0006984672509133816, 0.0021534874103963375, 0.00073821353726089], [-0.051021426916122437, -0.03646949306130409, 0.009314514696598053, 0.03553268313407898, -0.0541272796690464, 0.10843978077173233, -0.027365637943148613, -0.03700315207242966, -0.006721849553287029, -0.003420624416321516, 0.0023226316552609205, 0.001104228082112968, 0.007626413833349943, 0.0005452824989333749, 0.052175965160131454, 0.022352468222379684, 0.14947354793548584, 0.0011707940138876438, 0.01519660372287035, -0.0046980055049061775, -0.026004889979958534, -0.04551559314131737, 0.011157417669892311, 0.004708781372755766, -0.0004972981405444443, -0.010590906254947186, -0.008208605460822582, -0.00962228886783123, 0.006502494215965271, 0.010377147234976292, -0.02338583581149578, 0.06746958196163177, -0.06992863118648529, 0.0029047841671854258, -0.005531840026378632, 0.029059750959277153, -0.008522134274244308, 0.00587766757234931, 0.06028028577566147, 0.006634748075157404], [-0.008568042889237404, 0.048642195761203766, -0.021679721772670746, 0.08238071203231812, -0.0014728978276252747, 0.05653968080878258, 0.08307589590549469, 0.08957468718290329, -0.006123929750174284, 0.03654126822948456, -0.022411257028579712, -0.0017835882026702166, -0.02028430812060833, -0.000991815235465765, -0.058243755251169205, -0.0023521885741502047, 0.03093855269253254, -0.003404428483918309, 0.06010657176375389, 0.024536464363336563, 0.011452057398855686, 0.008235322311520576, -0.052645791321992874, -0.02998695895075798, -0.0003713262267410755, 0.007141035981476307, 0.003083837451413274, 0.00010874500731006265, 0.04102015122771263, -0.04359190911054611, 0.02074776217341423, 0.03471722826361656, 0.09305761009454727, 0.03378196805715561, 0.0042444514110684395, 0.0036245849914848804, 0.057562150061130524, 0.03251294419169426, 0.09770485013723373, -0.011233637109398842], [-0.03758760914206505, 0.023111816495656967, 0.00583882350474596, -0.11005312204360962, -0.028579169884324074, 0.069881372153759, 0.011622997932136059, -0.05948789417743683, -0.016585325822234154, 0.0027087240014225245, 0.008737893775105476, -0.0019499328918755054, -0.019414210692048073, -0.0005983058363199234, 0.06854065507650375, 0.08666688203811646, 0.04364389553666115, -0.003176536876708269, -0.050881728529930115, -0.005721655674278736, -0.004777384921908379, -0.0044561224058270454, -0.02559334598481655, -0.016942353919148445, 0.004062050022184849, -0.012111025862395763, 0.003647705540060997, 0.001009878353215754, 0.007290456909686327, -0.005411778576672077, -0.013693957589566708, 0.07898804545402527, 0.01474258117377758, 0.025783613324165344, 0.005083609838038683, 0.01906353235244751, 0.03286580741405487, 0.03886730223894119, 0.06457780301570892, 0.006862211041152477], [-0.1106637567281723, 0.04103667289018631, 0.011199148371815681, -0.11416255682706833, 0.04463820904493332, 0.20734302699565887, 0.07482340931892395, 0.07408127188682556, -0.03070143796503544, -0.04625796526670456, 0.01614740677177906, -0.0011814965400844812, 0.0009610910783521831, -0.0002953878720290959, 0.24285171926021576, 0.009335190989077091, 0.009841226041316986, -0.0034733391366899014, -0.06803404539823532, -0.0020280659664422274, -0.14407844841480255, 0.012231681495904922, 0.004019656218588352, -0.022465698421001434, 0.0012166339438408613, -0.03429080545902252, -0.015552897937595844, 0.006569037213921547, 0.02982630394399166, -0.03341931477189064, 0.004765516147017479, 0.20460215210914612, 0.11805272102355957, 0.06597374379634857, 0.002235915744677186, 0.041711267083883286, 0.06006763130426407, 0.06394322961568832, 0.01971568912267685, -0.0031872352119535208], [-0.005518757272511721, 0.004009873606264591, 0.0018586836522445083, 0.0067416406236588955, 0.0042299674823880196, 0.003977400250732899, -0.004138517659157515, 0.002678072080016136, 0.0006167577812448144, -0.002349686808884144, -0.0008876395877450705, 1.490084468969144e-05, 0.002481431933119893, 7.45132565498352e-05, 0.008139001205563545, -0.008847908116877079, 0.004169725347310305, 3.1307328754337505e-05, -0.005856308154761791, -0.0014432312455028296, -0.005361473187804222, -0.0010338183492422104, 0.0013629114255309105, 0.0013037993339821696, -0.0006321502733044326, -0.0016087405383586884, 0.0007510575815103948, 0.00030297666671685874, 0.006106006912887096, 0.0015184931689873338, 0.00040475945570506155, 0.003676706226542592, 0.0021068635396659374, -0.0047384826466441154, -0.0004936652258038521, -0.003983057104051113, -0.0019246565643697977, -0.0006475914851762354, -0.0004875047889072448, -0.00047799330786801875], [-0.13305975496768951, 0.08889739215373993, 0.026067879050970078, 0.06056037172675133, 0.05001189932227135, 0.1288188397884369, -0.049799203872680664, 0.009287885390222073, -0.027787772938609123, -0.009747393429279327, -0.04529448226094246, -0.0032102682162076235, 0.026959966868162155, 0.003701532492414117, 0.10649532824754715, -0.16219042241573334, 0.092582106590271, -0.0041237445548176765, -0.13889028131961823, -0.0011816630139946938, -0.12206938117742538, 0.1303165853023529, -0.013694975525140762, -0.010447151027619839, -0.004686166997998953, -0.032286640256643295, 0.042248234152793884, -0.003721394343301654, 0.0891435518860817, 0.008951850235462189, -0.01194537989795208, 0.12656599283218384, 0.04233260452747345, -0.02320178411900997, -0.0026180183049291372, -0.02147742174565792, 0.08080179244279861, -0.049172431230545044, 0.007602058816701174, -0.004878633189946413], [0.1275089830160141, -0.31149420142173767, 0.018510231748223305, 0.11766092479228973, 0.018164267763495445, -0.2451908439397812, 0.030987411737442017, 0.1341988891363144, -0.008029760792851448, -0.05166488140821457, -0.0012507145293056965, 0.0027470365166664124, 0.06417147070169449, -0.0009408563491888344, 0.020957645028829575, -0.21046897768974304, -0.10346624255180359, 0.005490434356033802, 0.17014192044734955, -0.015484055504202843, 0.07728521525859833, -0.06350767612457275, 0.2129729986190796, 0.06075422465801239, 0.004495585337281227, 0.04278405010700226, -0.08770636469125748, -0.024511732161045074, -0.08859048783779144, 0.03568108379840851, 0.03365636616945267, -0.32619091868400574, -0.03965919837355614, 0.0022372181992977858, 0.0027491487562656403, -0.08660824596881866, -0.13514618575572968, 0.009914236143231392, -0.09793290495872498, 0.007132517173886299], [0.0017800201894715428, -0.008573160506784916, -0.0027016005478799343, -0.01409828756004572, -0.004335116595029831, 0.00273435958661139, 0.008913210593163967, 0.0021891065407544374, -0.0026285271160304546, 0.0004608540912158787, 0.0017529143951833248, -6.447487248806283e-05, -0.0006359736435115337, -0.00032793579157441854, 0.0017692046239972115, 0.022865764796733856, -0.00018587455269880593, -0.00011559869017219171, 0.0035986406728625298, 0.0017264173366129398, -0.0013113790191709995, 0.007249823771417141, 0.004705975763499737, -0.0020911740139126778, 0.0009554019197821617, 0.00044641608837991953, -0.0017550711054354906, -0.00024236258468590677, -0.012142308056354523, -0.0057623181492090225, -3.7083362258272246e-05, 9.296470670960844e-05, 0.0005985458847135305, 0.00044027273543179035, 0.0008119434351101518, 0.00564893614500761, 0.01161183975636959, 0.006232019048184156, -0.0020660990849137306, 0.00022158083447720855], [-0.0011927278246730566, -0.0656961128115654, -0.02825034037232399, 0.0938253402709961, -0.10737472772598267, 0.13977500796318054, 0.06923605501651764, 0.2007676512002945, -0.028962543234229088, 0.058628056198358536, -0.06543517112731934, 0.0005849116132594645, -0.009028395637869835, -0.0031669153831899166, 0.03522219881415367, 0.03545548766851425, 0.029803717508912086, 0.0042433408088982105, 0.07765606045722961, 0.01811075210571289, 0.06878061592578888, 0.2592916190624237, 0.03593456372618675, -0.01094786636531353, -0.0062825498171150684, 0.0252084918320179, 0.010191274806857109, -0.004363397601991892, 0.055766116827726364, -0.06437743455171585, 0.06178871542215347, 0.05970572680234909, 0.021235588937997818, -0.11154169589281082, 0.0028687675949186087, 0.09214963763952255, 0.09094802290201187, 0.02086039073765278, 0.24679365754127502, -0.009218602441251278], [-0.01845700666308403, -0.06172892078757286, 0.0177841205149889, 0.024821465834975243, -0.08552214503288269, -0.026162656024098396, 0.03308187052607536, -0.12024146318435669, -0.016566401347517967, -0.02047223038971424, 0.02744956500828266, 0.003128988202661276, -0.002368304179981351, -0.002230800921097398, 0.07856383919715881, 0.10847781598567963, -0.037263669073581696, 0.004741417244076729, 0.031422704458236694, -0.016776809468865395, -0.03249901905655861, 0.038454569876194, 0.08486853539943695, 0.005596901755779982, 0.006865689530968666, -0.01648823916912079, -0.08349525928497314, -0.00024666902027092874, -0.0882360190153122, -0.0017268093070015311, -0.019146861508488655, -0.0014936908846721053, -0.08393257111310959, 0.09087613224983215, -0.002084878273308277, 0.06135230511426926, -0.031076688319444656, 0.08620110154151917, 0.02214941568672657, 0.0187201127409935], [-0.08772177249193192, -0.2813129425048828, -0.01781649701297283, -0.20930369198322296, -0.3035867512226105, 0.14439719915390015, 0.22844471037387848, -0.003776388708502054, -0.17928457260131836, 0.02967584691941738, -0.005625350400805473, -0.002021568128839135, 0.10700102895498276, -0.00317745772190392, 0.16568677127361298, 0.09003213047981262, 0.1806497573852539, -0.007674242835491896, 0.2687946856021881, 0.09411703050136566, 0.03413977473974228, 0.17522995173931122, 0.13509491086006165, -0.017935199663043022, -0.0048898207023739815, -0.007960820570588112, -0.24917735159397125, -0.08644217252731323, -0.03630698844790459, -0.08243249356746674, -0.07875701040029526, 0.12189614772796631, -0.25145596265792847, 0.36637088656425476, 0.006648545619100332, -0.07826796174049377, -0.0069298273883759975, 0.11085759103298187, 0.44942963123321533, -0.009598192758858204], [0.005149917211383581, -0.0734204575419426, -0.013869724236428738, -0.09921671450138092, -0.04891784489154816, -0.0911840870976448, 0.15305310487747192, -0.08523444086313248, -0.04771198704838753, 0.04438834637403488, -0.07038398832082748, -0.0012443109881132841, -0.023434093222022057, 0.0012787113664671779, 0.004094654694199562, 0.07510696351528168, -0.010959926061332226, -0.003607155056670308, 0.1575354039669037, 0.03333231061697006, 0.026460766792297363, -0.03151809796690941, -0.0531773716211319, -0.016491113230586052, -0.0022666784934699535, 0.013590401038527489, -0.10020846128463745, -0.03925039619207382, 0.07286408543586731, -0.0318162702023983, -0.00700290035456419, 0.022334588691592216, 0.039653945714235306, 0.1691133975982666, 0.0008901455439627171, -0.02336573228240013, 0.053673677146434784, 0.003846163861453533, 0.033978451043367386, -0.00801913533359766], [0.010627670213580132, -0.21234194934368134, 0.01510739978402853, -0.23941290378570557, 0.0017710397951304913, 0.045363351702690125, -0.035430390387773514, -0.10168953239917755, -0.03779315948486328, -0.002105309860780835, -1.3234869584266562e-05, -0.005333548411726952, 0.027457579970359802, -0.003587952349334955, -0.051992613822221756, 0.11127620935440063, 0.044216692447662354, -0.007782995700836182, 0.0671897828578949, 0.00532764894887805, 0.037705954164266586, -0.19207702577114105, 0.12167774885892868, 0.014063752256333828, 0.018922124058008194, 0.03727180138230324, -0.009525079280138016, -0.025336064398288727, -0.12048427760601044, 0.04267333075404167, -0.02203567884862423, -0.04401601105928421, -0.0447702556848526, 0.02284161187708378, 0.024212772026658058, -0.07266251742839813, 0.04165896028280258, -0.05422439053654671, -0.04448370635509491, 0.020041106268763542], [-0.022613152861595154, -0.06756625324487686, -0.0016418176237493753, -0.061411384493112564, -0.056778572499752045, -0.03509346395730972, 0.07736358791589737, -0.11361203342676163, -0.05820408836007118, 0.027275515720248222, -0.042607035487890244, -0.0006354305078275502, -0.011361921206116676, -0.000256265135249123, -0.020466411486268044, 0.09439481049776077, -0.024970831349492073, -0.0016582385869696736, 0.06296845525503159, 0.019604522734880447, -0.01854133792221546, -0.010906036011874676, 0.012016421183943748, -0.004213811829686165, 0.004924642387777567, 0.017121143639087677, -0.07632559537887573, -0.034547921270132065, -0.00196893815882504, 0.002045375294983387, -0.029257675632834435, 0.002570326207205653, -0.06003141030669212, 0.13308937847614288, 0.002488831989467144, 0.007545138709247112, 0.04958196356892586, 0.0014617181150242686, 0.00337459659203887, 0.008759614080190659], [-0.07958046346902847, 0.005558985751122236, 0.013628643937408924, 0.039417292922735214, 0.020099321380257607, 0.03473696485161781, 0.010692337527871132, 0.006359942257404327, -0.024090038612484932, -0.014586051926016808, -0.006675866898149252, -5.467158189276233e-05, 0.0241495780646801, -0.0011672246037051082, 0.06444909423589706, 0.0007910641143098474, 0.02178335003554821, -0.0001997964282054454, -0.014706777408719063, -0.006259543355554342, -0.0842212438583374, 0.08621753007173538, 0.04505838081240654, 0.001997158629819751, 0.002559844870120287, -0.010690486058592796, -0.0018415497615933418, 0.0020018743816763163, -0.007879671640694141, -0.0068332417868077755, 0.00544291827827692, 0.06688457727432251, 0.024818696081638336, 0.016515055671334267, 0.002516630571335554, -0.025303959846496582, 0.054393429309129715, 0.003012759145349264, -0.02862461656332016, 0.0006623102235607803], [-0.027181735262274742, -0.09023367613554001, 0.007629610598087311, 0.034259967505931854, -0.07257036864757538, -0.07550980895757675, 0.052734218537807465, -0.03552602604031563, -0.03687938675284386, 0.004153750371187925, -0.02305522933602333, -0.0001662335853325203, -0.0023808821570128202, -0.0004967616987414658, 0.030644355341792107, 0.0404028557240963, -0.0278050247579813, -0.0005218620644882321, 0.04958125203847885, 0.0015171493869274855, -0.020152611657977104, 0.003423429559916258, 0.03465409204363823, 0.0011722241761162877, 0.005835444666445255, 0.0058362772688269615, -0.06284496933221817, -0.018121421337127686, -0.009049766696989536, 0.002779560862109065, -0.016242705285549164, 0.007153133861720562, -0.04848076403141022, 0.09173949807882309, 0.003091579070314765, -0.002919071586802602, 0.01839946024119854, 0.007193309720605612, -0.0028891905676573515, 0.009973853826522827], [-0.00017187630874104798, 0.0001525630068499595, -8.339417036040686e-06, 0.00018181301129516214, -6.82142490404658e-05, 2.2765576431993395e-05, 1.7024007320287637e-05, 0.00014515135262627155, 3.07733535009902e-05, -6.613487494178116e-05, 4.300256114220247e-05, 9.635506103222724e-06, -1.4318976582217147e-06, -3.1643239708500914e-06, 0.00022129467106424272, -0.00010342395398765802, -5.2580388000933453e-05, 4.367988367448561e-06, -0.00023966805019881576, -2.810846854117699e-05, -0.0002568206109572202, 0.00011850237206090242, 1.2590264304890297e-05, -5.124096787767485e-05, -3.158502295264043e-05, -9.15113341761753e-05, -1.2012677871098276e-05, 8.934411016525701e-05, 0.0002154639078071341, -0.00012184379738755524, 3.4032840630970895e-05, 0.00010523148375796154, 4.630613602785161e-06, -6.287922587944195e-05, -2.537958243920002e-05, 0.00011017661017831415, 0.00010259288683300838, 5.504936052602716e-05, -0.00010111623851116747, -2.4960752853075974e-05], [-0.011682802811264992, -0.040940456092357635, 0.008585621602833271, -0.005046493839472532, 0.017359089106321335, -0.001454939367249608, -0.009949710220098495, 0.010354585945606232, 0.0003770400071516633, -0.01633121445775032, 0.006131497211754322, 4.236708991811611e-05, 0.01296379417181015, -0.00022140309738460928, 0.024158136919140816, -0.003934727516025305, 0.005928236059844494, -9.717113425722346e-05, -0.014545646496117115, -0.006801161449402571, -0.023277446627616882, -0.014196458272635937, 0.035312753170728683, 0.006969674956053495, 0.0011274006683379412, -0.0019507025135681033, -0.0008686784422025084, 0.0005015705828554928, -0.013343984261155128, 0.007117187138646841, 0.0030915134120732546, -0.023377638310194016, 0.000857083941809833, -0.010032872669398785, 0.001995906000956893, -0.013905716128647327, -0.01364642009139061, -0.0012416172539815307, -0.023581109941005707, 0.000811019039247185], [-0.0003821754362434149, -3.409854616620578e-05, 5.336496906238608e-05, 0.00036694275331683457, 0.0001184679931611754, 0.0002937691751867533, -0.0002536647953093052, 0.00011069533502450213, -1.1034703675250057e-06, -0.00013607069558929652, 5.467209484777413e-05, -4.334757250035182e-06, 0.00014925138384569436, -2.569101297922316e-06, 0.00033529632491990924, -0.0005119023262523115, 0.00033412937773391604, 5.615224836219568e-06, -0.00029445928521454334, -3.2301544706569985e-05, -0.0004444787628017366, -0.00012634762970265, 0.0001954288309207186, 5.023043559049256e-05, 5.2668612624984235e-05, 1.3752384120380157e-06, 5.0932532758452e-05, -3.923829353880137e-05, 0.00019943993538618088, 0.00013557753118220717, -6.278637010836974e-05, 0.0001466569519834593, -8.863760740496218e-05, -0.00011590600479394197, 1.3348965694603976e-05, -0.00017674420087132603, -6.353567005135119e-05, -0.00017246392962988466, -0.0002082685095956549, 9.137115557678044e-05], [-0.2013384848833084, 0.041141487658023834, 0.02408016473054886, -0.10161761194467545, 0.03364429250359535, 0.24065884947776794, -0.13197015225887299, -0.10718037188053131, -0.011442192830145359, -0.01795506291091442, 0.008011301048099995, -0.003165429923683405, 0.02210811898112297, 0.0037784771993756294, 0.28885510563850403, 0.06747373938560486, 0.21109731495380402, -0.004017965868115425, -0.19503164291381836, -0.01551961898803711, -0.20990070700645447, 0.09402909129858017, 0.003517724107950926, -0.0035223423037678003, -0.000557061517611146, -0.03800889849662781, 0.05160679668188095, 0.0037535224109888077, 0.03023442253470421, 0.010073525831103325, -0.03393330052495003, 0.20973153412342072, 0.018687278032302856, -0.0774223655462265, -0.004477294627577066, 0.05421516299247742, 0.07022835314273834, -0.05440516397356987, -0.01915503293275833, 0.006462905090302229], [0.06617167592048645, 0.03487453982234001, -0.007405686192214489, 0.4896310269832611, -0.09356682747602463, 0.0216862503439188, 0.114204540848732, 0.012556720525026321, 0.03633185476064682, 0.016649803146719933, -0.0002002823312068358, 0.00438265735283494, -0.009184018708765507, -0.004309474490582943, -0.060192499309778214, 0.012917661108076572, 0.00881885550916195, 0.006823327392339706, 0.16730335354804993, 0.022800790145993233, 0.037525568157434464, -0.004755200818181038, 0.06975293904542923, -0.008506991900503635, -0.00026530996547080576, 0.01777692697942257, -0.05266702175140381, -0.012449314817786217, -0.10109325498342514, -0.02937060408294201, 0.024649227038025856, -0.05523204430937767, -0.04379099979996681, 0.04112347587943077, -0.0036226031370460987, -0.015595623292028904, -0.010954433120787144, 0.11094775050878525, 0.06442328542470932, 0.004040311556309462], [0.01838998682796955, -0.08824794739484787, 0.002422382589429617, -0.06074375659227371, -0.0447901226580143, -0.1223049908876419, 0.11083071678876877, -0.06188898906111717, -0.03481215611100197, 0.027952173724770546, -0.050676289945840836, 0.00038014762685634196, -0.0030753533355891705, 0.0009649051353335381, -0.014655927196145058, 0.028691314160823822, 0.0023288761731237173, 0.0008634387049823999, 0.1137295588850975, 0.011117000132799149, 0.04513728991150856, -0.004463836085051298, 0.02363583631813526, 0.009096156805753708, 0.0002542707952670753, 0.01762988604605198, -0.10309217125177383, -0.027997629716992378, 0.021250545978546143, 0.00727946637198329, -0.008603068999946117, -0.06565094739198685, -0.03692380338907242, 0.16024215519428253, -0.0016307305777445436, -0.009218841791152954, 0.021298861131072044, -0.004961981903761625, 0.07718826830387115, 0.005387472920119762], [-0.00039826054126024246, 0.00038394940202124417, -5.044431418355089e-06, 0.00010897938773268834, -0.00037107139360159636, 0.0007770349038764834, -0.00018297138740308583, 0.0001378475280944258, -9.730974124977365e-05, 0.00018228332919534296, -0.00020984755246900022, 3.357061359565705e-06, 7.179794010880869e-06, 7.435416591761168e-06, 0.00019114352471660823, -0.00037214005715213716, 0.0007306162151508033, -7.085335710144136e-06, -0.00022203188564162701, 8.680274913785979e-05, -0.0002610957599245012, -0.000249251228524372, -0.00013358246360439807, -0.00012204834638396278, -4.669211193686351e-05, -6.769636092940345e-05, 7.506317342631519e-05, -4.725715916720219e-05, 0.0004964542458765209, -0.00016025736113078892, -4.258270200807601e-05, 0.0006050659576430917, -0.00017528196622151881, -2.1907009795540944e-05, -6.52971284580417e-05, 5.825161133543588e-05, 0.0003451777156442404, -3.755322177312337e-05, 0.0005314213340170681, -6.161654891911894e-05], [-0.19561949372291565, -0.15557432174682617, 0.053180381655693054, -0.0388689748942852, -0.14348828792572021, 0.05468938499689102, -0.08891062438488007, 0.0171939879655838, 0.07019703835248947, 0.01401983480900526, 0.024348823353648186, 0.004085852298885584, 0.17615196108818054, 0.00923097226768732, 0.01838955469429493, -0.08157222718000412, 0.47536951303482056, 0.01320044044405222, 0.2033957690000534, -0.012096705846488476, -0.07857682555913925, -0.07594241946935654, 0.17009246349334717, 0.07778288424015045, -0.00701522221788764, 0.010745026171207428, -0.07383255660533905, -0.060076650232076645, -0.026193883270025253, 0.07203434407711029, 0.054058149456977844, 0.044889744371175766, -0.08920598030090332, 0.07304763793945312, -0.02054489776492119, -0.18794980645179749, -0.21016791462898254, -0.08688078075647354, 0.18851257860660553, 0.019090082496404648], [-0.009927445091307163, -0.004995862487703562, -0.0022400773596018553, -0.023866327479481697, -0.012078185565769672, 0.02775181084871292, 0.02325998991727829, -0.012840545736253262, -0.006287824362516403, 0.0012250673025846481, 0.002382086357101798, -2.9963244742248207e-05, -0.003345764009281993, -0.0004770566592924297, 0.005792520474642515, 0.04037031531333923, 0.012754742056131363, -0.00019229762256145477, 0.011680684983730316, 0.003258341923356056, -0.011818377301096916, 0.02270546741783619, 0.004047397058457136, -0.005104141775518656, 0.0009132280247285962, -0.0006626449758186936, -0.008005448617041111, -0.0010565067641437054, -0.008681478910148144, -0.010463649407029152, 0.0006463469471782446, 0.016002405434846878, 0.0015528131043538451, 0.022135797888040543, 0.0007403861382044852, 0.009260009974241257, 0.016019556671380997, 0.020359458401799202, 0.009871944785118103, 0.0003673895844258368], [-0.18568503856658936, -0.01404537446796894, 0.02831665240228176, 0.10674215108156204, 0.09051261842250824, 0.07774240523576736, -0.06940799206495285, 0.01283523254096508, -0.027203792706131935, -0.035275332629680634, -0.03366026282310486, -0.0028198568616062403, 0.0445355586707592, 0.004271375946700573, 0.15140801668167114, -0.1411239206790924, 0.11064798384904861, -0.004464941564947367, -0.10318022966384888, -0.015788238495588303, -0.2503978908061981, 0.11133729666471481, 0.036646768450737, 0.0025224359706044197, -0.005684067960828543, -0.0278694536536932, 0.02728460356593132, 0.003876353381201625, 0.11067463457584381, 0.0022145784460008144, 0.006566243711858988, 0.09155841916799545, 0.08929599076509476, 0.0025374924298375845, -0.001399208907969296, -0.032837364822626114, 0.08198578655719757, -0.045808035880327225, -0.09205785393714905, -0.008792972192168236], [-0.4154881238937378, 0.186585932970047, 0.11989692598581314, 0.29742521047592163, 0.16151392459869385, 0.4865114092826843, -0.1231284812092781, 0.30899977684020996, -0.08663894981145859, -0.18595175445079803, 0.09563113749027252, 0.002767744939774275, 0.1274804025888443, 0.0059139481745660305, 0.4479575753211975, -0.07277233153581619, 0.3367670476436615, 0.00356823718175292, -0.2546021342277527, -0.11912881582975388, -0.4154878556728363, 0.6171309351921082, 0.11587798595428467, -0.0138157419860363, -0.016300197690725327, -0.12619879841804504, 0.045054905116558075, 0.10324018448591232, 0.13961738348007202, -0.052870653569698334, 0.14752286672592163, 0.46579787135124207, 0.2263580858707428, -0.1707734614610672, -0.013184307143092155, -0.06262042373418808, 0.1355149745941162, 0.1915356069803238, 0.061721187084913254, -0.0041627041064202785], [-0.006187213584780693, -0.20384733378887177, 0.016523122787475586, 0.2038801908493042, -0.022269515320658684, -0.12143431603908539, -0.04123661667108536, 0.0958479642868042, -0.042426787316799164, -0.014342574402689934, -0.04381956905126572, 0.0004665736632887274, 0.06481171399354935, -0.0008536914247088134, 0.005461455788463354, -0.14353635907173157, -0.004093007650226355, 0.0002761679352261126, 0.08355347067117691, 0.0037640968803316355, -0.04221233353018761, -0.057472702115774155, 0.16194158792495728, 0.0485614649951458, 0.003368379082530737, 0.04114214703440666, -0.05104442685842514, -0.03384598717093468, -0.027368318289518356, 0.029865572229027748, -0.010674022138118744, -0.16467563807964325, -0.09783734381198883, -0.019473260268568993, 0.005600116681307554, -0.059213779866695404, -0.02260524407029152, -0.06516595184803009, -0.06898551434278488, 0.001159494393505156], [-0.00028508136165328324, -0.0018556457944214344, -0.00417338777333498, 0.008292321115732193, -0.0037150809075683355, -0.0014859007205814123, 0.006936277728527784, 0.018681155517697334, -0.004164332058280706, 0.0036470815539360046, -0.005894696339964867, -0.00023098787642084062, 0.0008385103428736329, -0.00019396963762119412, -0.0028782447334378958, -0.016268180683255196, 0.0026094492059201, -0.0006773677305318415, 0.0056398604065179825, 0.0053247567266225815, -0.0038627716712653637, -0.01103995181620121, -0.0009465710609219968, -0.00209592143073678, -0.0003218430792912841, 0.0026309385430067778, 0.0013599697267636657, -0.0024370006285607815, 0.009497581981122494, -0.006079173646867275, -0.0004255516978446394, -0.0024811867624521255, 0.004161793738603592, 0.004887359216809273, 0.00111258658580482, 4.3879255827050656e-05, 0.012168279848992825, -0.005997676867991686, -0.005654966924339533, -0.002895460929721594], [-0.0033934959210455418, 0.0004311943193897605, 0.00056844501523301, 0.004808167461305857, 0.001187634188681841, 0.0006318042287603021, -0.0015074021648615599, 0.003204099601134658, -0.0005350019782781601, -0.001092444290407002, -0.0008288497920148075, 1.978318323381245e-05, 0.0017385134706273675, -3.089159508817829e-05, 0.0030397053342312574, -0.005264852195978165, 0.001080548856407404, 6.648329144809395e-05, -0.0025916965678334236, -0.00019635421631392092, -0.00445288373157382, -0.00020064103591721505, 0.001830552821047604, 0.0007055486785247922, -0.00027483099256642163, -0.00035604514414444566, 0.00034030884853564203, -9.14786069188267e-05, 0.003278700402006507, 0.00023435211915057153, 0.00018880315474234521, 0.0009128452511504292, 0.0003552461275830865, -0.0011310541303828359, -5.075947046861984e-05, -0.001745951478369534, 0.00047134971828199923, -0.0018001632997766137, -0.00254726130515337, -0.0005314664449542761], [0.0032521274406462908, -0.02065126784145832, -0.003303942270576954, 0.030683109536767006, -0.021522337570786476, -0.020474322140216827, -0.006768764927983284, -0.00955031905323267, -0.009964783675968647, 0.007892581634223461, -0.009604050777852535, -0.0004672151990234852, 0.0019656915683299303, -0.00016753474483266473, -0.0021954216063022614, -0.006590051110833883, -0.012694736011326313, -0.0006780815310776234, 0.014915142208337784, 0.004816923290491104, -0.005263319704681635, 0.025095870718359947, 0.014931976795196533, 0.0006159027689136565, 0.0013448925456032157, 0.00782189704477787, -0.002287045819684863, -0.006005045957863331, -0.0007520567742176354, 0.0004354952252469957, -0.00969692412763834, -0.0026952994521707296, -0.030139122158288956, 0.006898269057273865, 0.0015095998533070087, 0.008460977114737034, 0.02342277392745018, -0.012052658945322037, -0.022720519453287125, 0.0007661010604351759], [0.032795194536447525, -0.1505749225616455, 0.00028975712484680116, 0.024650726467370987, -0.09641749411821365, -0.2149425894021988, 0.10612880438566208, -0.07845506817102432, -0.046033069491386414, 0.03934449329972267, -0.07245847582817078, 0.0008544904994778335, -0.006694961339235306, 0.000324586610076949, -0.03371419012546539, 0.0340673066675663, -0.09622736275196075, 0.0010217324597761035, 0.19964739680290222, 0.020009780302643776, 0.05311202630400658, -0.019240939989686012, 0.04109654575586319, 0.009551716037094593, 0.0003014792164321989, 0.03152712807059288, -0.13691583275794983, -0.048464685678482056, 0.01918993517756462, 0.0049360706470906734, -0.020054994150996208, -0.05680786073207855, -0.06549578160047531, 0.19412963092327118, 0.0013587152352556586, -0.036798130720853806, 0.002074777614325285, -0.00690292427316308, 0.021847998723387718, 0.001205361564643681], [-0.01021126750856638, -0.03143235296010971, 0.002609587972983718, -0.005190005525946617, -0.020755112171173096, -0.021446706727147102, 0.01787726581096649, -0.023964818567037582, -0.013097723014652729, -0.0006000262219458818, -0.007150736171752214, 0.00012965445057488978, 0.0010884631192311645, -0.00018718821229413152, 0.011420835740864277, 0.024577952921390533, -0.009171531535685062, 7.078024646034464e-05, 0.023694714531302452, 0.00045901487465016544, -0.009340448305010796, 0.0077776070684194565, 0.014516283757984638, 0.0008950729388743639, 0.0011190222576260567, 0.0007841276819817722, -0.028400445356965065, -0.005664233583956957, -0.0026769640389829874, -0.00012634042650461197, -0.004599389154464006, 0.0020784863736480474, -0.016326740384101868, 0.05017997696995735, 0.0003188880509696901, 0.0026656589470803738, 0.0035050269216299057, 0.006546457298099995, 0.0004050140851177275, 0.002455745590850711], [-0.07534825056791306, 0.0007482532528229058, 0.011639819480478764, 0.18105082213878632, 0.03714190796017647, 0.03085554577410221, -0.048187173902988434, 0.11006105691194534, -0.024921555072069168, -0.016830595210194588, -0.05412629619240761, -0.0007374349515885115, 0.06975715607404709, 0.002481193281710148, 0.05153239518404007, -0.2332977056503296, 0.06058935448527336, -0.0026149877812713385, -0.02282680943608284, 0.007749791722744703, -0.10720604658126831, -0.03167320042848587, 0.0943320170044899, 0.03166825696825981, -0.011391970328986645, 0.012275753542780876, 0.01508033275604248, -0.019393591210246086, 0.11545395851135254, 0.011075922288000584, 0.007189389318227768, -0.022671079263091087, 0.00016237667296081781, -0.0315890796482563, 0.0016742541920393705, -0.08339207619428635, 0.022256076335906982, -0.06907199323177338, -0.07350963354110718, -0.024546610191464424], [-0.00025806325720623136, -0.0031253111083060503, -0.0068263038992881775, -0.03410064056515694, -0.01769714429974556, 0.016560930758714676, 0.02460809424519539, -0.00036253451253287494, -0.00684984028339386, 0.007289143744856119, -0.00420655682682991, -0.0004529666039161384, -0.0075307004153728485, -0.0003793333889916539, 0.006175966467708349, 0.035924024879932404, 0.013725056312978268, -0.0011379779316484928, 0.021194105967879295, 0.007773841731250286, 0.002491560997441411, -0.006405106745660305, -0.00998725462704897, -0.008028469979763031, 0.0005799541249871254, 0.0015985528007149696, -0.004447575192898512, -0.0028081422206014395, -0.0008673733100295067, -0.01322885137051344, -0.001421760767698288, 0.01928689517080784, 0.006755395792424679, 0.017776453867554665, 0.0016876095905900002, 0.01082513015717268, 0.021599434316158295, 0.010865291580557823, 0.011635408736765385, -0.002047358313575387], [-0.022494567558169365, -0.0024609395768493414, 0.011364701204001904, -0.03474383428692818, 0.010629105381667614, 0.03343978151679039, 0.0017924235435202718, -0.026632728055119514, -0.0033228087704628706, -0.018215637654066086, 0.012668521143496037, 4.557361171464436e-05, 0.00028831945382989943, 0.00015983519551809877, 0.04355541989207268, 0.035051070153713226, 0.014883967116475105, 0.000371375004760921, -0.026883892714977264, -0.01277453824877739, -0.01628855988383293, 0.02980238012969494, 0.004260370973497629, -0.0012739085359498858, 0.001204192521981895, -0.013341061770915985, -0.006202008109539747, 0.005060468800365925, -0.008727362379431725, 0.0023589152842760086, 0.0012115980498492718, 0.02352398820221424, 0.005871519912034273, -0.004197646863758564, -0.0015420702984556556, 0.007361909374594688, -0.007538539357483387, 0.025285596027970314, 0.014098705723881721, 0.005523862317204475], [-0.17503772675991058, -0.2374553084373474, -0.020137304440140724, 0.028735416010022163, -0.08030841499567032, 0.22534172236919403, 0.008234960958361626, 0.3067997097969055, 0.024732844904065132, -0.04419731721282005, 0.05228005722165108, -0.0009867961052805185, 0.08729977160692215, -0.0007853322895243764, 0.18993784487247467, -0.17349384725093842, 0.22305962443351746, -0.005532973445951939, 0.0708138719201088, 0.015262029133737087, -0.09635254740715027, 0.1813562661409378, 0.20199640095233917, 0.0214646328240633, -0.010943195782601833, -0.00847487710416317, 0.02585132047533989, 0.03670845925807953, -0.0010063289664685726, -0.07913579046726227, 0.07114125043153763, 0.17885835468769073, -0.008079713210463524, -0.053730662912130356, 0.009111495688557625, -0.050930995494127274, -0.057910941541194916, 0.061672143638134, 0.34362661838531494, -0.04131309315562248], [-0.009303067810833454, -0.009641674347221851, 0.02301241084933281, -0.17306549847126007, -0.01728304661810398, 0.08928336948156357, 0.07535521686077118, -0.07182364165782928, -0.018073121085762978, -0.011564943939447403, 0.014027385041117668, 0.00043291159090586007, -0.03545825928449631, -0.0009279539808630943, 0.10552642494440079, 0.1988736093044281, 0.045050740242004395, 0.0021360779646784067, 0.009733672253787518, -0.022623620927333832, 0.0598042756319046, 0.10023700445890427, -0.01034337468445301, -0.02217581309378147, 0.006340067833662033, -0.030809136107563972, -0.06047871336340904, 0.010789087042212486, -0.06354773044586182, -0.015445287339389324, 0.008501634001731873, 0.10465199500322342, 0.053993385285139084, 0.02442368119955063, -0.004064550157636404, 0.037896838039159775, -0.00401038583368063, 0.11398553848266602, 0.16755476593971252, 0.02085021883249283], [0.07249564677476883, -0.09188392758369446, -0.0043009561486542225, -0.017886262387037277, -0.11998702585697174, -0.22457006573677063, 0.11377980560064316, -0.2692292332649231, 0.03770289197564125, 0.06237180531024933, -0.02321041375398636, 0.003417772240936756, -0.025868700817227364, -0.0017432133900001645, -0.0459277369081974, 0.14912621676921844, -0.1004570722579956, 0.004911982920020819, 0.18630653619766235, 0.02266647480428219, 0.06564293801784515, -0.08849454671144485, 0.02999342791736126, 0.032034676522016525, -0.002486317651346326, 0.04829367622733116, -0.17925392091274261, -0.02919967845082283, -0.030778752639889717, 0.011966612190008163, -0.02643236517906189, -0.08471378684043884, -0.09005071222782135, 0.33576786518096924, 0.004022570326924324, -0.06279999017715454, -0.14092908799648285, 0.03585139289498329, -0.019286733120679855, -0.0002963086881209165], [-0.001957871951162815, 0.00019777230045292526, 0.00031979053164832294, 0.001653156359679997, -0.0024295300245285034, 0.002252365229651332, -0.0004764663754031062, -0.0016143881948664784, -0.0009187867399305105, -0.0001145199712482281, -0.0005109382327646017, -4.587077637552284e-05, 0.0004374158743303269, -4.647405512514524e-05, 0.0023410578723996878, -0.0016153538599610329, 0.0010886471718549728, -4.428799365996383e-05, -0.0007946589030325413, 7.191903569037095e-05, -0.0025854220148175955, 0.0001337567955488339, 0.0008399168727919459, 0.00020260123710613698, -6.323442357825115e-05, -1.729441646602936e-05, -0.00031795434188097715, -0.0003173012228216976, 0.0016680517001077533, 0.0002295591402798891, -0.0007586035644635558, 0.001059211790561676, -0.0033267061226069927, 0.0016229100292548537, 0.00017333807772956789, 0.0005156603292562068, 0.0014048576122149825, -3.3460728445788845e-05, -0.000618975842371583, -0.00014154158998280764], [0.021561231464147568, 0.009038733318448067, 0.009298576042056084, 0.07700338959693909, 0.01859370619058609, -0.04023866727948189, 0.023602215573191643, -0.03681330010294914, 0.009229018352925777, -0.026588762179017067, 0.009825972840189934, 0.0010340543230995536, 0.011372128501534462, -0.0005854334449395537, 0.04132099449634552, -0.011237519793212414, -0.05551493540406227, 0.002018942264840007, 0.003980637993663549, -0.011213487014174461, -0.010916939936578274, 0.024040795862674713, 0.042920805513858795, 0.010416215285658836, 0.00187669915612787, -0.0029811770655214787, -0.01984696462750435, 0.0013450050028041005, -0.01893056370317936, 0.007901404984295368, 0.0035468668211251497, -0.047039251774549484, -0.019017808139324188, -0.008110057562589645, -0.0016518807969987392, 0.0001821769546950236, -0.02981121651828289, 0.037330690771341324, -0.06274565309286118, 0.004139339551329613], [-0.04875626042485237, 0.02552727609872818, -0.034207236021757126, -0.051161278039216995, -0.06886974722146988, 0.12402697652578354, 0.0639645904302597, 0.01721883937716484, -0.018083568662405014, 0.07279182225465775, -0.04402491822838783, -0.0022686633747071028, -0.012252174317836761, -0.00014093877689447254, -0.09442583471536636, 0.018519392237067223, 0.11919420212507248, -0.005580505821853876, 0.08616435527801514, 0.045270614326000214, -0.03836732730269432, -0.04578413814306259, -0.04212189465761185, -0.031143248081207275, -0.0034899748861789703, 0.02470284514129162, 0.01407099049538374, -0.014403312467038631, 0.07229772955179214, -0.04797104373574257, -0.0003148851974401623, 0.05124884843826294, 0.025692855939269066, 0.08328816294670105, 0.005669157486408949, -0.005781370680779219, 0.11633703857660294, 0.005049864295870066, 0.1015835627913475, -0.018139638006687164], [-0.04291900247335434, 0.022153474390506744, 0.015960678458213806, -0.13588427007198334, -0.051211219280958176, 0.11067719012498856, 0.02225469797849655, -0.08627476543188095, -0.023122992366552353, 0.002369149588048458, 0.01491682417690754, -0.0026882400270551443, -0.028216995298862457, -0.0009079360752366483, 0.09575063735246658, 0.10727465897798538, 0.072294682264328, -0.003853379050269723, -0.046756260097026825, -0.010497894138097763, 0.0008583629387430847, -0.006405987776815891, -0.02327040396630764, -0.02066851407289505, 0.008275028318166733, -0.014847198501229286, -0.010449727065861225, -0.0016143383691087365, -0.01089573372155428, 0.0038129445165395737, -0.022547079250216484, 0.09726691991090775, -0.004046943038702011, 0.06094682589173317, 0.007322004530578852, 0.02404068596661091, 0.026007866486907005, 0.05718063563108444, 0.08377965539693832, 0.015496261417865753], [-0.21669761836528778, 0.07872626930475235, 0.035949237644672394, -0.08741328865289688, 0.043178487569093704, 0.3541842997074127, 0.0365309864282608, 0.1473906934261322, -0.03660843148827553, -0.062002841383218765, 0.0005559160490520298, -0.0012296914355829358, 0.030201127752661705, 0.0007207164308056235, 0.3553760349750519, -0.06745161861181259, 0.14623580873012543, -0.003315101144835353, -0.12290005385875702, -0.007893511094152927, -0.24155844748020172, -0.015712333843111992, 0.015966428443789482, -0.01754130981862545, -0.0018041415605694056, -0.04898696765303612, -0.005197848659008741, 0.004745510872453451, 0.059824492782354355, -0.02110126242041588, 0.013007719069719315, 0.318608820438385, 0.14723899960517883, 0.02792741172015667, 0.001234950264915824, -0.017454739660024643, 0.053850721567869186, 0.053951065987348557, 0.10147543251514435, -0.007641134317964315], [-0.006151795852929354, 0.003922034054994583, 0.0021749178413301706, 0.004451440181583166, 0.004972664173692465, 0.004851603880524635, -0.003940291237086058, 0.0019596433266997337, 0.0005806377739645541, -0.003025930607691407, -0.0006156814633868635, -4.954096220899373e-05, 0.002525692107155919, 5.928693281020969e-05, 0.010094106197357178, -0.007964281365275383, 0.0045823389664292336, -1.5747428960821708e-06, -0.0067413873039186, -0.0018001911230385303, -0.005456781480461359, -0.0003432435914874077, 0.0016074131708592176, 0.0012695309706032276, -0.0005394832114689052, -0.0019097215263172984, 0.0006959831807762384, 0.0005285808001644909, 0.005497835576534271, 0.0015442004660144448, 0.0006658765487372875, 0.00480862008407712, 0.002826804993674159, -0.005230901762843132, -0.0003806254535447806, -0.0038847257383167744, -0.002062384504824877, 0.00013929017586633563, 7.034443115117028e-05, -0.00037327338941395283], [0.04569978266954422, -0.09787844121456146, -0.022565234452486038, -0.006156237795948982, -0.09137625247240067, -0.26074352860450745, 0.04418731853365898, 0.210968017578125, 0.009070856496691704, 0.04016270488500595, 0.10704324394464493, 0.006033462006598711, 0.032353535294532776, -0.0008573122322559357, -0.20123931765556335, 0.08691956847906113, 0.018648790195584297, 0.011367476545274258, 0.3958560824394226, 0.01522480696439743, 0.1672869622707367, -0.05772026255726814, 0.011910046450793743, 0.03527549281716347, 0.005698539316654205, 0.058403175324201584, -0.04904037341475487, -0.04067064821720123, -0.06899308413267136, 0.003903245320543647, -0.02655874751508236, -0.11051469296216965, -0.09967721253633499, 0.05063042417168617, -0.02166697382926941, 0.11305868625640869, -0.04760657995939255, 0.042227473109960556, -0.007144320290535688, 0.030665423721075058], [0.12631483376026154, -0.07245118916034698, -0.15460610389709473, 0.030881861224770546, -0.196628600358963, 0.30949345231056213, 0.1454664170742035, -0.16998448967933655, 0.21574178338050842, 0.08253961056470871, 0.22932182252407074, 0.009660119190812111, -0.3184998333454132, 0.014855442568659782, -0.02451307512819767, -0.21375323832035065, 0.13188311457633972, -0.0010255177039653063, 0.016834555193781853, 0.048007071018218994, 0.2072611302137375, 0.093926340341568, -0.2722517251968384, -0.11384234577417374, -0.02697860449552536, -0.10164868086576462, -0.10651569813489914, 0.06118842214345932, 0.12457651644945145, -0.12392688542604446, -0.07900586724281311, 0.385160893201828, 0.07133002579212189, 0.21508994698524475, -0.07400142401456833, 0.005997564177960157, -0.12289273738861084, 0.32464566826820374, 0.13971707224845886, 0.005932373460382223], [-0.05839768424630165, -0.08324237167835236, -0.03992190212011337, -0.12148189544677734, 0.0002664754574652761, -0.052633292973041534, 0.00894858967512846, -0.21915031969547272, 0.05584694817662239, 0.00019594233890529722, 0.014014696702361107, 0.0015528533840551972, -0.036785006523132324, -0.0017213814426213503, 0.10894381999969482, -0.005765189416706562, 0.02122061513364315, 0.0010458494070917368, -0.14383897185325623, 0.018155016005039215, -0.0355709046125412, 0.05500112101435661, 0.05830436572432518, 0.00493193231523037, 0.0022931587882339954, 0.024115484207868576, -0.05572899430990219, 0.005672779865562916, -0.05044957995414734, -0.0160532109439373, -0.007428919896483421, 0.05731745809316635, 0.03238651901483536, 0.08377961069345474, 0.0006741645629517734, -0.09290991723537445, -0.0917278453707695, 0.05072084069252014, -0.04113675281405449, -0.00019357810379005969], [-0.24616196751594543, 0.08833378553390503, 0.1778954416513443, 0.5371024012565613, 0.7885026931762695, -0.029188349843025208, -0.01827380806207657, -0.481356143951416, -0.02823830209672451, 0.012692869640886784, -0.2845230996608734, -0.014642356894910336, 0.11330092698335648, 0.003366214921697974, -0.22302940487861633, -1.4272278547286987, -0.1186731830239296, -0.00710731977596879, 0.2973865568637848, 0.02436514012515545, -0.01981762796640396, -0.09654783457517624, 0.01158312801271677, 0.18330369889736176, 0.06620857119560242, 0.18121452629566193, -0.23063555359840393, -0.24966348707675934, 0.15976877510547638, 0.24650904536247253, 0.08735121786594391, 0.19511909782886505, 0.5185079574584961, 0.23675553500652313, 0.04894908145070076, -0.7488846778869629, -0.16160935163497925, -0.08514361083507538, 0.12208602577447891, 0.049095332622528076], [-0.03160405158996582, -0.17889679968357086, -0.06278500705957413, -0.6535950303077698, 0.06653905659914017, 0.040297336876392365, 0.10146386921405792, -0.04541940987110138, 0.013086936436593533, -0.0957358330488205, 0.00852293986827135, 0.002564930124208331, 0.043102145195007324, 0.0012528273509815335, -0.16569317877292633, -0.1305919885635376, 0.0019378516590222716, 0.008494731970131397, -0.18517467379570007, 0.010478177107870579, 0.04364623874425888, 0.0836406871676445, -0.04033739119768143, 0.03086228296160698, -0.016227614134550095, 0.05288919433951378, 0.051430318504571915, 0.04104776307940483, 0.05692843720316887, -0.04884105920791626, 0.12391290068626404, 0.052660003304481506, 0.246308371424675, -0.08481328934431076, -0.005214141681790352, -0.6672446727752686, -0.20615623891353607, -0.07181145250797272, -0.11407796293497086, -0.06657694280147552], [-0.1492372751235962, 0.01706652157008648, -0.09106682986021042, -0.12032076716423035, 0.05815356597304344, 0.3017367422580719, -0.03051253780722618, -0.14771103858947754, -0.06382712721824646, 0.16112574934959412, 0.08633684366941452, 0.00459869671612978, -0.01632389798760414, -0.0037544446531683207, 0.10666124522686005, -0.0736522451043129, 0.11773708462715149, -0.0003475705743767321, -0.17975759506225586, 0.11978209763765335, -0.2295425832271576, 0.15288028120994568, 0.048838917165994644, -0.046095311641693115, 0.00862420815974474, 0.01873163692653179, 0.05414104089140892, -0.025093942880630493, -0.04971834272146225, -0.058478523045778275, -0.09003469347953796, 0.2707163989543915, 0.022403573617339134, -0.09951120615005493, 0.019395174458622932, 0.05117088928818703, 0.040037959814071655, -0.035938337445259094, 0.16751395165920258, -0.03903250768780708], [0.08164256066083908, 0.05963125452399254, 0.014857610687613487, -0.19575563073158264, 0.04532342404127121, -0.08782423287630081, 0.2312871813774109, 0.17753247916698456, -0.04629538208246231, -0.01905721426010132, -0.034954603761434555, -0.004341160878539085, 0.025407107546925545, -0.0010525148827582598, -0.023312626406550407, 0.07633479684591293, -0.1388426125049591, -0.006645122542977333, 0.19797764718532562, -0.004022121429443359, 0.1892223209142685, 0.174894779920578, -0.0022542185615748167, -0.059467870742082596, 0.009994651190936565, 0.03477485850453377, -0.10091124475002289, -0.01793036237359047, -0.026887068524956703, -0.07732658833265305, 0.06705589592456818, 0.10098665952682495, 0.18705974519252777, 0.16976799070835114, 0.007824909873306751, 0.04692806303501129, 0.03446192666888237, 0.07199317961931229, 0.1855182945728302, 0.005024271085858345], [0.08350297808647156, 0.4490387439727783, 0.0982208102941513, 0.16782911121845245, 0.48702746629714966, -0.11491341143846512, 0.03027174435555935, 0.25156348943710327, 0.17516911029815674, -0.03369521722197533, -0.2315548211336136, -0.009265793487429619, 0.1752646267414093, -0.0051970696076750755, -0.060018766671419144, -0.731066882610321, -0.01836058497428894, -0.004190364852547646, 0.22467078268527985, -0.024066975340247154, -0.07656997442245483, -0.014321275055408478, 0.01146741770207882, -0.0007040959899313748, 0.025026630610227585, 0.06859491765499115, 0.13284170627593994, 0.012477734126150608, 0.058342836797237396, 0.047407135367393494, 0.22833265364170074, -0.09694009274244308, 0.4724639058113098, -0.16882926225662231, 0.053021758794784546, -0.0510866753757, 0.07338143140077591, -0.06727447360754013, 0.09814970195293427, -0.038043465465307236], [0.0883210152387619, 0.03992730751633644, 0.03066663071513176, -0.14188294112682343, 0.09878846257925034, 0.0878402441740036, -0.04348171502351761, 0.11439380794763565, 0.1468123495578766, -0.04206700250506401, 0.17096033692359924, 0.00840190052986145, -0.03432491421699524, 0.006904383655637503, -0.028801141306757927, -0.0693260058760643, 0.016364995390176773, 0.01041590329259634, 0.09082957357168198, -0.0803268700838089, 0.14322642982006073, -0.05096406489610672, -0.0717805027961731, 0.016971180215477943, -0.015167868696153164, -0.08550940454006195, 0.023017093539237976, 0.06593561917543411, 0.05215936899185181, 0.02115134336054325, -0.034268759191036224, -0.12964151799678802, 0.04492240026593208, -0.0675722062587738, -0.052491918206214905, 0.13210667669773102, -0.2603600025177002, 0.11468985676765442, -0.04045204445719719, 0.038667742162942886], [0.06088259816169739, 0.25190791487693787, 0.0820627510547638, 0.2193208783864975, -0.1162484735250473, 0.1388765424489975, -0.014386835508048534, 0.09770669043064117, 0.07963253557682037, -0.031898725777864456, -0.18469811975955963, -0.005851680412888527, -0.0020632061641663313, 0.0007782874163240194, -0.21687836945056915, -0.010867812670767307, -0.015949061140418053, -0.003919461742043495, 0.3622944951057434, -0.01324591226875782, 0.02702438272535801, -0.1199469342827797, -0.05303378403186798, -0.00021488548372872174, 0.010849153622984886, 0.19545438885688782, -0.0637640655040741, -0.03125011920928955, 0.03343089669942856, 0.0804409310221672, -0.005663733929395676, 0.0611393004655838, -0.13491077721118927, 0.12000991404056549, 0.022729696705937386, 0.0023453528992831707, 0.2668844163417816, -0.0680149719119072, 0.18262620270252228, 0.03949239104986191], [0.1533937156200409, -0.1470796763896942, -0.0031024240888655186, -0.10848686844110489, 0.10264456272125244, 0.04774506390094757, -0.08728179335594177, 0.00933820940554142, 0.01675887033343315, -0.10977985709905624, 0.13457196950912476, 0.0056227827444672585, 0.07791648060083389, 0.005273754242807627, 0.06596286594867706, 0.017107393592596054, 0.0452529601752758, 0.009390541352331638, -0.22277463972568512, -0.04012236371636391, -0.029458975419402122, 0.0736839547753334, 0.019741319119930267, 0.06066318228840828, -0.01708334870636463, -0.09169977158308029, 0.18934321403503418, 0.04922319948673248, 0.042473383247852325, 0.005523338448256254, 0.016721617430448532, -0.11566579341888428, -0.05399274080991745, -0.20577360689640045, -0.032298602163791656, 0.12116915732622147, -0.07650837302207947, 0.0013064382364973426, -0.2101738154888153, -0.007403905503451824], [0.0014795073075219989, 0.0009661705116741359, 0.005367633420974016, 0.017209114506840706, 0.007805845234543085, -0.010468109510838985, 0.0014209029031917453, -0.00742538645863533, 0.007088358048349619, -0.008755338378250599, 0.00576514657586813, 0.0006489722873084247, 0.0019045243971049786, 0.00035051925806328654, 0.004441867582499981, -0.01332409493625164, -0.00026662202435545623, 0.001587431412190199, -0.0028341920115053654, -0.006874591577798128, 0.002612354699522257, 0.0061054774560034275, 0.003033809829503298, 0.0035575772635638714, -0.0005460349493660033, -0.005442327354103327, -0.005085246171802282, 0.0029679310973733664, -0.006552319973707199, 0.004321092274039984, 0.0035915698390454054, 0.0012197124306112528, 0.002726416103541851, 0.0022392701357603073, -0.0029175321105867624, 0.006464536767452955, -0.025110969319939613, 0.004161963239312172, -0.0014040882233530283, 0.002171693369746208], [0.04608868435025215, -0.03418756276369095, -0.02786772884428501, 0.013814816251397133, 0.08662156015634537, -0.06191350147128105, 0.05761184170842171, -0.031410329043865204, 0.014356371015310287, -0.025452151894569397, -0.020143529400229454, 0.0007344525074586272, 0.014400566928088665, -0.003696225583553314, 0.09166166186332703, -0.13739638030529022, 0.009803610853850842, 0.003246439853683114, -0.09678376466035843, 0.012796077877283096, -0.12073461711406708, 0.05688624456524849, 0.12340983748435974, 0.005589059554040432, 0.0016668073367327452, 0.07241939753293991, 0.015467187389731407, 0.04385768249630928, -0.05114530771970749, -0.03333842009305954, 0.0756976529955864, -0.21143151819705963, 0.037203725427389145, -0.07505303621292114, 0.014858637936413288, -0.17463167011737823, -0.00773204630240798, 0.00470940675586462, -0.06279609352350235, -0.022828632965683937], [-0.0014068441232666373, 0.006284472066909075, 0.0037152948789298534, -0.018619459122419357, 0.015470625832676888, -0.00764071149751544, -0.004181889817118645, -0.019024282693862915, 0.0005120208370499313, -0.0011636367999017239, -0.0021938334684818983, -0.0006859191926196218, 0.0022590786684304476, 0.001025071949698031, -0.0022341180592775345, -0.01377678383141756, -0.006376400589942932, -0.0011072824709117413, -0.0030636165756732225, -0.0025163660757243633, -0.0040071140974760056, -0.0009453624952584505, -0.003608864499256015, 0.0017917496152222157, -0.0011560169514268637, -0.0013750896323472261, 0.0031026112847030163, -0.0010682515567168593, 0.02300187572836876, 0.006326902192085981, 0.00018195330630987883, -0.007923755794763565, 0.008038642816245556, 0.000748686958104372, -0.0004538705397862941, -0.008053530938923359, -0.005700118839740753, -0.006676553748548031, -0.007163274101912975, -0.000652167247608304], [-0.23028771579265594, 0.05212513729929924, 0.1084086075425148, -0.12998616695404053, 0.16144409775733948, 0.20366306602954865, -0.05407524108886719, -0.011113813146948814, -0.05273313447833061, -0.18572209775447845, -0.05344182252883911, -0.0001624681317480281, 0.10780324786901474, 0.0036109304055571556, 0.24137985706329346, -0.10084763914346695, 0.029311971738934517, -0.002154716057702899, -0.32962024211883545, -0.050680939108133316, -0.2284417599439621, 0.22115997970104218, 0.036993611603975296, 0.0005194463883526623, -0.01907302252948284, -0.11003011465072632, -0.07748999446630478, 0.00600688299164176, 0.09346572309732437, -0.021963125094771385, 0.05618778616189957, 0.03894086927175522, 0.04799385741353035, -0.049419499933719635, -0.009045764803886414, -0.09407365322113037, -0.054437436163425446, 0.0876949205994606, -0.05907589942216873, -0.028183041140437126], [-0.05802801623940468, -0.8087694644927979, -0.15773820877075195, 0.44936010241508484, -0.06922879815101624, 0.13861246407032013, 0.009879871271550655, -0.15064075589179993, -0.01488463394343853, 0.06445867568254471, 0.322802871465683, 0.0042971232905983925, -0.037761811167001724, 0.01625725068151951, 0.16936878859996796, -0.028476063162088394, 0.02591552771627903, -0.015054086223244667, -0.3101084232330322, 0.07469492405653, -0.01631767489016056, 0.26866838335990906, -0.003252495313063264, 0.014718009158968925, -0.0529603473842144, -0.20183947682380676, 0.16283205151557922, -0.13494165241718292, -0.1438014656305313, -0.14872057735919952, -0.09954745322465897, 0.2011508196592331, -0.10967037826776505, -0.19984070956707, -0.11144226789474487, 1.6545547246932983, -0.0985034704208374, -0.035496219992637634, -0.20487476885318756, -4.4043888919986784e-05], [-0.06679417192935944, 0.1271938532590866, -0.02671465091407299, 0.002812647493556142, 0.10665834695100784, 0.27634355425834656, -0.07993056625127792, -0.007529719732701778, 0.0708710178732872, -0.0010510898428037763, 0.07933511584997177, -0.0005804330576211214, 0.011120629496872425, -2.2102987713878974e-05, 0.08162520825862885, 0.010478303767740726, 0.11282698810100555, 0.002781555289402604, -0.15549251437187195, -0.015262150205671787, -0.06913698464632034, -0.10403870791196823, 0.0485379584133625, 0.014775375835597515, 0.0066133770160377026, -0.007028133608400822, 0.14414659142494202, 0.0724204033613205, -0.028851397335529327, 0.003980670589953661, 0.045057736337184906, 0.25366535782814026, 0.04272929206490517, -0.21499139070510864, -0.0007503061788156629, 0.1186639592051506, 0.1040048748254776, 0.011489039286971092, -0.000424165598815307, 0.01165659911930561], [0.005429974291473627, 0.005950030405074358, 0.007225696928799152, 0.02741389349102974, 0.00718094315379858, -0.0206028800457716, -0.0002481120463926345, -0.01669863425195217, 0.01341228373348713, -0.012902687303721905, 0.009738498367369175, 0.0016053696162998676, 0.0021485250908881426, -0.00012496350973378867, 0.004707894753664732, -0.005551889538764954, -0.0006618306506425142, 0.0034337197430431843, 0.0013729390921071172, -0.011203328147530556, 0.008706849068403244, 0.018419019877910614, 0.005929578095674515, 0.006118733901530504, -0.0003106373769696802, -0.007319729309529066, -0.007004390470683575, 0.006354381795972586, -0.020855525508522987, 0.005287980195134878, 0.008137066848576069, 0.0018405149457976222, 0.0020029693841934204, -0.0039719827473163605, -0.0043206531554460526, 0.006337933707982302, -0.04057012125849724, 0.010553864762187004, 0.011072631925344467, 0.003995261155068874], [0.24389807879924774, -0.15926043689250946, -0.17987172305583954, 0.13429053127765656, -0.1634354591369629, -0.22246874868869781, 0.06777284294366837, -0.23063209652900696, 0.16850559413433075, 0.23983612656593323, 0.197133868932724, -0.0028477460145950317, -0.1274004429578781, -0.0042531960643827915, -0.0019412478432059288, 0.1836213320493698, -0.043102458119392395, -0.014642595313489437, 0.29364973306655884, 0.12888337671756744, 0.0411280132830143, -0.060797318816185, 0.08864440023899078, -0.04376547783613205, -0.026475103572010994, -0.011332500725984573, -0.06017659604549408, 0.030985400080680847, -0.05136096477508545, -0.17159491777420044, 0.03880537673830986, -0.10386081784963608, 0.059906139969825745, 0.13339179754257202, 0.025624338537454605, 0.22920583188533783, -0.23552203178405762, 0.1356331706047058, 0.10000685602426529, -0.07792787998914719], [-0.005690077319741249, 0.08247065544128418, 0.034568630158901215, 0.1462358832359314, -0.0685633197426796, 0.0813932716846466, 0.006767373997718096, 0.1362886279821396, -0.052576880902051926, -0.017089122906327248, -0.0713086873292923, -0.0029430261347442865, 0.027570294216275215, -0.0006762112025171518, -0.10644979774951935, -0.03986893594264984, 0.0664229616522789, -0.004134269431233406, 0.24601306021213531, -0.012184116058051586, 0.026630455628037453, -0.14764729142189026, -0.008805317804217339, -0.007559032179415226, 0.001892569474875927, 0.025923287495970726, -0.040669698268175125, -0.03009086661040783, 0.03722766041755676, 0.007583229336887598, -0.0013974563917145133, 0.043141186237335205, -0.033030107617378235, 0.08476509153842926, 0.012890440411865711, 0.01755705289542675, 0.15777191519737244, -0.056764841079711914, 0.10636509209871292, -0.004403287544846535], [0.1448548585176468, 0.0944589301943779, 0.011749889701604843, -0.05789684131741524, -0.02772635966539383, -0.1537371575832367, 0.08226750046014786, 0.08690095692873001, 0.03996508568525314, 0.021742308512330055, 0.019836822524666786, 0.0051896884106099606, 0.027246348559856415, -0.010293477214872837, -0.08537644892930984, 0.2562377452850342, 0.06828317046165466, 0.010598686523735523, 0.3085539937019348, -0.0035566205624490976, 0.24191226065158844, -0.11052722483873367, 0.09439786523580551, -0.026155125349760056, 0.036249008029699326, 0.12808750569820404, 0.06555725634098053, 0.027675151824951172, -0.2171463668346405, 0.03765510767698288, -0.03467116132378578, 0.04398409277200699, -0.10033029317855835, 0.10914997011423111, -0.0013613057089969516, 0.2009444385766983, 0.10626285523176193, -0.03823981434106827, 0.05086611583828926, 0.08686836808919907], [-0.16390466690063477, -0.013023373670876026, 0.08889839798212051, -0.045917119830846786, 0.12254475802183151, 0.15819379687309265, 0.12630736827850342, -0.29954883456230164, -0.05333596467971802, -0.1053505539894104, -0.0036514068488031626, -0.006649449467658997, -0.024129893630743027, -0.009408851154148579, 0.01463157869875431, -0.28343793749809265, -0.11323415488004684, -0.010919328778982162, -0.12337543070316315, -0.07341565191745758, -0.02693163976073265, 0.30038580298423767, -0.003019752213731408, -0.04738270118832588, 0.05926811322569847, -0.11920412629842758, -0.07479293644428253, -0.06535695493221283, -0.15192419290542603, 0.05851031839847565, -0.05833089351654053, 0.35915234684944153, 0.18515729904174805, -0.024893248453736305, 0.015762941911816597, -0.059000223875045776, -0.05147158354520798, -0.04262623190879822, 0.16323357820510864, 0.07292524725198746], [-0.012408488430082798, -0.17724987864494324, 0.006218312308192253, 0.07656736671924591, -0.024580776691436768, -0.1370840221643448, -0.05194437876343727, 0.13487091660499573, -0.09619668871164322, -0.09521365165710449, 0.047712571918964386, 0.008593088947236538, 0.0741482749581337, -0.002684126840904355, 0.09708159416913986, 0.02178470604121685, -0.04994747042655945, 0.010789899155497551, 0.018732460215687752, -0.03528759256005287, -0.05186203867197037, 0.07770726084709167, 0.1811898946762085, 0.032333869487047195, 0.005311354994773865, -0.010507985018193722, 0.006512082181870937, 0.015667052939534187, -0.16001498699188232, -0.028573324903845787, 0.000956449774093926, -0.22708085179328918, -0.1333286464214325, -0.08394386619329453, 0.0003404027665965259, -0.012819922529160976, 0.03322787582874298, 0.006145057734102011, -0.13154824078083038, 0.00995040126144886], [0.06557080149650574, -0.025178775191307068, 0.025986507534980774, 0.023071443662047386, -0.0022869613021612167, -0.05265207216143608, -0.01035273727029562, -0.06382259726524353, 0.019047290086746216, -0.05881274491548538, 0.015041427686810493, 0.0038473354652523994, 0.017277218401432037, 0.0005038287490606308, 0.050674837082624435, -0.003608621656894684, -0.0038611155468970537, 0.005034006666392088, 0.060146138072013855, -0.033225513994693756, -0.018793024122714996, 0.022350968793034554, 0.04198785498738289, 0.00346421473659575, -0.008961785584688187, -0.030481712892651558, 0.007933125831186771, 0.044182971119880676, 0.0070861950516700745, 0.0016635050997138023, 0.011623546481132507, -0.11795163154602051, -0.0710589811205864, -0.03361363708972931, -0.01035707350820303, -0.07875870168209076, -0.09659279137849808, 0.02152401953935623, -0.03683999180793762, -0.00807886477559805], [0.014336487278342247, -0.02595212496817112, -0.012713778764009476, 0.0024944960605353117, -0.047817617654800415, -0.0076596117578446865, 0.004284093156456947, 0.01762443222105503, -0.009840373881161213, 0.00913554709404707, 0.005766190122812986, 0.0005190338124521077, -0.010197398252785206, -0.002642612671479583, 0.0036332551389932632, 0.06910955160856247, -0.00809372216463089, 0.0007905269740149379, -0.022707566618919373, 0.008504158817231655, 0.010485195554792881, 0.00016763679741416126, 0.007869887165725231, -0.007268994115293026, 0.006233215797692537, 0.007720287889242172, -0.0022140787914395332, -0.0006725246785208583, -0.06484952569007874, -0.015101471915841103, -0.012432289309799671, 0.014215681701898575, -0.037203483283519745, -0.01108226366341114, 0.003816603682935238, 0.013237993232905865, 0.04280128702521324, 0.010330925695598125, -0.013868484646081924, 0.006220513954758644], [-0.013726551085710526, -0.03283015638589859, 0.023438183590769768, 0.1094001904129982, -0.15172651410102844, 0.08903002738952637, -0.029504062607884407, 0.21443985402584076, -0.03571885824203491, 0.003123443340882659, 0.000981610151939094, 0.0024813960772007704, 0.002382745500653982, -0.001699127140454948, -0.13620732724666595, 0.08374731987714767, 0.10919079184532166, 0.0015942275058478117, 0.31634390354156494, -0.016467032954096794, 0.16418364644050598, -0.10900561511516571, -0.00502180028706789, -0.013116659596562386, -0.0005148646887391806, -0.008019854314625263, -0.023289376869797707, -0.004782965872436762, -0.01007300429046154, -0.005085829179733992, -0.03935467079281807, -0.04454748332500458, -0.13133695721626282, 0.1480545848608017, -0.004001955967396498, 0.01428854651749134, 0.07232484966516495, -0.003861964913085103, 0.059547487646341324, 0.009800677187740803], [-0.031169498339295387, 0.06198583170771599, -0.029705099761486053, 0.012345214374363422, 0.17312143743038177, 0.13463400304317474, -0.0940670520067215, 0.06765905022621155, -0.003879867261275649, 0.01796642504632473, -0.04080502688884735, -0.007257283665239811, -0.006928086746484041, -0.0017405800754204392, -0.1394924819469452, -0.12249646335840225, 0.1252906322479248, -0.005732850171625614, -0.19339120388031006, 0.030787842348217964, 0.03748030215501785, -0.04572334140539169, -0.12834285199642181, -0.009239905513823032, 0.012967145070433617, 0.023849917575716972, 0.1049347072839737, 0.002696336479857564, 0.011028041131794453, 0.01183331198990345, 0.029358426108956337, -0.0685703232884407, -0.06623349338769913, -0.1711689531803131, 0.015351880341768265, -0.03455119580030441, 0.15101420879364014, -0.12134720385074615, -0.1124454215168953, -0.005497336387634277], [0.0038402611389756203, -0.003781174076721072, 0.01034553349018097, -0.10392091423273087, 0.06665486097335815, 0.07240720838308334, -0.08926644921302795, 0.15271757543087006, 0.05253259465098381, -0.04119715094566345, 0.09279490262269974, 0.004892977885901928, 0.0010083129163831472, 0.002053265692666173, 0.036401234567165375, 