{"model_data": {"model": "SimpleRNN", "input_size": 1, "skip": 1, "output_size": 1, "unit_type": "LSTM", "num_layers": 1, "hidden_size": 40, "bias_fl": true}, "state_dict": {"rec.weight_ih_l0": [[0.03076687827706337], [-0.007661017123609781], [-0.06944012641906738], [0.008247420191764832], [0.08329954743385315], [-0.007537017576396465], [-0.003964959178119898], [-0.12010528892278671], [-0.002946248510852456], [-0.004243634641170502], [0.10651164501905441], [0.009681835770606995], [0.027384279295802116], [0.021653641015291214], [-0.04168371856212616], [0.0380450077354908], [0.001524035818874836], [0.04992164671421051], [0.004090003669261932], [-0.08845831453800201], [-0.023622669279575348], [-0.03051786497235298], [0.047418419271707535], [-0.011092349886894226], [0.014487873762845993], [-0.027306383475661278], [0.06695142388343811], [0.014715965837240219], [-0.009069048799574375], [0.005067228339612484], [-0.02334439568221569], [-0.040206216275691986], [-0.07090970873832703], [0.0020089177414774895], [-0.0030073081143200397], [-0.02213749848306179], [0.00578764732927084], [-0.04934031143784523], [-0.009620419703423977], [-0.026669472455978394], [0.019377728924155235], [-0.01411699503660202], [0.009836272336542606], [0.00439919950440526], [0.018764551728963852], [-0.054917387664318085], [-0.15325985848903656], [-0.05353505536913872], [0.03384791687130928], [-0.0025075594894587994], [0.07941937446594238], [0.00270431418903172], [0.07082673162221909], [0.009276782162487507], [0.042665187269449234], [0.059977006167173386], [-0.009231839329004288], [0.002938890131190419], [0.04486154764890671], [-0.012510308064520359], [-0.05076800659298897], [-0.028996804729104042], [0.20517882704734802], [0.0093985078856349], [0.022544896230101585], [-0.013692738488316536], [0.08420736342668533], [0.029655152931809425], [0.07603629678487778], [0.03142818808555603], [-0.012787928804755211], [-0.06753770262002945], [-0.12120693176984787], [-0.041565630584955215], [-0.0035375170409679413], [-0.018055103719234467], [0.014453164301812649], [0.01000260841101408], [-0.024236828088760376], [-0.009874450974166393], [-0.5092271566390991], [-0.029538249596953392], [-0.6068720817565918], [-0.11195352673530579], [0.6655011773109436], [-0.04467776045203209], [-0.15102620422840118], [-0.055387094616889954], [-0.4108010232448578], [0.037951789796352386], [0.3416116535663605], [-0.015946198254823685], [0.1900319904088974], [-0.0813586637377739], [-0.2448228895664215], [0.02802436612546444], [0.38472259044647217], [0.11088284105062485], [-0.2559988796710968], [-0.7590560913085938], [-0.20792871713638306], [0.14561037719249725], [0.5190064311027527], [-0.10384081304073334], [0.08199203014373779], [-0.5047321915626526], [0.23045691847801208], [-0.5601717233657837], [0.20824111998081207], [-0.5340026021003723], [0.13168512284755707], [0.37843915820121765], [-0.06481312215328217], [-1.4550873041152954], [-0.07720370590686798], [-0.42791301012039185], [-0.005794183816760778], [0.25767847895622253], [-0.16501885652542114], [-0.09013154357671738], [0.04756273329257965], [-0.01612601988017559], [-0.08335114270448685], [-0.012367402203381062], [0.0008886962314136326], [-0.016455162316560745], [0.054392118006944656], [-0.11435792595148087], [0.015113139525055885], [-0.0033572795800864697], [0.13329282402992249], [-0.0033113323152065277], [-0.015629172325134277], [0.030449282377958298], [0.051614221185445786], [0.0566851869225502], [0.007781574036926031], [-0.020110612735152245], [0.09266877174377441], [0.031181911006569862], [0.08353997021913528], [-0.016525181010365486], [0.12551911175251007], [-0.008177796378731728], [0.02711077779531479], [-0.0052118762396276], [0.08869810402393341], [0.02028433047235012], [-0.03381466865539551], [0.04165912792086601], [-0.017213091254234314], [-0.05165741220116615], [-0.0783969983458519], [-0.01100012194365263], [-0.002757162554189563], [-0.04290297254920006], [0.005097781773656607], [-0.04537820443511009], [0.01907103694975376], [-0.03391605243086815]], "rec.weight_hh_l0": [[-0.049333516508340836, 0.03858586400747299, 0.10832267254590988, -0.20066571235656738, -0.010315876454114914, -0.06885094940662384, 0.03424083814024925, 0.04079314321279526, 0.000969383807387203, -0.007752659730613232, 0.09128685295581818, -0.03007792867720127, 0.04214693233370781, 0.05880381911993027, -0.10722146183252335, 0.05174250155687332, 0.07614681869745255, -0.08740821480751038, -0.13351300358772278, -0.10855744779109955, -0.03234786540269852, 0.0543011836707592, -0.05458497628569603, 0.026102207601070404, 0.03331765532493591, 0.13896507024765015, -0.03528502210974693, 0.03242848441004753, -0.10805152356624603, -0.05758826807141304, 0.0277313981205225, -0.008367583155632019, 0.037208568304777145, -0.029924843460321426, 0.010246275924146175, 0.09614545851945877, -0.016509970650076866, 0.011719265952706337, 0.10036170482635498, 0.06032147631049156], [-0.04170604422688484, -0.00015242199879139662, 0.059661272913217545, -0.1285572350025177, -0.04075947776436806, -0.07445839792490005, 0.04049026593565941, -0.06490742415189743, 0.04290395975112915, -0.0038848912809044123, 0.04357955604791641, -0.013859743252396584, 0.04573000594973564, 0.0355294905602932, -0.050685059279203415, 0.011196275241672993, 0.03273787721991539, 0.031047245487570763, -0.016564905643463135, -0.013707060366868973, -0.022876150906085968, 0.019186044111847878, 0.05430188402533531, 0.0622960701584816, 0.0085976617410779, 0.17153072357177734, -0.03835131973028183, 0.03427816182374954, 0.026994863525032997, -0.038435351103544235, 0.027920585125684738, -0.030746055766940117, -0.013500487431883812, 0.0032244401518255472, 0.002180628478527069, 0.04405399039387703, -0.023200448602437973, 0.05578838661313057, 0.05560688301920891, 0.059167034924030304], [-0.09806846082210541, -1.706868533801753e-05, -0.06693383306264877, -0.05649257078766823, -0.059155043214559555, -0.03823313117027283, 0.05127148702740669, -0.11368198692798615, 0.04250063747167587, 0.0028661040123552084, -0.01640172488987446, -0.01844007335603237, 0.018802646547555923, 0.019036445766687393, -0.10006321221590042, 0.0698813796043396, 0.009172340855002403, 0.0033646004740148783, -0.03629332408308983, 0.021056100726127625, 0.15723469853401184, -0.010613007470965385, -0.03464662656188011, 0.11981577426195145, 0.04395274445414543, -0.00332581321708858, -0.020341206341981888, 0.002524732146412134, -0.015658747404813766, -0.052843254059553146, 0.033887941390275955, -0.083328478038311, 0.0003963760391343385, -0.024410488083958626, 0.0015185564989224076, 0.07173421233892441, -0.017243800684809685, 0.06991767138242722, 0.07513651996850967, 0.08461019396781921], [-0.03824954852461815, -0.002331421012058854, 0.0590289942920208, -0.11895589530467987, -0.03852378949522972, -0.009942405857145786, 0.045135777443647385, 0.0014446319546550512, 0.006370456889271736, -0.0009726156713441014, 0.022937942296266556, -0.015940280631184578, 0.05816007778048515, 0.02250503934919834, 0.020714987069368362, 0.007555767893791199, 0.040100496262311935, -0.016987156122922897, -0.04037636145949364, -0.05874697118997574, -0.027991201728582382, 0.048934075981378555, 0.014363277703523636, 0.02737552486360073, 0.006535021588206291, 0.06677106022834778, -0.019069354981184006, 0.017776556313037872, -0.015905290842056274, 0.0006757546798326075, 0.012097177095711231, -0.016223501414060593, 0.056821390986442566, -0.03266378864645958, 0.0038244491443037987, 0.025974752381443977, -0.012198875658214092, 0.028800396248698235, 0.055666498839855194, 0.033162157982587814], [-0.02992255799472332, 0.048941392451524734, -0.001067258999682963, -0.04140413925051689, 0.01567656546831131, -0.04631141573190689, 0.014183428138494492, -0.13609355688095093, 0.015531770884990692, -0.011286958120763302, 0.0061318231746554375, 0.012131236493587494, 0.14013682305812836, 0.00676559004932642, -0.00024480014690198004, 0.048058465123176575, 0.044492483139038086, 0.14874523878097534, 0.0043642763048410416, -0.10293181985616684, -0.1611049324274063, 0.03309296444058418, 0.05525756999850273, 0.03423735499382019, -0.012879418209195137, 0.13784149289131165, -0.0206613689661026, -0.0011496132938191295, 0.05296580120921135, -0.036723289638757706, 0.007302133832126856, -0.020370813086628914, -0.013796823099255562, -0.027117310091853142, 0.006376451347023249, -0.06202352046966553, -0.009594603441655636, 0.003484505694359541, 0.03950081765651703, 0.0452972948551178], [-0.02266095019876957, 0.030905185267329216, 0.08230557292699814, -0.11775248497724533, -0.011410490609705448, -0.0659215971827507, 0.06631987541913986, -0.001370222307741642, 0.026041477918624878, -0.0045662131160497665, -0.0048920102417469025, -0.019223792478442192, -0.030842985957860947, 0.019767990335822105, -0.05301850289106369, 0.003836888587102294, -0.004108645487576723, 0.00981840118765831, -0.03029482439160347, -0.021324222907423973, -0.09427817910909653, 0.04087105393409729, 0.018956879153847694, 0.04581783711910248, 0.01404338888823986, 0.07617823779582977, -0.018573878332972527, 0.010932447388768196, 0.003744539339095354, -0.06376121193170547, 0.016003957018256187, -0.07534492760896683, 0.04198334366083145, -0.02986077032983303, 0.0021183458156883717, 0.03547227010130882, -0.03192046284675598, 0.042707428336143494, 0.042476262897253036, 0.05206943303346634], [0.11159694939851761, -0.08776111900806427, -0.21780520677566528, 0.2979540228843689, 0.17637130618095398, -0.018724650144577026, 0.166500061750412, -0.07220356166362762, -0.19071108102798462, -0.027081742882728577, -0.050613321363925934, 0.019313737750053406, -0.6299414038658142, 0.005861976183950901, 0.039725497364997864, -0.05234295874834061, -0.0797581896185875, 0.20100238919258118, 0.16276763379573822, 0.08313161879777908, 0.00502009317278862, 0.08469778299331665, -0.20780342817306519, -0.13360251486301422, -0.024626905098557472, -0.5837177038192749, 0.24718931317329407, -0.044080257415771484, 0.03215198591351509, 0.2129465788602829, -0.06039245426654816, -0.02288719080388546, -0.056913748383522034, -0.012372423894703388, -0.04548012465238571, -0.04454536736011505, -0.08348380029201508, -0.19468018412590027, -0.009337347000837326, -0.12839289009571075], [0.05424465611577034, -0.19171206653118134, -0.024359537288546562, 0.0482463501393795, -0.042683959007263184, -0.05897549167275429, -0.06469409912824631, -0.020229898393154144, 0.04296962544322014, 0.05419003963470459, -0.06048585847020149, 0.024272819980978966, -0.10771345347166061, -0.09185460954904556, -0.0271923765540123, -0.08125503361225128, -0.050915710628032684, -0.12110946327447891, 0.022353990003466606, 0.08193140476942062, -0.010320153087377548, 0.07180599868297577, 0.015475166961550713, 0.1838567852973938, 0.01816689223051071, -0.17222394049167633, -0.008320910856127739, -0.018102534115314484, -0.05149542912840843, 0.02065165340900421, -0.023440681397914886, -0.09258776158094406, -0.00011433489999035373, -0.016672523692250252, -0.007007644511759281, -0.06366737186908722, -0.038787346333265305, -0.13023124635219574, -0.032717615365982056, -0.005472132936120033], [0.13326773047447205, -0.09761838614940643, -0.26086893677711487, 0.06877834349870682, -0.10654362291097641, -0.06796418130397797, 0.15326867997646332, -0.026169072836637497, 0.10445816814899445, 0.001425712602213025, -0.02542693540453911, -0.011136811226606369, -0.7019632458686829, -0.06861773133277893, 0.08010803163051605, -0.0628306046128273, -0.007555736228823662, -0.1438378542661667, 0.24929213523864746, -0.08823347091674805, 0.009149175137281418, -0.05555366724729538, -0.2919143736362457, 0.024761131033301353, -0.07992067188024521, -0.4713854193687439, 0.43608739972114563, 0.05044097453355789, 0.08388541638851166, 0.13472941517829895, -0.010586627759039402, -0.05355732515454292, -0.08122851699590683, -0.04958475008606911, -0.04695018008351326, -0.24855078756809235, 0.0014717610320076346, -0.09404328465461731, 0.0789865106344223, 0.006809293292462826], [-0.006678886245936155, -0.001983305439352989, 0.027145657688379288, -0.028505152091383934, -0.007333850953727961, -0.01861659251153469, 0.015984684228897095, 0.023822417482733727, 0.007052034605294466, -0.0038562300615012646, 0.027786964550614357, -0.0034158648923039436, 0.016698140650987625, 0.011342299170792103, -0.013476594351232052, -0.0010162905091419816, 0.009940857999026775, 0.0069764116778969765, -0.015495010651648045, -0.007260673679411411, -0.03855663165450096, -0.0008697238517925143, -0.004586825612932444, 0.013413848355412483, -0.002723459852859378, 0.032908640801906586, -0.008285745047032833, 0.0026346459053456783, -0.017158782109618187, 0.002323464024811983, 0.004498287104070187, -0.014616944827139378, 0.006593440659344196, -0.01695931702852249, 0.0034485706128180027, 0.02752115949988365, -0.006922666449099779, -0.004069916438311338, 0.0033290181308984756, 0.010542312636971474], [-0.06690733879804611, -0.008225084282457829, 0.1438990980386734, -0.20951318740844727, 0.01984478160738945, -0.11346665024757385, 0.13464517891407013, -0.03774668648838997, 0.01741996966302395, -0.011417967267334461, 0.06201865151524544, -0.02762351743876934, -0.1406172215938568, 0.04509960114955902, -0.08645658195018768, 0.05234624072909355, 0.02475329302251339, -0.11864382773637772, -0.10128262639045715, -0.10122290253639221, -0.015083792619407177, 0.09704529494047165, 0.01077320147305727, 0.062642402946949, 0.03087880089879036, 0.034999966621398926, -0.02160652168095112, -0.0052683004178106785, -0.03701987490057945, -0.02271384745836258, 0.04218469560146332, -0.023735007271170616, 0.06254197657108307, -0.05896621197462082, 0.006733921822160482, 0.06203173100948334, -0.04864807054400444, 0.009457753039896488, 0.13186781108379364, 0.10582605004310608], [-0.010000420734286308, 0.006529408507049084, 0.010474729351699352, -0.03460678458213806, -0.002509668003767729, -0.007036685477942228, -0.0018565993523225188, 0.014747872948646545, 0.006325624417513609, 0.0025541717186570168, 0.011254487559199333, -0.002476345980539918, 0.018197696655988693, 0.00043757559615187347, -0.017428167164325714, 0.003317355178296566, 0.01840132474899292, 0.008056217804551125, -0.016778165474534035, -0.025523031130433083, -0.0067531350068748, 0.002389679430052638, -0.0014750257832929492, 0.016102325171232224, 0.0005387375713326037, 0.026267576962709427, -0.00860527716577053, 0.001797311007976532, -0.01062240730971098, -0.013978466391563416, 0.004245190881192684, -0.012556387111544609, 0.007695651613175869, -0.021316805854439735, 0.004210393875837326, 0.0062797493301332, 0.0015786895528435707, -0.003708223346620798, 0.017274215817451477, 0.02144840732216835], [-0.022703571245074272, 0.013966255821287632, 0.044890228658914566, -0.09536570310592651, 0.00041676897672005, -0.0008144640014506876, -0.01955496147274971, 0.02698621153831482, 0.03964996710419655, 0.008328307420015335, 0.016519522294402122, -0.005875431001186371, 0.08436978608369827, 0.010707858018577099, -0.020927391946315765, 0.004969502333551645, 0.03450287505984306, 0.0002587808994576335, -0.04811985418200493, -0.056154441088438034, -0.018398728221654892, -0.0025609848089516163, -0.031236691400408745, 0.0344853438436985, 0.006685661617666483, 0.10276347398757935, -0.016461309045553207, 0.0038139421958476305, -0.07350888848304749, -0.00922346580773592, 0.006829746533185244, 0.004613801371306181, 0.02155490405857563, -0.007897508330643177, 0.007306687533855438, 0.04248284548521042, 0.012468378990888596, -0.01879599504172802, 0.07542210072278976, 0.04080741107463837], [-0.009867014363408089, 0.012292894534766674, 0.07352910935878754, -0.11237316578626633, -0.008157028816640377, -0.05364987254142761, 0.04077472165226936, -0.002841205568984151, 0.01944403164088726, -0.0068830871023237705, 0.041942596435546875, -0.014527610503137112, -0.01337191741913557, 0.018621094524860382, -0.05032941699028015, 0.03542087599635124, 0.0360480360686779, -0.02612762153148651, -0.05705040693283081, -0.05072931945323944, -0.02177274227142334, 0.05322834849357605, -0.022166753187775612, 0.02701544389128685, 0.011652336455881596, 0.06750129163265228, -0.026457209140062332, 0.008120951242744923, -0.044261448085308075, -0.013787859119474888, 0.02521384321153164, 0.014882746152579784, 0.041575413197278976, -0.00831907894462347, 0.007724548690021038, 0.04473100230097771, -0.020276598632335663, 0.010341828688979149, 0.07261461764574051, 0.04549839347600937], [-0.05140601098537445, 0.059780191630125046, 0.013686398975551128, -0.09201449155807495, -0.04717427119612694, -0.06542805582284927, 0.1310611218214035, -0.12361245602369308, 0.012488560751080513, -0.017420092597603798, -0.041618265211582184, -0.008489388972520828, -0.07894054055213928, 0.014510025270283222, -0.03901650384068489, 0.080796018242836, 0.009848109446465969, 0.09430103749036789, -0.012322972528636456, -0.0014098010724410415, 0.028544938191771507, 0.02487119846045971, -0.040357690304517746, 0.017796000465750694, 0.01646755076944828, 0.1060580387711525, -0.04848799481987953, -0.003677144879475236, -0.004718455020338297, -0.013248645700514317, 0.030087752267718315, -0.012006300501525402, 0.04280723258852959, 0.09562794864177704, -0.004273339174687862, 0.031932905316352844, -0.04360358044505119, 0.0782962217926979, 0.027868743985891342, 0.009721028618514538], [-0.03278597816824913, 0.016967782750725746, -0.038925863802433014, -0.05153220146894455, -0.014757874421775341, -0.03815838694572449, -0.005748020485043526, -0.04517093300819397, -0.07825896143913269, 3.653124804259278e-05, 0.05739375576376915, -0.015627246350049973, 0.013630043715238571, 0.010991760529577732, -0.07065188139677048, 0.04222426936030388, 0.032607629895210266, -0.005752029828727245, -0.07374321669340134, 0.03844742476940155, 0.05769709125161171, 0.02152472920715809, 0.008261431939899921, 0.01405217032879591, 0.014611510559916496, 0.03761382773518562, 0.04277826100587845, -0.016654903069138527, 0.028073731809854507, -0.07193321734666824, 0.00946860946714878, -0.029151421040296555, 0.006250668782740831, -0.002609346294775605, 0.0031077794265002012, 0.0076605174690485, 0.008942440152168274, 0.06947368383407593, -0.08634296804666519, 0.01480853371322155], [-0.0033925173338502645, 0.022856030613183975, 0.11000260710716248, -0.15690530836582184, 0.003867372637614608, -0.07934419810771942, 0.03410571813583374, 0.021495578810572624, 0.022207576781511307, -0.002824599388986826, 0.049033381044864655, -0.01880640536546707, -0.05754463002085686, 0.031262610107660294, -0.1009921208024025, 0.026365334168076515, 0.013289136812090874, -0.08024323731660843, -0.0826599970459938, -0.0805351510643959, -0.05588427558541298, 0.04059446603059769, -0.031374797224998474, 0.03283187747001648, 0.022709008306264877, 0.04849277436733246, -0.023357203230261803, 0.024824967607855797, -0.07378839701414108, -0.044917695224285126, 0.028533529490232468, 0.0008547739125788212, 0.022903725504875183, 0.027818510308861732, 0.00957071129232645, 0.08352029323577881, -0.017859837040305138, -0.007086725905537605, 0.10712537169456482, 0.09579375386238098], [0.12983988225460052, 0.3205116391181946, -0.1625564694404602, -0.06535626947879791, -0.09223584085702896, -0.07149642705917358, -0.0414886474609375, 0.02878640592098236, 0.03843802213668823, -0.07591515779495239, -0.09381809830665588, -0.042157623916864395, -0.045942522585392, 0.07669960707426071, 0.12506824731826782, -0.0020422739908099174, 0.030007876455783844, 0.1484556347131729, 0.0926845520734787, 0.05358164384961128, -0.031031876802444458, -0.10071342438459396, -0.054734230041503906, -0.5323799252510071, -0.012889247387647629, 0.19022372364997864, 0.0051206909120082855, 0.08818433433771133, 0.03152499347925186, -0.2053096741437912, 0.014417112804949284, 0.2460479438304901, -0.10083314031362534, 0.0499272421002388, -0.014270605519413948, -0.07534271478652954, -0.0036808892618864775, -0.10924001783132553, 0.03417443856596947, 0.07091736048460007], [-0.004515397362411022, 0.024321377277374268, 0.04837166517972946, -0.06236083060503006, -0.031148647889494896, -0.00910639576613903, 0.01947849430143833, 0.056334685534238815, 0.046735428273677826, -0.001991300843656063, 0.002949148416519165, -0.0025687471497803926, 0.04996877163648605, -0.01552378199994564, -0.005486248526722193, 0.005535770207643509, 0.030301310122013092, -0.024995390325784683, -0.049520500004291534, -0.030358217656612396, 0.009396685287356377, -0.019605129957199097, -0.0711335763335228, 0.02643902786076069, 0.0009077601716853678, 0.049793802201747894, -0.030124513432383537, -0.005558670498430729, -0.20533691346645355, 0.023457977920770645, 0.010230007581412792, 0.0033888116013258696, 0.048960816115140915, -0.00013572709576692432, 0.015646446496248245, 0.07517683506011963, 0.0024936802219599485, -0.021339381113648415, 0.015941942110657692, 0.048137370496988297], [0.00010840188042493537, -0.006689311936497688, 0.022578958421945572, -0.02030099928379059, -0.1328635811805725, -0.05367764085531235, 0.05662095919251442, -0.054451826959848404, 0.13980744779109955, -0.0026050801388919353, 0.027177609503269196, -0.010011161677539349, 0.011211749166250229, 0.020799530670046806, 0.045977283269166946, -0.017881769686937332, 0.011894569732248783, -0.08957778662443161, 0.014405577443540096, 0.07964736968278885, 0.0926959291100502, 0.05278629809617996, -0.05897411331534386, 0.03633878380060196, 0.014102427288889885, -0.035018716007471085, -0.09213598072528839, 0.024934547021985054, -0.0008101136772893369, -0.022446513175964355, 0.02402493543922901, 0.03184250742197037, 0.021873891353607178, 0.0601225271821022, 0.010342445224523544, 0.07111618667840958, -0.01800631918013096, 0.06260843575000763, -0.00028818962164223194, 0.011565596796572208], [-0.0682804137468338, 0.03554832562804222, 0.04524054378271103, -0.13786858320236206, -0.05312797427177429, -0.10069077461957932, -0.005601599346846342, -0.02769288793206215, 0.02662619948387146, 0.016197122633457184, 0.005669756792485714, -0.007234709803014994, 0.10629898309707642, -0.006042893044650555, -0.04665188118815422, 0.015680911019444466, 0.08515597134828568, 0.2446107268333435, -0.08551162481307983, -0.03384395316243172, -0.00607671681791544, 0.07536375522613525, -0.016680363565683365, 0.17118069529533386, 0.016546053811907768, 0.1594897359609604, -0.036169931292533875, 0.0027108427602797747, 0.02412884496152401, -0.12314040213823318, 0.038503583520650864, -0.07798513025045395, 0.09433893859386444, 0.06605865806341171, 0.02911333553493023, 0.07238922268152237, -0.005081590730696917, -0.06027039512991905, 0.04799411818385124, 0.11815396696329117], [-0.004859414882957935, 0.021910198032855988, 0.07551798224449158, -0.099898561835289, 0.040847305208444595, -0.028299672529101372, 0.019341787323355675, 0.017132841050624847, 0.04850224405527115, 0.001263609156012535, -0.04347188025712967, -0.018441900610923767, 0.029850929975509644, 0.009310035035014153, 0.0044233910739421844, 0.011440206319093704, -0.018510300666093826, 0.03297134116292, -0.034235794097185135, -0.08545134961605072, -0.05080844461917877, 0.00538858026266098, 0.03029645048081875, 0.046708930283784866, 0.00220444705337286, 0.10764043778181076, -0.030724551528692245, 0.0032587454188615084, -0.01861298456788063, -0.007748239673674107, 0.013639029115438461, -0.043604422360658646, 0.024149058386683464, 0.03932260349392891, 0.008053653873503208, -0.020982731133699417, -0.0031007013749331236, -0.03864262253046036, 0.08022128790616989, 0.06416313350200653], [-0.003559604985639453, -0.09459800273180008, -0.00013773475075140595, 0.045088671147823334, 0.04235402122139931, -0.04474085196852684, 0.08821827918291092, -0.059702351689338684, 0.009402080439031124, 0.012142273597419262, 0.04996549338102341, -0.02836095541715622, -0.05369239300489426, 0.0403786227107048, -0.06366202980279922, 0.03367951884865761, -0.029849514365196228, 0.08639705926179886, -0.0732290968298912, -0.001480974955484271, 0.021268144249916077, -0.04298946261405945, 0.011542554013431072, 0.1421828716993332, 0.04046723619103432, -0.055137503892183304, 0.08443379402160645, -0.0239891167730093, -0.07048953324556351, 0.007455712184309959, 0.03077276423573494, -0.01398035790771246, -0.022136477753520012, 0.010336973704397678, -0.0050814589485526085, -0.029686350375413895, -0.0031377102714031935, 0.012736094184219837, 0.036803003400564194, -0.026172660291194916], [-0.05625751614570618, 0.019330905750393867, 0.10188230127096176, -0.17313039302825928, -0.04269154369831085, -0.07569397240877151, 0.04054960235953331, -0.019454317167401314, 0.05085527524352074, -0.017865300178527832, 0.02031410112977028, -0.017624614760279655, 0.0965709462761879, 0.04414627328515053, -0.02657536044716835, 0.007939734496176243, 0.022412078455090523, 0.0051685902290046215, -0.04049324244260788, -0.035338252782821655, -0.025973519310355186, 0.013441311195492744, 0.023031923919916153, 0.05569019541144371, -0.0030959679279476404, 0.2501176595687866, -0.03734450414776802, 0.03344741463661194, -0.043161552399396896, 0.0029247612692415714, 0.03404148668050766, -0.02781500294804573, 0.03129860758781433, 0.020193791016936302, 0.009454349987208843, 0.0886416956782341, -0.03432517126202583, 0.014593971893191338, 0.08257482945919037, 0.07508289813995361], [-0.014530859887599945, 0.009323173202574253, -0.017260311171412468, -0.014263956807553768, -0.006026242859661579, 0.006108374800533056, 0.017318831756711006, -0.006724462378770113, -0.04033419117331505, -0.0026579699479043484, 0.0006209820276126266, -0.006854374427348375, -0.020684726536273956, -0.0012075826525688171, -0.016750730574131012, 0.02493762969970703, 0.019028199836611748, -0.029283776879310608, -0.028750715777277946, -0.002211914164945483, 0.07190974056720734, 0.013465490192174911, -0.041214317083358765, -0.0010607107542455196, 0.013676665723323822, -0.04025493562221527, 0.01213610265403986, -0.002491472288966179, -0.02336285449564457, -0.016240278258919716, 0.005065660458058119, -0.008796138688921928, 0.028276747092604637, -0.00615917332470417, 0.002248484408482909, 0.010894005186855793, -0.0007151458994485438, 0.020517421886324883, -0.01802288182079792, -0.0019867972005158663], [-0.015179865062236786, -0.009926444850862026, 0.08938014507293701, -0.0049204532988369465, -0.018427399918437004, -0.05717817321419716, 0.06317298114299774, -0.05170132592320442, 0.0178529005497694, 0.004193324130028486, 0.026348760351538658, -0.021523525938391685, 0.06268389523029327, 0.023886188864707947, 0.007984329015016556, -0.0336727537214756, 0.011888833716511726, -0.033903755247592926, -0.030392806977033615, 0.0018041861476376653, -0.010106557048857212, 0.03873496502637863, -0.012488321401178837, 0.015438818372786045, 0.015358605422079563, 0.13982242345809937, 0.008808305487036705, -0.006304314360022545, -0.021528292447328568, -0.015313628129661083, -0.003668725024908781, -0.029134836047887802, 0.04201015084981918, 0.0010913136648014188, 0.004978700075298548, 0.031947024166584015, -0.008876633830368519, -0.016429278999567032, 0.003961879760026932, -0.0024842009879648685], [-0.018184933811426163, -0.02258944883942604, 0.044743698090314865, -0.04265061393380165, 0.04392027109861374, -0.02742013894021511, -0.07345693558454514, -0.09275553375482559, -0.1973951756954193, -0.019138026982545853, 0.02494727447628975, -0.027842869982123375, -0.009998300112783909, 0.05492539331316948, -0.0003800271369982511, 0.015703484416007996, -0.02374841272830963, -0.06540870666503906, -0.04668189585208893, -0.029077526181936264, -0.0865141823887825, 0.039321959018707275, 0.13052135705947876, -0.004117227159440517, -0.007206474896520376, 0.004368242342025042, 0.12703342735767365, -0.000436254806118086, 0.04056287556886673, -0.012945893220603466, 0.016270602121949196, -0.0052664149552583694, 0.024402698501944542, -0.004530729725956917, 0.007009976543486118, -0.050780169665813446, -0.010469495318830013, -0.012298592366278172, -0.030526554211974144, -0.016104670241475105], [-0.05662697181105614, 0.046002715826034546, 0.08196407556533813, -0.1661965399980545, 0.008314583450555801, -0.019077856093645096, 0.025286979973316193, 0.09176545590162277, 0.012228431180119514, -0.008525403216481209, 0.02076929435133934, -0.023295069113373756, 0.08787183463573456, 0.020260898396372795, -0.050600096583366394, 0.038735419511795044, 0.04940948262810707, -0.0703701451420784, -0.10419534146785736, -0.0869397297501564, -0.0066621932201087475, 0.0255050640553236, -0.0871577337384224, 0.02225743792951107, 0.020238321274518967, 0.1308375895023346, -0.039118945598602295, -0.005585905630141497, -0.11219535022974014, -0.017020398750901222, 0.019947785884141922, -0.020037883892655373, 0.08485958725214005, -0.016213878989219666, 0.016949279233813286, 0.08166073262691498, -7.747016934445128e-05, -0.02333228662610054, 0.06856399774551392, 0.06282367557287216], [0.045049894601106644, -0.005225750617682934, 0.03430105373263359, 0.00661061704158783, 0.0849112719297409, -0.028368651866912842, 0.03375469893217087, 0.06393660604953766, 0.05815747007727623, -0.004151996225118637, -0.043228667229413986, -0.021826298907399178, -0.027362415567040443, -0.013583164662122726, -0.029602883383631706, 0.0009023012826219201, -0.04789618030190468, -0.02020341530442238, -0.011775110848248005, 0.08813439309597015, -0.0644197165966034, -0.011270721442997456, -0.008343162015080452, 0.027372213080525398, 0.009145374409854412, -0.028209207579493523, 0.02720271609723568, -0.011183555237948895, -0.03728068247437477, -0.01835930161178112, 0.013564767315983772, -0.011107572354376316, 0.030008234083652496, 0.0012113023549318314, 0.002533117076382041, -0.04003776237368584, -0.008326723240315914, -0.03857766091823578, 0.1149236261844635, 0.011410029605031013], [-0.0015374231152236462, 0.008186222985386848, 0.0377906858921051, -0.16280215978622437, -0.041104692965745926, -0.035308629274368286, 0.03847261145710945, 0.05794268473982811, 0.025593334808945656, 0.012442524544894695, 0.03784953057765961, -0.017653051763772964, 0.049742668867111206, -0.0007284747553057969, -0.028139080852270126, 0.020192187279462814, 0.05170838534832001, 0.05419129133224487, -0.07419139891862869, -0.07400257140398026, -0.016669372096657753, 0.03683174401521683, -0.0012854825472459197, 0.07032839208841324, 0.019840596243739128, 0.07001561671495438, -0.05162743479013443, -0.01611155830323696, 0.021483441814780235, -0.05514148995280266, 0.011918050236999989, -0.029133368283510208, 0.042766865342855453, 0.02410072088241577, 0.010693860240280628, 0.010104136541485786, 0.0038843457587063313, 0.008804917335510254, 0.008441366255283356, 0.04427113011479378], [-0.012389481998980045, 0.016936633735895157, 0.021950792521238327, -0.05070994049310684, -0.01762852817773819, -0.0071203564293682575, 0.004193540662527084, 0.008067087270319462, 0.010133923031389713, -0.0032185311429202557, 0.004901605192571878, -0.0064454092644155025, 0.037654414772987366, 0.010120144113898277, -0.0013874927535653114, 0.008898786269128323, 0.012265369296073914, -0.007322200108319521, -0.021238084882497787, -0.019793640822172165, 0.014720636419951916, 0.004741536919027567, -0.0080482242628932, 0.007348153740167618, 0.0027771592140197754, 0.055646393448114395, -0.01852731592953205, 0.008623398840427399, -0.020161647349596024, -0.007281882222741842, 0.006188061088323593, -0.009162211790680885, 0.012966511771082878, 0.007525385823100805, 0.0045921714045107365, 0.024148259311914444, 0.001389840617775917, 0.00565054826438427, 0.014894356019794941, 0.02674860693514347], [-0.046648748219013214, 0.04411345720291138, 0.04314161464571953, -0.16501623392105103, -0.07035478949546814, -0.03540176525712013, -0.011001011356711388, -0.01588391698896885, 0.028537848964333534, -0.0017064819112420082, 0.025583313778042793, -0.004800471011549234, 0.266729474067688, 0.008674525655806065, -0.0016507790423929691, -0.0012636707397177815, 0.07097004354000092, 0.11026740819215775, -0.007875125855207443, -0.039949916303157806, -0.033193521201610565, 0.001718983636237681, 0.03153230622410774, 0.04867784306406975, -0.012259448878467083, 0.30252566933631897, -0.05211303010582924, 0.0314321406185627, 0.012348494492471218, -0.05148458108305931, 0.016922425478696823, -0.04094989597797394, 0.0311301089823246, -0.03663620725274086, 0.014983088709414005, 0.04794958606362343, 0.0004177629016339779, 0.03395466133952141, 0.017948880791664124, 0.07403134554624557], [-0.060404058545827866, 0.015300603583455086, 0.05734136328101158, -0.05640160292387009, -0.08520215004682541, -0.02350137196481228, -0.0481395348906517, -0.017682235687971115, 0.038217321038246155, -0.019280603155493736, 0.004243558272719383, -0.020788012072443962, 0.0021669042762368917, 0.045482732355594635, -0.004347027745097876, -0.0030310058500617743, -0.0005891158943995833, -0.021464990451931953, 0.0021806913428008556, 0.04054975509643555, 0.006489799357950687, 0.037267718464136124, -0.02044716477394104, 0.009188111871480942, 0.0018304878612980247, 0.059375304728746414, -0.07881946116685867, 0.009943068027496338, 0.03385357931256294, 0.001552762696519494, 0.02248033881187439, 0.005351073574274778, 0.028382420539855957, -0.017928527668118477, 0.00903214979916811, 0.08626170456409454, -0.034506406635046005, -0.007402143906801939, 0.04758593440055847, 0.03641132265329361], [-0.07074473798274994, -0.01987127587199211, 0.058058351278305054, -0.11574680358171463, -0.09522206336259842, -0.0743168443441391, -0.006965004373341799, -0.1205311119556427, 0.06966917961835861, -0.0077414074912667274, 0.03713225945830345, 0.004948286805301905, 0.234270840883255, 0.033399052917957306, 0.00709136389195919, -0.04299197718501091, 0.058945491909980774, 0.2080400437116623, 0.06582813709974289, 0.05629826337099075, -0.04857384413480759, -0.02450205199420452, 0.12047895789146423, 0.1241443008184433, -0.03449095040559769, 0.3513615131378174, -0.04751882702112198, 0.041848838329315186, 0.07301303744316101, 0.0143185555934906, 0.043665941804647446, 0.010011162608861923, -0.004301099106669426, 0.01421033963561058, 0.012847918085753918, 0.061505451798439026, -0.0331030935049057, 0.030857201665639877, 0.013730338774621487, 0.027824630960822105], [-0.007325988728553057, 0.004971975460648537, 0.003856780007481575, -0.009308947250247002, -0.0006993147544562817, -0.004890273790806532, 0.005812769755721092, -0.000897524761967361, 0.0035490761511027813, -0.001847479143179953, 0.003730485448613763, -0.001660759444348514, -0.0058929650112986565, 0.003234569216147065, -0.005570555571466684, 0.005713534075766802, 0.0038792297709733248, -0.0018292659660801291, -0.00393650634214282, 0.002008880255743861, 0.005254455842077732, 0.0028072968125343323, -0.0087426220998168, -0.0014149191556498408, 0.002018617931753397, -0.0020304333884269, -0.0019875543657690287, -0.0002596153353806585, -0.0016404776833951473, -0.0005761068314313889, 0.0018063103780150414, -0.0016037797322496772, 0.005769448820501566, 0.0006334175122901797, 0.0005116393440403044, 0.006097263656556606, -0.002096617128700018, 0.0033321543596684933, 0.007772771175950766, 0.004998941905796528], [-0.034172456711530685, 0.012010281905531883, -0.011094779707491398, -0.034172460436820984, 0.018191395327448845, -0.12894925475120544, 0.06339322030544281, -0.23506797850131989, 0.11651483923196793, -0.014456499367952347, 0.0320400632917881, -0.007437031716108322, 0.01637575589120388, 0.053102731704711914, 0.05106324702501297, 0.012798958458006382, -0.03525197505950928, 0.0820382758975029, 0.047840818762779236, 0.09672317653894424, -0.022322630509734154, -0.018603354692459106, 0.17615678906440735, -0.002762960037216544, -0.005881751421838999, 0.1213209480047226, 0.015025734901428223, 0.039376530796289444, 0.11807989329099655, -0.021890856325626373, 0.020016111433506012, -0.023337731137871742, -0.042182862758636475, 0.03560981899499893, -0.00630965968593955, -0.07428039610385895, -0.023637333884835243, 0.03377683460712433, 0.0300558153539896, 0.08913347870111465], [-0.01934995874762535, 0.004450951237231493, 0.03159039467573166, -0.03446715325117111, 0.010139374062418938, -0.009670744650065899, 0.02384238876402378, 0.03611357510089874, 0.007971782237291336, -0.010779536329209805, 0.03701989725232124, -0.009125526063144207, 0.03509940952062607, 0.01713789626955986, -0.020717108622193336, 0.010215682908892632, 0.01093071699142456, -0.03914930671453476, -0.03660158812999725, -0.011845830827951431, -0.022366484627127647, -0.0053536733612418175, -0.02080598659813404, 0.022640489041805267, 0.004178200848400593, 0.018423013389110565, -0.001345871016383171, -0.003818668657913804, -0.07095763087272644, 0.0013742303708568215, 0.012100606225430965, -0.012778257951140404, 0.03418809548020363, -0.0370660275220871, 0.00908587034791708, 0.045411981642246246, -0.005141454748809338, 0.004640053957700729, -0.003187786089256406, 0.024278203025460243], [0.032451339066028595, -0.028320685029029846, 0.07255972176790237, -0.00822104699909687, -0.11899225413799286, -0.11444108188152313, -0.044261734932661057, -0.05593591555953026, -0.0030251992866396904, -0.001624062191694975, 0.05260837450623512, -0.012256407178938389, -0.1212378591299057, 0.043695494532585144, 0.1022486537694931, -0.02110978215932846, -0.023568440228700638, 0.07426925748586655, 0.020004484802484512, 0.06408516317605972, -0.2996613681316376, 0.03717385604977608, 0.0595599003136158, 0.007652728818356991, -0.034222498536109924, -0.05730564147233963, -0.040815193206071854, -0.01821167953312397, 0.08744019269943237, -0.015364334918558598, 0.00960996001958847, 0.016692524775862694, -0.07269185036420822, 0.02615515887737274, 0.003595636924728751, -0.0005855137715116143, -0.03313808888196945, -0.1139606460928917, 0.062832310795784, -0.0126481419429183], [0.09578166157007217, -0.11475732922554016, 0.09056563675403595, 0.2121652066707611, -0.09895144402980804, 0.009913111105561256, 0.010877897031605244, -0.0320303775370121, 0.12875214219093323, -0.019650936126708984, 0.09989874809980392, -0.03217428922653198, -0.4457191526889801, 0.058059725910425186, -0.17359544336795807, 0.10485920310020447, -0.09617124497890472, 0.2706966698169708, 0.029575448483228683, 0.13752886652946472, -0.16469895839691162, 0.06471621245145798, -0.10226882994174957, -0.05921952798962593, 0.049523141235113144, -0.4029766023159027, 0.005872697103768587, -0.13130559027194977, -0.002284785732626915, 0.1689818799495697, -0.040561970323324203, 0.1355447918176651, -0.13902807235717773, -0.05955600365996361, -0.04249110817909241, -0.05635129287838936, -0.03463096544146538, 0.024745646864175797, 0.18109625577926636, -0.15678347647190094], [-0.052028559148311615, 0.037923071533441544, 0.0658869594335556, -0.15082861483097076, -0.0360972136259079, -0.05374150723218918, 0.01944168098270893, 0.009062623605132103, 0.04019664600491524, 0.000871076830662787, 0.013766888529062271, -0.019290203228592873, 0.1229664534330368, 0.017617860808968544, -0.03043428063392639, 0.012015162035822868, 0.027622206136584282, 0.03652053698897362, -0.03631848096847534, -0.050520915538072586, -0.007668991573154926, 0.0063802702352404594, 0.023131882771849632, 0.0421619713306427, 0.006596291437745094, 0.21552862226963043, -0.042791444808244705, -0.0018670744029805064, 0.01085608545690775, -0.06271136552095413, 0.018533989787101746, -0.027769142761826515, 0.026991819962859154, 0.007624777499586344, 0.008923904970288277, 0.03986939415335655, -0.0012217421317473054, 0.04023557901382446, 0.03636666014790535, 0.05057523772120476], [0.017262574285268784, 0.03581571578979492, -0.033413417637348175, 0.02155466005206108, 0.002825210802257061, 0.024678245186805725, -0.014912583865225315, 0.04384266212582588, -0.03745679184794426, -0.007817010395228863, 0.049974869936704636, 0.0051315175369381905, -0.04024435952305794, 0.021361198276281357, -0.00867964792996645, 0.023425858467817307, 0.026480497792363167, -0.035669777542352676, -0.030527206137776375, -0.009372330270707607, 0.015369835309684277, -0.025067567825317383, -0.05168226733803749, -0.07261497527360916, 0.005679678171873093, -0.08169305324554443, 0.02410605549812317, 0.026458950713276863, -0.035246312618255615, -0.00047615679795853794, -0.023761149495840073, 0.020379820838570595, -0.022551067173480988, -0.016888562589883804, -5.474885620060377e-05, 0.013875088654458523, 0.019434725865721703, -0.039153944700956345, -0.041369348764419556, -0.02507929317653179], [0.005959846079349518, -0.0074053131975233555, -0.026123985648155212, 0.053641464561223984, -0.030051033943891525, 0.002091541886329651, 0.029095474630594254, -0.05138591304421425, 0.019173523411154747, 0.001591587089933455, 0.0046257441863417625, 0.012692740187048912, -0.05924776569008827, -0.013998747803270817, -0.003243645653128624, 0.015741296112537384, 0.028199294582009315, 0.058736756443977356, 0.008840689435601234, -0.003177151782438159, 0.006962211336940527, -0.0031175860203802586, -0.0113098518922925, -0.003112897975370288, 0.00725620798766613, -0.05578891187906265, -0.024002555757761, 0.015582913532853127, -0.010060925967991352, 0.002923538675531745, -0.006380388047546148, -0.016051320359110832, -0.03844868019223213, -0.00820318702608347, -0.008592129684984684, 0.002979689510539174, -0.0019288549665361643, 0.028720945119857788, -0.02074604667723179, -0.01516756508499384], [-0.09127259254455566, 0.001614019856788218, -0.09921471774578094, -0.01753092184662819, -0.039609890431165695, -0.005089845973998308, 0.05179501324892044, -0.12255216389894485, 0.014026724733412266, 0.005084669217467308, -0.03761234134435654, -0.0046796007081866264, 0.027552740648388863, -0.00016004855569917709, -0.08804905414581299, 0.09072501212358475, 0.026427390053868294, 0.11388880014419556, -0.04115357622504234, -0.0502810925245285, 0.15595687925815582, -0.016661327332258224, -0.05261125788092613, 0.061737705022096634, 0.037963781505823135, 0.04470446705818176, -0.015543181449174881, -0.015692899003624916, 0.01714053750038147, -0.025181014090776443, 0.01625647209584713, -0.07331158965826035, -0.018421949818730354, -0.006541591603308916, -0.0054775713942945, 0.004518547561019659, -0.014393833465874195, 0.05131487548351288, 0.06617659330368042, 0.032081473618745804], [-0.06071699410676956, 0.017713140696287155, 0.10040022432804108, -0.16526584327220917, -0.07451896369457245, -0.03363678976893425, 0.06422356516122818, -0.018411701545119286, 0.016178593039512634, -0.009313332848250866, 0.041315171867609024, -0.02738584205508232, 0.09048426151275635, 0.043551091104745865, 0.015370914712548256, 0.022777505218982697, 0.06181936711072922, -0.009736795909702778, -0.05537223070859909, -0.08435527980327606, -0.0348595567047596, 0.08613262325525284, -0.0019892784766852856, 0.035201653838157654, 0.004948704037815332, 0.12527018785476685, -0.058012258261442184, 0.031269822269678116, -0.021009832620620728, -0.0033787661232054234, 0.029128028079867363, -0.02347584255039692, 0.09312975406646729, -0.04793078079819679, 0.013136472553014755, 0.055655915290117264, -0.031089000403881073, 0.044930897653102875, 0.07838868349790573, 0.0658964142203331], [-0.04192722588777542, 0.044720109552145004, 0.011999589391052723, -0.056114938110113144, -0.06714065372943878, -0.0761495977640152, 0.03728647902607918, -0.2713734805583954, -0.03841257467865944, -0.022953057661652565, -0.0004291676450520754, 0.04256007447838783, 0.11146336048841476, 0.0006405245512723923, 0.07452680915594101, 0.030579453334212303, 0.08973975479602814, 0.19380271434783936, 0.03968611732125282, -0.08688721805810928, -0.13325220346450806, 0.13156722486019135, 0.07103221118450165, 0.006041336338967085, -0.030878087505698204, 0.17819589376449585, -0.09316343069076538, 0.017690394073724747, 0.03164151310920715, -0.020117150619626045, -0.005367371719330549, -0.014604256488382816, -0.027840668335556984, -0.011441782116889954, 0.0028797700069844723, -0.016581011936068535, -0.04663192480802536, 0.04859072342514992, 0.01553141325712204, 0.03551825135946274], [-0.020887115970253944, 0.07429883629083633, 0.030590282753109932, -0.040350962430238724, -0.02387635037302971, -0.02484644204378128, 0.03167096897959709, -0.025164397433400154, -0.0011719922767952085, -0.005623249802738428, -0.030841773375868797, 0.012575173750519753, -0.015492578968405724, -0.018879922106862068, -0.01583140902221203, 0.007304661441594362, 0.008255420252680779, 0.06855015456676483, -0.0054047913290560246, -0.04767601191997528, -0.06785063445568085, 0.043955765664577484, -0.044923122972249985, -0.007490597199648619, 0.00034273730125278234, 0.04750257730484009, -0.036657415330410004, -0.005018504336476326, 0.004656240809708834, -0.05000137537717819, -0.012135309167206287, -0.07977037131786346, 0.009871461428701878, -0.010442751459777355, 0.0008656207355670631, 0.04844497889280319, -0.015773026272654533, 0.049000274389982224, -0.018188782036304474, 0.03330530971288681], [-0.07654164731502533, 0.03925327956676483, 0.23992131650447845, -0.08262573927640915, 0.008921047672629356, -0.10025377571582794, 0.24459470808506012, -0.20347020030021667, 0.0922786295413971, -0.044444937258958817, 0.04101323336362839, -1.5422276192111894e-05, 0.6667632460594177, 0.04302315413951874, 0.05614358186721802, -0.012478429824113846, 0.07880842685699463, 0.6615743637084961, 0.10201811045408249, 0.23719771206378937, -0.0031325945165008307, 0.12148463726043701, -0.03962838649749756, -0.024873217567801476, -0.03971138969063759, 0.8118724226951599, -0.05919124558568001, 0.06815820187330246, 0.030998073518276215, 0.0014407549751922488, 0.05172118917107582, -0.014433912001550198, 0.11789514124393463, 0.05567176640033722, 0.014961790293455124, 0.2331274449825287, -0.11340274661779404, 0.10854250192642212, 0.10219729691743851, 0.07745860517024994], [-0.023579644039273262, 0.015218599699437618, 0.057584308087825775, -0.276987224817276, -0.2075759619474411, -0.06274618953466415, 0.03450886905193329, -0.006093703210353851, 0.20067502558231354, 0.050638291984796524, 0.00035579275572672486, -0.024330010637640953, 0.33359310030937195, -0.01155446469783783, 0.11523163318634033, -0.055206723511219025, 0.14194133877754211, 0.12511511147022247, -0.018118249252438545, -0.05454999953508377, 0.08111675083637238, 0.05513901263475418, 0.06413635611534119, 0.10959580540657043, -0.002622766885906458, 0.29368987679481506, -0.19331909716129303, 0.10344523936510086, -0.05923949554562569, -0.14704716205596924, 0.04134022817015648, -0.01399250142276287, 0.1212911456823349, 0.010358708910644054, 0.02266617864370346, 0.010209692642092705, -0.011555260978639126, 0.04005655273795128, 0.012513167224824429, 0.08552934229373932], [-0.05892282724380493, 0.12546631693840027, 0.24415479600429535, -0.3937709331512451, -0.24381570518016815, -0.1982439160346985, -0.014301587827503681, 0.027407130226492882, 0.4269765019416809, 0.0025291461497545242, 0.18823514878749847, -0.08447093516588211, 0.9105835556983948, 0.06725677847862244, 0.03425125405192375, -0.021929334849119186, 0.14965876936912537, -0.05078800395131111, -0.15686610341072083, 0.040940720587968826, -0.06652594357728958, 0.10489697754383087, -0.0013111642329022288, 0.13096074759960175, -0.10556147247552872, 0.6741123199462891, 0.33696070313453674, 0.0934152603149414, 0.10124281048774719, -0.2165331244468689, 0.10811101645231247, -0.06847450137138367, 0.28419598937034607, -0.1361970156431198, 0.10687226802110672, 0.06160428747534752, 0.08634776622056961, 0.10769862681627274, -0.08759608864784241, 0.19140438735485077], [-0.0037854022812098265, 0.002025012392550707, 0.013361506164073944, -0.013267453759908676, -0.01070382259786129, -0.010421160608530045, 0.004597797989845276, 0.03314242139458656, 0.0050013079307973385, -0.001358455279842019, 0.018810786306858063, -0.00019715266535058618, 0.04045414179563522, 0.004693835042417049, 0.0016196392243728042, -0.011005247943103313, 0.009992747567594051, 0.02046475000679493, -0.007117559667676687, 0.0071402951143682, -0.03395348787307739, -0.003479747800156474, -0.007202190812677145, 0.004016964230686426, -0.004918984603136778, 0.038314349949359894, -0.007217430509626865, 0.0020921893883496523, -0.0031361922156065702, 0.0008091264753602445, -0.0012470739893615246, -0.016434675082564354, 0.006997676566243172, -0.014037496410310268, 0.003810933092609048, 0.01914733648300171, -0.0023642564192414284, -0.017272479832172394, -0.008514770306646824, 0.0036584113258868456], [-0.012065092101693153, 0.033290836960077286, 0.024573104456067085, -0.016307177022099495, -0.006749195046722889, -0.04344341531395912, 0.07452055811882019, -0.09618169069290161, -0.02568228915333748, -0.0009712718310765922, 0.013574364595115185, 0.0356036014854908, 0.17731961607933044, -0.04006491228938103, 0.016589144244790077, 0.009463942609727383, 0.03642570972442627, 0.09527087211608887, 0.01261837501078844, -0.05837767943739891, -0.051329098641872406, 0.02378947101533413, 0.023516306653618813, 0.04943060502409935, -0.02431889809668064, 0.1391691267490387, 0.002031436888501048, -0.006573690101504326, -0.022174831479787827, 0.0007162304827943444, -0.0033748578280210495, -0.03124169446527958, -0.01824342831969261, -0.013667779043316841, 0.00697094714269042, 0.0386420302093029, 0.002294291276484728, 0.03143187239766121, -0.050177741795778275, 0.03982064500451088], [-0.010061666369438171, 0.0056058005429804325, 0.004395378287881613, -0.030369143933057785, -0.0034106019884347916, -0.005629821214824915, -0.007540450897067785, 0.016578417271375656, 0.003268349450081587, 0.005669135134667158, 0.020146312192082405, 0.0027603465132415295, 0.03781294822692871, -0.0026035918854177, -0.010910764336585999, 0.0016703045694157481, 0.024737967178225517, 0.01165737397968769, -0.018982240930199623, -0.032262541353702545, -0.0002930402697529644, -0.0011502797715365887, -0.0026741905603557825, 0.009972208179533482, -0.001697942498140037, 0.035254400223493576, -0.007536245044320822, 0.0015008042100816965, -0.00944459903985262, -0.008899088948965073, -0.0005455462378449738, -0.009431556798517704, -0.004027406219393015, -0.012468433007597923, 0.0044385348446667194, 0.006017237436026335, 0.007596167735755444, -0.009668435901403427, 0.012106996029615402, 0.02056102827191353], [-0.021449219435453415, 0.02058671973645687, 0.03983510285615921, -0.13573691248893738, 0.040963757783174515, 0.03599419817328453, -0.04298432171344757, 0.04335245117545128, 0.07647758722305298, 0.02370116300880909, -0.01918289251625538, -0.004532590974122286, 0.23970314860343933, -0.012385251931846142, -0.04059050232172012, 0.015461825765669346, 0.058441903442144394, 0.15778549015522003, -0.06103777512907982, -0.13991676270961761, -0.05434758961200714, -0.06895671039819717, -0.0221862755715847, 0.09690143913030624, -0.0038241397123783827, 0.2601570188999176, -0.0037735840305685997, -0.007391581777483225, -0.15291579067707062, -0.004352975636720657, -0.001724151661619544, -0.025047799572348595, 0.012416948564350605, -0.032172661274671555, 0.00346663361415267, 0.02610967494547367, 0.04554331675171852, -0.039821431040763855, 0.10932739078998566, 0.06322673708200455], [0.027040446177124977, 0.001307271420955658, 0.0006198856863193214, -0.0013619472738355398, -0.015948045998811722, -0.0025636821519583464, 0.01253130566328764, 0.0065223160199820995, 0.017773397266864777, 0.005858101416379213, 0.02807813510298729, 0.007954836823046207, 0.05582575500011444, -0.012902696616947651, -0.004876227118074894, -0.0007901721983216703, 0.026912737637758255, 0.03762827441096306, 0.007991048507392406, -0.0008589090430177748, -0.016371944919228554, 0.002313703065738082, -0.010388653725385666, 0.012059995904564857, -0.004063023254275322, 0.015352092683315277, -0.007997749373316765, 0.0124038802459836, -0.0022943667136132717, -0.011167020536959171, 0.0005293545546010137, 0.012881919741630554, 0.0016604997217655182, -0.011429455131292343, 0.0028630548622459173, 0.01670835353434086, 0.006543845869600773, 0.005332720931619406, -0.009541223756968975, 0.006455400958657265], [-0.0774717777967453, 0.08342601358890533, -0.09750575572252274, -0.07345803827047348, -0.02211400307714939, -0.058799732476472855, 0.11955779790878296, -0.20963919162750244, -0.018287241458892822, -0.006509988568723202, -0.044455938041210175, 0.029846107587218285, 0.09961553663015366, -0.011035275645554066, -0.010955333709716797, 0.05790373682975769, 0.06254777312278748, 0.2084619104862213, 0.0402659997344017, -0.023651322349905968, 0.10676458477973938, -0.0208080243319273, 0.020242346450686455, 0.031181883066892624, -0.00502534955739975, 0.3346720337867737, -0.011872450821101665, 0.040393635630607605, 0.008503099903464317, -0.041396696120500565, 0.018224768340587616, -0.0383988656103611, -0.019936110824346542, 0.08096251636743546, -0.002751264488324523, 0.015723511576652527, -0.012027394026517868, 0.057333026081323624, -0.0396491102874279, 0.07621868699789047], [-0.06285678595304489, 0.04258137196302414, -0.056204892694950104, -0.08705902844667435, -0.035722021013498306, -0.04048798605799675, -0.005277818068861961, -0.10064573585987091, -0.13093170523643494, -0.004661446902900934, 0.06830017268657684, -0.015342874452471733, 0.10411418974399567, 0.010713878087699413, -0.0849497839808464, 0.06987050175666809, 0.0747017189860344, 0.05545492470264435, -0.0903969258069992, 0.017292194068431854, 0.10030197352170944, 0.03181196749210358, 0.018147675320506096, 0.026749443262815475, 0.013440107926726341, 0.0948512852191925, 0.04979907348752022, -0.010967708192765713, 0.05673280358314514, -0.09620548039674759, 0.013238601386547089, -0.047208428382873535, 0.01839064434170723, -0.007891323417425156, 0.007853958755731583, 0.012040670029819012, 0.020760858431458473, 0.11824111640453339, -0.12726661562919617, 0.029382620006799698], [0.02294379472732544, -0.01213386282324791, -7.405042561003938e-05, 0.019609805196523666, -0.022943437099456787, -0.004525589756667614, -0.007728539407253265, -0.0229391697794199, -0.00017992252833209932, 0.003506990382447839, 0.031996455043554306, 0.01814412698149681, 0.03114805370569229, -0.01037750393152237, -0.004181922413408756, 0.006175160873681307, 0.023843342438340187, 0.02784132771193981, 0.0033615054562687874, -0.03489389643073082, 0.014824309386312962, -0.0028852010145783424, 0.004804362077265978, -0.000796175969298929, -0.002427991945296526, -0.02078992873430252, -0.003492365824058652, 0.021169302985072136, -0.01788642816245556, 0.02830953523516655, -0.0068057384341955185, 0.006636642850935459, -0.04062988981604576, 0.02069038711488247, 0.002385866129770875, 0.007458951324224472, 0.009048152714967728, -0.013851575553417206, -0.0017150379717350006, 0.029872523620724678], [-0.09222923219203949, -0.02999533712863922, -0.091126449406147, 0.01001210417598486, 0.010942402295768261, -0.10177773237228394, -0.05117760971188545, 0.06735450774431229, 0.14575953781604767, -0.0035879258066415787, -0.034786585718393326, 0.014016845263540745, 0.1926206350326538, -0.037269074469804764, -0.04446881264448166, -0.06153587996959686, -0.04394582659006119, -0.05971463769674301, 0.04556624963879585, -0.1606748104095459, -0.06441056728363037, -0.2354724258184433, 0.10949628055095673, 0.1568690687417984, -0.04783877730369568, 0.5392690896987915, 0.041753508150577545, 0.02944560907781124, -0.045236941426992416, -0.06897575408220291, 0.05015986040234566, -0.17413190007209778, -0.13240239024162292, 0.008216164074838161, 0.04473770409822464, 0.06062955781817436, 0.06206957623362541, -0.24829360842704773, 0.04816160351037979, 0.2632923126220703], [-0.013397464528679848, 0.04138316586613655, 0.047502897679805756, -0.08559323102235794, -0.05583864822983742, -0.019883709028363228, 0.02498600445687771, 0.04734841734170914, 0.05194663256406784, -0.002945701824501157, -0.013145138509571552, 0.0014763515209779143, 0.0958576574921608, -0.03950613737106323, -0.025239156559109688, 0.020654594525694847, 0.06177212670445442, 0.017251532524824142, -0.06233321130275726, -0.05070791393518448, 0.016601311042904854, -0.00024927809135988355, -0.10240211337804794, 0.020355353131890297, 0.0049784304574131966, 0.08891242742538452, -0.03941882774233818, -0.019420737400650978, -0.2656242251396179, 0.007956958375871181, 0.012241854332387447, -0.001417717314325273, 0.07847560942173004, -0.04088375344872475, 0.017376331612467766, 0.0645751804113388, -0.009916961193084717, -0.016386857256293297, 0.01601862907409668, 0.055768709629774094], [-0.07315084338188171, -0.008484735153615475, 0.010859502479434013, -0.02947641722857952, -0.2553183138370514, -0.1180853620171547, 0.06411924213171005, -0.23976972699165344, 0.0937376543879509, -0.008815637789666653, 0.06169143691658974, 0.015513250604271889, 0.16285166144371033, 0.03096422180533409, 0.007566056679934263, -0.012012038379907608, 0.08295264095067978, 0.18357199430465698, 0.07509319484233856, 0.03689764812588692, 0.10105381906032562, 0.09595073014497757, 0.018759451806545258, 0.054403290152549744, -0.003536955453455448, 0.14726494252681732, -0.16526135802268982, 0.016954192891716957, 0.10604020208120346, -0.04919247329235077, 0.02272208034992218, 0.010421695187687874, -0.09507589787244797, -0.0032506599090993404, -0.00908002257347107, 0.07430993020534515, -0.06531389057636261, 0.16630908846855164, -0.01107823010534048, 0.03600988909602165], [-0.048620905727148056, -0.0016232269117608666, -0.05179722607135773, -0.05551458150148392, -0.06541639566421509, 0.042506564408540726, -0.1581224650144577, -0.15139247477054596, -0.13083375990390778, 0.015774711966514587, 0.022717567160725594, 0.0035290224477648735, 0.027691656723618507, 0.015656057745218277, 0.02161981351673603, 0.009758585132658482, 0.15657062828540802, 0.3698621392250061, -0.08343690633773804, -0.054435569792985916, 0.2059497982263565, 0.11900679767131805, -0.07184846699237823, 0.02346140146255493, 0.009192935191094875, 0.11215773224830627, -0.04238250106573105, 0.06233972683548927, 0.033236972987651825, -0.06534246355295181, 0.024130139499902725, 0.04992511123418808, 0.043183185160160065, 0.04917050153017044, 0.010828630067408085, 0.15638145804405212, 0.020542757585644722, -0.040674757212400436, -0.04882781207561493, -0.0075591690838336945], [0.002457878552377224, 0.0032386782113462687, 0.038966670632362366, 0.0017198368441313505, -0.02416645921766758, 0.000754428852815181, -0.03213666379451752, -0.03719109296798706, 0.04577350243926048, 0.009858488105237484, -0.07780605554580688, 0.0036793884355574846, 0.10401039570569992, -0.01674794778227806, 0.05827975645661354, -0.017747508361935616, -0.014277857728302479, 0.16215431690216064, 0.045145899057388306, -0.050896868109703064, -0.07407232373952866, 0.009557249955832958, 0.02091183140873909, 0.04224648326635361, -0.007831297814846039, 0.11674017459154129, -0.054029207676649094, 0.00025288635515607893, 0.04252054542303085, 0.00798884779214859, -0.0038529783487319946, -0.036957331001758575, -0.020272711291909218, 0.05950355529785156, 0.00015434225497301668, -0.005474550649523735, -0.004183513578027487, -0.029305385425686836, 0.05143565684556961, 0.016525540500879288], [-0.03920825198292732, 0.053557053208351135, 0.019297590479254723, -0.010761688463389874, -0.006243009120225906, -0.0686868205666542, 0.12713094055652618, -0.09883631765842438, -0.04225146770477295, -0.017247864976525307, 0.0226180087774992, -0.010095895268023014, 0.18218061327934265, 0.001054949127137661, -0.01861204206943512, 0.0780346617102623, 0.0846405178308487, 0.3910425901412964, -0.07450862228870392, -0.1451052874326706, 0.09329777210950851, 0.010401459410786629, -0.04019291698932648, -0.04310336336493492, -0.002542307134717703, 0.2162274420261383, -0.04746689274907112, -0.04767102375626564, -0.09742151200771332, -0.014187142252922058, 0.025540249422192574, 0.06778229773044586, -0.0886266827583313, 0.026682674884796143, -0.008370350115001202, -0.04756537824869156, -0.017307501286268234, 0.009349949657917023, 0.058423254638910294, 0.032301511615514755], [-0.014444570988416672, 0.003932801540941, -0.04538856819272041, 0.06278882175683975, -0.016252409666776657, 0.029372578486800194, 0.00284691178239882, -0.044358089566230774, 0.04399220645427704, -0.00620584562420845, -0.04786917567253113, 0.004850988741964102, -0.04885198548436165, -0.00010625895083649084, 0.057597581297159195, -0.010844865813851357, -0.0288108941167593, -0.011207451112568378, 0.02277402952313423, 0.0075206574983894825, 0.15306757390499115, -0.0028710844926536083, 0.018019504845142365, -0.022684631869196892, 0.009238403290510178, -0.051911164075136185, 0.017104117199778557, 0.004904882982373238, 0.0026649353094398975, 0.015273953787982464, -0.0038576757069677114, 0.014854134060442448, -0.015593095682561398, 0.005251673050224781, -0.007701878435909748, 0.007517390884459019, 0.006080769468098879, -0.020245127379894257, -0.01487039402127266, 0.03180380165576935], [-0.0177394337952137, 0.010410198010504246, -0.019483670592308044, -0.013159857131540775, -0.009935173206031322, 0.004923523869365454, 0.01611141860485077, -0.01734948717057705, -0.04393233358860016, -0.003905240213498473, 0.000527320196852088, -0.0016182911349460483, 0.002784950891509652, -0.002956569427624345, -0.014368575066328049, 0.023525675758719444, 0.023587467148900032, -0.0011654566042125225, -0.02386421710252762, -0.010887399315834045, 0.059049028903245926, 0.010128585621714592, -0.03223118185997009, 0.002071077236905694, 0.00859839841723442, -0.006561635062098503, 0.0075619518756866455, -0.0012307590804994106, -0.013548560440540314, -0.009983891621232033, 0.004220126196742058, -0.008502885699272156, 0.019158657640218735, -0.006604393944144249, 0.0023463841062039137, 0.013786900788545609, -0.0019613788463175297, 0.01718602143228054, -0.020575912669301033, 3.7491722650884185e-06], [0.07730623334646225, -0.009738938882946968, 0.15871421992778778, 0.008676444180309772, 0.04991690069437027, -0.0340229794383049, 0.03610258176922798, -0.10335978120565414, -0.03884263336658478, -0.001624269294552505, 0.03196408972144127, -0.016261624172329903, 0.09682921320199966, 0.02805796079337597, 0.0174638032913208, -0.048724304884672165, 0.06124183535575867, 0.6653703451156616, -0.01441554632037878, -0.0921231284737587, -0.21334566175937653, -0.032108109444379807, 0.04290595278143883, -0.03505215048789978, 0.00278249429538846, -0.0029569072648882866, 0.05752992630004883, -0.014563953503966331, -0.001630702754482627, 0.05045934021472931, -0.04488504305481911, 0.005919832270592451, -0.008311145007610321, -0.01629769802093506, -0.03202374652028084, -0.09495671838521957, -0.0033265226520597935, 0.026213519275188446, -0.031792573630809784, -0.09072743356227875], [-0.01571997068822384, -0.026335695758461952, 0.042537178844213486, -0.08677969872951508, 0.037138260900974274, -0.053402189165353775, -0.06328903883695602, -0.1307535022497177, -0.26105624437332153, -0.009774347767233849, 0.012197860516607761, -0.02363509312272072, 0.09957250952720642, 0.04906875640153885, 0.006543668918311596, -0.011366749182343483, -0.0038591143675148487, 0.07052577286958694, -0.045436106622219086, -0.017020830884575844, -0.11033216863870621, 0.018719738349318504, 0.19841979444026947, 0.029388075694441795, -0.02599664032459259, 0.13859616219997406, 0.17418083548545837, 0.02145255357027054, 0.09091351181268692, -0.03129067271947861, 0.017192544415593147, -0.04490131139755249, 0.028517939150333405, 0.022586243227124214, 0.008334741927683353, -0.036292172968387604, -0.008041966706514359, -0.015098383650183678, -0.04923449456691742, -0.016614191234111786], [-0.010446187108755112, 0.009677394293248653, -0.020728927105665207, 0.02793305553495884, 0.03586346656084061, 0.02438095584511757, 0.00012405369488988072, 0.027905235067009926, -0.011244552209973335, -0.0051820590160787106, -0.03464655950665474, 0.0012891727965325117, -0.07619436830282211, -0.007540295831859112, 0.010160406120121479, -0.0028029053937643766, -0.02004135213792324, -0.0276578851044178, 0.005647363141179085, 0.015864374116063118, 0.003851179499179125, -0.02262130379676819, -0.022708186879754066, -0.011931893415749073, -0.0015168217942118645, -0.07550951093435287, 0.013579554855823517, -0.019821181893348694, -0.0179608091711998, 0.013591277413070202, 0.006195348221808672, 0.04147571325302124, 0.02668757736682892, 0.017227312549948692, 0.0032818105537444353, 0.012194323353469372, 0.0037940270267426968, -0.042408984154462814, -0.0075275953859090805, -0.015677286311984062], [-0.05547921359539032, 0.024559155106544495, 0.1269606351852417, -0.21716080605983734, 0.042554277926683426, -0.08683045953512192, 0.17960011959075928, 0.000426358834374696, 0.09443976730108261, -0.011055856011807919, 0.027956804260611534, -0.035953372716903687, 0.28998175263404846, -0.0010849980171769857, 0.05801660567522049, 0.03374381363391876, 0.11725085228681564, 0.2099747210741043, -0.1042037159204483, -0.02763909101486206, 0.023109395056962967, 0.057155050337314606, 0.08278416097164154, 0.12702548503875732, 0.013532755896449089, 0.29671841859817505, -0.04400685429573059, 0.026268955320119858, -0.09764861315488815, -0.052988603711128235, 0.030660446733236313, -0.04453238099813461, 0.13051387667655945, -0.07055413722991943, 0.018963931128382683, -0.004759971983730793, 0.003134700935333967, 0.002150701591745019, 0.19673630595207214, 0.13301679491996765], [-0.008797400631010532, 0.024784671142697334, -0.04670199006795883, -0.07020573318004608, -0.08558183908462524, 0.04532073438167572, 0.02574782259762287, 0.004906732123345137, -0.041958607733249664, -0.007581548765301704, -0.02323859930038452, 0.015475771389901638, 0.00978496577590704, -0.01672212965786457, 0.052226800471544266, 0.006364565808326006, 0.08133117854595184, 0.10855063796043396, -0.021399645134806633, -0.06558286398649216, -0.01358336117118597, 0.01585574634373188, -0.08113864064216614, 0.0017640176229178905, 0.00821516290307045, 0.07594717293977737, -0.08449799567461014, 0.021398209035396576, -0.05374062806367874, 0.009210911579430103, -0.00032391134300269186, 0.007263104896992445, 0.037185657769441605, -0.009491507895290852, 0.010037694126367569, 0.11025555431842804, -0.003953017760068178, -0.057165101170539856, -0.05004586651921272, -0.01398386713117361], [-0.00037038183654658496, 0.00464271055534482, 0.002966536907479167, -0.0020714066922664642, -0.011948257684707642, -0.00474754860624671, -0.0013831844553351402, -0.0020898228976875544, 0.006497819442301989, -0.001555249560624361, -0.0011735594598576427, -0.0011138229165226221, 0.006377298850566149, 0.005130502860993147, 0.007130701094865799, -0.0018753961194306612, -0.0022700540721416473, 0.0012876580003648996, 0.0030034827068448067, 0.005887365434318781, 0.010871252045035362, -0.00262916530482471, 0.0036117564886808395, -0.0024978555738925934, -0.0003943610063288361, 0.0043524689972400665, -0.005992051213979721, 0.00881960615515709, -0.0009599208133295178, 0.0005814841715618968, -0.0004167270672041923, -0.00917672086507082, -0.0024825921282172203, 0.01461466308683157, 0.0005759047344326973, 0.004139417316764593, 0.0001301185111515224, 0.0006121938931755722, -0.004910058341920376, 0.00761791504919529], [0.046761687844991684, 0.04752060025930405, 0.0021591559052467346, 0.009890709072351456, 0.009371625259518623, 0.016231181100010872, 0.0030777272768318653, 0.049740731716156006, 0.0049021425656974316, -0.01650219038128853, -0.030112385749816895, -0.0023481433745473623, 0.020977597683668137, -0.016081951558589935, -0.007486467249691486, 0.008151027373969555, -0.015671061351895332, -0.03822968155145645, -0.00844038836658001, 0.0024383089039474726, -0.03195380046963692, 0.024907590821385384, -0.06608279049396515, -0.030101310461759567, 0.0035931600723415613, -0.015736091881990433, -0.01160463411360979, -0.021993959322571754, -0.03587643429636955, -0.012562468647956848, -0.001738169346936047, 0.026120321825146675, 0.03331541270017624, -0.05291629955172539, 0.004649104550480843, 0.026337455958127975, -0.004080892074853182, -0.03420114889740944, -0.007726173382252455, 0.022942937910556793], [-0.04796127602458, -0.0017544312868267298, 0.004640671424567699, 0.00299061625264585, -0.1339571475982666, 0.013783726841211319, -0.1080012172460556, -0.08932404220104218, 0.03139803558588028, -0.01975998468697071, -0.02586245909333229, 0.003903941484168172, 0.09074965119361877, 0.03281893581151962, 0.05558745563030243, -0.021031487733125687, -0.0004062140651512891, 0.13802669942378998, 0.08450610190629959, 0.0915425717830658, 0.03665919601917267, -0.0044488138519227505, 0.022605303674936295, 0.02288130111992359, -0.02516827918589115, 0.10117475688457489, -0.0898805782198906, 0.041839588433504105, 0.09234202653169632, 0.05070602148771286, 0.0104540279135108, 0.004222250543534756, -0.014357373118400574, 0.03663136437535286, 0.004757452290505171, 0.07424023747444153, -0.030534924939274788, 0.0016836002469062805, 0.0046143666841089725, 0.004883795976638794], [-0.0011136471293866634, -0.027787858620285988, -0.031806301325559616, 0.061185434460639954, -0.006654615979641676, 0.03950756788253784, 0.004757024813443422, -0.015051106922328472, 0.017032478004693985, -0.009637227281928062, -0.0460369773209095, 0.013000581413507462, 0.10181166976690292, -0.01734813302755356, 0.04695538058876991, -0.016574574634432793, 0.011473819613456726, 0.09431188553571701, 0.07048565149307251, -0.020180661231279373, 0.0013205475406721234, 0.009053750894963741, 0.002041779924184084, -0.01102398056536913, -0.012456273660063744, -0.009818213060498238, -0.003978737164288759, -0.010462060570716858, 0.0720633715391159, 0.04723671078681946, -0.009284540079534054, -0.021110784262418747, 0.023503486067056656, -0.11444823443889618, -0.00413335207849741, -0.02648075856268406, -0.010456041432917118, -0.025714239105582237, -0.07984093576669693, -0.06397441774606705], [-0.004807939287275076, 0.0025505521334707737, -0.002484744181856513, 0.0010159991215914488, -0.0001776782883098349, 0.0006818364490754902, 0.0033268446568399668, -0.001490802620537579, 0.002470726612955332, -0.0011626968625932932, 0.0011330870911478996, -0.0003531023394316435, -0.001990910619497299, 0.0011137011460959911, -0.0018419630359858274, 0.004271223209798336, 0.0023580973502248526, 0.0018553374102339149, 0.00048538128612563014, 0.004326298367232084, 0.009092254564166069, -0.0006939945742487907, -0.0063471137546002865, -0.0020653647370636463, 0.0013479391345754266, -0.007030162028968334, 0.00034303986467421055, -9.668948041507974e-05, 0.0031197250355035067, 0.0016622577095404267, -0.0002823748509399593, -0.002528019016608596, 0.0028565365355461836, -5.954561129328795e-05, -0.00018726687994785607, 0.0016444700304418802, -0.00018108956282958388, 0.0034343760926276445, 0.0012343010166659951, 0.00047699251445010304], [-0.0039421324618160725, 0.002477809553965926, -0.050284888595342636, 0.010022995993494987, -0.002891040174290538, -0.02056499384343624, -0.0005806033150292933, -0.18172118067741394, 0.07576705515384674, 0.02543654665350914, -0.03991248086094856, 0.007415442261844873, 0.1088612899184227, 0.0027902107685804367, 0.06657876074314117, 9.581078484188765e-05, -0.003389825113117695, 0.07222435623407364, 0.031002124771475792, -0.05632161721587181, 0.025375165045261383, 0.02693227119743824, 0.10362949967384338, 0.005505908280611038, 0.015108924359083176, 0.12631046772003174, -0.023905949667096138, 0.04627600312232971, 0.17411063611507416, -0.02697513997554779, -0.017802409827709198, -0.07608731091022491, 0.00038538884837180376, 0.03413812816143036, -0.002908737864345312, -0.04715447127819061, 0.0298713780939579, -0.016352420672774315, -0.026240818202495575, 0.020774511620402336], [-0.02067272737622261, 0.002713344991207123, 0.011792446486651897, -0.018465470522642136, 0.008469861932098866, -0.006464514881372452, 0.0065008713863790035, 0.042570944875478745, 0.0020616769324988127, -0.004043193068355322, 0.034502383321523666, -0.004264684394001961, 0.03642300143837929, 0.008810288272798061, -0.012779301032423973, 0.0034489587415009737, 0.024858800694346428, -0.016253728419542313, -0.03148625046014786, -0.0016988711431622505, -0.009552964009344578, 0.01324984896928072, -0.03393342345952988, -0.0020028874278068542, 0.008140825666487217, 0.010526291094720364, 0.0010578191140666604, -0.005730403587222099, -0.023179754614830017, -0.005301790777593851, -0.0028365750331431627, -0.028820402920246124, 0.028037337586283684, -0.04991816729307175, 0.005217998754233122, 0.014206367544829845, -0.0025397473946213722, -0.018440116196870804, -0.00828604120761156, 0.011420168913900852], [-0.02822364680469036, 0.017301756888628006, 0.019000010564923286, -0.10291512310504913, -0.15898703038692474, -0.0921383798122406, -0.09925322979688644, -0.09057613462209702, 0.10892603546380997, 0.01116203609853983, 0.049216676503419876, -0.0234743133187294, 0.17779527604579926, 0.024224672466516495, 0.0672459825873375, 0.002615520963445306, 0.04172621667385101, 0.4096558392047882, -0.00807115901261568, 0.03771447762846947, -0.1283223032951355, 0.011570715345442295, 0.16489744186401367, 0.09486957639455795, -0.03267533704638481, 0.4004649817943573, -0.11482536792755127, 0.041927531361579895, 0.17276053130626678, -0.13627465069293976, 0.051666129380464554, -0.060203034430742264, -0.022229565307497978, -0.003313013818114996, 0.02434513531625271, -0.0072958278469741344, 0.004243947099894285, -0.008682913146913052, -0.05628982558846474, 0.11440502107143402], [-0.035755690187215805, 0.026567261666059494, 0.20321783423423767, -0.2337673157453537, -0.07340690493583679, -0.11767811328172684, 0.005059441085904837, 0.301582932472229, 0.12434457242488861, -0.00021932122763246298, 0.12539643049240112, -0.04614286497235298, 0.5303303599357605, 0.06293409317731857, -0.07672524452209473, 0.008782271295785904, 0.00021862464200239629, 0.23081322014331818, -0.11270764470100403, -0.0043617780320346355, -0.24597397446632385, -0.031406600028276443, 0.08191832900047302, 0.08936712890863419, -0.01750381849706173, 0.6508115530014038, -0.13687415421009064, 0.028742728754878044, 0.09445185214281082, -0.08547405898571014, 0.04136625677347183, -0.05944683030247688, 0.030507568269968033, -0.015993786975741386, 0.032583341002464294, 0.10472116619348526, -0.012034273706376553, -0.04678130894899368, -0.08517792075872421, 0.13791054487228394], [-0.014568979851901531, 0.03987136110663414, 0.018254347145557404, 0.055101342499256134, 0.008146144449710846, -0.031752269715070724, 0.037082601338624954, -0.047720782458782196, -0.007322963327169418, -0.005818365607410669, -0.044849589467048645, 0.0016660253750160336, -0.12757962942123413, 0.0009595290757715702, 0.002834065118804574, 0.010319234803318977, -0.036351922899484634, 0.016418686136603355, -0.0017196008702740073, -0.005631644744426012, -0.00754145672544837, 0.007050138898193836, 0.0061040716245770454, -0.06077124923467636, 0.007778652012348175, -0.06031133607029915, 0.0027202770579606295, -0.042049653828144073, -0.011144373565912247, -0.018557937815785408, -0.006646438501775265, 0.040663111954927444, -0.0317690335214138, 0.009821426123380661, -0.013757205568253994, -0.004565692041069269, -0.019420284777879715, 0.014692132361233234, -0.005024692043662071, -0.053161073476076126], [-0.3774852454662323, -0.23199248313903809, -0.06108664721250534, -0.06774089485406876, -0.1396791785955429, -0.05631498619914055, -0.051973454654216766, 0.03277868404984474, 0.22636306285858154, 0.06122797355055809, -0.3200429081916809, -0.05535835772752762, -0.007544620893895626, -0.4160669445991516, 0.059436094015836716, -0.01249779760837555, -0.3569673001766205, 0.03544657677412033, -0.1466895341873169, -0.20200051367282867, -0.1931702196598053, 0.047808244824409485, 0.08503344655036926, 0.2493240237236023, 0.003849492873996496, 0.05245853587985039, 0.22854174673557281, -0.8951499462127686, 0.12470001727342606, -0.011569099500775337, 0.340987890958786, 0.29134494066238403, 0.4224444329738617, -0.03870999813079834, 0.038689985871315, -0.2850596606731415, -0.02623649872839451, -0.16723287105560303, -0.18075713515281677, -0.024959128350019455], [0.26281413435935974, -0.2771843671798706, -0.11478273570537567, -0.12718835473060608, 0.04957928881049156, 0.4866519570350647, 0.07570381462574005, -0.0229377131909132, -0.14807389676570892, -0.044895630329847336, -0.015548803843557835, -0.07306630164384842, 0.04258215054869652, 0.07241923362016678, -0.07952696084976196, 0.43153804540634155, 0.15250955522060394, 0.1610375940799713, -0.11292047053575516, -0.01125987060368061, -0.395487517118454, 0.04496488720178604, -0.39352408051490784, -0.2110351324081421, 0.14245793223381042, 0.008508826605975628, -0.14189566671848297, 0.07879642397165298, -0.0424792617559433, 0.10711713880300522, -0.06748831272125244, 0.1883026659488678, 0.16356921195983887, 0.20063795149326324, -0.08764589577913284, -0.15858463943004608, -0.038734305649995804, 0.35804709792137146, -0.015863025560975075, -0.6531172394752502], [-0.09757167845964432, -0.04385089501738548, -0.01584852859377861, -0.1155553087592125, -0.06144047901034355, -0.16233211755752563, 0.15535201132297516, -0.19022490084171295, 0.0811898484826088, -0.0011996066896244884, -0.05464748293161392, -0.027592279016971588, 0.01522302906960249, 0.019714675843715668, 0.17346420884132385, -0.07761247456073761, -0.15489359200000763, -0.3682408332824707, -0.13628916442394257, -0.1923639476299286, -0.5559754371643066, -0.14996713399887085, 0.3219152092933655, 0.20306448638439178, -0.11294917017221451, -0.30635780096054077, 0.02845313772559166, -0.12153464555740356, 0.007909185253083706, -0.06649523973464966, 0.04303170368075371, -0.3459989130496979, 0.10110471397638321, -0.3797518312931061, 0.026377631351351738, 0.09377425163984299, -0.004769840743392706, 0.06513982266187668, 0.41303199529647827, 0.0775451585650444], [0.10273628681898117, -0.06352074444293976, 0.042217571288347244, 0.19597016274929047, -0.10977965593338013, -0.19358140230178833, -0.19984568655490875, -0.11396916210651398, 0.1650492548942566, -0.012179779820144176, 0.002153489738702774, 0.031304944306612015, -0.027905583381652832, -0.013236917555332184, 0.0658494308590889, -0.1256714016199112, -0.11907879263162613, 0.1791020929813385, 0.14760908484458923, 0.1553063839673996, -0.12842957675457, -0.20472843945026398, 0.23862133920192719, 0.10145925730466843, -0.04685087502002716, -0.07006704062223434, -0.010171247646212578, 0.005156904924660921, -0.000768848869483918, -0.052706632763147354, 0.014494335278868675, 0.03559878468513489, -0.27364474534988403, 0.18628601729869843, 0.005909465253353119, 0.04061714559793472, -0.019964516162872314, -0.009231384843587875, 0.012117225676774979, 0.025602512061595917], [-0.14050662517547607, 0.10893134772777557, -0.2226373851299286, -0.1219053715467453, 0.3522709012031555, -0.08657640218734741, -0.0028393033426254988, 0.20305724442005157, 0.172907754778862, 0.0567028783261776, 0.08849283307790756, -0.03485153988003731, -0.19836004078388214, -0.01761571876704693, 0.049228861927986145, 0.17984069883823395, -0.006811853032559156, -0.13207903504371643, -0.04117919132113457, -0.44406747817993164, 0.04330281913280487, -0.19140036404132843, 0.3298315703868866, -0.03705025836825371, -0.01280693244189024, -0.08073310554027557, 0.22145836055278778, -0.06872081011533737, 0.14787481725215912, 0.04099171981215477, 0.05684234946966171, 0.19985471665859222, 0.02300337329506874, 0.027700725942850113, 0.015428337268531322, -0.28173205256462097, 0.1427028924226761, -0.1080184355378151, 0.13945278525352478, 0.11326117813587189], [-0.29131096601486206, -0.23513834178447723, -0.06894007325172424, 0.17353489995002747, 0.08206713944673538, -0.11098022758960724, -0.25722643733024597, 0.23997364938259125, -0.008348748087882996, 0.07830100506544113, 0.3687891364097595, 0.11462363600730896, 0.12019988894462585, -0.08549901843070984, 0.09465865045785904, -0.12766265869140625, 0.32157108187675476, -0.13841143250465393, -0.05705186352133751, -0.24901777505874634, 0.41879644989967346, -0.08585935086011887, 0.086845263838768, 0.018518095836043358, -0.09854946285486221, 0.09276784211397171, 0.019235270097851753, -0.1089196726679802, 0.045666955411434174, 0.3606857657432556, 0.1743740439414978, 0.48968926072120667, 0.09689167886972427, 0.023948200047016144, 0.08717304468154907, 0.05172499269247055, 0.032216642051935196, -0.2641582489013672, 0.11388358473777771, 0.006838893983513117], [-0.11503396183252335, -0.03538338840007782, -0.26235663890838623, -0.10451653599739075, 0.12691915035247803, -0.1878613382577896, 0.5217310190200806, -0.17395535111427307, -0.36829474568367004, 0.1660415083169937, 0.27021342515945435, 0.12971721589565277, -0.020361268892884254, 0.027010833844542503, -0.29224416613578796, -0.04602505639195442, 0.18308484554290771, -0.08336921036243439, -0.1582850068807602, -0.17097607254981995, -0.07289505004882812, -0.00021506196935661137, -0.007146779913455248, 0.08916772156953812, 0.18697072565555573, -0.16900764405727386, 0.10008351504802704, -0.05026496574282646, 0.10773034393787384, -0.0837329551577568, -0.04559161514043808, -0.12320846319198608, -0.24510163068771362, 0.008200768381357193, -0.10504058003425598, -0.036424651741981506, 0.07981915026903152, 0.2561783492565155, -0.38826683163642883, -0.08000487834215164], [-0.02116279862821102, -0.4085484445095062, 0.10383513569831848, 0.1916068196296692, 0.17162179946899414, 0.21477915346622467, 0.11733199656009674, 0.4154300391674042, 0.23694878816604614, 0.01598319225013256, 0.07719230651855469, 0.025719020515680313, 0.12753602862358093, 0.0597803071141243, -0.032535370439291, 0.04110553115606308, -0.20988233387470245, -0.2776099443435669, -0.17835211753845215, 0.01826762966811657, 0.13266947865486145, -0.11757327616214752, 0.13073959946632385, 0.36461061239242554, 0.09307141602039337, -0.19891072809696198, 0.04312743619084358, -0.17881162464618683, 0.0007304276223294437, -0.09198927134275436, -0.028678499162197113, -0.19880716502666473, -0.1260175108909607, -0.09021450579166412, -0.0011485094437375665, 0.021216262131929398, 0.09412641078233719, -0.12449204921722412, -0.06486009806394577, -0.12375451624393463], [0.13311117887496948, -0.05213038623332977, -0.05991694703698158, 0.09551475942134857, 0.0361778624355793, 0.13144423067569733, 0.4397333264350891, -0.08120719343423843, 0.36233484745025635, 0.013766903430223465, 0.025109335780143738, 0.007224385626614094, 0.023079024627804756, 0.0670522078871727, -0.21398966014385223, -0.022403117269277573, -0.11189145594835281, 0.03917885944247246, -0.11848773807287216, 0.08364275842905045, 0.07201460748910904, 0.07124023884534836, -0.1635310798883438, -0.17204372584819794, 0.12087929993867874, -0.033187221735715866, -0.09999106079339981, -0.0965203270316124, -0.007042336277663708, 0.0914502739906311, -0.12963123619556427, 0.08476846665143967, -0.2657419741153717, -0.0972328782081604, -0.11678286641836166, 0.03808568790555, -0.018305258825421333, 0.2364504486322403, -0.27807629108428955, -0.12415558099746704], [-0.01207265630364418, 0.11505992710590363, -0.15660616755485535, -0.03134376183152199, -0.06988343596458435, -0.011062616482377052, -0.015735911205410957, 0.0843636766076088, 0.06731731444597244, 0.04643144831061363, -0.25294190645217896, 0.036570075899362564, -0.11273041367530823, -0.11013329774141312, 0.06046590954065323, -0.09468862414360046, -0.05557306483387947, -0.057841941714286804, 0.028114890679717064, -0.09560224413871765, 0.04255213961005211, -0.0352444164454937, 0.0752231776714325, -0.0031082932837307453, -0.0014558053808286786, 0.0969584733247757, -0.030124010518193245, -0.00922238640487194, 0.01604015752673149, -0.2318849265575409, -0.02500779554247856, -0.09603990614414215, 0.0007501490763388574, 0.058879196643829346, -0.004982602316886187, -0.12197161465883255, 0.05114828422665596, -0.08079264312982559, -0.02939656749367714, 0.19211769104003906], [0.36585620045661926, -0.00612151063978672, 0.4541154205799103, -0.22909407317638397, 0.028968648985028267, -0.4552654027938843, 0.012855454348027706, 0.04800679534673691, 0.06120496243238449, 0.19656652212142944, -0.27437248826026917, 0.10465331375598907, 0.3344796895980835, -0.396990567445755, -0.5555901527404785, -0.015757588669657707, -0.21045105159282684, -0.14302268624305725, -6.39208301436156e-05, 0.062002331018447876, 0.04165742173790932, 0.3556170165538788, -0.1368437111377716, 0.2843181788921356, 0.06026442348957062, -0.009034441784024239, -0.0239048320800066, -0.09883531928062439, 0.1472460925579071, -0.2946527898311615, -0.04503953456878662, -0.0691654160618782, -0.1404341608285904, 0.23546934127807617, 0.052148621529340744, 0.06518962979316711, 0.0006899787113070488, 0.12579046189785004, -0.1403876692056656, 0.4074878990650177], [0.06394778192043304, 0.11595708131790161, 0.04973789304494858, 0.041051577776670456, 0.020623231306672096, -0.07596777379512787, 0.030292712152004242, -0.017931489273905754, -0.02051595412194729, 0.001606352161616087, -0.15227653086185455, 0.04439428076148033, 0.018451692536473274, -0.05987031012773514, -0.09742695838212967, 0.0027722816448658705, -0.05707007274031639, 0.1555931270122528, 0.05308566242456436, -0.06752125173807144, -0.02735317312180996, -0.04537774249911308, -0.09722910076379776, -0.02930280566215515, -0.007888018153607845, 0.20004603266716003, -0.049752913415431976, 0.05820303037762642, -0.04064524173736572, -0.18895328044891357, -0.012351086363196373, -0.0710926279425621, 0.0031005197670310736, 0.04149205982685089, -0.004354540724307299, 0.03634617477655411, -0.00048751384019851685, 0.05537370219826698, -0.014276403933763504, 0.0953538715839386], [-0.04193945601582527, 0.12173663079738617, -0.12973839044570923, 0.05320345610380173, 0.013870659284293652, -0.011168454773724079, -0.10582948476076126, -0.1413763463497162, 0.04695156589150429, 0.016397789120674133, -0.3249070346355438, -0.007777568884193897, 0.2461216002702713, -0.09770898520946503, -0.09724675118923187, 0.011017999611794949, -0.0907754972577095, 0.6141427159309387, 0.08255644887685776, 0.08826930075883865, 0.004496007692068815, -0.22346003353595734, 0.07310352474451065, 0.1705712229013443, 0.024742115288972855, 0.35491061210632324, 0.03253668174147606, -0.017739171162247658, -0.019717730581760406, -0.11952997744083405, 0.018219387158751488, -0.21587470173835754, -0.060316238552331924, 0.02779477834701538, -0.011885174550116062, 0.08305150270462036, 0.03491978347301483, 0.11048851907253265, -0.15304550528526306, 0.05253034085035324], [0.38770952820777893, -0.19690583646297455, 0.05870666354894638, -0.011491546407341957, 0.09513872861862183, -0.06711424142122269, 0.02289053425192833, -0.06948115676641464, -0.06381621956825256, 0.07155782729387283, 0.365882933139801, -0.009460512548685074, 0.07360348105430603, -0.07071282714605331, -0.1071506068110466, 0.058221347630023956, 0.1727665513753891, -0.14360377192497253, -0.06691955029964447, -0.030844582244753838, -0.08672817051410675, 0.16893701255321503, 0.0381086990237236, 0.0754726380109787, 0.017912602052092552, -0.0881103053689003, 0.042809948325157166, 0.21799039840698242, 0.15810883045196533, 0.026481814682483673, 0.06851387768983841, 0.28968870639801025, -0.016350969672203064, 0.05039333924651146, 0.014133071526885033, 0.08269952982664108, 0.040743231773376465, 0.042295221239328384, 0.05963898077607155, 0.018474258482456207], [0.324980765581131, -0.252297580242157, 0.2719630300998688, 0.18476690351963043, -0.04292619228363037, 0.061525456607341766, 0.29480382800102234, -0.14171849191188812, 0.03840804845094681, 0.13980461657047272, 0.4883174002170563, 0.08913574367761612, 0.4970035254955292, 0.025214821100234985, 0.025898652151226997, -0.15634822845458984, 0.32540491223335266, 0.012104402296245098, -0.2012639045715332, 0.09140530228614807, -0.05864105373620987, 0.5717151165008545, -0.05214282125234604, -0.128291517496109, -0.011705908924341202, 0.09504852443933487, -0.18366971611976624, -0.0021808366291224957, -0.11433339864015579, 0.16221222281455994, -0.23589473962783813, 0.27111318707466125, -0.22802290320396423, -0.016240118071436882, -0.01689320243895054, -0.329873651266098, -0.022763561457395554, -0.294636070728302, 0.0978533998131752, -0.3331073820590973], [-0.21485917270183563, -0.1840226948261261, 0.029695717617869377, 0.14666710793972015, 0.1649951934814453, 0.15850229561328888, -0.027674498036503792, -0.09756699949502945, -0.21251338720321655, -0.09174148738384247, 0.15880165994167328, -0.027050914242863655, 0.01526318583637476, 0.09237582236528397, -0.27161353826522827, 0.09583032131195068, -0.014143205247819424, -0.015619468875229359, -0.05642985925078392, -0.014191928319633007, 0.22137229144573212, 0.055975038558244705, -0.16821719706058502, -0.00388018018566072, 0.053847044706344604, -0.049380574375391006, 0.03646877780556679, -0.09509821236133575, -0.05106625333428383, 0.3099488914012909, -0.0947704166173935, -0.0015359678072854877, -0.10208148509263992, -0.33911043405532837, -0.022701825946569443, -0.07896406203508377, -0.1573072373867035, 0.2467656284570694, 0.09294890612363815, 0.2665523290634155], [0.41934382915496826, -0.24149394035339355, 0.17644855380058289, -0.08503209799528122, -0.0381917767226696, -0.17938773334026337, 0.03475140780210495, -0.043242305517196655, -0.18651537597179413, 0.05904499813914299, 0.013063970021903515, 0.10637455433607101, 0.21839991211891174, -0.30254876613616943, -0.5010988116264343, 0.0032039619982242584, -0.18921580910682678, 0.18931901454925537, 0.06749610602855682, -0.03668375685811043, 0.3676528334617615, 0.3814360499382019, -0.3126177489757538, 0.27373015880584717, -0.03300138935446739, 0.2272019237279892, -0.17729490995407104, 0.06520799547433853, -0.10472442954778671, -0.07389868050813675, 0.02811354398727417, -0.07527805864810944, 0.09362438321113586, -0.009630674496293068, 0.04420693218708038, 0.10875687003135681, -0.08962292224168777, -0.11621306836605072, -0.048809293657541275, 0.26397061347961426], [-0.08863183856010437, -0.6489416360855103, 0.17754213511943817, 0.42796218395233154, 0.1574876308441162, 0.20836476981639862, 0.09190712124109268, -0.06013796478509903, 0.12016486376523972, 0.15229441225528717, -0.002827773801982403, 0.25606170296669006, 0.0852522999048233, -0.1242525577545166, -0.29874053597450256, -0.006326590199023485, -0.02614041231572628, 0.36266595125198364, -0.06315748393535614, 0.00016344658797606826, 0.1958850473165512, -0.11318701505661011, 0.35677939653396606, 1.0280191898345947, 0.05670690909028053, -0.0037962940987199545, 0.2113664597272873, 0.03913821652531624, 0.05371741205453873, 0.5777804851531982, 0.007176376413553953, -0.3410739600658417, 0.021540911868214607, -0.30285078287124634, 0.06265921890735626, 0.18811815977096558, -0.012276354245841503, 0.11581138521432877, -0.13600775599479675, -0.0672980323433876], [0.04541586712002754, 0.008480043150484562, 0.08473899960517883, 0.07053310424089432, 0.07536141574382782, 0.17759814858436584, 0.04261690750718117, -0.13015110790729523, 0.1857992559671402, -0.09395527839660645, -0.03098677098751068, -0.03417675569653511, 0.15232215821743011, 0.1140240728855133, 0.13160745799541473, 0.07326662540435791, -0.1285257339477539, 0.2483110874891281, 0.1840026080608368, 0.11923956871032715, 0.03313080966472626, -0.12420100718736649, 0.05905239284038544, -0.03628194332122803, -0.018087657168507576, 0.007115926593542099, -0.0473000667989254, 0.009478061459958553, 0.1392066776752472, 0.16346485912799835, 0.015113132074475288, 0.16660794615745544, -0.04171030595898628, 0.07233868539333344, -0.03147564083337784, 0.1857350617647171, 0.011685633100569248, 0.08916851133108139, 0.13915978372097015, -0.1803884506225586], [0.30052509903907776, -0.13689154386520386, -0.11716976761817932, 0.20814068615436554, -0.07364904135465622, -0.01133183017373085, 0.25648796558380127, -0.03730732947587967, -0.4270339608192444, 0.07824085652828217, 0.05050699785351753, 0.00610123947262764, -0.042844008654356, 0.0023268614895641804, 0.05593651905655861, -0.17200222611427307, -0.0883469358086586, 0.14667975902557373, 0.05870845541357994, 0.24991141259670258, 0.09100647270679474, -0.19445036351680756, -0.12649042904376984, 0.11080797016620636, -0.001871067681349814, 0.25595617294311523, 0.14748531579971313, 0.1534821093082428, 0.058054666966199875, 0.19268831610679626, -0.02435200847685337, -0.08239812403917313, -0.12757505476474762, 0.16695520281791687, -0.0036700982600450516, 0.22474905848503113, 0.07205356657505035, 0.059846390038728714, 0.017520198598504066, -0.08631092309951782], [-0.09652026742696762, 0.4621502459049225, -0.3162323534488678, 0.09643448889255524, -0.35107162594795227, -0.16143591701984406, 0.2560391128063202, -0.19971543550491333, -0.22283558547496796, -0.2394263595342636, 0.029673339799046516, 0.07984469085931778, 0.2905154824256897, -0.05374551936984062, 0.39503681659698486, 0.038742538541555405, 0.1230524480342865, -0.15479063987731934, 0.02236645109951496, 0.04044207185506821, 0.42108944058418274, 0.5342019200325012, -0.46414700150489807, -1.1735787391662598, -0.01369683351367712, 0.23348185420036316, -0.3173496723175049, -0.18803903460502625, 0.17775601148605347, -0.1431630402803421, 0.03815773129463196, 0.674517810344696, 0.11325528472661972, -0.1057683601975441, -0.01574983447790146, -0.15391509234905243, -0.26497483253479004, -0.17946653068065643, 0.004038193728774786, 0.20033004879951477], [-0.26591306924819946, 0.02887069247663021, 0.13812942802906036, -0.14537332952022552, -0.2787612974643707, -0.20228739082813263, 0.17142781615257263, -0.1318606436252594, -0.22936642169952393, -0.03115024045109749, -0.4075775444507599, 0.008212339133024216, 0.023503214120864868, -0.09082597494125366, -0.18482282757759094, -0.09317546337842941, -0.3096950352191925, -0.16915184259414673, 0.07127463817596436, 0.32717666029930115, -0.2322876900434494, 0.16173367202281952, -0.21392793953418732, -0.04349774494767189, -0.010819701477885246, 0.11266674846410751, -0.14687955379486084, -0.2091401070356369, 0.04356628656387329, -0.008215684443712234, 0.023840930312871933, -0.3605615496635437, 0.2448696494102478, -0.23172524571418762, -0.011231521144509315, -0.08457719534635544, -0.27221280336380005, 0.1558331400156021, 0.05917532369494438, -0.015425178222358227], [0.1413925737142563, 0.225809708237648, -0.22051188349723816, -0.10851005464792252, -0.03967037796974182, -0.1562189757823944, -0.24877655506134033, -0.3518003821372986, 0.38139772415161133, -0.06746265292167664, 0.09067823737859726, -0.03939199820160866, -0.002163055120036006, 0.05062960088253021, 0.3524153530597687, -0.0512470118701458, 0.14091835916042328, -0.17578673362731934, 0.032879918813705444, -0.34027886390686035, -0.13995222747325897, 0.15122531354427338, 0.26611027121543884, -0.25863537192344666, -0.04364585876464844, 0.21990929543972015, -0.16741089522838593, 0.05846770107746124, 0.3130128085613251, -0.2731606066226959, 0.062315795570611954, 0.28132691979408264, -0.19777359068393707, 0.3783043920993805, -0.0017602434381842613, -0.23778465390205383, 0.074693962931633, -0.2064121663570404, -0.09075544029474258, 0.10022430866956711], [-0.3946570158004761, 0.07666480541229248, -0.2184929996728897, -0.022670913487672806, 0.09399644285440445, 0.12530340254306793, 0.13275912404060364, -0.11403348296880722, 0.2216484695672989, 0.04664750397205353, -0.2878984808921814, 0.011191949248313904, -0.13444814085960388, 0.047368183732032776, 0.11632118374109268, -0.20553092658519745, -0.526850700378418, -0.32885727286338806, -0.007910002022981644, -0.09263982623815536, 0.27032506465911865, -0.36042317748069763, 0.4082961976528168, -0.24775834381580353, 0.05210085213184357, 0.31397706270217896, 0.11779920756816864, -0.11368022114038467, 0.01915389858186245, -0.11495822668075562, -0.16359826922416687, -0.30489984154701233, -0.3792162835597992, 0.012611199170351028, 0.018320942297577858, 0.3926444947719574, 0.3374130129814148, -0.18829868733882904, 0.10281722992658615, 0.5158343315124512], [-0.07572993636131287, 0.026297133415937424, -0.17434625327587128, -0.045567337423563004, -0.07608672231435776, 0.02950541488826275, -0.003814311232417822, 0.02474020980298519, -0.053256429731845856, -0.014726020395755768, -0.03477133437991142, 0.014981505461037159, -0.14590580761432648, -0.02156275324523449, -0.06081121042370796, 0.038195863366127014, 0.11125760525465012, -0.10728801786899567, -0.010184531100094318, 0.04800787940621376, 0.20908790826797485, 0.05801502615213394, -0.0838940441608429, 0.035709645599126816, 0.027762100100517273, -0.20964056253433228, -0.04611409455537796, 0.04415072128176689, -0.014169668778777122, -0.033582206815481186, 0.04325583577156067, 0.0030666100792586803, 0.09318738430738449, -0.054520752280950546, 0.020141560584306717, -0.028622807934880257, -0.03511412441730499, -0.006308051757514477, -0.015164044685661793, 0.059456292539834976], [0.053488198667764664, -0.059685658663511276, 0.2850470542907715, 0.01882166974246502, -0.04585330933332443, 0.02494083344936371, 0.14720261096954346, -0.23958820104599, -0.0030195892322808504, -0.03558189049363136, -0.03904905170202255, -0.06474513560533524, 0.25674349069595337, 0.09698478877544403, 0.12657850980758667, -0.0815582275390625, 0.06862048804759979, 0.6034426093101501, -0.09304024279117584, 0.014063919894397259, -0.11891745030879974, -0.010065345093607903, 0.03907753899693489, -0.6017993688583374, 0.032666128128767014, -0.0008238274022005498, -0.0276816263794899, -0.0559573732316494, 0.06356964260339737, -0.06365493685007095, -0.11208371818065643, 0.08914993703365326, 0.048955827951431274, -0.07015982270240784, -0.20124565064907074, -0.0013744067400693893, -0.12560217082500458, 0.21684196591377258, -0.13132353127002716, -0.2408764660358429], [0.1346183568239212, 0.07329888641834259, -0.10756014287471771, -0.0307280495762825, 0.22941987216472626, -0.016199279576539993, -0.2856980264186859, -0.17701955139636993, -0.35612499713897705, 0.03013012930750847, -0.0364094004034996, -0.05240591987967491, -0.03216562047600746, 0.034737568348646164, -0.02750910446047783, -0.005304232705384493, -0.05091197416186333, -0.1320418417453766, -0.07965465635061264, -0.1392582505941391, -0.05649035423994064, 0.11768999695777893, 0.1454271823167801, -0.07795674353837967, 0.09563209861516953, 0.11757276207208633, 0.2769967019557953, 0.05036672204732895, -0.07449397444725037, -0.18305420875549316, -0.11912522464990616, -0.005519990809261799, -0.1727067083120346, 0.1864648163318634, -0.022499969229102135, -0.19307783246040344, 0.08150389045476913, -0.04318190738558769, -0.04563115909695625, -0.04021120443940163], [0.6345648169517517, -0.18525461852550507, 0.019013572484254837, -0.012763435021042824, 0.18797016143798828, 0.11000923067331314, 0.04314635321497917, -0.03471771627664566, -0.20583651959896088, 0.043542418628931046, -0.02762174978852272, -0.005539739970117807, -0.0036396344657987356, -0.18657995760440826, -0.19777336716651917, -0.03636179864406586, -0.14642606675624847, 0.07876969128847122, -0.014674791134893894, -0.09982844442129135, 0.18394464254379272, 0.19403612613677979, 0.13478703796863556, 0.14162851870059967, -0.013254725374281406, 0.2805381417274475, 0.025031106546521187, -0.2770935893058777, 0.13637492060661316, -0.11016692221164703, 0.19908204674720764, 0.6177459359169006, 0.08639732748270035, -0.1804768592119217, 0.011596489697694778, 0.16868656873703003, 0.013352567330002785, 0.02412722073495388, -0.00530057679861784, 0.15820014476776123], [-0.0436265729367733, -0.0513276569545269, -0.15365803241729736, 0.03252308443188667, -0.09921891987323761, 0.03157868608832359, -0.047569356858730316, 0.20419400930404663, -0.13740627467632294, -0.05595903471112251, -0.10862544178962708, -0.09287422150373459, -0.050238050520420074, 0.03514539822936058, 0.04158293455839157, -0.07184532284736633, -0.059908319264650345, 0.21666467189788818, 0.0666378065943718, 0.282905250787735, 0.005808799061924219, 0.1481364220380783, -0.061632897704839706, -0.11804404109716415, 0.013166587799787521, 0.09882836788892746, -0.11190002411603928, -0.00015014341624919325, 0.37938910722732544, -0.15080897510051727, -0.02605496533215046, -0.13588616251945496, 0.07071282714605331, -0.07450912147760391, -0.002680510049685836, -0.15905602276325226, -0.08085553348064423, 0.11569885164499283, -0.06924900412559509, -0.0040094880387187], [-0.12153349816799164, -0.1299135535955429, 0.30639421939849854, 0.17536932229995728, 0.1410066932439804, -0.34203046560287476, 0.016971798613667488, -0.027940470725297928, 