{"model_data": {"model": "SimpleRNN", "input_size": 2, "skip": 1, "output_size": 1, "unit_type": "LSTM", "num_layers": 1, "hidden_size": 40, "bias_fl": true}, "state_dict": {"rec.weight_ih_l0": [[0.0178244449198246, -0.03945444896817207], [0.0010757887503132224, 0.07210861891508102], [-0.04051603004336357, -0.10014636814594269], [-0.0037606486584991217, 0.00014433477190323174], [0.022357849404215813, -0.0551995113492012], [-0.021043559536337852, -0.24894464015960693], [0.09734250605106354, -0.09462360292673111], [0.005298457574099302, -0.04088735952973366], [0.007251053117215633, 0.002756749512627721], [-0.009754972532391548, -0.0002098621625918895], [-0.001394684542901814, 0.07132554799318314], [0.013591541908681393, 0.12258104234933853], [0.01402757316827774, -0.020477833226323128], [0.11421045660972595, -0.05312374234199524], [-2.623915861477144e-06, 0.0683789849281311], [0.013092361390590668, 0.3209016025066376], [-0.016157513484358788, -0.14002661406993866], [0.008485754020512104, -0.4701615273952484], [0.016915077343583107, -0.4036579132080078], [-0.07020585983991623, -0.031810831278562546], [0.057348497211933136, -0.2011301964521408], [-0.032637424767017365, -0.20720617473125458], [0.013996830210089684, 0.02860138937830925], [0.004610873758792877, -0.12434002012014389], [0.002438944298774004, 0.009206783957779408], [-0.07766292989253998, 0.303836464881897], [-0.01925533451139927, 0.07347002625465393], [-0.01099216565489769, -0.22544193267822266], [0.043343376368284225, 0.08083780854940414], [-0.027989620342850685, 0.07406668365001678], [-0.04692685604095459, 0.24269171059131622], [-0.001683376613073051, -0.03484339267015457], [0.014814813621342182, -0.013326791115105152], [0.05689793452620506, 0.647087037563324], [-0.015447222627699375, -0.03352040797472], [0.07832977920770645, 0.14978951215744019], [-0.029587600380182266, 0.08245383948087692], [-0.021031538024544716, -0.46310660243034363], [0.00501581747084856, -0.016806073486804962], [0.0069938055239617825, 0.2882513105869293], [-0.02941027283668518, 0.1419060379266739], [-0.025979284197092056, 0.016777336597442627], [0.005943916738033295, 0.8228659629821777], [-0.0015224607195705175, -0.018723249435424805], [0.011921633034944534, 0.2399124950170517], [0.03630886971950531, 1.1770471334457397], [0.07302252948284149, -0.0439499206840992], [0.0063133444637060165, 0.02230614237487316], [0.005415121093392372, -0.02694111131131649], [0.028399361297488213, 0.11000534892082214], [-0.01097784098237753, 0.171705961227417], [0.011422828771173954, 0.011101819574832916], [0.02627543732523918, 0.04117871820926666], [0.15772271156311035, 0.0019431515829637647], [-0.002659250283613801, 0.0001698314445093274], [0.010883512906730175, 0.21131153404712677], [-0.041997939348220825, 0.2694654166698456], [-0.04433171823620796, 0.1762445718050003], [-0.014863671734929085, 0.49578893184661865], [-0.11415272206068039, -0.0030398452654480934], [-0.02373264729976654, 0.5849102139472961], [-0.03169144690036774, -0.001662291819229722], [0.010925045236945152, -0.012738781981170177], [-0.02683696709573269, 0.20623309910297394], [-0.00011707666999427602, -0.03158790245652199], [0.04342104494571686, 0.09221754223108292], [-0.033607132732868195, 0.14516206085681915], [-0.010250704362988472, 0.39836692810058594], [0.05835723504424095, 0.13698753714561462], [-0.042030882090330124, 0.14927539229393005], [-0.05223602429032326, 0.4172258973121643], [-0.0030166374053806067, -0.045321062207221985], [0.03773875534534454, 0.11070620268583298], [0.14316201210021973, 0.3608294725418091], [0.02062300220131874, 0.1335533857345581], [0.01684468798339367, 0.42632830142974854], [-0.025415826588869095, 0.07246588170528412], [-0.061184849590063095, -0.3918365240097046], [-0.032844141125679016, 0.06303105503320694], [0.02229684218764305, 0.0005123104783706367], [0.07055066525936127, -0.02363826520740986], [-0.36725080013275146, -0.0634131133556366], [0.09347721934318542, -0.020864205434918404], [0.06253974139690399, -0.015434549190104008], [-0.6793695688247681, 0.08479157090187073], [-0.30107325315475464, -0.060821473598480225], [0.16941116750240326, -0.24739497900009155], [-0.37556588649749756, -0.02971002832055092], [-0.0017798729240894318, 0.023464620113372803], [0.07216446101665497, 0.0900372862815857], [-0.0020967735908925533, 0.10712668299674988], [0.29246941208839417, -0.02918269857764244], [0.10160792618989944, -0.06309445947408676], [-0.13179083168506622, -0.39031004905700684], [-0.24064522981643677, 0.0025252955965697765], [-0.7053872346878052, 0.006543457508087158], [0.12664590775966644, 0.0009191881399601698], [-0.41556328535079956, 0.0559350922703743], [-0.4524470865726471, -0.014051585458219051], [0.05881698429584503, -0.34757110476493835], [-0.010633384808897972, 0.07866689562797546], [0.3052253723144531, 0.03992896154522896], [0.02731560356914997, 0.027430076152086258], [0.14377664029598236, -0.03030981309711933], [-0.011463734321296215, -0.04835665225982666], [-0.26918473839759827, -0.2652485966682434], [-0.058927059173583984, 0.03075886145234108], [0.23871642351150513, 0.09460598975419998], [-0.03952426835894585, 0.18551184237003326], [0.010545957833528519, 0.08807072788476944], [0.744568943977356, -0.3408986032009125], [0.22786395251750946, -0.0007423649658448994], [0.18242882192134857, -0.04258862882852554], [0.44834989309310913, 0.38310864567756653], [0.07601840049028397, -0.0646149218082428], [-0.5414498448371887, -0.11124981194734573], [-0.052495189011096954, -0.27061033248901367], [0.06453357636928558, 0.43374118208885193], [0.13473419845104218, 0.0070408908650279045], [1.4019287824630737, -0.025650713592767715], [0.011772594414651394, 0.15888436138629913], [-0.00042448603198863566, 0.13829141855239868], [-0.14202086627483368, 0.2541087567806244], [-0.0038660746067762375, 0.00020287043298594654], [-0.019586019217967987, 0.22909578680992126], [0.018739260733127594, 0.34851327538490295], [0.33727654814720154, 0.1423148512840271], [0.001545866602100432, 0.08343201130628586], [0.00996711291372776, 0.002478645183146], [0.05057578161358833, 0.09899358451366425], [-0.05340390279889107, 0.1275244802236557], [0.010734012350440025, 0.13881544768810272], [-0.011579238809645176, 0.09673937410116196], [0.10530973970890045, -0.08767233788967133], [0.0032795898150652647, 0.08276881277561188], [0.0078088934533298016, 0.3218270540237427], [-0.022190500050783157, 0.21129754185676575], [-0.00704475212842226, 0.11452532559633255], [-0.0005551315261982381, -0.20511382818222046], [-0.12790168821811676, -0.02425915002822876], [-0.06383577734231949, 0.09729183465242386], [0.03702672943472862, -0.037867333739995956], [0.022026291117072105, 0.028277697041630745], [-0.00676587363705039, 0.12184950709342957], [0.002478361129760742, 0.009277219884097576], [-0.09585615247488022, 0.04898038133978844], [-0.08107014745473862, 0.11045773327350616], [-0.03134404122829437, 0.1920379400253296], [0.08716780692338943, -0.023662827908992767], [-0.0011453093029558659, -0.03410404920578003], [-0.07998605817556381, 0.31556394696235657], [-0.0015893480740487576, -0.03413033485412598], [0.011255528777837753, 0.09833856672048569], [0.06643814593553543, 0.45086562633514404], [-0.03792940825223923, 0.1775137335062027], [0.01223002653568983, 0.19733905792236328], [-0.017200861126184464, 0.08528915792703629], [-0.0813474953174591, -0.3051947355270386], [0.004634398501366377, 0.11380890756845474], [-0.01015335600823164, 0.3005524277687073]], "rec.weight_hh_l0": [[-0.04653693735599518, -0.008084969595074654, -0.05034157261252403, 0.000949351757299155, -0.012432687915861607, -0.12588195502758026, 0.0002055294462479651, -0.007447825279086828, 0.0034169394057244062, 0.004464048892259598, -0.024282166734337807, -0.01405190397053957, 0.030567334964871407, 0.024664048105478287, -0.001420712098479271, 0.026084039360284805, -0.010488547384738922, -0.06676603108644485, 0.019932715222239494, 0.0628480315208435, 0.006899811793118715, -0.025492750108242035, 0.003943837713450193, -0.049875132739543915, 0.0018436512909829617, -0.0514870248734951, -0.034852802753448486, 0.06311722099781036, -0.11801572889089584, 0.015307988040149212, -0.0368361733853817, -0.0029485058039426804, -0.0063886502757668495, -0.016705840826034546, -0.06457901000976562, -0.05258132517337799, 0.024785995483398438, 0.058498743921518326, 0.001499032136052847, -0.01750284619629383], [0.006183023098856211, -0.004285215865820646, -0.04625481739640236, 0.00011848105350509286, -0.019738690927624702, -0.048036232590675354, 0.03411271050572395, -0.0003506831417325884, 0.007157778367400169, -0.025408118963241577, 0.1923220306634903, 0.0018001262797042727, -0.0176912359893322, 0.06274056434631348, 0.019947733730077744, 0.024106616154313087, -6.0911021137144417e-05, -0.016202619299292564, -0.008633595891296864, 0.0722806304693222, 0.023695101961493492, 0.011889895424246788, 0.01233099028468132, -0.002672908129170537, -0.0026590991765260696, 0.0010507699334993958, 0.18255996704101562, 0.02329435758292675, -0.052323658019304276, -0.04329509288072586, -0.007589039858430624, 0.0018856364767998457, -0.01244825404137373, -0.0010641145054250956, -0.0147364167496562, 0.02439233288168907, 0.003416624153032899, 0.0012612345162779093, 0.008531699888408184, -0.011579339392483234], [0.025069959461688995, 0.010946275666356087, -0.06459018588066101, -0.009040527045726776, 0.019113171845674515, -0.06610462814569473, -0.05703802406787872, -0.05393356457352638, 0.0030083339661359787, 0.01635202206671238, -0.27006369829177856, 0.01697380840778351, -0.047744229435920715, -0.04414927959442139, 0.05802050977945328, 0.006074969656765461, 0.0015041105216369033, -0.10340949892997742, 0.09800256043672562, 0.1575455516576767, 0.3898118734359741, 0.14186647534370422, 0.007973694242537022, -0.019434064626693726, -0.0027150139212608337, 0.0779050886631012, -0.25756198167800903, 0.01864675059914589, 0.07068703323602676, 0.32532843947410583, -0.2519490718841553, 0.0026188488118350506, 0.010970665141940117, 0.11413563787937164, -0.10365046560764313, 0.03565637767314911, -0.03059457615017891, 0.04901278018951416, 0.043686363846063614, -0.032364699989557266], [0.00018218878540210426, 0.0023701204918324947, 0.0031693961936980486, 0.0004637656966224313, -0.000593300093896687, 0.0009748697048053145, -0.002886751666665077, 0.000279811181826517, -5.880977550987154e-05, 0.0005583668826147914, 0.0025095194578170776, -0.0009858206612989306, -6.944288998056436e-06, 0.00388979515992105, -0.0013188578886911273, 0.004628574009984732, 0.0023785161320120096, 0.0017056087963283062, 0.0023184274323284626, 0.0014234473928809166, -0.0015927690546959639, -0.00197429908439517, 0.0001130637974711135, -0.000401689438149333, 0.0003197600017301738, -0.004536808934062719, 0.0028219257947057486, 0.0012067770585417747, -0.004683002829551697, -0.007555722258985043, -0.0005999454879201949, 0.00012157181481597945, -0.00026229958166368306, 0.00044906834955327213, -0.0006097978912293911, 0.005431060213595629, 0.0007570876041427255, 0.004176619928330183, -0.000619666650891304, -0.00011045247811125591], [-0.0002827119315043092, -0.006838920991867781, -0.10229477286338806, 0.007098879665136337, -0.01403411477804184, -0.1505008041858673, 0.014602948911488056, -0.016906654462218285, 0.0033402154222130775, -0.003846696810796857, 0.019793633371591568, -0.003081908915191889, 0.026779677718877792, -0.012146848253905773, -0.010614254511892796, -0.0004853513964917511, -0.02364049293100834, -0.06197427958250046, -0.06370040774345398, 0.01622152142226696, 0.08503927290439606, -0.01396334171295166, 0.006012390833348036, -0.031323689967393875, -0.0006467074272222817, 0.03893363103270531, 0.009635699912905693, 0.05043160915374756, -0.016191767528653145, 0.05419221520423889, -0.030938981100916862, 0.001709998701699078, 0.008385268040001392, 0.024186233058571815, -0.032896243035793304, -0.0562557689845562, 0.011925051920115948, 0.019944066181778908, -0.0008405169937759638, 0.0187730323523283], [-0.04606250301003456, -0.025098096579313278, -0.5345156788825989, 0.020065482705831528, 0.11675798892974854, 0.10293522477149963, 0.5726906657218933, 0.048497386276721954, -0.010025307536125183, -0.02755589596927166, -0.6707375645637512, 0.04407190531492233, 0.002103604609146714, -0.18863633275032043, 0.08381833881139755, 0.1975795179605484, -0.03494018688797951, -0.012971879914402962, -0.20450317859649658, 0.14236794412136078, 0.45620179176330566, -0.19676366448402405, -0.007136347237974405, -0.0809679850935936, 0.01938735321164131, 0.8067243099212646, -0.5123971104621887, -0.029055625200271606, 0.20845279097557068, 0.511192262172699, 0.06249755248427391, 0.02036980912089348, 0.0005392372841015458, 0.5310226082801819, -0.0620330385863781, -0.2750047445297241, -0.06434522569179535, 0.22112633287906647, 0.3442453444004059, -0.01483827456831932], [-0.002937238197773695, -0.010596930049359798, -0.09075891971588135, -0.03269530087709427, 0.11319196969270706, -0.020702490583062172, 0.028063267469406128, -0.020205684006214142, 0.028165150433778763, -0.17787663638591766, -0.1548231840133667, -0.011832966469228268, -0.08060970902442932, 0.06550964713096619, 0.12911368906497955, -0.2123272567987442, -0.018736883997917175, -0.05861087143421173, 0.04713241010904312, 0.13693244755268097, 0.0993371233344078, 0.03408971428871155, 0.021791668608784676, 0.004596486687660217, -0.02958495356142521, 0.24402287602424622, -0.10784465819597244, -0.04614796116948128, 0.037325624376535416, 0.18559107184410095, -0.22283241152763367, 0.01754622347652912, -0.08119535446166992, -0.29270103573799133, -0.03336575627326965, -0.02121753804385662, -0.010240564122796059, -0.028039908036589622, 0.0540430061519146, 0.1095757931470871], [-0.004694891627877951, 0.023448677733540535, -0.050015535205602646, 0.0016212316695600748, 0.019092967733740807, -0.07806288450956345, -0.0040769027546048164, -0.023816470056772232, 0.0014541707932949066, 0.021359408274292946, 0.04700297489762306, 0.00599486893042922, 0.04583669826388359, 0.038279395550489426, -0.009234610013663769, 0.04286831244826317, -0.025575416162610054, -0.05243420600891113, -0.006437631323933601, 0.07635004818439484, -0.0060065207071602345, 0.011889761313796043, 0.0012089842930436134, -0.010628649964928627, -0.00034036042052321136, -0.01438930630683899, 0.0424247607588768, 0.045459430664777756, -0.028612487018108368, 0.04455125331878662, -0.05000244081020355, 0.0019793626852333546, 0.018999263644218445, 0.007767661940306425, 0.001138996216468513, -0.05172460526227951, 0.0229803416877985, 0.07614575326442719, 0.006408658344298601, -0.001045279554091394], [0.0005861904937773943, 0.0012184217339381576, -0.00030564406188204885, 7.473493315046653e-05, 0.0029760203324258327, -0.00044059031642973423, -0.0002795196487568319, 0.0008482342236675322, 0.0005333076696842909, 0.00030189473181962967, 0.009259008802473545, -0.00012696663907263428, 0.0006053593824617565, 0.008610608987510204, -0.0019128700951114297, 0.0030596221331506968, -0.0003150658158119768, -0.0024999359156936407, 0.0011511939810588956, 0.0021989212837070227, -0.006466420833021402, 0.0024212421849370003, 0.0010236836969852448, -0.002774416236206889, -0.0001382170303259045, -0.00914166122674942, 0.009455173276364803, 0.0021330323070287704, -0.004298180341720581, -0.010166425257921219, 0.004884160123765469, 0.0007345187477767467, -0.0004635289078578353, 0.010335303843021393, 0.0007595820352435112, 0.00830761343240738, 0.0015192627906799316, 0.0069550457410514355, 0.0015298821963369846, 0.004058132413774729], [0.024845365434885025, -0.0036212580744177103, -0.055040765553712845, -0.005226899404078722, -0.03424325957894325, -0.046495117247104645, -0.0012600444024428725, 0.013814211823046207, 0.0007954052416607738, -0.015141433104872704, 0.017144186422228813, 0.007744059432297945, 0.021884869784116745, -0.01883711852133274, 0.002697336720302701, 0.03169897198677063, 0.010653133504092693, 0.00025349558563902974, 0.011894872412085533, 0.03540972247719765, 0.03767004609107971, -0.006016356870532036, -0.0026012356393039227, 0.0013451736886054277, -0.0026229575742036104, 0.015203690156340599, 0.011437647975981236, 0.019351406022906303, 0.01959737204015255, 0.05033113434910774, -0.07132849842309952, 0.0007175540667958558, -0.02989056706428528, 0.033852264285087585, 0.01182027067989111, -0.04113943502306938, 0.011290543712675571, 0.0049616205506026745, 0.002881360240280628, 0.0023639188148081303], [0.002384776948019862, -0.002853504614904523, 0.013712107203900814, -0.0004823677591048181, -1.8435473975841887e-05, -0.0007838500896468759, 0.023845788091421127, -0.0017668731743469834, 0.0008261969778686762, -0.009113010950386524, 0.1421446055173874, 0.0031888014636933804, -0.005652795545756817, 0.03127479925751686, 0.0037915469147264957, 0.007881655357778072, 0.0010549905709922314, 0.01028114277869463, 0.0030862961430102587, 0.02162189595401287, -0.03675893694162369, -0.0007356537389568985, 0.0012164398794993758, 0.0020700099412351847, 0.00042662688065320253, -0.023604249581694603, 0.1383698582649231, -0.0011592786759138107, -0.03280733898282051, -0.045482225716114044, 0.020332427695393562, 0.001624155673198402, -0.00598918879404664, 0.002749177860096097, 0.0014114759396761656, 0.0205138698220253, 0.0023992012720555067, -0.018130576238036156, 0.004470438696444035, 0.005134890787303448], [0.01479243766516447, 0.01919982209801674, -0.016856739297509193, -0.001018863171339035, 0.006516741588711739, -0.03209533914923668, -0.0019198482623323798, 0.0018064429750666022, -0.0045884717255830765, 0.00663700420409441, 0.22501970827579498, 0.0022586644627153873, 0.0027630762197077274, 0.10073138028383255, 0.023595556616783142, 0.016681669279932976, -0.012578452005982399, -0.02802162617444992, -0.0011515937512740493, 0.08150190860033035, -0.07900810986757278, 0.045046716928482056, -0.010642634704709053, -0.0007308084750548005, 0.002008914714679122, -0.0743679478764534, 0.21734856069087982, 0.010386474430561066, -0.07213667035102844, -0.03274553269147873, 0.004209327977150679, -0.0005942322895862162, 0.0004973916802555323, -0.008159850724041462, -0.003925484139472246, -0.024525798857212067, 0.02456350438296795, 0.09708517789840698, -0.0039808782748878, 0.026967201381921768], [-0.00971996784210205, 0.014119028113782406, -0.07717971503734589, 0.0004635753284674138, 0.008946654386818409, -0.12330356985330582, -0.02605268731713295, -0.010643770918250084, -0.0027140388265252113, 0.03690788522362709, 0.04400698468089104, 0.010164125822484493, 0.00020350076374597847, -0.003294065361842513, 0.004187317565083504, 0.025086576119065285, -0.025845563039183617, -0.025678498670458794, 0.010854731313884258, 0.05779636278748512, 0.00722230551764369, -0.010961937718093395, -0.006399534642696381, -0.020733295008540154, 0.002787209115922451, -0.015030964277684689, 0.03619374707341194, 0.004859535489231348, -0.07473655790090561, 0.04255453124642372, -0.09088125824928284, -3.991262201452628e-05, 0.006624801084399223, -0.010442644357681274, -0.02189071662724018, -0.0897594690322876, 0.019857896491885185, 0.0421353243291378, 0.020723994821310043, 0.0016903392970561981], [-0.017240602523088455, -0.04348265007138252, 0.008703750558197498, 0.00603477144613862, 0.016535373404622078, -0.12928146123886108, 0.1150469034910202, 0.007916558533906937, 0.0031016352586448193, -0.00552507396787405, 0.06340023875236511, 0.01965482532978058, -0.020725123584270477, -0.06157057732343674, -0.00749785453081131, -0.026651980355381966, -0.02048276551067829, -0.03554150089621544, 0.1302979439496994, 0.07929632812738419, 0.04267606884241104, -0.0065734973177313805, 0.011495540849864483, -0.024799495935440063, -0.0012094987323507667, -0.02105594612658024, 0.05434837192296982, 0.07195397466421127, 0.02356014773249626, -0.06639707833528519, 0.12305529415607452, 0.0032204713206738234, 0.0029094689525663853, 0.001678832690231502, -0.011048145592212677, 0.0221323873847723, 0.008555845357477665, -0.06577804684638977, 0.010814187116920948, 0.018132565543055534], [0.010997440665960312, -0.00855228491127491, -0.05896744504570961, -0.0006753882043994963, -0.0012197619071230292, -0.018906937912106514, -0.0026805843226611614, -0.01647155173122883, -0.0005272625712677836, -0.005762121174484491, 0.08416715264320374, -0.019955525174736977, 0.012843143194913864, 0.011434732936322689, -0.0015268635470420122, 0.04296007752418518, 0.009102242067456245, -0.02913976088166237, 0.015307614579796791, 0.017405632883310318, 0.03741758316755295, 0.016698772087693214, -0.00036066348548047245, 0.0020724604837596416, 0.0011677107540890574, 0.02972445636987686, 0.07972481846809387, 0.0280610341578722, -0.015076825395226479, 0.02571147121489048, -0.0180789977312088, -0.0031660583335906267, 0.013632952235639095, -0.042273689061403275, -0.0012514628469944, -0.0068694232031702995, 0.006414406467229128, 0.021341737359762192, -0.028827644884586334, -0.008697152137756348], [0.00634808698669076, -0.016517629846930504, 0.05476617068052292, 0.0025079718325287104, 0.029140876606106758, 0.010801024734973907, -0.024255642667412758, 0.022249311208724976, -0.0011049530003219843, -0.005734293255954981, 0.3258506953716278, 0.011110888794064522, 0.005435843952000141, 0.08155938237905502, 0.01029292494058609, -0.018450001254677773, 0.008144987747073174, -0.0030436350498348475, -0.036123987287282944, -0.02941848337650299, -0.09698189795017242, 0.03191705793142319, -0.008145724423229694, 0.013061709702014923, -0.0019496128661558032, -0.02229727990925312, 0.3125927746295929, -0.007728860713541508, -0.053028613328933716, -0.0605161227285862, 0.08726613968610764, -0.0034200104419142008, 0.011399463750422001, -0.057556089013814926, 0.004778394941240549, 0.022904235869646072, 0.007714489474892616, 0.10878033936023712, -0.011378037743270397, -0.009363577701151371], [0.011683045886456966, 0.020451078191399574, -0.02114078588783741, 0.01300184614956379, -0.011042622849345207, -0.047044508159160614, -0.043913207948207855, 0.02303602173924446, 0.006530070677399635, 0.0017718217568472028, -0.24254144728183746, -0.0321069210767746, 0.04798363149166107, 0.05151192471385002, -0.028398917987942696, 0.050860676914453506, 0.05913010239601135, -0.017117474228143692, 0.03277166187763214, -0.007510789670050144, -0.05519802123308182, -0.014621986076235771, 0.014000849798321724, 0.05245523154735565, -0.006479113828390837, -0.02717437408864498, -0.23976196348667145, -0.008283335715532303, 0.28411969542503357, 0.11891990154981613, -0.01774858683347702, 0.0006950554670765996, 0.026377681642770767, 0.0046026865020394325, -0.04217907041311264, -0.024480780586600304, 0.008448212407529354, 0.17664361000061035, -0.030387267470359802, -6.929288792889565e-05], [-0.0104789724573493, 0.09456716477870941, -0.2889500558376312, 0.05322147533297539, -0.045544710010290146, 0.03712997958064079, -0.13560055196285248, 0.03776894137263298, 0.019195808097720146, 0.1317826807498932, -0.7262861132621765, -0.1194911077618599, 0.027655230835080147, -0.0449262373149395, -0.24189409613609314, 0.06042468547821045, 0.08655636012554169, 0.06928731501102448, 0.16426551342010498, -0.19997578859329224, -0.06821383535861969, 0.05638054385781288, 0.07466274499893188, 0.09767090529203415, -0.00536683015525341, -0.42003941535949707, -0.7453843355178833, -0.10434266179800034, 0.18864166736602783, 0.047991715371608734, -0.25606241822242737, 0.026071947067975998, 0.037285372614860535, -0.2507750988006592, 0.1922406405210495, -0.1038617417216301, -0.030455484986305237, 0.18517866730690002, -0.1285889446735382, 0.02030644565820694], [0.014785471372306347, 0.006092417053878307, -0.12741194665431976, -0.00025260908296331763, 0.001417421968653798, 0.02350301668047905, -0.09355229884386063, 0.04529320448637009, 0.00644066883251071, 0.019040480256080627, -0.820493221282959, 0.06132831797003746, 0.03464963287115097, -0.41577330231666565, -0.07267837971448898, 0.058200664818286896, -0.07287922501564026, -0.06560217589139938, -0.11947420239448547, -0.23526394367218018, 0.13476957380771637, -0.052839893847703934, 0.020346445962786674, -0.004956488963216543, -0.0004001272900495678, 0.0770108550786972, -0.7673295140266418, -0.10125154256820679, 0.040589600801467896, 0.23126138746738434, -0.06127623841166496, -0.013757117092609406, 0.0011779227061197162, 0.015037153847515583, -0.05442359670996666, -0.045675959438085556, -0.005365764256566763, 0.2862773835659027, 0.005976114422082901, 0.03116837702691555], [-0.012747210450470448, -0.0015153067652136087, -0.01585381105542183, 0.002433593152090907, 0.008896708488464355, -0.004335023462772369, 0.03323906287550926, 0.014188796281814575, 0.00043299078242853284, 0.014012197963893414, 0.08914298564195633, 0.013336670584976673, 0.011160997673869133, 0.04663513973355293, 0.022730743512511253, 0.04527872055768967, 0.0025220478419214487, 0.009704118594527245, -0.004366125911474228, 0.049645066261291504, -0.030635692179203033, 0.058640006929636, -0.0039069512858986855, 0.01744081825017929, -0.0002279733307659626, -0.037901364266872406, 0.08731386810541153, -0.01668563485145569, -0.02342168800532818, 0.014879383146762848, 0.0020460153464227915, 0.0011491688201203942, 0.015764743089675903, 0.11463490128517151, 0.01924980618059635, -0.01221493910998106, 0.012411635369062424, -0.010562739335000515, 0.013938960619270802, -0.04559466987848282], [0.030412307009100914, 0.2154947966337204, 0.09322608262300491, -0.02130548655986786, -0.17686687409877777, 0.031828589737415314, -0.20212705433368683, -0.09145254641771317, 0.020847149193286896, -0.08625517785549164, -0.2679291069507599, -0.09599059075117111, 0.037293076515197754, 0.06653672456741333, -0.07994010299444199, 0.09877964854240417, -0.0003077314468100667, 0.06776778399944305, 0.011805372312664986, 0.18035635352134705, -0.07015209645032883, -0.20731817185878754, 0.034219760447740555, 0.08498188853263855, -0.028367167338728905, 0.2654910385608673, -0.1984655261039734, 0.01640470325946808, -0.04906940087676048, 0.15928243100643158, -0.38230299949645996, 0.07039294391870499, 0.07375146448612213, 0.7909585237503052, 0.11767351627349854, 0.2565554082393646, 0.06973272562026978, 0.03900185227394104, -0.09658025950193405, 0.6963315606117249], [0.005993010476231575, 0.05151060223579407, -0.13335026800632477, 0.008362047374248505, -0.002013999968767166, -0.026863636448979378, -0.12696020305156708, 0.0030993781983852386, -0.0005355835310183465, 0.027008624747395515, -0.09453001618385315, 0.028261378407478333, 0.030769018456339836, 0.0764387920498848, -0.017717279493808746, -0.10383167117834091, 0.01386316493153572, 0.01214382704347372, 0.032810989767313004, -0.01587967947125435, 0.023750411346554756, 0.0876060500741005, -0.012167937122285366, -0.020862163975834846, -0.0034690836910158396, 0.016170227900147438, -0.08966086059808731, 0.011070426553487778, -0.028588207438588142, 0.06569483876228333, 0.09687826782464981, -0.014188218861818314, 0.029560042545199394, -0.24803531169891357, -0.04424471780657768, 0.035954609513282776, -0.0045794956386089325, -0.055472373962402344, -0.05074886232614517, -0.049560531973838806], [0.003055402310565114, 0.0029962221160531044, -0.0035509727895259857, -0.00027169554959982634, 0.007713646162301302, -0.0009656695183366537, 0.016033729538321495, 0.002976949792355299, 0.0020878964569419622, -0.0023552794009447098, 0.03243741765618324, -0.004893770441412926, 0.006087061483412981, 0.0247232336550951, -0.007825611159205437, 0.02239234931766987, -0.004513933323323727, -0.005006569903343916, 0.0011189202778041363, 0.006987611763179302, 0.0032273102551698685, -0.010756348259747028, 0.0032980956602841616, -0.007955995388329029, -0.001254224218428135, -0.01412560697644949, 0.03205617889761925, 0.005932645872235298, -0.010227642022073269, -0.026636915281414986, 0.021638473495841026, 0.0013082800433039665, 0.002396469470113516, 0.022697689011693, -0.004312810953706503, 0.024739647284150124, 0.0026980768889188766, 0.023904098197817802, 0.006499274633824825, 0.011148584075272083], [-0.013878093101084232, 0.02776508219540119, -0.047410741448402405, 0.002280263230204582, 0.011393272317945957, -0.11666788905858994, -0.03397047147154808, -0.017664983868598938, 0.011373918503522873, 0.027390237897634506, -0.13487809896469116, 0.007172076962888241, 0.0313602052628994, 0.016582584008574486, -0.014788144268095493, 0.03333817049860954, 0.007088249549269676, -0.00795996468514204, 0.0176649559289217, 0.039456482976675034, -0.053639352321624756, -0.0024782982654869556, 0.0165008045732975, 0.005176626145839691, -0.007882052101194859, -0.029963139444589615, -0.13748669624328613, 0.022540608420968056, 0.01951576955616474, 0.10714458674192429, -0.03448057174682617, 0.003983794245868921, 0.041289158165454865, -0.005595849826931953, -0.03866908326745033, -0.03185513615608215, -0.0040807100012898445, 0.07959555834531784, 0.01788344234228134, -0.017260927706956863], [-0.0004332401731517166, 0.0004132634785491973, -0.0020577257964760065, 0.0008420557714998722, 0.0009985697688534856, -0.0010710558854043484, -0.002360817976295948, 0.0008870593155734241, -6.864532770123333e-05, 0.0013734839158132672, 0.018438253551721573, -0.0007244648295454681, 0.00048307437100447714, 0.007850958965718746, -0.0015898769488558173, 0.002240617759525776, -0.0003302463155705482, -0.0027391996700316668, 0.0014328561956062913, -0.00028525045490823686, -0.0089436499401927, 0.005037418566644192, -6.556198059115559e-05, -0.003950485959649086, 0.0005054748035036027, -0.010508180595934391, 0.018116561695933342, 0.0028739438857883215, -0.0036911109928041697, -0.011163761839270592, 0.0040404414758086205, 8.900017564883456e-05, 0.0020321751944720745, 0.004359720274806023, 0.002184235490858555, 0.0037193510215729475, 0.0019069694681093097, 0.009738926775753498, 0.00291967554949224, 0.0008325144299305975], [0.015417443588376045, 0.03127026557922363, -0.01603890024125576, -0.0034538949839770794, 0.05048361048102379, -0.049719274044036865, -0.21324673295021057, -0.011069790460169315, -0.0037120662163943052, 0.0019161930540576577, 0.1299615055322647, -0.008060651831328869, -0.02384667657315731, 0.003962532617151737, 0.022152934223413467, 0.03446461632847786, -0.014402910135686398, 0.02725706249475479, 0.02613908238708973, -0.03436700999736786, -0.19750119745731354, -0.03281315416097641, -0.0097544826567173, 0.0036472787614911795, -0.002222827635705471, -0.018296286463737488, 0.10980058461427689, -0.02306107059121132, -7.975999324116856e-05, -0.07965224981307983, -0.1464243084192276, 0.005038936156779528, 0.01367830578237772, -0.35353317856788635, 0.016496751457452774, 0.031665924936532974, -0.01035646814852953, 0.010775488801300526, -0.02349853701889515, 0.018711429089307785], [-0.014244805090129375, 0.034931425005197525, 0.013348212465643883, 0.000965628307312727, 0.04832853376865387, 0.038507312536239624, 0.02054472453892231, -0.013161912560462952, 0.0007828304078429937, 0.016577022150158882, 0.1449252963066101, -0.0020437599159777164, -0.013136116787791252, 0.035768456757068634, 0.0007740911678411067, 0.02325679175555706, -0.01781470514833927, -0.011827223934233189, 0.012193415313959122, 0.018421687185764313, -0.02948847971856594, 0.027547655627131462, 0.0010786496568471193, -0.015813633799552917, 0.0015238733030855656, -0.029954858124256134, 0.14482919871807098, -0.021370941773056984, -0.027952875941991806, -0.029335839673876762, 0.026952015236020088, 0.00017135975940618664, 0.009492922574281693, 0.05174710974097252, 0.004664954729378223, -0.0147086251527071, -0.00784111488610506, -0.013200716115534306, 0.012887093238532543, -0.0043612211011350155], [0.013540360145270824, -0.0174260176718235, -0.0370347760617733, 0.006213106215000153, -0.027493804693222046, -0.07875093072652817, -0.09341314435005188, 0.02580510824918747, 0.020907562226057053, -0.01952996477484703, -0.5701356530189514, 0.004739744123071432, 0.024507272988557816, -0.13870644569396973, -0.03194228932261467, 0.047079719603061676, 0.04843143746256828, -0.007746183779090643, -0.018803708255290985, -0.005919022485613823, -0.0594789981842041, -0.0016871570842340589, 0.0416293703019619, 0.05696671083569527, -0.007717861328274012, -0.012600403279066086, -0.4693717658519745, -0.040672868490219116, 0.3891049027442932, 0.17057695984840393, -0.018045876175165176, -0.0019310851348564029, 0.025134844705462456, 0.008560395799577236, 0.01812373474240303, -0.017560452222824097, -0.01860334351658821, 0.08589885383844376, -0.05590236932039261, -0.03932623937726021], [0.007281651720404625, -0.005188256502151489, 0.033095188438892365, 0.0011389240389689803, -0.0005996606196276844, -0.03407832980155945, 0.047232676297426224, 0.004972981754690409, 0.0020346336532384157, -0.004816167522221804, 0.10453198105096817, 0.011524575762450695, -0.012600431218743324, 0.004075624048709869, -0.0006069966475479305, -0.011770257726311684, -0.047191087156534195, -0.028293289244174957, 0.0046322462148964405, 0.01569804549217224, 0.006378188729286194, -0.008704815991222858, 0.0028408123180270195, -0.04889186844229698, 0.0004306841001380235, -0.005247987806797028, 0.10030941665172577, 0.007156798150390387, 0.022404005751013756, -0.06352650374174118, 0.030881458893418312, -0.0014931976329535246, -0.0033068815246224403, 0.006167352199554443, -0.03155168145895004, -0.0045088063925504684, -0.006193545646965504, -0.013083706609904766, 0.03211706131696701, 0.017839597538113594], [-0.001704231253825128, -0.01539992168545723, -0.08924750238656998, -0.0032697354909032583, 0.043475791811943054, -0.011111635714769363, 0.05593861639499664, -0.026096753776073456, 0.006939812563359737, -0.0111753074452281, 0.10458365827798843, -0.011537904851138592, 0.0031723841093480587, 0.0034023080952465534, -0.013700399547815323, 0.015255441889166832, -0.029753049835562706, -0.032103706151247025, 0.038622379302978516, 0.05553382262587547, 0.011322768405079842, -0.010066229850053787, 0.014054562896490097, -0.05002318695187569, -0.004882261622697115, -0.0573015958070755, 0.1005067229270935, 0.053212057799100876, 0.005553564056754112, 0.007354119326919317, 0.016796724870800972, 0.0004080485086888075, -0.00952228531241417, 0.050953254103660583, -0.030395319685339928, 0.03731628879904747, -0.00809435360133648, -0.049798574298620224, -0.005766658112406731, -0.026143603026866913], [0.005601683631539345, 0.036157093942165375, 0.16492310166358948, -0.008260167203843594, -0.00327164214104414, 0.012773767113685608, -0.14032059907913208, -0.062240276485681534, -0.004386324901133776, -0.0019165423000231385, 0.09017402678728104, 0.034716930240392685, -0.013106819242238998, 0.0052330526523292065, 0.020224468782544136, -0.018849100917577744, -0.004000083543360233, -0.01669289916753769, -0.007990221492946148, -0.009850657545030117, -0.0988844484090805, -0.02575065940618515, -0.009633769281208515, -0.05280322581529617, 0.006324278190732002, -0.07385765761137009, 0.08602891862392426, 0.05599750205874443, 0.050195012241601944, -0.06955963373184204, -0.07953281700611115, -0.006334084086120129, 0.02786921337246895, -0.08409750461578369, -0.04575515538454056, 0.02571413479745388, 0.006198124028742313, -0.016499686986207962, 0.03652891516685486, -0.04228898510336876], [-0.00355434138327837, 0.004777806345373392, -0.016107790172100067, 0.000296979647828266, 0.004376341123133898, 0.004594733472913504, -0.00035253120586276054, -0.00073839514516294, 0.0002710618427954614, 0.0003948940138798207, -0.025400077924132347, 0.004368196241557598, 0.0009216265752911568, -0.0010978729696944356, 0.0008978621917776763, 0.0013076486065983772, 0.0041986266151070595, -0.0004615611396729946, 0.006605252623558044, 0.001552343019284308, 0.018290400505065918, -0.0009781877743080258, 0.0012106087524443865, 0.0004928877460770309, 0.0003958714078180492, 0.007488243747502565, -0.02578320913016796, 0.0029753907583653927, 0.004625390749424696, 0.01270214281976223, 0.0006804986041970551, 3.690556695801206e-05, 0.0013605373678728938, 0.001048739068210125, 0.0006128452369011939, -0.0011084775906056166, -0.001078709145076573, 0.010122430510818958, 0.004936235956847668, 0.0005602296441793442], [-0.012343430891633034, 0.03845314309000969, -0.09206259250640869, 0.0015021918807178736, -0.018847977742552757, -0.1064348816871643, -0.04083462432026863, 0.012526063248515129, 0.00028214245685376227, 0.030300198122859, 0.030772464349865913, 0.028054099529981613, 0.0015293811447918415, -0.0010593594051897526, 0.016021186485886574, 0.03933876007795334, -0.002208806574344635, -0.04166553542017937, 0.00824738759547472, 0.04506587237119675, -0.005902737379074097, 0.02398172952234745, -0.0029912625905126333, -0.03212185204029083, -0.0011964496225118637, 0.0025606800336390734, 0.023005381226539612, 0.03563214838504791, -0.024705519899725914, 0.06409285217523575, -0.08699202537536621, -0.0006060050800442696, 0.007730061654001474, 0.008229391649365425, 0.017985142767429352, -0.09265965968370438, 0.014471686445176601, 0.06957698613405228, 0.006307526491582394, 0.018140826374292374], [-0.004950109403580427, -0.003989384975284338, 0.113888218998909, 0.009035385213792324, -0.03913015499711037, 0.00318353483453393, -0.3048984408378601, -0.01708076149225235, -0.005252438131719828, -0.001087052864022553, 0.2572227418422699, 0.00646630534902215, 0.00583054032176733, -0.08710074424743652, -0.017868878319859505, -0.014758303761482239, 0.022813567891716957, 0.03482450917363167, 0.08400364220142365, -0.15496417880058289, -0.19907215237617493, 0.07063206285238266, -0.011031394824385643, 0.027515901252627373, 0.002284548245370388, -0.13383017480373383, 0.24315761029720306, 0.04747653007507324, 0.01693413034081459, -0.03737857937812805, -0.14996567368507385, -0.007257569115608931, -0.0007272104267030954, -0.0673871710896492, 0.014432135038077831, -0.14916463196277618, -0.025182098150253296, 0.24375814199447632, -0.021894358098506927, 0.07245419174432755], [-0.015213806182146072, 0.03110748901963234, -0.05601777881383896, 0.0023052191827446222, -0.0029929110314697027, -0.06143661588430405, -0.04474304988980293, -0.007439227309077978, -0.0024995042476803064, -0.0373544916510582, -0.07903392612934113, -0.010356644168496132, 0.010186225175857544, 0.05946258082985878, 0.049278683960437775, 0.06893060356378555, -0.016027988865971565, -0.027164746075868607, 0.07281779497861862, 0.10716341435909271, -0.00877318624407053, -0.0494825504720211, -0.0044958340004086494, 0.003371668979525566, -0.004811348393559456, -0.03705068677663803, -0.07566652446985245, 0.044418297708034515, 0.1918768286705017, 0.20490548014640808, -0.06113780662417412, 0.008790271356701851, 0.0179819967597723, -0.029145315289497375, -0.006808196194469929, -0.05133168026804924, 0.004040755797177553, 0.1462654024362564, 0.05767695978283882, 0.059603843837976456], [-0.008209342136979103, -0.0740913450717926, 0.2628561854362488, 0.011668091639876366, 0.009829252026975155, 0.12662117183208466, -0.02828437089920044, -0.031004348769783974, -0.0010424827923998237, -0.028949910774827003, 0.022732652723789215, 0.03643403574824333, -0.00066551094641909, -0.03637973964214325, 0.060290832072496414, -0.06644673645496368, 0.017569525167346, 0.023572644218802452, 0.07570749521255493, -0.028516581282019615, -0.22499315440654755, 0.03274967148900032, -0.013364924117922783, 0.02215263433754444, 0.00497100967913866, 0.04262872412800789, 0.02436990849673748, 0.001001449185423553, -0.0926465317606926, 0.02654779888689518, 0.02220292016863823, -0.015417199581861496, -0.006816264241933823, 0.03414835408329964, 0.036344561725854874, -0.2905174791812897, 0.002155532129108906, -0.01630471646785736, 0.03698311746120453, 0.050654467195272446], [-0.002880154177546501, 0.0245615653693676, -0.05318455770611763, 7.014619768597186e-05, 0.013585716485977173, 0.006994063965976238, -0.022968588396906853, -0.005616562906652689, -0.0014040762325748801, -0.0014249988598749042, -0.022292327135801315, -0.0026279392186552286, -0.012650181539356709, -0.005842683836817741, 0.010787094943225384, 0.032643962651491165, -0.00611121766269207, -0.004040404222905636, -0.012970669195055962, -0.00014114388613961637, 0.03936973214149475, 0.006271821446716785, -0.001546329353004694, -0.004539441782981157, 0.002902502426877618, 0.033954352140426636, -0.021617133170366287, 0.00502275163307786, 0.012491676025092602, 0.036867331713438034, -0.04036345332860947, 0.00175918557215482, 0.007594413124024868, 0.00727783003821969, -0.016122594475746155, 0.00866430252790451, -0.012519837357103825, 0.03340604156255722, 0.019914211705327034, -0.001141966669820249], [-0.014345879666507244, 0.005857499316334724, -0.07506590336561203, -0.0013617109507322311, 0.0003367147292010486, -0.04462509974837303, 0.20345142483711243, -0.0024765031412243843, 0.009752567857503891, -0.012153641320765018, -0.07872852683067322, 0.019117023795843124, 0.03060133568942547, 0.03927061706781387, -0.006425775121897459, 0.059578731656074524, -0.03000863455235958, -0.06219711899757385, 0.02818010002374649, 0.11712922900915146, 0.11658290773630142, -0.04003854840993881, 0.018934113904833794, -0.02299411967396736, -0.004854288417845964, -0.0545940063893795, -0.07376130670309067, -0.016943203285336494, 0.007331876549869776, -0.010642708279192448, 0.07108258455991745, 0.000602401269134134, -0.00843274500221014, 0.0021720174700021744, 0.022836998105049133, 0.04233473539352417, 0.027969444170594215, -0.22189629077911377, -0.034627873450517654, -0.05707382410764694], [-0.009989026933908463, -0.004117212723940611, -0.07631815969944, -0.004284301307052374, 0.02937028370797634, -0.005593840964138508, 0.01603143848478794, 0.025538772344589233, -0.003425813978537917, -0.027875181287527084, 0.04420601204037666, 0.03567612171173096, 0.0024122335016727448, 0.052235350012779236, 0.04830031841993332, 0.04464080557227135, 0.0028739552944898605, 0.018894623965024948, 0.0021521588787436485, 0.10889852046966553, 0.07048900425434113, -0.11605469882488251, -0.015937475487589836, 0.005256042815744877, 0.002258992288261652, 0.10466893017292023, 0.04064454883337021, 0.030791642144322395, 0.04478329420089722, 0.1274048238992691, -0.06622255593538284, -0.00527889234945178, -0.027501441538333893, -0.0881643295288086, -0.02005336992442608, -0.12839224934577942, 0.006018088199198246, -0.008479496464133263, 0.05625703185796738, 0.019956720992922783], [0.0031695424113422632, 0.008063225075602531, 0.02735506184399128, -0.0006851826910860837, 0.002053538104519248, -0.005438977852463722, 0.014257875271141529, -0.011068141087889671, 0.007753340527415276, -0.02780408225953579, 0.33793944120407104, 0.012106580659747124, -0.00586604094132781, 0.09637654572725296, -0.01181461475789547, 0.006720434408634901, -0.014437805861234665, -0.023468049243092537, -0.006400718353688717, 0.005107933655381203, -0.021072350442409515, 0.002253239043056965, 0.01096382737159729, -7.720165740465745e-05, -0.003993251360952854, -0.05578872188925743, 0.3237263858318329, 0.020316122099757195, -0.0511358305811882, -0.09074327349662781, 0.08896813541650772, -0.0021694181486964226, 0.013483536429703236, -0.06373204290866852, -0.01750343292951584, 0.04849689453840256, 0.0035358713939785957, 0.10415653884410858, -0.011927690356969833, 0.003134199185296893], [-0.0218281839042902, 0.01747976988554001, -0.0736224427819252, 0.00627886550500989, 0.005149037577211857, -0.05549400672316551, 0.017838850617408752, 0.025068506598472595, -0.00238132500089705, -0.00304234866052866, 0.3466900587081909, 0.0010790125234052539, -0.012268314138054848, 0.03665384277701378, -0.009435622952878475, 0.040560197085142136, -0.0380871444940567, 0.02945651113986969, -0.011476194486021996, 0.050824519246816635, -0.0924868956208229, -0.0274274330586195, -0.004304671660065651, -0.028357481583952904, 0.0028638504445552826, -0.024179240688681602, 0.31256186962127686, -0.037261106073856354, -0.1194005161523819, -0.02035033516585827, 0.02990468591451645, 0.004226167220622301, -0.007543141487985849, -0.007076548878103495, -0.005353821441531181, 0.04944382235407829, 0.010243934579193592, 0.017112446948885918, -0.01362951286137104, 0.006304794456809759], [0.007990588434040546, 0.0049690259620547295, -0.008068965747952461, -0.005764795932918787, -0.025567200034856796, -0.045373041182756424, -0.06001931056380272, -0.020745953544974327, 0.004759145434945822, -0.0035899924114346504, 0.058231741189956665, 0.013018888421356678, -0.005240746773779392, -0.015663985162973404, 0.04170386120676994, -0.013065655715763569, 0.006539505440741777, -0.002019388834014535, -0.014226598665118217, -0.003486410016193986, -0.08845648169517517, -0.005487862508744001, 0.004268411081284285, 0.004723424091935158, -0.0033267915714532137, 0.034391481429338455, 0.05212628096342087, 0.04564782604575157, 0.033408235758543015, -0.048930175602436066, -0.036992788314819336, -0.0016552089946344495, 0.004666483961045742, 0.015475242398679256, -0.024032723158597946, 0.006087639834731817, 0.008896778337657452, 0.0019008532399311662, 0.011947941966354847, -0.004787866957485676], [0.016988424584269524, -0.05371926724910736, 0.023797815665602684, -0.0013156143249943852, -0.03583699092268944, 0.10270598530769348, -0.09345335513353348, -0.004594410769641399, -0.0011674781562760472, -0.03996666893362999, 0.39884036779403687, 0.013226569630205631, 0.00375098898075521, -0.017863625660538673, 0.05955876410007477, 0.03194426745176315, 0.031745944172143936, 0.042446568608284, 0.12173838168382645, -0.04575551673769951, 0.03925401344895363, 0.033348891884088516, 0.0016443884233012795, 0.047040317207574844, 0.005146182142198086, -0.03379519656300545, 0.3748842775821686, 0.05243246629834175, -0.10618773847818375, 0.07486533373594284, -0.11986401677131653, -0.006377508398145437, -0.01963440515100956, -0.062126483768224716, -0.02169775404036045, -0.25757506489753723, -0.06633807718753815, 0.12429676949977875, 0.01846785470843315, 0.0181186031550169], [0.0007915463647805154, 0.0016550940927118063, 0.00320591707713902, 0.0003594751178752631, -0.0013741656439378858, -0.0008443781407549977, 0.002321586012840271, 0.0021765094716101885, 0.0001249009947059676, 0.0003714856575243175, -0.010342986322939396, -0.0007776504498906434, -0.0010648854076862335, 0.004553052596747875, -0.0010709009366109967, 0.00516674667596817, 0.0011647504288703203, -0.0015480791917070746, 0.0010012934217229486, 0.0027458283584564924, 0.007251673378050327, -0.0024036699905991554, 0.0005295707960613072, -0.000471452105557546, 6.778127863071859e-05, -0.0004512948216870427, -0.009462100453674793, -0.0009883568855002522, -0.004386995919048786, -0.00508057652041316, -0.00025473866844549775, -0.00028215564088895917, -0.0009756736690178514, -0.0030557336285710335, -0.0013513009762391448, 0.0065696765668690205, 0.0001313414832111448, 0.0016744073946028948, -0.0003149017284158617, 0.00036044034641236067], [0.0141830425709486, 0.016714952886104584, -0.07957454770803452, -0.006205991841852665, -0.04342731833457947, -0.1227574348449707, 0.03850773349404335, -0.015198891051113605, 0.01761730946600437, -0.029431337490677834, 0.32113462686538696, 0.004063607659190893, -0.02175348438322544, 0.02740146964788437, 0.03402254357933998, 0.0323200598359108, 0.031155670061707497, 0.009638724848628044, -0.03987196460366249, 0.09067239612340927, -0.1575457900762558, -0.019483260810375214, 0.02526145428419113, 0.008828047662973404, -0.014136436395347118, 0.003803107887506485, 0.2995621860027313, 0.037248916923999786, 0.0045672692358493805, -0.04613993316888809, 0.06943684071302414, 0.015121879056096077, -0.008030673488974571, 0.008587289601564407, 0.0029157192911952734, 0.07468100637197495, -0.014438615180552006, -0.05077102407813072, 0.0011842609383165836, 0.059562791138887405], [-0.0030317516066133976, 0.007849416695535183, 0.32980355620384216, 0.023355631157755852, 0.0206692423671484, 0.11983223259449005, -0.22720274329185486, 0.003305981634184718, 0.01233606692403555, 0.07829710096120834, 0.5499340891838074, 0.04006461799144745, -0.011159824207425117, -0.45533376932144165, -0.10513991117477417, 0.05889135226607323, 0.0039020306430757046, 0.15699903666973114, 0.01168886385858059, -0.18527929484844208, -0.2212877869606018, 0.06883157044649124, 0.03810129314661026, 0.030366946011781693, 0.002512306673452258, -0.4295576810836792, 0.548899233341217, -0.021569175645709038, -0.35314542055130005, -0.22555352747440338, -0.359567791223526, -0.008499113842844963, -0.00543464720249176, -0.21951860189437866, 0.005538268480449915, -0.2994155287742615, -0.09037020802497864, 0.07038260251283646, -0.04552362486720085, 0.009584429673850536], [0.008104514330625534, 0.000526206276845187, 0.01741315983235836, -0.015230057761073112, 0.0575752817094326, 0.06617318838834763, 0.23269961774349213, 0.014847949147224426, 0.02868458442389965, -0.145334854722023, 0.4032253324985504, 0.001380608300678432, -0.03168559819459915, 0.1636006236076355, 0.0004006078524980694, -0.04238090664148331, -0.007312762551009655, 0.03334977477788925, -0.02542097494006157, 0.10441078990697861, -0.04755639284849167, -0.06455907225608826, 0.04150449112057686, 0.0072473930194973946, -0.0223676934838295, -0.20752444863319397, 0.3167601227760315, -0.10363471508026123, -0.11891091614961624, -0.2906480133533478, 0.005959172733128071, 0.0178369227796793, -0.07295607030391693, -0.13845790922641754, 0.03121274523437023, 0.11416033655405045, 0.03843207284808159, -0.14825865626335144, 0.027676407247781754, 0.061424534767866135], [0.010289842262864113, 0.015071213245391846, -0.03159850090742111, 0.010157235898077488, -0.015126669779419899, -0.04760034754872322, 0.055202096700668335, 0.019847065210342407, 0.006756965070962906, -0.031608711928129196, 0.27831336855888367, 0.011311667971313, -0.041218101978302, 0.04502461850643158, 0.007000000681728125, 0.022490650415420532, -0.047662246972322464, -0.006178868003189564, -0.003801948158070445, 0.06830468028783798, -0.048902127891778946, -0.007196289021521807, 0.013300834223628044, -0.015223640948534012, 0.0013139069778844714, -0.004684694577008486, 0.25699853897094727, -0.01676306687295437, -0.024905482307076454, -0.0524170882999897, 0.08142262697219849, 0.007599211297929287, -0.01776631362736225, -0.025433428585529327, 0.009400603361427784, 0.047181084752082825, 0.007120801601558924, 0.011889062821865082, 0.010847062803804874, -0.010462499223649502], [0.0009943244513124228, 1.0406098226667382e-05, 0.0038341451436281204, -9.622344805393368e-05, 0.003725682618096471, -0.00027107985806651413, 0.004843190312385559, 0.0012626152019947767, 0.001080988789908588, -0.0016941839130595326, -0.01905226521193981, -0.000157571179443039, -9.082055476028472e-05, 0.005943673197180033, -0.0014052180340513587, 0.0029201419092714787, -0.0014650957891717553, -0.002686073537915945, 0.002400821540504694, 0.007743943016976118, 0.005877235904335976, -6.690817099297419e-05, 0.0019331874791532755, -0.004057595506310463, -0.0005213678232394159, -0.004639377351850271, -0.01847897469997406, 0.0008699867175891995, -0.0024500812869518995, -0.004369888920336962, 0.0032441867515444756, 0.00046086442307569087, -0.0005228380323387682, 0.0097877886146307, -0.00036129396175965667, 0.011439754627645016, 0.001220355392433703, -0.0006863431772217155, 0.0020654473919421434, 0.001305338810198009], [0.020806124433875084, 0.00258070882409811, 0.01975077949464321, -0.00011898176308022812, -0.023356342688202858, -0.03306163474917412, 0.013877403922379017, 0.009530821815133095, 0.0038243564777076244, -0.00926131196320057, 0.19042488932609558, 0.0019210951868444681, 0.00314274406991899, 0.025826822966337204, -0.0013333006063476205, 0.003829139983281493, 0.032796233892440796, 0.03957275673747063, 0.004338389728218317, 0.017777787521481514, -0.007358607370406389, -0.00781835988163948, 0.002974773058667779, 0.008112623356282711, -0.005902349948883057, -0.02442682720720768, 0.17591293156147003, -0.030770786106586456, -0.004996609408408403, -0.0330263115465641, 0.031049218028783798, 0.00753825856372714, -0.029209338128566742, -0.024771280586719513, 0.012473362497985363, 0.05474469065666199, 0.009153979830443859, 0.025545701384544373, -0.012996571138501167, 0.011247443966567516], [0.00292105320841074, -0.004784220363944769, 0.0250539667904377, -1.2649733434955124e-05, -0.0017739689210429788, 0.0016909062396734953, 0.05574958398938179, -0.003433417761698365, 0.0025089429691433907, -0.01465735211968422, 0.33593642711639404, 0.005149765871465206, -0.008134557865560055, 0.0804039016366005, 0.0056746541522443295, 0.015626542270183563, 0.001128070056438446, 0.0174925047904253, -0.001842939993366599, 0.05204179137945175, -0.08920429646968842, 0.002104345476254821, 0.00211082655005157, 0.001680518500506878, 0.00025980276404879987, -0.06270911544561386, 0.3261992037296295, -0.001606198027729988, -0.07714153826236725, -0.10506394505500793, 0.04549907520413399, 0.0033102373126894236, -0.008045545779168606, 0.003513139672577381, 0.000963237602263689, 0.04052693396806717, 0.008217785507440567, -0.04293154180049896, 0.007186265662312508, 0.004707482177764177], [0.00997410248965025, 0.015772275626659393, -0.02912149205803871, -0.007628235500305891, 0.04898498207330704, -0.005676208063960075, 0.0602182000875473, -0.03406164050102234, -0.007326288148760796, 0.012637247331440449, 0.14870020747184753, 0.0020531502086669207, 0.02500893361866474, 0.10075995326042175, 0.00941250566393137, 0.022424878552556038, -0.04676030948758125, -0.018248526379466057, 0.003833051538094878, 0.04661577567458153, 0.03952570632100105, 0.018288053572177887, -0.00658533675596118, -0.026526132598519325, 0.006972715258598328, -0.08333432674407959, 0.1447034776210785, 0.010994287207722664, -0.06347241997718811, -0.14082512259483337, 0.06638627499341965, -0.004332263953983784, 0.01429190207272768, -0.012957748025655746, -0.013730977661907673, 0.030687322840094566, 0.019156618043780327, 0.0668526291847229, -0.01511200238019228, 0.010976160876452923], [-0.005088407080620527, -0.0036147532518953085, -0.09251850843429565, 0.008966492488980293, -0.0030164732597768307, -0.0722365751862526, 0.006014256272464991, -0.02294740080833435, -0.0021882872097194195, 0.012127184309065342, 0.21246978640556335, -0.003030677791684866, -0.010460807941854, 0.00811653770506382, 0.01901356689631939, 0.006095260381698608, -0.03701915219426155, 0.03371315076947212, -0.0024440742563456297, 0.06223946809768677, -0.023214327171444893, -0.0126253766939044, -0.001008165767416358, -0.021303173154592514, 0.003429337404668331, -0.01608986034989357, 0.1941896677017212, 0.017318597063422203, -0.11246278882026672, -0.028580183163285255, 0.007421671412885189, 0.004000632558017969, -0.007092494051903486, 0.0013734314125031233, 0.010689281858503819, 0.005935537163168192, 0.0078907310962677, 0.043102867901325226, 0.009948487393558025, 0.003826475003734231], [-0.032883938401937485, -0.05273726209998131, 0.03312278166413307, 0.009837228804826736, 0.021512074396014214, -0.18039311468601227, 0.14968542754650116, 0.005336839705705643, 0.005152411758899689, -0.007241669110953808, 0.15707556903362274, 0.03270985186100006, -0.028985925018787384, -0.1041913628578186, -0.007005463354289532, -0.03512006253004074, -0.03499006852507591, -0.04980773478746414, 0.20274987816810608, 0.12401697039604187, 0.012389962561428547, -0.008324247784912586, 0.015045256353914738, -0.042316876351833344, -0.002598338993266225, -0.04589840769767761, 0.14000797271728516, 0.0992492139339447, 0.008192927576601505, -0.11914665997028351, 0.17886558175086975, 0.006093267817050219, 0.0010671037016436458, -0.007196327671408653, -0.02090705744922161, 0.04759703204035759, 0.01998838782310486, -0.10441131144762039, 0.017780831083655357, 0.029629386961460114], [0.014594276435673237, 0.009232456795871258, 0.002756733214482665, -0.0008684297208674252, 0.0030015388038009405, -0.019360842183232307, -0.0009162311907857656, -0.017522567883133888, -0.0008405077969655395, -0.01116819866001606, 0.053220026195049286, -0.02193128503859043, 0.015484576113522053, 0.03845173865556717, 0.008843316696584225, 0.036069467663764954, 0.01123157050460577, -0.021804919466376305, 0.001658144872635603, 0.011892512440681458, 0.0619090236723423, 0.02496720291674137, 0.0010143168037757277, -0.0017818475607782602, 0.0032067163847386837, -0.020872874185442924, 0.05155795067548752, 0.022971399128437042, -0.03812091425061226, -0.025210469961166382, 0.00010203501733485609, -0.0004913680022582412, 0.02795386128127575, 0.003703977447003126, 0.0042443531565368176, 0.029175007715821266, 0.010257662273943424, 0.04532204195857048, -0.049248822033405304, 0.009294605813920498], [-0.02794208563864231, -0.022365041077136993, 0.21488049626350403, 0.02760045975446701, -0.0036767383571714163, 0.10612394660711288, -0.1990780532360077, 0.018580442294478416, -0.014414889737963676, 0.10533107072114944, 0.10202325880527496, 0.03137265890836716, 0.04027220606803894, -0.03608684986829758, -0.06801474839448929, 0.0604751817882061, -0.01268768310546875, -0.01395679172128439, 0.052850767970085144, -0.1744542121887207, -0.10886634141206741, 0.005236029624938965, -0.027844246476888657, -0.016279790550470352, 0.007865346036851406, -0.07738436013460159, 0.08481130748987198, 0.03381295129656792, -0.04685518890619278, -0.13655538856983185, 0.008113809861242771, -0.018336324021220207, 0.011792040430009365, 0.12377478182315826, -0.016663534566760063, -0.15453778207302094, 0.018158309161663055, 0.18889780342578888, 0.04147663339972496, 0.009349267929792404], [-0.004597852937877178, -0.04569661244750023, -0.027582459151744843, 0.001764381187967956, -0.023737166076898575, 0.0013875375734642148, 0.15461304783821106, -0.004348035901784897, 0.01102463435381651, -0.056431014090776443, 0.518612265586853, 0.002798245055601001, -0.006035895552486181, 0.05004085227847099, -0.00547697301954031, 0.07549671083688736, 0.03485659137368202, 0.05577220022678375, 0.04075362905859947, 0.11982090771198273, -0.1479479968547821, -0.013212514109909534, 0.021592503413558006, 0.03155049309134483, -0.0015683735255151987, -0.010920492000877857, 0.49402815103530884, 0.03823480010032654, -0.03393466770648956, -0.09358347952365875, 0.018881618976593018, 0.008736726827919483, -0.013998778536915779, -0.015963848680257797, 0.025874953716993332, 0.049788523465394974, -0.005781258922070265, -0.13470368087291718, 0.006884673610329628, -0.01094664167612791], [-0.012419121339917183, -0.0023081335239112377, 0.06468939036130905, 0.006861254572868347, -0.0198050606995821, -0.03807033970952034, 0.16579920053482056, -0.0017674986738711596, 0.006521375849843025, 0.009178822860121727, 0.8664605021476746, 0.026546582579612732, 0.034198883920907974, 0.2800319492816925, -0.03874070942401886, 0.06722689419984818, -0.04772506281733513, -0.04061723127961159, -0.03723358362913132, 0.1778489500284195, -0.3868499994277954, 0.059120871126651764, 0.010050039738416672, -0.039286624640226364, 0.0011196178384125233, -0.17469097673892975, 0.7028337717056274, -0.0016080347122624516, -0.24289241433143616, -0.4725162386894226, 0.111009381711483, 0.006734893191605806, 0.016196822747588158, -0.04578733071684837, -0.028810910880565643, 0.030835667625069618, 0.0842675268650055, -0.20740358531475067, 0.029875721782445908, -0.021924160420894623], [0.005561195779591799, 0.02978622168302536, 0.08995039016008377, -0.001819023978896439, 0.01601160690188408, -0.0023794800508767366, 0.20819954574108124, 0.006920525338500738, -0.004871598910540342, -0.01009779330343008, 1.2159006595611572, 0.023330383002758026, -0.025405913591384888, 0.1562618464231491, 0.0404706634581089, 0.02964000403881073, -0.0002532437501940876, 0.06281917542219162, -0.08654540032148361, 0.2252677083015442, -0.6002337336540222, 0.03406268358230591, -0.02770678699016571, 0.023524310439825058, -0.001572477980516851, -0.22165584564208984, 1.1383846998214722, -0.08114789426326752, -0.130560502409935, -0.39676758646965027, 0.10506247729063034, 0.015899522230029106, -0.02447272092103958, -0.0963120087981224, 0.05142970010638237, 0.12867428362369537, 0.05500368773937225, -0.3176857531070709, -0.002503352239727974, 0.08676658570766449], [-0.0013295580865815282, 0.005808796733617783, -0.02523859404027462, 0.0005384610267356038, -0.014424088411033154, -0.0060195946134626865, 0.017604388296604156, 0.0036115979310125113, -0.0006116244476288557, 0.014642052352428436, 0.10745982825756073, 0.008957447484135628, -0.006239098496735096, 0.05226249247789383, 0.025232108309864998, 0.13695798814296722, 0.004505807533860207, 0.024660209193825722, -0.004197788890451193, 0.04737022519111633, -0.048527564853429794, 0.05981820821762085, -0.007744997274130583, 0.033227428793907166, 0.0002934012154582888, -0.03556867316365242, 0.10543239861726761, -0.026648014783859253, -0.03785059601068497, 0.014403490349650383, -0.03931211680173874, -0.002163930330425501, 0.018985824659466743, 0.08655872941017151, 0.018281541764736176, 0.0016072940779849887, 0.01925981417298317, -0.009150834754109383, -0.01873563975095749, -0.06091047450900078], [0.005616210401058197, -0.01103594433516264, 0.0946238711476326, -0.00033129696385003626, -0.019711056724190712, 0.028314867988228798, -0.033234767615795135, 0.004262649454176426, 0.0219203382730484, -0.09118996560573578, 0.462905615568161, 0.03641717508435249, 0.002469026017934084, 0.1421109437942505, 0.03505809232592583, -0.15626782178878784, 0.006030338816344738, 0.038710303604602814, -0.010757800191640854, 0.10152947902679443, -0.014467613771557808, 0.012249265797436237, 0.038796693086624146, -0.03013872355222702, -0.0093977777287364, -0.0262473002076149, 0.4594000577926636, 0.07776172459125519, -0.0038029716815799475, -0.19067443907260895, 0.031177056953310966, 0.029352549463510513, 0.02005387470126152, -0.13764065504074097, -0.00018825827282853425, 0.09419725090265274, 0.0005889703752472997, 0.1062992513179779, 0.1346496194601059, 0.03147029131650925], [-0.017538731917738914, 0.0022289040498435497, -0.1331234574317932, 0.009417657740414143, -0.002076622797176242, 0.05756741762161255, 0.06253033131361008, 0.02136187255382538, 0.030130857601761818, -0.02970701828598976, 0.226976215839386, 0.01583055593073368, 0.038023434579372406, 0.0888633206486702, -0.06485062092542648, 0.022564159706234932, -0.007165601477026939, 0.016803473234176636, 0.004881944973021746, -0.0808417871594429, 0.07869924604892731, -0.024165675044059753, 0.05911923199892044, -0.024368805810809135, -0.015496735461056232, -0.0918620228767395, 0.1628546565771103, 0.024649204686284065, -0.08293388038873672, -0.18527720868587494, 0.1651187390089035, 0.005449660122394562, 0.014630482532083988, 0.014756249263882637, -0.0027900016866624355, 0.18347062170505524, -0.021605636924505234, -0.046063151210546494, -0.03537499159574509, -0.06777649372816086], [0.002405626932159066, -0.0008465408463962376, 0.002931783674284816, -0.0003281490062363446, 0.007650931365787983, 5.551740832743235e-05, 0.018425611779093742, 0.0041596489027142525, 0.0019556579645723104, -0.007143245078623295, -0.013479102402925491, -0.004014371894299984, 0.006382077466696501, 0.011778762564063072, -0.007676733657717705, 0.017728840932250023, -0.006715480238199234, -0.0037943648640066385, 0.0030293522868305445, 0.01561495941132307, 0.02618987299501896, -0.012664949521422386, 0.0021987438667565584, -0.011508047580718994, -0.0012859731214120984, -0.0038427645340561867, -0.013456233777105808, 0.004986751824617386, -0.0009300332167185843, -0.008544997312128544, 0.014165223576128483, 0.00099831388797611, 0.0035984646528959274, 0.03184687718749046, -0.006535377353429794, 0.025723081082105637, 0.003429396776482463, 0.00881508644670248, 0.009082961827516556, 0.00886532012373209], [0.04030695930123329, -0.023441683501005173, -0.06315401196479797, 0.006925585214048624, 0.005949278362095356, -0.04222417622804642, 0.10518225282430649, 0.018879085779190063, 0.013717464171350002, -0.036033838987350464, 0.42569637298583984, -0.013112705200910568, -0.0010056052124127746, 0.009184722788631916, -0.011809568852186203, 0.053096942603588104, 0.0008976701647043228, 0.0702182799577713, 0.03091699630022049, 0.0958496704697609, -0.10827526450157166, 0.0007158701191656291, 0.027583928778767586, 0.034227874130010605, -0.0017755661392584443, 0.004820237401872873, 0.39096590876579285, -0.004179683513939381, -0.1349765956401825, -0.022894613444805145, -0.010135938413441181, 0.003803327213972807, -0.01323418878018856, -0.001603897544555366, -0.04877360910177231, 0.01169474609196186, -0.01817438006401062, -0.11207712441682816, -0.010416406206786633, -0.0015127196675166488], [0.00041529169538989663, -0.0004687445762101561, 0.006640417966991663, 0.0005902326665818691, 0.0019582712557166815, -0.0007331099477596581, 0.002735238056629896, 0.0021062339656054974, 0.0003881457378156483, -0.0008621326414868236, -0.018363000825047493, -0.00020412381854839623, -0.0009043214377015829, 0.004848841577768326, -0.0012506387429311872, 0.00284637906588614, -0.0014701442560181022, -0.003448743373155594, 0.002987493295222521, 0.007739047985523939, 0.001576931681483984, 0.0017965281149372458, 0.0013065746752545238, -0.004888549447059631, 4.126322528463788e-05, -0.007838062942028046, -0.018099796026945114, 0.001008732826448977, -0.0026408203411847353, -0.007569108158349991, 0.0021533030085265636, -7.523321983171627e-05, 0.0012242450611665845, 0.003911335952579975, 0.0001126648421632126, 0.00828028004616499, 0.0017284423811361194, -0.0032381326891481876, 0.0036416607908904552, -0.0023034741170704365], [0.03870377317070961, 0.038823019713163376, -0.0863741785287857, -0.002216476248577237, -0.0017229317454621196, -0.10841341316699982, -0.17999215424060822, 0.0032928455621004105, -0.0014419425278902054, -0.02247321605682373, -0.05406166613101959, 0.020517267286777496, -0.022804073989391327, 0.020763639360666275, 0.017485298216342926, -0.012324946001172066, -0.011319652199745178, 0.03194843605160713, -0.018159208819270134, 0.007013614755123854, -0.11266051232814789, -0.11049121618270874, -0.0031288843601942062, 0.0032896907068789005, -0.0023930147290229797, 0.06934431195259094, -0.066835418343544, -0.07186347991228104, 0.06694892048835754, -0.009528943337500095, -0.10822698473930359, 0.012846333906054497, 0.025775350630283356, -0.23836594820022583, 0.018734551966190338, -0.007636732887476683, -0.010751798748970032, 0.0006175016751512885, 0.011590253561735153, 0.153439462184906], [-0.02464643307030201, 0.07617553323507309, 0.02225099503993988, 0.0024901193100959063, 0.1029151976108551, 0.08230989426374435, 0.04629814997315407, -0.0236420426517725, 0.0020071857143193483, 0.041324567049741745, 0.3207454979419708, 6.483290053438395e-05, -0.0279045682400465, 0.09201016277074814, 0.007950155064463615, 0.041159048676490784, -0.04290330037474632, -0.027324533089995384, 0.015367547050118446, 0.04718378558754921, -0.09485676884651184, 0.05817793309688568, 0.002006517257541418, -0.03786079213023186, 0.002213107654824853, -0.07006730884313583, 0.3174932301044464, -0.04836965352296829, -0.06020217388868332, -0.05550556629896164, 0.0558902733027935, -0.0004491529834922403, 0.022350165992975235, 0.1023961529135704, 0.013347041793167591, -0.039786361157894135, -0.016721056774258614, -0.04021630436182022, 0.01642315648496151, -0.0026776823215186596], [0.02886616811156273, -0.05539879575371742, 0.0043137711472809315, 0.0021782724652439356, -0.07486008107662201, -0.06644321233034134, 0.21752914786338806, 0.008054614998400211, 0.01516028679907322, -0.07960673421621323, 0.8193079829216003, 0.0072166756726801395, -0.00991734303534031, 0.15348918735980988, 0.042500659823417664, 0.10042653232812881, 0.06204954907298088, 0.05055120587348938, 0.03575088828802109, 0.2643723785877228, -0.22780850529670715, 0.02310730330646038, 0.02624046802520752, 0.03856967017054558, -0.003580248448997736, -0.06622282415628433, 0.8185391426086426, 0.009370380081236362, 0.10664146393537521, -0.1493736207485199, -0.007402120623737574, 0.01439553964883089, -0.02561292238533497, -0.021423911675810814, 0.048553504049777985, -0.017887385562062263, 0.006686750333756208, -0.3123697340488434, -0.002071176189929247, 0.04133493825793266], [-0.006295868661254644, -0.0011074630310758948, 0.014863081276416779, 0.0010856033768504858, 0.008602197282016277, -0.02967679686844349, 0.0962056964635849, -0.01676524616777897, 0.0014928757445886731, 0.0022520844358950853, 0.20054073631763458, 0.013319477438926697, -0.0202386025339365, 0.026545921340584755, -0.0008264427306130528, -0.01824277453124523, -0.08552726358175278, -0.03972852602601051, 0.016722554340958595, 0.03870627284049988, 0.0021398935932666063, -0.015036805532872677, 0.001824436942115426, -0.10889409482479095, 0.0018347358563914895, -0.003267415799200535, 0.19253721833229065, 0.04948964715003967, 0.06216536462306976, -0.10770081728696823, 0.046890176832675934, 0.0025980703067034483, 0.0015905924374237657, 0.001972162863239646, -0.046904757618904114, -0.0052288309670984745, -0.012638251297175884, -0.04107602685689926, 0.051610108464956284, 0.03145098313689232], [-0.005524099338799715, -0.05077017843723297, -0.1293690949678421, -0.007568934001028538, 0.04957413300871849, 0.03767620772123337, 0.053848665207624435, 0.01641790382564068, 0.018539786338806152, -0.08231034129858017, 0.18529734015464783, -0.04408447816967964, -0.0060566808097064495, -0.003263919148594141, -0.012893966399133205, 0.03493264317512512, -0.008116023615002632, 0.013451582752168179, 0.06587515771389008, 0.03729214146733284, 0.07662446051836014, 0.00647926889359951, 0.03884553164243698, -0.015678921714425087, -0.014780388213694096, -0.11819793283939362, 0.17496998608112335, 0.04697070270776749, -0.07250840961933136, 0.026196714490652084, 0.05016793683171272, 0.001011379063129425, -0.03148243948817253, 0.016353044658899307, 0.002097332151606679, 0.12754090130329132, -0.02019808068871498, -0.07580707222223282, -0.0844377800822258, -0.013392200693488121], [0.037992965430021286, 0.031182490289211273, 0.1584133505821228, -0.017094803974032402, -0.06749815493822098, 0.08700647205114365, -0.19816292822360992, -0.06524118036031723, -0.004700815305113792, -0.07266848534345627, 0.05067291855812073, 0.011739055626094341, -0.0076925987377762794, -0.006017438601702452, -0.021817097440361977, 0.014734800904989243, 0.03971221297979355, 0.0629952996969223, -0.04928434267640114, -0.10700751841068268, -0.1843278706073761, -0.06615927070379257, 0.00490966159850359, -0.01846885122358799, 0.011293245479464531, -0.11644122004508972, 0.02921334095299244, 0.089676134288311, 0.05565734952688217, -0.10548678040504456, -0.04606323316693306, -0.004668200388550758, 0.005011622793972492, -0.10367649048566818, -0.0621257908642292, 0.08204693347215652, 0.001003871439024806, 0.05235516279935837, -0.04828151315450668, 0.002122635254636407], [-0.0037221682723611593, 0.003731710370630026, -0.010816933587193489, -0.00013697495160158724, 0.0025427863001823425, 0.003190654097124934, -0.00162799924146384, -0.00038918672362342477, -0.0001476056786486879, 0.0004729135544039309, -0.04068366438150406, 0.002655507531017065, 0.00013185654825065285, -0.003652948420494795, 0.0023240905720740557, 0.001492963288910687, 0.0035670774523168802, 0.003270873799920082, 0.004215872846543789, 0.005338945891708136, 0.013433662243187428, -0.0020127170719206333, -0.0004472349537536502, -0.00017578934784978628, 0.00020370155107229948, 0.009633759967982769, -0.03940218314528465, 0.0019788111094385386, 0.0028671342879533768, 0.011701122857630253, -0.007184067275375128, 0.0005417443462647498, -0.0009723318507894874, 0.00192540162242949, 2.9947232178528793e-05, -0.00036284432280808687, -0.0005292464629746974, -0.0014749424299225211, 0.005450594704598188, 0.0008443332626484334], [-0.005078582093119621, 0.0008510975167155266, -0.07148432731628418, 0.0024107738863676786, 0.014821859076619148, -0.08831886202096939, 0.0553799532353878, -0.04177020117640495, 0.0005688855890184641, 0.0052304803393781185, 0.2556173503398895, 0.0018011779757216573, 0.0013464661315083504, 0.05066985636949539, 0.03135751932859421, 0.02364068105816841, -0.021440677344799042, 0.012788180261850357, -0.0016645124414935708, 0.0817800983786583, -0.04032478481531143, -0.009225825779139996, 0.00020191956718917936, -0.0469219870865345, 0.0008102172869257629, -0.011733711697161198, 0.23868821561336517, 0.01915905624628067, -0.04719742760062218, -0.042152684181928635, 0.03538116067647934, 0.0064717745408415794, -0.00015793305647093803, -0.02239278517663479, 0.048173315823078156, 0.0318601168692112, 0.006526106968522072, 0.034263137727975845, 0.017302384600043297, 0.017014238983392715], [-0.005651385057717562, 0.05138175189495087, 0.05911784619092941, 0.035307321697473526, -0.08651230484247208, -0.1236378625035286, -0.3557300269603729, 0.034702152013778687, -0.011633343994617462, 0.11461564153432846, -0.12310392409563065, 0.03471112623810768, 0.06155284866690636, -0.14785568416118622, -0.13744866847991943, -0.0017320581246167421, 0.02549654059112072, -0.0240060742944479, -0.054296206682920456, -0.3505859673023224, -0.27273160219192505, 0.016868572682142258, -0.0038698844145983458, 0.0663837119936943, 0.011360186152160168, -0.5916461944580078, -0.14491616189479828, -0.07552953064441681, 0.19943150877952576, -0.04674243554472923, -0.24512244760990143, -0.013258617371320724, 0.04859720170497894, -0.3695380389690399, 0.04280156269669533, -0.4092376232147217, -0.06607173383235931, 0.17244140803813934, -0.07309626787900925, 0.09000100940465927], [0.021430660039186478, 0.003495570505037904, 0.01615474559366703, 0.003051212290301919, 0.022358402609825134, 0.014632546342909336, 0.14162252843379974, -0.01016758382320404, 7.5295638453098945e-06, -0.05838193744421005, 0.41132524609565735, 0.020241763442754745, -0.02537049539387226, 0.09242067486047745, 0.009266814216971397, 0.03872447833418846, -0.01116959284991026, 0.01772058941423893, 0.005634589120745659, 0.09763535112142563, -0.07155277580022812, -0.025046199560165405, 0.0050504207611083984, -0.01688557304441929, 0.00506971450522542, 0.007273179944604635, 0.37229472398757935, 0.004515239503234625, 0.005994328763335943, -0.014341754838824272, 0.05226540565490723, 0.0009395243250764906, -0.008692561648786068, -0.026479406282305717, 0.021018844097852707, 0.0013149402802810073, -0.004195093642920256, -0.02179342694580555, 0.06063941866159439, 0.027075929567217827], [-0.013426615856587887, -0.063627690076828, 0.31162524223327637, 0.014962052926421165, 0.08544062077999115, 0.1376495063304901, -0.13769231736660004, -0.03395511209964752, -0.007585587911307812, -0.048410188406705856, 0.08070085197687149, 0.032323580235242844, -0.04736300930380821, -0.07145875692367554, 0.04539748281240463, -0.05698394402861595, -0.053926676511764526, -0.07133074849843979, 0.041016969829797745, -0.1844874620437622, -0.29902219772338867, 0.11199432611465454, -0.017205335199832916, -0.011554290540516376, 0.01058999728411436, -0.06386900693178177, 0.06421548128128052, -0.021358096972107887, -0.03254018723964691, -0.08798427879810333, 0.047424063086509705, -0.022770361974835396, 0.03228263556957245, -0.17994001507759094, 0.002991743851453066, -0.19654002785682678, -0.041806723922491074, 0.037540365010499954, 0.03763227537274361, 0.0039312345907092094], [-0.0036987646017223597, 0.025362646207213402, -0.04440605640411377, -0.000383019883884117, 0.016274549067020416, 0.008871573954820633, -0.008396835066378117, -0.00737403379753232, -0.000413556641433388, -0.0018270629225298762, -0.009098748676478863, -0.0033685890957713127, -0.014092779718339443, -0.0008640354499220848, 0.007740221917629242, 0.02964944951236248, -0.009821194224059582, -0.003811592934653163, -0.014356017112731934, 0.009810316376388073, 0.0510229617357254, 0.0034370459616184235, 9.788954048417509e-05, -0.007685634773224592, 0.00235280254855752, 0.040228504687547684, -0.009769830852746964, 0.0011255884310230613, 0.012577078305184841, 0.030209509655833244, -0.03317173942923546, 0.0020727200899273157, 0.0043809982016682625, 0.022545309737324715, -0.018848400563001633, 0.015732862055301666, -0.010362179949879646, 0.019209619611501694, 0.021974103525280952, 0.001260501448996365], [-0.024127429351210594, -0.0018577366136014462, -0.042425598949193954, -0.004499361850321293, -0.012364591471850872, -0.06957782059907913, 0.3035297989845276, -0.008245548233389854, 0.009447939693927765, -0.028631038963794708, 0.2036902755498886, 0.004699232988059521, 0.02287193201482296, 0.1295553743839264, 0.007525724824517965, 0.12125639617443085, -0.0404619500041008, -0.043844424188137054, 0.012601950205862522, 0.20971953868865967, 0.023711804300546646, -0.06037497892975807, 0.011366278864443302, -0.026765087619423866, -0.0032775241415947676, -0.09644746780395508, 0.20046831667423248, -0.01828421838581562, -0.05201520025730133, -0.14700724184513092, 0.13769100606441498, 0.0014743955107405782, -0.01750948093831539, 0.04595834016799927, 0.018631376326084137, 0.09801015257835388, 0.04582260176539421, -0.40878811478614807, -0.03322058543562889, -0.07077108323574066], [0.013408033177256584, 0.019772937521338463, 0.010903396643698215, 0.0004000479239039123, 0.040154535323381424, 0.07259013503789902, 0.11161521822214127, 0.0076939621940255165, -0.011436636559665203, -0.05174299329519272, 0.2547358572483063, 0.02400248497724533, -0.06545856595039368, 0.10971572250127792, 0.021382655948400497, 0.007863480597734451, 0.016129301860928535, 0.014187900349497795, -0.048878565430641174, 0.045736320316791534, 0.06312939524650574, -0.06997377425432205, -0.012162582948803902, 0.006304729264229536, 0.014011308550834656, -0.015658285468816757, 0.2347012162208557, -0.04688988998532295, -0.029322898015379906, -0.10688571631908417, 0.0740533396601677, 0.0024013202637434006, -0.03964117541909218, -0.019531408324837685, -0.05404723808169365, 0.06698279082775116, -0.015433660708367825, 0.02658100239932537, 0.08176395297050476, 0.005169197916984558], [-0.014429349452257156, 0.024619210511446, 0.05789051949977875, 0.0005019538220949471, -0.012538161128759384, 0.017582964152097702, -0.053529318422079086, 0.0075075505301356316, -0.0031868349760770798, 0.007191162556409836, -0.08201379328966141, 0.02851698361337185, -0.005405806005001068, -0.022717807441949844, 0.011431361548602581, 0.018893275409936905, -0.004460547585040331, -0.023876089602708817, 0.006890572141855955, -0.030990691855549812, 0.060558151453733444, -0.01743311621248722, -0.010230867192149162, -0.010258171707391739, -0.004465644713491201, -0.010681376792490482, -0.08379930257797241, 0.018158843740820885, 0.020478801801800728, 0.031237009912729263, 0.043621376156806946, 0.0016742730513215065, -0.005149506963789463, -0.058856528252363205, 0.0026972659397870302, -0.04488711804151535, 0.011614994145929813, 0.1420775055885315, -0.01934727281332016, 0.03979451581835747], [0.2560805380344391, -0.024453653022646904, 0.011974583379924297, -0.04493565112352371, 0.004907719790935516, 0.004919020924717188, 0.026524920016527176, -0.16269254684448242, -0.006752273999154568, 0.195891872048378, 0.01630934700369835, 0.07612776756286621, 0.028087181970477104, 0.008077295497059822, -0.04861454293131828, -0.005927336867898703, -0.5495424866676331, -0.022670963779091835, -0.05775536969304085, 0.017298029735684395, -0.014660099521279335, 0.09154800325632095, 0.00528013426810503, 0.9338293671607971, 0.020959099754691124, 0.04232638329267502, 0.011653321795165539, 0.2582395374774933, 0.030082380399107933, 0.05161613970994949, -0.006394976284354925, -0.062282346189022064, -0.043332189321517944, -0.05203492194414139, 0.08843117952346802, 0.05918781831860542, 0.03924134746193886, 0.016147013753652573, 0.2958284914493561, -0.2511312663555145], [0.09322992712259293, -0.15052121877670288, -0.021833766251802444, -0.03645395115017891, 0.05288355052471161, -0.0441378578543663, -0.04783187061548233, -0.3273739814758301, 0.08806084096431732, 0.19714002311229706, -0.007836583070456982, 0.35693690180778503, -0.7330055236816406, 0.08682576566934586, -0.0741836205124855, 0.226064994931221, -0.026628628373146057, -0.06504499167203903, 0.13359539210796356, -0.11410201340913773, -0.06634189188480377, -0.08192763477563858, 0.1553409993648529, 0.03549518808722496, -0.06043475493788719, 0.012622885406017303, -0.045546695590019226, -0.19216157495975494, -0.03162568807601929, 0.05126657336950302, 0.07718857377767563, 0.14521609246730804, 0.47776633501052856, 0.05326831713318825, 0.01751301810145378, -0.09889383614063263, -0.06324713677167892, 0.10173915326595306, -0.12765845656394958, 0.3056836426258087], [-0.01415450219064951, 0.0024741594679653645, 0.4590374827384949, 0.005060997325927019, 0.013414612039923668, 0.26772820949554443, 0.12460129708051682, 0.02597426436841488, 0.02324054017663002, -0.02443738654255867, -0.057185690850019455, 0.009336648508906364, 0.018189020454883575, -0.0353858508169651, -0.09720245003700256, 0.09534437954425812, -0.012287251651287079, 0.00035706788185052574, 0.04325714707374573, -0.05994550883769989, -0.18143406510353088, -0.05025830864906311, 0.04310723394155502, -0.001984325470402837, 0.012137181125581264, -0.0559081993997097, -0.022186122834682465, -0.006845895666629076, 0.052943095564842224, 0.015591412782669067, 0.2921901345252991, -0.005930603947490454, 0.05531680956482887, -0.05872393399477005, 0.05518129840493202, -0.31110066175460815, 0.08289115130901337, 0.08175025880336761, -0.05890742316842079, -0.03772805631160736], [-0.025402653962373734, -0.06449010968208313, -0.06539531797170639, -0.019224338233470917, 0.08837062865495682, 0.0301279928535223, -0.011001944541931152, 0.07969821989536285, 0.05987292900681496, 0.04441012442111969, -0.0017597309779375792, -0.11830170452594757, 0.017513755708932877, 0.0026533682830631733, -0.06864476948976517, -0.020014295354485512, -0.003447990631684661, -0.010271386243402958, -0.000835202110465616, -0.014650044962763786, 0.009625333361327648, -0.03093900717794895, 0.07643233239650726, 0.029553771018981934, -0.06664430350065231, -0.09361034631729126, 0.00019785256881732494, 0.026397045701742172, 0.005896702408790588, -0.022741353139281273, -0.010177498683333397, -0.005141489673405886, -0.07824940234422684, -0.000757433008402586, 0.028047172352671623, -0.03298298642039299, 0.0026931618340313435, 0.0007449527620337903, 0.035071197897195816, 0.04737844318151474], [-0.03765434771776199, 0.21604354679584503, 0.14821630716323853, -0.052758969366550446, -0.011793148703873158, -0.16172142326831818, 0.2332557886838913, -0.38523879647254944, 0.16945578157901764, 0.1573217213153839, -0.027590934187173843, 0.31978869438171387, 0.5166424512863159, -0.07286516577005386, 0.07233192026615143, -0.43434274196624756, -0.09352268278598785, -0.020423918962478638, 0.16210158169269562, 0.09542292356491089, 0.026600738987326622, 0.0006135880248621106, 0.21329262852668762, -0.016071556136012077, -0.1969364881515503, 0.06512369960546494, -0.033059705048799515, -0.37132441997528076, -0.02372683212161064, 0.03662819042801857, 0.1258789449930191, 0.06669455021619797, 0.11001858860254288, 0.0018366625299677253, 0.04303125664591789, -0.1270822435617447, -0.025984860956668854, 0.05221153795719147, -0.22247125208377838, 0.26972058415412903], [-0.021919291466474533, 0.028601378202438354, -0.07693860679864883, -0.0009704465628601611, 0.03992248326539993, 0.3310643434524536, -0.4710010290145874, 0.014648454263806343, 0.014170918613672256, -0.09272807091474533, 0.011041139252483845, 0.04126886650919914, 0.006747910752892494, 0.06771261990070343, -0.024210477247834206, -0.19218695163726807, -0.07856618613004684, -0.129787877202034, -0.06017521023750305, 0.12564043700695038, 0.024573184549808502, -0.12205752730369568, 0.026000913232564926, -0.06936859339475632, 0.0028998309280723333, 0.356538861989975, -0.03739641234278679, 0.04375099390745163, 0.03095007874071598, -0.025954198092222214, -0.14008639752864838, 0.013090190477669239, 0.024250702932476997, -0.2984016239643097, -0.05398591235280037, 0.2415538728237152, -0.03486891835927963, 0.08183535188436508, 0.08573906123638153, 0.028229767456650734], [-0.02143888734281063, -0.03588560223579407, -0.30374234914779663, -0.011468162760138512, -0.013696626760065556, 0.20471204817295074, 0.16828256845474243, 0.05411886051297188, 0.029635261744260788, -0.07894277572631836, 0.15674841403961182, 0.10202515870332718, 0.006520815659314394, -0.08612354844808578, -0.041209470480680466, -0.39489999413490295, -0.017015615478157997, 0.3440253734588623, -0.11620704084634781, -0.17566746473312378, 0.10044614970684052, -0.1346842646598816, 0.0482172928750515, 0.012083080597221851, 0.016134290024638176, 0.3930075466632843, -0.009506349451839924, -0.022757571190595627, 0.03726606070995331, -0.12351065874099731, 0.4936237931251526, -0.025305548682808876, 0.11809492111206055, -0.0715971440076828, 0.012990076094865799, -0.4556482434272766, -0.06266430765390396, -0.21054589748382568, 0.09484930336475372, -0.1672157645225525], [0.5911478400230408, 0.15679655969142914, -0.0030917017720639706, 0.043991658836603165, 0.12580803036689758, -0.09388173371553421, 0.03362671658396721, 0.21531519293785095, 0.04578123614192009, -0.25631844997406006, -0.010436542332172394, -0.09995625913143158, 0.3394576609134674, -0.03992776200175285, 0.1115381196141243, -0.13734562695026398, 0.24218714237213135, 0.008457121439278126, -0.03214775025844574, -0.05058636888861656, 0.052631575614213943, -0.12153682857751846, 0.0335184670984745, -0.08857586979866028, -0.06802815198898315, -0.10903257876634598, -0.0038158355746418238, -0.017882807180285454, -0.03187572583556175, -0.11550477147102356, 0.09883202612400055, 0.06412038207054138, 0.10978182405233383, 0.07802409678697586, -0.17302820086479187, -0.15833328664302826, -0.09815036505460739, -7.435840961989015e-05, -0.3652920424938202, 0.5605831742286682], [0.02194465696811676, 0.08963881433010101, 0.04448680579662323, -0.02006998285651207, -0.01457968633621931, 0.014685488305985928, -0.019523050636053085, -0.04480622336268425, -0.028896844014525414, -0.0601780042052269, 0.0013622855767607689, 0.27990004420280457, 0.0891551598906517, -0.030942073091864586, -0.0156844612210989, 0.008908574469387531, 0.019009597599506378, -0.020905401557683945, -0.006517837755382061, 0.028056714683771133, 0.08380483090877533, -0.0189763642847538, -0.03156837448477745, -0.034673698246479034, 0.036158476024866104, 0.009249560534954071, -0.0020169871859252453, -0.023584801703691483, 0.02146172896027565, -0.01852765865623951, -0.015223386697471142, -0.012821813113987446, -0.05526838079094887, 0.018758190795779228, -0.02677680365741253, 0.023175446316599846, 0.05373093858361244, -0.003775455290451646, -0.15666338801383972, -0.01345070730894804], [-0.1591133028268814, 0.04588044062256813, -0.08891141414642334, 0.08532863110303879, 0.22593866288661957, -0.062130965292453766, 0.007865597493946552, 0.19359537959098816, -0.0582350417971611, 0.08473421633243561, -0.07415645569562912, 0.4492076337337494, 0.09007108211517334, 0.12572115659713745, -0.16678392887115479, 0.25726771354675293, -0.18925727903842926, 0.059799931943416595, 0.08409520238637924, 0.08016416430473328, -0.10362440347671509, 0.1713656485080719, -0.06816044449806213, 0.09648895263671875, 0.05821254849433899, -0.18716897070407867, -0.05923399329185486, -0.07260751724243164, -0.0013641257537528872, -0.1569902002811432, -0.009600264020264149, 0.040597252547740936, 0.15718360245227814, -0.06640476733446121, 0.29534563422203064, 0.0223649013787508, -0.0806121751666069, -0.02791488543152809, 0.3866266906261444, 0.039140768349170685], [0.00266310409642756, -0.004056022502481937, 0.01694400981068611, -0.00041510676965117455, -0.0006882976158522069, 0.00047972204629331827, 0.03805046156048775, -0.002891388488933444, 0.0014166409382596612, -0.010682704858481884, 0.23074226081371307, 0.003929728176444769, -0.007017277646809816, 0.05287126824259758, 0.003717748448252678, 0.010150100104510784, 0.0019300017738714814, 0.013706786558032036, 0.0001241500722244382, 0.032628241926431656, -0.058318130671978, 0.000765878357924521, 0.0012909462675452232, 0.0023183729499578476, 0.0006243942189030349, -0.03849191591143608, 0.22412003576755524, -0.0022694901563227177, -0.05188186839222908, -0.07194230705499649, 0.032994043081998825, 0.002364952117204666, -0.00731750950217247, 0.004137385170906782, 0.00017685322382021695, 0.030754532665014267, 0.004714042413979769, -0.028462233021855354, 0.006896725855767727, 0.006517126224935055], [-0.15049651265144348, 0.2728130519390106, -0.04447813332080841, -0.06513020396232605, -0.30506619811058044, 0.17815132439136505, -0.006324599497020245, 0.20371560752391815, -0.06056617200374603, -0.1863897740840912, 0.01181658823043108, 0.175602987408638, 0.009630070067942142, -0.16753637790679932, 0.5194722414016724, -0.08409386873245239, -0.08094026893377304, -0.030900882557034492, -0.035762038081884384, -0.019757524132728577, 0.06390011310577393, -0.14248445630073547, -0.13400383293628693, 0.04394019767642021, 0.07738098502159119, -0.07145917415618896, 0.014183561317622662, -0.05483608692884445, -0.010847154073417187, -0.10113341361284256, -0.1259261965751648, -0.08768726140260696, 0.7504470944404602, 0.026220422238111496, 0.11584565043449402, 0.04505709186196327, 0.17963621020317078, -0.00283154658973217, 0.05466889590024948, -0.2868908941745758], [0.11212585866451263, 0.17307542264461517, -0.10938003659248352, -0.02538672648370266, -0.3088802099227905, -0.00994787085801363, -0.04166533425450325, -0.8321513533592224, 0.02361021190881729, -0.20544546842575073, 0.007891277782619, -0.13420844078063965, 0.13839028775691986, -0.006309986114501953, 0.11102291941642761, 0.07981527596712112, 0.007518864702433348, -0.05877579003572464, 0.006230679806321859, -0.11877451837062836, -0.013459533452987671, -0.18407605588436127, 0.01388747151941061, 0.09863056987524033, -0.02154434844851494, -0.17881034314632416, -0.0019746189936995506, -0.1733846515417099, 0.01628415659070015, -0.13221612572669983, -0.007169975433498621, 0.002283149166032672, -0.19797375798225403, 0.07998103648424149, 0.024448400363326073, -0.10275963693857193, -0.00971054658293724, 0.0752609372138977, -0.038547903299331665, -0.037648074328899384], [-0.04267740994691849, 0.1864059418439865, -0.029017867520451546, -0.014703404158353806, -0.015017790719866753, 0.18198157846927643, -0.0657518282532692, 0.07869138568639755, 0.023654382675886154, 0.025852929800748825, 0.10384614765644073, 0.007846210151910782, -0.06665296852588654, 0.30171123147010803, 0.0370827279984951, 0.024001499637961388, -0.02973121404647827, -0.07298223674297333, -0.5181320905685425, -0.04270942509174347, 0.05745599418878555, -0.03838788717985153, 0.010561663657426834, 0.025513770058751106, -0.03538820520043373, 0.030421258881688118, 0.11435471475124359, -0.17124399542808533, 0.17675691843032837, 0.11392322182655334, -0.08642231673002243, -0.020556094124913216, -0.011470193043351173, 0.007597589865326881, 0.0485466904938221, 0.07446634769439697, 0.0252386424690485, 0.24950502812862396, -0.0512184202671051, -0.024464750662446022], [0.08973768353462219, -0.09161800891160965, -0.026566294953227043, -0.1344606727361679, -0.13110068440437317, -0.05365313962101936, -0.04849272593855858, -0.033336419612169266, 0.05475263670086861, -0.043028127402067184, 0.04481262341141701, -0.45620399713516235, 0.04113110154867172, -0.037984687834978104, 0.05789085850119591, -0.2613547146320343, 0.011856731958687305, -0.1100882887840271, -0.019306998699903488, 0.19035622477531433, -0.09375672787427902, -0.12572342157363892, 0.030233332887291908, 0.0016564776888117194, -0.050349071621894836, 0.2167993038892746, 0.05718317627906799, -0.0259432103484869, 0.002341208513826132, 0.3020176291465759, 0.05237105116248131, -0.034157998859882355, 0.37060606479644775, 0.08292045444250107, 0.04455355182290077, -0.14952975511550903, 0.1628512740135193, -0.13409234583377838, 0.04984145984053612, 0.04530743882060051], [-0.04503948986530304, -0.13286340236663818, 0.039894308894872665, 0.024585379287600517, 0.415012389421463, -0.348626047372818, 0.6184414029121399, 0.288796603679657, 0.07709762454032898, -0.24042396247386932, 0.03647477552294731, 0.027449626475572586, 0.06455156952142715, -0.07850617170333862, 0.21102559566497803, -0.03253750875592232, 0.0657670721411705, -0.015761271119117737, 0.15512585639953613, -0.17488348484039307, -0.2672918736934662, -0.029680708423256874, 0.10882393270730972, -0.0046774884685873985, -0.06596024334430695, 0.06095775216817856, -0.0038798863533884287, 0.039959926158189774, 0.06916938722133636, 0.006985969375818968, 0.031897760927677155, -0.08158539980649948, -0.20244261622428894, -0.14666402339935303, -0.007866905070841312, -0.3889065384864807, -0.055210717022418976, 0.37724998593330383, -0.1106170266866684, -1.0738275051116943], [0.4567744731903076, 0.057766739279031754, -0.016177715733647346, -0.03186700493097305, 0.052915386855602264, 0.045295633375644684, 0.0016418491723015904, -0.14171375334262848, 0.020045747980475426, 0.21251285076141357, 0.027247749269008636, 0.003945556934922934, 0.055775728076696396, 0.026115477085113525, 0.046162765473127365, -0.005154844839125872, 0.27464866638183594, 0.0805770754814148, -0.0595683827996254, 0.016788601875305176, 0.0016433758428320289, 0.05237464979290962, 0.01919848658144474, -0.13444101810455322, -0.026354802772402763, 0.01084327045828104, 0.030339766293764114, 0.38575536012649536, -0.023356055840849876, 0.028030188754200935, -0.023157436400651932, -0.012428397312760353, 0.032513368874788284, -0.02161729522049427, 0.7452870011329651, 0.03851412236690521, 0.019749466329813004, -3.422128429519944e-05, 0.26396816968917847, -0.20071850717067719], [-0.02524442784488201, -0.17351749539375305, -0.11217962950468063, 0.009840094484388828, -0.023747894912958145, -0.09784805029630661, -0.09873316437005997, -0.0006646637921221554, 0.0036023950669914484, -0.13182520866394043, -0.002733268542215228, 0.1896878033876419, 0.06601494550704956, 0.005314908921718597, 0.031986303627491, 0.13290628790855408, -0.08159030228853226, 0.46301406621932983, -0.04300488904118538, -0.09806566685438156, 0.014310299418866634, -0.6837038993835449, -0.004523733165115118, -0.10693781077861786, 0.09604471921920776, -0.042149048298597336, -0.07406150549650192, 0.1756264716386795, 0.025852616876363754, -0.19947098195552826, 0.12275148183107376, -0.02188514918088913, 0.03652767091989517, -0.42173075675964355, -0.04953674599528313, -0.16258731484413147, 0.07093104720115662, -0.1522374153137207, 0.11062250286340714, 0.000337214267347008], [0.14502762258052826, -0.5334224700927734, 0.10925128310918808, -0.013856058940291405, -0.6286956667900085, -0.13179311156272888, 0.2241101711988449, 0.06327909976243973, 0.0170915424823761, -0.3072066307067871, 0.10173814743757248, 0.21560055017471313, 0.16955052316188812, -0.0728362575173378, 0.08435717225074768, 0.026894185692071915, 0.31965920329093933, -0.008124709129333496, 0.2995055019855499, -0.07571659237146378, -0.04028502479195595, 0.19116215407848358, 0.027575338259339333, 0.1708172708749771, -0.019928336143493652, -0.013666393235325813, -0.13701142370700836, 0.5958089828491211, -0.036459680646657944, 0.06136348843574524, 0.0730689987540245, 0.005725533701479435, -0.052132319658994675, 0.014934780076146126, 0.05539492145180702, -0.0646614283323288, 0.11056514829397202, 0.1396557092666626, -0.023811331018805504, 0.1715126931667328], [-0.019953729584813118, 0.028424914926290512, -0.0034228034783154726, 0.014086790382862091, -0.09281681478023529, -0.07870963960886002, 0.08047941327095032, -0.09821712970733643, -0.008741808123886585, -0.0012264278484508395, 0.0638694316148758, 0.07441020011901855, -0.0018875524401664734, -0.026995938271284103, 0.0576135590672493, 0.24710392951965332, -0.0544094443321228, -0.074286550283432, 0.14135847985744476, 0.13356450200080872, 0.049623217433691025, -0.1275404840707779, -0.022009387612342834, -0.05216730013489723, 0.011779787950217724, 0.3029704988002777, 0.0668087750673294, 0.06671249121427536, -0.015316375531256199, 0.16671916842460632, -0.26178547739982605, 0.01059034839272499, 0.02594851888716221, 0.10854581743478775, -0.026763729751110077, 0.049490369856357574, -0.010268431156873703, -0.12407175451517105, 0.05800850689411163, 0.16372309625148773], [-0.026575936004519463, 0.2193303108215332, 0.11206994205713272, 0.030402202159166336, -0.23141786456108093, -0.051641568541526794, 0.28852811455726624, -0.057762958109378815, 0.08103726804256439, -0.02245045267045498, -0.12906137108802795, -0.03574424237012863, 0.14627709984779358, 0.09350211173295975, -0.356953889131546, 0.42230045795440674, -0.09057465195655823, 0.006758158560842276, 0.080018550157547, 0.15474747121334076, 0.28578633069992065, -0.5188243389129639, 0.1797100454568863, -0.01254901010543108, -0.047320589423179626, -0.01165298093110323, -0.003935687709599733, 0.06865721940994263, -0.0206128042191267, -0.09096438437700272, -0.3231717646121979, 0.07857026159763336, 0.16568030416965485, 0.7105401754379272, 0.025358816608786583, 0.28375008702278137, 0.09814838320016861, 0.2939310073852539, 0.03198385611176491, 0.6548852920532227], [-0.04522734135389328, 0.061471983790397644, 0.015201394446194172, 0.07441119849681854, -0.1221039816737175, 0.11003633588552475, 0.2433672696352005, 0.014722497202455997, -0.03739098832011223, 0.1910913586616516, 0.07315158098936081, 0.005039766430854797, 0.13284572958946228, 0.02944844216108322, -0.07581043988466263, -0.08825302124023438, -0.04473355412483215, 0.339822918176651, -0.10137732326984406, -0.0017742407508194447, -0.16982531547546387, 0.17167219519615173, -0.06375850737094879, -0.03514743596315384, 0.03410637378692627, 0.20035463571548462, 0.02807009406387806, 0.060070428997278214, -0.027833953499794006, 0.06271716207265854, -0.3178257942199707, 0.0432388000190258, 0.006386434193700552, 0.7846435308456421, -0.11928869783878326, 0.09742026776075363, -0.04093412309885025, 0.2623906135559082, 0.23418588936328888, 0.22966906428337097], [0.025950852781534195, 0.1131264790892601, 0.07473473250865936, -0.03177908807992935, -0.007172012235969305, 0.024916039779782295, -0.02323834039270878, -0.03665851801633835, -0.02587081678211689, -0.03889968991279602, 0.002760151633992791, 0.3807868957519531, 0.09346415102481842, -0.053455740213394165, -0.0729876160621643, 0.022211449220776558, 0.021407628431916237, -0.02726704254746437, 0.003754837205633521, 0.0012203503865748644, 0.1723400056362152, -0.0394383929669857, -0.02129332721233368, -0.03921183571219444, 0.039417676627635956, -0.01244786474853754, 0.00010544796532485634, -0.017592187970876694, 0.023400966078042984, -0.02809927612543106, -0.01247930433601141, -0.028222830966114998, -0.06665439903736115, 0.011939012445509434, -0.03708954527974129, 0.056407954543828964, 0.08312784880399704, 0.02805916965007782, -0.21127918362617493, -0.03354513272643089], [-0.859117329120636, -0.07663232833147049, -0.023856112733483315, 0.044056642800569534, 0.1724747121334076, 0.06242743507027626, -0.07240675389766693, 0.10742726176977158, -0.03131560981273651, -0.23324237763881683, 0.03276786580681801, -0.0149665093049407, -0.07929187268018723, 0.03483172133564949, -0.02158511057496071, 0.1258271336555481, 0.35786113142967224, 0.14932812750339508, -0.07435586303472519, -0.0010144924744963646, -0.01232960820198059, 0.03787105903029442, -0.03944509103894234, 0.3945397734642029, 0.02776818722486496, 0.0015003872103989124, -0.01517964992672205, 0.1404053419828415, -0.017219435423612595, 0.0016221173573285341, -0.03730735182762146, 0.041122037917375565, -0.05033741891384125, 0.005722633562982082, -0.23613300919532776, 0.023189807310700417, -0.04989175871014595, -0.019637906923890114, -0.33610934019088745, 0.013430992141366005], [-0.01602991297841072, -0.09705495834350586, -0.014674429781734943, 0.028364943340420723, 0.0042316303588449955, 0.010328378528356552, 0.008571119047701359, 0.036795224994421005, 0.0167500339448452, 0.04886775463819504, 0.031798578798770905, -0.28694042563438416, -0.08666284382343292, 0.0165722593665123, 0.04100140556693077, -0.026036540046334267, -0.019065385684370995, 0.01071750558912754, 0.00654582167044282, -0.06204994022846222, -0.008193490095436573, -0.0017792020225897431, 0.016305802389979362, 0.029582077637314796, -0.03020874410867691, -0.018305344507098198, 0.011763589456677437, 0.02372869849205017, -0.020933963358402252, -0.0008006230928003788, 