{"model_data": {"model": "SimpleRNN", "input_size": 2, "skip": 1, "output_size": 1, "unit_type": "LSTM", "num_layers": 1, "hidden_size": 40, "bias_fl": true}, "state_dict": {"rec.weight_ih_l0": [[-0.026062240824103355, 0.09558054804801941], [0.04944874718785286, -0.09749305248260498], [-0.00025775335961952806, 0.009856331162154675], [-0.2024468630552292, -0.9423639178276062], [0.0005798842175863683, 0.0018369009485468268], [0.0003421141009312123, 0.002007452305406332], [-0.0016669469187036157, 0.011322170495986938], [-0.0004908503033220768, 0.010303270071744919], [-0.015403877012431622, 0.15332426130771637], [-0.0015615131705999374, 0.011941957287490368], [0.0001416211889591068, 0.003868605475872755], [0.023491060361266136, 0.11991840600967407], [0.0007045726524665952, 0.002141994656994939], [0.044015903025865555, 0.20485840737819672], [0.06764094531536102, 0.05939081311225891], [-0.065048947930336, 0.07490276545286179], [0.00033825248829089105, 0.0020150598138570786], [0.0003401304129511118, 0.0017749292310327291], [-0.011370139196515083, -0.25190025568008423], [1.6829664673423395e-05, 0.0014309859834611416], [0.024976011365652084, 0.35087448358535767], [0.0001938900095410645, 0.0016942084766924381], [-0.0014707274967804551, 0.012276507914066315], [-0.010321145877242088, 0.38939958810806274], [-0.0006675454205833375, 0.011950602754950523], [0.0011580748250707984, 0.36616259813308716], [-0.012388375587761402, 0.1496189683675766], [-0.00180612422991544, 0.009413591586053371], [-0.24019403755664825, -0.15995323657989502], [-0.001774987787939608, 0.010186749510467052], [-0.001472114585340023, 0.004107332322746515], [-0.0007509774877689779, 0.0012371597113087773], [0.0017624995671212673, 0.2431083619594574], [0.038371358066797256, 0.3665616810321808], [0.0010899404296651483, 0.0010739676654338837], [0.027412105351686478, 0.21061664819717407], [-0.024129707366228104, 0.10171350091695786], [-0.00046230736188590527, 0.013453558087348938], [0.0002970837231259793, 0.0018175785662606359], [0.006835232023149729, -0.8234020471572876], [-0.00861943420022726, 0.2962157130241394], [0.056096188724040985, 0.5506322979927063], [-0.0006586140370927751, 0.008501497097313404], [0.02797546610236168, 0.056472357362508774], [0.0003420569992158562, 0.0016660905675962567], [0.00021868987823836505, 0.001913274172693491], [-0.0017862990498542786, 0.012891000136733055], [-0.0009188620606437325, 0.008656773716211319], [-0.07542834430932999, 0.20453806221485138], [-0.0016228457679972053, 0.013433439657092094], [-0.0006059344159439206, 0.00423010578379035], [-0.1063990443944931, 0.19158732891082764], [0.0007208700990304351, 0.002277091611176729], [0.04279724881052971, -0.043306075036525726], [0.009406514465808868, 0.09065185487270355], [-0.023579414933919907, -0.17446167767047882], [0.00018565604113973677, 0.0018679203931242228], [4.438829637365416e-05, 0.0014316950691863894], [0.06006471812725067, 0.24399393796920776], [-0.0002243982016807422, 0.0010443551000207663], [-0.2180551439523697, 0.45346131920814514], [1.5335859643528238e-05, 0.0014602405717596412], [-0.001491933478973806, 0.013393422588706017], [-0.06431234627962112, 0.1552223414182663], [-0.0009554116404615343, 0.011042876169085503], [-0.014919348992407322, 0.17184703052043915], [-0.02319817617535591, 0.0194564126431942], [-0.0019376997370272875, 0.010706959292292595], [0.02524474263191223, 0.24944737553596497], [-0.0018868223996832967, 0.011587603017687798], [-0.0016553207533434033, 0.004216804169118404], [-0.001021637232042849, 0.000686544575728476], [0.02062796615064144, -0.06693141907453537], [0.13632158935070038, -0.15395425260066986], [0.0010547555284574628, 0.0011857012286782265], [0.10669773072004318, -0.21639935672283173], [-0.037380658090114594, 0.18445907533168793], [-0.0007617369992658496, 0.012808145955204964], [0.00014941849804017693, 0.001661037327721715], [0.09870178997516632, 0.9295300245285034], [-0.24578148126602173, 0.17277352511882782], [0.19034557044506073, -0.15712189674377441], [-0.020805297419428825, -0.04767152667045593], [0.5131658911705017, 0.009704218246042728], [0.0074235303327441216, -0.020023994147777557], [-0.0071888454258441925, 0.02008822374045849], [0.0066743032075464725, 0.034410443156957626], [-0.01944832131266594, -0.051920708268880844], [-0.13100500404834747, 0.20332683622837067], [-0.00687519833445549, -0.04019905999302864], [-0.002024248940870166, -0.0020953952334821224], [0.3555200397968292, 0.08971770107746124], [0.009291724301874638, -0.01728196255862713], [0.2660508155822754, 0.09883860498666763], [0.0002897820377256721, -0.5017966032028198], [0.33983147144317627, 0.05686703696846962], [0.0068062967620790005, -0.02085014618933201], [0.005421784706413746, -0.02228996343910694], [-0.14591312408447266, 0.04497486352920532], [0.0056408983655273914, -0.020322280004620552], [0.7303774356842041, 0.09042372554540634], [-0.006473482586443424, 0.02032594382762909], [0.007028871215879917, 0.048279840499162674], [-1.761661410331726, 0.0627686008810997], [-0.016015129163861275, -0.05498487502336502], [-0.39931389689445496, 0.20057687163352966], [-0.021042777225375175, 0.25150978565216064], [-0.005619160830974579, -0.027633920311927795], [0.5471025109291077, 0.16957780718803406], [-0.005697949789464474, -0.031121771782636642], [-0.004849097225815058, -0.007213841658085585], [-0.0048344191163778305, 0.009758351370692253], [0.021947678178548813, -0.0037547533866018057], [-0.5410665273666382, -0.0819602683186531], [-0.012730914168059826, 0.016002515330910683], [0.10849692672491074, -0.42440855503082275], [0.13669981062412262, 0.3849782347679138], [0.01733633689582348, 0.055681224912405014], [0.007152209524065256, -0.02001441828906536], [-0.17655400931835175, 0.040339238941669464], [-0.0997803583741188, 0.1122794970870018], [0.31473955512046814, 0.25107306241989136], [0.002596830017864704, 0.010210578329861164], [-0.03364349901676178, 0.004509406629949808], [0.0004090816655661911, 0.001838279189541936], [0.00037771958159282804, 0.0020150295458734035], [0.0016849470557644963, 0.011986651457846165], [0.0026627937331795692, 0.010581218637526035], [-0.031446024775505066, 0.17019125819206238], [0.002020749496296048, 0.012623264454305172], [-0.00026703791809268296, 0.0038812782149761915], [0.020331300795078278, 0.3090205788612366], [0.0006771241896785796, 0.0021399238612502813], [0.16055461764335632, 0.16978926956653595], [0.18361346423625946, 0.18589098751544952], [-0.16418850421905518, 0.011776827275753021], [0.000335503340465948, 0.002022244967520237], [0.0002105532621499151, 0.0017841948429122567], [-0.1290072798728943, 0.0649247094988823], [9.355250222142786e-05, 0.001452658441849053], [-0.07036794722080231, 0.24675282835960388], [0.00025363752502016723, 0.0017078376840800047], [0.0022589429281651974, 0.012891596183180809], [-0.055591925978660583, 0.3864908516407013], [0.0029456126503646374, 0.012345868162810802], [0.06711629778146744, 0.18068471550941467], [-0.045374415814876556, 0.16128632426261902], [0.001164149260148406, 0.00996484700590372], [0.03362206369638443, 0.1290552169084549], [0.001408000593073666, 0.01079088170081377], [0.0002938335237558931, 0.004371892660856247], [-4.334531331551261e-05, 0.0013500283239409328], [-0.01114246528595686, 0.10888100415468216], [0.07268288731575012, 0.3683875799179077], [0.0009664073586463928, 0.0010772192617878318], [0.057006366550922394, 0.20667673647403717], [-0.04042008891701698, 0.25569093227386475], [0.0035326562356203794, 0.01398837473243475], [0.0003540836041793227, 0.0018284511752426624], [0.13629449903964996, 0.1937784105539322]], "rec.weight_hh_l0": [[-0.023467905819416046, -0.019986499100923538, -0.010864312760531902, 0.009096270427107811, -0.0003163178625982255, -0.0006666355766355991, 0.01813550293445587, -0.012410547584295273, -0.007689451798796654, -0.018237268552184105, -2.0487637812038884e-05, -0.09380558133125305, 0.00019240021356381476, 0.011061620898544788, -0.04709671065211296, 0.025588147342205048, 0.0005398939829319715, 0.00019212038023397326, -0.0017427087295800447, 0.0009350531618110836, 0.01915663294494152, -0.0008061777334660292, 0.017859555780887604, 0.003694282379001379, -0.015057115815579891, -0.09292413294315338, 0.02223639190196991, -0.016785621643066406, -0.10663706064224243, -0.01717609353363514, -0.010592647828161716, -0.004714898765087128, -0.047746069729328156, 0.004097928758710623, -0.00017474417109042406, -0.018789559602737427, 0.018843308091163635, 0.01607302576303482, 0.0007667814497835934, -0.05260182544589043], [-0.049842365086078644, -0.0073379529640078545, -0.015348155982792377, 0.0006347476155497134, -0.0032529481686651707, -0.00013288066838867962, 0.007299839984625578, -0.00963520910590887, 0.04499603062868118, -0.005299844779074192, -0.011586285196244717, 0.5435783863067627, -0.0010260518174618483, -0.25931715965270996, -0.03756793215870857, -0.08710981160402298, -0.00014536813250742853, -0.0037585159298032522, 0.04187976196408272, 0.0010196015937253833, 0.06469590961933136, 4.779815299116308e-06, 0.0028123478405177593, -0.07029363512992859, -0.00546762952581048, 0.3687732219696045, -0.15670888125896454, -0.007919942028820515, 0.0148463761433959, -0.005667644087225199, -0.00895401369780302, -0.007777933496981859, 0.02534111961722374, 0.019878096878528595, 0.014032701961696148, -0.3036941885948181, -0.1360357105731964, 0.007449371740221977, -0.0002887020236812532, 0.09585586190223694], [0.0018225887324661016, 3.2686035410733894e-05, -0.003219744423404336, 0.0015935348346829414, 0.0002669366367626935, -0.00045929395128041506, 0.004051976837217808, -0.003236710326746106, -0.005744670517742634, -0.0041245222091674805, 1.8446202375344e-05, -0.015157519839704037, 0.00028645485872402787, 0.006070002913475037, -0.006838838569819927, -0.005373117979615927, 0.0004338195431046188, 0.0003642535593826324, 0.0017161649884656072, 0.0005942620919086039, 0.0013897510943934321, -0.000522528775036335, 0.004090507980436087, 0.005635920446366072, -0.0036545724142342806, -0.0005893588531762362, 0.004870859440416098, -0.003751125419512391, -0.006535390857607126, -0.0038731314707547426, -0.00262135430239141, -0.0014750733971595764, 0.004583665169775486, -0.0003381569986231625, -0.00017945212312042713, -0.008693419396877289, 0.007608909625560045, 0.003960100933909416, 0.0004990887828171253, 0.005009775049984455], [-0.028375213965773582, 0.1722419559955597, -0.003600153373554349, -0.1408776491880417, 0.009775812737643719, -0.010906591080129147, 0.006028676405549049, 0.0015530691016465425, -0.3875260651111603, -0.003936132416129112, 0.000987188657745719, 0.11093033850193024, 0.009248092770576477, 0.0871659517288208, 0.4538195729255676, -0.08963046967983246, 0.010895727202296257, 0.010591793805360794, -0.09520573168992996, 0.01157584972679615, 0.0658295601606369, -0.011213010177016258, 0.0006833138759247959, 0.08315996080636978, 0.0027233166620135307, 0.011682989075779915, -0.15671588480472565, -0.00710464408621192, -0.16360922157764435, -0.006171130575239658, -0.010495889000594616, -0.012380382977426052, -0.07225582748651505, 0.20656093955039978, -0.007536573335528374, -0.011853253468871117, -0.30477067828178406, -0.0002103992592310533, 0.011048777028918266, 0.03566604480147362], [9.123184281634167e-05, 0.0006413627997972071, -0.0002954193623736501, 0.0004942096420563757, 1.6002764823497273e-05, -1.7935784853762016e-05, 0.0003781318664550781, -0.0002936306700576097, -0.0007373790140263736, -0.0003895517729688436, -5.39116217623814e-06, -0.0013559052022174, 1.9114399037789553e-05, 0.0006019054562784731, -0.00019007081573363394, -3.347363599459641e-05, 1.538499964226503e-05, 1.2141830666223541e-05, 0.00021808684687130153, 2.0386491087265313e-05, 0.0005821718950755894, -1.9068149413214996e-05, 0.000390338187571615, -0.0002664817147888243, -0.00034000081359408796, -0.000702926772646606, 0.0005101094720885158, -0.0003420977736823261, -7.171310426201671e-05, -0.00035769541864283383, -0.00021486003242898732, -9.58239397732541e-05, -0.0005376575281843543, -0.0002625966153573245, -3.018185088876635e-05, -0.00046951533295214176, 0.0016143968096002936, 0.00037441746098920703, 1.972254722204525e-05, 0.0003530154062900692], [0.0001386496442137286, 0.0003044350305572152, -0.000381281046429649, 0.00032190425554290414, 1.768394031387288e-05, -1.9916680685128085e-05, 0.0005086085293442011, -0.000381213118089363, -0.0008128416957333684, -0.0005198686849325895, 2.3669377696933225e-05, -0.0019813054241240025, 1.4335551895783283e-05, 0.0010355988051742315, -0.0005770687712356448, -0.0002511359634809196, 1.833844362408854e-05, 1.788715053407941e-05, 0.00012567613157443702, 2.7261272407486103e-05, -4.811203689314425e-05, -2.3338750906987116e-05, 0.0005175394471734762, 0.00011938402894884348, -0.00044391388655640185, -0.00030690309358760715, 0.00040212221210822463, -0.0004632405180018395, 0.00013691201456822455, -0.00048144854372367263, -0.0002966541505884379, -0.0001337663852609694, -8.639935549581423e-05, -0.0004664463922381401, -2.5593828468117863e-05, -0.00030116489506326616, 0.001713705132715404, 0.0004896691534668207, 2.261243025714066e-05, 0.0004391913244035095], [0.00295668444596231, 0.004523926880210638, -0.0047943973913788795, 0.001351125305518508, 0.0004725272592622787, -0.000694461225066334, 0.006395674776285887, -0.004819749854505062, -0.006864476483315229, -0.006490280386060476, 0.0003736789512913674, -0.02498685196042061, 0.0004173694469500333, 0.012263734824955463, -0.008722244761884212, -0.006762954872101545, 0.0006696403142996132, 0.0006216035108081996, 0.003493067342787981, 0.0009281328530050814, -0.0010827105725184083, -0.0008036587969399989, 0.006407693959772587, 0.007440968416631222, -0.005532934330403805, -0.0011065156431868672, 0.0050620343536138535, -0.005933708976954222, -0.00851611327379942, -0.006122367922216654, -0.004172828514128923, -0.002366060158237815, 0.005294837523251772, -0.002751338528469205, -0.00035559089155867696, -0.008410049602389336, 0.012350822798907757, 0.006022107321768999, 0.0007599149248562753, 0.0046224999241530895], [0.002515606814995408, 0.0002848368021659553, -0.003169200848788023, 0.0016462187049910426, 0.0002649584785103798, -0.0004510446160566062, 0.003995859995484352, -0.003191752592101693, -0.005611022002995014, -0.004067583940923214, 4.7552526666549966e-05, -0.015309703536331654, 0.0002774815948214382, 0.006010477431118488, -0.0070192161947488785, -0.005242486950010061, 0.00042709294939413667, 0.0003632548323366791, 0.0016710982890799642, 0.0005862577818334103, 0.0014079419197514653, -0.0005149203934706748, 0.004034528974443674, 0.006190777290612459, -0.0036038747057318687, -0.000631065689958632, 0.005151030607521534, -0.0037001825403422117, -0.006790432613343, -0.003821104997768998, -0.002587636699900031, -0.0014549222541972995, 0.003686093958094716, -4.862563218921423e-05, -0.0001818002201616764, -0.009162587113678455, 0.006950488314032555, 0.0039015640504658222, 0.0004909770213998854, 0.0045598531141877174], [0.011813860386610031, 0.03208863362669945, -0.016243625432252884, 0.010925048030912876, 0.003474572440609336, -0.0055521102622151375, 0.021720513701438904, -0.0170514564961195, -0.025977211073040962, -0.021755142137408257, -0.0006700727972202003, -0.13980767130851746, 0.0038747848011553288, 0.00903768464922905, -0.07391774654388428, 0.004788932390511036, 0.0053587728179991245, 0.00462059210985899, -0.04159551486372948, 0.006406093947589397, -0.012128802016377449, -0.005981380119919777, 0.021699052304029465, 0.05647746101021767, -0.01905428059399128, 0.024969514459371567, 0.06742548942565918, -0.020400455221533775, -0.04934822395443916, -0.020520899444818497, -0.015008785761892796, -0.010750159621238708, 0.004309590440243483, -0.028217528015375137, -0.0022722361609339714, -0.0974772721529007, 0.10774312168359756, 0.020569097250699997, 0.005813944153487682, 0.00811956450343132], [0.003254140028730035, 0.004227226600050926, -0.004827003926038742, 0.001556313713081181, 0.00047957643982954323, -0.0006962846382521093, 0.006428665015846491, -0.004854863043874502, -0.006527042016386986, -0.006525108590722084, 0.0003737719962373376, -0.025173667818307877, 0.00042304073576815426, 0.0120830237865448, -0.00890098325908184, -0.006593243218958378, 0.000672227586619556, 0.0006266857963055372, 0.0033132429234683514, 0.0009282944374717772, -0.0007656659581698477, -0.0008046734728850424, 0.006444521248340607, 0.0075959679670631886, -0.005571871995925903, -0.001211105496622622, 0.0057755326852202415, -0.00596314063295722, -0.008593250066041946, -0.0061538247391581535, -0.004189040046185255, -0.0023679574951529503, 0.004811089951545, -0.0025705581065267324, -0.00036835839273408055, -0.008638246916234493, 0.012462085112929344, 0.006062173284590244, 0.00076128268847242, 0.004725125152617693], [-0.00032174913212656975, -0.0027141522150486708, -0.0006480307201854885, 5.441299890662776e-06, 1.943874485732522e-05, -3.5952798498328775e-05, 0.0008907528244890273, -0.0006743452395312488, -0.00025889603421092033, -0.0009189908159896731, -0.0001236368261743337, -0.004063999745994806, 5.047993181506172e-05, -0.0008718633325770497, -0.0023495235946029425, 0.0002829783770721406, 3.236489646951668e-05, 1.7373660739394836e-05, 0.0006747270817868412, 2.0859026335529052e-05, -0.0005326435202732682, -2.8295116862864234e-05, 0.0009221170330420136, -0.000146257079904899, -0.0008005608106032014, -0.0025392742827534676, 0.0034152872394770384, -0.0008020146051421762, 8.183970930986106e-05, -0.0008393702446483076, -0.00047412270214408636, -0.00016805270570330322, -0.0008559340494684875, -0.0007140796515159309, -4.4035794417141005e-05, -0.00015592532872688025, 0.004160572309046984, 0.000872106000315398, 3.2515974453417584e-05, -4.178297967882827e-05], [0.01754734478890896, 0.02426200732588768, -0.012182001955807209, 0.032591164112091064, 0.0024056124966591597, -0.00231890263967216, 0.01610071398317814, -0.012973274104297161, -0.08902307599782944, -0.01643095351755619, 0.001984362257644534, -0.17114220559597015, 0.0019135994371026754, 0.1266692876815796, -0.035810358822345734, -0.051348768174648285, 0.0023266514763236046, 0.002547126729041338, -0.0014570615021511912, 0.002890834352001548, -0.11334225535392761, -0.002568274037912488, 0.016711968928575516, 0.0012475207913666964, -0.014821038581430912, -0.0371050126850605, 0.0055014751851558685, -0.01481937151402235, 0.030976662412285805, -0.015206875279545784, -0.010411716997623444, -0.006436046212911606, 0.11550624668598175, -0.07169275730848312, -0.0026747749652713537, 0.029938390478491783, 0.06231437250971794, 0.015977872535586357, 0.0024711673613637686, -0.028606174513697624], [-0.00030620815232396126, 2.954058254545089e-05, -0.0002629943483043462, 0.0005585625767707825, 6.357092630082661e-09, -1.180533899969305e-06, 0.0003362036950420588, -0.000266518909484148, 0.00018150507821701467, -0.0003493260301183909, -9.828895599639509e-06, -0.0014660691376775503, 6.281481546466239e-06, 0.0005381775554269552, -0.00044809849350713193, 0.00033388068550266325, -9.881642881737207e-07, -4.303049081499921e-06, -8.51732911542058e-05, -1.5562219459752669e-06, 0.0004632912459783256, -2.478101635006169e-07, 0.0003532901464495808, -0.0002192136598750949, -0.00031162198865786195, -0.00026508455630391836, 0.0007277518743649125, -0.00030051759677007794, 0.0001723349851090461, -0.0003168524126522243, -0.0001743882748996839, -5.6446846429025754e-05, -0.0007955387700349092, -0.00044597964733839035, -2.0442719687707722e-05, -0.0004580258682835847, 0.0015357485972344875, 0.00034029182279482484, 1.7281658983847592e-06, 0.0004908044938929379], [0.11538463085889816, 0.043831635266542435, -0.028533397242426872, -0.004503163043409586, 0.005341113079339266, -0.005830763839185238, 0.0349741131067276, -0.02979716844856739, -0.08819311857223511, -0.03547037020325661, 0.003225723747164011, -0.2050790786743164, 0.003998072352260351, 0.03558026999235153, -0.11714836210012436, -0.01832641288638115, 0.005876197479665279, 0.006276180502027273, 0.042208440601825714, 0.0076602753251791, -0.10785026103258133, -0.006648831535130739, 0.035747773945331573, 0.041260261088609695, -0.03290234133601189, -0.03944448009133339, 0.16196854412555695, -0.03296834975481033, -0.0352177694439888, -0.03365832567214966, -0.025152724236249924, -0.016727378591895103, -0.1474355012178421, -0.037349946796894073, -0.003959630150347948, -0.08933542668819427, 0.19981811940670013, 0.03476544842123985, 0.0062709287740290165, -0.01873033307492733], [0.05710037052631378, 0.08094779402017593, -0.009153150953352451, 0.005173070821911097, 2.6108713427674957e-05, -0.0028137071058154106, 0.010746864601969719, -0.00964683759957552, -0.0928647592663765, -0.010806114412844181, -0.0013106995029374957, -0.046939242631196976, 0.0010288639459758997, -0.008880926296114922, -0.02092030458152294, 0.030530884861946106, 0.002452440094202757, 0.0011646358761936426, 0.07797248661518097, 0.003582189790904522, 0.18333573639392853, -0.0032036155462265015, 0.010833298787474632, -0.032626405358314514, -0.010464209131896496, -0.04314061254262924, 0.026164431124925613, -0.010391448624432087, -0.11799786984920502, -0.010491986759006977, -0.008784910663962364, -0.006626577116549015, -0.10869388282299042, -0.023868869990110397, 0.0018203376093879342, -0.050099920481443405, -0.049508336931467056, 0.010642943903803825, 0.0030760488007217646, 0.01912975311279297], [0.035244617611169815, 0.09752283245325089, -0.020032528787851334, 0.08283881843090057, 0.0018908752826973796, -0.0028180184308439493, 0.02868560329079628, -0.019877854734659195, -0.08386916667222977, -0.028342172503471375, 0.0027639116160571575, -0.19772842526435852, 0.0019488135585561395, -0.026394279673695564, 0.04237109422683716, 0.01475095096975565, 0.0027347446884959936, 0.002355271251872182, 0.11650708317756653, 0.003528895787894726, 0.019981516525149345, -0.003076492575928569, 0.027074873447418213, -0.03549044579267502, -0.022924471646547318, -0.22369904816150665, -0.04342874139547348, -0.027462346479296684, -0.19555844366550446, -0.027601365000009537, -0.020699096843600273, -0.011546706780791283, 0.03388817235827446, 0.10309487581253052, -0.0014464579289779067, 0.09268960356712341, -0.2057521641254425, 0.02461051568388939, 0.0029519349336624146, 0.10927180200815201], [0.00018109653319697827, 0.00042235024739056826, -0.00037410223740153015, 0.00032189543708227575, 1.7756601664586924e-05, -1.946620068338234e-05, 0.0004977757344022393, -0.0003731554897967726, -0.0009095828863792121, -0.0005089073092676699, 2.387575113971252e-05, -0.0018886097241193056, 1.4077741070650518e-05, 0.0010179977398365736, -0.00049293675692752, -0.0002520025009289384, 1.7819509594119154e-05, 1.7362912331009284e-05, 0.0001841368357418105, 2.7006588425138034e-05, 2.2834999981569126e-05, -2.2917754904483445e-05, 0.0005067194579169154, 7.061465294100344e-05, -0.0004342366592027247, -0.0003743452252820134, 0.0003451477095950395, -0.00045320895151235163, 0.00013202932314015925, -0.0004710762877948582, -0.0002903564600273967, -0.00013228804164100438, -0.00013670990301761776, -0.0004372354596853256, -2.5144223400275223e-05, -0.00030750222504138947, 0.0016957353800535202, 0.00047946773702278733, 2.2201564206625335e-05, 0.0004453952133189887], [0.0004295524850022048, 0.0008992737857624888, -0.0003629366692621261, 0.0003396717656869441, 2.778661291813478e-05, -2.9810278647346422e-05, 0.00048242314369417727, -0.000358656543539837, -0.0014703237684443593, -0.0004926192341372371, 2.2687176169711165e-05, -0.0016844202764332294, 2.37350795941893e-05, 0.0009229799616150558, -0.0002011767792282626, -0.00032651369110681117, 2.7697406039806083e-05, 2.699449032661505e-05, 0.0003978645836468786, 3.901393210981041e-05, 0.000264702393906191, -3.401680805836804e-05, 0.0004892174038104713, -8.452110341750085e-05, -0.00041652575600892305, -0.0008442406542599201, 0.00023196816619019955, -0.0004403037892188877, -0.00010743605525931343, -0.00045707428944297135, -0.00028774095699191093, -0.00014181424921844155, -0.00023845609393902123, -0.00024684271193109453, -3.580482734832913e-05, -0.00034027936635538936, 0.001596070360392332, 0.00046179062337614596, 3.317906885058619e-05, 0.00029608813929371536], [-0.05519735813140869, -0.04744280129671097, 0.008015112951397896, 0.08305629342794418, -0.0009419693960808218, -0.000911857932806015, -0.013460084795951843, 0.008472989313304424, 0.013864193111658096, 0.01299473736435175, 0.0006886291084811091, 0.1253141462802887, 0.00015393635840155184, 0.11079171299934387, 0.11698900163173676, 0.010472603142261505, 0.0007012073183432221, -0.00018478241690900177, -0.023402608931064606, 0.0007915441528894007, -0.1787843108177185, -0.0009509827941656113, -0.012333313003182411, 0.04733278229832649, 0.01007714681327343, 0.11593659967184067, -0.2268247753381729, 0.012409374117851257, -0.07110099494457245, 0.012281253933906555, 0.007403210271149874, 0.0025383823085576296, 0.07092025130987167, 0.06772265583276749, 0.00027295321342535317, 0.08291585743427277, -0.28799405694007874, -0.011653321795165539, 0.0009773998754099011, 0.023665523156523705], [0.0004508868732955307, 0.0006091054528951645, -0.0004575860220938921, 0.00011491042823763564, 3.8301554013742134e-05, -4.4636912207352e-05, 0.0006203725351952016, -0.00045360339572653174, -0.0017581634456291795, -0.0006289294105954468, 4.4309777877060696e-05, -0.002302115550264716, 3.0187035008566454e-05, 0.0013753284001722932, -0.0005572591326199472, -0.0007346576894633472, 4.3078569433419034e-05, 4.363208427093923e-05, 0.00032316078431904316, 5.946382589172572e-05, -0.0004145465209148824, -5.149308344698511e-05, 0.0006205161334946752, 0.0004220109258312732, -0.0005258646560832858, -0.00042086507892236114, 0.00016903084178920835, -0.0005710857221856713, -0.00012591792619787157, -0.0005892159533686936, -0.00038605122244916856, -0.00019976285693701357, 0.0004643950378522277, -0.0003981437475886196, -4.034217636217363e-05, -0.00029846903635188937, 0.0017014920013025403, 0.0005826724809594452, 4.9163449148181826e-05, 0.00036667316453531384], [0.015932751819491386, -0.006156337447464466, -0.054847169667482376, 0.05217911675572395, 0.0036489591002464294, -0.004078254569321871, 0.07154376059770584, -0.05708325281739235, -0.01631690375506878, -0.07279922068119049, 0.002228350844234228, -0.44606295228004456, 0.003003222867846489, 0.1112707257270813, -0.1982513964176178, 0.004300424363464117, 0.00402615824714303, 0.0040695881471037865, 0.04100736230611801, 0.005783886183053255, -0.11385274678468704, -0.004734877496957779, 0.07295197248458862, -0.03397684171795845, -0.0649939551949501, -0.09756146371364594, 0.21250124275684357, -0.06660146266222, -0.00997936725616455, -0.06855776906013489, -0.04595053568482399, -0.023217691108584404, 0.05311061441898346, -0.13076640665531158, -0.0034442127216607332, 0.011712735518813133, 0.2570902407169342, 0.06906832754611969, 0.004443699028342962, 0.048593759536743164], [0.00031286891316995025, 0.00047139677917584777, -0.00041486130794510245, 0.00023272354155778885, 2.9166567401262e-05, -3.302444747532718e-05, 0.0005589702050201595, -0.0004127566353417933, -0.0012936147395521402, -0.0005686935619451106, 3.4632521419553086e-05, -0.0021221917122602463, 2.3150067136157304e-05, 0.001218338729813695, -0.0005533481598831713, -0.0004883822984993458, 3.150676275254227e-05, 3.182101863785647e-05, 0.00020439874788280576, 4.3990610720356926e-05, -0.00023904438421595842, -3.815174932242371e-05, 0.000563291774597019, 0.00026494957273826003, -0.0004796398861799389, -0.00035933047183789313, 0.0002773548767436296, -0.0005121603608131409, 1.4094267498876434e-05, -0.0005301155615597963, -0.0003381144779268652, -0.00016502966172993183, 0.00019803446775767952, -0.00042777680209837854, -3.445750189712271e-05, -0.0002771811268758029, 0.001677270862273872, 0.0005305311642587185, 3.664462565211579e-05, 0.00038171038613654673], [0.0034093919675797224, 0.0037207952700555325, -0.004651475697755814, 0.001776611665263772, 0.00047626483137719333, -0.0006807948811911047, 0.006164447870105505, -0.004678483586758375, -0.006103151477873325, -0.006256598047912121, 0.00036401659599505365, -0.024280840530991554, 0.0004193955974187702, 0.011572502553462982, -0.008653356693685055, -0.00628679757937789, 0.0006585954688489437, 0.0006172368885017931, 0.00305510638281703, 0.0009027455234900117, -0.00024959203437902033, -0.0007847167435102165, 0.006181061267852783, 0.00771349249407649, -0.005360298790037632, -0.0011244752677157521, 0.006315792445093393, -0.0057188062928617, -0.008394632488489151, -0.0059010363183915615, -0.004021174740046263, -0.0022753942757844925, 0.004109345842152834, -0.002058435697108507, -0.00037188237183727324, -0.008809652179479599, 0.011883817613124847, 0.005828818306326866, 0.0007430872647091746, 0.004825021140277386], [0.05768126621842384, -0.02327985316514969, -0.05230877175927162, 0.05125894024968147, 0.002345450920984149, -0.0032719699665904045, 0.0665636658668518, -0.05481017753481865, 0.022162873297929764, -0.06817147880792618, 0.0017341618658974767, -0.3749724328517914, 0.0019136648625135422, 0.10165806114673615, -0.22349610924720764, -0.02874639444053173, 0.003140654880553484, 0.002998599549755454, -8.544951924704947e-06, 0.005059132818132639, -0.14182016253471375, -0.004014438018202782, 0.06906206160783768, 0.07196806371212006, -0.06231970712542534, -0.0034452052786946297, 0.21293063461780548, -0.06140902265906334, -0.01302645355463028, -0.06357033550739288, -0.04136809706687927, -0.020893173292279243, 0.09545662999153137, -0.11966332793235779, -0.0020896396599709988, -0.08446917682886124, 0.3867141604423523, 0.06615085899829865, 0.0037126638926565647, 0.04941937327384949], [0.003221426857635379, 0.0012261266820132732, -0.0038328117225319147, 0.0019887504167854786, 0.0003549590765032917, -0.0005492526688612998, 0.00493026664480567, -0.003861686447635293, -0.0058552296832203865, -0.005013310816138983, 0.00015805798466317356, -0.01917041651904583, 0.0003422836016397923, 0.007992110215127468, -0.007981088943779469, -0.005641309544444084, 0.0005259215249679983, 0.0004696616961155087, 0.0021426223684102297, 0.00071774359093979, 0.0012062846217304468, -0.0006283301045186818, 0.004965730011463165, 0.007018570322543383, -0.004385678097605705, -0.0011487441370263696, 0.006326529197394848, -0.004568809177726507, -0.007723305840045214, -0.00471696350723505, -0.0032003670930862427, -0.0017993544461205602, 0.0035333563573658466, -0.0006161826313473284, -0.0002615323173813522, -0.009567860513925552, 0.008911004289984703, 0.004753578454256058, 0.0005976725951768458, 0.004838789813220501], [0.07070755213499069, -0.037736110389232635, -0.03450052812695503, -0.03583968058228493, 0.001365062315016985, -0.002026492264121771, 0.04236247390508652, -0.036952897906303406, 0.05494631081819534, -0.043439168483018875, 0.0009764294954948127, -0.4179278016090393, 0.0008865774725563824, 0.023735199123620987, -0.22448255121707916, -0.03002353198826313, 0.0019914922304451466, 0.0020553451031446457, 0.07688525319099426, 0.0035008499398827553, -0.27151960134506226, -0.0026302768383175135, 0.04461117833852768, 0.09322236478328705, -0.04134577885270119, 0.019952313974499702, 0.21826939284801483, -0.03981298580765724, 0.06399208307266235, -0.04100602865219116, -0.028860915452241898, -0.015625903382897377, 0.09526975452899933, -0.12381983548402786, -0.0008699905592948198, -0.09357300400733948, 0.25475814938545227, 0.04263908043503761, 0.0023367120884358883, -0.018915347754955292], [0.004918083548545837, 0.0016222725389525294, -0.02507733553647995, 0.04009921848773956, 0.00230726832523942, -0.003673833329230547, 0.02778034098446369, -0.026306122541427612, -0.05952901393175125, -0.028590744361281395, -0.004546756390482187, -0.2327391356229782, 0.0034818784333765507, 0.08522384613752365, -0.10313377529382706, -0.05380512401461601, 0.003399827517569065, 0.002634142991155386, -0.047058165073394775, 0.00405023992061615, -0.13520672917366028, -0.0038128928281366825, 0.029270105063915253, -0.005764853209257126, -0.028376193717122078, 0.05568292364478111, 0.1294550746679306, -0.026025503873825073, -0.03718310222029686, -0.02679543010890484, -0.018937254324555397, -0.010905508883297443, 0.10416337847709656, -0.1070086807012558, -0.003106109332293272, -0.0807453915476799, 0.17381367087364197, 0.02940351516008377, 0.0038173235952854156, 0.0049001737497746944], [0.0025565000250935555, 0.004259895067662001, -0.004275706131011248, 0.0007984795374795794, 0.0004216477682348341, -0.0006263284012675285, 0.005712216254323721, -0.004293495323508978, -0.0063189254142344, -0.005794716998934746, 0.0003431696677580476, -0.022264525294303894, 0.0003728194278664887, 0.010905636474490166, -0.007500039879232645, -0.006260328460484743, 0.0006033194367773831, 0.000558764673769474, 0.003326307749375701, 0.0008384339744225144, -0.0009643217781558633, -0.0007257714751176536, 0.0057174391113221645, 0.006704047787934542, -0.004930860362946987, -0.0009356775553897023, 0.003914392087608576, -0.005302692763507366, -0.007795133627951145, -0.005469904746860266, -0.0037362053990364075, -0.0021238126792013645, 0.004813561215996742, -0.0024257954210042953, -0.0003156607272103429, -0.007620144169777632, 0.010641608387231827, 0.005369334481656551, 0.000685966107994318, 0.004101864993572235], [-0.06639241427183151, 0.09278037399053574, 0.004152912180870771, -0.06856311112642288, -0.001557762618176639, 0.0026906165294349194, 0.011618377640843391, 0.0035851115826517344, 0.03068859688937664, -0.009657558053731918, 0.01572302170097828, 0.19928984344005585, -0.004089001100510359, 0.10548627376556396, 0.08066105842590332, -0.04775267839431763, -0.002064736094325781, -0.00013317471893969923, 0.11133690923452377, -0.0006302522378973663, 0.958453893661499, 0.0018314329208806157, 0.006550019606947899, 0.07631400227546692, 0.00011691785766743124, -0.2112322300672531, -0.11164727807044983, -0.012787091545760632, 0.0462568998336792, -0.011883607134222984, -0.013459666632115841, -0.009221007116138935, -0.21068032085895538, 0.2900487780570984, -0.0017839286010712385, 0.5839232802391052, -0.018422488123178482, 0.0004143640981055796, -0.002386524574831128, -0.11243855208158493], [0.002905626315623522, 0.004369884729385376, -0.004435432143509388, 0.0008927955059334636, 0.0004290637734811753, -0.000633898307569325, 0.005932135041803122, -0.004457919392734766, -0.006035870872437954, -0.006020772270858288, 0.00035655873944051564, -0.02309969812631607, 0.0003780804108828306, 0.01109805703163147, -0.008010154590010643, -0.006257284432649612, 0.0006107537192292511, 0.0005675503634847701, 0.0033109458163380623, 0.0008507075253874063, -0.0008520212722942233, -0.000735418580006808, 0.005943586118519306, 0.006868463940918446, -0.005124562419950962, -0.0010795011185109615, 0.004622264765202999, -0.005504445638507605, -0.008009937591850758, -0.005680822301656008, -0.0038685936015099287, -0.00218474050052464, 0.004618994891643524, -0.002561101922765374, -0.00032803320209495723, -0.007871486246585846, 0.011207612231373787, 0.005578007083386183, 0.000694859481882304, 0.00418872432783246], [0.0013297295663505793, 0.002791082486510277, -0.0024807448498904705, -0.0002626895147841424, 0.00024274321913253516, -0.00037488879752345383, 0.0033231915440410376, -0.0024799820967018604, -0.0047270189970731735, -0.00336819002404809, 0.00020202697487547994, -0.01265194732695818, 0.00021900150750298053, 0.006223529577255249, -0.003828207263723016, -0.004276051186025143, 0.00035916679189540446, 0.00032839635969139636, 0.0022665243595838547, 0.0005043468554504216, -0.0006321168038994074, -0.0004359178710728884, 0.0033169016242027283, 0.003991059027612209, -0.0028515567537397146, -0.0006648290436714888, 0.0013483287766575813, -0.003088254714384675, -0.004903831053525209, -0.003183464054018259, -0.002183373551815748, -0.0012527357321232557, 0.003142201341688633, -0.0013210829347372055, -0.00018365628784522414, -0.004645439330488443, 0.0058015091344714165, 0.0031134067103266716, 0.00041175095248036087, 0.0024497664999216795], [0.0007157899090088904, 0.0015124353813007474, -0.0011035942006856203, -0.0003227646229788661, 0.00010754036338767037, -0.0001649275654926896, 0.00148952251765877, -0.0010958299972116947, -0.0035390809644013643, -0.0015063220635056496, 9.59598328336142e-05, -0.005606888793408871, 9.645619138609618e-05, 0.0030128585640341043, -0.0014599900459870696, -0.002322538523003459, 0.00015767838340252638, 0.00014522249693982303, 0.0011168119963258505, 0.00022494286531582475, -0.0006916755228303373, -0.0001927781995618716, 0.0014788882108405232, 0.001835688715800643, -0.001261277706362307, -0.0005966181633993983, 0.00020000651420559734, -0.0013846587389707565, -0.002112189307808876, -0.0014248336665332317, -0.0009826448513194919, -0.0005755519960075617, 0.0017440806841477752, -0.0005351823638193309, -8.944730507209897e-05, -0.0018551141256466508, 0.0028534603770822287, 0.0013862308114767075, 0.00018180666666012257, 0.0009772485354915261], [0.0004666051536332816, -0.020334582775831223, -0.02828913740813732, 0.08813691139221191, -0.0009645384852774441, -0.0017573746154084802, 0.034008581191301346, -0.03050662763416767, -0.04146668314933777, -0.034882064908742905, -0.00498972088098526, -0.4981359541416168, 0.0014156566467136145, 0.055661749094724655, -0.1443878412246704, 0.0206670593470335, 0.0013029177207499743, -0.00016013246204238385, 0.07013697922229767, 0.0021808124147355556, -0.1360236555337906, -0.001895014545880258, 0.03530022129416466, 0.056110672652721405, -0.03361811116337776, -0.19987648725509644, 0.20793883502483368, -0.032406508922576904, -0.12903569638729095, -0.03335929661989212, -0.02442808821797371, -0.013012713752686977, -0.004100557416677475, -0.1392350047826767, -0.0006834708037786186, -0.07312017679214478, 0.178839311003685, 0.033971305936574936, 0.0018984535709023476, 0.01589221879839897], [0.09345788508653641, 0.02413882315158844, -0.05512896925210953, 0.0048718564212322235, 0.003465567249804735, -0.004594823811203241, 0.07119836658239365, -0.0576615072786808, -0.06282927095890045, -0.07275597006082535, 0.0016850291285663843, -0.4208351969718933, 0.0027600047178566456, 0.20426532626152039, -0.2715677320957184, -0.09158165752887726, 0.004453443922102451, 0.004304397385567427, 0.03492618352174759, 0.0067598517052829266, -0.06707549095153809, -0.005506732501089573, 0.07344627380371094, -0.09730666130781174, -0.06552306562662125, -0.03838726133108139, 0.11666508764028549, -0.06562769412994385, 0.030482973903417587, -0.06781774759292603, -0.04436737298965454, -0.023329660296440125, 0.16825184226036072, -0.22662191092967987, -0.002098252298310399, -0.0343475304543972, 0.3296949863433838, 0.07003616541624069, 0.005114065017551184, 0.0257611945271492], [5.829350993735716e-05, 0.000659543089568615, -0.00028600290534086525, 0.0009439000277779996, 4.654290751204826e-05, -5.7689016102813184e-05, 0.0003642417723312974, -0.00028762748115696013, -0.0007978493813425303, -0.0003773655625991523, -2.3894712285255082e-05, -0.001633762731216848, 5.962101568002254e-05, 0.0009291802416555583, 4.680498386733234e-05, 0.0004089223803021014, 5.329015039023943e-05, 4.632865602616221e-05, -0.0002429691085126251, 5.719157343264669e-05, 0.0009190742275677621, -5.869582309969701e-05, 0.00037798151606693864, -0.0004470077983569354, -0.00033313879976049066, -0.0011294218711555004, 0.0009996768785640597, -0.00033126192283816636, -0.0006282014073804021, -0.00034777261316776276, -0.00021518616995308548, -0.00010701610881369561, -0.0009774283971637487, -0.00018048851052299142, -8.226127829402685e-05, -0.0005665702046826482, 0.0012857521651312709, 0.00036195930442772806, 6.035471960785799e-05, -0.00010428090899949893], [0.05619825795292854, 0.09586028754711151, -0.0426538921892643, 0.039606496691703796, 0.003829056629911065, -0.004477831535041332, 0.057940736413002014, -0.044094234704971313, -0.14565782248973846, -0.058600787073373795, 0.0036443553399294615, -0.31073883175849915, 0.003002977930009365, 0.07438495755195618, -0.16305750608444214, -0.036086831241846085, 0.004420408979058266, 0.004430979024618864, 0.0958031713962555, 0.006263122893869877, 0.08495964854955673, -0.005210891366004944, 0.05829133093357086, -0.08365746587514877, -0.050496675074100494, -0.2526927888393402, 0.09411676973104477, -0.054083455353975296, -0.04915596917271614, -0.05540892481803894, -0.03803383186459541, -0.020727474242448807, -0.002945089712738991, -0.029400872066617012, -0.003025319194421172, 0.10703226178884506, 0.15788231790065765, 0.05414600670337677, 0.004892425611615181, 0.03433588519692421], [0.0015017830301076174, -0.023339543491601944, -0.011549731716513634, -0.03174144774675369, -0.0010145683772861958, -0.000140017582452856, 0.014038944616913795, -0.012731854803860188, -0.002479535061866045, -0.014433320611715317, -0.0028710069600492716, -0.1163385733962059, -0.00012517640425357968, 0.023357801139354706, -0.101266048848629, -0.003112559672445059, -2.012626464420464e-05, -0.0006706698914058506, 0.080833300948143, 0.00026671323576010764, -0.05473405122756958, -0.00017711249529384077, 0.014631502330303192, 0.021558819338679314, -0.014179631136357784, -0.05764654651284218, 0.04497621953487396, -0.012924917042255402, -0.03224446251988411, -0.013304888270795345, -0.008190757595002651, -0.0033750792499631643, 0.00030508823692798615, -0.040821366012096405, 0.0013313805684447289, -0.05106266215443611, 0.024974027648568153, 0.01462483499199152, 0.0001611252810107544, 0.02195451594889164], [0.0032005072571337223, 0.0017200480215251446, -0.004475248046219349, 0.002470980864018202, 0.000420151452999562, -0.0006473441026173532, 0.005764151457697153, -0.004506405908614397, -0.007307673804461956, -0.005859495140612125, 0.000177870606421493, -0.022260723635554314, 0.00040494854329153895, 0.009717215783894062, -0.00917599257081747, -0.006686961278319359, 0.0006198289338499308, 0.0005529478657990694, 0.0023784900549799204, 0.0008447305881418288, 0.0006933248369023204, -0.0007396274013444781, 0.005802479572594166, 0.007777426391839981, -0.005118321627378464, -0.0012648982228711247, 0.006936406716704369, -0.0053410883992910385, -0.00865350104868412, -0.005512623116374016, -0.00374372536316514, -0.0021135120186954737, 0.0048093125224113464, -0.0010878307512030005, -0.0003055378037970513, -0.010437911376357079, 0.011073747649788857, 0.0055520199239254, 0.0007038346957415342, 0.005629400257021189], [0.00022075643937569112, 0.0003839322889689356, -0.0004006224626209587, 0.00030037519172765315, 2.4338361981790513e-05, -2.7740174118662253e-05, 0.0005371535662561655, -0.00039959719288162887, -0.0010569978039711714, -0.0005476274527609348, 2.9307344448170625e-05, -0.0020721014589071274, 1.9883182176272385e-05, 0.0011436003260314465, -0.00056811812100932, -0.000369863846572116, 2.614496224850882e-05, 2.6010111469076946e-05, 0.00013745075557380915, 3.698131695273332e-05, -0.00014519321848638356, -3.209424903616309e-05, 0.0005436124047264457, 0.00019203222473151982, -0.00046470819506794214, -0.00033780952799133956, 0.0003583536599762738, -0.0004909978597424924, 5.1837851060554385e-05, -0.0005091303610242903, -0.0003202020307071507, -0.0001511720329290256, 7.014747825451195e-05, -0.00044674467062577605, -3.175235542585142e-05, -0.00028707986348308623, 0.001691277720965445, 0.0005131808575242758, 3.097409353358671e-05, 0.00039252438000403345], [-0.015647029504179955, -0.007440706714987755, 0.0087269963696599, -0.07546991109848022, -0.0036458915565162897, 0.008023412898182869, 0.004491591360419989, 0.011605223640799522, -0.10643594712018967, -0.0036009096074849367, -0.006012594792991877, 0.7516174912452698, -0.004733479581773281, -0.11347686499357224, 0.2563372850418091, 0.07429845631122589, -0.007027072366327047, -0.005599138792604208, -0.0002486378652974963, -0.011132313869893551, 0.30692732334136963, 0.009855288080871105, 0.0005537696415558457, -0.024715544655919075, 0.009409844875335693, 0.34499168395996094, -0.2756696045398712, -0.00513716135174036, -0.03620456904172897, -0.005040682386606932, -0.001877622096799314, 0.006514378823339939, -0.05468003451824188, 0.03300052881240845, 0.008759534917771816, -0.12123208492994308, -0.4593491554260254, -0.008357767947018147, -0.009462964721024036, 0.09238871932029724], [-0.07320044189691544, -0.020017920061945915, -0.01720569282770157, 0.009389268234372139, 0.001311244792304933, -0.0021306260023266077, 0.02472754754126072, -0.018429653719067574, 0.06712838262319565, -0.024091431871056557, 0.0029868606943637133, -0.1605101376771927, 0.0008469820604659617, 0.06755788624286652, -0.08655490726232529, -0.0029798049945384264, 0.0021082893945276737, 0.0020646865013986826, 0.02126927487552166, 0.0033945452887564898, 0.028545212000608444, -0.002657931065186858, 0.023034702986478806, -0.00884927436709404, -0.020787058398127556, -0.011128988116979599, 0.03629133850336075, -0.02375730127096176, -0.0894588753581047, -0.023569680750370026, -0.018338706344366074, -0.01178158912807703, 0.041033025830984116, -0.05645843595266342, -0.001031526830047369, -0.0438476987183094, 0.12132909893989563, 0.022043822333216667, 0.002407865598797798, -0.07707766443490982], [0.07307622581720352, 0.10880081355571747, -0.03019523434340954, 0.08572204411029816, -0.01986144296824932, 0.017190607264637947, 0.02875666879117489, -0.02841983735561371, -0.06995119899511337, -0.027939360588788986, 0.01152758114039898, -0.6758365631103516, -0.018664611503481865, 0.10592839121818542, -0.04647466540336609, -0.03697661682963371, -0.018080629408359528, -0.020586706697940826, 0.19679881632328033, -0.013428198173642159, -0.033691342920064926, 0.015805507078766823, 0.027461912482976913, 0.032181985676288605, -0.02750321663916111, -0.1262986958026886, 0.029920386150479317, -0.02690068446099758, -0.008530051447451115, -0.02581826038658619, -0.01794571988284588, -0.00667224545031786, 0.10052654892206192, -0.07462280988693237, 0.020280256867408752, -0.12287167459726334, 0.006584749557077885, 0.029652336612343788, -0.0163995623588562, 0.05499465763568878], [0.0017373875016346574, 0.00036452958011068404, -0.003307945793494582, 0.0014415006153285503, 0.0003241366648580879, -0.0005240110913291574, 0.004170754458755255, -0.0033182399347424507, -0.007507464848458767, -0.004236409906297922, 1.758686630637385e-05, -0.015201388858258724, 0.0003377005341462791, 0.006292932666838169, -0.006621174514293671, -0.0060522607527673244, 0.0004990975139662623, 0.00042869741446338594, 0.0022040235344320536, 0.0006652914453297853, 0.0007168934680521488, -0.0005899647949263453, 0.004192675463855267, 0.006306210998445749, -0.0037396710831671953, -0.00110420782584697, 0.004460493102669716, -0.0038705705665051937, -0.007093033753335476, -0.003987792879343033, -0.0027327178977429867, -0.0015686736442148685, 0.00526758236810565, 0.00010591505997581407, -0.00020857530762441456, -0.008520670235157013, 0.006971211638301611, 0.004056303296238184, 0.0005646616918966174, 0.0052734194323420525], [-0.020787224173545837, 0.04694462567567825, -0.007231041789054871, -0.08224061131477356, 0.004980932455509901, -0.0027711144648492336, 0.011331785470247269, -0.0044996063224971294, -0.057962577790021896, -0.010132750496268272, 0.0032913293689489365, -0.4429245591163635, 0.002840074012055993, 0.16403421759605408, -0.03191773220896721, -0.01527654193341732, 0.0031475299037992954, 0.004355170764029026, -0.01906774193048477, 0.0034732178319245577, 0.15619291365146637, -0.003012412693351507, 0.007964907214045525, 0.03059053234755993, -0.004888585302978754, 0.17672571539878845, 0.11285583674907684, -0.011537720449268818, -0.010899815708398819, -0.011462382040917873, -0.010954832658171654, -0.00827820785343647, -0.06067610904574394, -0.05268377438187599, -0.004046892747282982, -0.07219767570495605, 0.38678526878356934, 0.006512689869850874, 0.0028389040380716324, 0.06158270314335823], [9.839469566941261e-05, 0.0007276349933817983, -0.00032949267188087106, 0.0005664493073709309, 2.4348197257495485e-05, -2.8398100766935386e-05, 0.0004298211424611509, -0.0003281898098066449, -0.0009385114535689354, -0.0004421497287694365, 5.123897608427797e-07, -0.0017085820436477661, 2.723114812397398e-05, 0.0007177309598773718, -0.00034917815355584025, -1.758795951900538e-05, 2.5566989279468544e-05, 2.2002452169544995e-05, 0.00017427139391656965, 3.260073208366521e-05, 3.8712849345756695e-05, -3.0453215003944933e-05, 0.00044199678814038634, 0.00012798253737855703, -0.00038168521132320166, -0.0006161034107208252, 0.0005997639382258058, -0.0003897960123140365, -0.00026056551723740995, -0.0004069223068654537, -0.0002470181789249182, -0.00011438383080530912, -0.0003800982958637178, -0.0002191482053603977, -3.908451981260441e-05, -0.0004793026018887758, 0.0015127001097425818, 0.00042042971472255886, 3.0757157219341025e-05, 0.0004637721285689622], [0.00020754337310791016, 0.0003853501984849572, -0.00042634736746549606, 0.0003648729471024126, 2.6164361770497635e-05, -2.998098534590099e-05, 0.0005731529090553522, -0.00042684056097641587, -0.0011153743835166097, -0.0005855780909769237, 2.6507825168664567e-05, -0.002335647586733103, 2.2548660126631148e-05, 0.0011553072836250067, -0.0007254416705109179, -0.0003081332833971828, 2.815593506966252e-05, 2.7540314476937056e-05, 9.06049317563884e-05, 3.9257341995835304e-05, -0.0003978924942202866, -3.427778938203119e-05, 0.000582430511713028, 0.00037329806946218014, -0.0004977418575435877, -0.0003822135622613132, 0.0005513241048902273, -0.0005229302332736552, 6.635326280957088e-05, -0.0005430413293652236, -0.00033774119219742715, -0.00015774006897117943, 1.8716813428909518e-05, -0.0004375732969492674, -3.443113382672891e-05, -0.0002663464401848614, 0.001797919045202434, 0.0005488634924404323, 3.321201438666321e-05, 0.00044180883560329676], [0.003693469800055027, 0.005526347551494837, -0.0053271339274942875, 0.0015248042764142156, 0.000558157276827842, -0.0008042571716941893, 0.0071212854236364365, -0.005354161839932203, -0.00951146800071001, -0.0072219232097268105, 0.0004136143543291837, -0.02722277119755745, 0.0004914039163850248, 0.013356261886656284, -0.009668243117630482, -0.008004722185432911, 0.0007776176789775491, 0.0007257452816702425, 0.004306885413825512, 0.001066206255927682, -0.0015847148606553674, -0.0009262058301828802, 0.0071265739388763905, 0.008441555313766003, -0.006142700556665659, -0.0027752716559916735, 0.005506334826350212, -0.006612066645175219, -0.009571690112352371, -0.006816594861447811, -0.004667648114264011, -0.0026717986911535263, 0.006137161515653133, -0.00242078909650445, -0.00040856533451005816, -0.008570513688027859, 0.013472827151417732, 0.006688184570521116, 0.0008767497492954135, 0.00463583180680871], [0.0024351782631129026, 0.0006617968319915235, -0.003245947416871786, 0.0015115780988708138, 0.00032330668182112277, -0.0005157953128218651, 0.004102467559278011, -0.00326189654879272, -0.007430889643728733, -0.004166764672845602, 4.721805453300476e-05, -0.015353554859757423, 0.0003291210741735995, 0.006252706982195377, -0.006780236028134823, -0.00583987683057785, 0.0004926546243950725, 0.0004287186893634498, 0.002084070583805442, 0.0006570639670826495, 0.000635376141872257, -0.0005822308012284338, 0.004123697057366371, 0.006926144007593393, -0.0036762026138603687, -0.0011081125121563673, 0.004706802777945995, -0.0038089773152023554, -0.007348736748099327, -0.003924485761672258, -0.0026929338928312063, -0.0015463732415810227, 0.004343061707913876, 0.00034167629200965166, -0.00021194519649725407, -0.009050989523530006, 0.006278845481574535, 0.003983791451901197, 0.0005564235616475344, 0.004792606458067894], [0.01631338894367218, 0.08656942844390869, -0.01785108633339405, 0.010840817354619503, 0.010139777325093746, -0.013175907544791698, 0.02200375683605671, -0.017773078754544258, -0.05943474546074867, -0.021579239517450333, -7.156787614803761e-05, -0.18182703852653503, 0.009864354506134987, 0.05706065893173218, -0.0763247013092041, -0.03255879878997803, 0.013053826987743378, 0.012292583473026752, -0.10497985035181046, 0.014698926359415054, -0.007848420180380344, -0.01393982209265232, 0.02115345560014248, 0.11727415770292282, -0.0187989454716444, 0.04530288279056549, 0.0195852592587471, -0.021158019080758095, -0.04971989244222641, -0.02068537287414074, -0.01754516363143921, -0.016216084361076355, 0.13791482150554657, -0.0071648964658379555, -0.006604259833693504, -0.1074901819229126, 0.1280478686094284, 0.020680362358689308, 0.013580752536654472, 0.013355027884244919], [0.003952330444008112, 0.005181269720196724, -0.005358497612178326, 0.0017413789173588157, 0.0005631145322695374, -0.0008037372026592493, 0.007149036508053541, -0.005388567689806223, -0.009003061801195145, -0.007251892704516649, 0.000411756569519639, -0.027341090142726898, 0.0004954070900566876, 0.013144605793058872, -0.009849274531006813, -0.0077133760787546635, 0.0007778860745020211, 0.0007284964085556567, 0.004012224264442921, 0.0010635541984811425, -0.001188098220154643, -0.0009246531990356743, 0.007159239612519741, 0.008564209565520287, -0.006180244963616133, -0.0027541224844753742, 0.006272448226809502, -0.006636778824031353, -0.009627566672861576, -0.006843431852757931, -0.004680742509663105, -0.002670654561370611, 0.005527454428374767, -0.002312231808900833, -0.0004202057607471943, -0.008915991522371769, 0.013657628558576107, 0.006725449580699205, 0.0008756558527238667, 0.004813948180526495], [-5.107270771986805e-05, -0.002953962655737996, -0.0006835315143689513, 9.069069164979737e-06, 1.450421677873237e-05, -3.174085941282101e-05, 0.0009507260983809829, -0.000711779051925987, -6.47779306746088e-05, -0.0009800452971830964, -0.0001182387350127101, -0.004332913085818291, 4.410252222442068e-05, -0.0009994349675253034, -0.0024955873377621174, 0.00012210480053909123, 2.8453185223042965e-05, 1.3974294233776163e-05, 0.0009522747131995857, 1.886005156848114e-05, -0.001129412674345076, -2.500799746485427e-05, 0.0009818654507398605, 0.00039019068935886025, -0.0008481986587867141, -0.0018655657768249512, 0.003634257707744837, -0.0008558364934287965, -5.918638635193929e-05, -0.0008957268437370658, -0.0005038533126935363, -0.00017640147416386753, -0.0006904819747433066, -0.0008679719176143408, -3.5419212508713827e-05, -0.0004783717158716172, 0.004152313806116581, 0.0009256190387532115, 2.8640766686294228e-05, -0.00014954630751162767], [-0.050312068313360214, 0.018929652869701385, -0.016271481290459633, 0.07168297469615936, 0.006481925956904888, -0.0050650183111429214, 0.020552372559905052, -0.017110025510191917, -0.06485229730606079, -0.020504126325249672, 0.004091488663107157, -0.37399768829345703, 0.004911238327622414, 0.14389897882938385, -0.05410081893205643, -0.049521781504154205, 0.005333258770406246, 0.0065096900798380375, -0.013424549251794815, 0.005854472517967224, -0.2379433810710907, -0.0053789964877069, 0.02072981745004654, 0.11354514956474304, -0.018798043951392174, -0.0745212584733963, 0.19276635348796844, -0.019479241222143173, 0.06710027903318405, -0.019473131746053696, -0.015004605054855347, -0.010520215146243572, 0.08384992927312851, -0.07209160178899765, -0.007709242403507233, 0.04493223875761032, 0.1791747361421585, 0.020041409879922867, 0.005209515802562237, -0.03681253641843796], [-0.0003141347551718354, 3.2995358196785673e-05, -0.00031655372004024684, 0.0006165553932078183, 4.697064014180796e-06, -7.316872142837383e-06, 0.00040960550541058183, -0.0003214475582353771, 7.442382047884166e-05, -0.0004250658384989947, -9.492231583863031e-06, -0.0018803003476932645, 1.1378931048966479e-05, 0.0006029792129993439, -0.0006596230668947101, 0.0003851625951938331, 4.797551355295582e-06, 9.649181720305933e-07, -0.00017964415019378066, 6.031325483490946e-06, 0.0002390796144027263, -7.0234159466053825e-06, 0.0004293472447898239, -8.43927773530595e-05, -0.0003765625588130206, -0.00033013286883942783, 0.000940307741984725, -0.00036715655005536973, 0.00015665453975088894, -0.00038648874033242464, -0.0002164371544495225, -7.65808581491001e-05, -0.0007678791880607605, -0.0004865964292548597, -2.631653296703007e-05, -0.00046835016109980643, 0.0017641623271629214, 0.0004110220761504024, 8.309550139529165e-06, 0.0005874407361261547], [-0.17506948113441467, -0.04243387281894684, -0.0012205804232507944, -0.06069273129105568, -0.002697957446798682, 0.0019489574478939176, 0.005494968965649605, -0.002775364788249135, 0.05699441209435463, -0.005971160717308521, 0.00048573920503258705, -0.11643021553754807, -0.002000205684453249, -0.026980185881257057, 0.015492655336856842, 0.03522610291838646, -0.0020437012426555157, -0.0022049658000469208, 0.0231783464550972, -0.0020707412622869015, -0.21911722421646118, 0.0019407860236242414, 0.006446253973990679, 0.07366741448640823, -0.004599947948008776, -0.024784298613667488, 0.14574621617794037, -0.004801124334335327, 0.1511966586112976, -0.0049318550154566765, -0.0013546720147132874, 0.0013268878683447838, 0.03373391926288605, 0.015527253970503807, 0.0010100947692990303, 0.020480172708630562, -0.022528793662786484, 0.004334775730967522, -0.0019353906391188502, -0.025491368025541306], [0.059033315628767014, 0.025530964136123657, -0.00642388267442584, -0.026300042867660522, -0.0019642820116132498, -0.002764867153018713, 0.009988412261009216, -0.007628232706338167, -0.11948257684707642, -0.010153435170650482, -0.008904932998120785, -0.1396157443523407, 0.000997023656964302, -0.06767971813678741, -0.07257824391126633, 0.09775623679161072, 0.0021287365816533566, -0.0003866523620672524, 0.06725604832172394, 0.002979299519211054, 0.0037303653080016375, -0.0028820806182920933, 0.0102095827460289, 0.0532691515982151, -0.008911604061722755, -0.009695636108517647, 0.13293859362602234, -0.009893464855849743, -0.13121375441551208, -0.010096779093146324, -0.008572466671466827, -0.006104993633925915, -0.17856848239898682, -0.03377507999539375, 0.004760204814374447, -0.12893959879875183, 0.04330248385667801, 0.008480831980705261, 0.002869219519197941, 0.061023976653814316], [-0.057721421122550964, -0.02115977182984352, 0.030969426035881042, 0.06595110893249512, -0.003337726928293705, 0.0041800900362432, -0.04301431402564049, 0.03212933987379074, 0.1119128093123436, 0.04344474524259567, -0.0024688260164111853, 0.23117607831954956, -0.002368988934904337, -0.12456442415714264, 0.19211310148239136, 0.009894770570099354, -0.0041976142674684525, -0.004304616246372461, -0.1074986457824707, -0.005761845503002405, 0.046208810061216354, 0.004853995982557535, -0.04323092848062515, -0.021570000797510147, 0.03700517490506172, 0.04966186732053757, -0.09874316304922104, 0.04013727232813835, -0.018686581403017044, 0.04108418896794319, 0.028283702209591866, 0.015997683629393578, -0.007237348239868879, 0.023159939795732498, 0.0013727534096688032, -0.010457492433488369, -0.16733506321907043, -0.039832718670368195, -0.004510125145316124, -0.021179823204874992], [0.0002497685782145709, 0.0005135259125381708, -0.00041741077438928187, 0.00037430133670568466, 2.676501389942132e-05, -3.0201374102034606e-05, 0.0005608025239780545, -0.0004170281463302672, -0.0012306574499234557, -0.0005730421980842948, 2.7005082301911898e-05, -0.002260049805045128, 2.287266579514835e-05, 0.001143527333624661, -0.0006394312367774546, -0.00030685847741551697, 2.8295567972236313e-05, 2.7659876650432125e-05, 0.00014410240692086518, 3.96311043004971e-05, -0.0003777329402510077, -3.453631143202074e-05, 0.0005699340254068375, 0.0003708780277520418, -0.00048624788178130984, -0.00042769365245476365, 0.0004926375113427639, -0.0005115439998917282, 3.511024624458514e-05, -0.0005312390276230872, -0.00033057702239602804, -0.00015591994451824576, -2.1075888071209192e-05, -0.00039528324850834906, -3.4643093385966495e-05, -0.00027449397020973265, 0.0017441812669858336, 0.0005367459962144494, 3.3480857382528484e-05, 0.0004486119723878801], [0.0005105663440190256, 0.0010327036725357175, -0.0003966068325098604, 0.00042055113590322435, 3.8070422306191176e-05, -4.23579040216282e-05, 0.0005358144990168512, -0.0003926597419194877, -0.001848454587161541, -0.0005465658032335341, 2.7830796170746908e-05, -0.0020703503396362066, 3.383423972991295e-05, 0.0010606992291286588, -0.00032733456464484334, -0.00039381577516905963, 3.997693784185685e-05, 3.908461076207459e-05, 0.00037947986857034266, 5.3442505304701626e-05, -0.0003357000823598355, -4.7537378122797236e-05, 0.0005415813648141921, 0.0003902709868270904, -0.00045773060992360115, -0.0008052108460105956, 0.00034862561733461916, -0.0004901431384496391, -0.00032381663913838565, -0.0005081729614175856, -0.00032304806518368423, -0.00016385118942707777, -7.013932918198407e-05, -0.00015991993132047355, -4.673843432101421e-05, -0.0003354354412294924, 0.0014594269450753927, 0.0005076672532595694, 4.631761112250388e-05, 0.00029110588366165757], [-0.06175576150417328, 0.018082600086927414, -0.016204429790377617, 0.08543413877487183, 0.00594273442402482, -0.0067675309255719185, 0.018016474321484566, -0.01715395413339138, 0.09835439920425415, -0.01862151362001896, 0.008422409184277058, -0.4800572693347931, 0.004176020622253418, 0.17824377119541168, -0.047640372067689896, 0.05473359674215317, 0.0069630807265639305, 0.007339518051594496, 0.03447258099913597, 0.008598575368523598, -0.10114160180091858, -0.007612111512571573, 0.01936180330812931, -0.0022285887971520424, -0.018604915589094162, -0.08796441555023193, 0.19468474388122559, -0.017869846895337105, 0.0215388722717762, -0.018331479281187057, -0.01698293723165989, -0.014526530168950558, 0.031215708702802658, -0.12771615386009216, -0.004419806879013777, 0.0659988671541214, 0.16160891950130463, 0.017912158742547035, 0.0071716285310685635, 0.024807767942547798], [0.0005510863265953958, 0.000778254761826247, -0.00047471155994571745, 0.0001473159936722368, 5.006582068745047e-05, -5.756850805482827e-05, 0.0006506052450276911, -0.00046995654702186584, -0.0022567647974938154, -0.0006583462818525732, 4.980502853868529e-05, -0.002478458220139146, 4.059757338836789e-05, 0.0015281366650015116, -0.0005781959625892341, -0.0009012889349833131, 5.6018161558313295e-05, 5.7028839364647865e-05, 0.0003681733214762062, 7.446433301083744e-05, -0.0008766743703745306, -6.539056630572304e-05, 0.0006478173891082406, 0.0007605543942190707, -0.0005454020574688911, -0.0005027681472711265, 0.00016667402815073729, -0.0006004993338137865, -0.0002514327352400869, -0.0006183506338857114, -0.00041067981510423124, -0.00021984978229738772, 0.0006778310053050518, -0.00026648747734725475, -5.0800092139979824e-05, -0.00015532701218035072, 0.001516581978648901, 0.0006054196855984628, 6.259415386011824e-05, 0.00027371314354240894], [-0.015726139768958092, -0.16068369150161743, -0.004716676659882069, 0.1315675526857376, -0.006181950215250254, 0.008172417059540749, -0.0010733867529779673, -0.004641306586563587, 0.21382670104503632, -5.9960442740703e-05, -0.0035857772454619408, 0.11798441410064697, -0.005114173982292414, -0.11929655075073242, -0.08745970577001572, 0.06528071314096451, -0.008368889801204205, -0.00845286250114441, -0.19435788691043854, -0.009231575764715672, -0.0579485222697258, 0.008760664612054825, 0.001676534884609282, 0.18239550292491913, -0.0036407236475497484, -0.07530100643634796, 0.3084339201450348, 0.0018605433870106936, 0.23574888706207275, 0.001163866021670401, 0.004499515984207392, 0.007221747189760208, -0.26116055250167847, -0.06236868351697922, 0.002140994183719158, 0.03284946084022522, 0.34673672914505005, 0.00286211003549397, -0.008357969112694263, 0.052035510540008545], [0.0003987190139014274, 0.0005948255420662463, -0.0004466752288863063, 0.0002696988813113421, 3.9076021494111046e-05, -4.437514871824533e-05, 0.000607057532761246, -0.0004445054510142654, -0.0016856658039614558, -0.0006170041742734611, 3.870053478749469e-05, -0.002390974899753928, 3.2347816159017384e-05, 0.001351559767499566, -0.0006421326543204486, -0.0005954329390078783, 4.271547368261963e-05, 4.3124327930854633e-05, 0.000207700883038342, 5.735052764066495e-05, -0.0006415030220523477, -5.042491466156207e-05, 0.0006101754843257368, 0.000558415544219315, -0.0005171426455490291, -0.0004360649618320167, 0.0003560030600056052, -0.0005573565140366554, -8.477210940327495e-05, -0.0005761710926890373, -0.000371450005332008, -0.00018735982303041965, 0.00034968776162713766, -0.00035299628507345915, -4.406165317050181e-05, -0.00019897788297384977, 0.001631842809729278, 0.0005723171634599566, 4.852097845287062e-05, 0.00033830711618065834], [0.00401295255869627, 0.004568423144519329, -0.005129898898303509, 0.001955342711880803, 0.000556423794478178, -0.0007818898884579539, 0.006811630446463823, -0.005158587358891964, -0.008394064381718636, -0.006908932235091925, 0.0003966588119510561, -0.026194190606474876, 0.0004885924863629043, 0.01248854398727417, -0.009493543766438961, -0.007227820344269276, 0.000758374750148505, 0.0007140930974856019, 0.0036069077905267477, 0.001028786413371563, -0.0005802254308946431, -0.00089700345415622, 0.006822236347943544, 0.008631792850792408, -0.005906556732952595, -0.0024803620763123035, 0.006825460586696863, -0.006324944086372852, -0.009347622282803059, -0.006520955823361874, -0.0044666314497590065, -0.002551875775679946, 0.0046519506722688675, -0.0018066441407427192, -0.00042160035809502006, -0.00912225991487503, 0.013042055070400238, 0.006424128543585539, 0.0008502505952492356, 0.00497448118403554], [-0.0446830615401268, -0.19019728899002075, 0.008669986389577389, 0.10535755008459091, -0.001765740686096251, 0.0025507372338324785, -0.010440063662827015, 0.007337976712733507, 0.25879454612731934, 0.009780618362128735, -0.005272382870316505, 0.024303629994392395, -0.0002659887832123786, -0.0878019705414772, -0.06728667765855789, 0.0574258528649807, -0.0025323140434920788, -0.002527124946936965, -0.15355856716632843, -0.004158391617238522, 0.041888050734996796, 0.0032854361925274134, -0.008857117034494877, -0.12411587685346603, 0.007468154188245535, -0.10686490684747696, 0.06463904678821564, 0.010424667038023472, 0.08551914989948273, 0.010022753849625587, 0.009798595681786537, 0.008156890980899334, -0.010654918849468231, -0.01667986810207367, -0.0025585307739675045, 0.04908030107617378, 0.18515676259994507, -0.008663312532007694, -0.0029102021362632513, -0.08670063316822052], [0.0033756333868950605, 0.0017389561980962753, -0.004042728338390589, 0.0019586754497140646, 0.00042052450589835644, -0.0006270481389947236, 0.005209979601204395, -0.004067795351147652, -0.007802953012287617, -0.005289435386657715, 0.00016382805188186467, -0.01977573148906231, 0.0004008177202194929, 0.008432959206402302, -0.008087328635156155, -0.0063239955343306065, 0.0006036897539161146, 0.0005457194638438523, 0.0025640311650931835, 0.0008075532387010753, 0.0006508338265120983, -0.0007113959291018546, 0.005231734365224838, 0.00785823818296194, -0.004612999968230724, -0.0018347505247220397, 0.006184750702232122, -0.004837797489017248, -0.00846016127616167, -0.004986456595361233, -0.003417564556002617, -0.001952565275132656, 0.0040923068299889565, -0.000257157749729231, -0.00029764650389552116, -0.009724861942231655, 0.008807351812720299, 0.00500212237238884, 0.0006778622628189623, 0.0051046437583863735], [0.04976053163409233, -0.16042393445968628, 0.007714406121522188, -0.07140948623418808, 0.0001287693448830396, 0.004324375651776791, -0.006901143118739128, 0.005395067390054464, 0.2426922768354416, 0.0061553725972771645, 0.0048039136454463005, 0.07384352385997772, -0.0029866390395909548, -0.22779637575149536, 0.04259175434708595, -0.08214595168828964, -0.003539411583915353, -0.0011887040454894304, 0.08944343030452728, -0.004779343493282795, -0.16038013994693756, 0.004637898411601782, -0.004422642290592194, -0.004122916143387556, 0.004224576987326145, -0.13026487827301025, 0.3429158627986908, 0.007549034897238016, 0.3083559572696686, 0.007318873889744282, 0.009144393727183342, 0.008432283997535706, 0.29480722546577454, -0.13121888041496277, 0.0012243288801982999, -0.03151261806488037, 0.1396896094083786, -0.004854249302297831, -0.004682566039264202, -0.07862401753664017], [-0.06137334555387497, -0.03302546218037605, -0.009819850325584412, 0.039462339133024216, 0.004197567235678434, -0.004458186216652393, 0.007296112831681967, -0.009227852337062359, 0.006083453074097633, -0.007350764237344265, -0.005373768974095583, -0.05742783844470978, 0.004983287304639816, -0.021727051585912704, -0.007941225543618202, -0.03547543287277222, 0.004458723124116659, 0.003942452371120453, 0.004105936270207167, 0.0037271908950060606, 0.08387584984302521, -0.004064516164362431, 0.0072876024059951305, -0.04323111101984978, -0.008871820755302906, -0.24004215002059937, 0.04663486033678055, -0.006793314591050148, -0.07112240046262741, -0.006779110059142113, -0.005332130007445812, -0.0038609930779784918, 0.046478576958179474, -0.034454040229320526, -0.003877698676660657, 0.09736935794353485, -0.06518728286027908, 0.009405279532074928, 0.004244018346071243, 0.044280439615249634], [0.0031786474864929914, 0.005132518708705902, -0.00470065837725997, 0.000908847083337605, 0.000495334155857563, -0.0007189266034401953, 0.0062932586297392845, -0.0047180973924696445, -0.00872456468641758, -0.00637980317696929, 0.0003782171697821468, -0.024127662181854248, 0.000435964873759076, 0.011797898449003696, -0.008227190002799034, -0.0073857419192790985, 0.0006946133798919618, 0.0006474917754530907, 0.004024067427963018, 0.0009538906742818654, -0.0014816526090726256, -0.0008286988013423979, 0.00629099365323782, 0.0075325011275708675, -0.005415317602455616, -0.0024336304049938917, 0.004195034969598055, -0.005846431944519281, -0.008654066361486912, -0.00602561142295599, -0.004134790506213903, -0.002372054848819971, 0.005612591747194529, -0.0020611146464943886, -0.0003611466090660542, -0.007606259547173977, 0.011476347222924232, 0.005900327116250992, 0.0007842176710255444, 0.004051642492413521], [-0.1196686327457428, 0.23353226482868195, -0.004051574971526861, -0.008153112605214119, 0.0045562321320176125, -0.004306155722588301, 0.01785203069448471, -0.004285257775336504, -0.15820887684822083, -0.0156539436429739, 0.01444996427744627, -0.2716316282749176, 0.002237370004877448, 0.14849436283111572, 0.09004821628332138, 0.026735639199614525, 0.004856238607317209, 0.006528104189783335, 0.05430465564131737, 0.006820056587457657, -0.1919095516204834, -0.005408233497291803, 0.012148958630859852, 0.027511628344655037, -0.007027705665677786, -0.027822380885481834, 0.10132495313882828, -0.018873779103159904, -0.20087023079395294, -0.017672386020421982, -0.019472971558570862, -0.01613670401275158, -0.1129528358578682, -0.03962971270084381, -0.007385797332972288, 0.04329036548733711, 0.14247453212738037, 0.008422484621405602, 0.004748305305838585, -0.01179026160389185], [0.003541648155078292, 0.005267854779958725, -0.004890213254839182, 0.0010227940510958433, 0.0005023175035603344, -0.0007273766095750034, 0.006551285274326801, -0.00491328863427043, -0.00835789181292057, -0.006645068526268005, 0.0003932043327949941, -0.025041522458195686, 0.0004409398534335196, 0.012037623673677444, -0.008809312246739864, -0.007359755225479603, 0.0007027066894806921, 0.0006565267103724182, 0.003976365551352501, 0.000968335138168186, -0.0013061348581686616, -0.0008398209465667605, 0.00655672000721097, 0.00770924286916852, -0.005644224118441343, -0.0025678544770926237, 0.00498372595757246, -0.006083454005420208, -0.008898817002773285, -0.006273278500884771, -0.004291621968150139, -0.002445533638820052, 0.005367529112845659, -0.0022541710641235113, -0.00037348511978052557, -0.007953602820634842, 0.01216848660260439, 0.006146109662950039, 0.0007943818345665932, 0.004182030446827412], [0.001601012540049851, 0.0032950537279248238, -0.002608218463137746, -0.00024347499129362404, 0.00028382206801325083, -0.0004207919701002538, 0.003503714455291629, -0.0026034440379589796, -0.006321869790554047, -0.0035468139685690403, 0.00022104887466412038, -0.01321382261812687, 0.0002530075144022703, 0.006594480946660042, -0.0038921267259866, -0.004988877102732658, 0.0004051612631883472, 0.0003751128679141402, 0.0026211938820779324, 0.0005584965692833066, -0.001163815031759441, -0.00048560547293163836, 0.003488330403342843, 0.004421950317919254, -0.0029913499020040035, -0.0014847996644675732, 0.0012049248907715082, -0.0032598820980638266, -0.005258087534457445, -0.003355931956321001, -0.0023167228791862726, -0.0013439432950690389, 0.0037235100753605366, -0.0008982736035250127, -0.0002096148964483291, -0.00423024594783783, 0.005749566480517387, 0.003270466346293688, 0.000459566421341151, 0.002280230401083827], [0.0008526722085662186, 0.0018465518951416016, -0.0011039588134735823, -0.0003086665237788111, 0.00013167069118935615, -0.00018855516100302339, 0.001500933081842959, -0.001092613092623651, -0.00456194207072258, -0.0015140987234190106, 0.00010695886885514483, -0.005561997182667255, 0.00011561812425497919, 0.0032027687411755323, -0.0012918635038658977, -0.0027434295043349266, 0.0001819208700908348, 0.0001714091922622174, 0.001311722444370389, 0.00025107033434323967, -0.0012489637592807412, -0.00021761153766419739, 0.00148214481305331, 0.0021808603778481483, -0.0012568770907819271, -0.0009367450256831944, -4.282824011170305e-05, -0.0013986167032271624, -0.002274783095344901, -0.0014357774052768946, -0.0010025349911302328, -0.0005999495624564588, 0.0021443439181894064, -0.00017561163986101747, -0.00010545578697929159, -0.0014192205853760242, 0.0024149317760020494, 0.0013854141579940915, 0.0002058753598248586, 0.0007593121845275164], [-0.004295737016946077, -0.1293366402387619, 0.0009870731737464666, 0.18765971064567566, -0.010831788182258606, 0.007546574808657169, -0.00560049619525671, -0.0020062788389623165, 0.01819244958460331, 0.00435200659558177, -0.011706586927175522, 0.1432255655527115, -0.006157539784908295, 0.1822039932012558, 0.02252916432917118, 0.08612451702356339, -0.008273659273982048, -0.01053593959659338, -0.07993870973587036, -0.00866663083434105, -0.10486041754484177, 0.008010528981685638, -0.002721551340073347, 0.06015760451555252, -0.0015044091269373894, 0.2696457505226135, 0.1088322326540947, 0.006105625070631504, -0.009544291533529758, 0.005308369640260935, 0.007499782834202051, 0.008677542209625244, -0.24518853425979614, -0.02374952845275402, 0.007205404341220856, 0.0074802543967962265, 0.05226313695311546, 6.60597943351604e-05, -0.007648335304111242, -0.06803788244724274], [-0.096507728099823, -0.07434594631195068, 0.022316504269838333, -0.06972157955169678, -0.003293771529570222, 0.0033364922273904085, -0.027388857677578926, 0.022994840517640114, 0.0933552235364914, 0.027620626613497734, -0.0014445828273892403, 0.1940951645374298, -0.0026265159249305725, -0.12144602835178375, 0.12142429500818253, 0.13655443489551544, -0.003330643055960536, -0.0034026785288006067, -0.03058181144297123, -0.004370571579784155, -0.33687788248062134, 0.0037442808970808983, -0.027681097388267517, -0.0641791895031929, 0.025302313268184662, 0.45619556307792664, -0.008700392208993435, 0.025749502703547478, -0.026544608175754547, 0.026277530938386917, 0.019117331132292747, 0.01167517900466919, -0.09956467151641846, 0.020931174978613853, 0.0024611845146864653, -0.276955246925354, -0.146812304854393, -0.026946168392896652, -0.003569143358618021, 0.024227982386946678], [5.903802502871258e-06, 0.000611235445830971, -0.0003090986283496022, 0.0009372071363031864, 4.8576264816801995e-05, -6.349758768919855e-05, 0.00039695101440884173, -0.00031196302734315395, -0.0006030549411661923, -0.0004115626506973058, -2.3971939299372025e-05, -0.0019040359184145927, 6.294699414866045e-05, 0.0007697243127040565, -0.00016989793221000582, 0.0006074748234823346, 5.860991223016754e-05, 5.01152899232693e-05, -0.00014271728286985308, 6.434264651034027e-05, 0.0006782665732316673, -6.52734815957956e-05, 0.000412358291214332, -0.00030736520420759916, -0.00036269030533730984, -0.001111118239350617, 0.0010663983412086964, -0.00036048557376489043, -0.0008241287432610989, -0.00037873044493608177, -0.00023177430557552725, -0.00011387358244974166, -0.0011622704332694411, -0.00018549045489635319, -8.362886728718877e-05, -0.0007688594632782042, 0.001146546215750277, 0.0003934885316994041, 6.66422929498367e-05, 0.00011943351273657754], [-0.09840887784957886, -0.010103360749781132, 0.027224920690059662, 0.018373550847172737, -0.006070838775485754, 0.006035232916474342, -0.030254678800702095, 0.027907509356737137, 0.08995255082845688, 0.03060019761323929, -0.0013525894610211253, 0.09643413126468658, -0.004696929361671209, -0.19842910766601562, 0.07316316664218903, 0.16668713092803955, -0.006113434210419655, -0.006434858776628971, 0.019429536536335945, -0.007316870614886284, -0.085943803191185, 0.006554402410984039, -0.031189177185297012, -0.10488682985305786, 0.030003944411873817, -0.030592916533350945, 0.03902411460876465, 0.028089364990592003, -0.08144797384738922, 0.0285731703042984, 0.02063325047492981, 0.013860668987035751, -0.14744678139686584, -0.1001056507229805, 0.003682054579257965, -0.11569713801145554, -0.2765198051929474, -0.03225315734744072, -0.006295820698142052, 0.010514020919799805], [-0.024140112102031708, 0.006013680249452591, -0.01834811083972454, -0.03534608706831932, -0.0003939165035262704, -0.001715088845230639, 0.02163129486143589, -0.019454384222626686, 0.004766469821333885, -0.021452710032463074, -0.004922916647046804, -0.24758902192115784, 0.0009591512498445809, 0.07343132048845291, -0.1952790468931198, -0.013643808662891388, 0.0015052316011860967, 0.00037525681545957923, 0.17571215331554413, 0.0022277177777141333, -0.0743396058678627, -0.0018721440574154258, 0.02073526382446289, 0.011492813937366009, -0.020654845982789993, -0.12032068520784378, 0.09272067993879318, -0.02088198810815811, -0.07261380553245544, -0.02085970714688301, -0.016129035502672195, -0.00909759197384119, -0.02477012574672699, -0.06141986697912216, 0.001606807578355074, -0.00750329764559865, 0.038741033524274826, 0.021145690232515335, 0.0017594463424757123, 0.0625472143292427], [0.0034843620378524065, 0.0023991100024431944, -0.004807890392839909, 0.0024893346708267927, 0.0005039751995354891, -0.0007502418593503535, 0.006203755736351013, -0.004835589788854122, -0.009788267314434052, -0.006296844221651554, 0.00018583920609671623, -0.02328127808868885, 0.0004809527890756726, 0.010335600934922695, -0.009463836438953876, -0.007646302692592144, 0.0007220202824100852, 0.0006513936095871031, 0.003026958554983139, 0.0009655817411839962, 0.00013241001579444855, -0.0008504475117661059, 0.006226949859410524, 0.008829195983707905, -0.005483941175043583, -0.00226458883844316, 0.006902370136231184, -0.005760046653449535, -0.009659153409302235, -0.00593531783670187, -0.00407126871868968, -0.0023350450210273266, 0.00551025103777647, -0.0006217409390956163, -0.00035258400021120906, -0.01068202406167984, 0.011141694150865078, 0.0059505729004740715, 0.0008106351597234607, 0.005975282751023769], [0.00029718049336224794, 0.00048470517504028976, -0.0004382859042380005, 0.00033715637982822955, 3.337891757837497e-05, -3.8258796848822385e-05, 0.0005922203999944031, -0.0004374892159830779, -0.0013970735017210245, -0.0006033587851561606, 3.275670678704046e-05, -0.0023742709308862686, 2.8423612093320116e-05, 0.0012660829816013575, -0.0006844011950306594, -0.0004514694446697831, 3.64731895388104e-05, 3.630853461800143e-05, 0.00012392790813464671, 4.946808621753007e-05, -0.000514840823598206, -4.350772360339761e-05, 0.0005982404691167176, 0.0004585035494528711, -0.0005093776853755116, -0.00041346129728481174, 0.0004695239767897874, -0.0005423068650998175, -2.9110628020134754e-05, -0.0005617710994556546, -0.00035671755904331803, -0.00017403783567715436, 0.00019473240536171943, -0.0003962573828175664, -4.080617509316653e-05, -0.00023216570843942463, 0.001709040137939155, 0.000562558532692492, 4.202048512524925e-05, 0.00037264073034748435], [-0.02020416222512722, 0.1116328164935112, -0.05271340534090996, 0.06274513900279999, 0.006306174676865339, -0.012458841316401958, 0.05017750337719917, -0.05195596441626549, -0.07484033703804016, -0.04883471131324768, -0.007596754003316164, -1.14641273021698, 0.00845265295356512, 0.1771848350763321, -0.2513499855995178, 0.05621076002717018, 0.011989439837634563, 0.009228181093931198, 0.2380765825510025, 0.016191262751817703, -0.19404132664203644, -0.013946443796157837, 0.04656384885311127, 0.07021769881248474, -0.05258309468626976, -0.30484631657600403, 0.2516930103302002, -0.04855327680706978, -0.02607659064233303, -0.04723396152257919, -0.04182395711541176, -0.032956354320049286, 0.0036675320006906986, -0.16969427466392517, -0.0034267131704837084, -0.06834243983030319, 0.31155237555503845, 0.055329903960227966, 0.013096743263304234, 0.01555423904210329], [0.3649679720401764, 0.26045599579811096, -0.007872570306062698, -0.05234258621931076, -0.029469817876815796, 0.03386691212654114, 0.014471585862338543, -0.013145560398697853, -0.08492287248373032, -0.01654721423983574, 0.0454569011926651, 0.05432472750544548, -0.03646209463477135, -0.0883052870631218, -0.01595349796116352, -0.10885722935199738, -0.03340958058834076, -0.027956195175647736, -0.07396403700113297, -0.021866317838430405, 0.08868557214736938, 0.02759496122598648, 0.01931389793753624, 0.10315695405006409, -0.01706850528717041, 0.06944671273231506, -0.187321737408638, -0.013118068687617779, -0.12686070799827576, -0.015304464846849442, -0.007238412741571665, 0.0011277619050815701, 3.977183951064944e-05, -0.028863387182354927, 0.010127904824912548, 0.05498261749744415, 0.02249089814722538, 0.014655105769634247, -0.030410826206207275, -0.30444440245628357], [-0.10797801613807678, 0.28311222791671753, 0.0043341931886971, -0.17577452957630157, -0.03553471341729164, 0.03088243678212166, -0.013311052694916725, 0.003368941368535161, 0.10215122252702713, 0.01208865363150835, -0.0002683082711882889, -0.027079138904809952, -0.030102267861366272, -0.13654373586177826, 0.09427721053361893, -0.025074349716305733, -0.03263657167553902, -0.037529367953538895, -0.06162552535533905, -0.028271183371543884, -0.09371572732925415, 0.029681174084544182, -0.010247194208204746, -0.12242726981639862, 0.005009016953408718, 0.25697705149650574, -0.09319457411766052, 0.01394758652895689, -0.17061877250671387, 0.012908254750072956, 0.015090616419911385, 0.01824353076517582, -0.22925178706645966, -0.18092302978038788, 0.03296791762113571, -0.12782549858093262, 0.01894974149763584, -0.00653620483353734, -0.029828181490302086, -0.27745842933654785], [0.006686800625175238, 0.01268436573445797, 0.017706040292978287, -0.01685367338359356, -0.0019969146233052015, 0.0031053998973220587, -0.021290866658091545, 0.01806614175438881, 0.03686913102865219, 0.021618029102683067, -7.517399353673682e-05, 0.03755989298224449, -0.0020946809090673923, -0.03477860614657402, 0.017655737698078156, 0.030888516455888748, -0.0029608714394271374, -0.0025329948402941227, -0.0034109633415937424, -0.0038891369476914406, -0.009769022464752197, 0.003471603151410818, -0.021619344130158424, -0.03102164901793003, 0.020002424716949463, -0.0018515511183068156, -0.009138467721641064, 0.019863877445459366, 0.021988356485962868, 0.020387429744005203, 0.014325696043670177, 0.008648988790810108, -0.01037175115197897, 0.004289465490728617, 0.001356017543002963, 0.04746800661087036, -0.031129321083426476, -0.02134004980325699, -0.003336433321237564, -0.03142409026622772], [-0.05212803930044174, -0.19430573284626007, 0.010717250406742096, -0.11943896859884262, 0.0010532134911045432, -0.0012701957020908594, -0.011062359437346458, 0.011035144329071045, -0.057695258408784866, 0.01096685416996479, -0.02029334008693695, 0.021074367687106133, 0.0043178740888834, 0.1636541485786438, -0.15019017457962036, 0.058343738317489624, 0.0013323931489139795, 0.00010388057125965133, -0.1430593878030777, -0.001817433862015605, 0.21860074996948242, 0.0004767681530211121, -0.011982271447777748, -0.4265720844268799, 0.010644637979567051, -0.23629522323608398, -0.034590911120176315, 0.010431504808366299, -0.08765172958374023, 0.009874608367681503, 0.007969826459884644, 0.005806176923215389, 0.014148509129881859, -0.047416917979717255, 0.004365042317658663, -0.01498348917812109, -0.08726580440998077, -0.011378359980881214, 0.00020709368982352316, -0.04617568477988243], [-0.014998097904026508, -0.01968836970627308, -0.00550340861082077, 0.004057709127664566, 0.0027819257229566574, -0.0030972962267696857, 0.008926144801080227, -0.0055544134229421616, -0.02122279442846775, -0.00860030110925436, 5.2601037168642506e-05, -0.019745174795389175, 0.0025837761349976063, 0.014520389027893543, 0.0017664645565673709, -0.01169294398277998, 0.003113750834017992, 0.0031387091148644686, -0.0029606344178318977, 0.0034830747172236443, 0.004297404084354639, -0.003273014910519123, 0.007976812310516834, 0.006898215971887112, -0.006392662413418293, 0.007111016660928726, 0.00039868042222224176, -0.008781078271567822, -0.03349558264017105, -0.0086980564519763, -0.0077710566110908985, -0.005993743427097797, 0.019663631916046143, 0.0017844103276729584, -0.002491316292434931, 0.02284259721636772, 0.016582267358899117, 0.007065656594932079, 0.0031870848033577204, 0.0014037146465852857], [0.016559816896915436, 0.028956357389688492, 0.005509974900633097, -0.000690232845954597, -0.002444191835820675, 0.0031309453770518303, -0.008771173655986786, 0.005529637914150953, 0.025023942813277245, 0.00846804492175579, 0.0007909341366030276, 0.022365286946296692, -0.0025340202264487743, -0.014230608940124512, -0.0025152661837637424, 0.012950781732797623, -0.0030871222261339426, -0.0028882427141070366, -0.0006599904736503959, -0.003458407474681735, -0.010497821494936943, 0.003288754727691412, -0.007845639251172543, -0.011174079962074757, 0.006331395823508501, -0.009782412089407444, 0.007719024084508419, 0.008584846742451191, 0.04102989658713341, 0.008525571785867214, 0.007424743380397558, 0.005562987178564072, -0.010889030061662197, -0.004642448388040066, 0.001980807399377227, -0.007115315645933151, -0.01593044400215149, -0.0069886064156889915, -0.0032183376606553793, -0.003874375019222498], [0.0031729319598525763, -0.004485997837036848, -0.022198006510734558, 0.012588275596499443, 0.0025969715788960457, -0.0035987684968858957, 0.030783815309405327, -0.0229474063962698, -0.03627948835492134, -0.031059719622135162, 0.0016807757783681154, -0.07501204311847687, 0.0022956756874918938, 0.05707639828324318, -0.03291903808712959, -0.023769626393914223, 0.0034963495563715696, 0.0032960055395960808, 0.014266563579440117, 0.004736181814223528, -0.00069350068224594, -0.004124553874135017, 0.030703911557793617, 0.03644399344921112, -0.02640952728688717, 0.0016060000052675605, 0.017309552058577538, -0.028711967170238495, -0.04009723290801048, -0.029460107907652855, -0.02023845911026001, -0.011629508808255196, 0.01189939584583044, -0.019568858668208122, -0.0019964580424129963, -0.01884608343243599, 0.04886702075600624, 0.028463471680879593, 0.00391053780913353, 0.012607081793248653], [0.003978387918323278, 0.018617380410432816, 0.017535950988531113, -0.01705145463347435, -0.002032240154221654, 0.0030997104477137327, -0.021278580650687218, 0.01810797117650509, 0.03371376544237137, 0.021645663306117058, -0.00026178345433436334, 0.035927753895521164, -0.0020694395061582327, -0.03366602957248688, 0.020502179861068726, 0.029580924659967422, -0.0029673210810869932, -0.0025768636260181665, -0.0012881269212812185, -0.0039041039999574423, -0.005711219739168882, 0.003475889330729842, -0.021780386567115784, -0.0350218266248703, 0.020157406106591225, 0.0022396445274353027, -0.01247545424848795, 0.019802318885922432, 0.018696559593081474, 0.0203334279358387, 0.014201232232153416, 0.008599645458161831, -0.0060831173323094845, 0.006075697485357523, 0.0013641762780025601, 0.050532884895801544, -0.027849406003952026, -0.021445050835609436, -0.003333017462864518, -0.025762461125850677], [-0.04840220883488655, -0.08802057802677155, 0.019411791115999222, 0.12670238316059113, -0.031068990007042885, 0.034906286746263504, -0.02632879838347435, 0.018559815362095833, 0.318392813205719, 0.024486074224114418, 0.0006451107328757644, 0.0030636058654636145, -0.027790768072009087, -0.02999088354408741, -0.20555832982063293, 0.0024477846454828978, -0.03659610450267792, -0.03937465697526932, -0.10074625164270401, -0.034610070288181305, 0.2645880877971649, 0.035015106201171875, -0.022150970995426178, 0.09690181910991669, 0.020317941904067993, -0.06344477087259293, 0.03969956561923027, 0.02654021978378296, 0.15004144608974457, 0.025575712323188782, 0.026705775409936905, 0.028225978836417198, 0.22986899316310883, -0.03256891295313835, 0.023656172677874565, -0.06828873604536057, 0.0035723650362342596, -0.022455411031842232, -0.0345233753323555, 0.02853480912744999], [-0.00532419653609395, 0.002299126237630844, 0.02214065007865429, -0.012969275936484337, -0.0025740114506334066, 0.003534176852554083, -0.03056405670940876, 0.02288779430091381, 0.035971954464912415, 0.03087824396789074, -0.0016836904687806964, 0.07399825751781464, -0.002259244676679373, -0.05514318868517876, 0.033991266041994095, 0.022602494806051254, -0.0034372771624475718, -0.0032504815608263016, -0.01230164710432291, -0.0046541085466742516, 0.001162677421234548, 0.004050341434776783, -0.030580734834074974, -0.03679840639233589, 0.02635684423148632, 0.0003922841278836131, -0.019469236955046654, 0.028456682339310646, 0.0368795171380043, 0.0292239747941494, 0.019963352009654045, 0.011454137973487377, -0.00912744551897049, 0.019342713057994843, 0.0019682906568050385, 0.021304242312908173, -0.04939063638448715, -0.02841612696647644, -0.0038394504226744175, -0.012657386250793934], [0.004132538102567196, 0.05372275039553642, 0.0012977615697309375, 0.004681493155658245, -4.445179729373194e-05, 0.0009133321582339704, 0.00041050915024243295, 0.0014582826988771558, 0.022240784019231796, -0.0003644162497948855, 0.005123671144247055, 3.11367075482849e-05, -0.0011627294588834047, 0.03844432905316353, 0.006727867294102907, -0.007549169007688761, -0.0007963927928358316, -8.998271368909627e-05, 0.005578665062785149, -0.00036566873313859105, 0.0032739441376179457, 0.0006230659782886505, 0.00024996287538670003, 0.004420704208314419, 0.0009437068365514278, 0.00776396319270134, 0.0002616598503664136, -0.0004644098225980997, 0.015459439717233181, -0.0005704562063328922, -0.0006660287617705762, -0.000533580023329705, 0.0007500094943679869, -0.006473163608461618, -0.0006679845391772687, 0.027594896033406258, -0.0050939349457621574, -0.0008112092618830502, -0.0007419964531436563, -0.017716269940137863], [0.27113163471221924, 0.009978554211556911, 0.0030906812753528357, -0.20779022574424744, -0.005457466468214989, 0.0011972220381721854, -0.002071193652227521, 0.003068298101425171, -0.086061991751194, 0.002643807791173458, -0.006902654189616442, 0.23053745925426483, -0.003570077009499073, 0.06294943392276764, -0.17244181036949158, -0.014239062555134296, -0.001668234821408987, -0.0039028183091431856, 0.07910796254873276, -0.00035811783163808286, 0.17890961468219757, 0.0007791435928083956, -0.0042262296192348, -0.23365233838558197, 0.0033142606262117624, 0.3213886618614197, -0.3345106542110443, 0.001731522148475051, -0.17737336456775665, 0.0011405779514461756, 6.841551657998934e-05, -0.0007740379660390317, 0.04309326410293579, -0.13013869524002075, 0.012342755682766438, -0.025527341291308403, -0.015924466773867607, -0.002613253891468048, -0.0009787484304979444, 0.20677855610847473], [-0.014240746386349201, -0.029552815482020378, -0.005164118018001318, 0.00425382936373353, 0.0024610739201307297, -0.002944829873740673, 0.007744401693344116, -0.005197729915380478, -0.02364155650138855, -0.007470207754522562, -0.0011372867738828063, -0.018226690590381622, 0.0025612821336835623, 0.0069092996418476105, 0.0017672291724011302, -0.007647530175745487, 0.0029274835251271725, 0.0027727149426937103, -0.0042063393630087376, 0.0031441166065633297, 0.005239193327724934, -0.0030282537918537855, 0.006937116384506226, 0.0051915813237428665, -0.005806454923003912, 0.003875213209539652, -0.002588421804830432, -0.007604219950735569, -0.03503359481692314, -0.007514269556850195, -0.006652159616351128, -0.005036073736846447, 0.012646129354834557, 0.0038107065483927727, -0.002077345969155431, 0.010933478362858295, 0.01418533455580473, 0.0063719796016812325, 0.0029849489219486713, 0.004035787656903267], [0.22795981168746948, 0.08913879841566086, -0.025080183520913124, -0.08222837001085281, 0.007788251154124737, -0.008348650299012661, 0.023461008444428444, -0.025223972275853157, 0.03911943361163139, -0.02368973009288311, 0.011414089240133762, -0.38479194045066833, 0.004850232973694801, 0.1642453521490097, 0.36015814542770386, -0.09192506968975067, 0.008665407076478004, 0.009590279310941696, -0.16906872391700745, 0.010025424882769585, -0.2606067359447479, -0.009231418371200562, 0.024704184383153915, 0.07254017889499664, -0.026186926290392876, 0.6143022775650024, 0.028417203575372696, -0.02198912762105465, -0.3634767532348633, -0.02153262309730053, -0.017038878053426743, -0.01330665685236454, -0.3363577127456665, -0.4033246338367462, -0.005926785059273243, -0.40825119614601135, -0.19973058998584747, 0.027362367138266563, 0.008725727908313274, 0.049152422696352005], [-0.08507829904556274, -0.02307526208460331, -0.0061872308142483234, -0.015939122065901756, -0.007334927562624216, 0.0027929774951189756, 0.005484460387378931, -0.005850157234817743, -0.08423160016536713, -0.005959952250123024, -0.021993763744831085, 0.1823226660490036, -0.0008217820432037115, 0.027499748393893242, 0.20377404987812042, 0.08013181388378143, -0.0036177881993353367, -0.0068716127425432205, -0.18201608955860138, -0.004150270018726587, 0.29615530371665955, 0.003462828928604722, 0.0051537021063268185, -0.4472595155239105, -0.005822524428367615, -0.1478283554315567, 0.07279942184686661, -0.005095931701362133, 0.023120151832699776, -0.005430587567389011, -0.00248409784398973, 0.0013090064749121666, 0.1534527987241745, -0.08423036336898804, 0.003468811511993408, 0.18636329472064972, 0.09195555001497269, 0.006033144425600767, -0.003083478659391403, 0.07313703745603561], [0.038497474044561386, 0.014308261685073376, -0.021831536665558815, 0.06886324286460876, -0.00921474490314722, -0.0008293644059449434, 0.01908201538026333, -0.020370762795209885, 0.03206361085176468, -0.01921032927930355, -0.026884078979492188, -0.09398213028907776, -0.0015707318671047688, -0.07692822813987732, -0.20719009637832642, -0.4080740213394165, -0.0006521063041873276, -0.006456607487052679, -0.14195872843265533, 0.0021466738544404507, 0.11170763522386551, -0.0014720073668286204, 0.018501700833439827, 0.11113279312849045, -0.019661694765090942, 0.07738520205020905, -0.0008567448821850121, -0.018889745697379112, -0.12037733942270279, -0.019047798588871956, -0.016612255945801735, -0.011552107520401478, -0.9685486555099487, -0.04992657154798508, 0.011526286602020264, 0.6905072331428528, -0.23082967102527618, 0.02023623138666153, 0.001288292813114822, 0.07218965888023376], [-0.01677118055522442, -0.028604816645383835, -0.0055160787887871265, 0.00043118884786963463, 0.0025603435933589935, -0.003199618775397539, 0.009025956504046917, -0.005552411079406738, -0.024514535441994667, -0.008698658086359501, -0.000617930490989238, -0.022702224552631378, 0.00259253173135221, 0.014925490133464336, 0.002289690775796771, -0.013192441314458847, 0.003166808746755123, 0.0030092084780335426, 0.0010353690013289452, 0.003553412389010191, 0.009947282262146473, -0.00336865964345634, 0.008044230751693249, 0.011046066880226135, -0.006413472816348076, 0.010096329264342785, -0.0063774739392101765, -0.0088438019156456, -0.04154341667890549, -0.008774973452091217, -0.007695476058870554, -0.005820524878799915, 0.012597103603184223, 0.004101361148059368, -0.0021126645151525736, 0.010637551546096802, 0.01632988639175892, 0.007100461516529322, 0.0032913158647716045, 0.003546709893271327], [-0.015526670031249523, -0.022272303700447083, -0.005396557040512562, 0.0008634260157123208, 0.0028434183914214373, -0.003297734074294567, 0.009522698819637299, -0.00548316678032279, -0.022119423374533653, -0.009156927466392517, 0.00017953361384570599, -0.02309173345565796, 0.0026484511326998472, 0.018512574955821037, 0.0016522466903552413, -0.013759064488112926, 0.0033018135000020266, 0.003303002333268523, -5.253800190985203e-05, 0.003760339692234993, 0.008202236145734787, -0.0035171350464224815, 0.008448608219623566, 0.011431200429797173, -0.006502903997898102, 0.010541167110204697, -0.002637844765558839, -0.009361126460134983, -0.04013531282544136, -0.009289774112403393, -0.008275742642581463, -0.006440156605094671, 0.01622958853840828, 0.0023970063775777817, -0.002494121203199029, 0.020564433187246323, 0.01733514294028282, 0.007239251397550106, 0.0034129575360566378, -0.0006456971750594676], [-0.10676001012325287, 0.19822914898395538, -0.012596305459737778, -0.06397751718759537, -0.004613643512129784, 0.002264478011056781, 0.012258511036634445, -0.014682536944746971, 0.07934395968914032, -0.012481095269322395, 0.0011913918424397707, -0.04144178330898285, -0.003883662400767207, 0.050988294184207916, 0.11362531781196594, -0.013725890778005123, -0.002647839719429612, -0.0029084603302180767, 0.266008585691452, 0.0002303468791069463, -0.019381612539291382, 0.0009422798757441342, 0.012773262336850166, 0.13676738739013672, -0.015170825645327568, -0.17360682785511017, 0.06262055039405823, -0.01162322610616684, -0.0021973929833620787, -0.011767517775297165, -0.00891194585710764, -0.005831397604197264, 0.4003610610961914, -0.09686470031738281, 0.0007405503420159221, -0.2326650768518448, -0.15358051657676697, 0.015141771174967289, -0.0014808045234531164, -0.030228707939386368], [-0.01614798977971077, -0.022179320454597473, -0.00569050433114171, 0.0006454270333051682, 0.002150868996977806, -0.002855601953342557, 0.009318310767412186, -0.005722622387111187, -0.024038471281528473, -0.009046305902302265, -0.00018452854419592768, -0.02512427046895027, 0.002167831175029278, 0.020625747740268707, 0.002073858166113496, -0.0171020720154047, 0.0028014015406370163, 0.002624969696626067, 0.0027089056093245745, 0.0032755080610513687, 0.012557698413729668, -0.003067254088819027, 0.008421932347118855, 0.015381348319351673, -0.006671362556517124, 0.012049302458763123, -0.008827166631817818, -0.009060540236532688, -0.04153409227728844, -0.009066068567335606, -0.007588611915707588, -0.005446137394756079, 0.011276078410446644, 0.004235085565596819, -0.0017398511990904808, 0.004308777395635843, 0.016600342467427254, 0.007373275700956583, 0.0029790864791721106, 0.0019970890134572983], [-0.12722957134246826, 0.06197631359100342, -0.002248870674520731, -0.7072815895080566, -0.01582389883697033, 0.01259404793381691, 0.009825076907873154, -0.004362870939075947, -0.22207586467266083, -0.010679570958018303, 0.008269661106169224, -0.07410214096307755, -0.015169752761721611, 0.27104830741882324, -0.44959697127342224, -0.2121685892343521, -0.013360054232180119, -0.014583343639969826, 0.194901242852211, -0.010330069810152054, 0.43618425726890564, 0.01143775787204504, 0.011692648753523827, -1.6039185523986816, -0.00663455156609416, -0.39711135625839233, -0.18132416903972626, -0.009245796129107475, 0.4911589026451111, -0.010022304952144623, -0.005019320175051689, 0.0009645485552027822, 0.052639614790678024, -0.7414094805717468, 0.016801945865154266, -0.3484266996383667, 0.0802721455693245, 0.006258002482354641, -0.011895233765244484, 0.034184519201517105], [0.016279706731438637, 0.025440867990255356, 0.0054937549866735935, -0.0007263179868459702, -0.002295259153470397, 0.002988470019772649, -0.008935585618019104, 0.005520240403711796, 0.02435861900448799, 0.008649059571325779, 0.0004746801278088242, 0.02375969849526882, -0.002346388529986143, -0.01746564358472824, -0.0024587928783148527, 0.015013586729764938, -0.0029398028273135424, -0.0027547096833586693, -0.0015144317876547575, -0.00336055108346045, -0.011885368265211582, 0.0031732877250760794, -0.008026054129004478, -0.01336800865828991, 0.00639342050999403, -0.010936758480966091, 