{"model_data": {"model": "SimpleRNN", "input_size": 1, "skip": 1, "output_size": 1, "unit_type": "LSTM", "num_layers": 1, "hidden_size": 40, "bias_fl": true}, "state_dict": {"rec.weight_ih_l0": [[0.06832122057676315], [0.006719537079334259], [0.12460914999246597], [0.027815088629722595], [-0.24099822342395782], [-0.1633738875389099], [-0.17033651471138], [0.03469661995768547], [0.025165023282170296], [-0.056061726063489914], [0.09871505200862885], [0.13666105270385742], [0.07189721614122391], [-0.12561297416687012], [-0.12720787525177002], [0.0902152806520462], [0.05343255028128624], [0.012891524471342564], [-0.0494542270898819], [0.24703150987625122], [0.015314343385398388], [-0.20128920674324036], [-0.1896079182624817], [0.02217944897711277], [0.11995024234056473], [-0.005318950396031141], [0.2576369643211365], [-0.03542638570070267], [0.09156687557697296], [0.0025603475514799356], [0.03509639576077461], [0.09707234054803848], [-0.0946139246225357], [0.03758899122476578], [0.08560243993997574], [0.08793533593416214], [0.043577589094638824], [-0.0012897674459964037], [-0.015439379028975964], [-0.1476745903491974], [0.07968077808618546], [-0.07213013619184494], [0.16080217063426971], [0.04995959997177124], [-0.29648062586784363], [-0.12127852439880371], [0.404604434967041], [0.0672229528427124], [-0.07724953442811966], [0.03702288866043091], [0.07152796536684036], [0.07545424997806549], [0.12990917265415192], [-0.05710102990269661], [-0.05583358183503151], [0.17262203991413116], [0.07711735367774963], [-0.03989929333329201], [-0.046820759773254395], [0.1995229423046112], [-0.016658645123243332], [-0.1401747614145279], [0.192650705575943], [0.055163104087114334], [-0.01342339813709259], [0.0040583196096122265], [0.06109619140625], [-0.02578197978436947], [-0.07202155143022537], [-0.032397691160440445], [0.0008704490610398352], [0.0819987952709198], [-0.0776340439915657], [0.08386270701885223], [0.1320817619562149], [-0.04899903014302254], [-0.07479105144739151], [-0.0384109802544117], [0.07499559968709946], [-0.1342797875404358], [0.10655362159013748], [-0.008473710156977177], [-0.07745718210935593], [-0.08233518898487091], [0.18054795265197754], [-0.5484496355056763], [-0.3404976725578308], [-0.05637706443667412], [-0.28489193320274353], [-0.059563636779785156], [-0.6366734504699707], [-0.09822406619787216], [0.18714269995689392], [-0.06631750613451004], [-0.24872811138629913], [-0.13620945811271667], [-0.04030418395996094], [-0.016896633431315422], [0.15962053835391998], [-0.35544461011886597], [-0.3815942406654358], [-0.16375687718391418], [0.5031192302703857], [-0.6093613505363464], [0.13967710733413696], [-0.44369906187057495], [0.2802186608314514], [0.05359559878706932], [0.9950476288795471], [0.08438016474246979], [-0.14441873133182526], [-0.05741899088025093], [-0.3101835250854492], [-0.07426055520772934], [-0.6037874817848206], [-0.1712041199207306], [0.12265398353338242], [0.15939684212207794], [-0.37468206882476807], [-0.1458546221256256], [0.051838651299476624], [-0.08835102617740631], [0.05688963085412979], [-0.07698569446802139], [-0.012166686356067657], [-0.1557098776102066], [0.07459517568349838], [0.04171932116150856], [0.056948576122522354], [0.11181647330522537], [0.040664318948984146], [0.09456691145896912], [0.10166998207569122], [-0.10536953061819077], [-0.171645849943161], [0.09139729291200638], [0.1587715595960617], [-0.08029909431934357], [0.006932774558663368], [0.18175749480724335], [0.035721711814403534], [-0.17635071277618408], [0.10271225869655609], [-0.02999814786016941], [0.10871486365795135], [0.04706829786300659], [0.12669596076011658], [-0.041470106691122055], [0.0358569510281086], [-0.03322136029601097], [0.07462029904127121], [0.079475536942482], [-0.10589545965194702], [0.044678010046482086], [0.11193117499351501], [0.060962285846471786], [-0.034275300800800323], [-0.027419883757829666], [0.0005557382828556001], [-0.16067223250865936]], "rec.weight_hh_l0": [[0.0051331594586372375, 0.0065293326042592525, 0.05135621130466461, 0.027762161567807198, 0.021578237414360046, -0.016754472628235817, 0.015494052320718765, -0.02011026255786419, -0.028533222153782845, -0.029602479189634323, -0.0473824068903923, -0.03088640235364437, 0.015161070972681046, -0.01983591727912426, -0.004897539969533682, -0.009187060408294201, 0.04373125731945038, 0.0013653213391080499, -0.03405270352959633, -0.020894913002848625, -0.017044056206941605, -0.0013864520005881786, 0.05730750784277916, -0.038883358240127563, -0.013425281271338463, -0.010448026470839977, -0.004767881240695715, -0.010460506193339825, -0.0364907830953598, 0.036360178142786026, 0.01973862573504448, -0.00260201096534729, -0.018301373347640038, -0.049655668437480927, 0.00670362776145339, -0.00026801208150573075, 0.024510396644473076, 0.016460534185171127, -0.017633739858865738, 0.002000150503590703], [-0.011454305611550808, 0.040122196078300476, 0.048370882868766785, 0.0396568663418293, 0.14001710712909698, 0.0081560630351305, 0.1475733369588852, -0.014298256486654282, -0.09969040751457214, 0.04978993162512779, 0.017281148582696915, -0.021083788946270943, 0.01298271119594574, 0.018044980242848396, 0.008899310603737831, 0.040446024388074875, 0.07960926741361618, 0.00434601167216897, 0.036522455513477325, -0.03506277874112129, 0.03270650655031204, -0.04324524849653244, 0.014024830423295498, 0.07096497714519501, -0.08535720407962799, 0.04085904359817505, -0.026357444003224373, 0.03436025604605675, 0.010972867719829082, -0.03892381861805916, 0.01699380949139595, 0.047747835516929626, 0.028000397607684135, -0.11860832571983337, 0.06812265515327454, 0.05914970859885216, -0.0586184561252594, -0.07488202303647995, 0.08811081945896149, 0.10144615918397903], [-0.012559338472783566, 0.008355818688869476, -0.13910238444805145, 0.002173270098865032, 0.06156000867486, -0.08762083947658539, 0.0008894490310922265, -0.059395577758550644, -0.1301933228969574, -0.049509622156620026, -0.08281003683805466, -0.017237186431884766, 0.03451797366142273, -0.07016700506210327, -0.011719636619091034, -0.053162600845098495, -0.025971177965402603, -0.02721887268126011, 0.05461161583662033, -0.040402479469776154, -0.028572671115398407, -0.006850308272987604, -0.045959800481796265, -0.05669276788830757, -0.014492855407297611, 0.0825054943561554, 0.08636773377656937, -0.08575613796710968, -0.05923876911401749, -0.0063489945605397224, -0.013928646221756935, -0.012039613910019398, -0.02044609934091568, 0.027447311207652092, 0.12917748093605042, 0.02637118473649025, 0.11243830621242523, 0.01574249565601349, 0.0864420011639595, -0.008053449913859367], [-0.025749044492840767, 0.09757011383771896, -0.07329566031694412, -0.0033606530632823706, -0.19124600291252136, -0.011405471712350845, -0.12170848995447159, -0.054889701306819916, 0.09525299072265625, -0.02770821936428547, -0.019616680219769478, -0.0688977837562561, 0.04708043113350868, -0.015038331039249897, 0.041111256927251816, -0.08375439792871475, 0.05963452160358429, 0.10381556302309036, -0.009266264736652374, -0.0047117313370108604, 0.052218008786439896, -0.03463040664792061, -0.05541154742240906, -0.055224787443876266, -0.028791502118110657, -0.0008751492714509368, 0.13132987916469574, 0.003345636185258627, -0.013465449213981628, 0.08594561368227005, 0.07036051154136658, 0.010606125928461552, 0.02877010405063629, 0.016485221683979034, 0.03819387033581734, 0.0553814135491848, -0.12261843681335449, -0.027279144152998924, 0.1536596417427063, 0.05485875532031059], [0.024827662855386734, 0.08150920271873474, -0.07047083973884583, -0.042382705956697464, -0.06000637635588646, 0.050613950937986374, -0.27711743116378784, -0.010031068697571754, 0.03734659031033516, 0.004197915084660053, 0.0551859475672245, 0.04538365453481674, 0.009578290395438671, 0.01257411390542984, 0.03542109206318855, -0.03740070015192032, -0.1437140703201294, 0.028576171025633812, -0.12029895931482315, -0.010765865445137024, -0.031914327293634415, 0.043639782816171646, -0.06320568919181824, -0.05625426769256592, 0.1366013139486313, -0.07639769464731216, 0.005751257296651602, -0.08815733343362808, -0.1831527203321457, -0.06482858210802078, -0.19100575149059296, -0.048984404653310776, 0.05157759040594101, -0.008051742799580097, 0.06341452896595001, -0.022558830678462982, 0.011584856547415257, 0.016025705263018608, -0.1410011202096939, 0.00624195858836174], [0.006022152956575155, 0.08231103420257568, -0.026198748499155045, -0.045346248894929886, 0.15403881669044495, 0.08917061984539032, -0.035130906850099564, 0.015763578936457634, 0.03583892807364464, 0.015708589926362038, -0.009726917371153831, 0.0433434396982193, -0.01420194748789072, 0.01173454150557518, 0.022210797294974327, 0.016826514154672623, 0.03441835939884186, -0.05301507189869881, -0.04611693322658539, -0.0017552291974425316, 0.04141463339328766, -0.08027373254299164, -0.003103897674009204, 0.08736905455589294, 0.03139880672097206, 0.013705725781619549, -0.04405621066689491, 0.1045614555478096, 0.05568406730890274, -0.07139546424150467, -0.06483107060194016, 0.01213024090975523, 0.023582687601447105, -0.033069975674152374, 0.011224508285522461, -0.01872541569173336, -0.008625009097158909, -0.054188866168260574, 0.028550034388899803, 0.09124551713466644], [0.07237374037504196, -0.020430179312825203, -0.790677547454834, -0.3874063491821289, -0.599048912525177, -0.23788516223430634, -0.024353690445423126, -0.16353149712085724, -0.11413924396038055, -0.1454131156206131, -0.07442788034677505, -0.15999269485473633, 0.105740487575531, -0.01838723197579384, 0.14310339093208313, -0.23220381140708923, -0.44565874338150024, 0.12711885571479797, 0.2578393816947937, -0.019915871322155, 0.16759076714515686, 0.20567664504051208, -0.4488410949707031, -0.09298383444547653, -0.23362144827842712, -0.0296205785125494, 0.9267252087593079, -0.11040617525577545, 0.18179038166999817, 0.10323797166347504, -0.14192304015159607, -0.11481522768735886, 0.10493046045303345, 0.36081892251968384, 0.17112217843532562, -0.09726324677467346, 0.16801008582115173, -0.1967219114303589, 0.2531886100769043, 0.09222457557916641], [0.010732555761933327, 0.030373819172382355, 0.04143903777003288, 0.02240704745054245, 0.043400395661592484, -0.0180814266204834, -0.017421070486307144, -0.05918878689408302, 0.03525950759649277, -0.003977695945650339, -0.06393725425004959, -0.047916702926158905, 0.013500925153493881, -0.0258488729596138, 0.01796570234000683, -0.01920410804450512, -0.005586973857134581, 0.07004294544458389, -0.031282342970371246, -0.07781156152486801, 0.009848886169493198, 0.002298549748957157, 0.01591024361550808, -0.053104203194379807, 0.030283819884061813, -0.012093932367861271, 0.030242454260587692, -0.01907934807240963, -0.06582562625408173, 0.03871450945734978, -0.049910493195056915, -0.02037229761481285, 0.006851639598608017, -0.05270368605852127, 0.08378452807664871, 0.044140465557575226, 0.029051661491394043, -0.012725618667900562, -0.03438309207558632, 0.01724156364798546], [-0.02411465346813202, 0.03132964298129082, -0.2988723814487457, -0.1977815181016922, 0.24815507233142853, -0.0818486288189888, 0.09465274959802628, -0.03356723487377167, -0.0860818549990654, 0.15208204090595245, 0.06651825457811356, 0.025741012766957283, -0.0024517057463526726, -0.00948416255414486, 0.030913012102246284, 0.008768013678491116, -0.16449861228466034, 0.11231456696987152, 0.3350987434387207, -0.01787201501429081, 0.026546228677034378, 0.07717527449131012, -0.4296414852142334, 0.03883104398846626, 0.004505259450525045, 0.05726630240678787, 0.6697461605072021, 0.07537107169628143, -0.0346810407936573, 0.022511964663863182, 0.05171285569667816, 0.03586069494485855, 0.01819572038948536, 0.18123994767665863, -0.0940905511379242, 0.02679840289056301, 0.05145759508013725, -0.16323737800121307, 0.14131411910057068, 0.0816088542342186], [-0.0034055605065077543, 0.04320762678980827, -0.06119627505540848, -0.07217274606227875, 0.17010392248630524, -0.03182284161448479, 0.020530257374048233, -0.052919141948223114, 0.06597598642110825, 0.04272310808300972, -0.04249504208564758, -0.08929065614938736, 0.08036059141159058, -0.03091357834637165, 0.01622915267944336, 0.04457450285553932, -0.14397242665290833, 0.23607155680656433, -0.03781028464436531, -0.11995694786310196, 0.04028595611453056, -0.059682149440050125, 0.05496804788708687, -0.12052720785140991, 0.09742573648691177, 0.01550173107534647, 0.22042390704154968, -0.011599984019994736, -0.2547920048236847, 0.08327387273311615, -0.04917215183377266, 0.07332330197095871, 0.10048337280750275, 0.01940297894179821, 0.07582784444093704, 0.03782689943909645, -0.06660303473472595, -0.038354553282260895, 0.10617584735155106, 0.046783048659563065], [0.046299904584884644, 0.030716273933649063, 0.022404856979846954, 0.0018375107320025563, 0.037475548684597015, -0.07445813715457916, -0.006814437918365002, -0.05806482210755348, 0.03553424030542374, -0.04961124435067177, -0.10748486965894699, 0.0019371664384379983, 0.04580100253224373, -0.02217325009405613, 0.05056485906243324, -0.06372558325529099, -0.02803516387939453, 0.015967058017849922, 0.021577801555395126, -0.023534758016467094, 0.004154801834374666, 0.05066908150911331, -0.01632053032517433, -0.09043992310762405, -0.031405460089445114, -0.01603008061647415, 0.079276904463768, -0.03525199368596077, -0.008972329087555408, 0.06392595916986465, -0.08064170181751251, -0.04949971288442612, -0.03231709450483322, -0.0273006372153759, 0.19835343956947327, 0.004523453302681446, -0.006442642770707607, -0.06629683822393417, -0.007176050450652838, 0.017132500186562538], [0.04055189713835716, 0.004398734774440527, 0.019968409091234207, -0.016897698864340782, 0.05350160971283913, -0.05646871402859688, -0.07791724056005478, -0.09007090330123901, 0.023992659524083138, -0.07174548506736755, -0.1623922437429428, -0.09888369590044022, 0.025408420711755753, -0.0766327977180481, 0.031021608039736748, -0.06474247574806213, -0.008866475895047188, 0.07874368131160736, -0.07585126906633377, -0.11880379170179367, -0.026216980069875717, 0.04947205260396004, -0.019621871411800385, -0.11388066411018372, -0.005391640588641167, -0.0663909912109375, 0.05539838224649429, -0.08526363223791122, -0.06919234991073608, 0.08989136666059494, -0.006998758297413588, -0.014597928151488304, 0.009844993241131306, -0.05523727089166641, 0.19285327196121216, -0.019242066890001297, 0.024506380781531334, -0.00871515367180109, -0.05654601380228996, 0.037581175565719604], [-0.004589613992720842, 0.024338897317647934, 0.03674361854791641, 0.027905883267521858, 0.007252806797623634, -0.01719028875231743, 0.08732080459594727, -0.04437990114092827, 0.04265046492218971, -0.061486393213272095, -0.041087597608566284, -0.05030781030654907, 0.05923228710889816, -0.022463953122496605, 0.0048633660189807415, -0.08987993001937866, -0.001712312106974423, 0.0712132677435875, 0.005481123458594084, -0.03283534198999405, 0.004151199944317341, -0.0016842610202729702, 0.05267731845378876, -0.06826673448085785, -0.021792568266391754, -0.024131258949637413, 0.08919264376163483, -0.01176680438220501, -0.04494426026940346, 0.06625688076019287, 0.03396470472216606, -0.007238461170345545, -0.003323173150420189, -0.007914407178759575, 0.02929413691163063, -0.007756538223475218, 0.0057523129507899284, 0.014424935914576054, 0.042114946991205215, 0.008640709333121777], [0.014797982759773731, 0.027308138087391853, 0.03421786427497864, 0.05176593363285065, -0.006345223635435104, 0.03294980525970459, 0.042014479637145996, -0.031743500381708145, 0.0338735394179821, -0.004965958185493946, 0.017551414668560028, -0.0070193493738770485, -0.0035298995207995176, 0.028673937544226646, 0.06040157750248909, -0.02133691869676113, 0.016208132728934288, 0.07149119675159454, 0.038287945091724396, -0.011396010406315327, 0.052861347794532776, -0.0009896099800243974, -0.02604791708290577, 0.03612179309129715, -0.034627240151166916, -0.015113767236471176, 0.026681389659643173, 0.0073191444389522076, -0.06438831984996796, -0.007437407039105892, 0.003789422335103154, -0.006570318713784218, 0.043677832931280136, -0.04734080657362938, 0.1124710813164711, 0.03317228704690933, -0.0401795394718647, -0.0524466298520565, -0.030524393543601036, 0.047332704067230225], [-0.005003599915653467, 0.10513335466384888, 0.01786082796752453, 0.06469668447971344, -0.014663515612483025, 0.03514329716563225, 0.09780201315879822, -0.001826341962441802, -0.059090521186590195, 0.06516538560390472, 0.0339413546025753, 0.018028952181339264, -0.026763970032334328, 0.02538266032934189, 0.02604564279317856, 0.06279059499502182, 0.02481735497713089, -0.046832259744405746, 0.06600276380777359, 0.011686366982758045, 0.07447143644094467, -0.04871403053402901, 0.01773296296596527, 0.07579103857278824, -0.02014877274632454, 0.03455454483628273, 0.028364965692162514, 0.06917840242385864, 0.01333809457719326, -0.05754583328962326, -0.030591633170843124, 0.003530550515279174, 0.0059717330150306225, -0.058021485805511475, -0.03296079859137535, 0.03022204525768757, -0.10100838541984558, -0.055702075362205505, -0.016851983964443207, 0.08956704288721085], [-0.051488280296325684, 0.04053178057074547, 0.03632313385605812, 0.016082292422652245, 0.14392246305942535, -0.013521865010261536, 0.010225565172731876, -0.05802936479449272, -0.08617425709962845, -0.0453607551753521, -0.13356807827949524, -0.05189688876271248, 0.0805605873465538, -0.03484518080949783, -0.04022077098488808, -0.03480397164821625, 0.02336110919713974, -0.014271436259150505, -0.11483058333396912, -0.06957221776247025, -0.03840464726090431, -0.06053900346159935, 0.05591369792819023, -0.07037200778722763, 0.04711352661252022, -0.010681108571588993, -0.00981854647397995, 0.011531366966664791, -0.04017644375562668, 0.08931958675384521, -0.06614838540554047, -0.010747309774160385, -0.07126546651124954, -0.0352160669863224, 0.0010925951646640897, -0.03683001920580864, -0.04105602204799652, 0.009854137897491455, -0.04889995977282524, -0.01714433915913105], [-0.007628028281033039, 0.04752349108457565, 0.03238195180892944, -0.015552317723631859, 0.044440727680921555, -0.011566064320504665, -0.024625077843666077, -0.046345505863428116, 0.0021808226592838764, 0.005366894416511059, -0.045860812067985535, -0.04524899646639824, 0.030068038031458855, -0.04420467093586922, -0.005582813173532486, 0.033111535012722015, 0.04872264340519905, 0.05441458150744438, -0.03990338742733002, -0.09137275815010071, -0.029132355004549026, -0.04343436658382416, -0.05785755068063736, -0.028066487982869148, -0.06634154170751572, -0.01916397176682949, -0.023903653025627136, -0.009151563979685307, 0.036767199635505676, -0.012456248514354229, 0.03690715134143829, 0.022897709161043167, 0.026502806693315506, -0.07973631471395493, 0.09381861239671707, 0.009481780230998993, -0.17660300433635712, 0.06509250402450562, -0.039826273918151855, 0.03423725813627243], [0.0019474143628031015, 0.1565762162208557, -0.07713907957077026, -0.040454935282468796, 0.008282630704343319, -0.03870771825313568, 0.02416861802339554, -0.11256535351276398, -0.07839608192443848, 0.0029085231944918633, -0.15246307849884033, -0.12080388516187668, 0.046188097447156906, -0.03565186262130737, 0.027863921597599983, -0.008748853579163551, 0.10325951874256134, 0.045480307191610336, 0.08562729507684708, -0.07872088998556137, 0.030873527750372887, -0.022614287212491035, -0.10803207755088806, -0.012333600781857967, -0.15839605033397675, -0.053873710334300995, 0.1570763885974884, -0.01922922022640705, -0.0014470884343609214, 0.09366428107023239, 0.014300725422799587, 0.01941218413412571, -0.04783514887094498, -0.07090067863464355, 0.06432781368494034, 0.034261174499988556, -0.13504792749881744, 0.05306313931941986, 0.0036634544376283884, 0.021091191098093987], [0.029399922117590904, 0.05680376663804054, 0.06820520013570786, 0.0586441308259964, 0.05080127343535423, -0.004779926035553217, 0.06681755930185318, -0.006660059560090303, -0.017527762800455093, -0.09738382697105408, -0.055298931896686554, -0.001148651703260839, -0.02440192922949791, -0.025079946964979172, 0.09556148201227188, -0.2231687307357788, -0.055660463869571686, -0.09779774397611618, 0.004168390762060881, 0.04535809904336929, 0.037400905042886734, 0.08603405952453613, 0.07272101193666458, -0.09088538587093353, 0.049677371978759766, 0.051172006875276566, 0.010565082542598248, -0.16648820042610168, -0.12660062313079834, 0.1228070929646492, -0.1546749472618103, -0.2198629528284073, -0.0035589069593697786, -0.05739746615290642, 0.08657072484493256, -0.013083051890134811, 0.07337400317192078, 0.05472246930003166, 0.05604515224695206, -0.004873859230428934], [0.024682730436325073, -0.0026622533332556486, 0.01933249458670616, -0.005842268001288176, 0.03817914426326752, -0.06530293077230453, 0.025599537417292595, -0.06479033827781677, -0.007091983687132597, -0.02635832503437996, -0.17445722222328186, -0.08876357227563858, 0.02283303812146187, -0.056707754731178284, -0.023511862382292747, -0.01594388112425804, -0.04477529227733612, 0.08403779566287994, 0.03569033369421959, -0.10944503545761108, -0.004265107214450836, -0.004693854134529829, -0.01551959477365017, -0.11641113460063934, 0.0004447929095476866, -0.058245617896318436, 0.08932039886713028, -0.03326329216361046, -0.004390431568026543, 0.08510232716798782, 0.0027274833992123604, 0.0259096622467041, -0.010189742781221867, 0.00022036887821741402, 0.02838749997317791, 0.0115288021042943, -0.046251170337200165, -0.03405550867319107, -0.032206155359745026, 0.027838777750730515], [-0.01030073594301939, 0.06139345467090607, 0.0382215790450573, 0.04435603693127632, 0.09248904883861542, 0.019993245601654053, 0.11940835416316986, 0.03732004389166832, -0.08311615884304047, 0.06023380160331726, 0.034654513001441956, 0.055745434015989304, -0.026272950693964958, 0.0505581758916378, 0.01988966017961502, 0.0561075359582901, 0.06574550271034241, -0.0640958920121193, 0.03210548311471939, 0.024508344009518623, 0.026716139167547226, -0.05471953749656677, 0.021939346566796303, 0.04747464135289192, 0.027808135375380516, 0.019672034308314323, -0.059216100722551346, 0.07274562120437622, 0.03833227604627609, -0.06735503673553467, -0.0625254362821579, -0.013317625969648361, 0.00465946551412344, -0.08389488607645035, -0.03232661262154579, 0.02187288925051689, -0.051325611770153046, -0.052288055419921875, -0.06997157633304596, 0.06130093336105347], [0.0199854988604784, 0.06343217194080353, -0.034797344356775284, -0.025875812396407127, 0.04466479271650314, 0.07150592654943466, -0.005015185568481684, 0.027683386579155922, -0.04222667217254639, 0.03792806342244148, 0.0518387071788311, 0.015234094113111496, -0.022335339337587357, 0.03768989443778992, 0.038171038031578064, 0.0761144682765007, -0.001496930606663227, -0.004877182189375162, 0.04148764908313751, -0.014906633645296097, 0.041459593921899796, -0.05130957439541817, -0.1573517620563507, 0.05258938670158386, 0.01312294416129589, 0.02024730294942856, -0.030374759808182716, 0.05126062035560608, -0.062333643436431885, -0.06685461103916168, -0.060483645647764206, 0.02042410336434841, 0.07224523276090622, 0.014314305037260056, -0.011982516385614872, 0.05861157178878784, -0.17827370762825012, -0.07140302658081055, 0.03207375109195709, 0.06612464040517807], [-0.01486437302082777, 0.0021581423934549093, 0.0032207306940108538, -0.0015799914253875613, 0.15108752250671387, -0.054946351796388626, 0.042168937623500824, 0.019136153161525726, -0.0977991595864296, 0.03798134624958038, 0.00857318751513958, -0.08355416357517242, 0.024177348241209984, 0.013350369408726692, 0.030960706993937492, 0.0010324808536097407, -0.01732604205608368, 0.023500710725784302, -0.004130168817937374, -0.04100130870938301, 0.0015943323960527778, -0.041594307869672775, -0.15858539938926697, -0.03835570067167282, -0.06295241415500641, 0.10695791244506836, 0.17409634590148926, 0.07959423214197159, -0.07646628469228745, 0.00365728372707963, 0.06925700604915619, 0.02738676220178604, 0.0014543822035193443, 0.07570390403270721, -0.15438935160636902, 0.06587569415569305, 0.029846956953406334, -0.07208169996738434, 0.056564316153526306, 0.010075325146317482], [0.045542649924755096, 0.12116453796625137, -0.0012494000839069486, 0.01166816521435976, -0.03654535859823227, -0.023926913738250732, 0.08645245432853699, -0.06968192011117935, 0.008779545314610004, -0.00017557814135216177, -0.1772042065858841, -0.09137257933616638, 0.023828895762562752, -0.0316726416349411, 0.009608368389308453, 0.0070918225683271885, 0.005878834053874016, 0.078859843313694, 0.04103269800543785, -0.11974174529314041, 0.00525582255795598, -0.006330919452011585, -0.005945982411503792, -0.0326697938144207, -0.10349727421998978, 0.04269888252019882, 0.05485231429338455, 0.02492254227399826, 0.10315799713134766, 0.025214169174432755, 0.01069620344787836, 0.043202243745326996, -0.01648731902241707, -0.06206006929278374, 0.04878769442439079, -0.0020430153235793114, -0.08605313301086426, -0.044321395456790924, 0.052368223667144775, 0.09554494917392731], [0.03311653062701225, 0.06104370579123497, 0.03649754449725151, 0.007886962033808231, 0.0180631373077631, -0.07800798118114471, -0.08255124092102051, -0.13012491166591644, -0.014798605814576149, -0.008132953196763992, -0.22527022659778595, -0.09015204012393951, 0.028427738696336746, -0.08834308385848999, 0.04212559759616852, -0.14164160192012787, -0.004129996057599783, 0.07225044071674347, -0.07181540131568909, -0.13802021741867065, -0.036379165947437286, 0.03165918216109276, -0.025393914431333542, -0.10161746293306351, -0.10767684876918793, -0.006590855773538351, 0.02466725744307041, -0.0895281732082367, 0.014342840760946274, 0.17328909039497375, -0.040798258036375046, -0.0810694545507431, -0.018562085926532745, -0.016385238617658615, 0.18210990726947784, 0.053876761347055435, -0.00022241580882109702, 0.003529725130647421, -0.11740294843912125, 0.052675094455480576], [0.02318333275616169, 0.11002019047737122, -0.127439945936203, -0.16091860830783844, 0.14176668226718903, -0.10124800354242325, -0.09729063510894775, -0.08797314018011093, 0.09519988298416138, -0.08919615298509598, -0.23530958592891693, -0.11256982386112213, 0.05890539288520813, -0.04277409240603447, 0.06598122417926788, -0.157887265086174, -0.10345495492219925, 0.13969549536705017, -0.02582852728664875, -0.08362341672182083, -0.010789843276143074, 0.036953140050172806, -0.23891909420490265, -0.11961212009191513, -0.13418453931808472, -0.0881504938006401, 0.07998685538768768, -0.06208319216966629, 0.0015781234251335263, 0.18299634754657745, 0.0024799404200166464, -0.039639830589294434, -0.06064634770154953, 0.021112240850925446, 0.08671429008245468, -0.06841122359037399, -0.12730899453163147, 0.06406259536743164, -0.00535935303196311, 0.006009766366332769], [0.005757810082286596, 0.09419742971658707, -0.07992503046989441, -0.020320862531661987, -0.11074888706207275, 0.07243487983942032, 0.024372557178139687, -0.001581452670507133, 0.15034161508083344, -0.09735565632581711, -0.08430586010217667, -0.11007614433765411, 0.020047927275300026, 0.0031014755368232727, -0.030883951112627983, 0.08508525788784027, 0.18852870166301727, 0.20568546652793884, 0.03728927671909332, -0.09063811600208282, 0.037243980914354324, -0.045465368777513504, 0.21767789125442505, -0.1037847176194191, 0.006571735721081495, -0.03214555233716965, 0.10113023966550827, 0.04596730321645737, -0.01949227601289749, -0.014030899852514267, 0.14398373663425446, 0.06383310258388519, 0.031015237793326378, -0.049162738025188446, -0.14573577046394348, -0.04775262251496315, -0.28651219606399536, 0.05954676494002342, 0.08887705206871033, 0.06142484024167061], [0.018334606662392616, 0.11244812607765198, -0.02862554043531418, 0.02882010117173195, 0.026394570246338844, 0.08188049495220184, 0.06175804138183594, 0.04245445132255554, -0.11204959452152252, 0.0876850038766861, 0.007451087236404419, 0.027435338124632835, -0.0194183848798275, 0.03147461265325546, 0.04349818825721741, 0.0728844627737999, 0.09554540365934372, -0.05418428033590317, 0.06334606558084488, -0.007140256930142641, 0.0434529073536396, -0.07723389565944672, -0.013835763558745384, 0.07955197989940643, -0.018206804990768433, 0.04860575124621391, -0.04935365542769432, 0.04798491671681404, 0.056402720510959625, -0.06640002131462097, -0.046417780220508575, 0.02697768807411194, 0.06374957412481308, -0.10329145938158035, -0.03161902725696564, 0.09940191358327866, -0.08683741092681885, -0.07386986166238785, -0.023973288014531136, 0.08378742635250092], [-0.04444863647222519, -0.009800281375646591, -0.008305837400257587, -0.011800295673310757, -0.05171644315123558, 0.001995328115299344, -0.06387166678905487, -0.03062906488776207, -0.016717437654733658, 0.006654278375208378, -0.006830868776887655, -0.06907074898481369, 0.027109980583190918, 0.005190507508814335, 0.012708422727882862, -0.05915258824825287, -0.03628469258546829, 0.051245298236608505, -0.004940890707075596, 0.017785876989364624, 0.029659222811460495, 0.03145093843340874, -0.03825812041759491, -0.009373608976602554, -0.1029176115989685, -0.020616568624973297, 0.04938741773366928, -0.04536975547671318, -0.0352637842297554, 0.10633013397455215, 0.028866777196526527, 0.055704571306705475, 0.012321319431066513, 0.003975413739681244, 0.04405168071389198, 0.0013384713092818856, -0.050573255866765976, 0.04521896690130234, 0.024680033326148987, -0.014285624027252197], [0.005457949358969927, 0.040197569876909256, 0.104392871260643, 0.0712098479270935, 0.10165798664093018, 0.022482169792056084, 0.0003936978173442185, -0.04402337968349457, -0.030494175851345062, -0.04295174032449722, -0.04699806123971939, 0.018964111804962158, 0.021285656839609146, -0.052751217037439346, -0.01054747961461544, -0.014727611094713211, 0.05825989693403244, -0.0710337683558464, -0.1095254123210907, 0.002466941252350807, -0.010266908444464207, -0.021836236119270325, 0.1210952177643776, -0.040832798928022385, 0.054604798555374146, -0.009980733506381512, -0.09158585965633392, 0.01083851046860218, -0.058643948286771774, 0.011831525713205338, -0.056701723486185074, -0.0452345609664917, -0.03799418359994888, -0.1442505568265915, 0.08879921585321426, -0.027598148211836815, 0.10300226509571075, -0.026035994291305542, -0.02086672931909561, 0.0033449798356741667], [0.04559173062443733, 0.12791705131530762, -0.00030181740294210613, 0.04036511853337288, -0.01828666590154171, 0.04404178261756897, 0.0021566818468272686, -0.028517616912722588, -0.0639636442065239, -0.016026360914111137, -0.05357857421040535, -0.01680164597928524, -0.005018529947847128, 0.017154162749648094, 0.09347616136074066, -0.05792004242539406, 0.0380379818379879, -0.02744096890091896, -0.07622554153203964, 0.00039310799911618233, 0.015563923865556717, -0.04063236713409424, 0.021536750718951225, 0.011267785914242268, -0.025508882477879524, -0.10587430745363235, 0.02665639854967594, -0.00547703355550766, -0.0015660616336390376, 0.018709316849708557, -0.08648786693811417, -0.07606647163629532, 0.04637572541832924, -0.044997021555900574, 0.10273917764425278, 0.00327164214104414, -0.06013292074203491, 0.0068679372780025005, 0.007919199764728546, 0.05000075325369835], [0.013466885313391685, 0.059938255697488785, 0.04555588960647583, 0.033233121037483215, 0.09606342762708664, -0.027726104483008385, 0.085984006524086, -0.030268697068095207, -0.0554199181497097, 0.015156855806708336, -0.058740854263305664, -0.04381062090396881, 0.024760963395237923, -0.01790076121687889, 0.014933020807802677, 0.03772924840450287, 0.0703282505273819, 0.04641205817461014, 0.03570522740483284, -0.0554434210062027, 0.033136531710624695, -0.04168928042054176, 0.040495771914720535, -0.04791829362511635, -0.024990634992718697, 0.012204763479530811, -0.015024158172309399, 0.02120177634060383, -0.03976483270525932, -0.008121365681290627, 0.008123893290758133, 0.011192308738827705, 0.007491680793464184, -0.10674439370632172, 0.037659287452697754, 0.038081537932157516, -0.07402321696281433, -0.045819804072380066, -0.017923468723893166, 0.07374449074268341], [0.00699709914624691, 0.11360576748847961, 0.01726371981203556, 0.017547357827425003, 0.03877576068043709, -0.0029046498239040375, 0.09253519773483276, -0.02994716167449951, -0.05259041488170624, 0.015021677128970623, -0.008511615917086601, 0.011068825609982014, 0.007356507703661919, 0.0072279199957847595, 0.06708672642707825, -0.025699175894260406, -0.01147041842341423, -0.04868416115641594, 0.003240989986807108, -0.0015547893708571792, 0.057625677436590195, -0.02447156235575676, -0.03206576406955719, 0.031861562281847, -0.05062438175082207, 0.02479582652449608, 0.017712367698550224, 0.031587373465299606, 0.004011834505945444, -0.00498479139059782, -0.043494630604982376, -0.03354243189096451, 0.014781521633267403, -0.03372428938746452, 0.054507821798324585, 0.0038380599580705166, -0.07752842456102371, -0.06336303055286407, -0.027928495779633522, 0.08703368902206421], [0.007670434191823006, 0.10046233981847763, -0.22173498570919037, -0.20495091378688812, 0.0047997403889894485, 0.04987408220767975, -0.05419337749481201, -0.044831402599811554, -0.061244361102581024, 0.19161199033260345, -0.10820187628269196, -0.020852932706475258, -0.04699761047959328, -0.09073331207036972, -0.006133998744189739, 0.007598979864269495, -0.005621711723506451, 0.17728155851364136, 0.18554997444152832, -0.09863830357789993, 0.03794221207499504, -0.08302123099565506, -0.196655735373497, -0.07816995680332184, 0.07697098702192307, -0.09138568490743637, -0.015453390777111053, 0.012252825312316418, -0.04662375524640083, 0.06579195708036423, -0.03758048266172409, -0.00848088227212429, -0.012860544957220554, -0.22448988258838654, 0.022907184436917305, 0.2469513863325119, -0.2740868031978607, 0.12633022665977478, -0.04139446094632149, 0.04461934417486191], [0.00668311957269907, -0.09399999678134918, 0.08293978869915009, 0.0017418910283595324, 0.12279573082923889, -0.05193234607577324, 0.03419527783989906, -0.017145298421382904, 0.05155166983604431, -0.044911328703165054, 0.004821297712624073, -0.007619116920977831, 0.07226280868053436, -0.013512842357158661, -0.024024533107876778, -0.043282777070999146, -0.0054136416874825954, 0.08878433704376221, -0.20428045094013214, 0.002467431826516986, 0.014999295584857464, -0.013619096018373966, 0.028004750609397888, -0.025885064154863358, -0.09385097771883011, 0.08804724365472794, -0.07905326038599014, -0.011232618242502213, 0.00980850588530302, -0.004864315968006849, 0.07822198420763016, 0.054531220346689224, 0.01765703409910202, 0.09383285045623779, 0.20905500650405884, -0.013641846366226673, 0.09083224833011627, -0.009172501042485237, 0.10089640319347382, 0.005019920412451029], [0.05328616499900818, 0.0812625139951706, -0.12491223216056824, -0.08917407691478729, 0.17273496091365814, -0.08667261153459549, -0.0017419557552784681, -0.15580829977989197, -0.0629110112786293, 0.09499010443687439, -0.1655803769826889, -0.14267145097255707, 0.07407860457897186, -0.08467734605073929, 0.10921857506036758, -0.08554022014141083, 0.015247251838445663, 0.13205721974372864, 0.06755401939153671, -0.16802679002285004, 0.03629203885793686, -0.0598541796207428, -0.1592606008052826, -0.0658036321401596, -0.2664378583431244, 0.03875419497489929, 0.041644204407930374, -0.08653031289577484, -0.07163015753030777, 0.0938495621085167, 0.04917096346616745, -0.0584782212972641, 0.026633888483047485, -0.05650876834988594, 0.11902713030576706, 0.05321922153234482, -0.2048325389623642, -0.04878954216837883, -0.0835922583937645, 0.11195443570613861], [0.05320874974131584, 0.12068280577659607, 0.06857423484325409, 0.02050548978149891, -0.03525537997484207, 0.04994532838463783, 0.03724385052919388, 0.02714516408741474, -0.09755406528711319, -0.09278415888547897, -0.04385373741388321, -0.0189003124833107, 0.03192799538373947, 0.11102443933486938, 0.11132168024778366, -0.213567316532135, 0.17158590257167816, -0.20015627145767212, -0.09165582060813904, 0.08012630045413971, -0.03526030853390694, 0.03325144201517105, -0.20086906850337982, 0.10629987716674805, -0.34386810660362244, -0.08657809346914291, -0.05514286831021309, -0.03471878916025162, 0.17582690715789795, -0.040235258638858795, 0.1897452175617218, -0.13985764980316162, -0.03520892933011055, -0.06217328831553459, -0.08728049695491791, -0.11640406399965286, -0.2537614107131958, 0.060921087861061096, -0.04089808464050293, 0.06558236479759216], [0.03818735107779503, 0.18731112778186798, 0.015229492448270321, 0.009806541725993156, 0.05964577570557594, 0.02210739441215992, 0.053580861538648605, -0.07388456910848618, -0.045584678649902344, 0.04358785226941109, -0.16342349350452423, -0.07451741397380829, -0.04449784755706787, -0.026615610346198082, 0.06601180136203766, 0.003574460046365857, 0.06866095960140228, -0.07274866104125977, 0.013321928679943085, -0.10053301602602005, 0.015237989835441113, -0.06205837428569794, -0.09798401594161987, 0.030333422124385834, -0.06452610343694687, -0.028839638456702232, -0.026152199134230614, 0.03370514512062073, 0.11769308894872665, 0.019259203225374222, -0.12344673275947571, -0.0685383528470993, 0.00468639750033617, -0.10857585072517395, 0.011672127060592175, -0.007752174511551857, -0.2511747479438782, -0.012012436054646969, -0.03795189410448074, 0.13012367486953735], [-0.025516072288155556, 0.025530535727739334, -0.35891497135162354, -0.061271630227565765, -0.04334438219666481, -0.013944651000201702, -0.0706133097410202, -0.057207025587558746, -0.013580049388110638, -0.1026773601770401, -0.09519122540950775, -0.09067211300134659, 0.047368403524160385, -0.03699478507041931, 0.05242083594202995, -0.09812750667333603, -0.09363298863172531, -0.03939441218972206, 0.20360441505908966, -0.017859965562820435, 0.011051592417061329, 0.08674691617488861, -0.19180439412593842, 0.008469630032777786, -0.09389013797044754, 0.07888325303792953, 0.01942295953631401, -0.04276534914970398, 0.07884930819272995, 0.1516145020723343, -0.09426585584878922, -0.04940830543637276, 0.0051964581944048405, 0.20839673280715942, 0.09195705503225327, -0.029298577457666397, -0.10458578169345856, -0.019761113449931145, 0.033203575760126114, -0.0008406653068959713], [0.005538427736610174, 0.1364891678094864, 0.02481156215071678, 0.10733263939619064, -0.02717846818268299, 0.13532909750938416, -0.023646460846066475, 0.0505671463906765, -0.06530708819627762, 0.12729886174201965, 0.04898114874958992, 0.09448714554309845, -0.03804760053753853, 0.08724819123744965, 0.03226938471198082, 0.0780080258846283, 0.029094435274600983, -0.07816240191459656, 0.06157410517334938, 0.059783320873975754, 0.07871759682893753, -0.0711706280708313, -0.002542598405852914, 0.06640639156103134, 0.05447085201740265, 0.07671330869197845, -0.049639858305454254, 0.12539392709732056, 0.03271721675992012, -0.09344746917486191, -0.1011429950594902, -0.02646929956972599, 0.021485138684511185, -0.09102414548397064, 0.00774799007922411, 0.031081918627023697, -0.11358354985713959, -0.13845130801200867, -0.017265215516090393, 0.08838428556919098], [0.005040145944803953, -0.003229693043977022, 0.05316459760069847, 0.02325872890651226, 0.024280212819576263, -0.023665254935622215, 0.008048491552472115, -0.021958010271191597, -0.01738593727350235, -0.03641829639673233, -0.051459040492773056, -0.03768950328230858, 0.019127294421195984, -0.02550395578145981, -0.008543360978364944, -0.01833154819905758, 0.043282728642225266, 0.014652845449745655, -0.044043801724910736, -0.02352292835712433, -0.021627038717269897, -5.8372606872580945e-05, 0.06623151153326035, -0.04568270221352577, -0.008296927437186241, -0.011334123089909554, -0.008556867949664593, -0.01680518314242363, -0.041895780712366104, 0.04780624806880951, 0.028218232095241547, 6.805088196415454e-05, -0.019574640318751335, -0.04368541017174721, 0.008843650110065937, -0.005193170625716448, 0.04623126983642578, 0.02239764854311943, -0.019388632848858833, -0.00707195233553648], [0.0021597507875412703, 0.039574842900037766, 0.06595797091722488, 0.05404268577694893, 0.10003095120191574, 0.04465600103139877, 0.07365607470273972, -0.002643649000674486, -0.14083757996559143, 0.059854645282030106, 0.028773432597517967, -0.003714151680469513, -0.033231042325496674, 0.0027258654590696096, -0.019174544140696526, 0.03417295962572098, 0.08892563730478287, -0.035590674728155136, -0.06008632481098175, -0.009781664237380028, 0.017589017748832703, -0.08375239372253418, 0.12440533190965652, 0.10113693028688431, -0.009120821952819824, 0.003075891174376011, -0.040635980665683746, 0.07146871089935303, 0.006698310375213623, -0.019054308533668518, -0.027183234691619873, -0.021950911730527878, 0.005038926377892494, -0.16005270183086395, 0.051624227315187454, 0.046353522688150406, 0.06406781822443008, -0.013425294309854507, -0.0025192799512296915, 0.05600159987807274], [-0.020993763580918312, -0.004561724606901407, -0.08569759130477905, 0.1068783849477768, 0.07428984344005585, -0.08721563220024109, 0.05083079636096954, -0.05144704133272171, -0.10557015985250473, -0.03287699073553085, -0.06040097028017044, -0.011943712830543518, 0.04422173649072647, -0.06134851276874542, -0.015640411525964737, -0.06051194667816162, -0.015562855638563633, -0.014754301868379116, 0.0010182942496612668, -0.03310196101665497, -0.027508480474352837, -0.016222616657614708, 0.08398588001728058, -0.05131818726658821, 0.006341990083456039, 0.056468505412340164, 0.05921723321080208, -0.07804878801107407, -0.058244768530130386, -0.00046796162496320903, -0.01464487798511982, -0.013403372839093208, -0.017269819974899292, -0.005570951849222183, 0.09348301589488983, 0.03383297473192215, 0.15064401924610138, 0.018502065911889076, 0.06550323963165283, -0.019509727135300636], [-0.005745732691138983, 0.1289733201265335, 0.2022000104188919, 0.25191792845726013, -0.1287752091884613, 0.022168971598148346, 0.02345391735434532, 0.042254380881786346, 0.18983735144138336, 0.04655628278851509, 0.0877557024359703, 0.06850817799568176, -0.00571442348882556, 0.06861510127782822, 0.054342158138751984, 0.02243652194738388, 0.09028658270835876, 0.0007247430039569736, -0.08444317430257797, 0.08267437666654587, 0.06671225279569626, -0.11255274713039398, 0.3062434196472168, -0.002917269943282008, 0.0654224157333374, 0.18827950954437256, -0.05844318866729736, 0.1141798347234726, -0.055287521332502365, -0.03835074231028557, -0.004553691018372774, -0.04161275550723076, 0.02770821936428547, -0.1359872668981552, 0.08899397403001785, 0.10028595477342606, -0.0036032586358487606, -0.07410835474729538, -0.005514416377991438, 0.09240883588790894], [0.009076211601495743, -0.005790621507912874, -0.0071381158195436, 0.04804766923189163, -0.1592753380537033, 0.0690031424164772, -0.43821343779563904, 0.01985223777592182, 0.03605743870139122, 0.027669643983244896, 0.04721052944660187, 0.06718466430902481, -0.002532919868826866, 0.0027269579004496336, -0.005390630569308996, -0.0037269347812980413, -0.11374344676733017, -0.029497841373085976, -0.11466559022665024, 0.03942456841468811, -0.021160483360290527, 0.03603939712047577, 0.043943993747234344, -0.026871085166931152, 0.14531396329402924, -0.09103833884000778, -0.14359302818775177, -0.05882781371474266, -0.1045452281832695, -0.055992692708969116, -0.16524282097816467, -0.05012904107570648, 0.024096623063087463, -0.08759543299674988, 0.12013743817806244, -0.032847143709659576, 0.16337144374847412, -0.031492363661527634, -0.09677574783563614, -0.039162080734968185], [-0.005622978787869215, 0.09529387205839157, 0.012621239759027958, -0.01503908634185791, 0.16309596598148346, 0.11346206814050674, 0.0017766761593520641, 0.04422859475016594, 0.02201167680323124, 0.024272052571177483, 0.04387010633945465, 0.06961928308010101, -0.0463196262717247, 0.02691178396344185, 0.020632509142160416, 0.050159066915512085, 0.06596770137548447, -0.09615376591682434, -0.06468375027179718, 0.038757193833589554, 0.04967709630727768, -0.08634357154369354, 0.02334056980907917, 0.1116417944431305, 0.053795840591192245, 0.042900461703538895, -0.09508631378412247, 0.11901849508285522, -0.01276288740336895, -0.09093204140663147, -0.07547315955162048, 0.019648779183626175, 0.027490869164466858, -0.07754488289356232, 0.017452092841267586, 0.02084926888346672, -0.016337309032678604, -0.06911466270685196, -0.008178473450243473, 0.11273591965436935], [0.1669904738664627, 0.15559141337871552, 0.7755180597305298, 0.9692919254302979, -0.15585273504257202, 0.013025140389800072, 0.05817562714219093, 0.05054968222975731, -0.2620896100997925, 0.13518978655338287, 0.19568990170955658, 0.12228617072105408, 0.16178078949451447, 0.23521624505519867, 0.24042454361915588, 0.022537266835570335, 0.23827633261680603, 0.14795717597007751, -0.5196405649185181, -0.006029361393302679, 0.1614556908607483, -0.13382665812969208, 0.847178041934967, -0.07191159576177597, -0.06828385591506958, 0.21741260588169098, -0.08456522226333618, 0.21738283336162567, -0.3426663875579834, -0.1612090915441513, 0.007810089271515608, -0.25538742542266846, 0.25894665718078613, -0.2496422976255417, 0.24234360456466675, 0.2775842845439911, 0.27551352977752686, -0.2903897166252136, -0.049664366990327835, 0.235079824924469], [-0.003073569852858782, -0.013802515342831612, 0.083978071808815, 0.045498326420784, 0.043160486966371536, -0.02335578016936779, -0.08386696130037308, -0.04802323505282402, -0.007149939425289631, -0.024108177050948143, -0.03967423364520073, -0.0568903349339962, 0.01557491160929203, -0.040922410786151886, -0.009332278743386269, -0.021884679794311523, 0.03323507681488991, 0.07411079853773117, -0.08258968591690063, -0.06639838218688965, -0.025593705475330353, 0.004743688274174929, 0.11861919611692429, -0.0664619728922844, 0.04702538251876831, 0.02535625733435154, -0.004443645011633635, -0.03429765999317169, -0.09238598495721817, 0.04317210242152214, -0.0004932546871714294, 2.4140117602655664e-05, -2.017789302044548e-05, -0.06961563974618912, 0.034119706600904465, 0.037159793078899384, 0.13073450326919556, 0.02255803532898426, -0.03694479167461395, -0.01684967242181301], [-0.0235725287348032, 0.016339655965566635, 0.440244197845459, 0.24285247921943665, 0.07584507763385773, -0.06332725286483765, -0.15875977277755737, -0.007783542387187481, -0.049314409494400024, -0.033815011382102966, -0.03804539889097214, -0.019622405990958214, 0.05291305482387543, -0.025820763781666756, -0.04034597426652908, 0.07645479589700699, 0.15134762227535248, -0.07254119217395782, -0.37943556904792786, -0.06494293361902237, -0.04160979017615318, -0.11521310359239578, 0.09457826614379883, -0.034380752593278885, -0.023222727701067924, 0.11586560308933258, 0.06360527127981186, 0.1910100281238556, 0.031445275992155075, -0.020116500556468964, 0.1149270087480545, 0.07025957852602005, -0.03533538803458214, -0.08464033156633377, 0.05164923891425133, 0.12104501575231552, 0.1616680771112442, -0.0917074903845787, -0.11097446084022522, 0.1320149302482605], [-0.013417267240583897, 0.05098311975598335, 0.12001820653676987, 0.07544955611228943, 0.048048101365566254, 0.0301160030066967, -0.0842427909374237, -0.009532276540994644, 0.013682423159480095, 0.05786439776420593, -0.013805268332362175, -0.040752802044153214, 0.043087877333164215, -0.010208928026258945, 0.0023313979618251324, -0.04037141427397728, -0.07758574932813644, 0.11092980206012726, -0.055480897426605225, -0.06410238891839981, 0.003325297962874174, -0.04404248297214508, 0.1125023290514946, -0.04085240140557289, 0.10055452585220337, 0.09245438128709793, 0.07490269839763641, 0.023347120732069016, -0.05500561743974686, 0.04597773775458336, -0.012740555219352245, 0.05433455854654312, 0.04434821009635925, -0.050504110753536224, 0.1853613555431366, 0.03491237759590149, 0.1301387995481491, -0.03813923895359039, 0.06433266401290894, 0.0761806070804596], [0.0321970209479332, -0.038942333310842514, 0.07550077885389328, 0.02052374742925167, 0.03148116171360016, -0.08519094437360764, -0.044107988476753235, -0.0340140163898468, 0.003642146708443761, -0.09882348775863647, -0.11616076529026031, 0.002342552412301302, 0.05488409474492073, -0.030123215168714523, 0.004496154375374317, -0.07913834601640701, 0.019144386053085327, -0.003827029839158058, -0.035096943378448486, -0.005768215749412775, -0.02733408845961094, 0.03578052297234535, 0.10385151952505112, -0.13935014605522156, 0.0037613753229379654, 0.0189667921513319, -0.014691601507365704, -0.03270307183265686, -0.03151101619005203, 0.08386547118425369, -0.017329227179288864, -0.021932238712906837, -0.056810420006513596, -0.08546710759401321, 0.15854640305042267, -0.028528990224003792, 0.06716451048851013, -0.05427740141749382, 0.012374145910143852, 0.007921782322227955], [0.019175175577402115, -0.05296783894300461, 0.06982400268316269, -0.010590431280434132, 0.04517849534749985, -0.049631956964731216, -0.052374884486198425, -0.10002483427524567, -0.0032189625781029463, -0.07652740180492401, -0.10665836930274963, -0.10919725894927979, 0.013207077980041504, -0.09879884123802185, 0.010029911063611507, -0.03919733315706253, 0.014565246179699898, 0.08747754245996475, -0.12534725666046143, -0.10931381583213806, -0.0238150916993618, 0.017443014308810234, 0.08677729219198227, -0.06007596105337143, -0.0003248398134019226, -0.032381556928157806, -0.0033808883745223284, -0.08131448179483414, -0.10422244668006897, 0.06209893152117729, 0.02005983516573906, 0.0022111476864665747, 0.0168285109102726, -0.07362820208072662, 0.13215036690235138, 0.0018533607944846153, 0.12084610760211945, 0.012206949293613434, -0.05173209309577942, 0.013239271938800812], [-0.011643263511359692, 0.018406761810183525, 0.05041241645812988, 0.023474639281630516, 0.015590215101838112, -0.02908901497721672, 0.09733889997005463, -0.05533711239695549, 0.040493160486221313, -0.07665549218654633, -0.036416471004486084, -0.05877580866217613, 0.07699991762638092, -0.028462175279855728, 0.0032396670430898666, -0.1102704182267189, 0.0036203160416334867, 0.07997642457485199, -0.004597390070557594, -0.03608259931206703, 0.0027832600753754377, 0.005574984010308981, 0.0739172026515007, -0.0789295881986618, -0.028588945046067238, -0.02229093573987484, 0.11232940107584, -0.022046316415071487, -0.06983254849910736, 0.08346861600875854, 0.04103565588593483, -0.007858581840991974, -0.00806197989732027, -0.019910840317606926, 0.034067634493112564, 0.0023594850208610296, 0.03336847573518753, 0.02913809008896351, 0.025246817618608475, -0.0011283496860414743], [-0.006566110998392105, -0.02273980900645256, 0.04751275107264519, 0.050482377409935, 0.011392910033464432, 0.023287391290068626, -0.016797030344605446, -0.0009032672387547791, -0.01331394538283348, -0.03195275738835335, 0.03459996357560158, -0.002523031085729599, 0.008737130090594292, 0.03986424580216408, 0.04572824388742447, -0.043610259890556335, 0.03353382274508476, 0.04916641488671303, -0.043791770935058594, 0.012673641555011272, 0.02807275950908661, 0.0019695484079420567, 0.06622115522623062, -0.0076487078331410885, 0.004736274015158415, 0.034121714532375336, -0.016976287588477135, -0.004951748996973038, -0.09046204388141632, 0.006891243159770966, 0.028902381658554077, -0.008604892529547215, 0.02933129109442234, -0.031878482550382614, 0.07106702774763107, 0.025127125903964043, 0.049476053565740585, -0.012982004322111607, -0.0331670381128788, 0.029034605249762535], [-0.010860521346330643, 0.07408725470304489, 0.04185003414750099, 0.08027409017086029, -0.027067985385656357, 0.017626088112592697, 0.07906348258256912, 0.004913803655654192, -0.09286829829216003, 0.04529362544417381, 0.031051065772771835, 0.010584480129182339, -0.019273098558187485, 0.015682237222790718, -0.00018292093591298908, 0.08750013262033463, 0.055351968854665756, -0.07229199260473251, 0.02964475192129612, 0.01905306987464428, 0.03445248305797577, -0.04314199835062027, 0.0861232653260231, 0.05868509039282799, 0.008104723878204823, 0.05430525541305542, -0.013966882601380348, 0.06853048503398895, 0.027499794960021973, -0.047212500125169754, -0.014965337701141834, 0.0026518339291214943, -0.027730511501431465, -0.08250194787979126, -0.06975205987691879, 0.015474441461265087, -0.05094429850578308, -0.01314010564237833, -0.02173750475049019, 0.04505320265889168], [-0.07906455546617508, 0.02822129614651203, 0.12006797641515732, 0.05232850834727287, 0.18812446296215057, -0.022126100957393646, -0.05555303767323494, -0.08610471338033676, -0.13771095871925354, -0.10749941319227219, -0.1582537442445755, -0.10017025470733643, 0.10222002863883972, -0.07931014895439148, -0.07032329589128494, -0.056993190199136734, 0.05814143270254135, -0.02565503679215908, -0.22339917719364166, -0.08814826607704163, -0.07678857445716858, -0.03301604092121124, 0.2087070792913437, -0.10107885301113129, 0.04137098416686058, -0.013566896319389343, -0.0637047216296196, -0.02182566560804844, -0.09129619598388672, 0.11991904675960541, -0.01434051338583231, -0.009908124804496765, -0.10881353169679642, -0.1142103374004364, 0.02828899770975113, -0.03159457445144653, 0.12280318886041641, 0.05385700240731239, -0.12037476152181625, -0.026917889714241028], [-0.015648948028683662, -0.001426275004632771, 0.10125543177127838, 0.07725656777620316, -0.023506157100200653, -0.004332293290644884, -0.09394196420907974, -0.015016648918390274, -0.06787379831075668, -0.021426990628242493, 0.0016974610043689609, -0.015610062517225742, 0.02165898308157921, -0.04892301931977272, -0.018248267471790314, -0.014395560137927532, 0.1473541557788849, -0.018606554716825485, -0.08890659362077713, -0.048665404319763184, -0.03141001984477043, -0.007233029697090387, 0.07124725729227066, -0.03180898725986481, -0.03015832044184208, -0.009763247333467007, -0.08330295234918594, -0.0164773128926754, -0.03855321928858757, -0.043513696640729904, 0.10368507355451584, 0.013943478465080261, 0.030939428135752678, -0.19004999101161957, 0.1295653134584427, 0.044708359986543655, -0.031115200370550156, 0.06744656711816788, -0.046258896589279175, 0.00845249928534031], [-0.015077275224030018, 0.07889000326395035, 0.12005215138196945, 0.07562568783760071, 0.0697750672698021, -0.05764780566096306, 0.030580991879105568, -0.06292007118463516, -0.10500292479991913, -0.013866693712770939, -0.05626440793275833, -0.06469938158988953, 0.03218815475702286, -0.03174753859639168, 0.004467944614589214, -0.03725520893931389, 0.11099178344011307, 0.018252024427056313, -0.09696853905916214, -0.005989705212414265, 0.006266402546316385, -0.06121809408068657, 0.08276049047708511, -0.020392978563904762, -0.07124720513820648, -0.08046361058950424, 0.08321551978588104, -0.029793448746204376, -0.09643325209617615, 0.07329216599464417, 2.7027570013160584e-06, -0.005207776091992855, -0.03895292431116104, -0.09394348412752151, 0.013379370793700218, 0.0034431987442076206, 0.03672180324792862, 0.09793179482221603, -0.04838664084672928, -0.016821065917611122], [0.004569511394947767, -0.05516435205936432, 0.17041435837745667, 0.08475281298160553, 0.06496008485555649, -0.03466973081231117, 0.15879282355308533, -0.0074410997331142426, -0.06766163557767868, -0.1568758636713028, -0.04265185445547104, -0.030295737087726593, -0.0014030208112671971, -0.03513353317975998, 0.04789021983742714, -0.25195634365081787, 0.04915556311607361, -0.04820976406335831, 0.010932669043540955, 0.04287227615714073, 0.016514239832758904, 0.07627998292446136, 0.14972926676273346, -0.09838561713695526, 0.002454952569678426, 0.12314294278621674, -0.046298325061798096, -0.18402768671512604, -0.2531878352165222, 0.12425611168146133, 0.011652391403913498, -0.11567668616771698, -0.019972175359725952, -0.12577182054519653, 0.1534653604030609, -0.050805214792490005, 0.18325133621692657, 0.05540033429861069, 0.012675946578383446, -0.013561460189521313], [0.0023497832007706165, -0.05306768789887428, 0.042681336402893066, -0.013733143918216228, 0.030836323276162148, -0.06927544623613358, 0.01736096292734146, -0.0688263401389122, -0.047451913356781006, -0.03738269582390785, -0.13130496442317963, -0.11644559353590012, 0.029196878895163536, -0.07348037511110306, -0.04995357245206833, -0.006686887238174677, -0.01299178134649992, 0.09468203037977219, -0.015469133853912354, -0.11732304096221924, -0.017720581963658333, -0.01600106991827488, 0.09229180216789246, -0.09571471810340881, 0.0018371326150372624, 0.0012059550499543548, 0.09655570983886719, -0.037178121507167816, -0.030089348554611206, 0.07730995863676071, 0.043832533061504364, 0.06627213209867477, -0.015711024403572083, 0.001679589506238699, -0.030458858236670494, 0.032410092651844025, 0.027124959975481033, -0.013417036272585392, -0.06850133091211319, 0.011612714268267155], [-0.015164105221629143, 0.10523652285337448, 0.07364406436681747, 0.07393687963485718, 0.16082537174224854, 0.041556648910045624, 0.16778378188610077, 0.06774923205375671, -0.10897033661603928, 0.08301187306642532, 0.0715068057179451, 0.09715422987937927, -0.04316630959510803, 0.08496570587158203, 0.044946618378162384, 0.09188426285982132, 0.10372138768434525, -0.08960158377885818, 0.04213724657893181, 0.042378980666399, 0.0571075864136219, -0.08189339190721512, 0.037016190588474274, 0.06721403449773788, 0.07034773379564285, 0.018601473420858383, -0.11360886693000793, 0.10584095120429993, 0.035059746354818344, -0.12204081565141678, -0.11158530414104462, -0.03513450548052788, 0.022017493844032288, -0.13874468207359314, -0.0260450541973114, 0.058754898607730865, -0.06845135241746902, -0.08682091534137726, -0.10220735520124435, 0.0991472378373146], [0.011919422075152397, 0.05007839575409889, 0.0027906482573598623, -0.00046554559958167374, 0.011760436929762363, 0.09693943709135056, -0.05005249008536339, 0.03496561199426651, -0.017897913232445717, 0.04467369616031647, 0.04612594470381737, 0.020019255578517914, -0.03909170627593994, 0.022808125242590904, 0.004752791952341795, 0.0853537768125534, 0.01367886271327734, -0.0093944501131773, -0.00010843916970770806, -0.009992812760174274, 0.01330962497740984, -0.0597735159099102, -0.03930320590734482, 0.04745384678244591, 0.07326822727918625, -0.0009148528915829957, -0.06748288124799728, 0.0682602971792221, 0.0005886577419005334, -0.06262440234422684, -0.063341423869133, 0.022811204195022583, 0.05050591751933098, -0.03236239776015282, -0.0442226342856884, 0.04179016500711441, -0.08931630849838257, -0.04341399669647217, -0.012952856719493866, 0.045119304209947586], [0.03837034851312637, 0.016328126192092896, 0.2977829575538635, 0.2709735333919525, -0.07094930112361908, -0.020123962312936783, -0.19218236207962036, 0.06946717947721481, -0.06175781041383743, -0.11722525209188461, 0.03148220106959343, -0.012677672319114208, -0.023940954357385635, 0.059711433947086334, 0.043830741196870804, 0.008166410028934479, 0.21373112499713898, -0.11936739087104797, -0.19674602150917053, 0.0462929792702198, -0.0008436476928181946, -0.02823795937001705, 0.006889621261507273, 0.002193193882703781, -0.034721821546554565, -0.12229056656360626, -0.12776552140712738, 0.09586019068956375, 0.030695080757141113, -0.06923612952232361, 0.12733812630176544, -0.07667278498411179, 0.030383292585611343, -0.05073875933885574, -0.008097336627542973, -0.019653378054499626, 0.014908941462635994, -0.09552504122257233, -0.06962355971336365, 0.04056018963456154], [0.013560449704527855, 0.03983519598841667, 0.05262192711234093, 0.012442227452993393, -0.07272104918956757, 0.018112260848283768, 0.03618669882416725, 0.01096427720040083, -0.030277501791715622, -0.0520511120557785, -0.03943144902586937, -0.03968886658549309, 0.009419486857950687, 0.0031638569198548794, -0.013259542174637318, -0.0236496739089489, 0.07570253312587738, 0.06284008175134659, -0.10448646545410156, -0.013545650988817215, -0.01383246760815382, -0.03676721453666687, 0.13133057951927185, 0.005504705477505922, -0.012441737577319145, 0.025559205561876297, -0.03384979069232941, 0.04282613843679428, 0.020963767543435097, 0.0009615477756597102, 0.025352798402309418, 0.04338402301073074, -0.004442446865141392, -0.052473392337560654, 0.04416684806346893, -0.027033209800720215, 0.023566212505102158, -0.004334835335612297, 0.011014481075108051, 0.05951782688498497], [-0.0007316232658922672, 0.036736972630023956, 0.10319101810455322, 0.09649499505758286, -0.058227669447660446, -0.006013032048940659, -0.043838031589984894, -0.049591466784477234, -0.07576145976781845, 0.0005699904286302626, -0.021725531667470932, -0.027900638058781624, 0.011864369735121727, -0.020364340394735336, 0.00886283628642559, -0.03456444665789604, 0.06567250937223434, -0.004177875816822052, -0.05898379161953926, -0.01933147944509983, 0.015909072011709213, -0.012316112406551838, 0.1511416733264923, 0.01950008235871792, -0.050011634826660156, 0.06728943437337875, -0.011956234462559223, 0.0030221857596188784, -0.02220872789621353, 0.017903737723827362, 0.0055503249168396, -0.029158974066376686, 0.0042575360275805, -0.13960960507392883, 0.08457319438457489, 0.07751504331827164, 0.13066957890987396, -0.049593448638916016, -0.08677015453577042, 0.048525143414735794], [0.011808639392256737, 0.09238951653242111, 0.15481482446193695, 0.03797180578112602, 0.11662165075540543, -0.020116321742534637, -0.018765999004244804, 0.02151089534163475, -0.05155124142765999, 0.05277085676789284, -0.04898269101977348, 0.028941305354237556, -0.02710825204849243, 0.0130447493866086, 0.02615845762193203, 0.009871854446828365, -0.007028402294963598, -0.018999338150024414, -0.05378444865345955, 0.03907867148518562, 0.013096439652144909, -0.06406451016664505, 0.03626793250441551, -0.02424711547791958, -0.03792495280504227, 0.03784245252609253, 0.03519247844815254, 0.007748200558125973, -0.00991943757981062, -0.003134472295641899, -0.05508227273821831, -0.05061604827642441, 0.0033093674574047327, -0.1402718424797058, 0.13028591871261597, 0.04625394195318222, -0.011926833540201187, -0.04558994993567467, -0.1586410254240036, 0.06273367255926132], [-0.01316889189183712, 0.11307813227176666, 0.07209695875644684, 0.10706562548875809, 0.0018753818003460765, 0.1256050020456314, 0.10118938237428665, 0.01723393239080906, -0.07237628102302551, 0.002113497816026211, 0.06126825511455536, 0.0004704262246377766, -0.030492855235934258, 0.04442048445343971, 0.0232392530888319, 0.11369840055704117, 0.15933261811733246, 0.08198442310094833, -0.07335343956947327, 0.003667285665869713, 0.04707033559679985, -0.08085882663726807, 0.40662717819213867, -0.007597386837005615, 0.06832801550626755, 0.07956193387508392, 0.09837102144956589, 0.03968727961182594, -0.1822526901960373, -0.10837598145008087, 0.01929771713912487, -0.009151709266006947, 0.067960724234581, -0.17288422584533691, -0.1607058197259903, -0.000641611113678664, -0.029145803302526474, 0.04511373117566109, -0.042586106806993484, 0.04782528057694435], [0.011930489912629128, 0.08774823695421219, 0.043247055262327194, 0.06416354328393936, 0.030981702730059624, 0.09621571004390717, -0.010262728668749332, 0.0601913183927536, -0.09355258196592331, 0.08010465651750565, 0.008796416223049164, 0.040231961756944656, -0.037304725497961044, 0.02880319580435753, 0.022393831983208656, 0.07391810417175293, 0.09946070611476898, -0.024825382977724075, -0.01795230433344841, 0.002076426288112998, 0.016012519598007202, -0.08592498302459717, 0.06815211474895477, 0.04487266391515732, 0.053372886031866074, 0.035457998514175415, -0.0620669424533844, 0.03873167932033539, 0.03231611102819443, -0.0803183764219284, -0.07252385467290878, 0.012203585356473923, 0.059074290096759796, -0.11002250760793686, -0.030585628002882004, 0.0714993104338646, -0.014885867945849895, -0.05806131288409233, -0.05261341109871864, 0.0816584900021553], [-0.04000284895300865, 0.008716855198144913, 0.042330656200647354, 0.03994373977184296, -0.016689006239175797, 0.0106666786596179, -0.07452120631933212, -0.005461383145302534, -0.10395710915327072, 0.008527180179953575, -0.008299250155687332, -0.04760377109050751, 0.013241343200206757, 0.016270212829113007, -0.011464005336165428, 0.0006559123285114765, -0.03433498740196228, 0.06542159616947174, 0.009638461284339428, -0.021261069923639297, -0.03537006676197052, 0.04649978131055832, -0.03187783807516098, -0.045124247670173645, -0.01727002114057541, -0.08144180476665497, 0.06895891577005386, -0.039817627519369125, 0.012279768474400043, 0.051971811801195145, 0.039251457899808884, 0.016327081248164177, -0.018000999465584755, -0.030428998172283173, 0.03160563483834267, 0.0020338445901870728, -0.047985535115003586, 0.011837237514555454, -0.043302521109580994, -0.0007683028816245496], [-0.013587207533419132, 0.03190218657255173, 0.11915083974599838, 0.07695731520652771, 0.10050541907548904, 0.025778524577617645, -0.07670745998620987, -0.046596888452768326, -0.00816180370748043, -0.0959392711520195, -0.05873097851872444, -0.0030483726877719164, 0.03307171165943146, -0.07853367179632187, -0.041515521705150604, -0.04714451730251312, 0.08287753164768219, -0.07871689647436142, -0.1993911862373352, 0.009329992346465588, -0.03869430720806122, -0.00529558164998889, 0.17499946057796478, -0.06698332726955414, 0.07661983370780945, -0.04999850317835808, -0.13213805854320526, -0.023809712380170822, -0.08677023649215698, 0.041766997426748276, -0.0407753586769104, -0.03315877914428711, -0.06541625410318375, -0.14852675795555115, 0.07955458015203476, -0.06616228073835373, 0.1631859838962555, 0.04028181731700897, -0.007367927115410566, -0.022225195541977882], [0.05782405659556389, 0.10160580277442932, 0.015655502676963806, 0.06981941312551498, -0.06111343204975128, 0.08996357023715973, -0.056441254913806915, 0.0023415067698806524, -0.12476526945829391, 0.007537185214459896, -0.03997747600078583, 0.016195401549339294, -0.02142857015132904, 0.016051826998591423, 0.075196273624897, -0.02434178628027439, 0.03266529738903046, -0.04770828038454056, -0.1588233858346939, 0.031385716050863266, 0.0217294842004776, -0.06259159743785858, 0.1616252362728119, 0.016622086986899376, 0.06037535145878792, -0.1014249324798584, -0.02000465616583824, 0.013095609843730927, 0.03099990263581276, -0.020389335229992867, -0.13366582989692688, -0.10494156926870346, 0.05906924605369568, -0.10994285345077515, 0.028350064530968666, -0.028103668242692947, 0.061413902789354324, 0.013119462877511978, 0.020955244079232216, 0.041163332760334015], [0.0004785546916536987, 0.05228346586227417, 0.04016876220703125, 0.012362469919025898, 0.07717963308095932, -0.01919989287853241, 0.0439835786819458, -0.014954401180148125, -0.0473831407725811, 0.023044578731060028, -0.028005897998809814, -0.024433260783553123, 0.0037920959293842316, -0.017962224781513214, -0.01078338734805584, 0.01475604623556137, 0.04369894415140152, 0.04183610528707504, -0.01146759744733572, -0.025895707309246063, 0.013376607559621334, -0.05146139860153198, 0.05093283951282501, -0.012690747156739235, 0.016209440305829048, -0.008922484703361988, -0.01762094348669052, 0.02274477109313011, -0.012186182662844658, 0.0013561247615143657, -0.009419158101081848, 0.0101856654509902, -0.0036384309642016888, -0.08535851538181305, -1.2005829375993926e-05, 0.009395282715559006, 0.01102148275822401, 0.012434042058885098, -0.03260601684451103, 0.02995106764137745], [0.00037350476486608386, 0.07202016562223434, 0.025734806433320045, 0.024871932342648506, 0.038428597152233124, 0.0029240513686090708, 0.10486393421888351, -0.0025230052415281534, -0.046304039657115936, 0.003503702813759446, 0.022623633965849876, 0.021445557475090027, 0.0015528314979746938, 0.008430251851677895, 0.041085924953222275, -0.008988452143967152, 0.012356434017419815, -0.06851042062044144, -0.017511527985334396, 0.020545313134789467, 0.03281640261411667, -0.02760394848883152, 0.004788931459188461, 0.05338621512055397, -0.011323277838528156, 0.004824396222829819, -0.03712863475084305, 0.03917842358350754, 0.010337733663618565, -0.016628935933113098, -0.03475668281316757, -0.02148810587823391, 0.003912029322236776, -0.06337127089500427, 0.010183343663811684, -0.002310513285920024, -0.02562318556010723, -0.04948112368583679, -0.038960929960012436, 0.06508974730968475], [0.009714411571621895, 0.10615792125463486, 0.16775093972682953, 0.07827666401863098, 0.02042793482542038, 0.09433859586715698, -0.09457526355981827, -0.014341485686600208, -0.08461060374975204, 0.15077167749404907, -0.004990722984075546, 0.0164495799690485, -0.026678580790758133, -0.0647198036313057, -0.01627630554139614, 0.054792411625385284, -0.1493750661611557, 0.17201080918312073, 0.02120479941368103, -0.07759691774845123, 0.04232102259993553, -0.07922810316085815, -0.01827075518667698, -0.020806295797228813, 0.17256194353103638, -0.12864519655704498, -0.0790131613612175, 0.05740925297141075, -0.018244069069623947, 0.019185135141015053, -0.04669119417667389, -0.017568666487932205, 0.020486654713749886, -0.18636377155780792, 0.03851417452096939, 0.3008761405944824, -0.008386516012251377, 0.12824100255966187, -0.045066941529512405, 0.035583194345235825], [0.02189166471362114, -0.11946211755275726, 0.1968717873096466, 0.11137205362319946, 0.17392252385616302, -0.05020475387573242, -0.0205727219581604, 0.03418472781777382, 0.016953453421592712, -0.03983211889863014, -0.008164158090949059, 0.01641358993947506, 0.0630103275179863, 0.008914376609027386, -0.018819963559508324, -0.08270881325006485, 0.04692615196108818, 0.06356914341449738, -0.3404172956943512, 0.023920273408293724, 0.004997125826776028, -0.0274970605969429, 0.31272977590560913, -0.033830925822257996, -0.03715174272656441, 0.058226123452186584, -0.11135970801115036, 0.006810356862843037, 0.015448410995304585, 0.01180021557956934, 0.05203612893819809, 0.027938131242990494, 0.01568949967622757, -0.014843909069895744, 0.2146053910255432, 0.01407051645219326, 0.23608817160129547, -0.0008884501294232905, 0.08047826588153839, -0.02226193994283676], [0.011073851026594639, 0.07221833616495132, 0.14841531217098236, 0.08232080191373825, 0.1462593823671341, -0.015670500695705414, 0.017732050269842148, -0.03746526688337326, -0.021749399602413177, 0.07565001398324966, -0.03597262129187584, -0.0023528700694441795, -0.0013757897540926933, -0.02640942856669426, 0.02564139850437641, -0.04236626997590065, -0.00540640763938427, -0.06693258136510849, -0.1286308914422989, 0.013133976608514786, -0.003034061286598444, -0.11243165284395218, 0.04532438516616821, 0.06824183464050293, -0.08993756771087646, -0.0025420449674129486, -0.07988349348306656, 0.0008880888926796615, 0.03252112492918968, 0.019877398386597633, -0.06182064116001129, -0.047094933688640594, -0.03108973056077957, 0.07400933653116226, 0.04340656101703644, 0.05310884490609169, 0.015053833834826946, -0.022692441940307617, -0.1305738091468811, 0.030753139406442642], [0.049826811999082565, 0.061261631548404694, 0.13783523440361023, -0.00045271721319295466, 0.11104949563741684, 0.07464423030614853, -0.02588171511888504, 0.0707409530878067, -0.085492804646492, -0.14791207015514374, 0.04843004792928696, -0.0068419817835092545, -0.015454849228262901, 0.09276863932609558, 0.08851532638072968, -0.027239754796028137, 0.18077456951141357, -0.026550887152552605, -0.2434828281402588, 0.04217905178666115, -0.004134496208280325, -0.028185464441776276, 0.25463199615478516, -0.06019517406821251, 0.04370258376002312, -0.08494406938552856, -0.0058462186716496944, 0.01567024551331997, -0.17533203959465027, -0.052003033459186554, -0.020173830911517143, -0.07413719594478607, 0.09680913388729095, -0.09314770251512527, 0.03282240033149719, 0.025562820956110954, -0.29853031039237976, -0.06581111252307892, -0.0801917091012001, 0.07517053186893463], [0.02005392499268055, 0.1968044936656952, 0.055688682943582535, 0.051228202879428864, 0.055006079375743866, 0.07934205234050751, -0.025098873302340508, -0.013930607587099075, -0.06188828498125076, 0.03903878107666969, -0.058984141796827316, -0.010695862583816051, -0.10078813880681992, -0.011618021875619888, 0.036573298275470734, 0.03647717088460922, 0.10426167398691177, -0.06503725051879883, -0.05605310574173927, -0.02449842542409897, 0.011624791659414768, -0.0520678386092186, 0.08396945148706436, 0.05506344884634018, 0.052585944533348083, -0.01165003515779972, -0.07071904838085175, 0.044714558869600296, 0.03085220605134964, -0.018444722518324852, -0.11240825802087784, -0.07375594973564148, 0.0010609865421429276, -0.164465993642807, -0.03843386843800545, -0.03495680168271065, -0.10809901356697083, 0.004481127019971609, -0.07170544564723969, 0.1005636602640152], [0.005467418115586042, 0.018818514421582222, 0.22867333889007568, 0.2187470942735672, 0.007363098673522472, -0.0817137062549591, 0.2368219643831253, 0.02436404675245285, -0.07198145985603333, -0.05049530416727066, -0.019954374060034752, 0.06393226236104965, -0.039897121489048004, -0.02808082289993763, 0.07054450362920761, 0.008728600107133389, 0.09310279786586761, -0.1337479054927826, 0.0013791475212201476, 0.10382629185914993, 0.04647079482674599, -0.09891955554485321, 0.34130969643592834, -0.004709096625447273, 0.027595752850174904, -0.009652907028794289, -0.07710561901330948, 0.0052211168222129345, -0.056808147579431534, 0.001098984619602561, -0.1390932947397232, -0.22283126413822174, 0.012744522653520107, -0.12276095896959305, 0.09029630571603775, 0.17818132042884827, 0.12179424613714218, -0.055106502026319504, -0.12628614902496338, 0.07295168191194534], [0.02196602337062359, 0.18349803984165192, 0.04851187765598297, 0.15284298360347748, -0.04519801586866379, 0.15909796953201294, -0.06156031787395477, 0.06967438757419586, -0.11775241792201996, 0.13809894025325775, 0.049934931099414825, 0.1044372171163559, -0.07150479406118393, 0.08768907189369202, 0.04681225121021271, 0.08540961891412735, 0.06080913916230202, -0.13417750597000122, 0.05231459066271782, 0.07635118067264557, 0.09039680659770966, -0.08819758147001266, 0.0439220666885376, 0.08183392137289047, 0.0805017277598381, 0.05618533492088318, -0.10888908803462982, 0.14200158417224884, 0.06747602671384811, -0.08469749242067337, -0.11574841290712357, -0.04468447342514992, 0.03433195501565933, -0.12496902048587799, -0.007385795935988426, 0.036682453006505966, -0.10915766656398773, -0.14224031567573547, -0.019887786358594894, 0.10740984231233597], [0.08296719938516617, 0.1322571039199829, -0.028726190328598022, -0.002172076376155019, 0.009723986499011517, 0.05194581300020218, -0.06750700622797012, -0.1608554869890213, 0.008986408822238445, -0.1438591182231903, -0.0024929193314164877, 0.1417253166437149, -0.11300570517778397, -0.18379953503608704, 0.09668626636266708, 0.12175799906253815, 0.1135484054684639, -0.148962140083313, -0.018515747040510178, -0.040179844945669174, 0.028408555313944817, 0.06118921563029289, -0.036890216171741486, -0.06206946820020676, -0.12296823412179947, -0.0397581085562706, -0.08210141956806183, -0.1433614194393158, -0.04199837148189545, -0.07728734612464905, -0.03169965371489525, -0.16672877967357635, -0.0031162279192358255, 0.0031359908170998096, 0.1362595558166504, -0.11839019507169724, 0.040180549025535583, -0.05383089557290077, 0.04987065866589546, 0.1422719955444336], [-0.07724881917238235, 0.30447548627853394, -0.22306722402572632, -0.12488282471895218, -0.2843640148639679, 0.1386537253856659, 0.08038756996393204, -0.06185507774353027, 0.0688336044549942, 0.1227974146604538, 0.04181969165802002, -0.5560184121131897, -0.002842252142727375, 0.15432773530483246, 0.06743365526199341, -0.17345134913921356, -0.04525420442223549, 0.06849771738052368, -0.18421845138072968, 0.08523085713386536, 0.03200201317667961, -0.09503283351659775, -0.1987549215555191, 0.5210698843002319, 0.04260974004864693, 0.031167777255177498, 0.16777680814266205, 0.26903772354125977, 0.06429223716259003, 0.15019428730010986, -0.19216960668563843, 0.028024734929203987, -0.008536801673471928, -0.15972693264484406, 0.02164204977452755, 0.22700518369674683, -0.44829970598220825, 0.619759202003479, -0.11123201996088028, -0.1070430725812912], [-0.0013482921058312058, 0.023416291922330856, 0.19123247265815735, 0.36335593461990356, 0.15352663397789001, -0.2800462245941162, 0.1678788959980011, -0.037097372114658356, -0.02352154068648815, 0.04532473906874657, 0.020444748923182487, 0.07342065125703812, 0.06149878725409508, -0.08417107909917831, 0.0016718406695872545, -0.06803186237812042, -0.026333509013056755, 0.004416397772729397, -0.003365374868735671, -0.01933014951646328, -0.05719998478889465, 0.07720203697681427, 0.11185232549905777, -0.21461650729179382, -0.154233917593956, 0.08071877062320709, 0.09061554074287415, -0.23093996942043304, -0.10242271423339844, -0.05333590880036354, 0.05786915495991707, -0.15528856217861176, -0.06082204729318619, 0.02120758593082428, 0.11496367305517197, 0.3360779285430908, 0.1574256867170334, -0.03346633166074753, 0.7306369543075562, 0.012878903187811375], [-0.10599294304847717, 0.23971346020698547, 0.046720992773771286, 0.42023715376853943, -0.09964759647846222, 0.13601453602313995, -0.14104792475700378, -0.06821449100971222, 0.6046170592308044, 0.5036059617996216, 0.039839956909418106, 0.18552784621715546, 0.18205755949020386, 0.16822880506515503, 0.06819088011980057, -0.06315792351961136, 0.036542858928442, -0.14968401193618774, 0.19296538829803467, -0.0039220210164785385, 0.015324091538786888, -0.01341303437948227, 0.6250519156455994, 0.008084101602435112, -0.2202451080083847, 0.33151179552078247, 0.1651437133550644, 0.064712293446064, 0.14468403160572052, 0.09027941524982452, -0.11395985633134842, -0.032537221908569336, -0.17926831543445587, -0.16491951048374176, 0.04918740689754486, 0.24940578639507294, 0.12573538720607758, -0.09124843776226044, 0.28450027108192444, -0.14058518409729004], [-0.12854087352752686, -0.004737354815006256, -0.06879830360412598, 0.0008389254799112678, 0.4943464994430542, -0.21251685917377472, 0.5307053327560425, 0.13434793055057526, -0.0037860015872865915, 0.049578964710235596, 0.18747879564762115, 0.18772782385349274, -0.03030613623559475, 0.23464494943618774, 0.12708856165409088, -0.15153120458126068, -0.2715654969215393, -0.15634046494960785, -0.4740118682384491, 0.22893410921096802, 0.1268608421087265, 0.053361862897872925, 0.1818322241306305, 0.14332841336727142, 0.16795141994953156, 0.0020228198263794184, 0.12410960346460342, -0.0663013681769371, -0.6144008636474609, 0.03272489458322525, -0.22888372838497162, -0.0782201886177063, 0.1116681843996048, -0.10725255310535431, 0.2394839972257614, 0.18812626600265503, -0.2352205514907837, 0.22466853260993958, 0.030042186379432678, -0.09563910961151123], [-0.02831929549574852, -0.15947622060775757, -0.19959259033203125, 0.19334183633327484, -0.09837433695793152, 0.15237726271152496, -0.25601089000701904, 0.0024242508225142956, 0.17123043537139893, 0.18350468575954437, -0.08606931567192078, -0.06481959670782089, 0.0560077466070652, -0.0029404964298009872, -0.08712127059698105, 0.15556687116622925, 0.06935682892799377, 0.3904602527618408, 0.105934739112854, -0.1312408149242401, -0.08223388344049454, -0.09665137529373169, -0.011476099491119385, 0.08447307348251343, -0.0827922523021698, -0.20588041841983795, -0.273591011762619, 0.10920967906713486, 0.4151936173439026, -0.07659441232681274, 0.0770946517586708, 0.04715849086642265, 0.0642692968249321, 0.02964641898870468, -0.2897033989429474, -0.0572655089199543, -0.06746406853199005, -0.11882023513317108, -0.5333684086799622, -0.0049609895795583725], [0.06038115918636322, 0.41031989455223083, -0.3978404104709625, -0.16807176172733307, 0.14929062128067017, -0.31242895126342773, 0.5277853608131409, -0.0476994588971138, -0.2090606391429901, 0.1683514565229416, -0.5107771158218384, -0.023978669196367264, -0.08048302680253983, 0.024116136133670807, -0.03817133232951164, -0.13330109417438507, -0.10760881006717682, -0.4239789545536041, -0.2091379016637802, -0.17043274641036987, -0.34454065561294556, -0.31269222497940063, 0.12262489646673203, -0.015267662703990936, 0.25215908885002136, -0.3081337511539459, 0.15930454432964325, 0.21041660010814667, 1.050220251083374, -0.03442025184631348, -0.4944889545440674, -0.3543943464756012, -0.22297467291355133, 0.05720987915992737, -0.48355358839035034, -0.04117734357714653, 0.21350902318954468, 0.4105507433414459, -0.4302363097667694, -0.14873310923576355], [0.0461057685315609, -0.01941952109336853, 0.1180042028427124, 0.05162055790424347, -0.07433255761861801, -0.07402972131967545, 0.15529143810272217, 0.13464267551898956, 0.038191843777894974, -0.08369710296392441, 0.28348687291145325, 0.21976399421691895, 0.1267705261707306, 0.2710605263710022, 0.11206407845020294, 0.031816016882658005, 0.5046953558921814, 0.2618078887462616, -0.15717168152332306, 0.12262851744890213, -0.18380117416381836, 0.11910680681467056, -0.2080812007188797, -0.09585839509963989, -0.18673452734947205, 0.1439337134361267, -0.14583009481430054, -0.06296999007463455, 0.2691294252872467, -0.27462130784988403, -0.050999902188777924, 0.0020244589541107416, 0.0878436416387558, 0.013931779190897942, -0.1265372931957245, -0.12050159275531769, 0.1513133943080902, -0.05851365625858307, 0.07668254524469376, -0.013935331255197525], [0.10864432901144028, 0.08556195348501205, -0.15416915714740753, -0.571901261806488, -0.09320008009672165, 0.005675154272466898, 0.4368624687194824, -0.020792584866285324, 0.5156025290489197, -0.5288476347923279, -0.1158987432718277, -0.01532251387834549, 0.006786772515624762, -0.10990224033594131, -0.060739289969205856, -0.13274219632148743, 0.019614605233073235, -0.11011571437120438, -0.11218281835317612, 0.013853363692760468, -0.06977084279060364, 0.07470744103193283, -0.20753881335258484, -0.3074394762516022, 0.17994233965873718, -0.15933255851268768, -0.025979183614253998, -0.084342822432518, 0.06462845206260681, 0.04686586931347847, 0.04460746422410011, -0.0257542934268713, -0.019317282363772392, -0.030446238815784454, 0.2696431279182434, -0.2158845067024231, -0.13833732903003693, 0.12411341816186905, -0.24563059210777283, 0.03881150111556053], [0.022950557991862297, 0.006562965922057629, -0.2745223045349121, 0.11647014319896698, 0.232545867562294, 0.09141874313354492, -0.07584147155284882, -0.13228903710842133, 0.6216081380844116, 0.28744572401046753, 0.01440491620451212, 0.11433988809585571, -0.05321161448955536, 0.026233429089188576, -0.001847003703005612, 0.3479729890823364, -0.3562590181827545, 0.23910020291805267, -0.02377397194504738, -0.14690011739730835, 0.018627021461725235, -0.22025887668132782, 0.391357958316803, -0.03271569684147835, 0.13152408599853516, 0.2561393976211548, 0.2081809937953949, 0.0564890094101429, 0.0026961923576891422, -0.1332940310239792, -0.21278351545333862, 0.014390640892088413, 0.2880971133708954, 0.03154183179140091, -0.22755743563175201, -0.16013860702514648, -0.20540529489517212, -0.09156764298677444, -0.4038394093513489, -0.03816652297973633], [0.24173401296138763, -0.06593241542577744, 0.19723796844482422, -0.18542681634426117, 0.11072153598070145, -0.10425397008657455, 0.10061462968587875, 0.16544505953788757, -0.06404510885477066, 0.04317159205675125, -0.04732249304652214, 0.16799665987491608, 0.010000004433095455, -0.09401344507932663, -0.05359768122434616, 0.07943638414144516, 0.36780479550361633, 0.3289327621459961, 0.13000541925430298, -0.11536646634340286, -0.16434411704540253, -0.11849148571491241, 0.33343997597694397, 0.004967013373970985, -0.10803500562906265, -0.13812774419784546, 0.2705904543399811, -0.08883193135261536, 0.16587571799755096, -0.47784873843193054, 0.2872791886329651, -0.0017248105723410845, 0.14222997426986694, 0.05641777813434601, 0.015479370951652527, 0.24129940569400787, 0.27235206961631775, 0.13524028658866882, 0.13840420544147491, 0.06458929181098938], [-0.0828300192952156, 0.5375865697860718, 0.12403880059719086, 0.08445380628108978, 0.10052799433469772, -0.018614863976836205, 0.09059435874223709, -0.11560620367527008, 0.07395527511835098, -0.06003295257687569, 0.23339532315731049, 0.18175365030765533, 0.008903060108423233, 0.23412534594535828, 0.33390405774116516, 0.1007925346493721, 0.14853590726852417, 0.20975761115550995, -0.08500081300735474, 0.05764271318912506, -0.08554383367300034, 0.218409463763237, -0.06317783147096634, 0.04561122879385948, -0.2274089902639389, 0.22534821927547455, -0.10035531967878342, -0.30816254019737244, 0.021504782140254974, -0.1237991526722908, -0.3356843590736389, -0.08936270326375961, 0.02508966252207756, -0.20389078557491302, -0.06618102639913559, -0.16427461802959442, 0.11478452384471893, 0.14468207955360413, 0.05520877242088318, -0.07430773228406906], [0.05824533849954605, -0.02812514826655388, 0.0707329511642456, -0.024493148550391197, -0.14049890637397766, -0.10561469942331314, 0.04460602626204491, 0.0413648784160614, 0.03075289912521839, -0.034112799912691116, 0.08877802640199661, 0.04648728296160698, 0.07414936274290085, 0.05311315879225731, 0.018200548365712166, -0.13899517059326172, 0.06075388565659523, 0.006364135537296534, 0.040502265095710754, 0.010892020538449287, -0.05513950437307358, 0.054932914674282074, 0.22364696860313416, -0.14948518574237823, -0.0912492424249649, 0.392527312040329, 0.09986881911754608, -0.08937497437000275, -0.10913828015327454, -0.09709775447845459, 0.05655520781874657, -0.0064591653645038605, 0.029545413330197334, -0.08880050480365753, 0.14896446466445923, 0.14596711099147797, 0.09913086891174316, -0.0022661120165139437, 0.28199756145477295, -0.021350348368287086], [0.0953347310423851, -0.036389488726854324, 0.0030224008951336145, 0.02156822569668293, -0.08820681273937225, 0.02625139243900776, 0.09221350401639938, 0.17852115631103516, 0.030042948201298714, 0.08932936936616898, 0.25845733284950256, 0.04535249248147011, 0.10553959757089615, 0.12730956077575684, 0.10862641036510468, -0.059778641909360886, 0.3876023590564728, 0.1768602579832077, -0.12606535851955414, 0.1250981241464615, -0.06075470149517059, -0.0491362139582634, 0.0379803292453289, 0.16883093118667603, -0.18742677569389343, 0.2646380662918091, 0.08334862440824509, 0.0839858427643776, 0.08493329584598541, -0.3047389090061188, 0.16324269771575928, 0.07344026863574982, 0.1182943731546402, -0.12797406315803528, 0.1540551483631134, 0.008361412212252617, 0.08086360991001129, 0.11349524557590485, -0.03407924249768257, 0.003446639981120825], [-0.046310655772686005, 0.10913822054862976, 0.03785917907953262, 0.12728717923164368, 0.04851534962654114, 0.019587989896535873, 0.08337633311748505, -0.02283298596739769, -0.024982349947094917, 0.037850476801395416, 0.020304212346673012, -0.06524452567100525, -0.003902274649590254, 0.04524746537208557, 0.10042160004377365, -0.13213852047920227, 0.1785641759634018, -0.08652930706739426, -0.16934901475906372, 0.10135865211486816, 0.10740227997303009, 0.05767276883125305, 0.13845522701740265, 0.14929786324501038, -0.22626425325870514, 0.11939903348684311, 0.03764364495873451, -0.07340026646852493, -0.04160664975643158, -0.08075249195098877, 0.056415021419525146, -0.05839884653687477, 0.004858895670622587, -0.09575320780277252, 0.2350248396396637, -0.053498513996601105, -0.07851164788007736, 0.18197587132453918, 0.02298406884074211, 0.0792575255036354], [0.020838173106312752, 0.06206385791301727, -0.11296924948692322, -0.01835617423057556, 0.13580222427845, 0.12555629014968872, 0.05995947867631912, 0.03209785372018814, -0.08973917365074158, 0.020388511940836906, -0.25292766094207764, -0.09110893309116364, -0.15400831401348114, -0.07055383175611496, -0.04380156099796295, 0.3195939362049103, 0.06594116240739822, -0.14761777222156525, 0.2535981237888336, 0.008386299014091492, 0.07990787923336029, -0.06766831129789352, 0.07636657357215881, -0.044519782066345215, 0.09731656312942505, -0.16083741188049316, -0.04651220142841339, -0.012419789098203182, -0.10984876751899719, -0.05397886410355568, -0.09746536612510681, 0.03124368190765381, -0.032563965767621994, 0.23040270805358887, -0.07883103936910629, -0.16965925693511963, -0.45006173849105835, -0.3892818093299866, -0.18956807255744934, 0.17184928059577942], [0.07290990650653839, 0.16062751412391663, 0.09254973381757736, -0.013215240091085434, -0.3427407145500183, -0.09055374562740326, 0.3160877823829651, -0.04115239530801773, 0.05059100314974785, -0.1057179868221283, -0.05767399072647095, -0.06273792684078217, 0.06492842733860016, 0.2150026559829712, 0.10818881541490555, 0.08124474436044693, 0.2559282183647156, 0.31253913044929504, -0.014259625226259232, -0.04264281317591667, -0.30106571316719055, 0.1779189109802246, -0.30374807119369507, 0.0570945106446743, -0.6512879133224487, 0.20127271115779877, -0.3414463400840759, -0.34350529313087463, 0.37695181369781494, -0.21530243754386902, 0.21421121060848236, -0.03762573003768921, -0.014669406227767467, -0.029419606551527977, -0.26973992586135864, -0.10126421600580215, 0.2729913592338562, 0.010336636565625668, 0.04988140985369682, 0.22328618168830872], [0.2079380303621292, -0.28334417939186096, 0.10923528671264648, 0.051278747618198395, 0.19636794924736023, 0.0200498029589653, -0.06435583531856537, -0.13375058770179749, 0.1706121861934662, -0.014913559891283512, 0.05682536959648132, -0.07767890393733978, -0.062166959047317505, -0.3138212561607361, -0.04408077150583267, 0.1602792590856552, -0.19974172115325928, 0.2342631071805954, 0.0028578820638358593, -0.24625186622142792, 0.04842253774404526, 0.08989347517490387, 0.3850621283054352, -0.40021559596061707, 0.06932570040225983, -0.565598726272583, 0.15048347413539886, -0.5189939737319946, -0.24635092914104462, -0.2968480885028839, 0.3232711851596832, -0.2858438193798065, 0.32683810591697693, -0.20493954420089722, 0.003842470236122608, -0.04291108250617981, -0.4490754306316376, -0.124102383852005, -0.16106998920440674, 0.2137066274881363], [0.02838292345404625, -0.07557672262191772, 0.47795769572257996, 0.8012624979019165, 0.20060113072395325, -0.08909304440021515, 0.16505585610866547, 0.040189556777477264, 0.20001648366451263, 0.27304157614707947, -0.07476844638586044, 0.08544401079416275, 0.12813590466976166, -0.02415267750620842, -0.06258523464202881, 0.07700490951538086, -0.17459546029567719, 0.12768733501434326, 0.4033621549606323, -0.05698782950639725, -0.10223092883825302, 0.36969077587127686, -0.39054739475250244, -0.31427308917045593, 0.26598384976387024, 0.008276333101093769, 0.1571643054485321, -0.12454144656658173, 0.056396570056676865, -0.10195614397525787, -0.24434764683246613, -0.24825222790241241, 0.05341215059161186, -0.3692522943019867, -0.12926742434501648, 0.2845749855041504, -0.37058141827583313, -0.11446838825941086, 0.27736854553222656, 0.018065162003040314], [-0.09060689806938171, 0.12150704860687256, 0.007543496787548065, 0.07294566184282303, -0.06324782967567444, -0.08244612067937851, 0.1202450543642044, 0.18832455575466156, -0.005260422360152006, -0.03983956202864647, 0.08930271118879318, 0.17868560552597046, 0.04929981380701065, 0.2156381607055664, 0.06205134838819504, -0.19339619576931, 0.42992541193962097, -0.0027148437220603228, 0.09721739590167999, 0.08252011984586716, -0.05206694081425667, 0.06734861433506012, 0.021519800648093224, -0.025144973769783974, -0.21545106172561646, 0.08359808474779129, 0.03263802453875542, 0.11721724271774292, 0.1476309895515442, 0.00788221787661314, 0.06858871132135391, -0.08046627044677734, -0.1491777002811432, -0.14132720232009888, 0.023961257189512253, 0.017513737082481384, 0.24090984463691711, 0.1074189692735672, 0.06517164409160614, -0.14117325842380524], [-0.10177833586931229, -0.040536195039749146, -0.06893986463546753, 0.029571661725640297, 0.06702236086130142, 0.03529995307326317, 0.16158221662044525, 0.132089763879776, 0.0025000066962093115, 0.007292690221220255, -0.1036996990442276, -0.011036762967705727, 0.0718250647187233, 0.0865267813205719, -0.04416315630078316, -0.04157407209277153, 0.15766684710979462, 0.05638682842254639, 0.30898982286453247, 0.01381577830761671, 0.1166805848479271, -0.0538066104054451, 0.20788007974624634, -0.0772518515586853, 0.11435631662607193, -0.1783694475889206, 0.04331212863326073, 0.18768569827079773, -0.07730373740196228, 0.13439588248729706, 0.03774961456656456, 0.0798187106847763, -0.04656757041811943, 0.0597117580473423, 0.026610825210809708, 0.13115982711315155, -0.17629265785217285, -0.07946515828371048, 0.09369762986898422, 0.008514842949807644], [-0.07523299008607864, 0.1290407031774521, 0.35333433747291565, 0.1366102248430252, -0.07083047181367874, -0.11799250543117523, -0.21071559190750122, 0.023533644154667854, 0.07453972846269608, -0.08374486863613129, 0.011504131369292736, -0.0909571722149849, 0.04224736616015434, 0.0427078939974308, -0.02466111071407795, -0.2723923623561859, 0.1254197359085083, -0.24942068755626678, 0.16519494354724884, 0.09158682078123093, -0.025054194033145905, 0.16082990169525146, -0.14135664701461792, -0.23098357021808624, -0.20462608337402344, 0.14409245550632477, 0.06879142671823502, -0.10692378878593445, 0.07235947996377945, 0.08959179371595383, 0.0514516718685627, -0.16446363925933838, -0.2741595506668091, -0.2242773175239563, 0.21339286863803864, 0.355602890253067, 0.21901489794254303, 0.11171356588602066, 0.14847217500209808, -0.011930009350180626], [0.10249270498752594, 0.22520190477371216, -0.3377331793308258, -0.13393089175224304, -0.3975556492805481, -0.005239305552095175, 0.04809454083442688, 0.21073415875434875, 0.5464238524436951, -0.48662522435188293, 0.041655633598566055, 0.03361539915204048, 0.015506483614444733, 0.11041880398988724, 0.12196235358715057, 0.07994338124990463, 0.3568378686904907, -0.15164218842983246, -0.20093218982219696, 0.2268764227628708, 0.07527650892734528, 0.1196046769618988, 0.3751070499420166, -0.2933083176612854, 0.10664031654596329, -0.16799969971179962, -0.030895285308361053, 0.05661916732788086, -0.09492446482181549, -0.024592382833361626, 0.05618492141366005, -0.02708142064511776, 0.06231900677084923, 0.31154200434684753, -0.29588812589645386, -0.06546512991189957, -0.4978567957878113, 0.051036424934864044, -0.02045441046357155, 0.08127912878990173], [-0.025424964725971222, -0.2310226410627365, -0.09736998379230499, 0.09669356793165207, 0.043635912239551544, -0.012318267486989498, 0.27799344062805176, -0.09896928071975708, 0.14419366419315338, 0.3657652735710144, -0.1841944456100464, -0.2799033522605896, 0.006781472358852625, 0.022684097290039062, -0.18064379692077637, 0.174129456281662, -0.06051584705710411, 0.4376503527164459, 0.10810289531946182, -0.34282422065734863, -0.2141008824110031, -0.3206939697265625, -0.0871942788362503, 0.1086580753326416, -0.15096540749073029, -0.06651410460472107, 0.025359289720654488, 0.1405477374792099, 0.5287131667137146, -0.09896417707204819, 0.13161422312259674, 0.1361466944217682, -0.054136138409376144, 0.16530096530914307, -0.13733306527137756, -0.4418816566467285, 0.43781787157058716, -0.23751291632652283, -0.3827264606952667, 0.005040623713284731], [-0.034741535782814026, 0.1803976446390152, -0.17747743427753448, -0.386833131313324, 0.03343906253576279, 0.026990408077836037, -0.10907575488090515, 0.37081775069236755, -0.21125419437885284, -0.22979672253131866, 0.32352450489997864, 0.3491109311580658, -0.12138789147138596, 0.25024446845054626, 0.09645675867795944, -0.004267562180757523, 0.23542772233486176, 0.11627788096666336, -0.0791805237531662, 0.15309712290763855, 0.04197685420513153, -0.16165149211883545, 0.0807913988828659, -0.11551998555660248, 0.2900697886943817, -0.460925817489624, 0.017816578969359398, 0.1337054818868637, -0.30442649126052856, -0.09289508312940598, -0.2513011395931244, 0.05666157975792885, 0.11906924098730087, 0.21245412528514862, -0.06111406534910202, -0.004052013624459505, -0.08583559840917587, 0.030403314158320427, 0.036279596388339996, -0.09521210938692093], [0.048970844596624374, -0.08203749358654022, 0.1439649760723114, -0.6477710008621216, 0.23238463699817657, -0.40108126401901245, -0.07956849783658981, -0.16097392141819, -0.038706038147211075, -0.20540693402290344, -0.12107080221176147, -0.1918502002954483, 0.22441846132278442, -0.06192830950021744, -0.18969571590423584, 0.09175445139408112, -0.2637411057949066, 0.15395884215831757, -0.021006129682064056, -0.3122948706150055, -0.07152438908815384, -0.16185042262077332, 0.2973686456680298, -0.6222115755081177, 0.3508918285369873, 0.15799562633037567, 0.04201188683509827, 0.03619636595249176, 0.3360830843448639, -0.1509309709072113, -0.05934658646583557, 0.11885422468185425, 0.10994862765073776, -0.41026610136032104, -0.25719261169433594, -0.11384764313697815, -0.2508881986141205, -0.05227844789624214, 0.5974185466766357, 0.26673364639282227], [0.1090807393193245, 0.34603217244148254, -0.15402857959270477, 0.02327529340982437, -0.19666296243667603, -0.13653095066547394, 0.0278133824467659, -0.07793833315372467, 0.2028806209564209, -0.09670723229646683, 0.09732642024755478, -0.06214509531855583, -0.028842482715845108, 0.007268620654940605, 0.11844491213560104, 0.010722056031227112, 0.11816657334566116, 0.0990259200334549, -0.27054205536842346, -0.031524382531642914, 0.08393994718790054, -0.06729140877723694, 0.38711264729499817, 0.011737366206943989, -0.07946152985095978, 0.025117691606283188, 0.5665320754051208, 0.02139502577483654, -0.1182064563035965, 0.080328069627285, -0.09072376042604446, -0.06863947957754135, 0.12262579798698425, 0.15726900100708008, -0.2697407305240631, 0.031020883470773697, -0.4891342222690582, 0.10056064277887344, -0.19779303669929504, 0.1439991146326065], [0.06727243214845657, -0.09855735301971436, -0.13936154544353485, -0.2255614846944809, -0.1586156040430069, 0.04486542567610741, 0.1634630560874939, 0.1622152328491211, 0.037894878536462784, 0.15119871497154236, 0.20694833993911743, 0.1345800757408142, 0.026557032018899918, 0.2086724489927292, 0.006737043149769306, 0.10565192997455597, 0.16311480104923248, 0.3904592990875244, -0.04346652701497078, -0.13381868600845337, -0.15442073345184326, -0.21855200827121735, -0.11984322965145111, 0.2571989595890045, 0.03000161238014698, 0.196539506316185, -0.05956951156258583, 0.17999005317687988, 0.29163241386413574, -0.21576885879039764, -0.007749807555228472, 0.31079792976379395, 0.17918996512889862, 0.05811375379562378, -0.04958953708410263, -0.3674635887145996, -0.021753231063485146, -0.19769737124443054, -0.06542554497718811, -0.004600933287292719], [-0.010187811218202114, 0.2188778519630432, -0.007315842900425196, -0.07318686693906784, -0.39240947365760803, 0.28682246804237366, -0.1648545265197754, -0.47189339995384216, 0.0821109414100647, 0.20507816970348358, 0.4565078914165497, -0.07677758485078812, -0.08865019679069519, -0.04429972916841507, 0.1629635989665985, 0.2648356556892395, -0.580630362033844, -0.3810097575187683, -0.39782071113586426, 0.10266631096601486, 0.15685369074344635, 0.02142036147415638, -0.3932718336582184, 0.6650355458259583, -0.1941956877708435, 0.4065494239330292, -0.17975541949272156, -0.03145093470811844, -0.3474479913711548, -0.14147670567035675, -0.15202222764492035, -0.009122774004936218, 0.18273811042308807, -0.23051632940769196, 0.1415698528289795, 0.08877106010913849, -0.017843373119831085, -0.1140037328004837, 0.048283401876688004, 0.19055084884166718], [-0.08411569893360138, -0.257668673992157, 0.01989847980439663, 0.030304037034511566, -0.008942848071455956, -0.18589496612548828, -0.09950920194387436, 0.25415363907814026, 0.07470427453517914, 0.1924746185541153, -0.0855541005730629, -0.11849565804004669, 0.2697468101978302, 0.2997082471847534, -0.2022072821855545, -0.449836790561676, -0.039334025233983994, 0.08732512593269348, 0.02608846127986908, -0.03346541151404381, -0.15580540895462036, -0.1401674598455429, 0.05739738419651985, -0.05348580703139305, 0.2741732895374298, -0.09178557991981506, 0.006889653392136097, 0.37578850984573364, 0.21527265012264252, 0.26553553342819214, -0.08754630386829376, 0.2598017156124115, -0.1798935979604721, -0.008921176195144653, 0.019848154857754707, 0.23060737550258636, 0.023740053176879883, 0.07565798610448837, 0.00906397309154272, -0.37177574634552], [0.0648234486579895, -0.29559099674224854, 0.3033422827720642, 0.1948327124118805, -0.08648625016212463, -0.12906725704669952, -0.021564068272709846, -0.20284822583198547, 0.01711585372686386, -0.14076755940914154, -0.17633643746376038, -0.0356421023607254, 0.08130768686532974, 