{"model_data": {"model": "SimpleRNN", "input_size": 2, "skip": 1, "output_size": 1, "unit_type": "LSTM", "num_layers": 1, "hidden_size": 40, "bias_fl": true}, "state_dict": {"rec.weight_ih_l0": [[0.053123485296964645, -0.2185848206281662], [0.0014676438877359033, 0.04684771969914436], [-0.0034005760680884123, 0.03151043877005577], [0.02822187915444374, 0.13744303584098816], [0.06428411602973938, 0.10467936843633652], [0.004007489420473576, 0.006338879466056824], [0.010323180817067623, 0.03169108182191849], [0.0006132656126283109, -0.0006608820403926075], [0.00013996045163366944, -9.035534458234906e-05], [-0.008389527909457684, -0.005781812127679586], [0.00024862121790647507, -0.000315554701955989], [-0.010429635643959045, 0.17617681622505188], [0.08747008442878723, -0.1873176097869873], [-0.009146149270236492, 0.012214603833854198], [0.041260868310928345, 0.03415675833821297], [-0.012274559587240219, 0.042152099311351776], [0.0001638846006244421, -0.0002638055302668363], [0.008200066164135933, 0.17900246381759644], [-0.04489149898290634, 0.11378007382154465], [-0.011038657277822495, -0.1953858733177185], [0.026709001511335373, 0.13422301411628723], [-0.015435387380421162, 0.07322096079587936], [0.04626491665840149, 0.03522128984332085], [0.0005902308621443808, -0.001530898385681212], [-0.12669457495212555, -0.13776986300945282], [0.047982316464185715, -0.16937386989593506], [0.012348223477602005, 0.005495049990713596], [-0.016536617651581764, 0.023329555988311768], [0.02131686545908451, 0.12067665904760361], [7.899116098997183e-06, -0.0001241898280568421], [8.046466246014461e-05, -0.0002658506855368614], [0.00023588079784531146, 0.00012397780665196478], [0.015940990298986435, 0.05718846619129181], [-0.013377664610743523, 0.007765740156173706], [0.0029045359697192907, 0.0022628847509622574], [-0.057059865444898605, 0.07859016209840775], [-0.056678205728530884, 0.03760245814919472], [-0.0009763312409631908, 0.03041134774684906], [-0.02397480607032776, 0.026326779276132584], [0.013156156055629253, 0.019887341186404228], [0.0019539822824299335, 0.2666277289390564], [-0.012422507628798485, 0.01136025320738554], [-0.0071279508993029594, 0.05372621491551399], [0.1006794273853302, 0.1530183106660843], [-0.009142993949353695, 0.12160054594278336], [0.0031922804191708565, 0.003902678145095706], [0.03598480299115181, 0.053478945046663284], [0.0005503159482032061, -0.0007067583501338959], [0.0001097564454539679, -9.707998833619058e-05], [0.0038180870469659567, 0.01839238964021206], [0.0002010829484788701, -0.0002433000336168334], [0.04306831955909729, 0.07787259668111801], [0.022112857550382614, 0.2423909306526184], [-0.03740435466170311, 0.010687633417546749], [-0.02406356669962406, 0.07082446664571762], [-0.03873741254210472, -0.02525876648724079], [0.0001367166987620294, -0.0001958311622729525], [-0.016478102654218674, 0.05488398298621178], [-0.011113494634628296, 0.1250973641872406], [-0.0008372770389541984, 0.218983992934227], [0.010962629690766335, -0.08577148616313934], [-0.03123495541512966, 0.04513946548104286], [0.04239582270383835, 0.003717000363394618], [0.00018535167328082025, 0.0032178908586502075], [-0.049760740250349045, 0.1338111311197281], [-0.023415260016918182, 0.04730360209941864], [-0.019403817132115364, 0.0073570990934967995], [-0.00042812529136426747, 0.03785383328795433], [0.10495448857545853, -0.08798900991678238], [-5.394146228354657e-06, -0.00011022543912986293], [6.677107012365013e-05, -0.0002554895472712815], [0.0001946221455000341, 0.00020966505690012127], [0.022209875285625458, 0.11684831976890564], [0.017951590940356255, 0.050966035574674606], [0.005366375669836998, 0.030012192204594612], [-0.08254843950271606, 0.04049256443977356], [-0.07716493308544159, 0.014755921438336372], [0.00027489379863254726, 0.0403626374900341], [-0.0485854409635067, 0.0380576066672802], [-0.002276107668876648, 0.02190515771508217], [-0.18338635563850403, 0.02165800705552101], [0.13523653149604797, -0.30643177032470703], [0.004573505837470293, -0.06200554966926575], [-0.38960760831832886, -0.028734086081385612], [-2.1505861282348633, -0.01611959934234619], [0.006771031301468611, -0.040494147688150406], [-0.1728222817182541, 0.14372025430202484], [-0.009287569671869278, -0.008257251232862473], [-0.0037004402838647366, -0.009019928053021431], [0.10207090526819229, 0.0776626393198967], [0.007396041415631771, -0.0025606758426874876], [-1.1125141382217407, -0.06985057890415192], [-0.1565668135881424, 0.12339773774147034], [0.1438366174697876, 0.0356905497610569], [-0.18561877310276031, 0.014026923105120659], [-0.22435706853866577, -0.04173867776989937], [0.0077327885664999485, -0.0031952462159097195], [-4.123962879180908, -0.0399295799434185], [-0.18701747059822083, -0.08934158086776733], [0.24393266439437866, -0.019239671528339386], [1.293237566947937, -0.05393759533762932], [-0.21818964183330536, -0.21892660856246948], [0.2756962180137634, 0.01715867593884468], [0.002070680959150195, -0.019884860143065453], [0.6779674887657166, 0.026611920446157455], [0.0984024927020073, -0.05762234330177307], [-0.1363557130098343, -0.1112232580780983], [-0.3378644287586212, -0.07413218915462494], [-0.49198222160339355, 0.20407553017139435], [-0.003873873967677355, 0.0019092068541795015], [0.005447826813906431, -0.0013168989680707455], [0.009623823687434196, -0.008092292584478855], [0.33538052439689636, 0.04340338706970215], [-0.10768450796604156, -0.02186070941388607], [-0.05016065388917923, -0.007736105006188154], [0.25188183784484863, 0.03408508002758026], [-0.11115755885839462, 0.020854368805885315], [0.003455468686297536, -0.05768943578004837], [-0.14030487835407257, -0.01616964116692543], [-0.1688593626022339, 0.012689403258264065], [0.11837280541658401, 0.09770236909389496], [-0.010113287717103958, 0.07139366120100021], [-0.047089334577322006, 0.06105715408921242], [0.05140489712357521, 0.17866551876068115], [0.03651706501841545, 0.08711689710617065], [0.005489386152476072, 0.006327985320240259], [0.023583844304084778, 0.08399350941181183], [0.0003629431885201484, -0.0006679469952359796], [0.00010685985762393102, -9.169251279672608e-05], [-0.019995244219899178, 0.048363879323005676], [0.0002637003199197352, -0.00032180052949115634], [0.00038878520717844367, 0.1911286562681198], [0.06351391971111298, 0.06979869306087494], [-0.06085660681128502, -0.0030805200804024935], [0.04949136823415756, 0.10574103146791458], [0.03028499335050583, 0.025730490684509277], [0.0001368840894429013, -0.00026754793361760676], [0.021778050810098648, 0.1649809628725052], [-0.06128166988492012, 0.10779464989900589], [-0.022537078708410263, 0.054026536643505096], [0.015434795059263706, 0.13626497983932495], [-0.025171300396323204, 0.08958475291728973], [0.05120159685611725, 0.07117760926485062], [-0.000694139685947448, -0.0011378482449799776], [-0.04457627981901169, 0.17886079847812653], [0.03599841147661209, 0.0550532229244709], [-0.025523314252495766, -0.01216078270226717], [-0.024060113355517387, 0.13750582933425903], [0.044965509325265884, 0.12382631003856659], [1.1983910553681199e-05, -0.0001240942074218765], [0.00011087115126429126, -0.00026842986699193716], [0.0002422605612082407, 0.00012899641296826303], [0.009216918610036373, 0.11195508390665054], [-0.00920948851853609, 0.053038422018289566], [-0.02077869512140751, 0.01784481294453144], [-0.12558315694332123, 0.11421362310647964], [-0.07301106303930283, 0.06255519390106201], [0.014679147861897945, 0.021211249753832817], [-0.006621565204113722, 0.07003534585237503], [0.07749514281749725, 0.0815410166978836]], "rec.weight_hh_l0": [[0.031041229143738747, -0.11775440722703934, 0.5269456505775452, 0.0807843878865242, -0.10504784435033798, -0.04642700031399727, -0.11886045336723328, -0.005376677494496107, 0.00014848943101242185, -0.06414727866649628, -0.007341057062149048, -0.08498333394527435, 0.020850811153650284, -0.07159319519996643, -0.25605592131614685, 0.4291433095932007, -0.00529114343225956, 0.14777842164039612, -0.1350293904542923, -0.1959957629442215, -0.015647055581212044, -0.0032139925751835108, 0.07748076319694519, 0.01245039515197277, 0.025975259020924568, -0.10746070742607117, -0.027322378009557724, -0.2653093636035919, 0.2266145795583725, 0.0038204574957489967, -0.003353221109136939, -0.009509870782494545, -0.16328218579292297, 0.17749731242656708, 0.05182240530848503, 0.08265630900859833, -0.022531146183609962, 0.18088771402835846, -0.03409160301089287, 0.052505865693092346], [-0.016201836988329887, 0.05427338182926178, -0.12756769359111786, 0.046017348766326904, -0.0039422400295734406, 0.001436476013623178, 0.012367104180157185, -0.0011460129171609879, -0.00034085565130226314, 0.005284888204187155, -0.002006331691518426, -0.024012770503759384, -0.05024949461221695, 0.02828623540699482, 0.09227760881185532, -0.051804862916469574, -0.0010955886682495475, 0.003029643325135112, -0.05208572745323181, 0.028479717671871185, -0.014062336646020412, -0.014748092740774155, 0.0027669821865856647, -0.013521232642233372, -0.03205817565321922, 0.004371126182377338, -0.014673254452645779, 0.07297877222299576, -0.07486928254365921, 0.0006099838064983487, -0.0006156383315101266, -0.001530658919364214, 0.0691128522157669, -0.04738379642367363, -0.011334849521517754, 0.012883071787655354, 0.0012764792190864682, -0.08121760934591293, 0.018758628517389297, 0.023384366184473038], [-0.010206482373178005, 0.03383897244930267, -0.10776875913143158, -0.006153321824967861, -0.0038670601788908243, -0.0003777680394705385, -0.006147001404315233, -0.0016950471326708794, 0.00025965491659007967, 4.5292326831258833e-05, -0.002460785210132599, -0.006296646315604448, -0.03837905079126358, 0.03371591120958328, 0.06669384986162186, -0.056797564029693604, -0.001638689893297851, -0.0017200217116624117, -0.008036509156227112, 0.014283934608101845, 0.0014150642091408372, 0.02457006275653839, -0.0016950353747233748, -0.011060748249292374, -0.02746538445353508, 0.001195521792396903, 0.014252818189561367, 0.04473954439163208, -0.02241719514131546, 0.0004895302699878812, -0.000757483474444598, -0.002396579599007964, 0.051200591027736664, -0.03350343182682991, -0.016775039955973625, -0.0235123373568058, 0.014568445272743702, -0.07106927782297134, 0.020557614043354988, -0.04860011115670204], [-0.0166996568441391, 0.15637078881263733, -0.2596780061721802, 0.002431507222354412, -0.014950945973396301, 0.0016228000167757273, 0.015760619193315506, 0.0006856848485767841, -0.00013811966346111149, 0.07180318981409073, 2.766849320323672e-05, -0.01247192732989788, -0.06323842704296112, 0.12326279282569885, 0.1505786031484604, -0.20135563611984253, 0.0005643395707011223, 0.011952673085033894, -0.042503006756305695, 0.09962769597768784, -0.0171410720795393, 0.01486305519938469, -0.06553740054368973, -0.016076238825917244, 0.02393564023077488, 0.042864181101322174, -0.02059987746179104, 0.10134604573249817, -0.1050385907292366, -0.0005174748948775232, 0.000524872331880033, 0.0005430086748674512, 0.14917762577533722, -0.12451973557472229, -0.08880307525396347, 0.04801194742321968, -0.03131156042218208, -0.1440344750881195, 0.011757023632526398, -0.0018027105834335089], [0.05147065594792366, 0.27761736512184143, -0.10610237717628479, 0.21488486230373383, -0.04198473319411278, 0.0028105236124247313, 0.09396639466285706, 0.004303451627492905, -0.0014836093178018928, 0.24566799402236938, 0.0055734748020768166, -0.14458343386650085, 0.09353698045015335, 0.1702670305967331, 0.19842027127742767, -0.223709374666214, 0.0035102106630802155, 0.012294646352529526, -0.4052794575691223, 0.23749032616615295, -0.12541811168193817, -0.162558451294899, -0.3175414502620697, -0.0017018405487760901, 0.035622742027044296, -0.1124265119433403, -0.20883658528327942, 0.16600805521011353, -0.1847352385520935, 0.00014192216622177511, 0.0003412837104406208, 0.006172186229377985, 0.22014841437339783, -0.2528657913208008, -0.19391095638275146, 0.34679296612739563, -0.049744170159101486, -0.06568829715251923, 0.18248365819454193, 0.3673684597015381], [0.0004066441033501178, 0.01796029880642891, -0.02013065293431282, 0.007514393422752619, -0.004330766852945089, 0.0005268935929052532, 0.006653456017374992, -5.2860486903227866e-06, -0.00011550631461432204, 0.010389815084636211, -0.0002543761220294982, -0.0033452187199145555, 0.0009644918609410524, 0.012842103838920593, 0.015875661745667458, -0.016345825046300888, -0.0002777847112156451, 0.0019824174232780933, -0.017467612400650978, 0.017545577138662338, -0.003015819936990738, -0.005789496470242739, -0.010063587687909603, -0.0009849229827523232, 0.006578217260539532, -0.003789503825828433, -0.012513906694948673, 0.011642410419881344, -0.016051556915044785, 0.00012903647439088672, -0.00016817070718389004, -0.0002239624154753983, 0.016288528218865395, -0.014498169533908367, -0.00992133840918541, 0.00979902595281601, -0.004309209529310465, -0.01492135226726532, 0.0029106412548571825, 0.013906959444284439], [-0.05653320625424385, 0.028852950781583786, -0.11081116646528244, 0.04592820629477501, 0.052183929830789566, -0.0008327435934916139, 0.005400924012064934, -0.00174877664539963, -0.0005552716902457178, -0.011791052296757698, -0.0034137340262532234, 0.0072935037314891815, -0.05709473416209221, 0.010436481796205044, 0.06380309164524078, -0.03451713174581528, -0.0026069816667586565, -0.030095010995864868, -0.00672706076875329, 0.04534536972641945, 0.02360420860350132, 0.037172701209783554, -0.0018530685920268297, -0.010708997026085854, -0.047897811979055405, 0.037870485335588455, -0.02582487091422081, 0.03360438719391823, -0.0646647959947586, 0.0005081863491795957, -0.0010667075403034687, -0.0034597639460116625, 0.05269119516015053, -0.049647826701402664, -0.00037739716935902834, -0.0010949186980724335, 0.004787924699485302, -0.0676390677690506, -0.02487812004983425, -0.014145280234515667], [-0.0007878895848989487, -0.00024057402333710343, 0.0011832398595288396, 7.889065454946831e-05, -0.00033161952160298824, 4.484275996219367e-05, 0.00043340944102965295, -0.00010173337068408728, -3.196574471076019e-05, -0.0006770569016225636, -7.569879585389572e-07, 0.0004216737288516015, -0.0004521626397036016, -0.0006216985639184713, -0.0013296137331053615, 0.0010511107975617051, 2.664418934728019e-05, 0.0003177417383994907, -5.976015381747857e-05, 0.0008175683906301856, -0.00016465707449242473, -0.00046677817590534687, 0.0016401431057602167, 7.586494757561013e-05, 0.0009541448089294136, -0.00017875958292279392, -0.00013811522512696683, -0.001244744285941124, 0.0008064975845627487, -0.0001349711383227259, 8.506089943693951e-05, 1.568966945342254e-05, -0.001039251801557839, 0.0013419553870335221, 0.002063505118712783, 0.00014896327047608793, -0.0005224061314947903, 0.0010610962053760886, -0.0008204626501537859, 0.0008676834986545146], [-0.0001817940647015348, -0.00022462286869995296, 0.00032475643092766404, 0.0001500614162068814, 0.0001762942993082106, 3.4654010505619226e-06, -0.00011323150101816282, -4.483885732042836e-06, -3.0103258268354693e-06, -0.0002245477371616289, -9.373578109261871e-07, 8.689828246133402e-05, -0.00021994435519445688, -0.0004026212845928967, -0.0002062602579826489, 0.00019590141891967505, 6.801975018788653e-07, 1.0102742635353934e-05, 0.00017414680041838437, -0.00013388188381213695, -5.789719216409139e-05, -0.00015060065197758377, 0.00036048347828909755, -5.0963022658834234e-05, 0.0002041439583990723, 1.5857722246437334e-05, 0.00021288626885507256, -0.00017068909073714167, 3.802075661951676e-05, -6.853062586742453e-06, 3.5227624266553903e-06, 3.146513336105272e-06, -0.00017128205217886716, 0.00018749255104921758, 0.00039890003972686827, 3.938676309189759e-05, -0.00024365371791645885, 0.00019199767848476768, -0.00027665216475725174, -7.190724863903597e-05], [-0.0013958539348095655, 0.06114242970943451, -0.060597874224185944, -0.011210157535970211, 0.009022210724651814, -0.001504027284681797, -0.005538036115467548, -0.0009430578211322427, 0.00137996394187212, 0.039020318537950516, -0.002034034114331007, 0.0035984208807349205, -0.015785101801156998, 0.05960976332426071, 0.04927844554185867, -0.03657063469290733, -0.0014375410974025726, -0.013493089005351067, 0.01025895681232214, 0.012623146176338196, 0.002427886240184307, 0.028201567009091377, -0.029592474922537804, -0.004049636889249086, -0.020807169377803802, 0.027493730187416077, -0.007319034077227116, 0.04583580791950226, -0.02238253876566887, 0.0008822420495562255, -0.000690908869728446, -0.0021574220154434443, 0.03201190009713173, -0.032014958560466766, -0.061666037887334824, 0.003827568842098117, 0.01995949260890484, -0.04317769035696983, 0.02313016913831234, -0.0005482949200086296], [-0.0004896368482150137, 5.146845796843991e-05, 0.0009874367387965322, -0.00044675712706521153, -0.00024322148237843066, 6.370859409798868e-06, -0.0002452877233736217, -1.1396523404982872e-05, 9.205372748510854e-07, -0.00047866246313787997, -2.4293862225022167e-05, -1.4759318219148554e-05, -0.0003775638178922236, 0.0008106447057798505, -0.0013486829120665789, 0.0021244825329631567, -1.4134256161923986e-05, -0.00011915994400624186, 0.00023981969570741057, 3.424858732614666e-05, 0.00032455328619107604, 6.81477104080841e-05, 0.0006657942431047559, 5.6149783631553873e-05, -1.0599198958516354e-06, 0.000563055626116693, 9.265434346161783e-05, -0.0005617041024379432, 0.00067382917040959, 3.91840330848936e-06, -5.773435077571776e-06, -2.5349050702061504e-05, -0.0016978788189589977, 0.001242701429873705, 8.440572855761275e-05, -0.0005132528604008257, 5.8756409998750314e-05, 0.0007544756517745554, 3.148857649648562e-05, -0.00048266921658068895], [-0.06866824626922607, 0.13146457076072693, -0.31947481632232666, 0.005016079638153315, 0.037016283720731735, -0.0024487727787345648, 0.030442237854003906, -0.0007453422877006233, 0.0009991717524826527, 0.08084507286548615, -0.006159759592264891, -0.005259730853140354, -0.1322336494922638, 0.1997133195400238, 0.17727594077587128, -0.14231982827186584, -0.004820665344595909, -0.005846827756613493, -0.06003567576408386, 0.153151273727417, -0.031065933406352997, 0.008600364439189434, -0.002810999983921647, -0.02060021460056305, -0.07752014696598053, -0.00633739959448576, -0.06906028836965561, 0.18013717234134674, -0.0594581738114357, 0.002394180977717042, -0.0027050019707530737, -0.006504357792437077, 0.17410027980804443, -0.11117391288280487, -0.14854910969734192, 0.057547930628061295, 0.008970960043370724, -0.20157629251480103, 0.06122404709458351, -0.02441311441361904], [-0.06850036233663559, -0.13054761290550232, 0.6121814250946045, -0.287466824054718, -0.08700724691152573, 0.009620755910873413, -0.07804488390684128, 0.0031938361935317516, 0.0018441551364958286, -0.0190667025744915, 0.008114738389849663, 0.022148752585053444, -0.031021779403090477, -0.11328823119401932, -0.11008947342634201, 0.3953390419483185, 0.004934663884341717, -0.12145374715328217, 0.6381202936172485, -0.026699358597397804, 0.03546309843659401, 0.04605038836598396, 0.2498890459537506, -0.0010129895526915789, 0.08703804016113281, 0.18011561036109924, 0.19753789901733398, -0.20223207771778107, -0.20340487360954285, -0.0005509955808520317, 0.0034976263996213675, 0.007720643654465675, -0.2482004314661026, 0.28080737590789795, 0.06495048850774765, -0.162952721118927, -0.049931034445762634, 0.15634378790855408, -0.3048473298549652, -0.0034189994912594557], [-0.029956309124827385, 0.028198273852467537, -0.11159924417734146, -0.01917283795773983, -0.019593534991145134, -0.003360803471878171, -0.020267140120267868, -0.0024754360783845186, 3.378739711479284e-05, -0.009601561352610588, -0.00496890302747488, 0.002256494713947177, -0.040162865072488785, 0.042428158223629, 0.06752873212099075, -0.05950746312737465, -0.0036901740822941065, 0.003040274837985635, -0.007695369888097048, 0.005738731473684311, 0.00795285776257515, 0.0380571074783802, 0.011595108546316624, -0.01329100038856268, -0.038854219019412994, 0.030386855825781822, 0.013727523386478424, 0.05550830066204071, 0.007800317369401455, 0.0019072069553658366, -0.002291190205141902, -0.00517595000565052, 0.05255037546157837, -0.021038644015789032, -0.02393404021859169, -0.04656768590211868, 0.015203531831502914, -0.06568943709135056, 0.023034393787384033, -0.055723655968904495], [0.0309851486235857, 0.05317293852567673, -0.10618776828050613, -0.028053168207406998, 0.02847292274236679, 0.002533865859732032, -0.02480188012123108, 0.0015336981741711497, 0.0007970708538778126, 0.010126122273504734, 0.004460290540009737, -0.06296790391206741, -0.046801500022411346, -0.021338321268558502, 0.08676575124263763, -0.06170430779457092, 0.0035016105975955725, -0.05018084496259689, -0.023871734738349915, -0.004638967104256153, 0.03158530220389366, 0.002448013052344322, 0.018756477162241936, -0.013731406070291996, -0.00933273695409298, -0.01402704231441021, 0.03608165681362152, 0.018589535728096962, -0.011345472186803818, -0.000901947496458888, 0.0017652090173214674, 0.005171482916921377, 0.03538860008120537, -0.03655090183019638, 0.006392127834260464, -0.004349876660853624, 0.004362582694739103, -0.0558510422706604, 0.03442627564072609, -0.04276079311966896], [-0.012335375882685184, 0.022331302985548973, -0.15638941526412964, -0.02594313584268093, 0.014451062306761742, 0.004865209572017193, 0.032766323536634445, -0.002159890253096819, 0.0007693932275287807, 0.004956663120537996, -0.0033335471525788307, 0.03387323394417763, -0.04174624755978584, 0.05419208109378815, 0.07468707859516144, -0.0635659471154213, -0.0017046466236934066, 0.008930781856179237, 0.06112948805093765, -0.0007118601351976395, 0.019215190783143044, 0.03605876863002777, -0.06287135183811188, -0.013213367201387882, -0.02115790545940399, 0.029642105102539062, 0.026181992143392563, 0.03375657647848129, -0.03657003864645958, -0.0002790096332319081, -0.00028139023925177753, -0.0028053773567080498, 0.08566548675298691, -0.05394184961915016, -0.031237756833434105, -0.04167252406477928, 0.033480603247880936, -0.08053183555603027, 0.01956934668123722, -0.015793118625879288], [-0.0003354634973220527, -0.0001327137870248407, 0.0010493992595002055, -0.00039557917625643313, -0.00023286706709768623, -2.3431575755239464e-05, -0.00017421241500414908, -1.1666972568491474e-05, 4.473795797821367e-06, -0.0004223515570629388, -2.5212364562321454e-05, -7.548856956418604e-05, -0.00012209561828058213, 0.0005337229231372476, -0.0010270001366734505, 0.0015284894034266472, -2.1462910808622837e-05, -0.00033083505695685744, 0.000313909025862813, -6.65142506477423e-05, 0.00028570910217240453, 8.490524692206236e-07, 0.00045800316729582846, 5.6030345149338245e-05, -5.597221388597973e-05, 0.0003685194533318281, 0.00013598734221886843, -0.000490054429974407, 0.000546957366168499, 1.5221226931316778e-05, -1.3867355846741702e-05, -3.102153277723119e-05, -0.0012265800032764673, 0.0009453679667785764, 0.0001013148867059499, -0.00038069873698987067, 7.736975385341793e-05, 0.0007220603292807937, 6.44613173790276e-05, -0.00037730197072960436], [0.15057076513767242, 0.207594096660614, -0.08848567306995392, 0.09026618301868439, -0.010756882838904858, 0.02233048342168331, 0.10158821195363998, 0.014630596153438091, 0.0016461912309750915, 0.42624029517173767, 0.021135380491614342, 0.05346837267279625, 0.3495313823223114, 0.36421239376068115, 0.18345320224761963, -0.33891403675079346, 0.017365837469697, 0.02190738543868065, -0.2110828310251236, 0.24452649056911469, -0.020098986104130745, 0.004498322494328022, -0.5790645480155945, 0.04001017287373543, 0.10723945498466492, -0.025060949847102165, -0.27812179923057556, 0.18141798675060272, -0.29608815908432007, -0.007647073362022638, 0.00968092866241932, 0.023272350430488586, 0.24188044667243958, -0.3747604787349701, -0.45585522055625916, 0.3481103181838989, -0.023992499336600304, -0.07268298417329788, 0.10972742736339569, 0.3748666048049927], [0.012840581126511097, 0.04822908714413643, -0.2033209651708603, 0.10470102727413177, 0.05414735525846481, -0.005821798462420702, 0.0013492172583937645, 0.0006037727580405772, 0.0021889847703278065, 0.03785097971558571, -0.003072074381634593, 0.0205239187926054, -0.05607283487915993, 0.04602227732539177, 0.15119141340255737, -0.11937154829502106, -0.0024702204391360283, 0.006896137725561857, 0.03859134763479233, 0.015814198181033134, -0.025726862251758575, 0.023197203874588013, -0.03386181965470314, -0.02299479767680168, -0.06535742431879044, -0.029956920072436333, 0.05331547558307648, 0.1585092395544052, -0.1470305323600769, 0.001251585315912962, -0.0013614960480481386, -0.0035981861874461174, 0.13207297027111053, -0.10203108191490173, -0.042380258440971375, -0.028945352882146835, 0.029182273894548416, -0.12497810274362564, 0.10008049756288528, -0.07494473457336426], [-0.0003947240184061229, 0.19601058959960938, 0.1677909791469574, -0.04779030755162239, 0.11807191371917725, -0.010616560466587543, 0.1213650181889534, -0.00011582318984437734, 0.001170969451777637, -0.015606586821377277, -0.0045578754507005215, 0.20803582668304443, -0.011199375614523888, 0.022274253889918327, -0.04538643732666969, 0.08642762154340744, -0.003207618370652199, 0.15489555895328522, -0.15924622118473053, 0.1225169226527214, -0.3587523400783539, -0.028580501675605774, -0.03725169226527214, 0.009778092615306377, 0.11183711141347885, -0.03917131945490837, -0.0038649123162031174, -0.11566480994224548, 0.9191293120384216, 0.004043203312903643, -0.0038330883253365755, -0.0039084069430828094, -0.24082542955875397, 0.09907320141792297, 0.05292902886867523, 0.026263996958732605, -0.0736890435218811, 0.06835129857063293, 0.07348977029323578, 0.24183103442192078], [-0.017643336206674576, 0.09316692501306534, -0.32395586371421814, 0.027513332664966583, 0.051285844296216965, -0.009569075889885426, -0.08765029907226562, -0.00697511900216341, 0.0013226789887994528, 0.0677032321691513, -0.007160838693380356, 0.04438440874218941, -0.10027612745761871, 0.14544515311717987, 0.19965942203998566, -0.1858528107404709, -0.0051888637244701385, -0.01242908462882042, -0.048162538558244705, 0.04048730805516243, -0.003780999919399619, 0.11725255846977234, -0.061008650809526443, -0.03262140974402428, -0.07328452169895172, 0.02872493304312229, 0.07607436180114746, 0.1514912098646164, -0.10114743560552597, 0.0008504847646690905, -0.0017386572435498238, -0.007532111369073391, 0.17603018879890442, -0.14264042675495148, -0.1236782819032669, -0.05682912468910217, 0.037560440599918365, -0.2123943716287613, 0.058803487569093704, -0.18448466062545776], [0.015890495851635933, 0.06658463180065155, -0.10667211562395096, -0.011136678047478199, -0.08111151307821274, 0.0021891153883188963, 0.06325843930244446, -0.0010231932392343879, 0.0004239512491039932, 0.032904792577028275, -0.0009248176356777549, -0.02805367112159729, -0.01055528037250042, 0.0775894895195961, 0.07095126807689667, -0.06866438686847687, -0.0003579846816137433, 0.025714008137583733, -0.09332049638032913, 0.026365017518401146, -0.01625918038189411, -0.009034272283315659, -0.07295510172843933, -0.008460070006549358, -0.02146163396537304, -0.008868240751326084, -0.04284580051898956, 0.057104676961898804, -0.014229092746973038, 9.442103328183293e-05, 7.11215689079836e-05, -0.000661378086078912, 0.07575283199548721, -0.0645916685461998, -0.07035067677497864, 0.0004319771542213857, -0.007727134972810745, -0.06908624619245529, 0.011683561839163303, -0.018637211993336678], [-0.04246203228831291, 0.05541609227657318, -0.12285138666629791, -0.012710447423160076, 0.011480479501187801, -0.00298709562048316, -0.03820253163576126, -0.002323062624782324, -0.0002465415745973587, 0.03453521430492401, -0.0031308159232139587, -0.012964271008968353, 0.0030596123542636633, 0.13818396627902985, 0.055904190987348557, -0.09309248626232147, -0.0022439470048993826, -0.005265799351036549, -0.020431242883205414, 0.06213114410638809, 0.026751665398478508, 0.010291351936757565, -0.016042066738009453, -0.009538182988762856, 0.010216367430984974, 0.00813265796750784, -0.00020104968280065805, 0.03963867947459221, -0.020079586654901505, 0.0007029833504930139, -0.0010605253046378493, -0.003467516042292118, 0.06913076341152191, -0.024437768384814262, -0.10268192738294601, -0.017094464972615242, -0.014442317187786102, -0.08066941797733307, 0.06174484267830849, -0.07535239309072495], [0.0027085214387625456, -0.004158164840191603, -0.009801355190575123, -0.010338086634874344, -0.004740196280181408, 0.0008011614554561675, -0.00488671101629734, -0.000311645504552871, 0.0006953221163712442, -0.004429047927260399, -0.00013549976574722677, 0.003228850895538926, -0.010373075492680073, 0.005274495575577021, 0.0073067983612418175, -0.0020864747930318117, 0.00014230504166334867, -0.0003430363140068948, 0.0013807406648993492, -0.009951958432793617, 0.005676580592989922, 0.005947696045041084, 0.002667747437953949, 0.0020550384651869535, 0.00514774676412344, 0.007261880207806826, 0.00862099975347519, -0.0051370179280638695, 0.002418096410110593, -0.00027265131939202547, 0.00032973900670185685, 2.0148194380453788e-05, 0.006616879720240831, -0.0012204869417473674, 0.0002187391510233283, -0.0011406551348045468, 0.0009461658773943782, -0.003287743544206023, -0.003211414208635688, -0.0063928174786269665], [0.034203048795461655, -0.2630672752857208, 0.5480105876922607, 0.192445307970047, -0.005560640711337328, -0.033330682665109634, 0.10544560849666595, 0.009127316996455193, -0.00415492057800293, 0.012079965323209763, -0.006721915677189827, 0.17215244472026825, 0.1520960032939911, 0.054976288229227066, -0.07157596200704575, 0.4409366548061371, -0.007416467182338238, 0.19930744171142578, 0.17223085463047028, -0.054218508303165436, -0.13746310770511627, -0.032592400908470154, 0.20742063224315643, -0.011034604161977768, -0.007481827400624752, -0.10358713567256927, -0.1624581217765808, -0.23080198466777802, 0.13583867251873016, 0.005534871947020292, -0.004847406875342131, -0.00981618370860815, 0.12038755416870117, 0.03417450189590454, -0.08357717841863632, 0.044637665152549744, -0.02002641372382641, -0.00339383352547884, -0.11302313953638077, -0.01868768222630024], [-0.05171167850494385, -0.17855873703956604, 0.1719425916671753, -0.13586868345737457, -0.06005331501364708, 0.003244807245209813, -0.13131627440452576, -0.0050027454271912575, -0.0005471956101246178, -0.11157263070344925, -0.002692299662157893, -0.020185906440019608, 0.003518593031913042, -0.09453022480010986, -0.1196218952536583, 0.08630705624818802, -0.0005809501744806767, -0.005035693757236004, -0.19938120245933533, -0.26411744952201843, 0.19419676065444946, -0.054308850318193436, 0.1654416173696518, -0.0026573222130537033, 0.07986776530742645, -0.03825351223349571, 0.009480442851781845, -0.12042354047298431, 0.4133640229701996, -0.0024932119995355606, 0.0015405076555907726, -0.0025234881322830915, 0.008588426746428013, 0.08985000848770142, 0.05946000665426254, -0.06206100061535835, 0.05597536265850067, 0.040533699095249176, 0.027450500056147575, -0.08312922716140747], [-0.021313799545168877, -0.005299554672092199, -0.08820602297782898, 0.0071026477962732315, -0.12026456743478775, -0.0004178730014245957, 0.00930669717490673, -6.554299034178257e-05, 0.0012842898722738028, -0.022642748430371284, -0.0021848378237336874, 0.040010228753089905, -0.15214656293392181, -0.011485772207379341, 0.06558318436145782, -0.026212511584162712, -0.002153078094124794, 0.0238509364426136, -0.14572171866893768, 0.004028636496514082, 0.017771407961845398, 0.08862023055553436, 0.07601097226142883, -0.01968207024037838, -0.0024268419947475195, 0.07439765334129333, 0.023670371621847153, 0.019463134929537773, 0.012556076981127262, 0.001564898295328021, -0.0014371772995218635, -0.002716310787945986, 0.08121490478515625, -0.020270628854632378, 0.004410159774124622, -0.021060561761260033, -0.021161094307899475, -0.05488572269678116, -0.023586135357618332, -0.05775735527276993], [0.02235126495361328, 0.0070276157930493355, -0.1257326900959015, -0.03542419895529747, 0.012703721411526203, 0.004941155202686787, -0.06559213250875473, -0.0024971580132842064, 0.0006681002560071647, 0.001284465892240405, -0.001167789101600647, 0.05863770470023155, -0.013186494819819927, 0.023985320702195168, 0.090369813144207, -0.07935945689678192, -7.909448322607204e-05, 0.018281888216733932, 0.05663302168250084, -0.005160577595233917, -0.028631944209337234, 0.04230332002043724, 0.03731401637196541, -0.020310986787080765, -0.014862796291708946, 0.010716710239648819, -0.019400926306843758, 0.010259322822093964, -0.09137212485074997, -0.001040743081830442, 0.0005830239970237017, -0.000396965624531731, 0.0593382902443409, -0.06629742681980133, -0.0017694287234917283, 0.02124464511871338, 0.010853159241378307, -0.08372902870178223, -0.05327185243368149, -0.09741077572107315], [-0.0032175108790397644, 0.06557850539684296, -0.2985965311527252, -0.013170777820050716, 0.0014108020113781095, -0.000995452399365604, -0.016034385189414024, -0.0023979400284588337, -0.0004972338792867959, 0.03750406950712204, -0.004826807416975498, -0.02361052669584751, -0.06397094577550888, 0.09857171773910522, 0.20182450115680695, -0.17929942905902863, -0.004014440346509218, -0.028205811977386475, -0.05692810192704201, 0.0545416884124279, 0.004454065579921007, 0.039911720901727676, -0.044242653995752335, -0.031951189041137695, -0.04332585632801056, -0.01758558675646782, 0.08425381034612656, 0.12992598116397858, -0.10918693989515305, 0.0016450268449261785, -0.002621038816869259, -0.0049947709776461124, 0.1529640257358551, -0.11452148854732513, -0.0686769038438797, -0.05887759476900101, 0.015307378955185413, -0.15660132467746735, 0.05776653438806534, -0.11911281943321228], [-0.000176770452526398, -0.00019051515846513212, 0.0004984022816643119, -0.0002412681351415813, -0.0002485939476173371, -6.365755689330399e-05, -0.00012320387759245932, -7.411478145513684e-05, 1.0615700375637971e-05, -0.00030969505314715207, -2.2288284526439384e-05, -7.548245048383251e-05, -0.00010328954522265121, -6.88948348397389e-05, -0.0002207007200922817, 0.00040507176890969276, -1.980179877136834e-05, -0.00035031564766541123, 0.0002346412802580744, -0.0002432526380289346, 9.324655547970906e-05, 3.5390894481679425e-05, 0.0002687165979295969, -2.022041371674277e-05, -0.00016105938993860036, 0.0001517821365268901, 0.0002709625114221126, -0.00012631611025426537, 0.00030876099481247365, 1.3287532965478022e-05, -1.1122035175503697e-05, -2.900421532103792e-05, -0.0003613810404203832, 0.00042393759940750897, 0.0002350691065657884, -0.00031882888288237154, 8.647603681311011e-05, 0.0002469027240294963, 7.778324652463198e-05, -0.0002060438273474574], [-0.00013733483501709998, -0.0001087900745915249, 0.0008052203920669854, -0.000158057693624869, -0.0001237633405253291, 5.277277978166239e-06, -0.00018607401580084115, -1.415497263224097e-05, 2.0342338302725693e-06, -0.00012199820776004344, 2.4071700863714796e-06, 4.7464989620493725e-05, 0.00012119316670577973, 0.0002844990522135049, -0.0004322824242990464, 0.0005620373412966728, 4.8163610699702986e-06, -0.00013181724352762103, 0.00016480273916386068, -0.0002581726585049182, 0.00012321825488470495, 8.18479384179227e-05, 7.97052271082066e-05, 3.2556028600083664e-05, -3.715953789651394e-05, 0.00014857824135106057, 1.5503550457651727e-05, -0.0001681939174886793, 0.00025066849775612354, -6.23424602963496e-06, 6.301503617578419e-06, 1.7899092199513689e-06, -0.0004509355640038848, 0.00035596094676293433, -9.799173130886629e-05, -0.00010352209937991574, -8.858958608470857e-06, 0.0003941442118957639, 4.62242060166318e-05, 2.4885698621801566e-06], [-0.0007577957585453987, -0.0003503398038446903, 0.0004898051847703755, -0.0007540166843682528, -8.343171793967485e-05, -4.412298949318938e-05, -0.00014611819642595947, -1.3571588169725146e-05, 1.7925489373737946e-05, -0.0009321177494712174, -6.13575175520964e-05, -0.00013104423123877496, -0.0008314371225424111, 0.0007883321959525347, -0.0013595061609521508, 0.0024762663524597883, -5.041137774242088e-05, -0.00043123826617375016, 0.0009662313968874514, -0.00017332647985313088, 0.0004978381912223995, 1.579161107656546e-05, 0.0012290696613490582, 3.871549415634945e-05, -0.00022172935132402927, 0.0005543404840864241, 0.0006044878391548991, -0.0006982662016525865, 0.0009217983460985124, 3.3797245123423636e-05, -3.164945519529283e-05, -7.337650458794087e-05, -0.0020984821021556854, 0.0018742755055427551, 0.00036917830584570765, -0.0012272897874936461, 0.00023372931173071265, 0.000626313965767622, 0.00015945153427310288, -0.0015075798146426678], [-0.014148239977657795, 0.019217640161514282, -0.11748594790697098, -0.01574143022298813, -0.06458975374698639, -0.001150639494881034, -0.006651751231402159, -0.000593602831941098, 0.00048232069821096957, -0.021037284284830093, -0.002615500707179308, -0.016380231827497482, -0.06430221349000931, 0.04054645448923111, 0.05233342945575714, -0.05046221613883972, -0.0019976054318249226, 0.025338714942336082, -0.07208331674337387, -0.016368117183446884, 0.01882050186395645, 0.037256691604852676, -0.002128171967342496, -0.013239449821412563, -0.025814753025770187, 0.019289230927824974, 0.009432916529476643, 0.01860756054520607, 0.03756176680326462, 0.0017043898114934564, -0.0016063492512330413, -0.002733055269345641, 0.04818017780780792, -0.01848059520125389, -0.04102868586778641, -0.06610092520713806, 0.012900464236736298, -0.06605410575866699, -0.03171731159090996, -0.07224571704864502], [-0.004132272209972143, 0.03261318802833557, -0.08728672564029694, 0.02248561382293701, -0.004075058735907078, 0.00097600684966892, -0.008187919855117798, 0.0005969266057945788, 0.0006127194501459599, 0.011510118842124939, -0.002050437033176422, 0.028206005692481995, -0.022870061919093132, 0.05818502977490425, 0.05606979876756668, -0.040227945894002914, -0.0017727508675307035, 0.016301754862070084, -0.037474777549505234, 0.02275066077709198, -0.012581591494381428, 0.04110409691929817, -0.020409677177667618, -0.008822302334010601, -0.017880816012620926, -0.0071108052507042885, -0.014286463148891926, 0.03041033446788788, -0.04836374148726463, 0.001427522860467434, -0.0015411284985020757, -0.002237210050225258, 0.05344773828983307, -0.058295074850320816, -0.05326671153306961, -0.009253486059606075, 0.021670637652277946, -0.057561248540878296, -0.0033246707171201706, -0.01892653852701187], [-0.005121741443872452, 0.034046418964862823, -0.09568450599908829, -0.017756862565875053, 0.003777822246775031, 0.0065433247946202755, -0.026988932862877846, 0.002143644727766514, 0.0012361318804323673, 0.013783556409180164, -0.00015735879424028099, 0.028131214901804924, -0.03472430631518364, 0.044835224747657776, 0.07214921712875366, -0.0864621251821518, 0.0005460437969304621, -0.0011444420088082552, 0.009509343653917313, -0.0009942067554220557, 0.01261922623962164, 0.035043731331825256, 0.004016821272671223, -0.008939269930124283, 0.012896142899990082, 0.015496519394218922, 0.014342647977173328, 0.03254033252596855, -0.01827993243932724, -0.0002355079777771607, 0.0003609484701883048, 0.00042322950321249664, 0.0642712339758873, -0.05030575767159462, -0.028252581134438515, -0.012032601051032543, -0.0034701265394687653, -0.05688520893454552, 0.007978863082826138, -0.03756459802389145], [-0.005364530719816685, 0.021627986803650856, -0.12799660861492157, 0.020421966910362244, -0.05033154785633087, -0.0007934046443551779, 0.0003895879490301013, -0.002476860536262393, 0.0008560944115743041, 0.0023657605051994324, -0.0038694206159561872, 0.01542530208826065, -0.0407511331140995, 0.06887239217758179, 0.06720533221960068, -0.02329709753394127, -0.0024186591617763042, 0.011568168178200722, -0.06166045740246773, -0.006426357664167881, 0.010335423052310944, 0.05832788348197937, -0.02193232998251915, -0.00939373392611742, -0.06513669341802597, 0.07576680183410645, -0.03147289156913757, 0.04789683222770691, -0.03797532245516777, 0.001157545018941164, -0.0013367969077080488, -0.003962450660765171, 0.0663035586476326, -0.03589937463402748, -0.05969108268618584, -0.03377765044569969, 0.05070805549621582, -0.07910992205142975, -0.009116550907492638, -0.017422309145331383], [0.005272884387522936, 0.04676971584558487, -0.07013311237096786, 0.05512867867946625, 0.009611833840608597, 0.0010328218340873718, 0.0423443429172039, -1.1727438504749443e-05, 0.0007745151524432003, 0.008811770007014275, -0.0019888102542608976, 0.0028653659392148256, -0.006511420011520386, 0.030255436897277832, 0.05943802371621132, -0.01167925912886858, -0.0016196885844692588, 0.014233801513910294, -0.035584669560194016, 0.014246906153857708, -0.02926008403301239, 0.00820891372859478, -0.057162318378686905, -0.00785841979086399, -0.0680091604590416, 0.017922136932611465, -0.02460993267595768, 0.0697709321975708, -0.055730756372213364, 0.0009643879602663219, -0.0009857023833319545, -0.0022669935133308172, 0.019562069326639175, -0.03850992023944855, -0.03213048726320267, -0.008497329428792, 0.02302231825888157, -0.04503162205219269, 0.03681816905736923, 0.036893103271722794], [-0.013196478597819805, 0.04253941774368286, -0.1037517860531807, 0.0007532124291174114, 6.367298192344606e-05, -0.0012173601426184177, -0.0037390340585261583, -0.0014755040174350142, 5.945915836491622e-05, 0.010533152148127556, -0.0021585605572909117, -0.0025203421246260405, -0.036856092512607574, 0.04449555277824402, 0.0638781487941742, -0.054471857845783234, -0.001596940215677023, -0.0014550028136000037, -0.025326134636998177, 0.029388058930635452, -2.2834010451333597e-06, 0.022136228159070015, -0.015600889921188354, -0.009983399882912636, -0.027074024081230164, 0.00300866411998868, 0.011361540295183659, 0.04251144081354141, -0.02227827161550522, 0.0008882026304490864, -0.0010094963945448399, -0.002241100650280714, 0.05146980658173561, -0.03938911482691765, -0.02977883443236351, -0.017817161977291107, 0.012696214951574802, -0.06893109530210495, 0.018575740978121758, -0.032779160887002945], [-0.00198733969591558, 0.0611959844827652, -0.0840630903840065, 0.053944773972034454, -0.008900557644665241, 0.0006282805115915835, 0.009361126460134983, 0.0005408637807704508, 0.0004326173511799425, 0.04476090520620346, 0.0004238259862177074, 0.01600819081068039, 0.017170239239931107, 0.06553245335817337, 0.06428885459899902, -0.06312843412160873, 0.0004688126209657639, 0.0005793044692836702, -0.0021037692204117775, 0.0008250515093095601, 0.0023727151565253735, 0.013517962768673897, -0.054521478712558746, -0.00044228133629076183, -0.04338059574365616, 0.027693068608641624, 0.015310031361877918, 0.08023300021886826, -0.09680363535881042, -0.0005840791272930801, 0.0007357745780609548, 0.0004460424243006855, 0.04765819385647774, -0.032890111207962036, -0.06320885568857193, -0.0019278314430266619, 0.032860249280929565, -0.05518020689487457, 0.06020066887140274, 0.014856134541332722], [-0.009806170128285885, 0.044133126735687256, -0.1408122330904007, -0.007720931898802519, 0.039763253182172775, -0.00221564550884068, -0.0364324189722538, 0.0012292490573599935, 0.0022340738214552402, 0.013126226142048836, -0.0024147711228579283, -0.04619956389069557, -0.010936900041997433, 0.082560233771801, 0.08364368975162506, -0.08509399741888046, -0.0017365546664223075, -0.024039732292294502, -0.018076572567224503, 0.02506197802722454, 0.010473872534930706, 0.03065279871225357, -0.03984004259109497, -0.013125216588377953, -0.07206779718399048, -0.037887830287218094, 0.008498266339302063, 0.05817558988928795, -0.025030970573425293, 0.0013811810640618205, -0.0012213799636811018, -0.0024622182827442884, 0.06183171644806862, -0.044750530272722244, -0.06356930732727051, -0.022204015403985977, 0.030300183221697807, -0.09219932556152344, 0.07044383883476257, -0.04890004172921181], [0.13943153619766235, 0.275544673204422, -0.8424076437950134, 0.005544591695070267, 0.019834334030747414, 0.00811624713242054, 0.02439028210937977, -0.011272375471889973, -0.003193460637703538, 0.03622904419898987, -0.016504690051078796, -0.03886270895600319, -0.14941149950027466, 0.13352413475513458, 0.38220012187957764, -0.3030179440975189, -0.010839750058948994, -0.017595281824469566, -0.025526084005832672, 0.24365432560443878, -0.014120549894869328, 0.03944256156682968, -0.023978613317012787, -0.06341243535280228, -0.13517864048480988, -0.06353478878736496, 0.08940920233726501, 0.16266372799873352, -0.25698500871658325, 0.0028825446497648954, -0.005684488918632269, -0.015084469690918922, 0.24884942173957825, -0.2155763804912567, -0.06509842723608017, -0.07925576716661453, 0.11760637164115906, -0.28389954566955566, 0.0678693875670433, -0.1085013896226883], [-0.002201818861067295, 0.15890805423259735, -0.12231110781431198, 0.15616652369499207, 0.010189595632255077, 0.007411660626530647, 0.07777436822652817, 0.0012178095057606697, -0.0013771535595878959, 0.039239492267370224, -0.0006325242575258017, -0.06916427612304688, -0.00266198324970901, 0.03531093895435333, 0.10246233642101288, -0.0749005377292633, -0.00010455505253048614, 0.008217326365411282, -0.12805724143981934, 0.11023266613483429, -0.056760601699352264, -0.1196758970618248, -0.08642410486936569, -0.013838042505085468, -0.015413681976497173, -0.008518697693943977, -0.11814819276332855, 0.08867482841014862, -0.17492815852165222, 0.0002945718006230891, -0.00035560427932068706, 0.000504853087477386, 0.10668572038412094, -0.1002766340970993, -0.015121713280677795, 0.1115819662809372, -0.020682785660028458, -0.06952572613954544, 0.047247473150491714, 0.22031594812870026], [-0.02316134050488472, 0.07443685084581375, -0.23510520160198212, -0.011595933698117733, -0.002727148588746786, -0.0010292051592841744, -0.006227412726730108, -0.0034133761655539274, 0.0007060669013299048, 0.007317148149013519, -0.005307076498866081, -0.007865549996495247, -0.08512590080499649, 0.06992535293102264, 0.14632710814476013, -0.12570659816265106, -0.003700911533087492, -0.002716874936595559, -0.01956958696246147, 0.033274050801992416, 0.0008430176530964673, 0.050141431391239166, -0.0033068768680095673, -0.02322201244533062, -0.05508701503276825, 0.0008093569194898009, 0.03219246119260788, 0.09733672440052032, -0.05139429122209549, 0.0012997412122786045, -0.0017866132548078895, -0.0052367146126925945, 0.11186658591032028, -0.07918955385684967, -0.03799574822187424, -0.046211887151002884, 0.02709135226905346, -0.1466696560382843, 0.04225381463766098, -0.09373641014099121], [0.020481716841459274, 0.2542915642261505, 0.05844922736287117, 0.014369054697453976, -0.23748575150966644, -2.408191721769981e-05, 0.21453474462032318, 0.006247204728424549, -0.0018773915944620967, 0.010565162636339664, 0.007832467555999756, -0.16143852472305298, 0.13959084451198578, -0.04062183201313019, -0.06615989655256271, 0.016338622197508812, 0.0065857358276844025, 0.09984850883483887, -0.31878331303596497, 0.15649494528770447, -0.11393283307552338, -0.1528254747390747, -0.012904925271868706, 0.0071633560582995415, 0.13725188374519348, 0.06245001032948494, -0.11492597311735153, -0.1485731452703476, -0.049467783421278, -0.0010877493768930435, 0.0024251933209598064, 0.008750668726861477, -0.029764091596007347, -0.017193689942359924, 0.06201054900884628, 0.046194177120923996, -0.14418981969356537, 0.0013368278741836548, -0.024430014193058014, 0.12063196301460266], [0.07325685769319534, 0.07959553599357605, 0.17362578213214874, 0.32551491260528564, -0.25712811946868896, -0.01588938944041729, 0.13480344414710999, -0.003005587263032794, -0.004790149629116058, -0.050645045936107635, -0.006852923426777124, -0.3663417100906372, -0.05520378798246384, -0.16340944170951843, 0.002406239975243807, 0.05044114962220192, -0.005993076134473085, 0.1386020928621292, -0.48036643862724304, -0.20119337737560272, -0.14566799998283386, -0.426521897315979, 0.0029203384183347225, -0.04968535155057907, -0.009229954332113266, -0.13222305476665497, -0.07452221214771271, -0.018077587708830833, 0.10460742563009262, 0.005881902761757374, -0.005508244503289461, -0.007744878064841032, -0.051593683660030365, -0.011540650390088558, 0.1025703102350235, 0.07723329216241837, -0.09529609233140945, 0.020623190328478813, 0.14351804554462433, 0.07976420968770981], [0.0003910222731065005, 0.02048792690038681, -0.02086714096367359, 0.009358244016766548, 0.0030166232027113438, 0.00044053851161152124, 0.007463498972356319, 3.044811455765739e-05, 3.0280358259915374e-05, 0.011640223674476147, -0.0003577863099053502, -0.0016480585327371955, 0.0025389762595295906, 0.014870681799948215, 0.016959045082330704, -0.018735576421022415, -0.00039239393663592637, 0.0010622148402035236, -0.009577423334121704, 0.017379041761159897, -0.002904028631746769, -0.00806229468435049, -0.009797434322535992, -0.0009597614407539368, 0.00840832106769085, -0.006172310560941696, -0.009731799364089966, 0.011837825179100037, -0.015981469303369522, 0.00031535574817098677, -0.0003042214666493237, -0.0003396598913241178, 0.016319092363119125, -0.015082765370607376, -0.011626503430306911, 0.007380303926765919, -0.005497743375599384, -0.015320244245231152, 0.006376646459102631, 0.012395031750202179], [-0.14168785512447357, 0.08011569827795029, -0.12096654623746872, 0.01936502940952778, -0.032939597964286804, -0.003313519060611725, 0.034006617963314056, 0.0010864312062039971, -0.0006904769688844681, 0.009577998891472816, -0.003674144623801112, -0.03440244123339653, -0.047205112874507904, 0.06295034289360046, 0.06357581168413162, -0.030833907425403595, -0.00348726031370461, -0.020843174308538437, -0.02966962568461895, 0.11890687793493271, -0.014508229680359364, 0.04555415362119675, -0.0777878537774086, -0.0035557884257286787, -0.0683489590883255, 0.10973849147558212, -0.12218058109283447, 0.041725028306245804, -0.09396113455295563, 0.002052074298262596, -0.0024999522138386965, -0.004185722209513187, 0.055480293929576874, -0.06079338490962982, -0.04968803748488426, 0.048295699059963226, -0.02222771942615509, -0.06733947992324829, -0.09082941710948944, 0.05896800756454468], [-0.0007817165460437536, -0.00030576164135709405, 0.0012994264252483845, 9.784445137483999e-05, -0.0003235998738091439, 3.810612906818278e-05, 0.00037077118759043515, -0.00010504416422918439, -3.087511140620336e-05, -0.0007470385171473026, -2.1984985778544797e-06, 0.0004480515490286052, -0.00045172139653004706, -0.0007074155146256089, -0.0014077293453738093, 0.0011360812932252884, 2.4075467081274837e-05, 0.0003564947401173413, 1.2715862794721033e-05, 0.0007912390865385532, -0.0001866148813860491, -0.0004612548800650984, 0.0017223526956513524, 7.775260019116104e-05, 0.0009491396485827863, -0.00012165216321591288, -5.577099000220187e-05, -0.0013173671904951334, 0.0008546494645997882, -0.0001302844611927867, 8.131962385959923e-05, 1.2925184819323476e-05, -0.001124515780247748, 0.0014224235201254487, 0.002153553767129779, 9.570658585289493e-05, -0.0004969266010448337, 0.0011483231792226434, -0.0008847963763400912, 0.0009110450046136975], [-0.00019213037739973515, -0.00023446699196938425, 0.0003422002191655338, 0.00019427473307587206, 0.00022048452228773385, 8.886921023076866e-06, -9.853891242528334e-05, -3.1672957447881345e-06, -3.693334065246745e-06, -0.00024399763788096607, 2.6130392143386416e-06, 0.000128660598420538, -0.00023335569130722433, -0.00043550366535782814, -0.0002104037266690284, 0.00021353211195673794, 2.7335934191796696e-06, 8.496151713188738e-05, 0.00020305915677454323, -0.0001354658743366599, -0.0001055959437508136, -0.00018361752154305577, 0.0003923029871657491, -4.9774102080846205e-05, 0.00021514500258490443, 2.593455428723246e-05, 0.0002313671138836071, -0.00017132455832324922, 1.5179020920186304e-05, -6.865561772428919e-06, 4.0931849980552215e-06, 6.852039405202959e-06, -0.00019139439973514527, 0.00019987452833447605, 0.0004309838404878974, 4.152211840846576e-05, -0.00023907773720566183, 0.00021202336938586086, -0.00030839198734611273, -3.9298771298490465e-05], [0.0034994473680853844, 0.11293216049671173, -0.127290740609169, -0.01671612076461315, 0.038493335247039795, -3.2777712476672605e-05, -0.020433787256479263, -0.001287140417844057, 0.0025308297481387854, 0.09091777354478836, -0.0027331048622727394, 0.019431153312325478, -0.009763015434145927, 0.1279287487268448, 0.10710342228412628, -0.10752944648265839, -0.001694020815193653, -0.03480276092886925, 0.019446691498160362, 0.04704815521836281, 0.013846226967871189, 0.05835135653614998, -0.07869880646467209, -0.006884584669023752, -0.017577946186065674, 0.037965696305036545, -0.026111619547009468, 0.08864682912826538, -0.06760665029287338, 0.0008983166189864278, -0.0005303416401147842, -0.0027569513767957687, 0.09181810170412064, -0.08927161991596222, -0.12952785193920135, 0.01957954280078411, 0.025748340412974358, -0.09856816381216049, 0.04115830361843109, -0.026715770363807678], [-0.0004637330712284893, 4.28784333053045e-05, 0.0009198529296554625, -0.000426703249104321, -0.00027596784639172256, 8.814265129331034e-06, -0.0002512711798772216, -1.3283905900607351e-05, -7.474011454178253e-07, -0.0004125367267988622, -2.5382971216458827e-05, 3.209880378562957e-05, -0.0003786966553889215, 0.0008348124683834612, -0.0012951456010341644, 0.0020907814614474773, -1.4709292372572236e-05, -0.0001894343877211213, 0.00010478167678229511, 5.292008791002445e-05, 0.0003038189315702766, 9.996283915825188e-05, 0.0005963161820545793, 4.860231638303958e-05, 6.4929554355330765e-06, 0.0005660697352141142, 2.7601303372648545e-05, -0.0005208152579143643, 0.000635232892818749, 4.34957655670587e-06, -6.332885277515743e-06, -2.579727879492566e-05, -0.0016272852662950754, 0.001108840573579073, 3.7230405723676085e-05, -0.0004374438140075654, 4.597368024406023e-05, 0.0006971085094846785, 7.527669822593452e-06, -0.0004919665516354144], [-0.052731726318597794, 0.13961361348628998, 0.05687578767538071, -0.08815260976552963, -0.1621307134628296, 0.009575944393873215, 0.08680522441864014, 0.014601984061300755, 0.0022760415449738503, 0.08027990162372589, 0.002857710001990199, -0.2876496911048889, 0.05736449733376503, 0.18299494683742523, -0.0918349176645279, 0.08934290707111359, 0.0007933942833915353, -0.020866835489869118, -0.22693568468093872, 0.27947476506233215, -0.025758758187294006, -0.14486464858055115, 0.05688747391104698, 0.036624036729335785, -0.09581738710403442, -0.04956068471074104, -0.3106391727924347, -0.050160713493824005, -0.03580201789736748, 0.0033184417989104986, -0.0022257366217672825, 0.0027413582429289818, -0.019990932196378708, 0.04500598832964897, -0.14954155683517456, 0.25829699635505676, 0.017346439883112907, 0.013339131139218807, 0.09215856343507767, 0.21408668160438538], [-0.10344941169023514, 0.2142661064863205, -0.6535290479660034, 0.3272371292114258, -0.08213229477405548, -0.003114494029432535, -0.10060308873653412, 0.006076076067984104, 0.005050706211477518, 0.033491216599941254, 0.007789852563291788, 0.00044463801896199584, -0.0003618172777350992, 0.15169395506381989, 0.27401652932167053, -0.20065270364284515, 0.0065666427835822105, 0.08864990621805191, -0.2236076444387436, 0.1913105994462967, -0.03491063416004181, -0.014672307297587395, -0.07474315911531448, -0.02383706159889698, 0.0725381076335907, -0.043624941259622574, 0.06522762775421143, 0.12248314917087555, -0.4359564185142517, 0.0006003755843266845, 0.005203817039728165, 0.007711865473538637, 0.12157835811376572, -0.05965880677103996, -0.11727045476436615, -0.02683906815946102, -0.04914358630776405, -0.14083804190158844, 0.17407289147377014, 0.02020738087594509], [-0.056236106902360916, 0.060400329530239105, -0.20858927071094513, -0.01510787196457386, -0.04034090414643288, -0.004410693887621164, -0.034635722637176514, -0.005199039820581675, -0.0009415822569280863, -0.009489241056144238, -0.010286758653819561, 0.029370542615652084, -0.06863882392644882, 0.07093040645122528, 0.1321851909160614, -0.1164497509598732, -0.007945537567138672, 0.006742337718605995, -0.015044747851788998, 0.04052146151661873, 0.009229057468473911, 0.07276428490877151, 0.012991654686629772, -0.02795039303600788, -0.06851210445165634, 0.08065741509199142, 0.02780073508620262, 0.10430580377578735, -0.01867152564227581, 0.0050459979102015495, -0.0056074257008731365, -0.010307343676686287, 0.09706844389438629, -0.05567704141139984, -0.030941041186451912, -0.0773882120847702, 0.023146508261561394, -0.11234813183546066, 0.029439907521009445, -0.0896957665681839], [0.10558953136205673, 0.09619750827550888, -0.20705698430538177, 0.022587714716792107, 0.09788946807384491, 0.007966511882841587, -0.021275866776704788, 0.001956736668944359, 0.0011206396156921983, 0.042253974825143814, 0.00960458628833294, -0.009478104300796986, -0.0651465579867363, -0.025584857910871506, 0.1802779585123062, -0.14117030799388885, 0.008903375826776028, -0.053415052592754364, -0.03730549290776253, -0.022102467715740204, -0.0013058851473033428, 0.03128150850534439, -0.03346437215805054, -0.031058652326464653, -0.04027891904115677, -0.03125540912151337, 0.03891104459762573, 0.08533135801553726, -0.1225976049900055, -0.005354447290301323, 0.006334871519356966, 0.012460101395845413, 0.1309683620929718, -0.13191638886928558, -0.018187565729022026, 0.009935873560607433, 0.04270574450492859, -0.1134134829044342, 0.025858823210000992, -0.04874212294816971], [-0.01844198629260063, 0.040207669138908386, -0.20897679030895233, -0.05247523635625839, 0.0654418021440506, 0.018943440169095993, 0.1170971468091011, -7.64548167353496e-05, 0.00040865782648324966, -0.004985287319868803, -0.003141937777400017, 0.09832105040550232, -0.03159182146191597, 0.012366093695163727, 0.08065862953662872, -0.11526535451412201, -0.0016398763982579112, 0.034102313220500946, 0.12848696112632751, -0.03325476869940758, 0.006338444072753191, 0.01796874590218067, -0.1263897567987442, -0.022440535947680473, 0.04125482589006424, 0.02787773683667183, 0.02490161918103695, 0.0006324509740807116, -0.08258456736803055, -0.0005347319529391825, -0.0006175052258186042, -0.0018991960678249598, 0.11635548621416092, -0.08212769776582718, 0.006258487701416016, -0.04742405563592911, 0.036759596318006516, -0.08617046475410461, 0.054150305688381195, 0.009827831760048866], [-0.0003155083686579019, -0.00013714711531065404, 0.0009491375531069934, -0.00043144996743649244, -0.00028762168949469924, -2.3448934371117502e-05, -0.0001828132662922144, -1.441630047338549e-05, 4.237609573465306e-06, -0.00035716083948500454, -2.6647336198948324e-05, -5.6388402299489826e-05, -0.00011750817793654278, 0.0005882680998183787, -0.0009614484733901918, 0.0014550273772329092, -2.2178270228323527e-05, -0.0004274018865544349, 0.00021694853785447776, -4.586279101204127e-05, 0.00028855647542513907, 3.2061521778814495e-05, 0.0003815229865722358, 5.0292263040319085e-05, -5.3663301514461637e-05, 0.00037047499790787697, 8.865236304700375e-05, -0.00045228374074213207, 0.0005517603131011128, 1.5710340449004434e-05, -1.4254260349844117e-05, -3.2130821637110785e-05, -0.0011530843330547214, 0.0008298243046738207, 3.002160883625038e-05, -0.0003250845184084028, 6.36493059573695e-05, 0.0006545394426211715, 6.543436757056043e-05, -0.0003904406330548227], [-0.03233284875750542, 0.12121467292308807, 0.16387628018856049, 0.2730204463005066, -0.07167088240385056, 0.017157327383756638, 0.38672909140586853, 0.006805729120969772, -0.005629463121294975, 0.034725066274404526, 0.0009341477416455746, -0.2250663787126541, 0.015774434432387352, -0.18520104885101318, -0.019030964002013206, 0.1135593056678772, -0.00039702895446680486, 0.07140273600816727, -0.25098249316215515, 0.2886812388896942, -0.1501653790473938, -0.3763269782066345, 0.035709355026483536, 0.006022366229444742, 0.012405329383909702, -0.025222502648830414, -0.22777998447418213, 0.009921456687152386, -0.1834111362695694, 0.0029900246299803257, -0.003302004188299179, 0.002334560500457883, -0.11411608010530472, 0.023841358721256256, 0.2113657146692276, 0.28864628076553345, -0.05246604233980179, 0.09332669526338577, -0.008851563557982445, 0.5832302570343018], [0.0804472267627716, 0.10308944433927536, -0.03173944354057312, 0.17321135103702545, 0.02283218689262867, 0.0059678805992007256, 0.03543030843138695, 0.005206658970564604, 0.0030089602805674076, 0.04652724787592888, 0.0021741045638918877, 0.035321541130542755, 0.041277553886175156, -0.0015251325676217675, 0.033384766429662704, -0.04334072023630142, 0.0016647017328068614, 0.022243186831474304, 0.0457838699221611, 0.033094920217990875, -0.039350736886262894, -0.07682358473539352, -0.06092805042862892, 0.002264768583700061, 0.010515580885112286, 0.08670317381620407, 0.006025358103215694, 0.06965845823287964, -0.19892047345638275, 0.0009247783455066383, -9.33935516513884e-05, 0.0022491782438009977, 0.04241660609841347, -0.06839049607515335, -0.02651580423116684, 0.04470563679933548, -0.006717436481267214, -0.012467077933251858, 0.03542736545205116, 0.023577874526381493], [0.021684670820832253, 0.1310986578464508, -0.6177608370780945, -0.029552046209573746, -0.09021987020969391, 0.008276388049125671, 0.06490853428840637, -0.0055032940581440926, -0.002106968779116869, 0.015387050807476044, -0.01177634671330452, -0.06192364543676376, -0.2699217200279236, -0.019094189628958702, 0.31344568729400635, -0.25885817408561707, -0.00834580697119236, -0.002989028347656131, -0.036458276212215424, 0.14446979761123657, -0.013448931276798248, 0.007608745712786913, -0.022056149318814278, -0.05895943194627762, -0.0404387004673481, -0.004815537948161364, 0.14961376786231995, 0.1383322924375534, -0.1978875994682312, 0.004489958751946688, -0.005938653834164143, -0.009635573253035545, 0.17649821937084198, -0.1905531883239746, 0.07180744409561157, -0.02146345190703869, -0.016591724008321762, -0.19743332266807556, 0.05423082038760185, -0.05143630504608154], [-0.04853053390979767, 0.04486518353223801, 0.08043594658374786, 0.16785670816898346, 0.17817345261573792, 0.004018579144030809, 0.01577824354171753, 0.006621164735406637, 0.0010582191171124578, -0.028576510027050972, 0.0011758164037019014, -0.011015296913683414, -0.002687759231775999, 0.006638657301664352, -0.13704392313957214, 0.12382422387599945, 0.0005968094919808209, -0.012460283935070038, 0.006767233833670616, 0.028513627126812935, 0.019067060202360153, -0.10038242489099503, 0.09284653514623642, 0.017078345641493797, -0.00817246362566948, 0.03289495408535004, -0.11431486159563065, -0.08679232001304626, -0.04503224045038223, 0.0011660908348858356, -0.00035610946360975504, 0.0010319307912141085, -0.12490858137607574, 0.09630011022090912, 0.007220296189188957, 0.053834132850170135, -0.01681777462363243, 0.04429890587925911, -0.023282557725906372, 0.11973414570093155], [0.01783374324440956, 0.10450054705142975, -0.07054576277732849, 0.025136291980743408, -0.06288135796785355, 0.005701752845197916, 0.13387998938560486, -0.0012071130331605673, 0.00042143804603256285, 0.004038117825984955, -0.0014383397065103054, -0.05567171424627304, -0.013970849104225636, 0.06441982090473175, 0.04393364489078522, -0.036818575114011765, -0.0006373653886839747, 0.055022504180669785, -0.08247067779302597, 0.015205970965325832, -0.03819335624575615, -0.08969563245773315, -0.052434343844652176, -0.013219553045928478, -0.015962909907102585, -0.07126842439174652, -0.07646828144788742, 0.0345815047621727, 0.008077467791736126, 0.0004145775455981493, 2.003311692533316e-06, -0.0010204954305663705, 0.04356861114501953, -0.035813264548778534, -0.04793454334139824, -0.01756100170314312, -0.044894080609083176, -0.04920310899615288, 0.007280825171619654, -0.02372957393527031], [-0.006518072448670864, 0.08696717768907547, -0.14153823256492615, -0.0016320758732035756, 0.01480542216449976, -0.006358599755913019, -0.004029144067317247, -0.0026221538428217173, -0.000679084740113467, 0.04160751774907112, -0.004267164506018162, -0.030294615775346756, 0.07431165128946304, 0.14164581894874573, 0.08383167535066605, -0.1502787172794342, -0.0034773594234138727, 0.01078235637396574, -0.01822950877249241, 0.08082101494073868, 0.02529401145875454, -0.036527492105960846, -0.030991269275546074, -0.011007709428668022, 0.08228766173124313, -0.08303326368331909, 0.011640003882348537, 0.032099418342113495, 0.014547481201589108, 0.0017113282810896635, -0.0021327813155949116, -0.004559760447591543, 0.10981772840023041, -0.044485658407211304, -0.10189058631658554, -0.028660116717219353, -0.056801773607730865, -0.0792444497346878, 0.18435107171535492, -0.10397530347108841], [0.002717485185712576, -0.004595453850924969, -0.011709729209542274, -0.01001151092350483, -0.0057775177992880344, 0.0008929435862228274, -0.004579814150929451, -0.0002600431034807116, 0.0007380250608548522, -0.0049632517620921135, -0.00012141484330641106, 0.0026736115105450153, -0.015343504957854748, 0.004745157901197672, 0.01055515930056572, -0.002556687220931053, 0.0001618526002857834, 0.0001831331173889339, -0.0005581878940574825, -0.010451664216816425, 0.005242223851382732, 0.0052309418097138405, 0.003122931346297264, 0.002352506387978792, 0.0063343653455376625, 0.007980373688042164, 0.014123990200459957, -0.0043081967160105705, 0.0017016074853017926, -0.0002973933005705476, 0.00035275096888653934, 3.773542994167656e-05, 0.009096474386751652, -0.00429307296872139, 0.0025535435415804386, -0.0005694805295206606, 0.0007320571457967162, -0.0045206062495708466, -0.003694056300446391, -0.00824566837400198], [-0.003854293841868639, 0.2496059685945511, -0.5865142941474915, -0.032957252115011215, -0.09036991000175476, 0.014011059887707233, 0.08747214823961258, 0.003946825861930847, 0.00262680696323514, -0.07273609191179276, -0.01565135456621647, -0.06550274044275284, -0.1551971584558487, 0.06448021531105042, 0.2466624528169632, -0.29449379444122314, -0.013161685317754745, -0.02078685536980629, -0.0334121435880661, 0.20295564830303192, -0.012344684451818466, 0.041891682893037796, -0.15988464653491974, -0.025328265503048897, -0.14152494072914124, 0.015014251694083214, 0.03750922530889511, -0.009213336743414402, -0.22800509631633759, 0.006567354779690504, -0.008015417493879795, -0.017614826560020447, 0.1083201915025711, -0.1841551959514618, -0.026057282462716103, -0.12813600897789001, 0.08832777291536331, -0.23826774954795837, 0.07213843613862991, -0.20684517920017242], [-0.10349141061306, 0.0769546777009964, -0.33494484424591064, 0.07886255532503128, 0.04863237962126732, 0.00697613600641489, 0.01686038076877594, -0.0038659460842609406, -0.0027988555375486612, -0.013199454173445702, -0.002841281471773982, 0.06179768219590187, 0.06466054916381836, -0.018103204667568207, 0.16692739725112915, -0.17045938968658447, -0.0009588422253727913, 0.04229056090116501, 0.06613091379404068, 0.07121273130178452, 0.0035309339873492718, -0.02211659960448742, 0.020554551854729652, -0.012583829462528229, 0.06759921461343765, 0.08527515828609467, 0.01612250506877899, 0.08009710907936096, -0.1824069768190384, -0.002013101940974593, -2.54960195888998e-06, -0.001323582837358117, 0.15182311832904816, -0.06190841645002365, 0.009498350322246552, -0.07646600157022476, 0.054548367857933044, -0.11820008605718613, 0.03217478096485138, 0.06800446659326553], [-0.01696215756237507, 0.024483773857355118, -0.08915010839700699, 0.12071315944194794, -0.14698228240013123, -0.0027541539166122675, -0.008969031274318695, 0.0032278771977871656, -0.0013832274125888944, -0.02434435486793518, 0.0005434718914330006, 0.020825479179620743, -0.20757625997066498, -0.08938401937484741, 0.12699498236179352, -0.03926418349146843, -7.210088369902223e-05, 0.05596645548939705, -0.1642320305109024, 0.025166751816868782, -0.027613546699285507, 0.04609566926956177, 0.05984663590788841, -0.036271367222070694, 0.017877964302897453, 0.10614730417728424, 0.03551885858178139, 0.02869158796966076, -0.07072937488555908, 0.002204097807407379, -0.000882792635820806, -0.0001005240628728643, 0.15683428943157196, -0.03509460762143135, 0.035273477435112, 0.02210652455687523, -0.045641228556632996, -0.05418643727898598, -0.03377910330891609, 0.009815530851483345], [0.028536077588796616, -0.010876626707613468, -0.1413104385137558, 0.08050638437271118, 0.16249118745326996, 0.010331781581044197, -0.06990878283977509, -0.0014331426937133074, -0.0007773052784614265, 0.025401894003152847, 0.0010917364852502942, 0.11746471375226974, 0.061140283942222595, 0.02916339784860611, 0.08954347670078278, -0.1132589653134346, 0.001626347890123725, 0.022536778822541237, 0.09247700124979019, 0.117534339427948, -0.07320872694253922, -0.06316442787647247, 0.04916401579976082, -0.025641705840826035, 0.06362172961235046, -0.059354428201913834, -0.1093062311410904, -0.10349791496992111, -0.1907193660736084, -0.0014361152425408363, 0.0008265548967756331, 0.002821998903527856, 0.08968526870012283, -0.08286881446838379, 0.00427250424399972, 0.1320371776819229, -0.05867740511894226, -0.08590449392795563, -0.04087729752063751, -0.09270160645246506], [0.024735504761338234, -0.01982240378856659, -0.008256267756223679, -0.034855276346206665, 0.13730475306510925, 0.011038921773433685, 0.14409245550632477, 0.004626451525837183, -0.003569834865629673, -0.02636486478149891, -0.004962364677339792, 0.023525962606072426, 0.07349920272827148, -0.008026422932744026, -0.03485938906669617, 0.0070551191456615925, -0.005149939563125372, -0.05526561290025711, -0.06729268282651901, 0.10248204320669174, -0.021602829918265343, -0.09247725456953049, 0.03333178907632828, 0.017787504941225052, 0.0592338964343071, -0.029018903151154518, -0.04340054839849472, -0.06008749082684517, 0.1830124706029892, 0.006199086084961891, -0.006607305258512497, -0.004879743326455355, -0.002575899241492152, -0.0053342306055128574, 0.05333191528916359, -0.01688247360289097, -0.06064463034272194, -0.02208745665848255, -0.04176272451877594, 0.02973354421555996], [-0.00017380040662828833, -0.000217216947930865, 0.00048553853412158787, -0.0002683029160834849, -0.00026819464983418584, -6.596541788894683e-05, -0.00012776663061231375, -7.593017653562129e-05, 9.877547199721448e-06, -0.00027133742696605623, -2.452084663673304e-05, -7.17158181942068e-05, -8.208081271732226e-05, -1.4819311218161602e-05, -0.00021830528567079455, 0.00038040222716517746, -2.1863730580662377e-05, -0.0003992186684627086, 0.0001681546273175627, -0.0002552384103182703, 0.00011629128130152822, 3.384649971849285e-05, 0.00024892218061722815, -2.035173929471057e-05, -0.00016528657579328865, 0.0001490080903749913, 0.00023912331380415708, -0.00012158494791947305, 0.00036063086008653045, 1.5669549611629918e-05, -1.304856050410308e-05, -3.154572914354503e-05, -0.00033554539550095797, 0.0003800599661190063, 0.00018553280096966773, -0.00029249757062643766, 6.778342503821477e-05, 0.00023459964722860605, 0.00010573529289104044, -0.0001955242914846167], [-0.00013428767852019519, -8.985873137135059e-05, 0.0007873001741245389, -0.0001299101859331131, -0.00014424948312807828, 6.011650839354843e-06, -0.0001803834456950426, -1.2281899216759484e-05, 1.3462340575642884e-06, -0.00010232436034129933, 2.391808720858535e-06, 4.974960756953806e-05, 0.00013624661369249225, 0.00029336631996557117, -0.000421833829022944, 0.0005442238179966807, 4.988650744053302e-06, -0.00016886729281395674, 0.00010272186773363501, -0.0002536638348829001, 0.000122483674203977, 7.369068771367893e-05, 6.003053567837924e-05, 2.980957469844725e-05, -3.8456200854852796e-05, 0.00012774684000760317, -5.628859526041197e-06, -0.0001606913865543902, 0.00023254274856299162, -6.185366146382876e-06, 6.398152891051723e-06, 2.023861952693551e-06, -0.00042950973147526383, 0.0003229434951208532, -0.00011284666106803343, -8.132150105666369e-05, -1.660249472479336e-05, 0.0003823362058028579, 6.945418135728687e-05, 1.3231015145720448e-06], [-0.0007476965547539294, -0.0003569144755601883, 0.000324299035128206, -0.0008404266554862261, -7.422434282489121e-05, -4.612416887539439e-05, -0.0001855181180872023, -1.90257778740488e-05, 1.9084016457782127e-05, -0.0008524477016180754, -6.44894244032912e-05, -0.00012223917292430997, -0.0008722103084437549, 0.0008483542478643358, -0.001282758777961135, 0.002416877308860421, -5.2379302360350266e-05, -0.0005722669302485883, 0.0008503149729222059, -0.000165438701515086, 0.000519880501087755, 5.2397404942894354e-05, 0.001184152322821319, 3.136891609756276e-05, -0.00021737666975241154, 0.0005506298621185124, 0.0005675348802469671, -0.0006759726093150675, 0.0009774841601029038, 3.521956386975944e-05, -3.2789881515782326e-05, -7.605157588841394e-05, -0.0020293090492486954, 0.0017360723577439785, 0.0002828397846315056, -0.001167325652204454, 0.00020235303964000195, 0.000522617541719228, 0.00015091423119883984, -0.0015964816557243466], [0.06015658751130104, 0.08407187461853027, -0.14971433579921722, -0.0054008387960493565, -0.10233880579471588, 0.0018652868457138538, 0.017169401049613953, -0.00017208282952196896, -0.0004246958123985678, 0.03801340237259865, -0.0018454096280038357, -0.05775822326540947, -0.014295772649347782, 0.06294230371713638, 0.10182848572731018, -0.15161754190921783, -0.0006810170598328114, 0.0488714799284935, -0.12726649641990662, 0.035464584827423096, 0.015146899968385696, 0.028390489518642426, -0.15453791618347168, -0.014162859879434109, -0.01956460066139698, 0.04307480901479721, -0.05628502368927002, 0.009136328473687172, -0.007574446499347687, 0.0016220923280343413, -0.001604342251084745, -0.0010395479621365666, 0.10901201516389847, -0.12358778715133667, -0.08595096319913864, 0.003919550683349371, 0.032721154391765594, -0.0846969410777092, -0.061374910175800323, -0.0017939540557563305], [0.021159527823328972, 0.08102262020111084, -0.15810705721378326, 0.009331592358648777, -0.03390192613005638, 0.001899143448099494, -0.019957667216658592, 0.00025618390645831823, 0.0008391892188228667, 0.06097716838121414, -0.0036445907317101955, 0.015929482877254486, -0.03680235520005226, 0.09979414194822311, 0.12223313003778458, -0.11166273802518845, -0.0031162286177277565, 0.019509058445692062, -0.10872594267129898, 0.03641071170568466, -0.003400404006242752, 0.07611964643001556, -0.0849924087524414, -0.016877712681889534, -0.016898885369300842, -0.005378000903874636, -0.022445691749453545, 0.0567236989736557, -0.07495396584272385, 0.002529883524402976, -0.0026766941882669926, -0.003960427828133106, 0.11425944417715073, -0.13175471127033234, -0.10480603575706482, 0.014608786441385746, 0.03700840473175049, -0.10807974636554718, 0.0043310075998306274, -0.014511862769722939], [-0.014014441519975662, 0.08002956211566925, -0.18560686707496643, -0.02889854833483696, 0.007525829132646322, 0.010180466808378696, -0.056275878101587296, 0.00314245093613863, 0.0015867623733356595, 0.0333455465734005, -0.0021480577997863293, 0.05893395468592644, -0.08446889370679855, 0.07312136888504028, 0.1485804170370102, -0.16453495621681213, -0.0009389905608259141, -0.0018517945427447557, 0.016533147543668747, 0.014858473092317581, 0.02364935539662838, 0.07218173891305923, 0.013041210360825062, -0.02443043701350689, 0.018254250288009644, 0.047261517494916916, 0.04317227005958557, 0.07130897045135498, -0.049919791519641876, 0.00042066071182489395, -0.000408132589654997, -0.0014571957290172577, 0.1232294887304306, -0.09539242088794708, -0.034569334238767624, -0.020077122375369072, -0.0035264045000076294, -0.10571189969778061, 0.020252272486686707, -0.0787428766489029], [-0.02451903186738491, 0.05861379951238632, -0.1319682002067566, 0.05879426747560501, -0.06347811222076416, 0.0007341474993154407, -0.017625393345952034, -0.0023240316659212112, 0.0008247045334428549, -0.012350600212812424, -0.008094223216176033, -0.0436643548309803, -0.04521113261580467, 0.0823492631316185, 0.06066005304455757, 0.007832355797290802, -0.00571109214797616, -0.02701888605952263, 0.007068180944770575, 0.01900211162865162, 0.04439990594983101, 0.045485809445381165, -0.03279438614845276, -0.005264975596219301, -0.10908236354589462, 0.16234417259693146, 0.001698106061667204, 0.03669702634215355, -0.07775770872831345, 0.0031691635958850384, -0.003771395655348897, -0.009059181436896324, 0.024304186925292015, 0.002284208545461297, -0.0667286366224289, -0.06829321384429932, 0.09777752310037613, -0.06631307303905487, 0.01783733069896698, 0.019083580002188683], [-0.011394363828003407, 0.0920361578464508, -0.08072657883167267, 0.13062134385108948, 0.05745910853147507, 0.005298327654600143, 0.08019734919071198, 0.0023659379221498966, 0.001184829045087099, 0.0108234453946352, -0.001912235515192151, -0.0156540647149086, 0.011701792478561401, 0.04469209536910057, 0.06519605964422226, 0.0033020852133631706, -0.0018714978359639645, 0.01052018441259861, -0.06400555372238159, 0.04491635039448738, -0.049101948738098145, -0.03552056849002838, -0.10015437752008438, -0.008002719841897488, -0.10215283930301666, 0.03685828298330307, -0.06066730245947838, 0.08508359640836716, -0.09899036586284637, 0.0016555701149627566, -0.0016119970241561532, -0.0021281237713992596, 0.006234420463442802, -0.0477617010474205, -0.03934048116207123, 0.009732618927955627, 0.01172684971243143, -0.045734189450740814, 0.08611205965280533, 0.09208162128925323], [-0.02253083698451519, 0.07255478203296661, -0.1425890177488327, -0.003611831460148096, -0.0016727051697671413, -0.001733645098283887, -0.004850382916629314, -0.002764861797913909, -5.2811454224865884e-05, 0.018187979236245155, -0.00406852038577199, -0.003602874232456088, -0.06174658611416817, 0.06534331291913986, 0.08945396542549133, -0.0817711353302002, -0.0029404563829302788, -0.002511878963559866, -0.04746098443865776, 0.04936876893043518, 0.0036271638236939907, 0.03532125800848007, -0.026348259299993515, -0.01865302585065365, -0.04212886840105057, 0.007799220271408558, 0.010371332988142967, 0.057302847504615784, -0.027173655107617378, 0.0012987509835511446, -0.0016415498685091734, -0.004144843202084303, 0.07820751518011093, -0.06291031837463379, -0.047334156930446625, -0.022316813468933105, 0.022139687091112137, -0.10290180146694183, 0.029402604326605797, -0.04348614811897278], [0.053372595459222794, 0.034239329397678375, -0.12519273161888123, 0.015978822484612465, -0.011094089597463608, -0.0012876233085989952, 0.015679040923714638, -4.662567789637251e-06, 0.0015319040976464748, 0.02194374054670334, -0.0013090659631416202, -0.03902498260140419, 0.09991802275180817, 0.06635554134845734, 0.07446453720331192, -0.13409364223480225, -0.0004282331501599401, -0.03685038909316063, 0.05359996482729912, 0.0021129739470779896, 0.025308506563305855, 0.006768589839339256, -0.1310710459947586, -0.008448990061879158, -0.06843147426843643, 0.05232694000005722, 0.07128892093896866, 0.0643913745880127, -0.058611925691366196, -0.0008025183924473822, 0.0006418872508220375, -0.0012364924186840653, 0.08576846122741699, -0.04674127697944641, -0.06827493011951447, -0.09601037204265594, 0.0433100201189518, -0.07381714135408401, 0.0990670770406723, -0.00995410792529583], [-0.030223334208130836, 0.033832237124443054, -0.19128069281578064, 0.07367341965436935, 0.12758293747901917, -0.011903904378414154, -0.07678370177745819, 0.005198012571781874, 0.004080264829099178, 0.001495422562584281, -0.006248907186090946, -0.13771328330039978, -0.010817030444741249, 0.11318556219339371, 0.0899680107831955, -0.10464154183864594, -0.004929221235215664, -0.04725537821650505, -0.05059483274817467, 0.0454062782227993, -0.011329177767038345, -0.006010060664266348, -0.04606838524341583, -0.03043069876730442, -0.18718571960926056, -0.0948612317442894, 0.02040506899356842, 0.08479123562574387, -0.014806033112108707, 0.004728955216705799, -0.0041806367225945, -0.007024675142019987, 0.0973871648311615, -0.04867660626769066, -0.07985176146030426, -0.034135304391384125, 0.04659652337431908, -0.11664892733097076, 0.19800938665866852, -0.04785749688744545], [0.2076176255941391, 0.051040809601545334, -0.01677463762462139, -0.0916953757405281, 0.21213708817958832, 0.07538943737745285, -0.0475582554936409, 0.011226397007703781, 0.008927160874009132, -0.11082735657691956, -0.0014758839970454574, -0.3502074182033539, 0.283753365278244, -0.0781620591878891, 0.1131264716386795, -0.25699394941329956, 0.002297659870237112, 0.1976601779460907, 0.14412660896778107, 0.03678492084145546, 0.4629839360713959, -0.047154806554317474, -0.0327557735145092, -0.0011794079327955842, 0.03837326169013977, -0.2329542636871338, 0.038585223257541656, 0.08278209716081619, -0.19779491424560547, -0.0007027927786111832, -0.0014101403066888452, 0.004843799397349358, -0.18195225298404694, -0.06025557592511177, 0.04943337291479111, -0.02957588993012905, 0.08678725361824036, 0.015384789556264877, -0.014726441353559494, -0.04879116639494896], [0.01754411682486534, -0.01820603385567665, -0.05752062797546387, -0.04725554957985878, -0.14671224355697632, -0.0029112533666193485, -0.11873245984315872, 0.005232604220509529, 0.00504480442032218, -0.04225611314177513, -0.0038443163502961397, -0.10503248125314713, -0.03912873566150665, -0.017940128222107887, -0.024824542924761772, 0.07514210790395737, -0.002995060058310628, -0.12016837298870087, 0.06297212839126587, -0.023832255974411964, 0.10942386835813522, 0.1398351490497589, -0.0520811453461647, -0.01863689161837101, 0.15746212005615234, -0.05084552243351936, -0.009419213980436325, 0.06890685111284256, -0.6369476318359375, 0.002117644529789686, -0.001529651926830411, -0.004409295506775379, -0.12567374110221863, 0.08132491260766983, -0.0331452451646328, -0.033260319381952286, -0.03878575563430786, 0.022894488647580147, 0.06198042258620262, 0.14458149671554565], [0.018707558512687683, -0.046305663883686066, 0.16801564395427704, 0.008972207084298134, 0.009836822748184204, 0.0015346535947173834, 0.013390552252531052, 0.0027333463076502085, -0.0005119029083289206, 0.004942284896969795, 0.004124579019844532, 0.010675836354494095, 0.06158837303519249, -0.04806698486208916, -0.10204314440488815, 0.08608245104551315, 0.002807925920933485, 0.0031527557875961065, 0.01194478664547205, -0.019703637808561325, -0.004907367285341024, -0.039518214762210846, -0.001510279718786478, 0.01765151135623455, 0.04113314673304558, -0.0031810984946787357, -0.0239254180341959, -0.06726764887571335, 0.03337359428405762, -0.0008920841501094401, 0.0013461775379255414, 0.004095595329999924, -0.07880055159330368, 0.04921941086649895, 0.02079368196427822, 0.039580799639225006, -0.023171519860625267, 0.10865391790866852, -0.029675478115677834, 0.08103955537080765], [0.022799646481871605, -0.006815413944423199, 0.1409912407398224, 0.06841147691011429, 0.7700486183166504, -0.02396383136510849, -0.004188330844044685, 0.015930011868476868, -0.0007563571562059224, 0.08026523888111115, 0.0007544677355326712, 0.48026084899902344, 0.06786800175905228, -0.037706658244132996, 0.022160859778523445, 0.15649458765983582, 0.0010844437638297677, 0.9560022950172424, -0.5273730158805847, 0.09868349134922028, -0.5088714957237244, -0.04430771619081497, 0.2461118996143341, 0.009790572337806225, -0.057424452155828476, 0.09466665238142014, 0.13377512991428375, -0.06960494071245193, 0.1801363229751587, 0.007091592997312546, -0.004955725744366646, -0.0005471471813507378, 0.1465645432472229, -0.08567145466804504, -0.037596695125103, 0.06386751681566238, -0.008596762083470821, 0.18485479056835175, 0.03471977263689041, 0.09933022409677505], [0.022303977981209755, -0.06832674890756607, -0.3632594645023346, 0.01894122175872326, 1.447986364364624, 0.039262909442186356, -0.2079632431268692, 0.0039647347293794155, 0.0017020725645124912, 0.03718581795692444, -0.00666407123208046, 0.8417373895645142, -0.43907785415649414, 0.06253408640623093, 0.07023093849420547, 0.09566664695739746, -0.005031352862715721, 3.140958309173584, 0.024550165981054306, 0.31153663992881775, -0.9482395052909851, 0.11717603355646133, 0.13665883243083954, 0.033528879284858704, 0.6055530309677124, 0.02492579258978367, -0.16734595596790314, -0.3492017388343811, 0.5380666851997375, 0.007160257548093796, -0.007660888135433197, -0.0028212154284119606, 0.36447012424468994, -0.0817049965262413, -0.011780891567468643, 0.3850235342979431, -0.18171322345733643, -0.1018785759806633, 0.015035506337881088, -0.14192228019237518], [0.024541396647691727, 0.017018554732203484, -0.016608990728855133, -0.07185246050357819, 0.053384605795145035, 0.027696620672941208, 0.10153806954622269, -0.0018124510534107685, 0.0005236833239905536, -0.02711457759141922, -0.0025909803807735443, 0.0779806450009346, 0.0012570187682285905, 0.006338518112897873, -0.03411778807640076, 0.003106574760749936, -0.0015270510921254754, -0.03509945049881935, -0.017268801108002663, 0.004861528519541025, 0.03406037762761116, -0.05574973300099373, -0.010897526517510414, 0.007827469147741795, 0.00851990096271038, 0.03863443434238434, 0.009169384837150574, -0.050923917442560196, 0.006896770093590021, 0.0002122058067470789, -0.0013093070592731237, -0.000489915837533772, 0.050283029675483704, -0.03658774122595787, -0.01135438121855259, 0.012900236994028091, 0.04272899776697159, -0.001910339924506843, -0.030226636677980423, 0.03204591944813728], [0.0546196885406971, 0.2531559467315674, -0.07680823653936386, -0.04630082845687866, 0.03747735917568207, 0.006524927914142609, 0.14260338246822357, -0.004319800995290279, 0.0075569599866867065, -0.0006663936655968428, -0.0029395599849522114, 0.037124186754226685, 0.05643758177757263, -0.09997040778398514, 0.11434290558099747, -0.12306171655654907, 0.0015602308558300138, 0.24705079197883606, 0.11041433364152908, 0.25007882714271545, -0.38010793924331665, -0.08093570917844772, -0.1458333134651184, 0.028425350785255432, -0.15743067860603333, 0.04505743086338043, 0.01639663055539131, 0.03731924667954445, 0.33902353048324585, 0.003530120477080345, -0.006181471981108189, 0.0009528151131235063, -0.24757444858551025, -0.025781365111470222, 0.04391089826822281, 0.059097953140735626, -0.08886134624481201, 0.027902092784643173, -0.1247943714261055, -0.07225276529788971], [0.005778498016297817, 0.007025423925369978, 0.006741338409483433, 0.008473590947687626, -0.0007218556711450219, -0.0028668770100921392, 0.002559484913945198, -0.0013713760999962687, 0.0002953719813376665, 0.007055155001580715, -0.00019929936388507485, -0.008953118696808815, 0.011522434651851654, 0.001332990126684308, -0.005874709226191044, 0.0067158835008740425, -0.0003099076566286385, -0.003729718504473567, 0.0036227121017873287, 0.01287756860256195, -0.001969407545402646, -0.0027238763868808746, -0.011039672419428825, 0.007025646045804024, -0.011278741993010044, -0.0010315236868336797, -0.00981281790882349, -0.008281156420707703, -0.00414641248062253, -0.0003650127036962658, 9.283560211770236e-05, -0.00027712382143363357, -0.0064217024482786655, 0.005400016903877258, -0.012006626464426517, 0.007457610219717026, 0.010431518778204918, 0.006439034827053547, 0.01414483692497015, 0.006811707746237516], [-0.00031543406657874584, 0.0009849675698205829, 0.005302978679537773, -0.0041692862287163734, 0.0006713151815347373, -0.0012172589777037501, -0.003891532775014639, -0.0013131701853126287, -0.00039111977093853056, 0.002459470648318529, -0.0005928390310145915, -0.0002694168360903859, -0.0035830331034958363, 0.00042196610593236983, 0.0018114877166226506, 0.006576628889888525, -0.0003853543021250516, 0.001933555118739605, 0.00343136303126812, -0.017810598015785217, -0.0016898709582164884, 0.0042277006432414055, -0.00820176862180233, -0.0030578693840652704, -0.01115877740085125, -0.0016399422893300653, -0.0008714263094589114, 0.002198599511757493, -0.0007360499585047364, -0.00013540880172513425, -6.060279702069238e-05, -0.0005610035150311887, -0.003179694525897503, 0.0026388096157461405, -0.0108829690143466, -0.00045091891661286354, 0.0015873806551098824, 0.0022258562967181206, 0.0017024915432557464, 0.004880079533904791], [-0.02692527323961258, 0.05830536037683487, 0.028440413996577263, 0.0359814316034317, 0.08605732023715973, 0.002488759346306324, 0.01486716978251934, 0.002795520471408963, -0.003533271374180913, 0.13345420360565186, 0.003989381715655327, 0.01378469355404377, -0.03479637950658798, 0.038539525121450424, 0.07312923669815063, -0.10561317950487137, 0.0026406054385006428, -0.11095371097326279, 0.05371580645442009, 0.108108289539814, 0.018187306821346283, -0.03276126831769943, -0.057985804975032806, 0.006040965672582388, 0.0513157919049263, 0.10525953024625778, -0.008160891011357307, 0.06972838938236237, -0.09657257795333862, -0.0010513359447941184, 0.0021146945655345917, 0.0033644703216850758, 0.0767999216914177, -0.06157374009490013, -0.1055193543434143, 0.10409599542617798, -0.06018301472067833, -0.007650170940905809, -0.03944801911711693, 0.02495657093822956], [0.016683416441082954, -0.0023715076968073845, 0.009583591483533382, -0.0006465743063017726, 0.0025733395013958216, 0.0020743058994412422, -4.891641947324388e-05, 0.00039241049671545625, 0.00033330151927657425, 0.014617862179875374, -0.00089551619021222, 0.011907733976840973, 0.015052443370223045, -0.005773111246526241, 0.0012085499474778771, -0.0024195597507059574, -0.00073821289697662, -0.002653482835739851, -0.002678175922483206, -0.0013967427657917142, -0.0022790783550590277, 0.004550558514893055, -0.01364123821258545, 0.0051878453232347965, 0.017183568328619003, -0.002654413226991892, -0.008733785711228848, 0.0016736902762204409, -0.011220049113035202, 0.0007251889910548925, -0.0008677054429426789, -0.0004152168403379619, -0.0029777642339468002, -0.01214214600622654, -0.0033618216402828693, 0.011647053994238377, -0.009133441373705864, 0.005836061667650938, -0.011530713178217411, -0.00025173340691253543], [0.04295503348112106, -0.09116629511117935, 0.07485100626945496, -0.23495762050151825, 0.7699729800224304, -0.10164036601781845, -0.05713943764567375, -0.004386343527585268, 0.0012518386356532574, 0.03935505822300911, 0.0017120590200647712, -0.33823660016059875, -0.07145503908395767, 0.08767939358949661, 0.15551011264324188, -0.021161556243896484, 0.0043262578547000885, 1.2091642618179321, -0.05429432541131973, 0.07490427792072296, -0.0714287981390953, 0.28988116979599, 0.2089647799730301, 0.004094600677490234, 0.29259610176086426, 0.3883841931819916, -0.13157030940055847, -0.16712655127048492, 0.3695066273212433, 0.0004016336752101779, -0.0007627226295880973, -0.0013317028060555458, 0.39917418360710144, -0.10006629675626755, -0.01162483636289835, 0.2527112662792206, -0.22831043601036072, -0.1101147010922432, -0.2060488909482956, -0.11901108175516129], [0.028726540505886078, 0.15692700445652008, -0.1596427857875824, 0.3686046302318573, 0.11624737828969955, 0.05531153455376625, -0.10926622152328491, -0.0035900440998375416, -0.0004932675510644913, -0.05463700741529465, -0.0061232284642755985, 0.2280760407447815, 0.3880681097507477, 0.02626687102019787, -0.10126908868551254, -0.1894972026348114, -0.002099227160215378, 0.5507187247276306, 0.17678843438625336, 0.2463870644569397, -0.36352816224098206, 0.09669267386198044, -0.13928423821926117, -0.004146930295974016, 0.12330058217048645, -0.12328466027975082, 0.037057649344205856, -0.03660332411527634, 0.27618473768234253, 0.00022527031251229346, -0.0046066162176430225, -0.001667203032411635, -0.2492021769285202, 0.10412753373384476, -0.038641445338726044, 0.026049988344311714, 0.05467257276177406, 0.0819060280919075, 0.010804294608533382, -0.11437319964170456], [-0.13330665230751038, 0.08178126811981201, -0.0699567049741745, -0.11535576730966568, 0.05195455998182297, -0.004752474837005138, 0.018763164058327675, -0.002192841609939933, 0.00026778667233884335, 0.017771907150745392, -0.012331199832260609, -0.11226731538772583, 0.22777937352657318, 0.2588485777378082, -0.01482450496405363, -0.012642323970794678, -0.01326292846351862, -0.021700721234083176, 0.2246338129043579, 0.305433064699173, 0.09875797480344772, -0.05133207514882088, 0.07637494057416916, 0.028321418911218643, -0.05165860801935196, 0.1755172461271286, -0.32138514518737793, 0.08719746768474579, -0.056509438902139664, 0.01160023920238018, -0.009179825894534588, -0.01700556091964245, 0.022624267265200615, 0.057559918612241745, -0.14060132205486298, 0.0005177090642973781, -0.01626533456146717, -0.07232730090618134, -0.0824536681175232, 0.005531510803848505], [0.26280784606933594, 0.045884206891059875, -0.017402004450559616, 0.18634003400802612, 0.16604550182819366, 0.026217244565486908, -0.029208896681666374, 0.003535923780873418, 0.0019175347406417131, -0.0016032548155635595, 0.015539114363491535, 0.0702207088470459, -0.12190820276737213, -0.1457543522119522, 0.1288881152868271, 0.037788741290569305, 0.012724033556878567, -0.043083555996418, -0.04635506495833397, -0.09076106548309326, -0.11592800170183182, -0.10200217366218567, 0.08593521267175674, -0.0127630103379488, -0.032385069876909256, -0.04516226053237915, -0.02328011579811573, 0.06653568148612976, -0.19958433508872986, -0.012656483799219131, 0.012133309617638588, 0.02134837582707405, 0.17017771303653717, -0.13646017014980316, 0.058671560138463974, 0.0936238095164299, 0.07278232276439667, -0.04364178329706192, -0.13042119145393372, 0.08660953491926193], [-0.08102564513683319, -0.03737345337867737, 0.18029256165027618, 0.05361191928386688, 0.03889676555991173, -0.02196888066828251, 0.031149374321103096, -0.00045599753502756357, 0.0029315531719475985, 0.02791508659720421, -0.015372936613857746, -0.19494226574897766, 0.0017746592639014125, -0.053367748856544495, -0.03831365332007408, 0.035930193960666656, -0.012697090394794941, -0.04306255653500557, -0.17518942058086395, 0.05449988320469856, -0.06298798322677612, -0.019284317269921303, 0.2553757131099701, 0.03122018650174141, -0.5497615933418274, 0.016189858317375183, -0.040776390582323074, -0.022359004244208336, 0.29228952527046204, 0.009359083138406277, -0.010924044996500015, -0.018724871799349785, -0.08155348896980286, 0.044159937649965286, -0.09527159482240677, 0.049195416271686554, 0.18662257492542267, 0.032810408622026443, -0.05492854118347168, -0.04887515306472778], [0.017064454033970833, -0.003246813779696822, 0.004698396660387516, -0.00387562089599669, -0.0007120812661014497, 0.002113817259669304, 0.0004976162454113364, 0.00016705722373444587, 0.00034308776957914233, 0.008986031636595726, -0.0010812090476974845, 0.011840580962598324, 0.01110673975199461, -0.0064315153285861015, -0.00019051876734010875, -0.004300603177398443, -0.0009509839001111686, -0.002541022375226021, -0.0002201379247708246, -0.010862131603062153, -0.000278398918453604, 0.0021545791532844305, -0.012593020685017109, 0.0032893058378249407, 0.016827428713440895, -0.003011660650372505, -0.005114182364195585, -0.0028983373194932938, -0.0064369249157607555, 0.0007902590441517532, -0.0010023307986557484, -0.0005785148241557181, 0.001714696642011404, -0.012123850174248219, -0.004187001846730709, 0.010933279059827328, -0.006911030039191246, 0.0045548113994300365, -0.01141598541289568, 0.005934129934757948], [-0.19994179904460907, 0.03938526287674904, 0.3857744038105011, -0.08482552319765091, -0.48657211661338806, 0.060414109379053116, -0.1928328424692154, -0.007093336898833513, -0.0065311952494084835, 0.12210817635059357, 0.001981280976906419, -0.10080377012491226, -0.6405035853385925, 0.10320310294628143, 0.06267128884792328, -0.5276783108711243, 0.002831350779160857, -0.8925021886825562, -0.011381970718502998, 0.17834101617336273, 0.44766560196876526, -0.23635241389274597, 0.36339274048805237, -0.008287406526505947, 0.9957041144371033, -0.08157354593276978, -0.06443659216165543, -0.7045823931694031, -0.13602814078330994, -0.001422134810127318, -0.0017128620529547334, 0.005910799372941256, 0.5220135450363159, -0.13596376776695251, -0.04914914071559906, 0.46734556555747986, -0.3155110776424408, -0.1222747266292572, -0.2451106607913971, -0.2704799771308899], [0.05886032432317734, -0.18516285717487335, -0.14526422321796417, 0.3198413550853729, 0.9110549092292786, 0.01044180803000927, 0.15786126255989075, -0.016619427129626274, -0.004639167804270983, 0.037250395864248276, -0.015340402722358704, 0.6399852633476257, 0.00433902395889163, 0.008219186216592789, -0.3348260819911957, 0.07596786320209503, -0.012999748811125755, 0.3418552577495575, 0.13777068257331848, -0.35309937596321106, -0.12803858518600464, 0.09510113298892975, 0.1591588407754898, -0.01620151847600937, -0.021108899265527725, 0.10242486000061035, -0.06714855134487152, -0.08464804291725159, 0.23183223605155945, -0.0009411908686161041, -0.007546029984951019, -0.012193456292152405, 0.18855565786361694, 0.035185229033231735, -0.027313733473420143, -0.03510032594203949, 0.06210475414991379, 0.050068505108356476, 0.006455331575125456, 0.28008073568344116], [-0.10836640000343323, -0.06007516756653786, 0.24896062910556793, -0.13949647545814514, -0.36754727363586426, -0.0017772315768525004, -0.025100065395236015, -0.013876868411898613, -4.000034823548049e-05, -0.0030289050191640854, -0.0024996385909616947, -0.3827751576900482, -0.060918115079402924, 0.005679592490196228, -0.21041370928287506, 0.11188352108001709, -0.003835968440398574, -0.2134690284729004, 0.19105485081672668, 0.11505760997533798, 0.4687669575214386, -0.08879217505455017, 0.040579162538051605, 0.04278990253806114, -0.05560466647148132, -0.03375953435897827, 0.006790946237742901, 0.06456689536571503, -1.0645278692245483, -0.0060205599293112755, 0.006107207387685776, -0.0026211414951831102, 0.07931233942508698, 0.018849534913897514, -0.038079313933849335, -0.1508481651544571, -0.016168387606739998, -0.02034085802733898, 0.03396863490343094, -0.021170666441321373], [-0.1346287578344345, -0.14759767055511475, -0.1808505803346634, 0.36885422468185425, -0.1391279399394989, 0.01956852525472641, 0.1875389963388443, -0.006221510004252195, 0.007966500706970692, -0.09274780005216599, 0.0006982918712310493, 0.2422970086336136, 0.3864595890045166, 0.05376816168427467, -0.21752125024795532, -0.02406010776758194, 0.0015718291979283094, -1.019568681716919, 0.08530720323324203, -0.41095343232154846, -0.960906982421875, 0.32643452286720276, -0.07605979591608047, 0.005886604078114033, -0.03323720023036003, -0.0863637700676918, -0.04234124347567558, 0.020364921540021896, 0.48150837421417236, -0.0007128480938263237, 0.0008501681732013822, 0.0007328586652874947, 0.03576750308275223, 0.0016034528380259871, 0.02684710919857025, -0.17258939146995544, 0.2087385505437851, -0.11003990471363068, 0.06297454237937927, 0.22974999248981476], [-0.15714451670646667, -0.3075966238975525, 0.05206916853785515, -0.2673647999763489, -0.26222795248031616, -0.060662731528282166, -0.3078542947769165, -0.007763103116303682, 0.003559110453352332, -0.03761885315179825, -0.003408146323636174, 0.08481734246015549, -0.06022011861205101, 0.10627193003892899, 0.029479948803782463, 0.018757401034235954, -0.0017207522178068757, 0.21265771985054016, 0.07687348127365112, -0.05222068354487419, 0.023566273972392082, 0.04067566990852356, -0.11165611445903778, -0.02157902903854847, -0.11664362251758575, -0.07357821613550186, 0.05319034680724144, 0.14299912750720978, 0.05968746170401573, 0.0013794094556942582, 0.0006051547243259847, -0.004522198811173439, 0.10622251033782959, -0.11552742123603821, 0.01030747964978218, 0.010573511011898518, 0.022120783105492592, -0.04303251579403877, 0.09281037002801895, 0.03824007138609886], [-0.3210243284702301, 0.027737921103835106, -0.05035778880119324, -0.06877884268760681, 0.1935238242149353, -0.005357925780117512, 0.030047385022044182, 0.004479419440031052, 0.002087631495669484, -0.043178413063287735, -0.008978391997516155, -0.12294069677591324, -0.41238275170326233, -0.08990217745304108, -0.0629492849111557, -0.06145746633410454, -0.007331946864724159, -0.0939171314239502, 0.051019053906202316, -0.007840979844331741, 0.17813222110271454, -0.024672264233231544, 0.10576136410236359, 0.009847674518823624, -0.10377564281225204, 0.1054355725646019, 0.017355334013700485, -0.057033997029066086, 0.16609549522399902, 0.007910152897238731, -0.006401060149073601, -0.009251902811229229, -0.0346989706158638, -0.026508862152695656, 0.06222840026021004, 0.04235236719250679, 0.013866974040865898, -0.02650563046336174, -0.020473526790738106, 0.004719438962638378], [-0.02719283290207386, 0.015465150587260723, 0.032274872064590454, -0.057555798441171646, -0.015332495793700218, -0.0075693512335419655, -0.0025204522535204887, -0.0020568612962961197, 