{"model_data": {"model": "SimpleRNN", "input_size": 1, "skip": 1, "output_size": 1, "unit_type": "LSTM", "num_layers": 1, "hidden_size": 40, "bias_fl": true}, "state_dict": {"rec.weight_ih_l0": [[0.022664787247776985], [-0.0069368635304272175], [-0.18413561582565308], [0.003941692411899567], [-0.054018985480070114], [0.1399524062871933], [0.0216920655220747], [-0.017239971086382866], [-4.055050158058293e-05], [0.0002269269316457212], [0.21957756578922272], [0.00017330923583358526], [4.901236388832331e-05], [-7.856574666220695e-05], [-0.00350751425139606], [-0.19407887756824493], [-0.0760115459561348], [0.03682059049606323], [-0.04884865880012512], [0.18241804838180542], [-0.12946817278862], [-0.11473331600427628], [0.02763254940509796], [0.07059087604284286], [0.00010112296877196059], [0.12653645873069763], [-0.023435581475496292], [-0.005698247347027063], [1.2169704859843478e-05], [-0.0926811695098877], [1.6293375665554777e-05], [0.22392937541007996], [-0.15486828982830048], [-0.0020053584594279528], [0.2600092887878418], [-0.038961585611104965], [-0.015377115458250046], [-0.04990294948220253], [0.0002641879254952073], [-0.00845655333250761], [0.029056353494524956], [-0.0007552412571385503], [-0.18680059909820557], [0.16983267664909363], [-0.1665172278881073], [-0.07818632572889328], [0.040464237332344055], [0.006347125396132469], [-9.224977839039639e-05], [0.00022730138152837753], [0.40877100825309753], [0.00022239309328142554], [3.987257878179662e-05], [-5.769930339738494e-06], [-0.0037822150625288486], [0.11275065690279007], [-0.07655354589223862], [-0.057376958429813385], [0.008685456588864326], [-0.14836150407791138], [0.06927630305290222], [-0.08549457043409348], [-0.014888817444443703], [0.12058163434267044], [-1.9660990801639855e-05], [0.1607164889574051], [0.06534241139888763], [8.26052128104493e-05], [3.630602077464573e-05], [-0.11957718431949615], [2.153364403056912e-05], [0.09368453919887543], [0.032294388860464096], [-0.0023490788880735636], [0.25873279571533203], [-0.06409812718629837], [0.034030888229608536], [0.02075929380953312], [0.00019947563123423606], [-0.0021341689862310886], [0.12740634381771088], [-0.9049441814422607], [-0.553327202796936], [-0.3181878924369812], [-1.4003828763961792], [-0.3609922230243683], [0.2619352340698242], [-0.8306987881660461], [-0.007035655435174704], [0.003708334406837821], [0.43609803915023804], [-0.00567353330552578], [0.0029072065372020006], [-0.00031751987989991903], [0.016004888340830803], [1.0101211071014404], [-0.1013140007853508], [-0.09569510072469711], [0.07080019265413284], [-0.23255497217178345], [0.18926185369491577], [-0.07492554932832718], [0.11510130763053894], [0.16137491166591644], [0.008323214016854763], [-0.36699408292770386], [0.026726366952061653], [0.0013097812188789248], [0.005451529752463102], [-0.32464587688446045], [-0.007272134535014629], [-0.4188961684703827], [0.6111390590667725], [0.03162990137934685], [0.05272906273603439], [1.051418423652649], [0.3094747066497803], [0.07367518544197083], [-0.007675042375922203], [0.02431502938270569], [0.018646057695150375], [-0.010591105557978153], [-0.18955561518669128], [-0.050936758518218994], [-0.04866337031126022], [0.22445949912071228], [-0.017880091443657875], [-0.0055683269165456295], [-5.403380055213347e-05], [0.00021914350509177893], [0.14180417358875275], [0.00016282369324471802], [4.8156187403947115e-05], [-9.30476380744949e-05], [-0.003554323222488165], [0.013922511599957943], [0.026648078113794327], [0.045244086533784866], [-0.02197754941880703], [0.07255948334932327], [-0.12992537021636963], [-0.10425134003162384], [0.020961131900548935], [0.11638094484806061], [9.301787940785289e-05], [0.14307357370853424], [-0.07462941110134125], [-0.005993890576064587], [3.3327560231555253e-06], [-0.12147197127342224], [7.93896379036596e-06], [0.2226543426513672], [-0.06165698170661926], [-0.002134169451892376], [0.33234092593193054], [-0.04741014912724495], [-0.006426425185054541], [-0.016512034460902214], [0.0002655332500580698], [-0.007592782843858004]], "rec.weight_hh_l0": [[0.01613476872444153, -0.013028007932007313, -0.005073186941444874, -0.07483230531215668, -0.039028048515319824, 0.014134339988231659, -0.05289413779973984, -0.005704265087842941, 0.0012995093129575253, 0.00028452035621739924, 0.045372046530246735, -0.000678127515129745, -1.6633170162094757e-05, -0.00034830905497074127, 0.0029438044875860214, 0.01562435645610094, -0.058899495750665665, -0.0160071961581707, -0.029582079499959946, 0.023983309045433998, 0.02163073420524597, 0.06003757193684578, 0.01299238484352827, 0.012120566330850124, -0.0006226520636118948, -0.06968357414007187, -0.0013887952081859112, 0.00822935439646244, 0.0006607267423532903, -0.0370563305914402, 0.0013622075784951448, -0.0032899256329983473, 0.016914501786231995, 0.0041352552361786366, -0.002363287378102541, 0.015581164509057999, -0.03804687410593033, -0.0013760172296315432, 0.0013942562509328127, -0.014203102327883244], [0.010734004899859428, -0.01874910481274128, 0.000891215109732002, 0.013095897622406483, 0.07903392612934113, 0.021147599443793297, 0.005917720030993223, 0.002284725895151496, 0.0011321835918352008, -0.0018914223182946444, 0.1572595089673996, 0.002304947702214122, 0.00012367303133942187, -0.00011129816266475245, 0.0033475267700850964, 0.09040634334087372, 0.2799472212791443, 0.030262410640716553, 0.013668019324541092, -0.008141996338963509, -0.048555534332990646, -0.1561182737350464, -0.021332571282982826, 0.03384969383478165, -0.0018556356662884355, 0.029557980597019196, -0.013651530258357525, -0.0020302128978073597, 0.0003646751865744591, -0.026331238448619843, -0.0001255913230124861, 0.0031785748433321714, -0.01973152905702591, -0.0005485843867063522, 0.0034183626994490623, 0.04119126871228218, -0.008832552470266819, 0.0014423327520489693, -0.00034281332045793533, 0.0036095769610255957], [-0.019864898175001144, 0.029453735798597336, 0.1453971564769745, -0.020680967718362808, 0.18103927373886108, 0.010537904687225819, 0.0015384030994027853, 0.06178952753543854, -0.00015581584011670202, -0.00013232736091595143, -0.13648122549057007, 0.0004306018818169832, 0.0008461768156848848, -0.0018551943358033895, 0.0017377700423821807, -0.07987483590841293, -0.019422797486186028, 0.06429527699947357, -0.006000004708766937, -0.02669237181544304, 0.008107182569801807, 0.05075853690505028, -0.005600741598755121, 0.03721949830651283, -0.00036068170447833836, 0.05809715762734413, -0.005310193635523319, 0.003356780856847763, 0.0008629752555862069, 0.034691210836172104, 0.0002915714867413044, 0.015315895900130272, -0.11129934340715408, -0.0015695266192778945, 0.03435729444026947, -0.1218082532286644, -0.05970354005694389, -0.024552686139941216, 0.0002569015487097204, -0.01296741422265768], [-0.008441919460892677, -0.02391069382429123, 0.038706522434949875, 0.2457345426082611, 0.12583057582378387, 0.07284009456634521, -0.08059074729681015, 0.041285138577222824, 0.00028462245245464146, 0.001779548591002822, 0.22206372022628784, -0.0022443165071308613, 0.00039806179120205343, -0.0007810345850884914, 0.006900023203343153, 0.12322413176298141, 0.46294817328453064, -0.03905663266777992, -0.02314765937626362, 0.08047079294919968, 0.06221615895628929, -0.28372567892074585, 0.030415963381528854, -0.02860332652926445, 0.0004510400758590549, 0.06971185654401779, 0.006439580582082272, -0.0084970248863101, 0.0011885414132848382, -0.0019871077965945005, 0.000797742628492415, 0.012144737876951694, 0.008586760610342026, 0.004470090847462416, -0.013363850302994251, -0.020651912316679955, 0.15438851714134216, 0.011380216106772423, 0.0008698207093402743, 0.026067713275551796], [-0.02046714350581169, 0.026400506496429443, 0.005602691322565079, -0.1320967972278595, 0.018825583159923553, 0.1349162757396698, -0.24476565420627594, 0.04406600072979927, 0.0005153048550710082, 0.0032093492336571217, 0.0639728307723999, -0.004332913551479578, -0.0006616430473513901, -0.0016090997960418463, 0.0038273134268820286, -0.11222780495882034, 0.28029194474220276, 0.06588456779718399, -0.026411112397909164, 0.33674484491348267, 0.13458405435085297, -0.2091311812400818, 0.06015533208847046, -0.053954530507326126, 1.7138781913672574e-05, -0.01373202819377184, -0.03284737840294838, 0.003930590581148863, -0.0008061990374699235, 0.026621423661708832, 0.003990859724581242, -0.015053932555019855, 0.06832058727741241, -0.0038394208531826735, 0.008135687559843063, 0.026931239292025566, 0.11200232803821564, 0.04673270881175995, 0.002829466015100479, -0.012974873185157776], [0.056893784552812576, -0.0446992889046669, 0.1835418939590454, 0.07014989852905273, -0.22276046872138977, -0.07462719082832336, 0.34805595874786377, -0.2606501579284668, -0.012075615115463734, 0.008979839272797108, -0.31262242794036865, -0.009712791070342064, -0.005776889622211456, 0.005071772262454033, 0.03492864966392517, -0.18174582719802856, -0.7688197493553162, -0.18042133748531342, 0.09576970338821411, -0.5623045563697815, 0.09090584516525269, 0.6805750131607056, 0.0526319220662117, 0.13488458096981049, 0.014101420529186726, -0.40324369072914124, -0.11331165581941605, -0.01827036589384079, -0.004609246272593737, -0.017376717180013657, 0.0012199357151985168, 0.015616875141859055, -0.44301140308380127, 0.024710530415177345, 0.02350013330578804, 0.07347067445516586, -0.01564978063106537, -0.08471249043941498, 0.003300328738987446, -0.0006919088773429394], [-0.002567990217357874, -0.0032276571728289127, -0.02626635506749153, -0.04108020290732384, 0.03615647926926613, 0.00943299476057291, 0.05458781123161316, -0.062463488429784775, -0.002971541602164507, 0.0035711966920644045, -0.06169116869568825, -0.0026858351193368435, 0.0016856624279171228, -0.0019587299320846796, -0.004691101144999266, -0.045812129974365234, -0.11146780848503113, -0.010306066833436489, 0.02286393754184246, 0.04848911240696907, -0.017697026953101158, 0.035154759883880615, -0.013694258406758308, 0.08628451079130173, 0.004028506577014923, -0.016332052648067474, -0.030608508735895157, 0.0016832828987389803, 0.0025246550794690847, 0.0010743159800767899, -0.00020737940212711692, 0.08594802021980286, -0.03293175250291824, -0.0020281223114579916, -0.024815350770950317, 0.0006077979924157262, 0.011249653995037079, -0.03124147839844227, 0.0013757453998550773, -0.0065678018145263195], [0.010711496695876122, 0.01585337705910206, 0.017562175169587135, -0.015621750615537167, 0.10040845721960068, 0.03794135898351669, -0.04680546000599861, -0.00699461717158556, 0.0005151500226929784, 0.0014028020668774843, 0.19198010861873627, -0.001468211179599166, 0.00018179566541220993, -0.0005820341757498682, -0.0020050378516316414, -0.008969863876700401, 0.323599249124527, -0.01685199700295925, -0.0029654260724782944, 0.050955869257450104, -0.019157951697707176, -0.19824962317943573, -0.000823437178041786, 0.024207592010498047, -8.436458301730454e-06, 0.021451221778988838, -0.01788792945444584, 0.007225889712572098, 0.00034354423405602574, -0.022027159109711647, 0.0005197215941734612, 0.014636028558015823, -0.0100924177095294, -0.0010100390063598752, -0.014542550779879093, 0.01090164203196764, -0.01771528460085392, -0.0013240633998066187, 0.00021677066979464144, -0.014768727123737335], [-3.9003371057333425e-05, -2.4685194148332812e-05, 5.936596789979376e-05, -0.00014042590919416398, -0.006868298165500164, -0.00021971446403767914, 0.000557753664907068, 0.00010681089042918757, -1.3123285498295445e-06, -6.532931138281128e-07, -0.02938603051006794, 2.305126872670371e-05, -4.693133178079734e-06, 1.355050608253805e-05, 7.703201845288277e-06, -0.007854178547859192, -0.04461001604795456, 0.00015417352551594377, 1.161274212790886e-06, -0.008300662972033024, -1.87476672408593e-07, 0.03024676814675331, 0.00010458953329361975, 1.9070888811256737e-05, 1.7330723494524136e-05, -0.0018381434492766857, 1.8510039808461443e-05, 9.241804036719259e-06, 1.0837304216693155e-05, 0.00019382554455660284, -9.820907962421188e-07, 8.7431886640843e-05, -0.00013871434202883393, 1.4596065739169717e-05, 4.326528505771421e-05, -0.00017128120816778392, -0.0003874740214087069, -1.6387786672567017e-05, -6.539237347169546e-06, -4.7228670155163854e-05], [8.227277430705726e-05, -5.82388965995051e-05, -0.00010902588110184297, -0.0007779612205922604, -0.011868231929838657, -0.0018412951612845063, 0.001753619173541665, -4.899958184978459e-06, -8.107981557259336e-06, 5.1420579438854475e-06, -0.03625549376010895, 1.6576985217398033e-05, -8.419657206104603e-06, -4.500441264099209e-06, -3.1093125016923295e-06, -0.01151209231466055, -0.052265625447034836, 0.00011877538781845942, 9.000087447930127e-05, -0.013598615303635597, -0.0002130087959812954, 0.03744841367006302, -0.00034201290691271424, 4.147465369896963e-05, 4.566019470075844e-06, -0.003982313442975283, -3.499888043734245e-05, 5.4851011555001605e-06, -5.663574938807869e-06, 3.641355215222575e-05, 3.6702354009321425e-06, -7.547253335360438e-05, -0.00021868295152671635, 6.941745141375577e-06, 0.0001730597432469949, -5.2037732530152425e-05, -0.0019840821623802185, -0.0001391337427776307, 4.115404863114236e-06, 3.3682765206322074e-05], [-0.08349467813968658, -0.03223283216357231, 0.10352050513029099, -0.06417827308177948, -0.20375964045524597, 0.14025940001010895, 0.16006429493427277, -0.140950545668602, -0.005129588767886162, 0.0020005344413220882, 0.05371317267417908, -0.0045371027663350105, 0.0009659084607847035, -0.0009366113226860762, 0.04041491821408272, -0.01502029225230217, -0.13479459285736084, -0.1067277267575264, -0.10115817189216614, 0.0412873774766922, 0.06939031928777695, 0.08567414432764053, 0.051295600831508636, 0.04930998757481575, 0.00732226250693202, -0.012790174223482609, 0.12720215320587158, -0.03052433207631111, 0.0025169297587126493, -0.07329575717449188, -0.0004369849630165845, 0.11498449742794037, -0.0461343415081501, 0.018141722306609154, 0.08083834499120712, 0.12065538018941879, 0.10412649810314178, -0.027279015630483627, -0.001000689808279276, 0.03444281220436096], [8.343416993739083e-05, -3.4593933833093615e-06, -7.869467663113028e-05, -0.0032928099390119314, -0.0091439513489604, -0.0006490036612376571, 0.0004975931951776147, 1.8856580936699174e-05, 1.494670141255483e-05, -1.665406125539448e-05, -0.03639540076255798, 8.061069820541888e-07, -1.9320391402288806e-06, -2.077368890240905e-06, -2.1649100744980387e-05, -0.008412975817918777, -0.05789275839924812, 0.00011767182877520099, 0.00014456073404289782, -0.009820657782256603, -0.000221114547457546, 0.038039371371269226, -0.00048367612180300057, 6.728907465003431e-05, -1.5335026546381414e-05, -0.00229227589443326, 4.025284215458669e-05, 1.0460125849931501e-05, -1.2174032235634513e-05, 9.618531294108834e-06, -6.536895398312481e-06, -3.610236672102474e-05, -0.00025057216407731175, 1.3483834663929883e-05, 0.0002777154149953276, -6.470430525951087e-05, -0.003090953454375267, -0.00018695353355724365, -1.4662690261957323e-07, 2.0353911168058403e-05], [-2.2371354134520516e-05, -2.3851746391301276e-06, -1.4536946764565073e-05, -4.029679985251278e-06, -0.000720273528713733, -8.46139810164459e-05, 0.00015872409858275205, 5.5726763093844056e-05, 4.422495862854703e-07, -1.6347328255506e-06, -0.002689996035769582, 2.9808340968884295e-06, 1.186056010737957e-06, -2.709025920921704e-06, 1.3754607607552316e-05, -0.0006826166645623744, -0.006751709152013063, 2.9144779546186328e-05, -1.4437802747124806e-05, -0.0006091484683565795, 8.728456123208161e-06, 0.0028938862960785627, 1.9203157535230275e-06, 4.421603080118075e-06, 1.6355921843569377e-06, -0.00025609173462726176, 8.110645808301342e-07, 4.852854999626288e-06, 2.93677112495061e-06, -3.631474464782514e-05, -2.111296680595842e-06, -3.3659296605037525e-05, -6.148872216726886e-06, -7.522573469032068e-06, -1.8748909496935084e-05, -3.033157372556161e-05, 7.824040949344635e-05, 2.1518493667826988e-05, -2.514809921194683e-06, -6.914586379025423e-07], [-2.3007629351923242e-05, 1.6823734767967835e-05, -4.0581468056188896e-05, -0.0004790589155163616, -0.0013977413764223456, -0.0004833280108869076, 0.0003299097588751465, 3.588103209040128e-05, -6.944320830370998e-06, 3.5834600566886365e-06, -0.005178176332265139, 4.678593541029841e-06, 7.577536052849609e-06, -2.2734616322850343e-06, 1.0987705536535941e-05, -0.00093975750496611, -0.012104938738048077, -2.9534267014241777e-05, 7.84788699093042e-06, -0.001089888741262257, -4.946529588778503e-05, 0.005240312311798334, 0.00014613797247875482, -6.274896441027522e-05, -6.110000754233624e-07, -0.00046599889174103737, 1.53273249452468e-05, -4.806467131857062e-06, -9.226362635672558e-06, -1.696233266557101e-05, 1.3976655282021966e-06, 5.27574957231991e-05, -0.00011511638149386272, 6.924685294507071e-06, 8.179962605936453e-05, -3.5478671634336933e-05, 0.00020059959206264466, 8.647798676975071e-05, -2.5230422124877805e-06, 2.2139834982226603e-05], [0.0008895331411622465, 0.0008158321143127978, -0.001388194621540606, -0.005338014103472233, -0.002051583956927061, 0.0008356113685294986, -0.0038462867960333824, 0.0009096221765503287, 5.5814602092141286e-05, -8.029778837226331e-05, 0.0007535323966294527, 4.7152603656286374e-05, 1.7047422034011106e-06, -7.956547779031098e-05, 0.00034888082882389426, 0.00999240018427372, -0.004656449891626835, 0.00032280091545544565, -0.0026371362619102, -0.002049657516181469, 0.0027727235574275255, 0.005225193686783314, 0.0014982884749770164, -0.0006959339370951056, -5.888972373213619e-05, -0.0012695128098130226, 0.0017814538441598415, 7.75304579292424e-05, 0.00016973467427305877, -0.000898699217941612, 4.855578299611807e-05, 0.00414456520229578, 0.00325584108941257, 8.476583752781153e-05, -0.004846595227718353, -0.002008281648159027, -0.001376827945932746, -0.0003794108342844993, -7.559416985714051e-07, -0.002537394408136606], [0.028531286865472794, 0.0006754659116268158, 0.12428950518369675, -0.4131214916706085, -0.33603426814079285, 0.10848715901374817, -0.41462039947509766, 0.19235913455486298, -0.01311746146529913, 0.013350061140954494, 0.16171665489673615, -0.014512471854686737, -0.001478697988204658, 0.006876775994896889, -0.006787595804780722, 0.48732781410217285, -0.0036051522474735975, 0.08300137519836426, -0.12229164689779282, 0.09773821383714676, 0.15200792253017426, -0.17756932973861694, 0.04340183734893799, -0.25219571590423584, 0.01564563252031803, -0.20322498679161072, 0.16473254561424255, -0.007921070791780949, -0.005165306851267815, -0.05109917372465134, -0.0009884837782010436, -0.09482211619615555, 0.028232939541339874, -0.006071168929338455, -0.013102103024721146, -0.11947939544916153, -0.14517827332019806, 0.03423036262392998, 0.0005409636069089174, -0.0003308914601802826], [-0.025211580097675323, 0.014513245783746243, -0.011738709174096584, 0.05191759020090103, 0.14385205507278442, 0.11808336526155472, 0.003672029823064804, 0.010862366296350956, -0.007023538928478956, 0.0024571416433900595, 0.08579474687576294, -0.001619940740056336, 0.001296541653573513, -0.00014318696048576385, -0.011155306361615658, -0.09069553017616272, 0.07394900918006897, 0.003775528632104397, -0.027341296896338463, 0.001977158011868596, 0.08241868019104004, -0.02208394929766655, 0.01428466197103262, 0.026118271052837372, 0.006774192675948143, -0.019066454842686653, -0.013741779141128063, -0.008149970322847366, 0.0009832654614001513, 0.07398944348096848, -0.004630373325198889, 0.15329787135124207, -0.00700395368039608, -0.009277128614485264, 0.0006008062628097832, -0.028999287635087967, 0.01036450918763876, -0.018204499036073685, -0.003029572544619441, -0.0005343108787201345], [0.020651577040553093, -0.03261656314134598, 0.03777194768190384, -0.057770390063524246, 0.025445787236094475, -0.004857326857745647, 0.023911161348223686, -0.016151998192071915, 0.0030291827861219645, -0.0038979642558842897, 0.043720461428165436, 0.004589094314724207, 0.0007922521326690912, -0.0028666884172707796, 0.016715649515390396, 0.008803986012935638, 0.1919945776462555, 0.021076157689094543, 0.010325995273888111, -0.15321345627307892, -0.08432812243700027, -0.06800910830497742, -0.06288363039493561, 0.0749334990978241, -0.004286068491637707, -0.026706689968705177, -0.017781710252165794, -0.003349585458636284, 0.003097433829680085, -0.05979160591959953, -0.0007180130924098194, 0.02522740326821804, -0.09386035799980164, 0.007254330441355705, 0.026325499638915062, 0.051647018641233444, -0.06821786612272263, -0.04449313506484032, -0.0013083365047350526, 0.0043460107408463955], [0.04227398708462715, 0.008034506812691689, 0.01718282699584961, -0.14739260077476501, -0.3773709237575531, -0.24982157349586487, 0.36177095770835876, 0.06718361377716064, -0.010328924283385277, 0.0012636248720809817, -0.5511771440505981, 0.004441244062036276, -0.0020653412211686373, 0.006386895198374987, -0.028177903965115547, -0.14629386365413666, -1.2493983507156372, 0.197806254029274, -0.05359442159533501, -0.025799982249736786, -0.03267812356352806, 0.7076989412307739, 0.19045530259609222, -0.10152440518140793, 0.006851202342659235, -0.34038621187210083, 0.06198006123304367, 0.07546770572662354, -0.004136491566896439, -0.06941869854927063, -0.009501478634774685, 0.11385716497898102, -0.023913010954856873, 0.006935618817806244, -0.2331094741821289, -0.09757710248231888, 0.1055256575345993, 0.0965285450220108, -0.007579525467008352, -0.0940229743719101], [0.02645670436322689, -0.13027995824813843, 0.02869708649814129, 0.11714884638786316, -0.32296404242515564, 0.031716927886009216, -0.12811295688152313, -0.11384180933237076, 0.0027951118536293507, 0.0016091475263237953, -0.03909607604146004, -0.0010976659832522273, -0.001531518530100584, -0.00020741134358104318, 0.011425022967159748, 0.1840086728334427, -0.031432945281267166, 0.009804659523069859, -0.09738035500049591, 0.19227831065654755, 0.160209521651268, 0.15045441687107086, 0.20024192333221436, -0.11070247739553452, -0.003095954190939665, -0.24029946327209473, -0.12582285702228546, 0.032108526676893234, -0.0019347647903487086, -0.07021022588014603, 0.0039067515172064304, 0.012068203650414944, 0.054918576031923294, 0.01577792316675186, -0.009744455106556416, 0.1698695719242096, 0.1065160483121872, 0.06684228032827377, 0.004340198822319508, -0.03158377856016159], [0.041253406554460526, 0.08200366050004959, 0.021624084562063217, -0.21798795461654663, -0.5400349497795105, -0.2604619562625885, 0.47632336616516113, -0.057770855724811554, 0.0038116388022899628, -0.0034877057187259197, -0.46640026569366455, -0.0009363972349092364, -0.001196518773213029, 0.002860578941181302, 0.051414452493190765, -0.4299945533275604, -1.184239149093628, 0.08978033810853958, 0.05093282461166382, -0.35157015919685364, 0.164237841963768, 0.8980085849761963, -0.012184902094304562, -0.07616177201271057, -0.00272188987582922, -0.2636100947856903, 0.03646660968661308, -0.015993863344192505, 0.00144309236202389, -0.08577033132314682, 0.00681821396574378, 0.05198656767606735, -0.031321700662374496, 0.04175567626953125, -0.09258696436882019, -0.030221935361623764, -0.01598643884062767, 0.02961639314889908, 0.007703334093093872, 0.024188321083784103], [0.05141669884324074, 0.06479910016059875, 0.3637787103652954, -0.06450287997722626, -0.32454052567481995, -0.47278305888175964, 0.18593285977840424, 0.10593188554048538, -0.0036320609506219625, 0.002990762935951352, -0.45627549290657043, 0.0007645614678040147, -0.000641868042293936, 0.0045114560052752495, 0.05493367090821266, -0.09362189471721649, -0.3328399658203125, 0.06922338157892227, -0.03689045086503029, -0.17579279839992523, 0.0867493599653244, 0.22308282554149628, -0.08619116246700287, 0.02573535218834877, 0.00025425024796277285, 0.03175931051373482, -0.009367006830871105, -0.03926539048552513, -0.003691094694659114, -0.18463607132434845, 0.0013112672604620457, -0.48662975430488586, -0.14379140734672546, 0.02159901335835457, 0.11111679673194885, -0.2595444917678833, -0.03224819526076317, -0.12326416373252869, 0.00040653764153830707, 0.03995152562856674], [0.009483355097472668, -0.04945649206638336, 0.06472963839769363, -0.11688212305307388, -0.25977662205696106, -0.04601755365729332, 0.10062052309513092, 0.058611635118722916, 0.011882174760103226, -0.0173962339758873, -0.39366427063941956, 0.022638291120529175, 0.004420421551913023, -0.0034831545781344175, 0.0005060320836491883, -0.19108816981315613, -0.8000533580780029, 0.1008865237236023, -0.1506594866514206, -0.10196715593338013, -0.05812763795256615, 0.3843488395214081, 0.09533987939357758, 0.025989782065153122, -0.017907142639160156, -0.25743567943573, -0.08564082533121109, 0.04375581443309784, 0.007668356876820326, 0.04962916672229767, -0.009739978238940239, -0.010322335176169872, -0.19026514887809753, 0.021619943901896477, -0.025922510772943497, -0.025184912607073784, 0.009093580767512321, 0.03145584091544151, -0.01051645539700985, -0.05422620847821236], [-0.010737273842096329, -0.03468654304742813, 0.03788125142455101, 0.17530187964439392, 0.10578236728906631, -0.026114696636795998, 0.07372073829174042, -0.02826729789376259, -0.00046679607476107776, -0.0010871629929170012, -0.07720908522605896, 0.0011966102756559849, 0.0006820971611887217, -0.0008661739411763847, 0.0033115900587290525, -0.12486719340085983, -0.02607082389295101, 0.001478904508985579, 0.007175200153142214, 0.009711300022900105, -0.016222868114709854, 0.060313042253255844, 0.004110449925065041, 0.06436291337013245, -0.00045645356294699013, 0.02984859235584736, -0.05344691127538681, -0.0066726356744766235, 0.00013475064770318568, 0.0017504944698885083, -8.534320659236982e-05, 0.027165371924638748, -0.05907268822193146, 0.0018086506752297282, 0.02418561466038227, 0.035862118005752563, 0.030406413599848747, -0.01330900751054287, -0.000337676057824865, 0.010561146773397923], [2.832930113072507e-05, -8.049891766859218e-05, 7.620768155902624e-05, -0.0014995280653238297, -0.007770188618451357, -0.00024404714349657297, 0.00036690590786747634, 3.072746767429635e-05, -1.2960845197085291e-05, 1.127915538745583e-06, -0.030971137806773186, 2.2971591533860192e-05, -6.493197361123748e-06, 1.2509483894973528e-05, 1.7319704056717455e-05, -0.0053351810202002525, -0.05049985274672508, 0.00013164413394406438, 4.6463479520753026e-05, -0.008928520604968071, -5.1769926358247176e-05, 0.03279666230082512, -7.768705108901486e-05, 2.4976185159175657e-05, 1.0589025805529673e-05, -0.001730361022055149, 2.5382671537954593e-06, 3.060952076339163e-05, 8.169881766662002e-06, 0.0001919519272632897, -1.1291840564808808e-06, 1.0556725101196207e-05, -0.00013261623098514974, 2.9693435863009654e-05, 0.00011236222053412348, -0.00021136805298738182, -0.0014408795395866036, -4.562838512356393e-05, 3.359232778166188e-06, -1.1853333489852957e-05], [0.012093547731637955, -0.0013287824112921953, -0.02229713462293148, 0.03288474678993225, -0.05597071349620819, -0.043540630489587784, 0.08290238678455353, -0.09594722837209702, 0.003200893523171544, -0.002857956336811185, 0.04214613512158394, 0.0018872799118980765, -0.0014677804429084063, -0.0007998506771400571, 0.011982982978224754, -0.027263863012194633, 0.01836225390434265, -0.09140560775995255, -0.004284673370420933, -0.05105074122548103, 0.022086888551712036, 0.04531251639127731, 0.010355518199503422, 0.010818629525601864, -0.0034073060378432274, -0.04802168905735016, -0.01652185246348381, -0.000555752485524863, 0.0013584834523499012, -0.073080874979496, 0.0014730539405718446, -0.025706050917506218, 0.015408805571496487, 0.008809694088995457, 0.03264230489730835, 0.08987689018249512, 0.0505407489836216, 0.013763345777988434, 0.0008371774456463754, 0.00507061742246151], [-0.013330405578017235, -0.00427209259942174, 0.04242921620607376, 0.09439032524824142, -0.27562206983566284, -0.10093651711940765, 0.08948960900306702, 0.07817757874727249, -0.021175384521484375, 0.01216406375169754, -0.4484560191631317, -0.010420216247439384, 0.004504404496401548, -0.0023259080480784178, -0.014239123091101646, -0.1377885341644287, -0.997917890548706, -0.033615682274103165, 0.02874106727540493, -0.13884924352169037, 0.02456636168062687, 0.7693958282470703, -0.0859832689166069, -0.05380256474018097, 0.02255832590162754, -0.23159082233905792, -0.0365072600543499, -0.018067609518766403, 0.00014673588157165796, -0.05891941487789154, -0.012859949842095375, 0.10839077085256577, 0.17005383968353271, -0.015897173434495926, 0.022668395191431046, 0.06094370782375336, -0.040791887789964676, -0.09785644710063934, -0.010747818276286125, 0.048268139362335205], [-0.0018349395832046866, -0.0011961598647758365, 0.005118983332067728, -0.011620807461440563, 0.02181907743215561, 0.007197154685854912, -0.018873341381549835, 0.007187515962868929, 1.397853975504404e-05, -1.3129925719113089e-05, 0.04165761545300484, -6.967515673750313e-06, 0.00021183521312195808, -0.00030279593192972243, 0.0006607848918065429, 0.015455679967999458, 0.0698874220252037, 0.00401344895362854, -0.0037488811649382114, 0.02552732266485691, 0.0070441304706037045, -0.05246121436357498, 0.004320280626416206, -0.00543057918548584, 2.4126735297613777e-05, 0.013855161145329475, 0.0010743007296696305, -0.0009209383279085159, 0.0005189193761907518, 0.0027471960056573153, 0.0001370661484543234, -0.0051262592896819115, 0.00862213410437107, -0.00010086106340168044, -0.00047279667342081666, -0.005999973975121975, -0.004656846635043621, 0.0009840074926614761, 5.7172153901774436e-05, -0.0013598141958937049], [-6.676526390947402e-05, 2.826373020070605e-05, 9.119945389102213e-06, -0.00011126583558507264, -0.0024263551458716393, -0.0005734977312386036, 0.0005095268716104329, 6.765890429960564e-05, -3.539532372087706e-06, -5.159268312127097e-06, -0.006685062311589718, -5.0816097427741624e-06, 5.342262738849968e-06, -8.283162742372951e-07, 1.4577326510334387e-05, -0.001650326419621706, -0.011998860165476799, -8.317698666360229e-05, 2.0615510948118754e-05, -0.0020979878026992083, -0.00016628998855594546, 0.00701614934951067, -3.1076309824129567e-05, -6.606701936107129e-05, 2.8563779324031202e-06, -0.0008789655985310674, -6.815599772380665e-05, -2.5325844035251066e-05, -1.775005330273416e-05, 2.35972893278813e-05, -4.999026259611128e-06, -1.9168715880368836e-05, -0.00030416142544709146, 1.7945403669727966e-06, 5.405067713581957e-05, 1.8012449800153263e-05, 0.00011816687765531242, 2.4907447368605062e-05, -4.878549134446075e-06, 6.562950875377283e-05], [0.01248085405677557, 0.006750031840056181, 0.06996997445821762, 0.01542006153613329, -0.03375415876507759, 0.11297547817230225, 0.04295368865132332, -0.031029365956783295, -0.007192872930318117, 0.005588766653090715, 0.047798577696084976, -0.003341088304296136, 5.213710755924694e-05, 0.0032209432683885098, 0.007856843061745167, 0.007857262156903744, -0.045755866914987564, 0.015927180647850037, -0.02639736980199814, -0.03304050862789154, 0.03492085635662079, 0.26662972569465637, 0.06214349716901779, 0.0857686921954155, 0.007052841130644083, -0.10499764233827591, -0.07480654120445251, 0.0029875903856009245, -0.003227722831070423, -0.094247967004776, -0.005719130393117666, 0.07763925939798355, -0.04466838017106056, 0.0019021750194951892, -0.04808034375309944, 0.011393713764846325, -0.01599162630736828, -0.013089366257190704, -0.004684325307607651, -0.015714820474386215], [4.0959392208606005e-05, 2.1868489056942053e-05, 6.507903890451416e-05, 0.00047087747952900827, -0.003904365235939622, -0.00018241099314764142, 0.0002115177339874208, -4.17677074437961e-05, 2.5822762381721986e-06, -1.9701246856129728e-05, -0.02169271744787693, 2.4073660824797116e-05, 3.932586878363509e-06, -1.294513140237541e-06, -9.288567525800318e-06, -0.004441446159034967, -0.036394644528627396, -9.520733146928251e-05, 1.3436618246487342e-05, -0.004277966450899839, 3.4259468520758674e-05, 0.023024767637252808, -6.154492439236492e-05, -2.8710378501273226e-06, -2.3825341486372054e-06, -0.0008070986368693411, 1.5150609215197619e-05, 1.0152041795663536e-05, -1.7472625586378854e-06, -2.5745444872882217e-05, -1.135909406002611e-05, -1.173229520645691e-06, -0.0002318361948709935, 5.374336524255341e-06, 5.7598612329456955e-05, 5.325274105416611e-05, 0.00013007626694161445, -6.821243005106226e-05, -1.3853963537258096e-05, 2.6839232305064797e-05], [0.1228465884923935, -0.10900655388832092, 0.23009976744651794, 0.014894253574311733, -0.2282618284225464, -0.19210284948349, 0.23278161883354187, -0.0850386843085289, 0.00027313947794027627, 0.004611961543560028, -0.468149334192276, -0.008008564822375774, -0.0005178668652661145, 0.0024042120203375816, -0.0006162030040286481, -0.28593572974205017, -0.9222133755683899, -0.022966185584664345, 0.2417619228363037, -0.7141573429107666, -0.05015875771641731, 0.7002907991409302, -0.003367032390087843, -0.07276446372270584, 0.003780544735491276, -0.19393795728683472, 0.12474505603313446, -0.021203892305493355, -0.00010768573702080175, -0.05569684877991676, 0.003175481455400586, -0.16706225275993347, -0.480659544467926, 0.00876384787261486, 0.15261444449424744, 0.18690873682498932, -0.08450180292129517, -0.008793362416327, 0.0031189254950731993, 0.0475553497672081], [-0.014074363745748997, 0.06211312860250473, 0.08712161332368851, -0.054031405597925186, 0.28118687868118286, -0.09287802129983902, 0.03427216410636902, 0.15301822125911713, 0.00232275971211493, -0.00456280680373311, -0.13637158274650574, 0.005057784263044596, 0.0006385404267348349, 0.0007967473939061165, -0.008538013324141502, -0.42387834191322327, -0.18026480078697205, 0.10154332220554352, -0.06219758838415146, 0.05731768533587456, -0.011267296969890594, -0.06020459160208702, -0.011877084150910378, -0.018532657995820045, -0.0044337990693748, 0.05092282593250275, 0.03676808625459671, -0.0039975447580218315, -0.0008688921225257218, 0.021421873942017555, -0.0019882565829902887, -0.10271025449037552, -0.037237364798784256, -0.006811863277107477, 0.0017419743817299604, -0.10537264496088028, -0.05123314633965492, 0.003526045009493828, -0.002772074891254306, 0.006905786227434874], [0.00020755270088557154, -0.00046643256791867316, 0.0017244793707504869, -0.0020146691240370274, -0.003057342255488038, -0.0018609196413308382, 0.0017108346801251173, 0.00010778597788885236, 7.588967491756193e-06, -7.520693179685622e-05, -0.009598703123629093, 4.696986434282735e-05, 1.1421718227211386e-05, 3.995175575255416e-05, 0.0001401186891598627, -0.0018592452397570014, -0.01345760002732277, 0.001625398057512939, -0.0007072699954733253, -0.003934708423912525, -0.0009641326032578945, 0.010243992321193218, 0.0027382182888686657, -0.0010770929511636496, -1.0465812010806985e-05, -0.0034384808968752623, -0.0007604623096995056, -4.446458115126006e-05, 0.00010774368274724111, -1.3492977814166807e-05, -1.5648880435037427e-05, 0.0031348243355751038, -0.0014906041324138641, 0.00012946125934831798, -0.0013852582778781652, -0.0012712152674794197, -0.002096246462315321, 0.0010805019410327077, -4.541895759757608e-05, 0.0004565807757899165], [0.052786581218242645, -0.042836084961891174, -0.04762404412031174, 0.01541457511484623, -0.14364685118198395, -0.2511175274848938, 0.13223960995674133, -0.09807910770177841, 0.0010572236496955156, 0.0024697165936231613, -0.06703293323516846, -0.0031727824825793505, -0.0007034675218164921, 0.0013324387837201357, 0.015006716363132, -0.05078687146306038, -0.2852363586425781, -0.02324136719107628, 0.07096835225820541, -0.10996824502944946, -0.10434511303901672, 0.11071375757455826, -0.03464210778474808, 0.05158935859799385, -0.000650955771561712, 0.030647901818156242, 0.00974476058036089, 0.004221298731863499, -0.001067636301741004, -0.11116322875022888, 0.00140860746614635, -0.2774708569049835, -0.0032350015826523304, 0.013961168937385082, 0.15640364587306976, 0.11271677166223526, 0.036972228437662125, 0.030186783522367477, 0.0003310931788291782, -0.004657845012843609], [-0.0007331899832934141, 0.0025886306539177895, 0.052325788885354996, 0.053986385464668274, 0.12078826874494553, -0.01783449947834015, -0.06656906753778458, 0.02422676421701908, -0.0010920161148533225, 0.00012524487101472914, 0.0512600839138031, 0.001163027947768569, 0.0002886534493882209, -0.0005086229066364467, 0.007405824027955532, -0.004764173645526171, 0.2219107747077942, 0.012028053402900696, -0.003373480401933193, 0.03771738335490227, -0.016513098031282425, -0.15465889871120453, -0.024371793493628502, 0.019314691424369812, 0.0003670510195661336, 0.003156977007165551, -0.04374539479613304, -0.007359799463301897, 0.0009770398028194904, -0.019877512007951736, -0.002118888543918729, -0.014644540846347809, -0.04900089651346207, 0.0038383910432457924, -0.004489145707339048, -0.0030447086319327354, -0.0027525383047759533, -0.04273439571261406, -0.0026155586820095778, 0.009094181470572948], [0.0004595138016156852, 0.013810335658490658, -0.01249048113822937, -0.053833987563848495, 0.13445547223091125, 0.100382000207901, -0.07597032189369202, -0.009295899420976639, 0.0002333645970793441, -0.00015054582036100328, 0.32819223403930664, 0.00042336349724791944, 2.941656202892773e-05, -0.0005117728724144399, -0.0012099541490897536, 0.14506232738494873, 0.5216285586357117, 0.008540688082575798, -0.0185690987855196, 0.15139459073543549, 0.04548567533493042, -0.3586224615573883, 0.01628742925822735, 0.0033103495370596647, -0.0003758050734177232, 0.07717688381671906, 0.00501694530248642, -0.0027163370978087187, 0.0006740763201378286, -0.00905576255172491, 0.00030767975840717554, -0.006660274229943752, 0.06059527397155762, -0.0019781074952334166, -0.03547093644738197, 0.01755264215171337, -0.026830138638615608, -0.012148618698120117, 0.00013220385881140828, 0.004893775098025799], [-0.011002601124346256, -0.009106805548071861, 0.05424748361110687, -0.08511742949485779, 0.025747602805495262, 0.010100457817316055, -0.04436054825782776, 0.01489277370274067, 0.0007933276356197894, 0.0036568359937518835, -0.11315060406923294, -0.0031826188787817955, -0.0004560787056107074, 0.00347316125407815, 0.009601132944226265, -0.04791584610939026, -0.177846759557724, 0.0023098133970052004, 0.010694055818021297, 0.003926638048142195, -0.05122271925210953, 0.10666541755199432, -0.01949000358581543, 0.004527956712990999, 0.00042306349496357143, -0.02434709668159485, 0.04737933352589607, -0.001459153601899743, -0.0014810734428465366, 0.02453749068081379, 0.0012077272403985262, 0.024434901773929596, -0.04962216690182686, 0.007470615208148956, 0.019190575927495956, -0.034165527671575546, -0.007263651117682457, -0.004636259283870459, 0.0009986956138163805, -0.0007115891203284264], [4.476605317904614e-05, -2.9294087653397582e-05, 2.676809162949212e-05, 0.0004797422152478248, -0.0036313405726104975, -0.0002136527036782354, 0.0002138564013876021, -7.371302490355447e-05, 4.419881406647619e-06, -1.8895341781899333e-05, -0.020539995282888412, 1.968318974832073e-05, -3.872173238050891e-06, 4.638755797259364e-07, -1.2758307093463372e-05, -0.003909087739884853, -0.034397050738334656, -9.751541801961139e-05, 3.266801650170237e-05, -0.004258333705365658, -5.375204636948183e-05, 0.02175564132630825, -0.00021526495402213186, 2.2301295757642947e-05, -9.352788765681908e-06, -0.0008710591937415302, -1.848746251198463e-05, -6.159711460895778e-07, 1.797132244973909e-05, 1.2115867320972029e-05, -2.9543987238866976e-06, -0.00018277126946486533, -0.0002473251079209149, 2.31639660341898e-06, 3.472574917395832e-06, -2.2697286112816073e-05, 0.00016748018970247358, -0.00010224356810795143, -1.0264966476825066e-05, 5.746514943893999e-06], [0.0002571336808614433, -0.0020946471486240625, 0.012816346250474453, -0.022257789969444275, 0.05532800778746605, 0.016689522191882133, -0.04205360636115074, 0.016012337058782578, -0.00014333266881294549, -1.1024381819879636e-05, 0.09287569671869278, -4.123300641367678e-06, 0.0005211200914345682, -0.0007732829544693232, -6.823529838584363e-05, 0.035554129630327225, 0.1621544510126114, 0.005898372735828161, -0.0077592250891029835, 0.05622974783182144, 0.016070997342467308, -0.1208338513970375, 0.004639749880880117, -0.010463896207511425, 0.00014835601905360818, 0.03487934172153473, -4.4607342715607956e-05, 7.034391455817968e-05, 0.0010099547216668725, 0.006301390938460827, 0.00010552717867540196, -0.013731291517615318, 0.016265708953142166, -7.371255196630955e-05, 0.0005710285040549934, -0.014166009612381458, -0.010023402981460094, 0.0008267887169495225, 4.1691819205880165e-05, -0.00527169369161129], [0.026240937411785126, -0.010853467509150505, -0.021415870636701584, -0.06658972054719925, -0.07951483875513077, 0.004243053030222654, 0.01055283285677433, -0.019729841500520706, 0.0013561862288042903, 0.00015640116180293262, 0.07071229815483093, -0.0005549761117435992, 0.00014829414431005716, -0.0006626394460909069, 0.0037012810353189707, 0.055094070732593536, 0.058834683150053024, -0.008650916628539562, -0.02944413758814335, -0.07476108521223068, 0.01414601318538189, 0.03844832628965378, 0.017336908727884293, 0.022314921021461487, -0.0007484670495614409, -0.09634813666343689, -0.010575609281659126, 0.00726997060701251, 0.0011787579860538244, -0.054152559489011765, 0.0011052036425098777, -0.0006008374621160328, 0.0038830649573355913, 0.004238182213157415, -0.005555920302867889, 0.031220823526382446, -0.03238126263022423, 0.006891572382301092, 0.001135332160629332, -0.011519285850226879], [0.008186795748770237, -0.004786841571331024, 0.015314090996980667, -0.03592465817928314, -0.006604828871786594, -0.039959121495485306, 0.04262224957346916, -0.03744129836559296, 0.0001405772054567933, -2.471500374667812e-05, -0.07695045322179794, -0.0002095694944728166, -9.110454993788153e-05, 0.0004341269377619028, 0.003773968666791916, -0.0037433074321597815, -0.14302432537078857, 0.07810270041227341, 0.00022871857800055295, -0.09388627111911774, -0.02297666296362877, 0.10360010713338852, 0.009361005388200283, 0.007129956036806107, 6.582854257430881e-05, -0.05363339185714722, -0.0005456455401144922, -0.0035694073885679245, 4.058455670019612e-05, -0.012812084518373013, 0.00015513997641392052, -4.761403761222027e-05, -0.034482698887586594, 0.0010905740782618523, 0.008008827455341816, 0.015997810289263725, -0.06358502060174942, 0.012709236703813076, -2.7324726033839397e-05, 0.00478854775428772], [-0.03011096641421318, 0.03062702715396881, 0.22029222548007965, 0.028756896033883095, 0.254738986492157, 0.004515672102570534, 0.03658663481473923, 0.038404032588005066, 0.00022711731435265392, -0.0013199381064623594, -0.17019857466220856, 0.0018889072816818953, 0.001208144472911954, -0.003583976300433278, 0.014928932301700115, -0.11968757957220078, 0.11742585897445679, 0.05305885151028633, -0.002666901098564267, -0.03493259847164154, -0.0006925029447302222, 0.01781032420694828, -0.003926822915673256, 0.09823879599571228, -0.0013882184866815805, 0.09348321706056595, -0.0185272004455328, 0.0028275898657739162, 0.001807941123843193, 0.02664034813642502, -9.123275231104344e-05, 0.021871667355298996, -0.21556425094604492, 0.003041368443518877, 0.05909731611609459, -0.1570565104484558, -0.035525158047676086, -0.05685324966907501, -0.00026545076980255544, -0.016288258135318756], [0.008683798834681511, -0.05888119712471962, 0.10871070623397827, 0.02858620695769787, 0.11436498910188675, -0.20502185821533203, 0.2800295352935791, -0.20845530927181244, -0.005076001398265362, -0.009783959947526455, -0.04388857260346413, 0.016962463036179543, 0.006985166575759649, -0.0024906969629228115, 0.012236913666129112, 0.186775341629982, 0.19118016958236694, -0.11836431175470352, -0.013193960301578045, -0.6455644369125366, -0.016549168154597282, -0.1766568124294281, -0.027594374492764473, 0.19416923820972443, -0.002669582376256585, 0.05497624725103378, -0.03806963562965393, -0.03901541233062744, 0.000198052468476817, 0.06931641697883606, -0.010550159960985184, 0.07789546996355057, -0.13167527318000793, 0.011064399965107441, -0.02936531975865364, -0.010805932804942131, -0.06051235646009445, -0.12737654149532318, -0.010478525422513485, 0.07041576504707336], [-0.008216667920351028, 0.0645345002412796, 0.11361702531576157, -0.09779280424118042, 0.12344446033239365, 0.044740743935108185, -0.05174953117966652, -0.03546905517578125, 0.0059194415807724, -0.0023473817855119705, -0.020389748737215996, -8.5942774603609e-05, 0.0007699359557591379, 0.0008945391746237874, 0.0277756005525589, -0.22593693435192108, 0.2763412594795227, -0.03126533329486847, 0.0662049725651741, 0.19646625220775604, 0.006672683637589216, -0.13154907524585724, -0.06287863850593567, 0.11913859099149704, -0.0033702868968248367, -0.004395466763526201, -0.12691152095794678, -0.003890566062182188, 0.002475444693118334, -0.01637754775583744, 0.003364803036674857, -0.005398283246904612, -0.13959187269210815, -0.004945310298353434, 0.03925320878624916, 0.08998645842075348, 0.13212987780570984, 0.02718151919543743, 0.0026369262486696243, 0.00025680725229904056], [0.006490638013929129, 0.06457864493131638, -0.04391038417816162, 0.08702988177537918, 0.5164816379547119, 0.12866251170635223, -0.24158737063407898, 0.02643498219549656, 0.0005332067958079278, -0.0032713094260543585, 0.4956291615962982, 0.005129112862050533, -0.0006726263673044741, 0.0004225853190291673, 0.017373835667967796, 0.16616076231002808, 0.621120274066925, -0.023359034210443497, -0.06243603676557541, 0.5969709753990173, -0.004485070705413818, -0.44095027446746826, -0.04435107484459877, -0.0266872551292181, -0.0009604585357010365, 0.21040166914463043, -0.08231990784406662, -0.03258717805147171, -0.0008482953999191523, -0.08367831259965897, 0.003188231261447072, -0.06436891108751297, 0.1725289523601532, -0.001669374410994351, -0.007173808291554451, -0.014973052777349949, -0.05711621046066284, -0.06031147390604019, 0.0047146654687821865, 0.04562428221106529], [0.0011949142208322883, 0.03895406052470207, -0.1289404034614563, -0.03285667300224304, 0.0950310155749321, -0.005601915530860424, 0.1453804224729538, -0.09514018148183823, 0.005821087397634983, -0.003950173035264015, 0.16117919981479645, 0.002812775317579508, 0.0028438474982976913, -0.0058855353854596615, -0.004749150015413761, 0.06074671447277069, 0.34416645765304565, -0.054942335933446884, 0.009304088540375233, 0.16784319281578064, -0.007042434066534042, -0.14429336786270142, -0.01915265992283821, 0.09645583480596542, -0.003851973684504628, 0.041721832007169724, -0.03819023817777634, -0.004441554192453623, 0.006301441695541143, -0.02693920210003853, 0.0009672014857642353, 0.043872736394405365, 0.03595294803380966, -0.003951513208448887, -0.024067239835858345, 0.01577073149383068, 0.07865876704454422, 0.005909542087465525, 0.002526903059333563, -0.0026486313436180353], [0.0003157996106892824, 0.004290739074349403, 0.009781968779861927, 0.04055190831422806, -0.006860573776066303, 0.0013017000164836645, -0.011859007179737091, 0.005546713713556528, -0.0016757315024733543, 0.005821872502565384, 0.01231708750128746, -0.006589564029127359, -0.00018632337742019445, 0.0007706014439463615, -0.004482551943510771, -0.09456038475036621, 0.00798117183148861, -0.049551330506801605, -0.009772620163857937, 0.058273788541555405, -0.0009670775034464896, 0.03211120143532753, 0.005505700130015612, 0.020631706342101097, 0.002872396958991885, -0.06841506063938141, 0.008135376498103142, 0.012662467546761036, -0.0011049045715481043, -0.022377831861376762, 0.003544366220012307, 0.019844550639390945, 0.00942043587565422, -0.0008840254158712924, -0.01320846751332283, 0.016194704920053482, 0.05822918191552162, 0.005520714446902275, 0.0032570860348641872, -0.02491731569170952], [-5.528680776478723e-05, 6.664725333394017e-06, 6.825312448199838e-05, 3.976995139964856e-05, -0.00377701036632061, -7.799407467246056e-05, 0.00017403428500983864, 9.790153126232326e-05, -1.939857247634791e-05, -2.4624656361993402e-05, -0.023953447118401527, -5.619812782242661e-06, -3.7888828501309035e-06, -1.763609907357022e-05, 2.309397495992016e-05, -0.004965166095644236, -0.03912774473428726, 0.0001359221205348149, -4.8324104682251345e-06, -0.004980891477316618, -4.111813541385345e-05, 0.024814970791339874, 5.485464134835638e-05, 1.0542741620156448e-05, -2.649157522682799e-06, -0.0007176782819442451, -1.8493537936592475e-05, 1.3827531120114145e-06, -7.39729739507311e-06, 5.3215830121189356e-05, 6.19897264186875e-06, 4.0757797250989825e-05, -0.00017809672863222659, 1.9103310478385538e-05, 3.2330544854630716e-06, -0.00015361543046310544, -0.0002494780346751213, 2.211506171079236e-06, 5.419758053903934e-06, -4.6742043195990846e-05], [8.920758409658447e-05, -9.640871576266363e-05, -8.460164099233225e-05, -0.0007518995553255081, -0.00846821814775467, -0.001204070053063333, 0.0011618558783084154, -1.650513877393678e-05, -1.1494275895529427e-06, 5.908740604354534e-06, -0.030696406960487366, 1.6527381376363337e-05, -6.76986928738188e-06, -8.666847861604765e-07, 1.4868500102238613e-06, -0.00900916289538145, -0.04522322118282318, 0.0001416589366272092, 7.968093268573284e-05, -0.010271492414176464, -0.00018299432122148573, 0.03171581029891968, -0.0003213065501768142, 5.9609599702525884e-05, -1.7697026351015666e-06, -0.0025106342509388924, -5.8740897657116875e-06, 6.839436991867842e-06, -5.763588887930382e-06, 5.673807390849106e-05, -8.57918678320857e-07, -5.040991891291924e-05, -0.00012296350905671716, 9.97400547930738e-06, 0.0001498189812991768, -9.796745871426538e-05, -0.0013955797767266631, -0.0001290039363084361, 5.243972736934666e-06, 1.7056130673154257e-05], [-0.03777928650379181, -0.06430885940790176, 0.19919802248477936, -0.05717518925666809, -0.06548375636339188, 0.03983858600258827, 0.2992365062236786, -0.26585403084754944, -0.002295549726113677, 0.0012220864882692695, 0.05458122864365578, -0.002916828030720353, 0.0003783548017963767, -0.002033319091424346, 0.06787202507257462, -0.022501228377223015, 0.11151961237192154, -0.10784773528575897, -0.04987494274973869, -0.05237230658531189, -0.05967622622847557, -0.06119954586029053, 0.06089405342936516, 0.1632050722837448, 0.0031253639608621597, 0.00892495084553957, 0.07745152711868286, -0.04433663561940193, 0.0013005268992856145, -0.12245453149080276, 0.0018794392235577106, 0.18353286385536194, -0.16704371571540833, 0.03617081418633461, 0.09093384444713593, 0.06524215638637543, 0.05873923376202583, -0.03191215917468071, 5.523027721210383e-05, 0.05149685591459274], [9.801116539165378e-05, -8.40310676721856e-05, 4.159177842666395e-05, -0.002204959047958255, -0.004725070670247078, -0.0003969322715420276, 0.00028220232343301177, -5.264030914986506e-05, 1.4224057849787641e-05, -5.6910025705292355e-06, -0.027516979724168777, 1.519665602245368e-06, 1.6634426174277905e-06, 6.628092705796007e-06, -2.5419916710234247e-05, -0.0046666949056088924, -0.04701536148786545, 0.00010955650213873014, 0.00014605426986236125, -0.005517542827874422, -0.00022186806017998606, 0.028954684734344482, -0.00036925854510627687, 0.00012241474178154022, -2.166497870348394e-05, -0.001015227404423058, 4.240488851792179e-05, 1.3667747680301545e-06, -1.2208919542899821e-05, 3.319587995065376e-05, -2.054560354736168e-05, -2.9930026357760653e-05, -0.0002180776500608772, 1.2538465853140224e-05, 0.0002004594571189955, -0.00016862906340975314, -0.0016065454110503197, -0.00015525163325946778, -2.2422082111006603e-05, 1.133691739596543e-06], [-2.8506316084531136e-05, 9.348389539809432e-06, -6.785269761167001e-06, -9.303550541517325e-06, -0.0006018757703714073, -4.521519804256968e-05, 0.00012379522377159446, 4.309318319428712e-05, 3.9833676623857173e-07, -2.4966780074464623e-06, -0.002315597841516137, 4.383332907309523e-06, 1.6432466054538963e-06, -5.206691753301129e-07, 1.2999328646401409e-05, -0.0005873506888747215, -0.005539869423955679, 4.23471828980837e-05, -8.092072675935924e-06, -0.0005056450609117746, 8.924701432988513e-06, 0.002484471770003438, 3.1393449262395734e-06, 1.577935654495377e-05, 4.988973500985594e-07, -0.0001841726480051875, -8.275943400803953e-06, 4.5891115405538585e-06, 1.6422295630036388e-06, -3.3532516681589186e-05, -1.4151946743368171e-06, -2.9471179004758596e-05, 2.039060382230673e-05, -5.979003617540002e-06, -1.6159832739504054e-05, -2.741909156611655e-05, 0.00010918389307335019, 3.0305965992738493e-05, -1.2756529486068757e-06, 8.719493962416891e-06], [-2.2565505787497386e-05, 1.245430303242756e-05, -3.1969266274245456e-05, -0.0002949798363260925, -0.0010764887556433678, -0.00034829662763513625, 0.00027611677069216967, 3.419708082219586e-05, 5.541768132388825e-06, -1.236134608006978e-06, -0.004076327197253704, -2.558770802352228e-06, 7.87749740993604e-06, -8.983305633591954e-06, -1.0719839337980375e-05, -0.0007638492388650775, -0.009385715238749981, -1.969126969925128e-05, 5.651328137901146e-06, -0.0008332394063472748, -3.659181675175205e-05, 0.004092498682439327, 0.00012637488543987274, -5.1537270337576047e-05, -2.1833900518686278e-06, -0.00034083431819453835, 7.037780596874654e-05, -1.7353788280161098e-05, -3.303547089217318e-07, -3.495228156680241e-05, -8.818316246106406e-07, -4.484447799768532e-06, -8.09837511042133e-05, 5.91730531596113e-06, 9.258773206965998e-05, -3.183270018780604e-05, 0.0002555703977122903, 6.732007750542834e-05, 1.826808897931187e-06, -7.160572295106249e-07], [0.0009521743049845099, 0.0006226301775313914, -0.0008070179610513151, -0.0022243668790906668, -0.004625027999281883, -0.0009688422433100641, -0.0014506912557408214, 0.0005673642153851688, 6.943308108020574e-05, -6.212492735357955e-05, -0.005946797784417868, 1.657667053223122e-05, -1.924434218381066e-05, -6.42577579128556e-05, 0.0004003619833383709, 0.006717460695654154, -0.015277780592441559, -2.8453287086449564e-05, -0.0022010861430317163, -0.003671805141493678, 0.002743358490988612, 0.012002181261777878, 0.0017903734697028995, -0.0004932163865305483, -5.234188574831933e-05, -0.0025148247368633747, 0.0017547296592965722, -0.00020113536447752267, 0.00013180536916479468, -0.00144020130392164, 5.0962735258508474e-05, 0.004482281394302845, 0.0016197051154449582, -9.736429092299659e-06, -0.004327242262661457, -0.0018685791874304414, 0.0009597520693205297, -0.0005415589548647404, -4.1409896311961347e-07, -0.002139796270057559], [0.09760859608650208, -0.010231099091470242, -0.006020607892423868, 0.067167267203331, 0.431028813123703, -0.0526786744594574, 0.25504904985427856, 0.022243458777666092, -0.01678677648305893, 0.010467556305229664, 0.21722668409347534, -0.011239884421229362, 0.0011225140187889338, 0.004176915157586336, -0.018230298534035683, -0.1116129532456398, 0.24718336760997772, -0.19500595331192017, 0.038047127425670624, -0.4448792040348053, -0.028261283412575722, -0.24539503455162048, -0.0737021341919899, 0.1703382134437561, 0.016679802909493446, 0.08999953418970108, 0.007932634092867374, 0.01729487255215645, -0.0013917972100898623, -0.09346504509449005, -0.006520016118884087, -0.01588762179017067, -0.16815543174743652, 0.0034257627557963133, 0.010963034816086292, -0.059896014630794525, 0.12554791569709778, 0.008935462683439255, -0.004491907078772783, -0.006728790700435638], [-0.04306084290146828, 0.020312758162617683, -0.027530724182724953, 0.002452326938509941, 0.29018333554267883, 0.15225717425346375, 0.0018781318794935942, 0.004510430619120598, -0.01111607812345028, 0.003234656061977148, 0.1459789127111435, -0.0023604384623467922, 0.00064258644124493, 0.0017953998176380992, 0.008812976069748402, 0.05312439054250717, 0.18584732711315155, -0.006051480304449797, -0.03244342282414436, 0.09328373521566391, 0.09621455520391464, -0.3838169276714325, -0.02845282480120659, 0.09042350202798843, 0.009904435835778713, 0.09281143546104431, -0.026367535814642906, -0.008267977274954319, 0.0016169933369383216, 0.10238907486200333, -0.00907086580991745, 0.17843878269195557, 0.0009223119704984128, -0.0004785116179846227, 0.04218655452132225, -0.10805591940879822, -0.08508634567260742, -0.03117532469332218, -0.006959536112844944, 0.003326169913634658], [-0.00631417240947485, 0.0299580879509449, -0.02012317255139351, -0.02886993996798992, -0.013149022124707699, 0.02548975497484207, -0.03404029458761215, 0.04010551795363426, 2.593167118902784e-05, 0.001419440726749599, 0.06610134989023209, -0.0018421635031700134, 8.083107968559489e-05, 0.0004752138920594007, 0.012020286172628403, 0.13554875552654266, 0.16447943449020386, 0.02377500757575035, -0.07696948200464249, 0.17535977065563202, 0.0851498618721962, -0.08128362149000168, 0.03694820776581764, -0.04221095144748688, 0.00010597092477837577, 0.010205031372606754, -0.017763959243893623, -0.00492069311439991, 0.0003395539242774248, -0.007925375364720821, 0.001324981451034546, 0.0033633876591920853, 0.09811851382255554, 0.003366779303178191, 0.008543613366782665, -0.09465086460113525, 0.027275867760181427, 0.014590833336114883, 0.0012240606592968106, 0.0013315887190401554], [0.008699331432580948, 0.05435332655906677, 0.019587012007832527, 0.17272230982780457, 0.4722318649291992, 0.09679876267910004, -0.06720220297574997, -0.029833298176527023, 0.007075720466673374, 0.0011257075238972902, 0.6617839336395264, -0.005847930442541838, -0.005095305386930704, 0.006909157149493694, 0.012364694848656654, 0.3318586051464081, 1.2531450986862183, -0.045879121869802475, -0.04750555753707886, 0.17713633179664612, -0.0018137483857572079, -0.8343521952629089, -0.052303094416856766, 0.05070102959871292, -0.00022523353982251137, 0.304157018661499, -0.10777890682220459, -0.003826126456260681, -0.0013858377933502197, -0.06162312626838684, 0.006785957142710686, -0.05850199982523918, 0.07451947033405304, 0.009704160504043102, 0.0017414243193343282, 0.0022857270669192076, 0.10242915898561478, -0.06332717835903168, 0.005229460075497627, 0.007334789261221886], [0.05967069789767265, -0.03330617398023605, 0.04091498628258705, -0.10904604941606522, 0.07995585352182388, 0.1400551199913025, -0.11790596693754196, 0.10774803906679153, 0.006396757438778877, 0.00429680896922946, 0.2294050008058548, -0.004718138836324215, 0.0005741326604038477, 0.0006949391099624336, -0.014670148491859436, 0.6616263389587402, 0.29283156991004944, 0.028659380972385406, -0.12289304286241531, -0.30149224400520325, 0.07222440093755722, -0.13724906742572784, 0.09784092754125595, -0.10963865369558334, -0.00515920203179121, -0.1385132074356079, -0.07385020703077316, 0.023968013003468513, -0.0019824441988021135, -0.05520137771964073, 0.0035094113554805517, 0.11354754865169525, 0.078342504799366, -0.0036001685075461864, -0.10313928127288818, 0.016909366473555565, -0.09330237656831741, 0.041761934757232666, 0.0009804685832932591, 0.004432264249771833], [0.015698136761784554, -0.03205535560846329, -0.09505132585763931, 0.43204712867736816, 0.5412402153015137, 0.08521269261837006, -0.10650981962680817, -0.01620442047715187, -0.0010559858055785298, -0.006932985968887806, 0.6814157962799072, 0.004980460274964571, 0.0011619925498962402, 0.0032611226197332144, 0.0018333211774006486, 0.5046583414077759, 1.3703287839889526, 0.03083450347185135, -0.0038033195305615664, 0.13524289429187775, -0.1151546761393547, -0.9184877872467041, 0.059671007096767426, 0.021447498351335526, -0.0002944930165540427, 0.39327922463417053, -0.15398278832435608, -0.0724840834736824, -0.002523492556065321, -0.0036008143797516823, -0.001623678719624877, -0.04431229829788208, 0.12601864337921143, -0.015855271369218826, 0.039414677768945694, 0.043328963220119476, 0.07742928713560104, -0.00913020595908165, -0.004997699521481991, 0.11006876826286316], [-0.0834108218550682, 0.0056012412533164024, -0.01639650948345661, 0.0667952373623848, 0.15733422338962555, 0.21624857187271118, 0.019189884886145592, -0.03809834644198418, -0.0021543672773987055, 0.004423546604812145, 0.3449386656284332, -0.0016826781211420894, 0.00040823972085490823, 0.0020934599451720715, 0.038770757615566254, 0.4575532376766205, 0.6442607641220093, 0.004500586073845625, -0.0522167943418026, 0.24281126260757446, 0.05163433775305748, 0.1465682089328766, 0.0002648370573297143, 0.08884873241186142, -0.000920154619961977, 0.1144537553191185, 0.05905218422412872, -0.04319939389824867, -0.002546863164752722, -0.05162015184760094, 0.0008858864894136786, 0.03595731779932976, 0.30432194471359253, 0.008451399393379688, 0.048989955335855484, -0.04957294091582298, -0.022147148847579956, -0.01160587277263403, 0.0006061210879124701, 0.03258999064564705], [0.019836854189634323, 0.009072675369679928, 0.059104565531015396, 0.08806520700454712, 0.34401506185531616, 0.1098233237862587, 0.02346416562795639, -0.040724463760852814, 0.000884449400473386, -0.00669891620054841, 0.4151349663734436, 0.0020412623416632414, 0.0003949794627260417, -0.0017475966596975923, 0.02874896489083767, 0.29109132289886475, 0.8869541883468628, -0.0037693206686526537, 0.07030053436756134, 0.12682859599590302, -0.059116180986166, -0.2483566552400589, -0.024164382368326187, 0.04143516719341278, -0.00014144086162559688, 0.24105477333068848, 0.07295215874910355, 0.0013386450009420514, 0.010228052735328674, -0.1167718842625618, -0.006524354685097933, -0.10463046282529831, 0.01732805371284485, 0.01871323026716709, 0.16433709859848022, 0.033769190311431885, 0.02995244786143303, 0.028191743418574333, -0.005244550760835409, 0.010568915866315365], [0.0018010531784966588, -0.012075397185981274, -0.017089761793613434, 0.2051890343427658, 0.0514516681432724, -0.019856616854667664, 0.18837334215641022, -0.1275753229856491, 0.00046956169535405934, -0.003070066450163722, 0.01558416336774826, 0.0026354361325502396, 0.0001339250593446195, -0.0003801268758252263, 0.003661647206172347, -0.07458895444869995, 0.10027384757995605, -0.03741876780986786, 0.01776297390460968, -0.029269687831401825, -0.024550318717956543, 0.10789694637060165, 0.01552302110940218, 0.13602924346923828, -0.0016108726849779487, -0.013504543341696262, -0.07184411585330963, -0.008197594434022903, -0.00046854294487275183, -0.042978715151548386, -0.0001798608573153615, 0.06731544435024261, -0.037904392927885056, 0.0003164097142871469, 0.005568630062043667, 0.07450652867555618, 0.023709172382950783, -0.011457239277660847, -0.0003879575524479151, 0.010931084863841534], [-6.4014379859145265e-06, -4.538513530860655e-05, 0.0001342629548162222, -0.001231773872859776, -0.003990227356553078, -0.00018490767979528755, 0.00019508150580804795, 7.709350757068023e-05, -7.823379746696446e-06, -1.926624827319756e-05, -0.023577911779284477, 1.7895395103550982e-06, -4.527380497165723e-06, -4.0293202800967265e-06, 3.2619850571791176e-06, -0.0028512785211205482, -0.04141572117805481, 0.0001414030703017488, 4.3380598071962595e-05, -0.005246075801551342, -7.039305637590587e-05, 0.025233983993530273, -8.452840120298788e-05, 1.4399462997971568e-05, 3.3215287658094894e-06, -0.000676149851642549, -1.5767946024425328e-05, 1.1497813829919323e-05, -3.2162872685148614e-06, 0.0001421773195033893, 5.127509666635888e-06, -2.417670657450799e-05, -0.00015981087926775217, -1.0056924111268017e-05, 8.852155588101596e-05, -0.0002016333455685526, -0.0008383555104956031, -3.0812083423370495e-05, -1.1358898746038903e-06, -3.7633359170285985e-05], [0.04449974745512009, 0.005838401149958372, -0.03588997572660446, -0.03765803575515747, -0.003902289317920804, -0.13163137435913086, 0.14881639182567596, -0.11569184064865112, 0.005727799143642187, -0.004727797117084265, 0.07596424967050552, 0.0032173222862184048, -0.0022570884320884943, -0.0006473068497143686, 0.012987392954528332, 0.009852958843111992, 0.06583686918020248, -0.1032334715127945, 0.012681577354669571, -0.16020545363426208, -0.01621546782553196, 0.0023728397209197283, -0.01654757373034954, 0.009816675446927547, -0.006010887678712606, -0.08140105754137039, -0.022306693717837334, 0.0007862279308028519, 0.001132190809585154, -0.13474029302597046, 0.0020767850801348686, -0.09549830853939056, 0.025504516437649727, 0.010478196665644646, 0.05487925931811333, 0.11787424236536026, 0.0037312181666493416, 0.007883844897150993, 0.0010415131691843271, 0.009197540581226349], [0.03159911930561066, -0.06626436114311218, -0.004952200222760439, 0.11838755756616592, 0.4080295264720917, 0.007242549676448107, -0.09035826474428177, -0.007941442541778088, -0.016926251351833344, 0.012341194786131382, 0.5039102435112, -0.0034027087967842817, 0.0029513388872146606, -0.006619361694902182, -0.0036843097768723965, 0.2462594360113144, 1.0725845098495483, 0.1122208759188652, -0.011039438657462597, 0.21680688858032227, 0.0614364929497242, -0.6456734538078308, 0.24139022827148438, 0.0007358631119132042, 0.013506276533007622, 0.2812872529029846, 0.05447954684495926, 0.02069394662976265, 0.00010881315392907709, -0.0428687259554863, -0.014861376956105232, -0.10084474831819534, 0.17599283158779144, 0.0006864347378723323, 0.018061676993966103, 0.07139652222394943, -0.0650394856929779, 0.03338804841041565, -0.012192935682833195, -0.03627093508839607], [-0.0018346963915973902, 0.0002091662463499233, 0.0011587366461753845, -0.008328870870172977, -0.026246171444654465, -0.008672441355884075, 0.001656409353017807, -3.554731665644795e-05, 0.00011984825687250122, -7.113334140740335e-05, -0.03434482589364052, 5.463941488415003e-05, 8.755403541726992e-06, -4.371399700175971e-05, 0.0008625714690424502, -0.009281539358198643, -0.049964431673288345, 0.004933930933475494, -0.0023030457086861134, -0.008527926169335842, 0.0016548896674066782, 0.029889486730098724, 0.0009354699868708849, -0.003905870486050844, -5.923159551457502e-05, -0.012681491672992706, 0.002268628915771842, -0.0006625066162087023, 0.00022739583801012486, 0.0011076083173975348, 0.00014744128566235304, 0.0015430630883201957, -0.0026780806947499514, 0.00020537289674393833, 0.0002856353821698576, 0.00022052289568819106, 0.0014410712756216526, -0.00038982881233096123, 6.603428482776508e-05, 0.0008158779819495976], [-7.830833055777475e-05, 3.07508853438776e-05, 1.9442308257566765e-05, -0.000128131388919428, -0.002009637886658311, -0.0004795924760401249, 0.0004417079617269337, 7.919445488369092e-05, 6.312771802186035e-06, -4.523847110249335e-06, -0.0060011339373886585, -3.398248736630194e-06, 7.827692570572253e-06, 1.4081800827625557e-06, 1.2465498912206385e-05, -0.0013307025656104088, -0.010651898570358753, -8.377659105462953e-05, 3.0742203307454474e-06, -0.0016745880711823702, -0.00012104049528716132, 0.0063024586997926235, -1.0182627192989457e-05, -5.8340010582469404e-05, 1.0242784810543526e-05, -0.0007014756556600332, -5.2752184274140745e-05, -2.5423547413083725e-05, -1.6963975213002414e-05, 1.4141627616481856e-05, -4.292765424906975e-06, -5.991837315377779e-05, -0.00023429535212926567, -6.2763997448200826e-06, 5.415342093328945e-05, -6.569584002136253e-06, 0.00013478509208653122, 1.4464959349425044e-05, -7.1722292886988726e-06, 6.72740934533067e-05], [0.025110680609941483, 0.02871049754321575, 0.08405809104442596, 0.10969685763120651, 0.0710572823882103, 0.09525386244058609, 0.13740622997283936, -0.03275792673230171, -0.007575802970677614, 0.0058724344708025455, 0.2088388204574585, -0.0029571610502898693, -0.00012036220141453668, 0.004199109505861998, 0.011164134368300438, 0.21493187546730042, 0.20719297230243683, 0.017796874046325684, -0.009561408311128616, -0.10690663009881973, -0.006314708385616541, 0.18652620911598206, 0.05162927508354187, 0.08865589648485184, 0.00729599641636014, -0.07957584410905838, -0.11162837594747543, -0.007410384714603424, -0.0031399668660014868, -0.14577405154705048, -0.009406143799424171, 0.08563126623630524, -0.04877264052629471, 0.0011229505762457848, -0.057868435978889465, -0.005566269624978304, 0.018263431265950203, -0.011260392144322395, -0.008851711638271809, 0.007098275702446699], [3.291439497843385e-05, -1.1904171515197959e-05, 1.9257273379480466e-05, 0.0003156192251481116, -0.0020669070072472095, -0.00014247154467739165, 0.00015598474419675767, -3.659181675175205e-05, -1.0631470104272012e-05, -1.182676169264596e-05, -0.017749713733792305, 1.3002255400351714e-05, 8.700165381014813e-06, -2.5122924398601754e-06, 2.8924227990501095e-06, -0.002645323518663645, -0.03237041085958481, -0.000103534541267436, 1.5663421436329372e-05, -0.00240739225409925, -1.525891275377944e-05, 0.01901618205010891, -8.843428076943383e-05, -5.491586762218503e-06, -5.140083885635249e-06, -0.0003631211584433913, -2.056602170341648e-05, 2.728645768002025e-06, 1.3314765965333208e-05, -2.5533769075991586e-05, 2.7822438823932316e-06, -6.502194537461037e-06, -0.0001654920488363132, 4.925046823700541e-07, -2.9927123250672594e-06, 4.0681778045836836e-05, 0.00011846183042507619, -6.672405288554728e-05, -1.304627062381769e-06, 3.3032667943189153e-06], [0.010112488642334938, -0.06784557551145554, -0.0632157102227211, -0.016806581988930702, 0.31852859258651733, 0.2465497851371765, -0.2909237742424011, -0.023511193692684174, -0.020036380738019943, 0.02373603731393814, 0.5601115822792053, -0.016637107357382774, 0.0034488122910261154, 0.007828837260603905, 0.011175316758453846, 0.42202770709991455, 0.6437460780143738, 0.07587342709302902, -0.08547597378492355, 0.6369642019271851, 0.03301834315061569, -0.387705534696579, 0.14309540390968323, -0.042548902332782745, 0.015089166350662708, 0.23862363398075104, -0.003011241089552641, -0.010851689614355564, -0.007135039195418358, 0.09603625535964966, -0.012992678210139275, -0.024147264659404755, 0.17721006274223328, 0.005009810905903578, -0.0008607361232861876, 0.11583728343248367, -0.03755786642432213, -0.011382189579308033, -0.012585661374032497, 0.0172151867300272], [-0.027261843904852867, -0.01911461539566517, 0.09410245716571808, 0.1330348551273346, 0.4084072709083557, -0.09339764714241028, 0.10376566648483276, 0.018990017473697662, 0.004914629738777876, -0.007891803979873657, -0.1832365095615387, 0.008713114075362682, 0.0003672819584608078, -0.0009368018363602459, 0.0013736317632719874, -0.4401250183582306, 0.06071516126394272, 0.038008756935596466, -0.025950226932764053, 0.03544243425130844, -0.046517886221408844, -0.15176096558570862, 0.005285733845084906, 0.049284763634204865, -0.007185138296335936, 0.11229350417852402, -0.005743717309087515, -0.009532424621284008, 0.0006509138038381934, 0.029261767864227295, -0.003365013049915433, -0.02262602560222149, -0.11754903197288513, 0.000874617078807205, 0.024263406172394753, -0.0002499682304915041, 0.017309511080384254, -0.00410977890715003, -0.004324107896536589, 0.014863872900605202], [0.0001436135935364291, 0.00012710942246485502, 0.001438747625797987, -0.0033348076976835728, -0.006419305223971605, -0.0019129429711028934, 0.0017186577897518873, 0.00018513452960178256, 1.1002214705513325e-05, -4.735593029181473e-05, -0.009689036756753922, 1.4785091480007395e-05, 2.236613909190055e-05, 2.353331001359038e-05, 0.0002703326172195375, 0.0011226459173485637, -0.016524506732821465, 0.0010275180684402585, -0.0008666128269396722, -0.004356196150183678, -0.0006789407343603671, 0.011873768642544746, 0.002553746337071061, -0.0016849173698574305, -9.433994819119107e-06, -0.004258316475898027, -0.00037382624577730894, -0.00021055698744021356, 0.00011557312973309308, -0.0004157004877924919, 3.518766561683151e-06, 0.0032580853439867496, -0.0007563740364275873, 0.0001253732480108738, -0.0017200284637510777, -0.0012176153250038624, -0.0011633193353191018, 0.0012104264460504055, 1.940163019753527e-05, 0.0005969024496152997], [0.05706063285470009, -0.041905324906110764, -0.027520455420017242, -0.04145469143986702, -0.04574372619390488, -0.2841285467147827, 0.0775277391076088, -0.0802832543849945, 0.0024485704489052296, 0.0022491286508738995, 0.009524206630885601, -0.0031704974826425314, -0.0014505035942420363, 0.0018982273759320378, 0.016377247869968414, 0.045532919466495514, -0.08899138867855072, -0.025852713733911514, 0.08429723978042603, -0.04209297522902489, -0.14522862434387207, -0.06647878140211105, -0.07452957332134247, 0.010426630266010761, -0.0016486829845234752, 0.09320064634084702, 0.024914575740695, -0.0032479208894073963, -0.001981025096029043, -0.11575212329626083, 0.0022338032722473145, -0.3235709071159363, 0.009464182890951633, 0.014055365696549416, 0.17022457718849182, 0.0842725858092308, -0.00541387964040041, 0.03200670704245567, 0.0011412625899538398, 0.012130014598369598], [0.010964557528495789, 0.07876790314912796, 0.050922099500894547, 0.049535419791936874, 0.11472275108098984, -0.08670869469642639, 0.06081944331526756, -0.027025191113352776, -0.0018132725963369012, 0.0033487549517303705, 0.02429097145795822, -0.003295140340924263, 0.0020479524973779917, 0.0007049644482322037, 0.006109737791121006, 0.14388404786586761, 0.06058388575911522, 0.0191947091370821, -0.007176271639764309, -0.13212497532367706, -0.0028545507229864597, -0.04683554545044899, -0.03608741983771324, 0.020384203642606735, 0.001997913233935833, -0.09043825417757034, -0.0883820578455925, -0.002595998113974929, -0.002247611992061138, -0.020802831277251244, 0.0005922283162362874, -0.036254607141017914, -0.08912084251642227, 0.0020202761515975, -0.0182458758354187, -0.07375349849462509, -0.02896173857152462, -0.01630697399377823, -2.2775606339564547e-05, 0.0046640378423035145], [0.004633786156773567, 0.05559886246919632, -0.10286782681941986, -0.13056164979934692, 0.10416802018880844, 0.03413666412234306, 0.08974038809537888, -0.07899159938097, -0.013661260716617107, 0.012813148088753223, 0.04576045647263527, -0.011783094145357609, -0.00017781388305593282, 0.005982454866170883, -0.002562838839367032, 0.04908674582839012, -0.08904419094324112, 0.13278046250343323, -0.004924125503748655, -0.0038237159606069326, 0.06540489196777344, 0.09942459315061569, 0.028066100552678108, 0.046854570508003235, 0.013610613532364368, 0.002190396888181567, 0.035048581659793854, -0.008195954374969006, -0.007527206093072891, -0.00451004970818758, 0.0002752850705292076, 0.02825295366346836, 0.11925550550222397, -0.005422154441475868, -0.04744706302881241, 0.044830866158008575, -0.22029457986354828, -0.036242395639419556, 0.0009621024946682155, 0.008287475444376469], [0.007153424900025129, -0.019057776778936386, 0.001314902096055448, -0.006970446556806564, 0.13401657342910767, 0.07375096529722214, -0.06826572865247726, -0.02551191672682762, 0.00065178656950593, 0.005665465723723173, 0.2711150050163269, -0.005608404520899057, -0.001387922209687531, 0.0037288530729711056, 0.01161950919777155, 0.06903062760829926, 0.46705982089042664, 0.007812007330358028, -0.0494326613843441, 0.11581458896398544, 0.011176882311701775, -0.28857675194740295, 0.05208361893892288, 0.02816220186650753, 0.0019232801860198379, 0.07548761367797852, 0.008827458135783672, 0.0002786833210848272, -0.001832913258112967, -0.019117577001452446, 0.0016651683254167438, -0.012042439542710781, 0.004660480655729771, 0.009093943051993847, -0.0008593990933150053, 0.04107748717069626, 0.003007450606673956, -0.008419248275458813, 0.0018647870747372508, -0.0006297202780842781], [1.42725657497067e-05, 6.891561497468501e-06, 5.3424719226313755e-06, 0.000255286053288728, -0.002103368053212762, -0.00018136354628950357, 0.00014717334124725312, -6.338248203974217e-05, -5.854449227626901e-06, -1.192596391774714e-05, -0.017256176099181175, 7.727167940174695e-06, 4.756037924380507e-06, -3.5047298752033385e-06, -1.4079975699132774e-05, -0.002522481605410576, -0.030783023685216904, -7.161832036217675e-05, 2.7448155378806405e-05, -0.0026774646248668432, -8.657877333462238e-05, 0.018429437652230263, -0.0002222144976258278, 9.997589586419053e-06, 1.4920897228876129e-05, -0.000455877830972895, 7.789192750351503e-06, -1.4070466249904712e-06, 1.8557026123744436e-05, 3.705739072756842e-05, 9.160598892776761e-06, -0.00016682312707416713, -0.00020445727568585426, 3.951705878080247e-07, -6.162430508993566e-05, -8.15694365883246e-05, 0.00014444318367168307, -6.940093589946628e-05, -1.1228094081161544e-05, -2.551878708345612e-07], [-0.0020751201082021, -0.0027709996793419123, 0.008548663929104805, -0.015664514154195786, -0.026046976447105408, -0.010936718434095383, -0.01414837408810854, 0.009146991185843945, -0.00020136819512117654, -3.0801915272604674e-05, -0.038003452122211456, 0.00010434663272462785, 0.00022886205988470465, -0.0003056751738768071, -0.00022569354041479528, -0.008515235036611557, -0.03806149959564209, 0.010285945609211922, -0.002539913635700941, 0.009444842115044594, 0.007299559656530619, 0.015848902985453606, 0.002056211931630969, -0.010221079923212528, 0.00012167746899649501, -0.009811684489250183, 0.003709140233695507, -0.0015893842792138457, 0.00031530761043541133, 0.002748469589278102, -0.00016544376558158547, -0.003227112116292119, -0.0037030393723398447, -0.0010817975271493196, 0.0050452533178031445, -0.0035714071709662676, 0.0050184233114123344, 6.612818833673373e-05, -0.0002438932133372873, 0.0006004603928886354], [0.005368681624531746, 0.1209377869963646, -0.06996021419763565, -0.20517948269844055, -0.021049369126558304, -0.03735702112317085, 0.13786599040031433, -0.008329521864652634, -0.0016094932798296213, 0.007335117552429438, 0.13107812404632568, -0.011329391039907932, -0.0027056909166276455, 0.004156430251896381, 0.025476986542344093, -0.05325370654463768, 0.006054763216525316, 0.03852049261331558, 0.01128474809229374, -0.032141588628292084, -0.14038999378681183, 0.11892592161893845, 0.21036547422409058, -0.0875912606716156, 0.00449348334223032, -0.018595844507217407, 0.040260616689920425, -0.0817682221531868, -0.006275702267885208, -0.13056297600269318, 0.010018741711974144, -0.023295678198337555, 0.08243046700954437, 0.007860468700528145, -0.04386365786194801, 0.1896219402551651, 0.07976964861154556, 0.13497686386108398, 0.008246254175901413, 0.08895926177501678], [-0.027672352269291878, -0.5204020142555237, -0.18908847868442535, -0.0757809653878212, -0.1802798956632614, -0.16906681656837463, 0.24006378650665283, -0.448995977640152, 0.002408132655546069, -0.0038288873620331287, 0.006110245827585459, 0.004478378687053919, -0.0008606740739196539, -0.0005178497522138059, -0.015552801080048084, -0.2021154910326004, 0.15424390137195587, -0.38570210337638855, -0.04302051663398743, 0.019096774980425835, 0.14576782286167145, -0.050246987491846085, -0.28382357954978943, -0.18771867454051971, -0.002908913651481271, 0.16607823967933655, -0.07733120024204254, -0.07011886686086655, -0.00023217630223371089, -0.07319620996713638, 0.0025189488660544157, -0.15664848685264587, 0.19421985745429993, -0.03244435042142868, -0.07024931162595749, -0.04006774351000786, 0.06325165182352066, -0.1477501541376114, -0.0014021466486155987, 0.1444391906261444], [0.04628519341349602, -0.016936758533120155, 0.33149951696395874, 0.02028268575668335, 0.11791326850652695, -0.1397998034954071, -0.1628292053937912, 0.21091744303703308, 0.006365310400724411, -0.0041737924329936504, 0.023838112130761147, 0.0006398945115506649, -0.003650610102340579, 0.005672750528901815, 0.020562076941132545, 0.11699366569519043, -0.1044905036687851, 0.034169599413871765, -0.17017444968223572, -0.11734597384929657, 0.1400088220834732, -0.07062408328056335, 0.06142754107713699, -0.006211427506059408, 0.00010649953037500381, 0.11742395907640457, 0.06988237053155899, -0.0062644570134580135, 0.0008555280510336161, -0.07044950127601624, 0.0052771372720599174, -0.16486090421676636, -0.006327788345515728, 0.0074943131767213345, 0.09750410914421082, -0.3361837565898895, 0.02584497630596161, 0.012739831581711769, 0.0041185179725289345, 0.010523627512156963], [0.07193378359079361, 0.5629242658615112, -0.03475626930594444, 0.6034453511238098, 1.8170756101608276, -0.4504316449165344, 0.2859709858894348, 0.636780321598053, -0.005577700678259134, 0.010863104835152626, -0.4613005220890045, -0.008199943229556084, -0.0010862159542739391, 0.002721332246437669, -0.10184590518474579, -2.220782995223999, -0.1624777466058731, -0.3486773371696472, 0.1433790922164917, 0.49205848574638367, -0.17445115745067596, -0.243429034948349, -0.023115862160921097, 0.48362720012664795, 0.003003541147336364, 0.4515509605407715, -0.057692427188158035, 0.2950443923473358, -0.00335818063467741, 0.0059492699801921844, -0.0076056369580328465, -0.38725075125694275, 0.12374411523342133, 0.042285509407520294, 0.11799746006727219, -0.8918510675430298, -0.2875351309776306, -0.35763004422187805, 0.0021470864303410053, -0.35063204169273376], [0.03311417996883392, -0.03177905082702637, 0.12709982693195343, 0.041400808840990067, -0.03505009412765503, -0.3997235894203186, 0.0539456382393837, -0.12088263034820557, -0.0017791169229894876, 0.0005574331735260785, -0.2508465647697449, -0.004406409803777933, -0.002638566307723522, 0.0008686404908075929, 0.04971335828304291, -0.22102059423923492, -0.2023177295923233, 0.028482729569077492, 0.05465427041053772, -0.10508037358522415, 0.33501529693603516, -0.24484814703464508, -0.17397728562355042, 0.06327935308218002, 0.004912778735160828, -0.2024558186531067, -0.13911932706832886, -0.019856829196214676, -0.00011896219075424597, 0.03885845094919205, 0.0027800151146948338, -0.6457046866416931, 0.029046764597296715, 0.042888469994068146, 0.4201810657978058, -0.3767147958278656, -0.08876164257526398, 0.08205841481685638, 0.002298073610290885, 0.0322878323495388], [-0.06674171984195709, 0.10603302717208862, -0.05196704715490341, 0.0431349091231823, 0.3248344957828522, 0.3470974862575531, -0.010060004889965057, 0.09490589797496796, -0.0019502865616232157, -0.004476664122194052, -0.09550762921571732, 0.002728173043578863, 0.002310890471562743, -0.0037169393617659807, -0.06109403818845749, -0.25574296712875366, 0.09217611700296402, 0.0722193568944931, 0.1493692845106125, 0.1323874443769455, 0.3396083116531372, 0.10457504540681839, 0.025366662070155144, 0.04045921564102173, 0.0004911802243441343, 0.07362490147352219, -0.2978813350200653, -0.04976359382271767, 0.0036419203970581293, 0.15955287218093872, -0.0029427374247461557, -0.010518576018512249, 0.027338208630681038, -0.07561986148357391, 0.022446753457188606, -0.23957815766334534, 0.0012289336882531643, -0.09822995960712433, -0.003077560802921653, 0.030510935932397842], [-0.020273059606552124, -0.1287706345319748, 0.11039908230304718, 0.10327529162168503, 0.05601809546351433, -0.19550001621246338, 0.12215057015419006, -0.12252208590507507, 0.002023298991844058, -0.0023356734309345484, -0.013767835684120655, 0.0024476083926856518, -0.001367009012028575, -0.0013346116757020354, 0.017326144501566887, -0.10277021676301956, -0.042244892567396164, -0.14213421940803528, -0.004895446822047234, -0.23133732378482819, -0.056300628930330276, 0.1135004535317421, 0.14617812633514404, 0.23635321855545044, -0.0024451017379760742, -0.07753940671682358, 0.11230143159627914, -0.01869668997824192, 0.0028853625990450382, -0.06747514009475708, -0.0019316753605380654, 0.04776732623577118, -0.33658117055892944, -0.009331375360488892, -0.03637910261750221, 0.2829406261444092, 0.10611876845359802, 0.060426075011491776, -0.0021817446686327457, -0.002207841956987977], [0.06278815865516663, 0.0743897557258606, -0.16704769432544708, 0.13683243095874786, 0.16021130979061127, -0.26739272475242615, -0.29557421803474426, -0.28285250067710876, 0.0005188776995055377, 0.00033710815478116274, 0.08321690559387207, 0.00024389786995016038, -0.0012580381007865071, -0.00033817937946878374, 0.037985172122716904, 0.10934574156999588, -0.130131334066391, 0.6161441206932068, -0.18487752974033356, -0.030500931665301323, 0.30002638697624207, -0.16664622724056244, -0.44937434792518616, 0.07157368212938309, -0.002262128284201026, -0.2866564691066742, 0.012172404676675797, 0.0032925407867878675, 0.0017167585901916027, 0.07071144878864288, -0.005355647299438715, -0.32532835006713867, 0.02416236139833927, -0.02596842125058174, 0.05285566672682762, 0.40285637974739075, 0.11169684678316116, -0.07265355437994003, -0.004988410510122776, -0.11222438514232635], [0.0023838994093239307, -3.315267167636193e-05, -0.002600628649815917, 0.002936811186373234, 0.002008634153753519, 0.00013879242760594934, 0.0015251139411702752, -0.0021337317302823067, -0.03657720237970352, 0.017037341371178627, 0.0017262483015656471, -0.005475994199514389, 0.003015186870470643, 0.003000278025865555, 0.0007747177151031792, 0.0018435069359838963, 0.00022537269978784025, -0.0019271059427410364, 0.004937001504004002, -0.0025903128553181887, -0.014843378216028214, -3.99334603571333e-05, -0.0018396534724161029, 0.0021265088580548763, 0.028272317722439766, 0.0011305843945592642, -0.008940272964537144, 0.005276548210531473, -0.001546754501760006, -0.007652187719941139, -0.0265362448990345, 0.009568149223923683, 0.0007124507683329284, -9.205588867189363e-05, -0.0038660308346152306, 0.0022320651914924383, -0.0011064483551308513, 0.0022158704232424498, -0.025178778916597366, -0.001027346821501851], [0.0006351824849843979, -0.0008358616032637656, -0.004168104380369186, -0.003064959542825818, -0.002734007081016898, -0.0026733572594821453, -0.0029386430978775024, 0.003124196082353592, 0.04455201327800751, -0.04163554683327675, 0.0015220112400129437, 0.0340251550078392, -0.0013741983566433191, -0.005431483965367079, 0.002036475343629718, -0.0025674430653452873, -0.0037459172308444977, 0.006342761684209108, -0.014192458242177963, 0.004515499342232943, 0.018404897302389145, 0.002835557097569108, 0.018271205946803093, -0.007898756302893162, -0.04555775225162506, -0.0022019091993570328, 0.014929084107279778, -0.01065379660576582, 0.010324608534574509, 0.0011509638279676437, 0.014637489803135395, -0.010844302363693714, 0.0051252590492367744, 0.00039545539766550064, -0.0015384263824671507, -0.0007013860740698874, 0.006453493144363165, -0.006570873316377401, 0.009182465262711048, 0.0025035873986780643], [-0.011101565323770046, -0.005996264051645994, -0.3002443313598633, -0.0466931127011776, -0.11755820363759995, 0.538861870765686, -0.08185950666666031, -0.12358582019805908, 0.0024551202077418566, 7.383532647509128e-05, 0.17996764183044434, -0.0012632346479222178, -0.00019061416969634593, 0.002035940997302532, -0.015058137476444244, -0.09140660613775253, 0.2610044479370117, 0.032312437891960144, -0.06741046905517578, 0.0942206159234047, -0.11302883177995682, 0.1404389888048172, 0.18527372181415558, 0.07582489401102066, 9.90584958344698e-05, -0.2166430652141571, 0.09252740442752838, -0.04243427887558937, 0.0014844787074252963, -0.18330132961273193, 0.0026984428986907005, 0.41343796253204346, 0.05311013013124466, -0.016249436885118484, -0.2549087405204773, 0.17485181987285614, 0.11934920400381088, 0.07136809825897217, 0.0025129152927547693, 0.04317929223179817], [-0.0003054075932595879, 0.004263538401573896, 0.005544014275074005, 0.0007669887854717672, 0.005004396662116051, -0.0025384826585650444, 0.0038204181473702192, -0.0016417071456089616, -0.03996134549379349, 0.044699329882860184, -0.002124706283211708, -0.04088263958692551, -0.0004098678473383188, 0.00740049546584487, -0.002156696515157819, 0.0010917906183749437, 0.0018191405106335878, -0.003736986545845866, 0.012010391801595688, -0.006425219122320414, -0.01733614131808281, -0.0002890183823183179, -0.021974027156829834, 0.008100306615233421, 0.044078122824430466, 0.0034653539769351482, -0.01637980528175831, 0.008573333732783794, -0.00977415218949318, 0.0019993928726762533, -0.008468789979815483, 0.012629547156393528, -0.0020922597032040358, -0.0005349207785911858, 0.0008122801664285362, -0.0018499662401154637, -0.004091133829206228, 0.008094782941043377, -0.003473858814686537, -0.0016680880216881633], [0.0011468103621155024, 0.0017227927455678582, 0.00032484286930412054, 0.0008621647139079869, 0.002338248770684004, -0.002441307995468378, 0.00020147643226664513, 0.0005970235215499997, 0.0007374284905381501, 0.005969187710434198, -0.00021747403661720455, -0.006475047208368778, -0.005471732933074236, 0.0030687570106238127, -0.0008954575168900192, 0.000889943796209991, 0.0014677777653560042, -0.00027993039111606777, 0.00187929708044976, -0.0006464723264798522, 0.004095594398677349, 0.0017877124482765794, -0.005010617431253195, -0.0009141107439063489, 0.0007366552599705756, -7.90205376688391e-05, 0.00032761573675088584, 0.0022291564382612705, -0.004406709689646959, -0.0015622311038896441, 0.003830167930573225, 0.00199135416187346, 0.0012732924660667777, -3.991487028542906e-05, 0.0006651206058450043, 0.0007431155536323786, -0.0007904030499048531, 0.003335561603307724, 0.004562022630125284, -0.0029070249292999506], [0.0009006894542835653, -0.002021350199356675, 0.000583522894885391, -0.0020753329154103994, -0.002156083704903722, -1.7083106286008842e-05, -0.003004572121426463, 0.0016677144449204206, 0.0032364842481911182, -0.007386836223304272, 0.0007798014557920396, 0.005567565094679594, 0.0014577736146748066, -0.008603316731750965, 5.8797326346393675e-05, -0.0005185185582377017, -0.0004893890582025051, 0.004259184468537569, -0.002886686008423567, 0.0007791634416207671, -0.005568031221628189, 0.0007891847053542733, 0.005720582325011492, 0.00032776989974081516, -0.007640681695193052, 0.00024881470017135143, 0.00020529776520561427, -0.0031188444700092077, 0.004187603481113911, 0.001362800830975175, 0.00010393948468845338, -0.0048192935064435005, 0.00043291636393405497, 0.0005514424410648644, -0.0002825374831445515, 0.0014481907710433006, 0.002222964307293296, -0.0010969954309985042, -0.000718672527000308, 0.002077797893434763], [-0.008883717469871044, -0.057856108993291855, 0.06158881261944771, 0.0622280053794384, -0.05824839323759079, -0.054548103362321854, -0.005826571490615606, -0.09887419641017914, 0.008464762941002846, -0.012286375276744366, -0.1051558256149292, 0.01157601922750473, -0.0010110926814377308, -0.0021821605041623116, -0.013463258743286133, 0.03230723366141319, -0.013118939474225044, -0.05934227630496025, -0.05576147511601448, 0.05167676880955696, 0.029046224430203438, 0.13512377440929413, 0.004911750555038452, 0.02656751126050949, -0.009618347510695457, 0.02321065589785576, 0.010963055305182934, 0.0061347596347332, 0.0033139914739876986, 0.008565177209675312, -0.003388504032045603, 0.01829843409359455, -0.05093821510672569, -0.009884222410619259, 0.017855169251561165, -0.056143660098314285, -0.07871246337890625, 0.018962647765874863, -0.0029871559236198664, -0.007619793061167002], [0.2870473563671112, -0.012162739410996437, 0.08188565075397491, 0.07751656323671341, -0.23681142926216125, 0.2838035821914673, -0.03755294904112816, -0.08947806805372238, -9.173882426694036e-05, 0.0019418351585045457, 0.4240218698978424, -0.002644017105922103, -0.001866501639597118, 0.0022909443359822035, -0.07339649647474289, 0.08294683694839478, 0.09321772307157516, -0.0451439693570137, 0.301127165555954, -0.45191124081611633, -0.1908757984638214, 0.364143043756485, -0.014016266912221909, 0.17356476187705994, -0.0003687483840622008, -0.3022777736186981, 0.05600999295711517, 0.11922524869441986, -0.0018249450949952006, -0.34522250294685364, -0.002000511158257723, 0.6594219207763672, 0.032215725630521774, -0.020735211670398712, -0.21628299355506897, 0.40028226375579834, 0.0501737967133522, 0.028236795216798782, 0.001671334495767951, -0.14164522290229797], [-0.07683420926332474, 0.009633278474211693, -0.0798964649438858, 0.049193743616342545, 0.05315185710787773, 0.29896223545074463, 0.014511334709823132, -0.05858791247010231, -0.013721932657063007, 0.006191502325236797, -0.03810671344399452, -0.007719848304986954, -0.0024176761507987976, 0.004901587963104248, 0.0073698353953659534, 0.02692524902522564, 0.25300654768943787, -0.011166851036250591, -0.030774245038628578, 0.13122984766960144, 0.12560239434242249, -0.15346133708953857, 0.02824154682457447, 0.08834294974803925, 0.013865706510841846, 0.036801740527153015, -0.02676837518811226, -0.028824888169765472, 0.0003025030891876668, 0.08742166310548782, -0.008860782720148563, 0.3663352429866791, 0.0081251859664917, -0.007356685120612383, 0.017786039039492607, -0.03940997272729874, -0.02062760666012764, -0.05475359037518501, -0.006627075374126434, 0.016403984278440475], [0.1603945940732956, 0.41612228751182556, -0.026084082201123238, 0.18885737657546997, 0.1267356127500534, 0.05582032352685928, -0.09035619348287582, -0.8085058927536011, 0.004731400869786739, -0.008964034728705883, 0.05919603258371353, 0.0073073431849479675, 0.002194266067817807, -0.0011518063256517053, 0.005105160642415285, 0.0573732852935791, -0.050684113055467606, 0.08047141134738922, -0.004281102679669857, -0.09767743945121765, -0.1715218722820282, -0.09581831842660904, 0.4129827320575714, -0.20090360939502716, -0.004836413078010082, 0.09565611183643341, -0.11585551500320435, -0.22721149027347565, -0.0002683809434529394, 0.07084480673074722, 0.005178376100957394, -0.28220123052597046, 0.05271316319704056, -0.021784747019410133, -0.0794491171836853, -0.35083675384521484, -0.6228799223899841, 0.34618085622787476, -0.002498114947229624, 0.38388997316360474], [-0.215711772441864, 0.32785430550575256, -0.010740074329078197, -0.5786231756210327, -0.1568259298801422, -0.07148265838623047, -0.07625261694192886, 0.07057520002126694, -0.0009974531130865216, -0.003857322270050645, 0.04188030958175659, 0.0034244696144014597, 0.0001928336132550612, -0.0009000967838801444, 0.04001731052994728, 0.1612817794084549, 0.0812644436955452, -0.273719847202301, 0.7859605550765991, -0.08342321217060089, 0.004592581186443567, 0.04098999500274658, -0.6348763108253479, -0.171438068151474, 0.0013766724150627851, 0.01990627497434616, -0.11064127832651138, -0.10662408173084259, 0.0009966957150027156, -0.09515304863452911, -3.8232839870033786e-05, 0.1730145364999771, -0.07290314882993698, -0.03204531595110893, 0.028443438932299614, 0.007159637752920389, -0.3398257791996002, -0.13553695380687714, -0.003015069989487529, 0.13115347921848297], [-0.08602878451347351, 0.0168516393750906, 0.13696998357772827, 0.0005921685369685292, 0.4400438368320465, -0.29138776659965515, -0.13829362392425537, 0.08524633944034576, 0.007908063940703869, -0.002587636699900031, -0.21730591356754303, -0.0036540518049150705, -0.0024694150779396296, 0.002396776108071208, 0.04974211007356644, -0.2363949567079544, -0.028346365317702293, 0.06680747866630554, -0.1726987659931183, 0.008757376112043858, 0.07973462343215942, -0.24613001942634583, -0.003270661924034357, -0.091863714158535, -0.004069252870976925, 0.19602039456367493, -0.12511283159255981, -0.015433993190526962, 0.0010765996994450688, 0.17361295223236084, 0.009175119921565056, -0.2968144416809082, -0.03477820008993149, 0.019296741113066673, 0.1881980448961258, -0.1772104948759079, 0.03916604816913605, -0.048334795981645584, 0.008107470348477364, 0.01734722964465618], [-0.1005995124578476, 0.18182361125946045, -0.056449659168720245, 0.5405771732330322, 0.21082186698913574, -0.31710585951805115, 0.04360933601856232, 0.14436128735542297, -0.0012391251511871815, -0.0022371483501046896, -0.13903768360614777, 0.0014054205967113376, 0.0014094903599470854, -0.0008651863317936659, -0.0015371569897979498, -0.27733471989631653, 0.12098464369773865, -0.21381579339504242, -0.46788597106933594, -0.004503939300775528, 0.6951380372047424, -0.0018646009266376495, -0.20913074910640717, -0.013489522971212864, 0.0015061870217323303, 0.08913811296224594, 0.46431881189346313, -0.030950801447033882, 0.0017300763865932822, -0.16578884422779083, -0.0013446134980767965, -0.028579620644450188, 0.2227448970079422, -0.02578483708202839, -0.01648625358939171, 0.0711108073592186, -0.330127090215683, -0.14304648339748383, -0.0013490976998582482, 0.04342636093497276], [-0.19798731803894043, 0.004670544061809778, 0.09850278496742249, 0.043616294860839844, 0.09295353293418884, 0.4718029201030731, -0.13184626400470734, -0.08657205104827881, -0.003371589817106724, -0.0029444501269608736, -0.1042039543390274, 0.0012131272815167904, 0.0005004713893868029, 0.0011017888318747282, 0.009547902271151543, -0.1278039813041687, -0.12213294208049774, -0.05358926206827164, -0.061913713812828064, 0.0652652159333229, 0.1051078513264656, 0.16253919899463654, 0.01844603754580021, 0.165629580616951, 0.0039037808310240507, -0.1342986822128296, -0.1506170928478241, -0.029303455725312233, 0.0029085841961205006, 0.2134697586297989, -0.0015555532881990075, 0.7087845802307129, -0.26995787024497986, -0.012206882238388062, -0.03486902266740799, -0.17317244410514832, -0.04143223166465759, 0.026506712660193443, -0.0010168720036745071, 0.024797962978482246], [-0.024935392662882805, 0.13971778750419617, 0.05963366851210594, 0.10924670100212097, 0.21840615570545197, 0.1536947339773178, -0.06491724401712418, -0.023509051650762558, 0.005119779612869024, 0.0013213352067396045, -0.09937184303998947, -0.0008026868454180658, -0.0020466360729187727, 0.0023287099320441484, 0.01984851062297821, 0.017361633479595184, -0.09147191047668457, 0.08278106898069382, 0.8758864998817444, 0.02959693968296051, 0.3938278257846832, -0.09833897650241852, 0.5207626819610596, -0.026393650099635124, -0.0023475296329706907, 0.11669459193944931, 0.14311759173870087, 0.003722922643646598, -0.00022237868688534945, 0.06697356700897217, 0.0012742814142256975, -0.169345885515213, -0.09584560990333557, 0.0026766150258481503, -0.02858801931142807, -0.2523837685585022, 0.06856490671634674, -0.06544855237007141, 0.0012611298589035869, -0.014467128552496433], [-0.033964697271585464, 0.09213542938232422, 0.012440679594874382, -0.23118244111537933, 0.105246402323246, 0.10069435089826584, 0.08496551960706711, -0.26569387316703796, -0.000993996625766158, 0.0036676842719316483, -0.23529788851737976, -0.0021494256798177958, -4.205320146866143e-05, 0.00031611547456122935, 0.037622835487127304, -0.22295036911964417, 0.06410524994134903, 0.09869781136512756, 0.19066067039966583, 0.018595879897475243, -0.07352329045534134, 0.17356273531913757, 0.040638796985149384, 0.15669706463813782, 0.0016382441390305758, 0.08974961191415787, -0.12915755808353424, -0.09302540123462677, -0.0029686754569411278, 0.04196130856871605, -0.001498319790698588, 0.0571061372756958, -0.1903943568468094, -0.004243811592459679, -0.016244208440184593, 0.1863938421010971, -0.016590693965554237, 0.06569936871528625, -0.00014327159442473203, 0.1182299330830574], [-0.0023880493827164173, -0.003022068412974477, -0.0011683986522257328, -0.0009606792591512203, -0.002567507326602936, 0.0036665780935436487, -0.0030512716621160507, 0.0019654235802590847, 0.04011714458465576, -0.02878287248313427, -0.0018691931618377566, 0.018276356160640717, -0.0026359574403613806, -0.007198828272521496, -0.0004793668631464243, -2.298442632309161e-05, 0.0014923947164788842, 0.000581870845053345, -0.0016713044606149197, 0.0030814255587756634, 0.019381314516067505, 5.59491163585335e-05, 0.01002372708171606, -0.0057166689075529575, -0.03676459193229675, -0.001481059705838561, 0.01193582359701395, -0.007063510362058878, 0.0028446167707443237, 0.005355230066925287, 0.020736832171678543, -0.01123654842376709, -0.0010695018572732806, 0.00016890768893063068, 0.002101308200508356, -0.0037158692721277475, 0.00017416462651453912, -0.004652469884604216, 0.015972819179296494, 0.0013571938034147024], [-0.08495526015758514, 0.021234765648841858, -0.00022437925508711487, -0.0018898972775787115, 0.2293095886707306, -0.14223331212997437, 0.05970517545938492, 0.31769201159477234, 0.006641020532697439, -0.008074503391981125, -0.10725078731775284, 0.01698444038629532, 0.0031275982037186623, -0.0035193932708352804, 0.01613839715719223, -0.05852924659848213, -0.14738325774669647, 0.023150531575083733, 0.06044914573431015, -0.1967359036207199, 0.020416252315044403, -0.1336437314748764, -0.06905388087034225, -0.12568269670009613, -0.013441825285553932, 0.1387053281068802, 0.012463859282433987, 0.0011449276935309172, 0.00035793340066447854, 0.13511942327022552, -0.0037562416400760412, -0.41661185026168823, -0.0032757907174527645, 0.0022598006762564182, 0.15248480439186096, 0.0640256479382515, 0.06465297937393188, 0.08397504687309265, -0.005176930222660303, -0.011670009233057499], [-0.11478843539953232, 0.05137905851006508, 0.07259733229875565, 0.10743270814418793, -0.16709834337234497, 0.40741536021232605, -0.08660687506198883, -0.09814941138029099, -0.006173001602292061, 0.001268315827473998, 0.10102365165948868, -0.0011486259754747152, -0.00020084735297132283, -0.00024571234825998545, 0.01241991575807333, 0.05171678215265274, 0.09678175300359726, 0.05255822092294693, 0.30493855476379395, -0.036567144095897675, 0.08660820126533508, 0.0810374915599823, 